0,1,2,3,4,5,6,7,8,9,10,11,12,13,14,15,16,17,18,19,20,21,22,23,24,25,26,27,28,29,30,31,32,33,34,35,36,37,38,39,40,41,42,43,44,45,46,47,48,49,50,51,52,53,54,55,56,57,58,59,60,61,62,63,64,65,66,67,68,69,70,71,72,73,74,75,76,77,78,79,80,81,82,83,84,85,86,87,88,89,90,91,92,93,94,95,96,97,98,99,100,101,102,103,104,105,106,107,108,109,110,111,112,113,114,115,116,117,118,119,120,121,122,123,124,125,126,127
-0.07586171,-0.12235393,-0.0013218882,-0.1399541,-0.05590912,-0.16545665,-0.040203594,0.035555292,-0.25539416,0.03328306,-0.16364788,-0.08783061,0.049562644,0.17437941,-0.28022107,0.0632809,0.014628009,0.16431908,-0.1422636,-0.29594392,0.018679552,-0.30408075,0.04949002,-0.087520294,-0.050634462,0.112419546,0.08548763,0.18916853,-0.048148736,0.0048264,-0.007639754,-0.0072981473,0.028314594,0.22432162,-0.05763104,0.024445945,-0.11115976,-0.0741233,0.11937194,-0.29938522,-0.108301595,0.06688838,0.028834477,0.017304994,0.038146146,0.064775534,0.09734035,-0.0623993,-0.09975578,0.17272356,-0.12520877,-0.015523809,0.18094717,-0.085666776,0.016382832,0.028183177,-0.15166958,-0.2402199,-0.071286485,-0.08523352,-0.014663598,-0.20481047,-0.07617438,0.039591577,-0.060030527,0.09963669,0.02628365,-0.09331082,-0.0094113415,0.04562529,0.12696189,0.17398356,0.101187535,0.11883695,-0.0056704585,0.065283194,-0.1279469,0.0003407242,-0.17828245,0.18072848,-0.07295083,0.047529016,-0.09809235,-0.4121828,-0.08723799,-0.01695276,-0.18942034,-0.20818138,-0.027061202,-0.12817585,-0.0851634,0.0120098535,0.10547923,-0.27323583,-0.017177835,-0.003522068,0.06328719,0.15221977,0.05486017,-0.3055656,-0.05961626,-0.21704993,-0.011201004,0.44021326,0.12820901,-0.1425667,-0.19940408,-0.017117005,0.09275096,0.061609946,0.039831806,0.023497606,-0.13829786,0.15122922,0.02919651,-0.07145981,-0.036753416,-0.05014466,-0.11855039,-0.014542282,0.105902754,-0.22292987,0.059376217,-0.29009822,0.073977575,-0.00029317668,-0.012086912,0.062141616
0.11678384,-0.052664377,0.09808431,-0.094419725,-0.070459686,-0.061264683,-0.059973925,0.097628795,-0.00865313,-0.30895704,-0.058765363,-0.014914848,0.066468894,-0.042967875,-0.059232373,0.015706493,-0.023164755,-0.11389892,0.059603788,0.030663123,-0.094904974,0.0121509805,0.07738169,-0.03268676,-0.16559087,-0.012854171,0.1096015,-0.005293791,0.004410153,-0.020457478,-0.019271454,-0.047231704,0.03023526,0.15495187,0.128164,0.048665106,-0.07076764,0.0278423,-0.17399524,-0.053939786,0.09701781,-0.0179808,-0.06339311,0.077553585,-0.0028274646,0.02453004,-0.07283156,0.097456336,-0.08240698,0.010359313,-0.057617426,-0.037628587,-0.07984999,-0.04389973,-0.21014096,-0.027991422,-0.0061322255,-0.06982713,-0.00719288,0.05771784,-0.051924687,0.093817316,0.12085193,-0.03199724,0.019684039,-0.15661633,0.002438095,-0.006782359,-0.12856376,0.084123336,0.0067796176,-0.07278643,0.042865742,0.0134875,0.015874678,-0.12156388,0.027904544,0.022771336,-0.013463874,0.0013100468,0.032993756,0.054693475,-0.0036553978,0.049680587,-0.014746717,-0.10003516,-0.06382397,0.06123634,0.0011230588,0.030677047,0.069464944,0.020301424,-0.021020357,-0.047690544,0.001605117,0.012896808,0.01848307,-0.077519424,-0.073017955,-0.0042068074,-0.03747523,-0.06958978,0.017337453,-0.09727594,-0.05673261,-0.064478636,-0.0035109734,0.061841644,-0.114234574,-0.10673559,0.054903686,0.032098606,0.057309132,-0.06627663,-0.024783202,0.06946043,0.029065687,0.057899926,0.026398964,-0.114453696,-0.13323791,-0.025786484,-0.05472843,-0.060800742,-0.29215568,-0.18195678,0.039230358,0.03348145
0.082914196,-0.016506407,-0.09501363,0.16136727,-0.096655615,-0.14822999,0.0979476,-0.021833466,0.041084226,-0.034599,-0.097897455,-0.17725562,-0.11945606,-0.19316421,-0.06949755,0.09172507,-0.14230698,-0.007841974,-0.47117323,-0.3231697,-0.257149,-0.22441871,-0.3999171,0.027862616,0.021500004,0.041069206,-0.021349192,0.21140534,-0.010138405,-0.27545324,-0.5112171,0.008342447,-0.12592456,0.10956474,-0.07711293,0.033927504,-0.09394274,-0.035708282,0.21681172,-0.0036265545,-0.2711107,-0.008875091,-0.21595028,0.14769855,-0.020726414,-0.023401946,0.0794983,-0.03973741,-0.16072902,-0.04214811,-0.16517045,-0.1119385,-0.07070398,-0.07696059,-0.20699672,0.080191284,0.030948741,-0.20748512,-0.01559675,-0.035801318,0.20310108,-0.22657357,-0.16149145,0.0258765,-0.020235747,-0.05985959,-0.070834994,-0.14673623,-0.067353666,0.101296365,0.08875556,0.026374238,-0.20644666,-0.34225786,-0.1436335,-0.45728466,-0.40720716,-0.21220672,-0.3698186,-0.05384863,-0.08710272,0.06492711,0.23761857,-0.05545585,-0.0913638,0.047520664,-0.18207277,-0.087650694,-0.3208291,-0.12134404,0.106052294,-0.26600873,0.074080974,-0.17918347,-0.23079336,-0.0052782916,-0.061749496,-0.12902828,0.004350934,0.023390165,-0.021701638,0.09414608,0.00023658948,-0.19710228,0.18999018,-0.20709068,0.11755638,0.012059666,-0.16654879,0.07402159,0.050044186,-0.08463263,-0.13023657,0.03578661,0.20129243,-0.18070246,0.22963852,0.13637348,-0.035893913,0.03730839,-0.17982413,-0.23721538,-0.04913822,0.07933458,0.15114704,0.23957272,-0.017170118,-0.0737022
-0.0597814,-0.29052287,-0.12096297,0.16686864,-0.123627655,-0.062618576,0.06188982,0.022589363,0.098936975,-0.11892854,-0.0642219,-0.37726763,0.038284484,-0.057486705,-0.09930463,0.070960194,0.03812088,0.10958316,0.16062327,0.006323644,-0.0016478411,-0.28991285,-0.19184823,-0.31362826,-0.12348862,-0.1869636,-0.19139774,-0.10077783,-0.05689336,0.06323518,0.13891432,-0.25219056,-0.10700104,0.3052696,-0.1510436,0.13838707,0.03048222,-0.27575794,-0.28146815,-0.27471453,-0.18315074,-0.050056946,-0.23350924,-0.022024177,-0.046892248,0.025173288,0.04456039,0.0023337505,0.08594957,-0.059765156,0.15540992,-0.21855211,-0.4000976,-0.037766445,-0.25371125,0.272264,0.098964915,0.035586573,0.09000591,-0.06417099,0.052999455,-0.10725322,-0.093506984,-0.045164395,0.16597062,-0.27930677,-0.108266965,-0.036958292,-0.1221908,-0.0013552846,0.039027352,0.092356645,-0.11574923,-0.0035284339,0.21243145,0.1109508,0.13870692,-0.18878108,0.106717244,-0.006612025,-0.039782315,-0.10351958,-0.22651775,0.07900884,0.16890094,-0.1338692,-0.09392843,-0.18088584,-0.16154683,0.039313436,0.06168914,0.14494275,-0.29709625,-0.0527325,-0.14377959,-0.1254743,-0.14053775,0.061581936,-0.25733027,-0.21131395,-0.30305865,0.0020612276,-0.037222683,0.1247859,0.047967058,-0.33326852,-0.20295668,-0.03908869,0.051832158,0.12510207,-0.3543937,-0.02406925,-0.2533611,-0.18829548,-0.05256421,-0.0346231,0.15241726,-0.042669058,-0.16308145,0.11966176,-0.16068117,-0.0625832,-0.0023915113,-0.12997039,0.2386547,-0.014612754,-0.08748159,-0.10992354
-0.03329404,-0.05101359,-0.033000376,0.03513557,0.0037345968,0.075854145,-0.081101574,-0.2859429,-0.06340374,-0.21396008,0.0538882,-0.002834069,-0.18632057,-0.15071025,-0.16449517,0.016304718,0.07034693,-0.053353954,-0.20506576,-0.23332845,0.029618263,0.23256144,-0.08760807,0.12907322,-0.0270333,0.072087236,0.023608224,0.05399173,0.14914206,-0.36109993,-0.09332173,0.14644821,-0.09862629,0.11509247,-0.006934046,0.06874051,0.18777674,-0.1540638,-0.105919406,0.12962697,-0.30767393,0.07893345,-0.26084682,0.11894932,-0.054583207,-0.118097365,0.1416738,0.067034766,-0.19563359,0.09547416,0.09668583,0.035042908,-0.13807221,0.11544788,0.21482143,0.017626742,0.017496182,-0.033310518,-0.19644056,-0.046400428,0.096688196,0.058997784,0.0919279,0.08143407,0.06895727,0.08751837,-0.12560427,-0.14934866,-0.15064684,-0.087810345,-0.21180247,0.0037434504,-0.1507517,-0.13494988,-0.008936782,0.018498141,0.12604299,0.05179532,-0.3061438,-0.1991863,0.025947858,0.06318757,-0.15964831,0.069538005,0.084476866,0.10785708,-0.01706737,0.056340273,0.060176086,0.049393367,-0.00989177,0.047650043,0.069807746,-0.13693611,-0.0736544,-0.018749483,0.005848993,-0.0030691256,-0.04593307,-0.042498026,0.11558245,0.022495924,-0.05098972,-0.2105204,0.09098063,0.12340413,0.12049701,-0.13350874,0.12088212,-0.32777587,-0.07045462,-0.03292144,-0.033167772,0.036512014,-0.19571996,-0.08322258,0.23844461,0.10445875,-0.06129732,0.031339183,0.09066461,-0.055319063,-0.05052521,0.11460409,0.02786908,-0.060961127,-0.18634704,-0.10250774
0.044260506,-0.015886337,0.05271906,-0.115175,0.10099149,-0.09676205,-0.037425634,0.014062111,0.09054236,-0.075025134,-0.06628346,-0.1284335,0.06251366,0.12862264,-0.021308446,-0.11129222,0.0113883475,-0.1983803,-0.069946624,0.18026002,0.036705256,0.08922891,0.039191388,0.0117601175,-0.22117497,-0.049431834,0.10292282,-0.1465763,-0.078575976,-0.107192025,-0.20871258,0.0025425365,0.07012122,0.014176743,0.11155315,0.029180855,0.06360218,0.1515785,0.061740197,-0.055915765,0.04351418,-0.05134107,-0.17000777,0.070908174,-0.007625421,-0.113162436,0.00053670624,0.010094352,-0.09192879,-0.07715822,0.00512014,0.0031015028,0.040994536,-0.13250238,0.034207545,-0.113628216,-0.010374316,-0.07765338,-0.044459425,-0.058328267,0.014279893,0.014673771,-0.010302494,-0.03174823,0.10371056,-0.017499078,0.12952906,-0.16074066,-0.090629466,0.0696682,-0.274226,0.042788923,0.01844168,-0.15530717,0.117857985,-0.10081772,0.10641299,0.00079096796,-0.017438903,0.003502746,-0.15880813,-0.0048910836,-0.14699511,0.015569497,0.05469081,0.06403873,-0.08331347,-0.04162763,-0.031821877,0.058985423,-0.0035439827,-0.042994626,0.09265402,-0.14670679,-0.004625534,0.02128795,0.012201258,-0.14106461,0.06152303,-0.06414427,-0.050509043,0.039004214,0.041885458,-0.2015864,0.069163054,-0.029216094,0.018194979,0.11635452,0.08443858,-0.05092307,-0.082066424,-0.055116,-0.13636883,-0.08028774,-0.0379987,-0.025567131,0.0195149,-0.035384633,-0.0010590213,-0.075965375,0.050171915,-0.11526168,-0.07134178,0.1076299,-0.1955968,-0.08358529,0.08437346,0.036364615
-0.011119565,-0.16177192,-0.0004354762,-0.1927166,0.037818268,-0.033943895,-0.10899064,-0.059038647,-0.14827786,-0.21767113,-0.31309763,-0.15866785,0.14100075,0.07353452,-0.04072763,0.03504629,-0.14791831,0.21594867,0.042910766,0.031496607,-0.1355193,-0.28582135,0.034231644,-0.00036437155,-0.017237673,-0.2134328,-0.06554699,0.061059467,-0.31604263,0.036889877,0.082842045,-0.31226838,0.040897075,0.17759882,-0.15721402,-0.047622707,0.06088628,-0.014344142,0.2306442,-0.15352619,0.18645518,0.07877634,-0.1856463,-0.094540045,-0.09670271,0.014627531,-0.027186329,-0.16255513,0.07346923,0.09191441,0.18939202,-0.034976535,-0.064863585,-0.0015953144,-0.23556463,-0.32610068,0.13214576,-0.12085965,-0.07447729,-0.0047765155,-0.11335805,0.060696278,0.19022088,-0.09810373,0.1880121,-0.008009686,-0.0032458887,-0.058131166,-0.1921762,-0.043331075,0.30342758,0.10122777,-0.061954957,0.069414765,-0.030070648,0.20723318,0.07314583,-0.07162832,-0.00814372,0.04946748,0.20540565,0.02956124,-0.015420143,-0.03179451,-0.16351111,-0.166147,-0.11628948,0.06915089,0.21417822,0.03243403,0.017545052,0.08991823,0.02749901,0.043792967,0.09261011,0.091283716,0.1599858,-0.03459932,-0.26663122,0.029655363,-0.09877988,0.057376385,-0.045193277,0.16065878,0.06481185,-0.08902345,-0.19572109,-0.050380364,-0.13786793,-0.10477988,-0.07327198,-0.0035455003,0.01560914,0.0036134135,0.05950507,0.040165316,0.3210381,-0.16000456,-0.1534963,0.07663475,-0.06966328,0.11656806,-0.05540371,-0.24376896,0.09033142,0.004773369,-0.17809589,-0.119203255
-0.019980611,0.04332091,-0.044999678,-0.083932914,-0.30640414,-0.09724172,0.12918316,0.07731647,-0.25700924,-0.10025622,-0.010714279,-0.29568186,-0.074936636,-0.044888612,-0.2880952,-0.3103993,-0.06580812,0.02986546,-0.09025512,0.06671678,0.0918165,0.17261171,-0.091181636,-0.10704496,0.04399846,0.045354076,0.086890616,-0.060884904,-0.17168272,0.015386809,-0.018257268,0.118690364,-0.11502507,-0.15830177,-0.15819135,-0.28033066,-0.03827619,0.03890239,-0.28870285,0.04893643,-0.055937897,-0.018893326,0.18768537,-0.08058108,-0.13976496,0.10702258,-0.11197078,-0.06764433,0.25277555,-0.257035,0.25247943,0.04283151,-0.032961138,-0.22165649,-0.302127,0.14245148,-0.06030858,0.14165273,-0.04729579,-0.029861754,-0.0075294995,-0.06986281,0.009690025,-0.20467599,-0.029519105,0.025024742,-0.0761135,-0.05462806,0.26796198,0.087385714,-0.196603,-0.13459216,-0.03030661,-0.3846343,-0.22060043,-0.44291863,0.046513345,0.058790207,-0.14423688,-0.049702533,-0.26888922,-0.22996517,0.03249623,0.068573914,0.031094605,0.19118287,0.30253908,0.029891834,-0.36285436,-0.18478064,-0.1310564,-0.17394535,-0.18579459,-0.007668896,-0.17357086,0.061052375,-0.4861801,-0.06448129,0.13485035,-0.04216301,-0.13527411,-0.37929726,-0.009910137,-0.6073429,-0.1648257,0.044783857,-0.022105485,0.028283723,0.12562051,-0.1873089,0.06559637,-0.2738494,-0.113256246,0.06538801,0.00913892,-0.25445333,0.17583853,-0.08738754,0.1056061,-0.115081504,-0.067532994,-0.34029603,-0.29335263,-0.023661131,-0.12816155,0.065134026,0.15789957,-0.075717345
-0.011644269,-0.22445394,0.052177772,0.08549172,-0.014006699,0.034327284,-0.017149055,0.25666222,0.17741351,-0.07804478,-0.29907286,0.0772161,0.043557473,0.13696754,0.053172138,0.030178772,-0.007505329,-0.16122115,0.0651188,-0.09008749,0.031916045,0.08165644,0.14703386,0.018353378,0.08821754,-0.14896517,-0.26407528,-0.032284882,0.023965523,0.13847627,-0.20861846,-0.3029777,0.017562194,0.2886255,0.037081033,-0.03035382,-0.3500309,0.025579315,0.12376661,0.0994342,-0.020949116,0.13333549,0.14058052,-0.36684218,-0.016950544,0.16802473,0.008410688,-0.09172144,0.20337565,-0.05534055,-0.0682809,-0.06391192,-0.43588755,0.10221917,-0.1693362,0.08670989,-0.4029376,0.033191692,-0.01814247,0.048678275,-0.38538,-0.13990334,0.08066399,-0.20486927,-0.30881292,0.051214267,0.08065383,-0.5957163,-0.09100849,-0.05965493,0.12831536,0.020641891,-0.14418864,-0.06650122,-0.12810487,-0.13080245,0.18508843,-0.27186832,-0.021367839,0.08073185,0.036646258,-0.32937056,-0.40348127,0.021093765,-0.108461194,-0.025731312,-0.084184185,-0.05175128,-0.12718184,0.042203087,-0.06530074,0.08884675,0.09846145,-0.0046850555,-0.10088262,0.06098113,-0.06831942,0.20921554,-0.03297905,-0.15367438,0.16143404,-0.049106374,-0.024517305,-0.119761236,-0.06773307,-0.15215538,-0.09910245,-0.13892344,-0.0463731,-0.28279743,-0.07435528,-0.0885253,-0.21862742,0.11907032,-0.06269838,0.025625682,0.036358055,-0.032749742,-0.11500799,-0.013021691,-0.22506721,0.12378193,-0.0040852665,-0.14015998,-0.36102006,-0.04024525,0.056280155,-0.025633039
-0.061778355,-0.0048907693,-0.031863764,-0.06382784,-0.043860435,0.03145349,0.010858685,0.036277514,-0.03886916,-0.011537065,0.042303927,-0.026774853,-0.017636243,0.011879006,0.026693972,-0.093372755,0.06524563,0.04312695,0.0006490494,0.020651374,-0.008113225,-0.013237987,0.011730002,-0.047483716,0.044000767,0.0007965196,0.045779303,0.06171527,0.00944853,-0.03548426,-0.04825308,0.02458644,-0.006947936,-0.037615016,0.021375217,0.012085626,-0.032705296,0.05814509,0.03060689,0.018923985,-0.000802288,-0.06809199,0.001210287,0.039079513,-0.05441958,0.019683024,0.030860875,-0.0427607,0.00029577923,0.07065002,-0.02450924,-0.030004263,-0.052360233,-0.015732467,0.04173815,0.028223928,0.0065172273,0.00054811675,0.03011204,-0.033711057,0.027410695,-0.0057904664,-0.038072716,0.0017056382,-0.03723074,0.028153304,-0.028228385,0.0035645515,0.000921092,-0.016637346,-0.09689793,-0.057806972,0.03356446,0.06840135,-0.0062720575,0.044449598,-0.02750355,0.02478756,-0.021662856,-0.029110065,-0.045147017,0.0098154945,-0.0069059758,-0.07576013,0.012535762,0.0019940382,-0.049889527,-0.01887915,-0.008638061,-0.05373579,-0.022822915,0.04498616,0.09093754,0.032772996,-0.04875018,-0.059119966,-0.08609892,-0.34410247,-0.0602492,0.012828706,0.0124211125,-0.039518498,0.011564931,0.0009764453,0.008720564,0.016109427,-0.011850377,0.02275567,-0.03161344,0.065454535,-0.0026863823,-0.001730327,0.023892036,0.015791602,0.042807363,0.0032848618,-0.017062629,0.03556977,-0.025340691,-0.054312874,-0.025267446,0.003226491,-0.02108228,-0.008764825,-0.021410568,0.0387897,-0.0011345944,0.02658907
-0.07503714,0.010699018,-0.28207716,-0.13154292,-0.15241963,0.0815791,-0.06692288,-0.0912936,-0.15986013,-0.23516597,-0.0762004,-0.076729484,-0.016602978,-0.2950604,-0.03548989,-0.053850345,-0.12909071,-0.17142735,0.21179488,0.13410293,-0.038719524,-0.20293742,-0.21106261,-0.0034531266,-0.0588993,0.11319539,0.20501176,0.053063598,-0.10903999,-0.097269155,-0.12154109,0.087750316,-0.038141202,-0.0024262925,0.04275976,0.16570018,-0.08567047,0.13500506,0.14505887,-0.15618894,0.103872076,-0.11475904,-0.2463294,-0.31106547,-0.094530635,0.07530219,-0.15119658,-0.016283045,-0.099719025,0.087957256,-0.081823416,-0.025892742,0.047352128,-0.41910926,0.022573391,0.023389386,-0.19359675,0.032636207,0.022498034,0.18497562,0.052860852,-0.06674065,0.041652676,-0.1815707,0.094839394,-0.12217094,-0.10558777,0.17766297,-0.04928939,-0.010784762,0.035451356,-0.053756762,-0.14749417,-0.0077156406,-0.061715238,0.019151773,-0.28616917,-0.1538993,0.071415536,-0.05726729,-0.00031642237,-0.15208659,0.16976094,-0.054570876,-0.042947955,0.02446547,0.012383691,-0.2191387,0.09096575,0.15502246,0.054905936,-0.12482324,-0.17454699,-0.13683237,-0.07218996,-0.08660899,0.20855847,-0.10296596,-0.37713045,-0.003356197,-0.12115609,-0.22065207,0.019633286,0.13597716,-0.14721078,-0.16640629,0.009784354,0.0023970646,-0.12956126,0.108973384,0.011696283,-0.045666855,-0.091847174,-0.16376303,0.0793851,-0.14939782,-0.15731123,-0.18097988,-0.04488471,-0.06933147,0.14037855,0.15751797,0.013285539,-0.04507147,0.20919913,-0.1320044,0.03030592,-0.067291506
0.08281406,0.08358297,-0.15404342,-0.15922213,-0.05069714,-0.07215234,0.08194023,-0.13735959,-0.27987048,0.28357476,0.056463867,-0.09188388,-0.028349623,-0.017332116,-0.046392716,0.0632633,0.069210626,0.18653108,0.13648084,-0.029555604,-0.14361979,0.11487047,-0.04318561,0.06987795,0.039008982,0.043679655,0.15552616,0.11873445,0.08152959,0.1708746,0.0106302835,0.11994927,0.09411809,0.16618145,-0.14608756,0.10085624,0.1032522,0.048589647,0.023647776,0.0389261,0.071823776,0.043260667,-0.15695766,-0.20808852,0.07238428,0.10104883,-0.12931834,-0.22433925,0.117453635,-0.024151018,-0.14965662,-0.21569033,0.115444385,-0.26724818,-0.027665261,-0.117688,-0.1961175,0.046742514,0.0051918565,-0.081198886,-0.039044227,0.1472534,0.07468886,0.1272753,-0.101462595,-0.14684823,-0.049731545,-0.014798007,-0.14037031,-0.15434179,-0.046619408,-0.11779362,0.08376894,0.06652423,0.010994246,0.10340918,0.11618005,0.01799566,-0.05136242,-0.115574464,-0.15170519,-0.15666403,0.09649412,0.048674658,0.10707532,0.051771652,0.08836148,0.0022724688,-0.117249995,-0.059279867,0.043851063,-0.49211875,-0.22944377,0.06277906,-0.050299652,-0.042003978,0.0070084557,0.08636881,-0.16384187,-0.0015462374,0.1758224,-0.053200863,-0.028850183,0.15163696,-0.05280025,-0.15647464,-0.10022708,0.0146884015,0.020617276,-0.21352702,-0.27156112,-0.06792613,-0.12544489,0.05100837,0.03487812,-0.07425044,-0.054132663,-0.07703512,0.2084101,-0.15234298,0.082289,-0.20855616,-0.17839713,0.08857487,-0.11588315,-0.1534477,-0.065815255,-0.13685599
0.16539487,0.0015772571,0.031337723,-0.12826163,0.059544977,-0.016211273,-0.040106777,0.07428601,0.024804035,-0.18748838,-0.1384931,0.021148162,0.0676369,0.023225771,0.07406949,0.049034238,-0.04348133,-0.008960101,0.015887825,-0.023694076,-0.06028726,-0.06602184,0.010517788,-0.011517703,-0.097642265,0.05482055,0.02613645,-0.032212228,-0.05051021,0.030869763,-0.028080171,-0.15215412,-0.020223228,-0.055962496,0.06006841,-0.002327228,-0.04161616,0.053301413,-0.0441202,0.015200188,0.012678419,-0.013016308,-0.04148231,0.040829685,0.07809492,0.066633545,0.0021540641,0.117600486,0.04487897,0.050485477,-0.026927914,0.053617127,-0.17033,-0.06253721,0.005687545,-0.051479034,-0.06482798,0.028986152,0.012988208,-0.029058829,-0.032639004,0.0069778804,-0.0029671586,-0.047092855,0.08905176,-0.04983306,0.02208378,0.025832215,-0.081436396,0.018235564,-0.10266242,0.048869688,0.04261917,0.0011789979,0.028392708,-0.04944205,0.0049612042,-0.10812005,-0.0035537735,0.1007433,0.04073743,0.0717795,-0.047427643,0.0419173,-0.012655627,-0.1393372,-0.16714042,0.05008843,-0.052791245,0.07983101,0.10715257,0.0496093,-0.0388598,-0.05207659,-0.03028841,0.10828458,0.048542567,0.04970246,-0.108993724,-0.053752445,-0.09637667,-0.045845166,-1.3377798e-05,-0.06346434,0.07165526,-0.022394365,-0.0600902,0.075458,-0.004966141,-0.048497126,0.05027139,-0.06408125,-0.0574435,-0.010822836,-0.005014946,0.014903571,-0.061967768,-0.054775234,-0.012229036,0.057822227,0.021289526,0.071142435,0.05964438,-0.020161105,-0.012498714,-0.05801963,-0.01410549,-0.057681255
0.15910748,-0.004373212,-0.27719498,0.07427007,-0.30579427,0.030141149,0.103386424,0.04669813,0.039475083,0.012087231,-0.051866557,-0.24078698,-0.09100264,-0.035003033,-0.2280806,-0.21389031,-0.045168303,-0.11292274,-0.046840694,-0.3696571,0.0056969775,-0.36994073,0.0015218222,-0.06586914,-0.17124535,0.034396514,-0.007080307,-0.14116848,-0.16154239,0.022778617,-0.12682992,-0.016576227,0.035233587,0.06314227,-0.17921785,-0.050842922,0.08546431,-0.38080376,-0.03391763,-0.1192271,0.010856387,-0.07049633,0.18709585,0.016417388,-0.023173714,0.11989927,0.07719296,-0.15691055,-0.0071021705,-0.34088543,-0.07222451,-0.06436856,-0.08073535,-0.20130637,-0.22373258,0.212643,-0.09783545,0.08382818,0.056794647,0.096575245,-0.052640274,0.034066886,0.18113668,0.07517089,0.14344455,-0.15826385,-0.026556294,-0.057955112,-0.24091946,0.12659842,-0.23865741,0.004045002,0.08236223,-0.043632135,-0.10322584,-0.13979894,-0.04646721,-0.15168495,-0.14429337,0.09150596,0.11478974,-0.19868788,-0.03998452,0.033812992,0.16238298,0.026939854,-0.21649526,0.021663994,-0.09577515,-0.027633082,-0.008182085,-0.032224037,-0.01074484,-0.17278013,-0.005919623,-0.102815844,-0.08162178,0.07246154,0.23417899,0.19112124,0.16758463,0.0011094866,-0.23944284,0.0039214864,-0.121709235,-0.14649153,0.00020724349,-0.010893299,0.04605458,-0.046980593,-0.042527754,0.03651677,-0.07533557,-0.08933997,-0.01719203,-0.23008874,0.15740804,0.008810182,0.0799678,-0.09145226,-0.061356723,-0.10686245,-0.11399403,-0.29378682,-0.046216536,-0.09610744,-0.047399424,-0.07894246
0.00070803816,0.11305839,-0.22926538,0.13897112,0.022814259,-0.0354921,0.082072996,0.060510624,-0.1955875,0.04794679,-0.14027038,-0.18697654,0.14775127,-0.10272044,-0.072750375,-0.19869272,-0.0012409036,-0.23531216,-0.048910193,-0.38821658,-0.02889835,0.03161505,-0.09368547,0.042549383,0.009179788,0.025076116,0.021560846,0.17036125,0.17668459,0.07185318,-0.0007217105,0.0390189,0.058218982,-0.22921526,0.21280241,0.038364533,-0.014862241,0.0076006567,-0.06629602,0.08223868,-0.002488555,0.1709853,0.18090995,0.0921996,0.09150198,-0.12862474,0.16975667,-0.05713043,0.029411988,-0.11203373,0.027105821,0.07495133,-0.16045925,0.057426162,-0.0058041215,-0.1225541,0.18621552,0.21545643,-0.13055815,-0.33407852,-0.21554261,0.08713387,-0.2509281,0.08024708,0.011169774,0.024608716,-0.10140655,-0.17065184,-0.015636856,0.05455613,0.06542193,0.1626135,-0.14108829,-0.13506183,-0.21428607,0.21611635,-0.086370684,-0.0027679126,-0.24190447,0.034441542,0.30614954,-0.08949375,-0.105911076,-0.029728131,-0.13831553,0.08209701,-0.38621432,-0.03855657,-0.19936216,0.01052121,0.017915962,0.025129154,-0.20257364,0.0151863,0.01650503,-0.088005714,-0.29838207,0.0018958228,0.038995937,0.001131374,-0.3211445,0.0009162851,-0.16355476,0.05684398,-0.0487998,-0.2888419,-0.21709014,0.0033270842,-0.040680304,-0.10992572,-0.087548465,-0.16430053,-0.0001423917,0.05266117,0.21004762,-0.2169584,0.14501035,-0.3149562,-0.2749285,0.034351848,-0.12227966,-0.037882257,-0.025416283,-0.23585412,-0.20573838,-0.1119981,-0.07057141,0.048060562
0.09448443,0.0029188609,-0.2530503,-0.14885435,0.018948358,-0.055681948,0.18776491,0.059997465,-0.2770667,-0.13686866,0.2703664,0.018697182,-0.08403702,-0.08907279,-0.33735186,-0.020888891,-0.10497355,0.44274566,-0.16222939,0.00033715658,0.15333238,-0.10497833,-0.06387382,-0.15175918,0.013326444,-0.04876498,0.07146184,-0.18169527,0.1323853,-0.13691565,0.19442827,0.040267877,-0.040680327,0.11744511,0.027199868,-0.19412008,0.20013146,-0.22950983,-0.12753265,0.041786898,-0.17342778,-0.0010152822,-0.018625163,-0.34212986,0.04081443,-0.26143634,-0.15773284,0.031805307,0.07747615,-0.2644833,-0.020239053,-0.052742425,-0.18996435,0.048002478,0.07415617,-0.305258,-0.11891854,-0.20168035,0.0626724,0.12961537,-0.05517581,0.023886114,-0.02398076,0.034163877,-0.14312562,0.14731711,0.016016604,-0.20213926,-0.044521485,0.013550479,0.14437774,0.08808545,-0.14982307,0.0943496,-0.12935767,0.058779895,-0.067856595,0.046728387,-0.25010043,-0.28268513,0.18727456,0.13881564,-0.09625622,0.013181506,0.030636316,0.04664994,0.20873398,0.0942936,-0.42540696,0.037981927,0.061816737,-0.34226182,-0.20882194,0.02465942,-0.041636344,-0.059596345,-0.3208567,-0.26336756,0.07260372,0.07614912,0.22787826,0.042053327,-0.09981154,0.11711863,0.008237947,0.07606883,0.02130084,0.1305407,0.099230655,-0.025988428,-0.12834004,-0.059294004,0.2606373,-0.09260265,0.21284825,0.15599228,0.0978348,-0.086523965,0.03334057,-0.06345955,-0.013418224,-0.07926337,-0.020509189,-0.3731289,-0.1393924,0.07442014,-0.14396074,-0.17674406
0.15850118,-0.11801582,0.026755482,-0.05736528,0.0015018721,-0.0133555075,-0.116033725,0.021640463,0.011030691,-0.029069128,-0.16182259,-0.17972673,0.01762547,0.008059421,0.08505019,0.025816811,-0.11434591,0.10937441,0.0763454,0.024592366,-0.10254174,-0.045058977,0.035398193,-0.050100878,0.12243405,-0.13734479,-0.15475793,-0.044528548,-0.1787384,0.059589855,-0.04685447,-0.060837895,0.006814353,-0.034186825,-0.16561453,-0.10802921,-0.0057926932,0.04594723,-0.08918193,-0.14603679,0.03539365,0.01766644,-0.08864257,-0.052863445,-0.009274326,-0.0060930643,0.09905283,-0.04911514,0.0014761144,-0.0058634127,0.0030838219,-0.038908187,-0.15005817,-0.16471036,-0.15715587,-0.14030349,-0.3872119,0.025906354,-0.005611486,-0.035962228,0.10025681,-0.03553491,-0.028663844,-0.14427209,0.11853748,0.07229144,0.08309216,-0.03160791,-0.2999617,0.07912342,0.078935534,0.032647993,-0.014354513,0.019931007,-0.06584281,0.0013332989,-0.041548416,-0.004719934,0.09408839,0.08519358,0.1540136,-0.06749506,-0.032514177,0.11013911,-0.09123055,-0.07567158,-0.14301635,0.020945923,-0.17625935,0.05183075,0.14866853,0.016170103,-0.04722803,0.005055619,0.012427511,-0.053742826,0.032940965,-0.058361042,-0.09237579,0.066342786,0.042017967,0.10088154,-0.017745608,0.068754666,0.078293584,-0.08588592,-0.08277225,0.025845569,0.08431687,0.08195831,-0.0803669,0.025738336,-0.029546704,0.034649502,-0.1444775,0.04327218,0.028053015,-0.044311147,-0.0085251415,-0.042672947,0.07007705,0.01396545,-0.030203545,-0.02521876,0.014317681,0.16444087,-0.08683628,-0.007846582
-0.018249476,-0.17798081,-0.04128922,0.07082593,-0.024344103,0.14175265,-0.0031079454,0.019308727,0.014550691,-0.1343479,-0.063876286,-0.40683794,-0.08876116,-0.12598014,0.018257465,0.068411514,-0.100345865,0.23075984,0.2544796,-0.07893263,-0.08985353,-0.028214078,-0.00661653,0.011616741,-0.22758242,-0.22251715,-0.1758165,0.068860345,-0.13549557,-0.052083023,-0.03610287,-0.18549751,-0.10795296,-0.14531583,0.088713825,0.11528377,-0.06908259,-0.06311251,0.042935207,-0.017544702,-0.043321535,-0.049905133,-0.119362205,0.0985396,-0.00021565452,-0.0036436336,0.107107125,-0.07581254,-0.118363276,0.08413326,0.011750215,-0.06482051,-0.047836546,-0.09160046,-0.05919073,0.11360996,-0.17106734,0.077676885,-0.13667636,-0.092805766,0.016384158,-0.08278874,-0.17171307,0.014003464,0.10581649,-0.15455157,0.086335704,0.06319559,-0.19923654,-0.062036242,-0.05497363,0.0777465,0.05952137,0.047973696,-0.20636854,-0.15956752,0.18662056,-0.14231524,-0.06944655,0.06954315,0.21283974,0.06279653,0.028633973,-0.011366368,-0.06515148,0.019451281,-0.12982923,0.028594015,-0.057063237,0.06938893,-0.035024237,-0.017669467,-0.11695542,-0.18994062,-0.023608586,0.0245766,0.08097265,-0.008254786,-0.18740295,-0.0064032697,-0.029963166,0.048769984,-0.044614572,0.2022276,-0.09146636,-0.07344538,0.022604035,0.0069173384,0.1260911,0.0513512,0.09838219,-0.012863269,-0.05714557,-0.068836145,0.010589416,-0.0060177404,0.002317274,0.006056058,-0.03921164,0.06415531,-0.036892444,0.008596132,0.013836101,-0.04088594,0.097244576,0.020444943,-0.18532759,-0.03184437
-0.07211649,-0.0058401893,0.028786581,0.02533672,-0.077634096,-0.075727575,-0.08864011,-0.035267007,0.03675264,-0.038827244,-0.049033396,-0.036127727,-0.017546158,-0.04852868,-0.09428001,-0.022040239,-0.10568409,-0.078440934,-0.08849089,0.014437433,0.027857728,-0.040853698,-0.05977328,0.07219586,0.02990316,0.02667389,-0.048892215,0.01139557,0.0043599103,0.07306057,0.08385146,0.07298146,0.06924779,0.04277403,0.017718172,-0.0797575,-0.06953309,-0.006438057,-0.07089422,0.049548604,0.07187721,-0.038347732,-0.026986297,0.048110932,0.07246234,-0.026650438,-0.031779863,-0.095355935,-0.06652386,0.023533376,-0.062941335,-0.0155901,-0.028939238,-0.03896332,-0.051472016,0.059981104,0.005207352,-0.07250224,0.013024139,0.018605728,0.06217052,0.046638135,-0.061184876,-0.06842799,-0.08240427,0.06647502,0.06242262,0.04855318,-0.014893196,-0.019186947,-0.06135764,-0.07759546,-0.00011059973,-0.06039804,-0.06987137,-0.10126666,-0.08225853,0.00839399,-0.06218432,0.040670607,-0.029386552,0.03724957,0.039941855,-0.03460356,0.058460556,-0.017328,0.017903663,-0.08878405,0.01659149,0.0020186272,-0.041289102,0.02663427,-0.090001464,-0.028399248,-0.05092069,-0.029008828,-0.024246417,-0.037028354,-0.064273536,-0.053155553,-0.046169575,0.049837288,0.04187991,0.049701393,-0.030368604,-0.060053166,-0.07242388,-0.052220933,-0.028748592,-0.096716575,-0.088606015,-0.023651224,0.008762486,-0.08523083,-0.03865357,0.008308458,-0.042327285,0.0027487879,-0.050088502,-0.01165991,-0.07611774,-0.08190748,-0.054403625,0.03794817,-0.024499819,-0.0012611814,-0.044874433,0.060237825
0.09510112,0.057980824,-0.16595379,-0.054525174,-0.0066114706,0.09147561,-0.01763562,-0.15838037,-0.4193612,-0.03130963,-0.4953394,-0.17202023,-0.08402051,0.036441572,-0.015002901,0.012881883,-0.21238124,0.28186384,0.15060551,-0.45309153,0.04145067,-0.107810095,-0.348918,-0.17829353,0.09934199,-0.04725027,0.017368084,0.093174644,0.12280503,-0.0011350669,-0.104727894,0.010791711,-0.08219524,-0.14537571,-0.13493674,-0.18916775,0.16570054,-0.3505913,-0.43900073,0.020101802,-0.15264453,0.15567493,0.09188544,-0.13986324,-0.022566957,-0.00862773,-0.00093621766,0.042140946,-0.029318016,-0.08397048,0.19778888,0.06145707,-0.1524894,-0.05524043,0.12255249,0.091417626,-0.0060513015,-0.09411078,0.05741312,-0.052768126,-0.18070476,-0.11303698,-0.09213752,-0.016582364,0.11095174,0.1462389,-0.258363,-0.1339087,-0.012359256,-0.025579685,0.12197201,-0.10308763,0.025016367,0.0959046,-0.09623454,0.10126992,-0.12710702,-0.004906728,-0.15002656,-0.003949722,0.21420196,0.08693795,-0.08715473,0.05782764,-0.12507288,-0.21801756,0.10468192,0.099520534,-0.42587626,-0.1916402,0.036761675,-0.08540689,-0.12766461,-0.11470198,0.07330081,-0.09732452,-0.09398218,-0.06633134,-0.021442734,0.007388348,-2.5859017e-05,0.05994048,-0.08460093,0.16332316,0.0020715569,-0.045317248,0.07517481,0.087307595,0.029748235,-0.008669672,-0.308947,0.10198211,0.037881836,0.144953,0.061721876,0.0033766676,0.011115324,0.08678497,0.002764602,0.0031771641,-0.051216118,-0.13279335,0.120714605,-0.012361577,-0.27088127,0.18655595,-0.09663159,-0.080230385
0.06537781,-0.059047222,-0.19340724,-0.21372673,-0.1554734,0.046166576,-0.05398043,0.076810256,-0.19637056,0.19140776,-0.036464047,-0.20511584,0.008280989,0.102366574,-0.07392414,-0.15215732,-0.20681025,0.0806054,-0.30596086,-0.046905372,0.025357174,-0.2900473,0.0033540847,-0.30384848,-0.069974765,-0.14460227,-0.0020449164,0.1577374,-0.008900142,0.18256307,-0.058684938,0.10991224,0.06701306,0.086206675,-0.08986927,0.11511135,-0.08354218,0.06502664,-0.25642866,0.14618267,0.022758288,0.02189509,0.032227423,0.16895862,-0.09062472,-0.1720486,0.011294303,0.04675599,0.031333353,0.078153774,-0.15573744,-0.40100867,0.12485737,0.08403513,0.025195526,-0.051585697,-0.21677989,0.09062945,-0.23500219,0.21695022,-0.17788893,0.15678063,-0.03600492,-0.01754021,0.007076458,-0.0053542014,0.06493696,-0.13669048,0.24517286,-0.06588117,-0.11890783,0.025023893,-0.22997011,-0.15653709,-0.104448944,0.14044897,-0.08368081,-0.17591693,0.004560439,0.2029409,0.060363933,-0.040442526,-0.33117443,0.055267785,-0.01425159,-0.0019067264,-0.0074660648,-0.12437056,-0.085489534,-0.13100855,-0.02580033,0.0848646,-0.2883606,-0.06489153,-0.41814482,-0.16063471,-0.0005744899,-0.33897436,0.039171875,-0.23338239,-0.0996847,-0.0028716598,-0.19378969,0.09384235,-0.020697923,0.12034581,-0.032903507,0.115808226,0.01710833,0.07590801,-0.21547028,-0.075375766,-0.18218262,-0.19914033,-0.14825821,-0.19006428,0.09801368,0.06785157,0.008766996,-0.18396105,0.047896948,-0.005481404,-0.18381949,0.035472114,0.065514304,0.0161178,0.062049504,-0.092957065
-0.0028113334,-0.070264645,0.011897323,-0.1698688,0.06669549,0.001375036,-0.13299137,-0.10139639,-0.26917216,0.01746088,-0.35803768,-0.14541167,0.10908528,0.016892174,0.09429718,-0.091107674,-0.08180184,-0.17428042,-0.055389624,-0.10589313,0.01911839,-0.24102889,0.007272612,0.12570746,0.027585726,-0.37815034,-0.099948525,0.011126218,-0.22821465,-0.24557133,0.1377611,0.12792198,-0.18109508,-0.022003496,0.1690288,-0.21676366,0.07572241,0.0229889,-0.06262456,0.023823697,0.07443974,0.017063512,-0.06760308,0.04339031,0.14304858,-0.29506677,0.01294023,-0.012449981,-0.1706924,0.17001846,-0.07945496,-0.09655929,0.07472217,-0.31012204,-0.3164948,-0.049629588,-0.12323452,0.23850664,-0.061188743,0.19727348,0.06610599,-0.52263176,-0.016592795,-0.016833458,0.040382728,0.14096636,-0.05417149,-0.005230869,-0.31726164,-0.069622844,-0.011390309,-0.11810901,0.030100334,0.08696498,0.10025736,0.025808819,-0.3516444,0.052669454,0.14446807,0.13844055,-0.33228302,-0.05004883,0.191747,0.065838896,0.008720405,-0.13828996,0.18017448,0.057609495,-0.032791182,-0.033635747,0.048339073,-0.17672142,0.060087785,-0.050740007,-0.02674877,-0.019032348,-0.11680372,-0.646881,0.021102099,-0.27462423,-0.31408116,-0.059505504,0.006887448,-0.012587708,-0.022142187,-0.4142671,-0.12391982,0.007698947,-0.10061567,-0.029410874,0.008190032,0.16315149,0.17418593,-0.25280905,-0.13423082,-0.35356766,-0.18642978,0.047321696,0.04761897,-0.04742359,-0.128134,-0.03011216,-0.00045959617,-0.14289229,-0.5416846,0.019840594,-0.12563016,-0.09681858
0.003604427,-0.03961973,0.040319826,-0.0047444925,-0.099247605,-0.028435262,0.08518187,-0.014121221,-0.0041246666,0.08571626,-0.020960577,-0.104515515,0.008221441,-0.05266187,0.056294367,-0.044172533,0.107860655,-0.020951228,0.19498338,-0.10626704,-0.007068492,-0.039659597,-0.15160403,-0.016853206,-0.1646917,-0.11825714,-0.0016670064,0.08173969,-0.09505711,-0.16636749,0.041583657,-0.010902296,-0.027028307,0.037441064,0.06588362,-0.036862403,-0.06387362,0.006085674,-0.09861596,-0.030425055,-0.124766886,0.107488245,0.06360747,0.05050412,-0.042706486,0.004976274,0.07668963,0.04625583,0.000107931985,0.026228324,0.049531415,-0.06768846,-0.08636911,0.101374574,0.0788708,0.0120592145,0.16936372,-0.04800432,-0.13407919,-0.026526412,0.03701727,0.07723261,-0.0135186,-0.010190544,0.024319455,-0.017783571,-0.12917207,-0.18137339,-0.04074904,0.034863852,0.061262786,0.01388082,0.012696266,0.03153933,-0.013843817,0.0292402,-0.021629738,-0.059779637,-0.0394985,0.08516288,0.0447301,-0.06266731,-0.052856296,0.070708685,0.012762409,-0.10892715,0.08241198,-0.020457957,0.09082485,0.05524953,0.089642376,-0.0076021934,-0.14616816,0.03324816,0.04818435,-0.014269726,-0.1910658,-0.007300196,0.032082055,0.046830896,0.040704466,-0.081842355,-0.05557114,0.055126544,0.061782483,-0.007867558,-0.029018234,0.062432274,-0.0919804,0.03356582,0.1033168,0.08173767,-0.030801667,0.007984662,-0.16159092,0.03096659,-0.04602278,0.012151438,-0.045892015,0.088080585,-0.092426725,-0.07663675,-0.0022760958,-0.108198516,0.058301844,-0.19768256,-0.11009777,-0.052200038
0.0009872247,-0.13615517,-0.06739467,0.09050496,-0.13268912,-0.02144313,0.040455036,-0.027457735,-0.0023582936,0.09346718,-0.1496836,-0.11320477,0.054171454,-0.10689506,-0.23326741,-0.056024373,-0.13708976,0.29471004,-0.28261545,-0.28144336,-0.03172722,-0.20936222,-0.00042073466,-0.055722777,0.035605285,-0.12824416,-0.09063692,0.08956888,-0.1543345,-0.29420885,0.20309387,0.07028091,-0.11303904,-0.06753174,0.091174364,-0.115959026,-0.110161014,0.034414627,-0.21454154,-0.14051789,0.013090982,0.062091734,-0.16359453,-0.07758799,-0.032200813,0.04853707,0.099507354,-0.046500634,-0.10501014,0.19535181,-0.042137668,0.0882958,0.2870292,0.057410426,0.24530128,0.014963358,-0.030251922,0.100360736,-0.23003353,0.12163727,-0.12726955,-0.059510674,0.14568862,-0.07726925,-0.08449391,0.14179799,-0.030471304,-0.034581814,0.018963646,-0.055701293,-0.019307591,0.06614733,0.0072514233,-0.22525278,-0.2014649,0.0026192425,-0.0052560293,0.0069155656,-0.1191639,-0.037225097,0.11536267,-0.15652877,-0.2754436,0.068256855,-0.19340418,-0.24391554,-0.25060058,-0.2839696,0.05565367,-0.036438346,0.016212251,0.19864586,-0.101747334,0.09483235,0.019145979,-0.059909333,-0.06797317,-0.40108147,-0.08298244,0.005439647,-0.24303135,0.11760122,-0.15124518,-0.25855514,-0.11372084,-0.063323595,0.02159032,0.2696514,-0.20676422,0.07387082,-0.057660908,-0.4016321,-0.2982971,-0.049841452,0.0747947,0.1247761,0.28050226,-0.03336688,-0.12472255,-0.30053332,-0.35354003,0.023094645,-0.0061077564,0.07059668,-0.11513412,-0.19706368,-0.0047444943,0.032795615
0.038115777,-0.1258754,-0.13775733,0.02101839,-0.09969399,-0.046035334,-0.14559706,-0.16376087,-0.03612478,0.016519282,-0.07959797,-0.25786555,-0.06801221,0.0021185214,-0.06709185,0.03562183,-0.29972255,-0.064266674,0.05420847,0.036150314,-0.17977373,-0.15957178,-0.05518434,-0.27983376,-0.1284642,-0.046468373,-0.15271246,-0.089627266,0.009442871,-0.20284164,0.036322456,-0.39668298,-0.0350457,-0.39509216,-0.03699768,-0.13915497,0.034698892,0.032437153,0.29264665,0.13323297,-0.089112595,-0.028967166,0.10162497,0.11063037,0.0007348665,-0.04868988,0.10170439,-0.09316192,-0.08532201,-0.022213042,0.04463947,0.09329603,-0.27661192,-0.0960766,-0.16407801,-0.2796631,-0.06940661,-0.0021606637,-0.12355378,-0.09286,0.041384343,0.08849347,-0.0456574,-0.01853611,0.13475353,-0.043277513,-0.065021425,-0.0565499,-0.23180178,0.017632078,0.13987796,0.0478568,0.090310015,0.048200607,0.027233547,0.025387662,0.25938207,-0.18065038,-0.23127612,0.15081215,0.3965318,-0.16869569,0.049692754,0.13324988,-0.16480085,-0.04102898,-0.54526824,0.087598525,0.21234085,0.051269192,-0.0013045795,-0.03530873,0.047248706,-0.1343479,-0.06775777,-0.07818277,0.041444164,0.017406518,-0.29815188,0.0691898,-0.10754852,0.17540507,-0.061206054,0.104434066,-0.023286572,0.05921386,-0.2681055,0.058254085,-0.0889264,-0.13508497,-0.021930637,0.07869421,-0.14040041,0.0034839062,-0.07378691,0.028468547,-0.047399618,-0.2795323,-0.034759637,0.039980672,0.011788889,-0.011801834,0.0042572916,-0.11274822,-0.034852263,0.082172446,-0.18841764,0.0194263
-0.022882286,0.027207986,-0.12800613,-0.12477364,0.026324814,0.030528702,0.07384504,0.096952945,-0.2019943,0.153737,0.0012157481,-0.13329563,-0.11083976,-0.0032525617,-0.0131729515,0.00448998,-0.08840761,-0.08598383,0.19819282,0.055923812,-0.16401033,0.015239293,-0.15078251,-0.19886522,-0.24791352,0.20811611,-0.023561526,0.10479694,-0.5175832,-0.09046941,-0.04008679,0.051009092,-0.03164859,0.04924605,-0.06808567,0.07610859,-0.14889084,0.10449976,0.093019046,0.06471352,-0.021494525,-0.2996824,-0.28732076,0.1054268,-0.05827737,-0.068434276,-0.10791726,-0.004951672,-0.121655315,0.0031327335,-0.21335685,-0.020111443,-0.12128028,-0.0068359934,0.10737789,-0.22725296,-0.1324208,0.050843354,-0.016741049,-0.14549269,-0.0721364,0.010933755,0.055766053,-0.24600226,-0.22222883,0.06633358,-0.09936418,0.16225411,-0.32500914,0.04293177,-0.11913894,-0.116874896,0.18680894,0.10066885,-0.15031196,-0.007454826,-0.49430692,-0.038394626,-0.030778907,-0.017014463,-0.6540255,-0.22037993,-0.24977943,-0.28839508,-0.035972804,0.1674266,0.0343666,0.12788694,0.30173898,0.032267023,0.005815292,-0.039061204,-0.05393422,0.06660831,-0.028930467,0.07567837,-0.2943072,0.033161525,0.047988053,0.082324296,-0.00024214156,-0.07531346,-0.18611468,0.05528316,-0.13492818,-0.09362779,0.08928861,-0.16768222,-0.0030556507,-0.019923007,-0.07263541,0.052508187,0.13659903,-0.11402284,-0.04495741,0.14276291,0.099533856,0.060000837,-0.14207432,-0.023667708,-0.21498041,-0.19451854,0.010102787,-0.10820727,0.06663703,0.10934677,0.09194369,0.061990917
0.07150844,-0.060882177,-0.06538382,-0.19277383,-0.27642596,-0.11043501,-0.07597038,0.15062729,-0.18037295,0.13400389,-0.16713506,0.055394422,0.014967821,0.08033103,-0.12194135,0.108501226,0.04389995,-0.06379823,-0.17871347,0.08030212,0.033123773,-0.110700004,0.087979816,-0.07857068,0.16867052,-0.063914835,0.08703264,0.0789982,-0.13082467,0.123471126,-0.2876943,-0.23745833,0.04394334,-0.15875956,-0.15331504,0.03190718,-0.1538794,0.07076297,0.13346173,0.07213835,0.15651636,-0.12465708,-0.09602716,0.106862724,-0.2047743,-0.17294964,-0.034391627,-0.19672258,-0.17801186,-0.04867959,-0.1942335,0.12019597,-0.20210995,-0.5063746,-0.04917847,-0.038320158,-0.064839445,-0.0045065754,-0.1706064,0.084013246,0.15367346,0.023086559,-0.26240644,-0.10556095,0.070364855,0.07597654,-0.047011543,-0.038461987,-0.17922206,-0.21831398,-0.10829999,0.10764714,-0.035659596,-0.072627686,-0.2435946,0.0723125,0.03747317,-0.1346628,0.1220918,-0.0064434074,0.18315928,-0.06385764,-0.086366,0.035588678,0.11008631,0.16216998,-0.18058482,-0.029806258,-0.0818264,0.113666,-0.05355317,0.37191778,-0.20621926,-0.06663318,-0.11855796,-0.17928548,-0.01686564,0.059743427,-0.09054961,-0.18281567,-0.03305221,-0.021349426,-0.15304466,-0.024991615,0.20052938,0.0314257,-0.05339162,-0.109542504,0.036227666,-0.0051131328,0.06609339,-0.018439649,-0.13303745,0.12470584,-0.18350025,0.08051759,-0.23341446,-0.025880968,-0.16242519,0.17481199,-0.27470645,-0.2303009,0.021434607,-0.049028233,0.14979738,0.015721146,-0.17886055,0.18480742
0.05892427,-0.12750627,-0.1031541,-0.15356822,0.13955307,-0.015211504,-0.1968936,-0.051175524,-0.07873288,-0.06533319,-0.11764937,0.102062345,0.09087101,-0.24559659,0.038778,-0.049487196,-0.09307703,-0.13157795,-0.18476999,-0.00033951813,-0.45710313,0.21996015,-0.013782439,0.047138926,0.03747589,-0.2125261,-0.5326355,-0.0065448037,-0.40234202,-0.46106213,-0.0029530318,-0.08599138,0.070607804,0.07541093,0.045430228,-0.46001092,0.029888064,-0.18944874,-0.09103225,-0.31599823,-0.3601058,-0.11020504,-0.105446,-0.023649674,0.05532158,-0.007914198,0.015813584,0.09509162,0.029063525,0.00864177,-0.014961978,0.09622263,-0.25294805,-0.09379003,-0.13638793,0.09796687,-0.03905995,-0.122663,-0.1896466,0.0018823397,0.015285694,-0.14873609,-0.1789433,0.11227652,0.12174783,0.12287027,0.009674546,0.062822156,0.03068687,0.05372819,-0.048762213,-0.20614499,-0.023532925,-0.01931786,-0.23100583,0.15295397,-0.09509186,-0.060165912,-0.09802699,-0.10308722,-0.027916327,0.15603875,0.08275928,0.054758634,-0.06397617,-0.15140776,-0.02196482,-0.03913741,0.051839,-0.15018019,0.03726718,-0.08653521,-0.065193534,-0.11326584,-0.002755484,-0.050714955,0.094364785,-0.024435902,0.07912647,0.016447235,-0.06554666,0.16527952,-0.011483566,0.10695443,-0.16650894,-0.2320142,-0.19915453,-0.11117001,-0.04521779,-0.099389985,-0.1510948,-0.050815564,-0.37886247,-0.06097623,-0.12543465,0.03567932,-0.09914264,-0.11409006,-0.024459383,0.06932511,-0.03229395,-0.12785,0.026379269,-0.30845058,0.008192595,-0.08967557,-0.05437811,-0.2344423
0.051973086,-0.119858794,-0.080079965,0.372975,0.01391838,-0.06484902,0.011036144,0.04663347,-0.19380432,0.017201202,-0.09181837,-0.2509123,0.06951632,-0.19874418,-0.020828666,0.017879175,-0.1923614,0.13983274,-0.005729944,-0.047041796,0.14234097,0.036892813,-0.048118345,-0.029749624,-0.007893363,0.040527094,-0.06740942,-0.17053138,0.09529462,0.095640495,0.079260275,-0.023932394,-0.086019345,-0.082928784,0.115276866,-0.13185126,0.11512255,-0.26725876,-0.22161007,0.093587756,0.13967049,0.12625301,-0.022365985,-0.07589635,-0.036520198,-0.31770375,-0.12258898,0.0168146,0.055620153,0.06438273,-0.015169724,-0.17612883,-0.16021602,0.11274094,0.13966204,-0.10571924,0.09405457,-0.15461679,0.011022328,-0.009158881,-0.18443334,-0.058133475,0.096648775,-0.04357239,-0.1672224,-0.026862266,-0.30449414,-0.1458966,0.03886641,0.044372328,0.14162338,-0.01106529,-0.05906506,-0.11907891,-0.03886147,-0.01653168,0.06391823,-0.15579873,-0.047176506,-0.2330789,-0.02761214,-0.11101229,0.058363594,0.02523732,-0.04126671,0.0023797264,-0.0079444675,0.08196647,-0.107361145,0.022466041,0.060408894,-0.05835991,0.03655816,0.1483824,-0.021227581,-0.112857655,-0.169197,-0.20350006,0.07552019,0.13810664,0.0833381,0.06084551,0.08163313,-0.1389745,0.053300396,0.0012938404,0.09491938,-0.07041777,-0.1120108,0.11201292,-0.029242497,-0.086916246,0.0017032766,0.07886512,0.011803052,-0.009729642,0.12947069,-0.06479528,-0.1331849,-0.101251855,0.075804874,-0.32335034,-0.11122969,-0.0072263996,-0.032848116,-0.0017928752,-0.045263886,-0.31133038
-0.0605694,0.019017903,0.06330246,-0.36187032,-0.0067589153,0.0005083928,-0.021789283,-0.49069238,-0.23002963,-0.358801,-0.15842377,0.23143056,-0.07725251,-0.11116578,0.09706823,0.02134955,-0.17136618,-0.052990895,-0.37195855,0.029848017,0.29387155,0.061078567,-0.08306692,-0.09180185,0.27045137,0.12621374,-0.05326356,0.03523134,0.016823031,0.09820289,0.04148258,0.18790254,0.0150652975,-0.1463208,-0.059048194,0.020261692,-0.11405415,-0.017663624,-0.064221546,0.07205856,-0.15379693,-0.2505374,-0.150523,0.16378151,-0.10169405,0.039207462,-0.28796768,-0.00055170874,-0.06679008,0.09539373,0.08340268,0.1439283,0.26493752,0.074071184,0.2332248,0.10077694,2.6730281e-06,0.08924963,0.05537956,-0.15280218,-0.3337046,0.003937743,-0.12016591,-0.06287576,-0.110485174,0.020581799,0.0199766,-0.027417583,0.09242843,-0.14707097,0.037807565,-0.12416202,-0.076787055,0.008387612,-0.022688026,-0.36731318,-0.21669331,-0.17554122,-0.036766794,0.14401047,-0.14292905,0.019521892,0.0525499,-0.15303959,-0.06476092,0.005235072,-0.04024458,-0.110292576,0.015019413,-0.13961914,0.06265192,-0.15319256,0.043252453,0.022627054,0.035076924,-0.037322536,-0.15854605,-0.03507853,0.15679437,0.13828191,0.05013207,-0.14198014,-0.14941837,-0.3194245,0.08990947,0.037072387,0.11430813,0.060405243,-0.008382343,0.07714746,0.10520811,0.10966364,0.1643187,0.063715324,-0.24924393,0.053370744,-0.04324323,-0.018786134,-0.10212691,0.02218703,0.064288735,0.04510449,0.026217965,0.034038823,-0.18566269,-0.21587466,0.034169357,-0.20169461
0.11532524,-0.03158321,0.0387098,-0.3073619,-0.044566203,-0.060824834,-0.105097406,0.023232961,-0.06606962,-0.30729833,-0.08422788,0.00950369,-0.04270783,-0.0018538653,0.076869324,-0.16649103,0.07780355,-0.06559747,0.025300048,0.15442307,-0.12633547,0.038948733,0.13825765,0.05603883,0.046999782,0.122618556,0.14623961,-0.12180924,-0.09134265,-0.016473696,-0.07256381,-0.07107606,0.049786445,0.02379076,0.08556127,-0.012411828,0.005037035,0.14184025,0.027983602,0.19691022,0.0632284,-0.04674278,-0.18569203,-0.07717452,-0.11614029,-0.13091224,0.07532581,0.03402549,-0.12793292,-0.014830739,-0.07162171,0.020358056,-0.31003538,-0.027811132,0.08401448,-0.12260286,-0.0885622,-0.066584446,-0.06599829,-0.09850931,0.06962518,-0.12084295,-0.06842926,-0.10403653,0.10184207,-0.2758799,-0.025884802,0.029805498,-0.037548095,-0.0001907894,-0.27523863,-0.026193602,-0.051013194,0.039689027,-0.036422398,-0.05830614,0.01543888,-0.011800109,-0.037481148,0.121616445,-0.12325891,-0.26379472,-0.1678293,0.016645426,-0.0057328385,-0.09007161,0.016799033,-0.05764935,0.078145966,0.053971794,0.05432242,0.05087894,-0.13822651,0.04986369,-0.10370564,0.011661699,-0.24510302,-0.10033934,-0.058144957,-0.3429258,-0.2547922,-0.05591206,0.067909524,-0.16183077,-0.010881938,0.019081362,0.06196209,-0.0072702086,0.03699545,-0.049282417,0.10203164,-0.038084254,-0.026095998,-0.011335316,0.1259079,0.06550813,-0.040112752,0.012079585,0.025158437,0.049552348,-0.046034466,0.08182439,-0.024363313,0.12050716,-0.03459882,-0.14665586,-0.020908082,0.17485459
-0.05392623,-0.013057894,-0.037919898,-0.099317856,-0.22049606,0.093603805,0.13575946,-0.25673488,0.0978633,0.09350557,-0.051777825,-0.03269769,-0.14090079,-0.22831386,-0.16241595,-0.130893,-0.036332782,-0.08758044,-0.14615394,-0.11738974,0.23196328,0.07780147,0.088222325,0.049193446,-0.07354598,-0.014293523,-0.011956676,0.2750215,-0.26553658,0.08811652,-0.16763462,-0.21993424,-0.0027822421,-0.07158543,-0.04358593,-0.07218358,-0.19762738,-0.10478666,0.080870256,-0.13354388,-0.26582775,-0.03155366,-0.07705369,0.0216254,-0.033718806,-0.29999122,-0.080799446,-0.25214207,-0.2788766,0.16142546,-0.07260719,-0.019745423,-0.03639413,0.09244798,-0.037655797,-0.05023864,-0.060185447,-0.068355374,0.06275965,0.046405964,0.044075944,-0.1679903,0.07581972,-0.2082707,0.13953272,0.05241261,-0.23274982,0.009002305,-0.020805107,-0.09057082,0.21817933,0.03851896,0.038088858,-0.10125872,0.041717514,0.08434622,0.05425653,-0.1769507,0.05605326,-0.0330605,-0.18803172,0.07115675,0.047497258,-0.23674324,0.17922214,-0.05570464,-0.30287334,-0.21277896,-0.076768726,0.10520262,0.015300014,-0.13634092,0.096744515,-0.0025984584,0.09958969,-0.47181204,0.059327647,-0.108659945,0.056676757,0.018762503,-0.034747574,-0.05029172,-0.004961043,-0.09653068,-0.12881504,-0.035955597,0.05918926,-0.12056739,-0.053971622,0.07382861,-0.021291597,-0.043418918,0.14341585,0.067574546,-0.12173914,-0.06138734,0.110847086,-0.1355885,0.113046475,-0.011046538,0.14472269,0.008998268,-0.20003134,-0.039226282,-0.1612368,0.11057203,0.15900809,-0.038556017
-0.009729419,0.053336576,0.15353394,-0.13384151,-0.12472314,-0.34235784,0.024450658,0.10349742,-0.10376337,0.0036333688,0.041966267,-0.15894371,0.03858584,0.1570081,-0.0833488,0.06707396,0.13481745,-0.0674466,-0.091372505,0.028768674,0.12010556,-0.07079314,-0.2249067,-0.32950252,-0.3398367,0.027584773,0.052456,0.100749485,0.114215426,0.1843695,-0.028469559,-0.06094832,0.16310313,-0.21398531,-0.33663362,-0.08404115,-0.21676938,-0.08863188,-0.09121528,-0.065968566,-0.12094943,0.08066906,-0.038884185,-0.27583957,0.0325084,-0.06707075,-0.1888501,-0.075563475,-0.09056068,0.07186952,-0.39249524,-0.23299108,-0.048295025,0.032538954,-0.103226475,-0.24091451,0.14007397,-0.14216658,0.11633383,-0.22784917,0.036536388,-0.30598167,0.022830987,-0.23186241,0.08427204,-0.124723434,-0.039421286,-0.19099909,0.08455787,0.024454836,-0.10032548,0.12777823,-0.1234729,0.017954446,-0.108801775,-0.08612188,-0.13699481,0.04075027,-0.10434089,-0.18364772,-0.039602403,-0.21448186,-0.1456873,-0.014788021,0.097264506,-0.23253758,-0.06871855,-0.04950527,-0.047642026,-0.14063922,-0.050476447,-0.1621696,-0.13306567,0.0048166364,0.10590864,-0.07040821,0.10885388,0.006334312,0.15460517,-0.15644471,-0.12312755,-0.041074805,-0.11327542,-0.15899415,-0.04871257,-0.24178736,0.025988623,0.11849482,-0.04008925,0.075633846,-0.026946116,0.10505581,-0.20147747,-0.12469083,0.08743153,-0.29291952,-0.19916913,-0.13387401,-0.2157995,0.058585707,-0.34115368,-0.1225989,-0.108905,-0.09727038,-0.007311644,-0.2954045,-0.28199646,-0.08142256
-0.035409816,-0.007229947,0.092159405,0.053875946,-0.06239884,-0.09270075,-0.2308607,0.06893955,0.117921256,-0.34693605,0.13605562,0.021231797,0.06474645,-0.061533406,0.14738616,-0.34493032,0.101035096,-0.030962015,-0.1165101,-0.19857164,0.02743019,-0.0969564,0.032008834,-0.20952892,-0.07471187,0.06688769,0.02721194,-0.30782428,-0.064482585,-0.21129325,-0.07216916,0.048232734,-0.04189342,-0.064070806,0.03300594,-0.108814046,0.010677967,0.076772034,-0.06117989,0.016736941,-0.10976266,-0.09830102,-0.46824592,-0.11449461,-0.1611923,-0.15166798,-0.07647123,0.07801273,0.05823648,-0.024239706,-0.007891484,-0.14350899,-0.084415965,-0.16196615,0.09502788,-0.18955097,-0.022183826,0.16593768,-0.10718284,-0.034535397,0.11350784,-0.05753427,-0.056587826,0.18282032,0.08713009,0.20287871,-0.12237337,0.056816727,-0.02891554,0.038458902,0.069700524,-0.19628753,-0.03369853,0.07948776,-0.17750725,-0.08878419,-0.0036582383,0.040717173,0.019284595,0.02358682,0.06384371,0.06927672,-0.107079834,0.00015481556,-0.07958927,-0.22323972,-0.07469805,-0.2959988,0.14557202,0.035240762,-0.038354073,-0.03794927,-0.05081482,-0.21772029,-0.12760131,0.03617833,0.111312374,-0.012021648,-0.1624367,-0.2057048,0.06253818,0.014843291,-0.1145423,-0.3014925,0.02127692,0.01166947,0.096370645,0.08957878,-0.124911666,-0.15038487,-0.04375878,0.17990583,-0.09638167,-0.06870503,-0.2532014,0.061151296,-0.09269834,0.024057291,-0.086653545,0.104656875,0.010389451,0.22857554,-0.14337865,-0.16955669,-0.0010764286,-0.07438748,-0.00012548205,0.19506902
-0.17915143,-0.08992036,-0.16765697,0.16524403,0.015069358,0.0026357186,-0.19033808,-0.12778336,-0.051231544,-0.09695837,-0.032994274,-0.10808633,-0.051194005,-0.23301578,0.00885199,-0.044698186,-0.10070818,0.17783171,-0.0034663293,-0.1747462,0.21109606,-0.15446061,-0.3375489,-0.17851691,-0.0022164714,-0.11874221,-0.01095179,-0.2982143,-0.04268494,0.15211582,0.021177337,-0.100159466,0.009518424,-0.09743157,0.044611383,-0.12780029,-0.14676268,0.09486719,0.0205565,0.015414934,-0.120369695,-0.012712052,-0.19716588,-0.13307987,0.012849388,-0.097252905,-0.009759766,0.001176841,0.019668518,0.10074175,-0.021481883,-0.16706884,0.11939981,0.3364651,-0.009485518,0.10672644,-0.075649016,-0.09324699,0.051292364,-0.15733534,-0.11643139,0.05458361,-0.012423411,-0.22921936,-0.13815115,-0.45342353,0.01557308,-0.03628423,-0.024556315,0.04716257,-0.15868683,0.021572964,-0.00080753304,-0.19209754,0.049879313,-0.2247678,-0.015877806,-0.09932528,0.14815477,-0.2298024,0.047268253,-0.026517514,-0.0023799075,-0.03171797,0.095756866,-0.23685725,0.04038704,-0.12908654,-0.035076194,0.014232911,-0.055778738,-0.1953923,0.09759134,0.012524433,-0.06055904,-0.022049524,-0.2055385,-0.030547615,-0.3362595,0.07409788,0.17871311,0.038289603,-0.114102736,0.09664242,-0.017513607,-0.08043771,-0.3401995,-0.29506147,-0.060256958,-0.17515923,0.01755202,0.07274816,-0.19023918,-0.012809698,0.09212796,-0.21311681,-0.31528127,-0.16236356,-0.26345524,0.09931732,-0.2539327,0.085334726,0.0068786126,-0.116903804,0.06950041,0.19581737,-0.120892875,-0.24261308
0.007867251,-0.14202449,-0.23151271,-0.0055892454,-0.4596585,-0.15877713,-0.13186537,0.20000613,0.13952728,-0.5444115,-0.21659923,-0.23922382,-0.06892971,-8.056175e-05,-0.13299061,0.06632204,0.06571316,-0.0032880644,0.19080189,-0.19424416,-0.29546255,0.06245394,0.044074412,0.14541765,0.102820754,0.10464428,-0.11305092,0.08101196,0.30392087,0.221451,0.086086765,-0.019371798,-0.20077547,-0.2059065,0.06091225,-0.01754098,0.105386786,0.012442665,0.14802827,-0.2792064,-0.04877426,-0.016402273,0.12539504,-0.53626573,-0.16468501,0.047635432,-0.075729206,-0.094219096,0.109862134,0.005508599,-0.22763565,-0.13503541,0.04310944,0.30907783,-0.09444729,-0.5150543,0.17575571,-0.34637934,0.071117185,0.23934484,-0.0064043454,0.047995314,-0.28657353,-0.07676055,0.26489776,-0.19679868,-0.05632419,0.0562925,-0.3414459,0.05637714,0.015176905,-0.18417637,-0.07268439,0.016568502,-0.06592882,-0.059007663,-0.041989125,0.03786081,0.0055979826,0.16612682,-0.4332613,0.07242347,0.16822672,0.16534841,-0.14224714,-0.06768295,0.33749363,0.037631903,-0.1384699,-0.14092308,-0.11776075,0.012628368,0.03305989,0.1496329,-0.02878517,0.009458924,-0.1290078,0.040882748,-0.011563102,-0.16355033,0.13383651,-0.11187349,0.16020212,-0.04520732,-0.2858819,0.071005516,-0.19328895,0.040100046,-0.11281566,0.012879189,-0.26427522,-0.36840263,0.010499219,-0.16977261,0.13143297,0.06328694,-0.36642176,-0.24192643,0.045231916,0.043667782,-0.21241373,0.11575278,0.08725624,0.15281548,0.0015842969,-0.07591032,0.0034997414,-0.10135993
0.03625114,0.008527331,0.013553427,0.160678,0.07279238,-0.15874726,0.0033379747,-0.16405706,-0.02225795,-0.17683972,0.030267531,-0.07355987,0.002917194,0.057510685,-0.08800229,-0.22818892,-0.07731055,-0.06572896,-0.06390353,-0.10128806,-0.2802115,-0.020563014,-0.11824124,-0.09945487,-0.38139582,-0.5064356,-0.106424995,-0.321412,0.23863211,0.20956513,0.33103523,-0.18760554,0.028898563,-0.19953677,-0.18128979,-0.11042045,0.16391337,-0.12778834,0.012994984,-0.024077008,-0.3305977,0.26592395,-0.105955265,-0.18092391,0.19201514,-0.143215,-0.21825479,0.047102306,-0.026135478,-0.1606083,-0.114279725,0.10109408,-0.021723332,-0.1786892,0.1315105,0.025947692,0.023048613,-0.06016144,-0.086843796,0.021557445,-0.012633593,-0.12085068,-0.30023766,-0.013145662,-0.050926734,-0.25323182,0.012804978,-0.02907326,-0.34435412,-0.067433216,-0.03647133,0.03843076,-0.044146337,-0.018082172,-0.3416371,-0.026993675,0.092384994,0.01986988,-0.07553086,-0.34878886,0.12472322,-0.44366595,-0.08781589,-0.15715602,-0.14018,0.07376039,0.059699737,0.048297744,0.075159594,-0.013635199,0.13353549,0.05911491,-0.19028759,-0.13089006,0.0844482,-0.035692193,-0.023493884,-0.16975124,-0.24988875,-0.003305221,-0.021578494,-0.0040856567,0.08122786,-0.063029155,-0.048163038,-0.40608305,-0.3157162,-0.14162885,-0.41543332,-0.49211293,-0.1906374,-0.016405145,0.060367137,0.19439216,-0.09326154,0.017189862,0.22272494,-0.05512952,-0.17727023,-0.43976665,0.045590937,0.17726177,0.22324349,-0.09773457,-0.2252335,0.10136728,-0.12872076,-0.045032274
-0.24200507,-0.2666713,0.17731187,-0.03763532,-0.0055427756,-0.41618514,-0.14289273,-0.108202554,0.12981677,0.08846057,-0.024165615,-0.03236606,0.16245525,0.007772437,-0.13719048,-0.06490381,-0.06772354,0.119623736,-0.079196766,0.1056476,0.037600584,-0.1274605,0.14080507,-0.17029527,0.019605547,-0.40213186,-0.20430538,-0.13474987,-0.3859554,-0.08996198,0.27117255,-0.024708787,0.011071649,-0.027842296,0.056316454,-0.24413152,0.014889565,-0.173774,-0.097588405,0.25628135,-0.21695837,0.11738804,0.18381676,-0.044090696,-0.16450699,-0.10377903,-0.044666044,0.098524965,0.06379984,-0.098643534,0.06760262,0.023785332,-0.17403743,-0.22835107,-0.023887351,-0.47255626,0.11356281,0.1278799,0.09453937,-0.020869622,-0.069864385,-0.24475014,-0.03681585,-0.094008476,-0.011111261,-0.015067474,0.08453946,-0.23688862,-0.13992251,0.019799586,-0.22876355,0.025489558,-0.05315268,-0.26427692,0.05789886,0.39887738,0.093377575,0.023000078,0.005332514,-0.19353242,-0.25653437,-0.16382046,-0.05368495,0.07720495,-0.08631081,0.110821575,-0.12254245,-0.07046081,0.13482043,0.11324845,-0.03655484,-0.15425026,0.080676325,-0.028627897,-0.1863984,-0.42593592,-0.0915652,-0.08286195,-0.0575159,-0.06834768,-0.12676631,0.1918577,0.011713732,-0.1688575,-0.039204303,-0.2256087,-0.21484886,0.062370967,-0.09774487,-0.07368733,-0.26211548,0.11793222,0.0389962,0.07428445,-0.051690243,-0.19575901,-0.22854468,-0.04491213,0.03898683,-0.03597507,0.12587225,-0.22025926,-0.2724234,-0.18194278,0.028691817,0.13156347,-0.12928723,-0.28395548
0.036071766,0.06595473,-0.045988224,-0.10068324,-0.063537,0.009606767,0.006422069,0.050665475,-0.026235314,-0.0043010265,0.035564594,0.025105339,0.11182299,0.047825247,0.096545786,0.03516234,0.06307056,-0.095336065,0.0036816837,0.0058737365,-0.037378464,-0.071046636,0.04688543,0.058472965,0.02350524,0.075177595,-0.05181642,0.09257548,0.014306036,0.015584041,0.024246715,-0.0001461733,0.10373686,-0.030016743,0.0027358285,0.065730736,0.0035221695,0.027215026,0.007107906,0.012312255,0.044677645,-0.025761714,-0.018896103,-0.03129431,0.10052545,-0.024573155,-0.031398017,0.102542415,0.004027911,-0.10032583,-0.00590855,0.020639773,0.008557928,-0.058308754,-0.03420713,0.0178373,0.055930395,0.04487297,0.0603075,0.002254373,-0.08987367,0.06339817,-0.0452776,0.034065656,-0.046906848,-0.10370481,0.01781324,0.037549395,0.05275218,0.016288605,-0.04144919,0.034482747,-0.027855434,0.0047318907,-0.062043525,-0.06838926,-0.090966575,0.008487702,0.12839648,0.050250042,-0.12466938,-0.108021855,-0.20647648,0.14396532,0.039839614,0.08670114,0.06037393,-0.055551786,0.038492464,0.1118628,0.16274571,0.03146187,-0.034406453,0.038193062,0.059741735,0.11926395,-0.08853932,-0.02233411,0.06306943,-0.030942773,0.026292447,0.063389875,0.039790858,-0.102801725,0.07047777,-0.02070154,-0.015422601,0.07607888,-0.09120064,-0.016216246,0.012260357,-0.07933352,0.005486198,-0.007346093,0.059476335,-0.0040282,-0.07433966,0.07350796,0.08023888,-0.045378905,-0.08594113,0.03843528,-0.014032437,0.043192875,0.058895666,-0.019896025,0.064784504,0.09255436
-0.07457375,-0.27442,-0.0049310406,0.05302491,-0.18100046,0.022096405,-0.08125305,0.20678513,-0.08187413,-0.20320754,-0.0017113388,-0.040724028,-0.07959676,-0.14322412,-0.053972874,0.13664724,-0.0027223907,0.11017253,0.19898145,0.06551797,-0.14856008,0.027407574,0.02042441,0.054655805,-0.04198327,-0.3511821,-0.049500357,-0.05587586,-0.2173133,0.01794028,-0.27485645,-0.17240284,-0.20622994,-0.10269257,0.06955996,0.07340018,-0.03300609,-0.1821014,-0.06536581,0.037672754,0.047069058,0.14473231,0.084958926,0.0636604,0.10992191,0.13441822,0.036221106,0.09128947,-0.078823924,-0.11052659,-0.12803668,-0.068376765,-0.014509013,-0.05044734,-0.006549702,0.0634266,-0.07820299,0.024763234,0.040200785,-0.010487747,-0.028736392,-0.049439922,-0.24198157,0.025594762,-0.05055121,0.08102029,-0.08287168,-0.108750075,-0.06454061,0.113496974,-0.15254937,0.0129132625,-0.0832427,-0.13734585,-0.21021838,-0.20026453,-0.03276916,-0.10093258,-0.0010857335,-0.033807904,-0.110823885,-0.06111703,-0.014808686,-0.061371606,-0.2683931,-0.4599309,-0.056476798,0.05241887,-0.42762047,0.018802257,-0.0858066,0.1319688,0.030825682,-0.1312766,-0.1547287,-0.09591971,-0.21462256,-0.025247436,-0.21906143,-0.2566406,0.054720372,0.031650368,-0.12908621,-0.052731693,0.017679984,-0.20315775,-0.18613595,-0.2261387,-0.055895653,-0.07694583,-0.21378414,-0.19976881,-0.055609148,0.08182938,-0.09660655,0.021247853,0.0055654547,-0.12189559,-0.0015803361,-0.023277296,-0.02572261,-0.11548139,0.036304325,-0.15265554,-0.17876899,-0.032727946,-0.12661815,0.006965873
0.054639395,0.002285854,-0.17461985,0.1448036,0.01490562,-0.07527475,0.13297667,-0.15384318,-0.15390643,0.326495,-0.2799862,-0.12109132,-0.046991196,-0.106931925,-0.20311907,0.03515909,-0.13667703,0.11711391,-0.08074093,-0.19951671,0.11212141,0.1326598,-0.14363457,-0.09341548,0.042733252,0.026332228,-0.045161664,0.045139458,0.13678576,0.21959567,0.16020192,0.18020402,0.08580743,0.11100373,-0.008655921,-0.10186705,0.044849083,-0.0487101,0.0134290205,0.030639036,-0.14575987,-0.025200214,0.018659497,-0.09616483,0.051170766,-0.2829809,-0.017182155,0.08653473,0.028434161,0.21373484,0.026568951,-0.0042966395,0.14303413,0.092712134,0.1445997,0.09399138,-0.003030281,-0.15321262,0.077192485,0.054067865,-0.03195692,0.109958686,0.04100676,-0.031632606,-0.096156076,0.15479575,-0.15087268,-0.10882401,-0.042814404,0.0043029864,0.08048158,0.046485066,0.04908537,-0.073848575,-0.042976234,0.04234316,-0.016048003,0.1477775,-0.0071862726,-0.10257579,-0.04238151,0.050612472,0.031086413,0.11463009,0.07178339,0.116931096,0.063125975,0.09950614,-0.33379558,-0.030277424,-0.028741473,0.08397102,-0.07605357,0.059849195,-0.0009364731,-0.05198325,0.083569095,-0.07811036,0.04963995,0.12515219,0.17560339,-0.05325031,0.104298264,0.307937,0.027876427,-0.013932734,0.004194323,0.01723592,0.11342964,0.03725971,-0.057495657,-0.020586386,0.1451951,0.04281681,0.03645085,0.09002882,0.20657486,-0.03426501,-0.058850884,-0.27716094,-0.08039375,-0.36119035,-0.113215126,-0.085473165,-0.17911476,-0.16119717,0.0454466,-0.16334301
0.12594321,0.1010872,-0.26389304,-0.109331794,0.06624599,-0.18172558,-0.123006836,0.02960844,-0.015546039,0.026591802,-0.07842539,-0.061181303,-0.013932032,-0.0018793958,0.065267235,-0.23645885,-0.04381115,-0.0572046,-0.099737585,0.0005997755,-0.5388869,-0.036227282,0.15028048,0.046536326,0.16052753,0.05687602,-0.12286038,0.009842545,-0.26017517,0.10623256,-0.44739118,0.10733378,-0.02651891,0.118505925,-0.2166787,0.029183218,0.15182239,-0.124373615,0.08443379,-0.030476328,0.09638627,0.0147432415,-0.21568179,-0.22613585,-0.02792989,-0.08114177,-0.008219397,-0.2011622,-0.024875434,0.0067240135,-0.29554164,0.095521405,-0.32978997,-0.40106627,0.09660937,-0.0076806606,0.04098857,0.042266555,-0.21034236,-0.09594552,0.054482695,-0.121415265,-0.021835933,-0.03385768,-0.035880838,-0.056864947,0.08103936,-0.114794925,-0.048757363,-0.033426438,-0.22917914,-0.013239179,-0.042756148,-0.13294801,-0.11737705,-0.36278597,-0.20681222,0.07107801,-0.011184083,0.033120465,0.13610278,-0.28496557,-0.015520432,-0.08734091,0.08760385,0.13307719,-0.2380431,-0.012375691,0.048028626,-0.22270247,-0.01852089,0.12591043,-0.031279106,-0.2646169,0.10317919,-0.21135406,0.0169704,0.06571956,-0.29501003,0.02022015,0.11484985,0.042946015,-0.15566836,-0.16645396,-0.12996835,0.0843827,-0.1726169,0.08225069,0.15976517,0.030512756,0.15336652,-0.056711983,-0.26309314,0.21003293,0.20780183,-0.35529968,-0.32862762,0.03352857,-0.06144148,-0.04582557,0.009019052,-0.29248184,-0.5029701,-0.3446268,0.2850529,-0.056654397,-0.083215915,-0.06686809
-0.022963865,0.047977623,-0.15375455,0.048741367,-0.14206396,-0.3780494,-0.37667444,0.013186044,-0.055072688,-0.10772305,-0.093900256,-0.03550108,0.092347726,-0.10097026,-0.05390003,-0.22768453,-0.031909205,-0.11484396,0.004862621,-0.042483848,-0.061073113,-0.28344098,-0.15146607,0.10750654,-0.13456717,-0.11076928,-0.08829236,-0.012587583,-0.09436346,-0.094101876,-0.027065856,0.21356687,0.12106431,-0.121215105,-0.2026882,-0.17472342,-0.20393394,0.049740203,-0.1036884,-0.04698012,-0.1288843,-0.121066056,-0.13732113,0.048772756,0.015327755,-0.21410947,-0.45053497,-0.0969388,-0.13728198,-0.16394745,-0.242277,0.3772353,-0.084520705,0.022842098,0.15946041,-0.28082228,0.20684817,-0.05299527,-0.073593885,-0.22868875,-0.13545741,0.08882691,-0.07166236,-0.0020176212,-0.17782119,0.116631694,-0.16288538,-0.033297025,0.05196085,-0.32217804,-0.10270723,0.13372745,-0.14326148,-0.08770994,-0.07983745,0.22543329,-0.31276527,-0.08903912,0.09017111,-0.3505441,-0.1485599,-0.20765088,-0.004886756,-0.17723009,-0.1662836,-0.30241373,-0.18893985,-0.44967014,-0.14507526,-0.16955969,-0.08855519,-0.012569153,-0.09444385,0.031186547,-0.011404436,-0.1869142,-0.16618846,-0.12525563,-0.24349196,-0.25271133,0.17743531,-0.19661255,-0.46236822,-0.12923299,0.0824839,-0.077464685,0.1354808,0.08074109,-0.440409,-0.3488421,0.12529297,0.26852822,-0.09464992,0.1742564,-0.089808844,0.028645553,-0.030752447,-0.15389386,0.08021481,-0.100315645,0.033355694,-0.094332464,-0.04201058,0.2179693,-0.0053365403,-0.09790881,-0.3488803,0.010143566
-0.089677185,-0.25185686,-0.05301762,-0.018332172,-0.0073392647,-0.00083680236,-0.3988233,0.12270698,-0.10676631,-0.18065773,-0.14056572,0.08881939,0.0027051445,0.02698952,-0.084574826,-0.23337533,0.11625923,-0.21101342,0.017966673,-0.018794445,0.22748268,0.063889585,0.031329103,0.024785684,-0.016937373,-0.06019944,0.07545991,0.08448065,0.011701535,0.030653657,-0.15303297,0.06626195,0.033813935,-0.113019355,-0.078811534,-0.055934653,-0.06937874,-0.14507692,-0.14653899,-0.049055167,0.06887054,-0.20655032,0.07525809,-0.22952923,-0.07822014,-0.057988282,-0.24408966,-0.1674501,-0.087862454,-0.09552777,-0.054629955,-0.18755911,0.15238929,0.14537095,-0.14915115,0.0968312,0.10975277,0.008107691,-0.0007888511,-0.2455047,0.20344828,0.15336226,-0.29081228,0.03088311,0.29022148,-0.1427516,-0.11493372,0.1451086,-0.093201205,0.019327957,-0.2749761,-0.018416751,-0.18355969,-0.16831659,0.030630112,0.0181475,0.21040995,-0.24916023,-0.173476,0.03865452,0.029576475,-0.110825345,-0.037613258,0.048486393,0.1286012,0.066544265,0.045127396,0.0247888,-0.15076149,-0.010610799,0.06533576,-0.30857858,-0.10686824,-0.09555586,0.024983708,0.04970996,-0.08875563,-0.13730347,-0.009685264,0.058764603,-0.1761875,0.11518388,-0.053294484,0.07908037,0.01104269,-0.27801216,-0.014039573,-0.02621763,-0.18516023,0.0035105613,-0.4196229,0.012308386,0.036110625,0.020545168,-0.001908535,-0.07459106,-0.05039996,-0.07915549,0.13555376,-0.12582092,0.021300325,-0.16448647,-0.21501797,0.025678227,-0.094700985,0.1352816,-0.25722462,-0.05240421
-0.0044744615,-0.08214079,0.12516703,0.17810927,0.0105081685,-0.0053876904,-0.08151204,0.022649983,-0.101886205,0.07123269,0.05215201,0.047023173,-0.091877975,0.14655851,-0.2560615,-0.08640127,0.057783857,0.18900633,-0.05859237,-0.1317967,0.12118037,0.021821277,-0.1912328,-0.09610223,0.123619825,0.14839892,-0.078550674,-0.13288714,-0.07568415,-0.039480057,-0.0034655537,0.23663563,-0.050156675,0.088914104,-0.024741722,0.048049837,0.054417063,0.19076121,-0.021358192,0.12012354,0.032555405,-0.019034032,0.15012094,0.08418117,-0.13921925,0.082425825,-0.045007885,0.05737697,-0.11059303,0.007014626,0.1396308,-0.094835676,-0.12619193,-0.032093205,0.026081618,-0.030224059,-0.16929778,-0.098824985,-0.013758823,0.006187905,0.2168288,-0.0953303,0.054445006,-0.035619766,-0.08869844,0.13838987,-0.013600598,-0.07976844,-0.060960963,-0.046059005,0.028892135,-0.09090497,-0.0696837,0.017221982,0.09897603,0.059889264,0.16848375,-0.015519403,-0.2605596,-0.042389702,-0.011284208,-0.038679667,-0.1602625,0.065195665,-0.08335715,0.029116586,0.09409385,-0.13061762,-0.0011365474,-0.051888507,0.011707212,0.1765764,0.07020275,-0.066532075,-0.11954397,-0.094311096,0.03636261,-0.11911736,0.12572058,0.025198443,-0.0383206,0.057880756,-0.12956487,0.060373317,0.06281797,0.20723812,0.040563863,0.048408188,0.01722063,-0.025337795,-0.02389627,-0.0007917127,0.07269105,-0.0576481,0.23254432,-0.077864565,-0.015147124,0.004357836,-0.11296554,-0.19474281,0.050071068,-0.11894551,0.051840823,-0.08608774,-0.083981775,0.025363788,-0.0052485443,-0.024667129
-0.0073903943,-0.12508586,-0.056649573,-0.013429638,-0.06127384,0.066854596,-0.07545773,-0.086776786,-0.096519895,-0.13957463,-0.17355302,0.0059892926,0.00993354,0.009041835,0.033553455,0.12950419,-0.045827348,-0.08270953,0.0039481376,-0.031110294,-0.02622209,-0.36691386,0.022372194,-0.06517149,-0.097695865,-0.24469882,-0.07348556,0.01537163,-0.2379119,0.09760878,0.009272514,-0.13935508,0.04200398,-0.09509532,0.060124826,0.04608318,0.0032147225,-0.008039787,0.103842214,-0.072802246,-0.06510906,-0.027951246,0.15061134,0.022192866,0.06417139,0.055026725,0.06317647,-0.09614515,-0.017669428,0.05691791,0.02307421,0.072374806,0.027753,0.040200584,-0.174445,-0.07735841,-0.012127253,-0.017824445,-0.059819907,-0.12464265,0.052011628,0.05087597,0.020577744,0.029807238,0.03345799,-0.0065954314,0.03391513,0.04593042,-0.25005782,0.026707197,-0.03331218,0.028058667,0.10891421,-0.016314035,-0.12775412,0.12658611,0.15356074,-0.12556858,-0.12516491,-0.017073788,0.0729455,-0.040197477,0.10673207,-0.050139483,0.031091694,0.04351097,-0.21010938,-0.052482437,-0.10674346,-0.031490706,0.00080373697,-0.011462819,-0.28857765,-0.06157272,0.06282414,-0.043370318,0.09979509,0.0077464953,-0.058951218,0.084973425,-0.16875593,0.121065676,-0.0042481176,-0.046375174,0.04602845,-0.15597664,-0.025751848,0.014787709,-0.19381575,0.029372184,-0.008909983,0.056900978,-0.2227505,0.0036121574,0.0007646798,0.0351898,0.08086861,-0.018099643,0.019017817,0.117392205,-0.021212857,0.11570907,0.021961022,-0.39944986,0.13404082,0.017010074,-0.25312647,-0.2023752
-0.013984507,-0.01254302,-0.056495048,0.019867968,-0.23875025,-0.11105241,0.07448302,0.07041961,0.028785847,0.04509909,-0.0066377455,-0.31416893,-0.067753315,-0.083049595,-0.2717706,0.0036067516,-0.08497691,0.11351901,-0.15297097,-0.038351845,0.076745555,-0.047840778,0.037480548,0.04646,-0.048237875,0.08958504,-0.044763505,-0.108927704,-0.01940667,-0.040315002,-0.036233544,0.06071856,-0.22198464,-0.1520033,-0.04165795,0.12592897,-0.048625704,-0.17272691,-0.26851302,-0.05633915,0.09806232,-0.07386477,-0.02806909,-0.09205754,0.05279816,-0.23681365,0.096256785,-0.0013742334,-0.05356372,-0.11694211,-0.26162776,0.019966103,-0.21686241,-0.10062938,-0.06100546,0.013291994,0.109759346,-0.08114464,-0.017062929,0.008316963,-0.24676444,-0.010070058,-0.029028345,0.10807693,-0.15069054,-0.31814307,0.09031537,-0.15649453,-0.03300063,0.16032173,-0.065758586,0.03543964,-0.15006936,0.035393428,0.052362956,-0.08723379,-0.05409579,-0.109041974,-0.11779881,-0.21254413,-0.33878282,0.12259954,-0.043017104,0.07625049,0.006050255,-0.022034723,0.16424815,0.08352759,0.07159145,0.06797858,-0.044151854,-0.2450729,0.15785332,0.14499423,-0.086976156,-0.12439008,-0.24953662,0.073992245,-0.28310817,-0.1293045,-0.14539216,0.14413294,-0.054128997,0.132343,-0.08347255,-0.12368933,-0.009315746,0.03222336,0.044969317,0.13628499,0.027321743,-0.21783373,0.09997722,-0.05206022,-0.00055284146,-0.2256219,-0.18240462,-0.0049085165,0.102214,0.16648927,-0.119002536,-0.18803747,0.13422596,0.048861828,0.18156919,0.16696021,-0.095089294,-0.02939208
9.3498275e-05,-0.17821053,-0.089565665,-0.0982464,0.05328919,0.08082086,-0.06920557,-0.02479465,-0.26633203,-0.31788355,0.022002311,-0.12301327,-0.04756202,0.047448408,-0.090105526,0.052543666,-0.025162864,-0.01157488,-0.04730481,-0.11284474,-0.19881938,-0.33298782,-0.2669247,0.12021383,0.11148157,-0.13531248,-0.23875734,0.29958913,-0.28517047,0.1768579,-0.11177514,-0.06057446,-0.021683892,0.13161477,-0.30509883,-0.46475533,0.08453658,0.021927634,-0.07931405,0.049292613,-0.0325027,-0.056799777,-0.40925968,-0.44030848,0.07398907,-0.45307887,0.085639365,0.06380409,-0.13486984,0.170231,0.06152817,-0.4990967,0.17310917,-0.13110146,-0.013797205,-0.052388377,-0.0012803646,-0.02127302,-0.38272333,0.007418449,-0.24300036,-0.38836405,0.07808834,-0.008941127,0.05503961,-0.12749662,-0.09199232,-0.17860411,-0.31800845,0.025212985,-0.2238119,-0.25496653,-0.20354295,0.046003345,0.062530704,-0.020614427,-0.15739834,-0.2753737,0.18455786,0.03497335,-0.4250465,-0.01152013,-0.08689687,-0.112518765,-0.12708287,-0.29166245,0.06448099,0.07545415,-0.2316509,-0.117621824,-0.012865181,-0.27032158,0.14202377,-0.06340731,-0.013938015,0.08484496,-0.1038255,-0.102749534,-0.20484428,-0.05188915,-0.063932106,0.13539083,0.09504461,0.15620957,-0.082310446,-0.083503805,-0.104175426,0.027859475,-0.070996866,0.007361384,-0.14454211,-0.22357555,-0.032784205,-0.15953408,-0.14566793,-0.05683801,0.1833794,0.043244466,-0.2012117,-0.11820807,0.16536175,-0.060585827,-0.15488237,0.08727424,0.01727058,0.22739227,-0.006315283,-0.09301926
0.081728354,-0.25324407,0.13947263,-0.12388213,-0.27118203,-0.114954814,-0.20019107,-0.16991928,-0.09678648,-0.3230611,-0.16182749,0.05262702,0.04277043,-0.1274734,-0.05231812,0.092327476,-0.08102787,-0.15128401,0.007491155,0.09820809,-0.2357364,0.16590889,-0.17140931,-0.08815411,-0.16511373,0.109027125,-0.22314736,0.062321603,-0.13390224,0.05256974,-0.17809899,-0.16376832,-0.082703024,-0.07540843,-0.07069654,0.011126845,0.010764889,-0.28368258,-0.011554235,0.007242348,-0.05782693,-0.086102456,-0.03762219,0.0319924,0.053959705,0.06382671,-0.108176425,0.0202462,0.1093361,-0.14864823,-0.052300703,0.08842732,-0.08770134,-0.027916476,-0.11335402,0.060598318,0.04447554,0.09774889,0.006000288,-0.10717592,-0.10246332,0.0478627,0.0038867854,0.13159098,-0.22166781,-0.09751474,-0.097527266,-0.055218432,0.09927609,0.0735043,-0.047427677,0.06401723,0.06300678,-0.13292222,-0.0748681,-0.262204,0.15889451,-0.09877379,0.09431463,-0.063137725,0.07314271,-9.6045245e-05,-0.06519522,-0.041524775,-0.11653358,-0.10346069,-0.1147398,-0.14950362,-0.17181762,-0.12380785,0.008364623,-0.036228552,-0.23334144,0.07783496,-0.0653524,0.024332808,0.075023174,-0.0972943,0.09024502,0.22919218,-0.083959244,-0.26150075,-0.18328701,-0.03802082,-0.15341035,-0.29844603,0.03576698,-0.00863062,0.017509257,-0.15983091,-0.1402783,0.100646734,0.12261822,-0.13591748,0.05841132,0.051920842,0.015035586,-0.067409806,0.10538191,-0.10528797,0.06690439,0.027625434,0.11852035,0.012328725,-0.44254023,-0.03717386,0.14949776,0.09017517
-0.053122133,0.009420202,0.04950189,-0.38021895,0.0158686,-0.0020522007,0.0062328097,-0.040553905,0.044704165,-0.091771625,0.1159489,-0.01625513,0.08008894,-0.018879898,-0.06389211,-0.20528643,0.20176205,0.005561229,0.012043013,0.0656781,0.032434445,-0.07567391,-0.06016639,-0.0084737195,0.048741095,0.01219744,-0.041834705,-0.094592445,0.10138992,0.09209592,-0.15206276,0.18107846,-0.18627301,0.013573699,0.07899775,0.0020245928,-0.12616108,-0.11604656,0.22076009,-0.24543637,-0.1145752,-0.31507248,-0.10071573,-0.15818329,-0.11460573,0.04531459,0.022107169,-0.033926684,-0.0067700665,-0.218924,-0.01212061,-0.083191454,0.23700693,0.07349917,-0.076974235,0.17277047,0.16816783,0.071629874,0.088308856,-0.15793549,-0.19870481,-0.010072693,-0.02557269,0.06252763,0.069196664,0.07629914,-0.14246629,0.13183197,-0.05581273,0.045554683,-0.13624723,0.14601947,0.000935828,0.08613502,-0.023141386,0.06973938,-0.050253406,-0.068594776,-0.009975433,-0.045449156,0.046833817,-0.022735272,0.06045953,-0.24276872,0.067454845,-0.28182116,-0.050341062,0.00865673,-0.08500224,-0.01448413,0.05011185,-0.120914154,0.09860718,0.013377836,0.0731979,-0.03599473,-0.22987248,-0.11061572,-0.07916477,-0.0116206445,0.05404417,-0.15118152,0.000864468,-0.013510853,0.03031548,-0.06911177,0.09894241,0.06367977,-0.69505566,-0.019709742,-0.07324827,-0.1522191,-0.07900202,-0.29048583,0.14145072,-0.03191552,0.18929501,-0.07333624,-0.024440762,-0.045688987,-0.016744323,-0.17354701,-0.063514605,-0.059548497,0.0011129654,0.20808552,-0.05328134,-0.3614165
-0.03167099,-0.19700383,-0.12856416,-0.14024606,0.0049112844,-0.011672107,-0.44565254,-0.03015043,0.18097094,-0.2924223,0.20616451,-0.12292425,0.026862564,-0.085605636,0.013184744,0.028150972,-0.42871228,-0.18364824,0.15533668,0.06778137,-0.1519975,-0.03729401,-0.009749319,-0.122731835,-0.015832061,-0.0062291604,0.08410175,0.07929532,-0.40240076,0.093936294,-0.032474138,-0.31231326,0.09208648,0.06386519,-0.012869483,-0.24883893,0.029854907,0.07285458,0.090243466,-0.1830048,0.048194077,0.031130146,-0.17708337,-0.040251687,0.0059833303,0.06933356,0.10311064,0.030090054,-0.111395076,0.033542875,0.32677224,-0.086330846,-0.1985253,-0.020963125,-0.051449336,-0.22206286,0.05639786,0.10306038,-0.24395052,-0.15710674,0.09490854,-0.014236011,5.717157e-05,0.023580685,0.059621137,-0.08547284,0.09198749,-0.046859123,0.011420876,0.034908433,-0.13951269,0.12210493,-0.015005004,0.07947982,-0.33529404,-0.092836924,0.36654735,-0.21236803,-0.023351064,0.15084037,0.17593712,0.054203335,0.0053171976,0.09045418,-0.052665133,-0.029717885,-0.24353771,0.19379091,0.08096706,0.051139176,-0.07740577,0.06763084,-0.11166823,-0.050894298,0.08528848,0.0159889,0.092094794,0.047746994,0.02147314,0.026672397,-0.1989895,0.06719831,-0.24208942,-0.036027376,0.03193873,-0.04226377,-0.3591888,-0.120341055,-0.17613892,0.0783651,-0.19671644,0.0041330378,-0.16457678,-0.14831345,-0.11341554,0.011092261,-0.076661006,-0.093590915,-0.080262,-0.029497378,-0.06285565,0.04393757,0.00023896463,-0.30892855,0.029523287,0.090617076,-0.3397578,-0.0036695912
0.04783063,0.061166402,-0.033648252,0.09253223,-0.05646652,0.04210617,0.021838551,0.20120034,0.0108211925,0.019027893,-0.1372791,-0.026540814,0.09177387,-0.090729,0.00060371635,-0.10961596,-0.062210325,-0.2101179,-0.16246632,-0.017341964,0.01361065,0.114269175,-0.09452078,-0.06541091,0.14876758,0.07453706,0.005702089,-0.0970639,0.054164257,0.037939433,-0.12178471,0.16110618,-0.056860983,-0.08027223,-0.015581229,-0.051381253,0.079085365,-0.06929673,-0.032466833,0.06831934,-0.086004466,-0.006016306,-0.046533182,0.07492534,0.013403196,-0.121772446,0.06580446,0.04360854,-0.003755515,-0.13085853,0.016821597,0.08814067,0.17267828,0.0812614,0.17712857,0.0088714855,-0.1485456,-0.069777146,0.062421508,0.070480034,0.01837117,-0.013008132,-0.07543681,0.048033636,-0.0742312,0.01676153,0.12774202,0.048388794,0.050183263,0.095528945,-0.015540937,-0.012265038,0.083789654,0.02188709,-0.023381358,-0.113999784,0.06076074,0.11865612,0.037255093,0.020713333,-0.07324657,-0.10812833,-0.24628773,-0.06547794,-0.030518003,0.19398536,0.057385057,-0.10830791,0.035557967,-0.008084519,0.095037706,-0.12111122,-0.052620657,-0.022485163,0.0777031,-0.017469758,-0.10339484,-0.21257773,0.014331985,-0.064914025,0.066021465,0.084707014,0.0016888289,-0.0963515,-0.073295526,0.037846882,-0.055557188,-0.08110076,0.11347825,0.123881444,-0.094679914,0.073375046,-0.05333482,0.036820475,0.09248329,-0.07447331,-0.08246004,0.11213488,-0.07678874,0.040287714,0.039140835,0.0590314,-0.07452248,-0.023441132,-0.11084963,-0.08432832,0.107668206,0.109382235
0.07034267,0.031717103,-0.1031048,0.054774866,0.039753243,0.0815547,-0.13455944,-0.04655851,-0.06129479,-0.23042391,-0.22934756,0.0032291606,-0.027231937,0.061902437,0.0902436,-0.21930572,0.054410912,-0.30328342,0.17796539,-0.009645031,-0.3952333,0.034866747,0.027532443,-0.0024442608,-0.025855763,-0.0052008694,-0.085915394,-0.09829041,-0.22377798,-0.19446455,-0.022110628,0.03407389,0.089357674,-0.17958009,0.17157693,-0.023397213,0.107879974,0.12331076,-0.15787616,-0.22417417,0.028837254,0.09635157,-0.2739203,0.050944135,-0.06851866,0.053903867,-0.05336119,-0.13214459,-0.071646705,-0.13423719,-0.0499174,-0.06721775,-0.056580972,-0.09140664,0.07590318,0.03038039,-0.3060413,-0.110082306,-0.042608697,-0.0025608854,0.05703118,-0.14194936,-0.16609196,-0.14492154,0.08419604,-0.22826333,-0.14016317,-0.08291326,-0.23720902,0.05771118,-0.256344,0.05803817,-0.13026254,-0.038728442,-0.18369612,-0.3808283,-0.18189125,0.13636021,-0.005571049,0.24012478,-0.22603899,-0.3952461,-0.40829393,0.052109778,0.033027768,0.034342382,0.11321457,0.054145876,0.07324172,0.023588464,0.015827134,-0.07972647,-0.1864506,-0.077756874,-0.073014796,0.065917894,0.07870947,-0.096272,0.06312732,-0.18799669,-0.26344463,-0.18092458,0.071266755,-0.36454427,0.017099913,0.1144789,0.053153634,0.07327053,-0.0648288,0.024314724,-0.029947218,-0.055591006,0.04955267,0.050647628,0.069421306,-0.08782083,0.03184035,0.032019917,-0.020904357,0.012251108,-0.06967551,-0.0136907995,0.054259695,-0.099777475,0.22678469,-0.09958113,-0.11236026,0.20611084
-0.11391069,-0.0017247209,-0.046653558,-0.12806524,-0.060069352,-0.07169092,0.12640077,-0.38636175,-0.07267188,-0.119149394,-0.12505214,-0.05684641,-0.08544355,-0.0022014792,0.00020214387,0.017136447,-0.12003885,-0.50125253,0.019938972,-0.26869377,-0.030548075,-0.0068277214,0.17049171,-0.08510112,-0.07679039,0.13065127,0.2519956,-0.014169941,-0.04824028,-0.087749444,0.070309594,-0.097043194,0.0075649493,0.02298239,-0.3454296,-0.07364449,0.04183339,-0.082809426,-0.34224495,-0.1555815,-0.09186517,-0.021702435,-0.035254825,0.0001782175,-0.072472356,0.07783497,-0.2010317,0.00026268925,-0.13781005,0.28182226,-0.66620785,0.17662491,0.18869445,-0.06075909,0.018879812,-0.06257685,-0.046495087,0.21526785,-0.055208914,0.009670714,0.031852547,-0.15152623,0.011523346,-0.3420803,-0.22252229,-0.007886509,0.023599569,-0.16032638,-0.10105095,0.025831927,-0.3145718,-0.28568375,-0.38909724,0.096467234,-0.051742285,0.0032275752,-0.5178195,-0.2884253,-0.2929527,-0.15983175,-0.03689984,-0.29563072,0.1488014,-0.4623618,-0.018924626,-0.04490435,0.05695627,0.12867515,-0.033797633,0.048718207,0.10169111,-0.26002157,-0.032826364,0.020036811,0.0074151154,-0.04536082,-0.33925188,0.0022107644,-0.20057283,0.1621725,-0.07344578,-0.34235212,0.090181336,-0.11726982,-0.51469195,0.089940675,0.09160936,-0.0054740687,-0.45817554,-0.22469015,0.028717972,-0.3982984,0.16018274,0.2257214,-0.10973933,-0.16562258,-0.024330013,-0.12915416,-0.18049459,0.12766482,-0.20676279,0.03968234,-0.41606426,0.11531547,0.008364195,-0.36771342,0.13799949,-0.17096421
0.08644102,-0.07838735,0.00953304,-0.030258926,-0.2721989,0.10060152,-0.15152335,-0.12740584,-0.06764916,-0.17238425,-0.27399284,-0.14300789,-0.06284473,-0.059849393,-0.08922973,-0.011880815,-0.2464897,-0.33456972,-0.34020522,-0.018707471,0.10371824,-0.15745416,-0.15805146,0.0035748668,0.08215182,-0.119887285,-0.047549617,-0.031965513,-0.21729809,0.10492749,-0.03601903,0.1665401,-0.36479834,0.0011037556,-0.11938831,-0.21784292,0.14383857,-0.10265076,-0.14367811,0.026668273,0.11455273,-0.1607148,0.08941616,-0.070585206,-0.028714469,0.21816944,0.02797635,-0.003238476,-0.24534422,-0.18697025,-0.16108319,-0.13023639,-0.105999924,0.04158567,-0.047856897,0.21846764,-0.082361415,0.03303509,-0.06298214,-0.0341902,-0.09553175,-0.03155583,-0.37051696,-0.13148059,-0.108983964,0.17789222,0.1273805,0.033805806,-0.13020122,0.027700635,0.10644079,0.09753556,0.028328186,-0.080948934,-0.41226345,0.028811814,-0.00983305,-0.09920257,-0.0607804,0.06492417,-0.0528442,-0.07184141,0.12688968,0.049760323,0.09176135,-0.12292965,-0.28311804,-0.11959926,-0.14510565,-0.0029420368,0.023548847,0.10166774,-0.08463097,-0.012062126,-0.18429887,0.12194631,-0.09931441,-0.45277002,-0.33920336,-0.012385264,-0.09747395,-0.14501542,-0.043348506,0.13594759,0.08281096,0.010293024,-0.07085294,-0.11268692,-0.25137284,-0.13189662,0.14258072,-0.030290673,-0.10939336,0.08147184,-0.2820339,0.003169661,0.17154121,-0.09667594,0.0068701496,0.00031533252,0.10062984,0.0076252823,-0.084845014,-0.107908584,-0.27170146,0.10040265,-0.0119372895,0.07544219
0.036856122,0.11307606,0.047523417,-0.3539996,0.00029524372,-0.25752512,0.062503465,-0.027871339,-0.072277896,-0.024395915,0.10461618,0.10968789,0.03910643,-0.2524755,-0.09710531,-0.045912113,-0.025897514,0.005003931,-0.35014996,0.03649606,-0.14332114,0.06383916,-0.03791175,0.03429087,-0.06881047,-0.09070349,-0.046448495,0.050316382,-0.025422668,-0.1638856,-0.096797764,-0.21597639,-0.06530454,0.040755138,-0.025324548,-0.009345772,0.11500958,0.05768591,-0.025885323,-0.07907154,-0.29208657,-0.42104524,-0.11206511,0.124072425,-0.1133842,0.006868758,0.13048273,-0.6722129,-0.13395125,0.048443757,0.27064347,0.14179957,-0.36046454,0.07752398,-0.29780614,-0.16426061,0.056126684,-0.18304813,-0.12291801,0.06702,0.086255684,-0.100628726,-0.104762554,0.1568232,-0.11824941,0.27355117,0.16770712,-0.019506188,0.13514324,-0.20971806,4.493031e-05,0.14835593,-0.18721661,-0.105141416,-0.044873912,-0.19321854,-0.021051027,-0.08307676,-0.064829014,0.05418536,0.17574912,0.114001155,-0.12777762,-0.12844343,-0.1593922,0.091258734,-0.09616844,-0.06456381,-0.1012547,0.07350225,-0.045548093,-0.034361854,0.013256685,-0.18471636,-0.09968044,-0.009119946,0.18986523,0.082155764,0.057547957,-0.05898834,-0.16386364,-0.50266546,0.11936103,-0.010524507,-0.21720006,-0.05741473,-0.13797693,0.0076188124,-0.20165356,0.11240497,-0.18598305,-0.10570423,0.07945855,-0.18229872,0.06264297,0.023254119,-0.030971013,-0.019334791,-0.013800608,-0.060703,0.09684989,0.0068016173,-0.47611043,-0.026175587,-0.11271909,0.068493426,-0.087907895,-0.128929
0.07255051,0.109883405,0.035697512,0.05489827,0.008477129,0.027028078,-0.06406823,-0.06043139,0.01139582,0.034102466,-0.0976468,0.037743,-0.024714202,-0.025932424,-0.10518127,-0.06482748,0.041593187,-0.019262064,-0.23906682,0.006797068,0.092781216,0.044099197,-0.05170727,0.05401288,-0.019295806,-0.0661004,0.05502286,-0.09548227,0.033813518,-0.23273963,-0.06399874,0.13264607,-0.07438522,-0.06729471,-0.10115,-0.005097045,0.016885325,-0.007578237,-0.018277716,0.037616447,-0.010338023,0.021230217,-0.050574627,0.19131723,0.062220465,-0.08012613,-0.0076230997,0.08991272,-0.049459916,0.05081052,-0.04479161,0.01355692,0.00928653,-0.07162541,0.17553425,0.040501956,-0.19540353,-0.040514566,0.055503927,0.019882143,0.07083363,-0.058728565,0.04617333,0.066864096,-0.22913715,0.10732269,0.010697284,-0.023641864,0.014112161,0.0985576,-0.09923277,0.012887662,0.08437164,0.06184463,0.002642782,-0.06439599,-0.055336155,-0.011645919,-0.16001627,0.012790711,-0.061844684,0.05105645,-0.27084047,0.0123610385,-0.050433584,0.07196037,0.12185354,0.033479773,0.0797789,-0.030623524,0.08081138,-0.081457905,-0.028446756,0.02410879,0.020847924,-0.04549473,-0.051251147,-0.24748099,-0.025432106,0.004952345,-0.10251223,0.020190362,0.056038134,-0.030280946,0.03913212,0.09893104,0.067646004,0.07087547,0.06400364,-0.10348411,0.019060124,0.041033767,0.0024834664,0.07725765,-0.14241298,0.00087830843,-0.048200656,0.10034614,0.002334892,-0.10142434,0.06395662,-0.028038077,-0.04579773,0.08109593,-0.11131567,-0.030392095,0.0034816416,-0.10389783
0.05055176,-0.090976045,-0.029275764,0.015379634,0.05876376,0.083088085,-0.092408754,-0.18880105,-0.0904343,0.022759441,-0.06461772,-0.014715894,0.020983113,0.04628999,0.066967234,-0.16653298,0.068173386,-0.19940776,-0.20264278,-0.088133045,-0.06095532,-0.019555157,0.06903955,-0.20125559,-0.1732891,0.005456567,-0.16534774,0.13719381,0.20896584,-0.33892906,-0.054650642,0.06667122,0.10334945,-0.066489294,-0.18509781,-0.28032187,0.019680655,-0.07989335,-0.23511103,-0.0613798,0.011220834,-0.0379733,-0.06418366,0.103496306,0.0022841822,-0.026894694,0.07630198,-0.005796811,-0.06811427,-0.19475216,0.11348009,-0.23589839,-0.091818854,0.050049983,-0.25310773,0.0017445401,0.008332622,-0.099802665,-0.14687315,0.15934008,-0.036187798,0.17632696,0.11349348,0.095069945,-0.013692833,-0.0426915,-0.35913426,0.055014405,-0.057365123,0.03244021,-0.13593607,0.051070854,0.118998565,0.04824096,-0.08620113,-0.33638397,-0.075727955,0.07223031,-0.20416063,0.05586776,0.07717809,-0.027275022,0.21049356,-0.038789585,-0.086395614,-0.11766403,-0.22984558,0.019774325,-0.023384966,0.027874159,0.010676804,0.19381817,-0.09164431,-0.0042362153,-0.024672141,-0.19574045,-0.053502224,-0.18012471,0.02429162,0.13213825,-0.00594167,-0.14147842,0.060526192,-0.04275678,0.0254753,-0.03634284,0.04334254,-0.2694882,0.00023235886,-0.27280647,-0.16808075,-0.12511823,-0.012045248,-0.18869714,0.0057247076,0.11204435,-0.0007914979,-0.1557491,-0.28168008,-0.06274711,-0.2064516,-0.43379986,0.17954811,-0.22576346,0.042007495,-0.057049997,-0.115487516,-0.3891576
-0.07048426,-0.021994323,0.056111254,0.22396219,0.07617243,0.108446084,0.23020539,-0.18748932,-0.035148725,-0.19874045,-0.07274919,0.032199614,-0.100663975,-0.15517502,-0.15553074,0.01676427,-0.081409626,0.111049056,0.11695973,-0.045145474,-0.097212106,-0.33690512,0.047474567,0.08427526,0.12749888,-0.12616381,0.0019397241,0.035219353,-0.04515359,-0.27088866,-0.13865817,-0.024773713,0.050156653,-0.13581017,0.10248815,-0.14136252,-0.005284676,-0.10841973,-0.13619931,-0.14824863,-0.005185196,-0.17944382,0.019627504,0.093587376,-0.14647754,0.0058941855,0.022100305,-0.103022054,-0.14088923,0.045221895,0.063634306,-0.0113566825,-0.09493893,-0.0842881,-0.20188996,0.13404758,-0.17417784,-0.11143859,0.047595475,-0.14566784,-0.06705483,-0.09326326,-0.0757446,-0.255894,0.07660754,-0.267802,0.034244224,-0.12394628,-0.18775028,-0.1307688,0.097436205,0.053311974,0.086427666,-0.2636085,-0.06621015,0.08161451,-0.07688275,-0.08838791,0.13109785,-0.022911474,-0.01319121,0.031782854,-0.117256,-0.09364838,-0.03712494,0.18040161,-0.06292928,0.17935073,-0.20021424,-0.11743945,0.03473858,-0.112206474,0.21264416,-0.017178431,0.11387065,-0.08834691,0.010180546,-0.07949637,-0.1274565,0.11009701,-0.08424922,-0.28182015,-0.07380691,0.19674075,0.18479449,0.099242665,0.027682545,-0.10121934,-0.14534058,-0.013784076,0.06871507,0.06732607,-0.24758969,0.13320707,-0.07205314,-0.037914373,-0.19728541,-0.034553725,0.1272904,0.1574528,0.13109782,0.20402993,-0.056815818,-0.2917406,-0.10312592,-0.05632413,-0.14225398,-0.007247441
0.044186566,-0.21702129,-0.0095545845,-0.111941814,-0.07247479,-0.021712273,-0.23763718,0.036620896,-0.038045023,0.026931353,-0.13061406,-0.23797949,-0.051822584,0.12206947,0.022450363,-0.24069391,-0.09935568,-0.02641813,-0.1896863,0.19780092,-0.23496456,-0.1621991,-0.019032853,0.05263237,0.057229754,0.064948305,0.0061413976,-0.2083371,-0.050943557,0.033707757,0.024936981,-0.1395074,-0.22513701,-0.036811285,0.059611596,-0.017551828,0.111745454,0.039893623,0.06589301,-0.11505705,0.036015533,0.05606938,0.04686786,-0.2092769,-0.041092563,-0.013255591,0.05333992,-0.020694729,-0.025991013,-0.069930956,0.07988545,0.21391763,-0.20182055,-0.30462238,-0.28131706,-0.22351961,-0.14527768,0.12068759,-0.058573633,-0.117482744,-0.05429004,0.15235275,-0.07241944,-0.25014496,0.10965654,-0.22481401,0.14817661,0.030676914,-0.19049138,0.010674053,0.02344327,-0.17269848,0.009066391,-0.091021866,-0.066663496,-0.08368423,-0.11049919,-0.22183849,0.09760666,-0.15862441,0.05953776,-0.14009513,-0.16958769,-0.029080397,-0.021001393,0.095746696,0.1506187,0.102049455,-0.19753982,-0.1410225,-0.058905084,0.19130525,-0.09809863,-0.03320377,-0.053161737,-0.24880262,0.045092296,-0.06393961,-0.1640777,0.07281661,-0.005071136,-0.022956595,-0.016140077,-0.17422825,-0.02311922,-0.004352705,-0.08479615,-0.0048247506,-0.055632085,0.14039965,-0.054787885,-0.1293608,0.013899348,0.161663,0.213897,0.03279727,0.06579514,-0.034356613,-0.038168915,-0.332322,-0.030895835,-0.032649454,-0.22953843,0.14425878,-0.17155157,0.065365076,0.05201411,0.18538274
0.06649757,-0.027534742,-0.09906582,0.13373555,-0.2405204,0.12360469,0.14413536,-0.2518699,-0.26592517,-0.29356566,0.0011390323,-0.25629225,-0.07026752,-0.055301405,-0.04713299,0.13567315,-0.12108627,0.2731444,0.35109815,0.10629239,0.1519799,0.09220104,-0.106791064,-0.15363942,0.07688869,0.0001858036,-0.08549691,-0.00360185,-0.034201086,-0.075341806,0.12522943,-0.11847988,-0.025477037,0.18245034,-0.06798697,0.020266978,-0.104406774,-0.07270418,0.106652476,-0.15386513,-0.0984181,0.10488797,0.28737774,-0.06965882,-0.025833009,-0.15327516,0.05042886,0.018527957,-0.057980992,-0.14241748,0.19020928,-0.031750053,-0.28687635,0.049524505,-0.08106184,-0.19600514,-0.16569826,0.014393236,-0.16879396,-0.18850413,-0.10516744,-0.081883274,-0.02425207,0.082393706,-0.06354497,-0.20653774,-0.115201116,0.08239127,-0.18383679,-0.070845366,0.1622732,0.023697441,-0.15646186,0.010241693,-0.09380896,-0.025935829,-0.120916456,0.118958674,0.039029744,0.052298125,-0.078910805,-0.1459356,-0.07912777,0.13376215,-0.5598351,-0.28000614,0.14958142,-0.05144641,-0.25280684,-0.047059167,-0.06720103,0.20218544,-0.031922385,0.08340247,0.03497909,0.0041534533,0.022919102,-0.084008396,-0.28380573,-0.27252808,-0.065175556,-0.03237055,-0.06663625,0.034458563,0.039980497,-0.08617082,-0.010847355,-0.1731267,-0.031828336,-0.25382292,-0.07598901,0.002343381,-0.06741232,-0.21343406,0.10594169,0.06807966,0.0014570805,-0.023041314,-0.07853956,0.098302186,-0.092025906,-0.09451395,-0.0014383944,-0.043738168,-0.008500118,0.08087025,0.20803787,-0.048770767
0.014674293,-0.041296665,0.045536693,-0.11418184,0.021733895,0.041254144,-0.099252716,-0.101528846,0.03838443,-0.04233943,-0.26039216,-0.21588953,-0.03977096,-0.021339437,-0.08128301,0.03371564,0.03409322,0.142836,-0.033132005,0.01602968,-0.06857628,0.11726362,0.100007616,0.0423805,0.08246164,-0.021305667,-0.04210869,0.05321718,-0.0045287376,-0.081546694,0.08369202,-0.082389474,0.00471321,-0.0006098657,-0.13756636,0.064380825,0.058726512,-0.048084497,-0.05481053,0.05717954,-0.098512985,-0.04556469,-0.023953518,0.10185761,-0.010005234,-0.04979939,0.061607514,0.07538043,-0.07287308,0.025912505,-0.0018907265,-0.2232043,-0.070869416,0.032382526,-0.06392074,0.09824112,-0.2548864,0.027051136,-0.047502782,0.020031793,0.005705587,-0.03890928,0.063900016,-0.037006773,-0.008787846,-0.13356741,-0.039805166,-0.023986008,-0.052417595,0.0766046,0.068881765,0.017930541,0.0429957,0.09377285,-0.22950357,-0.033552356,0.018670805,-0.13578305,-0.17565633,-0.1752504,-0.06968888,-0.01616252,0.02170991,-0.044037845,-0.18286191,-0.14834407,-0.21130458,-0.08548632,-0.3036594,0.050826184,0.07798006,0.21570857,-0.19638668,-0.0017003851,-0.024299731,0.010600963,-0.051149104,0.02621338,-0.013727898,-0.018410815,-0.44470736,0.019265423,-0.08454883,-0.21060698,0.029666852,-0.025077192,-0.0095935315,-0.082660235,-0.29098293,-0.21633191,0.07163063,-0.04441661,0.090348095,-0.059790924,-0.11482156,-0.0067465915,0.14248186,-0.0986985,0.0023748192,-0.048588093,0.034855437,0.13298629,0.0079808235,0.031713463,0.004814589,0.13288511,-0.070544764,-0.013931494
-0.08987351,-0.057552643,0.03399359,0.08526836,-0.1374533,-0.200341,-0.17906095,-0.08651317,-0.007072758,0.08536682,-0.09510084,-0.08602159,-0.01731603,0.09730486,0.02841044,0.05443554,-0.0023250137,0.050082743,0.02762649,0.07407092,0.11955889,-0.32498562,-0.024146194,0.12104434,0.03718347,-0.26098242,-0.17251454,0.131763,-0.04000801,0.08418296,0.013612676,0.15888177,0.09228839,0.13872682,-0.13137053,0.20145544,-0.1331296,0.031420246,0.005448616,-0.13534813,0.22157508,-0.024379805,-0.06918812,-0.032308307,-0.050212193,0.16808228,0.06938747,-0.07240595,-0.066894695,0.027891861,-0.2177236,0.00942025,-0.22448525,0.030386303,-0.29834205,-0.030399408,0.017498618,-0.17892236,-0.014422902,-0.20436047,0.09940758,-0.02145192,0.013759452,-0.17063998,0.04671428,0.05311036,-0.1764716,-0.2616586,-0.13580194,-0.060614746,-0.12381637,0.18500519,0.044255998,-0.16028728,-0.052751258,0.026484646,0.05871039,0.052599967,0.018690806,-0.054088823,-0.33695775,-0.1511716,0.026590675,-0.15094851,0.031986933,-0.15334156,-0.09812491,-0.21025008,0.09053697,0.10226444,-0.04424153,-0.08673328,0.1236909,-0.022333989,-0.12335154,-0.07643617,0.06243474,-0.1891751,-0.067889616,0.03164204,-0.039869703,-0.047466926,0.018270584,0.20909275,0.11512705,-0.15008979,-0.15338373,-0.07810028,-0.4372657,-0.04998415,-0.22079057,-0.006986361,0.00049107324,-0.4715338,-0.10797302,-0.0278959,-0.27128622,0.03731366,0.059287135,0.087829694,0.056651797,0.051216617,-0.06574882,0.009597695,-0.097040996,0.10639684,-0.34814158,-0.074962415
-0.051325426,-0.36306292,-0.2004447,-0.067569636,-0.23368055,-0.04549453,0.039383363,0.038644463,-0.16232422,0.06821697,-0.066478185,-0.27648556,-0.036211632,-0.11939918,-0.14122896,-0.0777704,0.09481729,0.21940447,-0.077363126,-0.049020547,0.16967265,-0.08311071,-0.16755815,-0.28016692,0.12748316,0.07965965,0.10523914,-0.007659702,0.09235981,-0.08658951,-0.21427664,-0.04670225,-0.10786992,0.033718042,0.16117063,-0.25428703,-0.015699046,-0.17768148,-0.15732518,-0.19206768,-0.056025114,-0.19020528,0.16559573,-0.23641163,-0.06973912,0.17957398,-0.24681906,-0.051321633,-0.24869685,-0.18650502,-0.022699736,0.060803197,-0.10732099,-0.093686014,0.12130504,-0.1764427,-0.20638774,-0.17905281,-0.011389472,-0.11790487,-0.105386235,-0.21958147,0.023497691,0.16237444,0.084232375,-0.10918284,-0.015602225,0.181294,-0.08391423,0.049670696,-0.11287462,0.03618196,0.089119546,0.0040165703,-0.046963755,-0.010060125,-0.068718225,0.015593642,-0.08387479,0.016610626,-0.0011773999,0.01248143,-0.06391474,-0.065778695,0.118728176,-0.042976227,-0.14443743,-0.18476965,0.00823779,-0.2654288,-0.10425381,-0.12633401,-0.179433,0.13308465,-0.26887983,-0.07825823,0.053239815,-0.026529184,-0.0470424,-0.10107753,-0.12528381,0.1902083,0.08622571,0.004001975,0.025590431,-0.06563569,-0.13532558,0.11516942,-0.08860278,-0.00558181,-0.011402013,0.08668526,-0.06093429,-0.14903976,-0.05307711,0.00697753,0.028941248,0.09207115,-0.075859934,-0.13310361,-0.16065106,-0.13948242,0.025261428,0.088372774,0.007698915,-0.0636002,-0.0334963,-0.15763071
0.027017083,0.0126394965,0.04447858,0.12902682,-0.042625353,-0.09544595,-0.049891796,0.23752348,-0.08476029,0.09486937,0.3528593,-0.22931266,-0.12763877,-0.2530459,-0.06545775,-0.008575229,-0.23617777,0.051855855,-0.14276478,0.06202699,0.09363434,-0.027276466,0.20977458,-0.051067222,-0.19572291,0.046716057,-0.25674558,0.21305306,0.037028417,-0.30730295,-0.0821898,-0.017834267,0.07456836,0.12884952,0.12279154,-0.0677889,0.15892065,-0.034015406,-0.0027403347,-0.3558689,0.17972103,-0.026859976,0.22313784,0.18055008,-0.008741074,-0.14625497,-0.27630448,-0.07937619,-0.008654131,-0.070942886,-0.06706338,0.27851722,0.1656821,0.11223593,-0.2397474,-0.0044565303,-0.101838306,-0.002886978,0.014563734,-0.17805508,0.0055513554,0.042877316,-0.006820288,-2.823888e-05,-0.2091356,-0.0071602636,-0.23675263,0.17039852,-0.1775719,-0.11996902,-0.06659927,-0.31893107,0.009182109,-0.073001534,0.038250413,-0.19365603,-0.13424093,0.097143166,-0.18502702,-0.011691461,-0.010105289,0.027318355,-0.066256575,0.007990169,-0.13518402,0.06956741,0.086561665,-0.05028348,0.1460951,-0.0012211726,0.0301132,0.118237615,0.21457997,-0.0051919753,0.05751784,0.0546965,0.027089551,-0.13737644,-0.011703727,0.08478791,0.123821646,-0.018358463,-0.21700926,-0.032548342,-0.113735564,-0.33309737,0.016976157,-0.1023153,-0.065271914,0.048010755,0.07587375,-0.05405425,-0.0012032259,0.015802752,0.18246405,0.079454444,-0.21020822,-0.04395131,-0.14498837,-0.16379371,-0.08329636,-0.18302746,0.13736574,-0.2839774,0.123207174,-0.18131883,-0.38269177,-0.19734405
