0,1,2,3,4,5,6,7,8,9,10,11,12,13,14,15,16,17,18,19,20,21,22,23,24,25,26,27,28,29,30,31,32,33,34,35,36,37,38,39,40,41,42,43,44,45,46,47,48,49,50,51,52,53,54,55,56,57,58,59,60,61,62,63,64,65,66,67,68,69,70,71,72,73,74,75,76,77,78,79,80,81,82,83,84,85,86,87,88,89,90,91,92,93,94,95,96,97,98,99,100,101,102,103,104,105,106,107,108,109,110,111,112,113,114,115,116,117,118,119,120,121,122,123,124,125,126,127
0.07047926,-0.09242558,0.027498249,0.023498759,0.05049231,-0.08470776,0.082607776,0.042305164,0.01375797,-0.06354045,-0.22993886,0.0014308802,0.08378335,-0.1181322,-0.14826123,-0.07222499,0.05146017,0.001333485,-0.00087875343,0.02037005,0.019746894,-0.011284641,-0.066364795,0.07935148,-0.21466044,-0.15700296,0.21967863,0.015802909,-0.028113585,-0.25043437,0.026173381,-0.09458424,0.056238208,-0.10118787,-0.0059150374,-0.066714905,0.06561565,-0.021431707,-0.011352118,-0.050431494,0.17899236,0.0861729,0.010963565,-0.36111176,-0.07953188,-0.077327356,-0.018153869,-0.08099767,-0.10720062,-0.09736269,0.10186703,0.029605389,-0.06310132,-0.10115411,-0.25826758,0.04761385,0.08342253,-0.05744172,-0.14912838,-0.16064505,-0.25627548,-0.0042065163,-0.14837529,0.021154525,-0.05146551,-0.03768204,-0.16292012,0.120065026,-0.1784965,0.21381237,-0.059652008,-0.10572088,-0.011015504,-0.024254952,-0.017524317,0.063689604,-0.07471613,-0.05897988,-0.15234895,-0.047678024,-0.03552483,-0.09265563,0.069505185,-0.069544785,-0.098849215,0.16638787,-0.0023602464,0.008383032,-0.12374393,-0.06454159,0.0037213205,0.09279591,-0.11588409,0.12359213,0.17667034,-0.030101702,-0.36503103,0.15012331,-0.049527265,-0.04157234,0.04463491,-0.04278289,-0.17983584,0.115394145,-0.16307959,0.25550714,-0.06287807,0.035389632,-0.006544086,-0.15402882,0.2090752,0.07915157,-0.040913325,-0.079746276,0.0038961172,0.17198308,0.06644312,0.018318241,-0.18178725,0.031100187,0.0036028866,-0.1973108,0.14635123,-0.17551063,-0.100468785,0.008547836,0.06704182,0.09614235
0.1374034,0.15259098,0.071110286,-0.17288631,0.02729817,-0.3171135,-0.0052410853,0.15518565,-0.14281926,0.10331696,-0.2863447,0.13287196,-0.17254944,-0.14883491,0.017048229,-0.09809559,-0.09294538,-0.20072241,-0.19326727,-0.11029882,0.07006748,-0.49668962,-0.11722946,-0.1220789,0.02628185,0.084144734,0.1805894,0.04054826,-0.11544781,0.010714999,0.102577366,0.15081061,-0.13667086,0.13382182,0.03322691,-0.35619485,-0.13159736,-0.010433633,0.013008297,0.049566716,0.1880965,0.17022745,-0.060073957,-0.11523675,-0.4110801,-0.11284485,0.123318866,-0.07568414,0.058114447,0.006544857,-0.094588466,-0.040465973,-0.17134018,-0.46200264,0.06534227,0.04309346,-0.19747068,-0.3932305,0.1731317,0.12608105,-0.0520486,-0.23214325,-0.10865845,0.022818629,-0.016846525,-0.3873458,-0.022264168,-0.0027562487,0.08444505,-0.009429085,0.079447076,-0.09412037,-0.11870647,-0.24195197,-0.008422797,-0.012943654,0.08203949,-0.070247,0.029046098,0.0052761803,0.12803982,-0.032758474,0.012418923,0.05517879,0.044154204,-0.16326557,-0.11838048,-0.14131388,0.022991538,-0.023697173,-0.11933297,0.016569206,-0.06798297,-0.3567416,-0.054072943,0.20240536,-0.032968834,-0.0022005576,-0.107711695,-0.09688511,0.08639647,-0.30513898,-0.11740726,-0.2699352,0.11522128,-0.04586938,-0.089918815,0.040131822,0.1451903,-0.017748205,-0.10505659,0.033327382,-0.3500254,0.15554631,-0.027400669,0.1714096,-0.12583949,-0.11836508,0.12865663,0.07187166,-0.20298086,0.006650387,-0.33072576,-0.11217706,-0.19912195,-0.0720851,-0.1658187,-0.1606786
-0.04263101,-0.048194524,-0.10002679,0.03671642,-0.06880023,-0.02994047,-0.11162731,-0.06755697,-0.048581026,-0.15115142,-0.0037428627,-0.054654866,-0.011540623,-0.1299091,0.043662567,-0.086637594,-0.076472916,-0.0983739,-0.02611133,-0.06679964,0.031452324,-0.07153533,-0.035863347,-0.15291966,0.0028149502,0.05622615,0.034157146,0.03936888,0.038361035,-0.026296323,0.013533117,-0.06204643,0.024084795,-0.08159711,-0.08779251,-0.09822401,-0.019366944,0.049338076,-0.05359724,0.04277536,-0.028099729,-0.075134866,-0.087623216,-0.064105935,-0.029789072,-0.02054941,-0.003105356,0.00956059,0.006100288,0.06026575,0.053763572,-0.04385631,-0.040964145,-0.123876214,0.028944265,0.016909283,-0.1430511,-0.02221908,-0.02001424,0.017350633,0.008947912,-0.04156218,-0.11969016,-0.036654957,0.055460777,-0.004786886,-0.07639523,-0.10232954,-0.060364444,-0.024176665,0.021813707,0.000321015,-0.1279637,-0.07357374,-0.058490194,-0.05981819,-0.0009867315,-0.049180813,-0.07405277,0.06593998,-0.10604132,-0.03684255,-0.023399578,-0.057619885,0.05709666,-0.034160905,-0.13695078,0.034993645,0.022329217,0.022789339,0.042321883,-0.11026499,-0.095300965,0.025702626,0.04130182,-0.077018455,-0.004192392,-0.033974245,-0.10223209,0.008911419,-0.05674555,-0.06883842,0.024501624,-0.14683123,0.035053726,-0.10565609,0.06466518,0.012456162,0.012323689,0.07868695,-0.050070826,0.030286305,-0.01140195,-0.07589928,-0.061179228,-0.030818691,0.009204683,0.0045160996,-0.105945766,-0.06551565,-0.026906809,-0.004886433,-0.05403784,-0.032881074,0.045105193,-0.036266763,-0.07948486,-0.056347605
-0.07649917,-0.26202977,-0.13232917,0.02621375,-0.10342956,-0.043866586,-0.2688469,-0.035918657,-0.022391308,0.024235444,-0.24291047,-0.041491553,-0.10485852,-0.10101093,0.071680136,-0.012431733,-0.16289864,-0.075512946,-0.069841936,-0.095243916,-0.0036155737,-0.12037834,-0.10545576,-0.015425887,-0.05201553,-0.21215376,-0.05570744,-0.068625234,-0.0647974,0.117903136,-0.073570535,-0.009516286,0.11370858,-0.070612684,-0.039885964,0.0197915,-0.006861204,-0.031618718,-0.03447599,0.06550043,-0.08902544,0.007170415,-0.016932976,-0.103676006,-0.050292738,-0.14058349,0.027736297,0.074262716,-0.15510793,-0.038623035,-0.062002942,-0.03909587,-0.22879677,-0.06578474,0.069794,0.009052468,-0.0010168385,0.02638222,-0.024217619,2.6029831e-05,-0.0010138119,0.05253092,-0.28553805,-0.0652503,0.0017718725,-0.122357234,0.014017245,0.016189981,0.049468733,0.034004822,-0.0793898,0.03461999,-0.15055206,-0.07305871,-0.09834617,-0.056296848,0.032414734,-0.18385738,-0.07712289,0.030666359,0.0037085982,-0.013834804,-0.2322175,-0.022720825,0.05857518,-0.08712992,-0.14076523,0.04133726,-0.07319085,-0.083344914,-0.07041983,-0.1434368,0.0038099654,0.0788159,-0.1201009,-0.10483735,-0.055822562,-0.014871087,-0.06484533,-0.12895039,-0.04324738,0.021489056,-0.057056762,-0.046840377,-0.12216064,-0.056841657,0.049320564,-0.008460428,-0.009985592,-0.020954156,-0.16737685,0.03633175,-0.14827797,-0.12861103,-0.09409257,0.013918368,0.008707442,-0.080197364,0.028643144,0.03107108,-0.03738905,-0.069789015,-0.029008674,0.07390708,0.080378674,-0.124905385,0.059602037,0.0013252877
0.015803022,-0.097642094,0.037308168,-0.019875657,0.014596646,-0.07649975,0.009149816,-0.026588479,-0.04602439,0.067091875,-0.0139093455,-0.033364635,-0.006928657,-0.001629915,-0.07842788,-0.04614522,-0.034064714,-0.094474085,0.059751436,-0.021900753,0.030353598,0.040936038,-0.06445241,0.009718394,-0.04108874,-0.07479312,0.002900257,-0.10390014,0.060663134,-0.04773369,0.015763283,-0.04160217,0.012003078,-0.04243938,0.029546482,0.03814833,0.023206463,0.04509671,0.02582223,0.043820556,0.037149556,-0.035833377,-0.06063575,0.02820677,0.04483884,-0.08573317,-0.07292498,-0.03284773,-0.051271025,-0.0046328194,-0.011516583,0.035763912,-0.05161721,-0.10564835,-0.051099412,-0.06715368,0.04474624,0.03970858,0.009391654,-0.07804715,-0.056563657,0.057580244,-0.020181315,0.040807188,-0.04259839,-0.024218071,-0.087454006,0.036272824,0.0078076273,-0.019940283,0.031064248,0.016505731,0.027490614,-0.075505204,0.04992045,-0.054372873,-0.002651358,-0.010270271,0.015247383,-0.079722404,0.06123759,-0.081833296,-0.017495153,-0.09975535,-0.019624818,-0.002875917,-0.023223663,0.05353261,-0.10098368,-0.04601212,-0.018084548,-0.03511488,-0.046896588,0.056347195,-0.0056185233,-0.07376501,0.028113417,-0.023666382,-0.078403346,-0.08133088,0.049135577,0.034115486,0.0005243912,-0.028599754,-0.06621135,0.03600617,-0.009891499,0.058448687,-0.10062021,0.05190133,0.05620148,-0.05609325,0.039984804,-0.04300009,0.0066560125,0.06732531,0.004470023,-0.0724018,0.064738356,0.0022177985,-0.08648201,-0.085797966,-0.10597824,0.042501032,-0.029709287,-0.10481965,0.066687085,-0.0071415477
0.005197581,0.045136306,-0.12631293,-0.07023701,-0.028135903,-0.17035083,0.060795754,-0.04115737,0.0640751,0.075634636,-0.4466338,-0.047727343,0.107543215,-0.34462368,0.06086691,-0.0019205471,-0.012862979,-0.20032984,0.024086364,0.030361716,0.0070228083,-0.17013237,-0.077832945,0.054997697,0.07583472,-0.28107935,0.02448647,-0.028163275,-0.082361534,-0.05281331,-0.0764156,0.10910475,0.040219825,0.047914837,-0.4093135,-0.13442615,-0.32114878,-0.018123798,0.07072055,-0.07294544,-0.066337466,0.07772441,0.00040736757,0.03914172,-0.085067526,0.03712558,-0.016272483,0.023674814,-0.40877414,-0.019796506,0.020455156,-0.110011324,-0.06614843,-0.21511824,-0.015467126,0.049178377,-0.25403392,-0.048015475,0.020320943,0.08816586,-0.115998104,-0.079781264,-0.29344752,0.07945808,-0.017813027,-0.18129274,0.07718839,0.048668735,0.115058556,-0.001451596,0.08892349,-0.014009061,-0.06766394,-0.12690218,-0.047867388,-0.006965262,0.06790801,-0.3963783,-0.08372132,0.0021304525,-0.07731336,0.01905757,-0.07905117,-0.039164335,-0.05120822,-0.10472892,-0.029140564,-0.05259265,0.051600806,0.023352584,0.014343262,-0.23490301,-0.18971027,-0.0601537,0.0520471,-0.08825685,0.037564,-0.020050148,-0.18836991,-0.07662718,0.09108401,-0.11238754,-0.054263745,-0.1773175,-0.030900287,-0.11365279,-0.041190416,0.09361898,0.07989982,-0.05543442,0.072417565,0.01141414,-0.24652924,-0.042819917,-0.005125158,0.0061605545,-0.19513588,-0.092044815,0.04807311,-0.04553359,-0.0018722042,-0.10756916,-0.122230105,-0.08950816,0.022138081,0.03808661,-0.02818162,-0.052524887
0.12795497,-0.005060385,0.0142426295,-0.005936114,0.07852667,-0.044001214,0.042695742,-0.009892491,0.008097884,-0.12405013,-0.53958076,0.13921115,-0.13333756,-0.26750797,-0.1489082,-0.037816495,-0.03538598,-0.1351854,0.017220017,-0.008313927,0.05845488,-0.05126273,-0.06778234,-0.010814621,-0.24886668,-0.5017729,0.2773873,0.15254506,-0.07788904,-0.07331491,0.06380957,0.061821938,0.012235369,-0.050725356,-0.030303478,0.15897729,-0.1760859,-0.08630969,-0.11214977,0.04898161,0.1311057,0.045426596,-0.00077660946,-0.37659153,-0.025475852,-0.11369106,-0.050941717,-0.025662731,-0.6616209,-0.033016305,-0.04082423,0.06992952,-0.09662776,-0.25088614,-0.0028330106,-0.047061257,-0.28504395,-0.01735298,-0.12354178,-0.17831501,-0.028257236,0.057556726,-0.13611352,-0.0052573974,-0.04460874,-0.11251256,-0.09823482,0.05116105,-0.23087564,0.18278296,-0.015575903,0.05051234,-0.12196113,0.10706562,-0.044044968,-0.08090563,-0.023303244,-0.47005898,-0.01361596,0.12689328,-0.07905909,-0.13547678,0.050866768,-0.02353809,-0.08656036,0.1514206,-0.114753835,0.046291027,-0.10571989,0.0055516157,0.03554715,-0.022929184,-0.20634891,-0.02242139,0.05782631,0.06960761,-0.3996322,0.21524559,0.17246528,-0.13744739,0.03249744,-0.2061306,-0.15076469,0.17638992,-0.33596286,0.08424882,0.025078371,0.06546378,-0.022500688,-0.13907614,0.09998523,0.01699391,-0.2772845,0.01655795,-0.030979004,0.17597851,-0.046314668,-0.09485866,-0.0749821,0.06649461,0.094439834,-0.037063234,0.06719197,0.1317486,0.029935904,-0.075558715,0.045120403,0.035792656
-0.06857323,0.054859582,0.08279983,0.08033704,-0.0664611,-0.0732313,-0.020085104,0.06929152,-0.09066594,0.07206496,-0.030247161,-0.01341499,-0.055669516,0.005578841,-0.0096472325,-0.02519043,0.012053913,0.010237896,0.019454071,-0.065744355,0.059088003,0.048426904,0.077092126,-0.05201901,0.075685106,-0.018781735,0.060250822,0.042549863,0.036899973,-0.08126034,-0.03750102,0.013512478,-0.060483117,-0.027077861,0.043423675,-0.08577436,-0.011894191,0.047347292,-0.10198221,-0.014679077,-0.08154813,-0.034769252,0.06141947,-0.063073166,-0.04061159,0.021901976,-0.0015108647,-0.064693265,-0.004026854,-0.07667407,0.038183186,-0.0538752,-0.102691025,-0.09982675,-0.027861752,-0.080409266,-0.00048342944,0.045121808,-0.018471126,-0.019542357,0.018133862,0.031228952,0.08106214,-0.01753416,-0.024220804,0.07176143,-0.026606807,-0.050033808,-0.07007469,-0.023779472,-0.09476124,0.039239477,-0.05585836,-0.035106663,0.035279594,-0.029528366,-0.07516564,-0.024167458,-0.025368908,-0.029214432,-0.065368295,-0.07816835,-0.045647,-0.050205924,-0.0152344555,0.030386355,-0.06884357,0.049857963,0.0301545,-0.06511087,-0.015672868,0.047455627,0.023138486,0.042077955,-0.079848304,-0.031102864,0.008035105,0.08399574,0.002747221,0.016633896,-0.08739931,-0.047260713,-0.054742545,0.04052764,-0.022699887,0.049194805,0.075250015,0.027194286,-0.025204353,0.042813923,-0.01686673,0.05898407,0.028332382,-0.051438864,-0.05781279,0.05026254,-0.07803154,-0.0823574,-0.03626114,-0.011402945,-0.036351237,-0.057401534,-0.07670259,0.06390557,0.040968444,0.003934995,-0.06492508,0.05073108
-0.026191616,-0.07351952,0.06022207,-0.100522876,-0.13918234,-0.06655495,0.0005441826,-0.03680757,0.010842637,-0.08245111,-0.10074246,-0.024019994,-0.06798007,-0.009896169,0.038616788,-0.096662894,0.06777592,-0.08191667,0.006744038,0.033689655,0.0017359898,-0.06294222,-0.05355385,0.008121814,0.042320803,-0.01057553,-0.05409068,-0.07002585,-0.024646422,-0.09891083,0.045700677,-0.078386225,-0.070186816,-0.028543158,-0.03102543,0.0055143703,0.003336696,-0.055416077,-0.042793885,0.070327334,-0.092853084,-0.06771853,-0.09652889,-0.143604,-0.041504942,-0.095524125,-0.113807835,0.021888284,-0.033848867,0.012347801,-0.09308208,-0.060470276,-0.09683373,-0.065444246,-0.107800364,0.03272733,-0.09420427,0.04586834,-0.115013815,-0.0030590896,-0.0028016595,0.019513374,-0.024664903,-0.08144404,-0.03998067,-0.09956755,0.015843637,-0.04310451,-0.121413305,-0.014157102,-0.0044336147,-0.024926156,-0.06027446,0.009509635,-0.08662064,0.03780817,-0.055539604,-0.0034502659,0.012783334,-0.052520696,-0.13135803,0.051464826,0.05361274,-0.060181078,-0.034182247,0.07092991,-0.031742413,0.084211394,-0.055232704,-0.00968874,-0.056042843,0.030620666,-0.07289057,-0.061250843,0.024782581,-0.1087104,-0.13096133,-0.060504284,-0.068325005,0.006568175,-0.06538093,-0.12211681,-0.10120025,0.05217316,0.010615118,0.031209428,-0.069095135,-0.07635935,-0.016422719,0.005532494,0.029119316,0.06162455,-0.07129131,-0.0768388,-0.11526102,-0.022737224,-0.0777482,0.049540676,0.0091080535,0.0029161032,-0.096273065,0.06097222,-6.787272e-05,-0.05735465,0.024730794,-0.050415516,-0.07832265,0.013093924
0.07214305,0.024289386,0.101637654,-0.08151534,0.036885824,-0.0524943,-0.0530324,0.16686332,-0.05888235,-0.01789452,-0.20837203,0.017818676,0.030376159,-0.2678158,-0.07525088,0.0058020186,-0.037856422,0.06833676,-0.075637445,-0.0097346855,0.05729555,-0.29565775,0.11321461,-0.021748831,-0.05168137,-0.13881731,0.04727159,0.14065583,0.022310069,-0.08259458,0.04486847,0.10178577,-0.122693636,0.041123927,0.025355155,-0.34403953,-0.08396969,0.17365333,0.117466256,0.031021304,0.06917967,-0.051643644,-0.014384286,-0.0619344,-0.28704447,-0.15159695,0.04699875,-0.19497584,-0.12629738,0.012938225,0.040937692,-0.026946189,-0.1353215,-0.19793753,-0.07613735,0.07141887,-0.16733865,-0.06462649,0.107853465,-0.056626398,-0.06803492,-0.13441272,-0.23521931,-0.038499624,0.04252513,-0.27758217,-0.14031082,-0.008619116,0.06518393,-0.036379885,0.06956915,-0.080865204,-0.11271244,-0.36894986,-0.1273714,0.1405605,0.051296428,-0.014922676,-0.029660312,-0.09454305,0.09810137,-0.038079098,-0.07931383,0.02479666,0.20307639,0.02574137,0.024196802,-0.08416307,-0.051415034,0.1475374,-0.0008870518,-0.13018468,-0.10601797,-0.15844269,-0.049563564,0.08416175,-0.25079367,0.12415166,-0.1233778,-0.039157186,0.06617868,-0.1693662,-0.1826888,-0.124825515,0.17888832,0.05003863,0.052887846,0.08018263,0.13717765,-0.19374503,-0.011708078,0.044527568,-0.16810332,0.092383094,0.03810862,0.09434201,-0.05460057,0.10449799,0.025382828,0.040470295,0.06553317,-0.012270331,-0.102814965,-0.18097267,-0.17951058,-0.045795437,0.1062835,0.024975508
-0.106762126,-0.42538717,0.11373871,-0.002460575,-0.038585152,-0.071417846,-0.025733301,-0.043436196,-0.052973684,-0.15634784,-0.356241,-0.15547875,0.053309016,-0.23815161,-0.0850952,-0.010894752,-0.010076137,-0.0962571,-0.28220248,-0.09110427,0.03881623,-0.09573497,0.04517652,0.13901451,0.023344947,-0.23519567,-0.20397197,0.04972708,0.03812623,0.017176636,-0.10645256,-0.0648864,0.11086814,0.10510871,0.045436423,-0.24063589,-0.14771126,-0.11567679,0.05289592,-0.04207527,-0.07883903,0.06041574,0.0792478,-0.58599156,-0.21736248,-0.19824094,0.0057476917,0.110916846,-0.31668952,0.08753136,-0.023526838,-0.09520532,-0.019298282,-0.17936608,-0.057992585,-0.020295665,-0.12374878,0.0032008283,-0.15187274,-0.017952275,0.007856716,0.023787456,-0.33783332,0.04255614,-0.05356273,-0.14528787,0.045066804,0.014199556,-0.075442925,-0.048986945,0.06514223,0.10288401,-0.2013913,-0.13727435,-0.05199767,-0.03850559,0.05511161,-0.32730097,-0.09638883,-0.02857649,0.0062522166,0.12727237,-0.0481635,0.008080552,-0.13977303,-0.009059165,-0.08497724,0.007982704,-0.0002945534,-0.13400643,-0.0009974836,0.07715947,-0.13257897,-0.0826243,0.0036340598,-0.19453982,0.11538605,-0.066570155,-0.1810333,0.07021004,-0.14192075,0.076475196,0.015314625,-0.2030515,-0.062444765,-0.11142462,-0.00045363052,0.018674247,-0.09444314,0.017094372,0.15367638,0.020045428,-0.37825,-0.14045416,-0.13221264,-0.11515814,0.11558921,0.083651565,-0.003208383,-0.007537212,-0.100243576,-0.07756581,0.18027209,-0.06687752,0.023871502,-0.05774024,0.059909075,-0.0051766527
0.22215849,-0.22577728,0.07760849,-0.19510132,-0.013613484,-0.098833404,-0.18580422,0.12949273,-0.19349296,0.04334182,0.0132936,0.13128254,-0.32090235,0.0048165172,0.00021699013,0.0453127,0.03830506,-0.016786864,-0.07719925,-0.21646295,0.019772861,-0.065761104,0.05278066,-0.2561613,0.07915129,0.0091807125,-0.011596356,-0.12394886,-0.09828605,0.023739697,0.09067372,0.120193265,0.09848065,-0.08921953,-0.088396154,0.07115682,-0.12811291,-0.027284252,-0.24047035,0.09900975,-0.43200743,-0.023804806,-0.12825489,-0.66735023,0.030232688,-0.2255085,0.09918721,-0.035916716,0.13947795,0.05908799,-0.02655284,-0.021522267,-0.059501696,-0.11393013,0.029676007,0.033741143,0.052709617,-0.032961603,0.021961397,0.046910103,0.008250054,-0.09144051,-0.031976804,-0.035046156,0.05221639,-0.03599536,0.003081016,-0.08805985,0.12784399,0.12761198,0.012503192,-0.043025684,-0.40334278,-0.015463877,-0.14854634,0.039052557,-0.011276252,0.06807185,-0.11877846,0.14727631,0.043600917,-0.11996321,-0.41956738,-0.08000056,-0.058584403,-0.98717624,-0.11846903,0.054563917,-0.2246055,0.058198225,0.058899507,-0.16066216,0.03211881,-0.022741865,-0.3024301,0.0644494,-0.22263764,0.009477924,0.14665662,-0.28729326,0.093415976,0.08766405,-0.15249655,-0.046956543,0.012352238,-0.47663534,-0.02196787,-0.0519016,0.13417906,-0.19988015,-0.41863975,0.1360695,-0.030935017,0.037328,-0.14904115,0.042426243,-0.17305572,-0.25591558,0.03887342,0.062337376,0.08758343,0.17680162,-0.27105474,0.059608918,-0.042387318,-0.016027745,-0.11406954,-0.6236763
-0.094160244,0.05436753,0.017374571,-0.072465144,-0.24748673,-0.08393812,-0.6935398,-0.17045009,-0.03733096,0.028029056,-0.55527145,0.08155409,0.077022634,-0.087898076,0.016860431,-0.07259036,-0.059471257,-0.007953212,-0.0951418,0.112898216,-0.20528688,-0.11598883,-0.08234652,-0.3103324,0.04153564,-0.1347927,-0.03720428,-0.08309395,0.089573905,-0.004533802,-0.041943856,-0.056436874,0.027167648,-0.012387621,-0.4770216,-0.73169166,0.08782949,-0.058467254,0.0030883509,-0.03564421,-0.19394797,-0.38816202,0.04907142,0.12879884,0.037691716,-0.0007784525,0.046014845,0.06413943,-0.012824478,-0.00061764405,0.07851791,-0.07295719,-0.006743092,-0.027293326,-0.037355855,0.09450546,-0.15392423,-0.49531782,0.06164577,0.08833714,-0.005254638,-0.001459193,-0.05827621,-0.08438319,0.063657865,-0.089543276,0.07413809,-0.05594818,0.063516065,-0.13446283,0.029685041,-0.03809733,-0.015363905,-0.5101563,-0.16063507,-0.020065054,0.067269504,0.018674858,0.0027020723,-0.15982099,-0.008899692,-0.06698386,-0.6025028,0.027010093,-0.02617105,-0.08623352,-0.19872904,0.114070304,-0.01444419,-0.052161828,-0.010618679,-0.4325454,-0.15689471,-0.033827458,-0.15948929,0.05964247,0.02328192,0.07568488,-0.00088918005,-0.09429121,-0.35953116,-0.39683852,0.00803374,-0.15252542,-0.08889477,-0.21406978,0.034298565,-0.05589643,-0.059299886,0.09811561,-0.10170945,-0.12217415,-0.056985963,0.13770212,0.0008772226,-0.19764547,-0.36658967,0.08952879,0.069926634,0.004917141,-0.061611924,0.08529602,-0.35917142,-0.043413937,-0.25395504,-0.18177362,0.063865446,0.0544481
0.009130444,-0.038303852,0.07244334,0.03946174,-0.16549872,-0.121490255,0.015740043,0.039784346,0.07176128,0.041118726,-0.023231378,-0.04903138,0.0022616284,-0.20713289,-0.14462078,0.035283588,-0.090747766,-0.0956104,0.013472321,0.03878406,0.1487842,-0.17313564,0.08418817,0.064084604,-0.16870001,-0.18124048,-0.08590465,-0.11495642,-0.04105804,-0.028123483,-0.02433745,-0.040734835,-0.20148624,0.010325868,0.008476449,0.04016232,0.02302364,0.014809653,0.052443758,-0.053904023,-0.1499653,0.09676507,-0.106787026,-0.28177583,-0.14679755,-0.27523342,0.008859437,0.0665027,-0.13344269,-0.10316097,-0.09864053,0.08811772,0.103749365,-0.10197329,0.034111574,0.02051572,-0.15797377,-0.07941626,-0.0037478087,-0.012598812,-0.08571083,-0.16307548,-0.011855032,0.07075035,-0.0076667694,-0.13332517,-0.07580035,0.0031241723,0.023114132,0.062474318,0.06491266,-0.077498,-0.29853803,-0.07094679,-0.29352093,-0.021505803,-0.027166538,-0.19660878,-0.090920895,-0.14462166,-0.02488818,0.03596141,-0.017527545,-0.061808523,-0.018045392,-0.1189971,-0.027797747,-0.07648333,0.01046125,-0.15510231,-0.06553104,-0.079002544,-0.10827686,0.026966752,-0.17200343,-0.06639952,-0.090371855,-0.14548607,-0.27271968,-0.14138667,0.11906216,-0.28569594,0.085278094,-0.17217161,-0.018768227,-0.09978555,0.0146716675,-0.033686634,-0.06890023,0.096938066,0.05854191,0.04732145,-0.14883755,-0.11466791,0.031008568,0.082493134,-0.21912012,0.0027816934,0.0033011166,0.039426304,-0.1608676,-0.09483435,0.011511476,-0.16580735,0.011775197,-0.11643737,-0.047653563,-0.03587901
0.052217156,-0.00910883,-0.095577076,0.077458866,-0.07741879,0.049237717,-0.097810335,0.003549087,0.033376135,0.012463294,0.032489553,-0.027309457,-0.029010449,-0.06011552,0.05968396,-0.0944988,0.03947583,0.007559929,-0.011254529,-0.0451191,-0.070718385,0.024452927,-0.06479866,-0.095707335,-0.0030197524,-0.054530166,-0.024215968,0.025087427,0.034042418,0.0076515754,-0.06832248,-0.044365905,-0.036338333,0.025767999,0.0040143086,-0.027018208,0.029562913,-0.0045743245,0.0051486273,-0.06472157,0.07224655,-0.031851646,-0.009053307,-0.034676775,-0.101937495,-0.015745804,0.005204981,-0.02041473,-0.09408526,-0.09691547,0.008353535,-0.09346495,-0.0045350073,-0.10012463,-0.066075504,-0.052155543,-0.076521866,-0.023016004,0.04294541,0.0007162861,0.016450357,-0.10256388,-0.047395565,0.046081975,0.012618651,-0.08895621,-0.09326396,0.01736675,-0.020761926,-0.050447557,0.014044976,-0.07136736,0.06567187,-0.00821129,-0.020387478,0.06280114,-0.08971425,-0.027981767,-0.0045767725,0.028762423,0.05628919,-0.08546785,-0.040418606,-0.06367681,0.036675744,-0.08599391,-0.0019277799,0.028873244,0.025194615,0.0027288336,0.031111434,0.003092842,0.03834167,-0.015132417,-0.09297502,0.03271502,-0.008660871,-0.05515285,-0.047384165,-0.060294777,0.029503856,0.069594264,-0.0011192927,-0.041548517,0.0037703034,-0.021735325,-0.020997955,0.016193451,0.043129187,-0.052960403,0.06625181,-0.04266408,0.01649187,-0.015202412,0.018435944,-0.061907426,-0.031021658,-0.021121357,-0.07872196,0.010832248,0.06337973,-0.09421111,-0.08464156,-0.07687639,0.0004506285,0.027995517,-0.05391275,-0.07599872
-0.036196858,-0.2368261,0.08073343,-0.0682562,0.03953624,-0.06379137,-0.124208905,0.08399462,-0.014648037,-0.040811654,-0.110274404,-0.006036476,-0.08562348,-0.06992039,0.039076496,-0.01765459,0.007375221,-0.03399946,-0.10490406,-0.15130539,0.06393875,-0.18272713,0.055460565,0.051660914,0.0021175058,0.017824374,0.14879553,-0.007824921,-0.013974518,0.06845109,0.064603865,-0.074053265,0.09881665,-0.053882148,0.058060873,0.085167944,-0.37346813,0.08653582,-0.049132988,0.12984174,-0.09954583,0.03902809,0.0299229,-0.72966427,-0.23033935,-0.6760533,0.018333843,-0.003775054,-0.011001671,-0.013673456,-0.112853356,0.0022004123,-0.15789619,-0.23559591,0.04788107,-0.023297893,0.067169055,0.085535355,-0.027747707,0.0034656194,0.00010299974,0.084356524,-0.016540881,-0.041020345,0.0011162497,-0.21980162,0.06521277,-0.0362209,0.053037517,0.08500158,0.10987299,0.103934005,-0.37217388,0.085426144,-0.030495986,0.024560155,-0.013759246,-0.08816962,0.0581184,-0.051656995,0.11143325,-0.021310331,-0.25081205,0.071758956,0.056894887,-0.35414064,-0.035424583,0.09762448,-0.024315113,-0.1134244,0.19225673,0.03742486,0.029768964,0.067372285,-0.025376784,0.016935205,0.045300785,0.12597853,-0.009686653,-0.03198362,0.060832724,0.06873109,0.005096466,-0.047605503,0.046458077,-0.0103202695,-0.035704352,-0.009850445,-0.002931011,0.028684812,0.10803139,0.033116084,-0.12203645,0.07408272,-0.09309491,0.043516096,-0.06287383,-0.09577144,0.010749087,-0.032124273,0.019440878,0.02754381,0.04083711,0.019654773,0.060639184,-0.010507735,-0.12809305,-0.22295986
-0.079317264,-0.08130914,-0.03312764,0.05194811,0.03593355,-0.045609366,0.02814599,0.05772602,0.07510811,-0.023842346,-0.093517005,-0.030657493,0.06443706,0.007389037,0.05914061,0.03352496,-0.054663595,-0.052477077,-0.054800794,-0.088867515,-0.047922634,-0.092583835,-0.0997832,-0.091088735,-0.036288872,-0.00217085,0.036790248,0.008383564,0.0043736016,-0.014851235,-0.0327138,-0.0492458,0.010041141,0.0064074607,0.032236006,0.0020787981,-0.006501333,-0.0275439,-0.087506786,-0.08247307,0.049406108,-0.03370583,0.029069474,-0.040337,0.0065453346,0.016625028,-0.03370015,-0.028319642,0.006917531,0.029291136,-0.012958433,-0.027138645,-0.08367908,-0.009800241,0.010482703,-0.01825152,0.05080241,-0.06973619,-0.064638585,0.030046007,-0.03226838,0.05585977,0.07192979,0.013166846,0.06621292,-0.018634818,0.034331895,-0.086981736,-0.014806837,-0.042011444,0.05903754,-0.048687674,0.050830442,0.0003866392,0.013550157,0.0045106434,-0.072617404,0.037564173,-0.032461327,-0.029819624,-0.027616419,-0.051004004,0.03838779,-0.07119848,-0.061183263,-0.04351336,0.045602344,-0.08566432,-0.054820675,-0.0034621037,-0.020110767,-0.003370988,-0.005574284,0.02441169,-0.043351654,0.049992245,-0.064042196,-0.063632034,-0.009115319,0.050077274,-0.06217123,0.030848855,0.061766285,-0.049212128,-0.07478769,0.0026780178,0.014989774,-0.09543314,-0.018058488,-0.03999687,-0.012145465,0.047898445,0.07379353,-0.022422165,-0.045684554,0.060869224,0.032616798,0.027860692,0.06950634,0.060907416,-0.047437068,-0.052960224,-0.026181018,0.029872974,-0.025903137,-0.09168787,-0.056602836,-0.051162563
0.092989065,0.0041893446,-0.1684613,0.014354532,0.068624,-0.11120238,-0.037807457,-0.034992483,0.08634988,0.041327484,-0.51512986,0.012000873,-0.017414479,-0.36331564,-0.085763134,0.04061585,-0.0487635,-0.03969648,-0.10361262,0.064584516,0.09348578,-0.10571082,-0.06185616,-0.08273118,-0.03475097,-0.29591963,-0.12605187,0.034214605,0.07370895,0.04189857,0.11193946,0.031768348,0.0038449285,0.092531994,-0.10394303,-0.10374495,-0.19232768,0.016324202,-0.003184463,0.01547321,0.06298933,0.14973657,0.006918775,-0.0075201993,-0.08468604,-0.030568935,0.014938457,-0.041216686,-0.33040783,-0.03247261,0.08192293,-0.0048145694,-0.021508548,-0.24505325,0.057985973,-0.018709362,-0.182652,-0.12976609,-0.041122526,0.07966951,0.06480891,0.009211645,-0.40254673,0.0759825,0.013541226,-0.288414,-0.03607698,-0.082863145,0.012873232,-0.02372371,0.0336182,0.010860397,-0.04513442,-0.1149223,-0.1904757,0.0043530744,0.20396075,-0.36245808,-0.0053647645,-0.12725322,0.12048658,-0.009275523,0.0309755,0.069702834,0.05254521,-0.05690261,-0.13597494,-0.13850926,-0.0034124735,-0.14759535,-0.09750704,-0.14536089,-0.15633257,-0.11861208,-0.011999613,0.05495811,-0.024052493,0.032624334,-0.16856655,-0.077281795,-0.0088388175,-0.16241217,-0.04054733,-0.09270607,-0.21034026,-0.014273894,-0.07659714,-0.009574371,0.0247651,-0.0583958,0.02132337,-0.032731246,-0.4470048,-0.013796943,-0.0156435,0.024420181,-0.11265645,-0.018036291,0.1534026,0.06760415,-0.20826337,-0.06577794,-0.05310264,-0.07135052,0.050683424,-0.079041675,0.058332425,0.04521443
-0.02225595,-0.062467735,-0.08712322,0.030145602,0.06938513,0.057216864,-0.0906373,0.072102584,-0.07290469,0.043953657,-0.011517489,-0.06271994,0.02781195,-0.0006991592,-0.0774531,-0.05196173,-0.05741873,0.050735552,0.019910794,0.016194139,0.02691569,0.0030764102,-0.07789493,0.015131468,-0.051189598,-0.06665989,0.077805765,0.04477337,0.020440899,-0.0056919605,-0.023308385,-0.070393935,-0.055739585,-0.058981083,-0.0741505,-0.10409967,-0.041485008,0.050417006,0.056377247,-0.040720657,0.06467625,-0.052601356,0.06545183,-0.08768423,-0.09080889,-0.017012382,-0.010280552,-0.09596219,-0.059115857,-0.00477666,-0.04286351,-0.069509044,-0.0021384466,-0.027207445,0.05113166,-0.04164638,-0.084204316,-0.043209,-0.0025988633,0.04436268,0.06372117,-0.057239275,-0.104699,-0.08989082,-0.10263952,-0.08841599,-0.04841872,-0.07860255,0.06719488,0.017597636,-0.04622186,-0.004291815,0.06672272,-0.02657792,0.001514477,0.039268516,-0.09065016,-0.09807188,0.04752421,-0.061855257,-0.04348382,0.06369868,-0.082688704,0.060903843,-0.042933866,-0.0077529955,-0.047834244,0.074633084,0.03491851,0.0564733,0.04307719,-0.012229473,0.057741307,-0.09346849,-0.038781736,-0.009630859,-0.09877387,-0.017157244,0.04546842,-0.04376121,-0.054005396,-0.04685009,0.058229968,0.054097366,-0.04755735,-0.006426589,-0.00965913,-0.051149093,-0.013943199,-0.096024506,0.05889644,-0.03958719,-0.047724664,-0.086234055,0.057377055,-0.022322949,-0.08118777,-0.038218282,-0.05697168,0.009872558,0.032999072,0.029791731,0.0017052708,-0.0859917,0.028799187,0.044618223,-0.009261444,0.013619581
0.070664525,-0.040522717,-0.08265396,-0.026193513,-0.049776055,-0.042106386,-0.1121431,-0.046846878,-0.001890697,0.12637644,-0.024119454,-0.016863868,-0.0383454,-0.091487244,0.10430821,0.024648506,-0.024346497,0.04489516,-0.0356938,-0.030383168,0.07929453,-0.24493967,-0.062018145,-0.0005283587,0.12396629,-0.0840668,-0.1579436,-0.11855967,0.018335698,0.06287898,-0.09662378,0.0049943803,-0.015092125,0.049877264,-0.13830125,-0.15627898,0.00017605363,0.026088402,0.042699814,-0.06734545,-0.016787384,-0.09555805,0.04492599,0.045815494,-0.38031536,-0.10457432,0.050510976,-0.057057917,0.04272805,0.0046157157,-0.0015047607,-0.0913004,-0.10528287,-0.30464467,0.1002053,-0.018323313,-0.09788256,-0.016944155,0.04059823,0.0031192913,0.026711125,0.07549787,-0.1431527,0.029686105,-0.060683526,-0.09577896,-0.0135135865,-0.07533829,0.14942922,-0.084603645,0.06707921,-0.062616676,-0.049533453,-0.1424232,-0.16444492,-0.017171636,0.099312656,-0.060155883,-0.07999824,0.0043063136,0.10331344,-0.10802446,0.04108156,0.00013829312,0.004819014,-0.09171245,-0.05741311,-0.10884919,-0.13512796,0.014608887,-0.08056399,-0.15486765,-0.0017591991,-0.07797264,-0.049042024,0.09264494,-0.13076277,-0.05636942,0.08233744,-0.15753372,-0.03452781,-0.056462064,-0.05562703,-0.021469776,-0.08927535,-0.12658663,-0.09102934,0.01481928,0.075172886,-0.07533142,0.022039756,0.0514513,-0.24172851,0.020542292,0.012896654,0.11630226,-0.1864149,-0.00678751,0.02654893,0.059501424,-0.017064374,-0.044237334,-0.16863084,0.06827189,0.029625664,-0.14289732,-0.062177252,-0.2214153
-0.21948831,0.14716792,-0.055223282,-0.047403425,-0.24452074,-0.003403721,-0.11837294,-0.2043289,0.09144703,0.0026010547,-0.25663427,-0.15225478,0.14249444,-0.0396763,0.10626884,0.0312916,-0.21424623,0.18509203,0.15772304,0.14018157,-0.38321352,0.15115176,-0.056668192,-0.13899103,-0.1270138,-0.14248967,-0.033042025,-0.12228682,0.110381044,-0.0717479,0.034948062,-0.05959022,-0.12518951,0.009018898,-0.16199526,0.026900923,-0.09727403,-0.116995715,-0.118112065,0.017201152,-0.35865,-0.35023323,0.20918193,0.083874494,0.3530271,0.1012893,0.10538036,-0.5023225,-0.16555685,0.03643046,0.12177926,0.03742655,-0.049752474,0.4687543,-0.12937337,0.09110593,-0.06008706,0.025262898,0.10452723,-0.063776776,-0.11563142,-0.06460483,-0.024415104,-0.26175696,0.06228276,0.15452206,-0.15104175,-0.07534159,0.00880397,-0.002533838,-0.043462593,-0.35113207,0.05640464,-0.06600537,-0.4716358,0.0440838,-0.012396031,-0.105915464,0.018902306,-0.2147334,-0.019467829,0.003997229,-0.53187054,0.007509602,-0.06712791,-0.061825097,0.07124943,-0.042481434,0.07179239,-0.1428028,-0.03265159,-0.14748716,-0.04714384,0.022887738,-0.22964413,0.07801208,-0.121179946,0.038856834,-0.11141757,-0.17155738,-0.3951859,-0.09696727,-0.11570655,-0.267806,-0.12267355,-0.08313863,0.053017285,-0.07233381,-0.074090496,-0.16021302,0.05341964,-0.01693092,-0.041796897,0.05140836,-0.0040950016,-0.44247967,-0.1869033,0.34601307,-0.04779567,0.048855044,0.1287204,-0.02166978,-0.06671188,-0.1160457,0.043358747,-0.35287228,0.3271577,0.34531182
-0.08408178,-0.054845396,0.16476727,0.04098902,-0.030664282,0.030424962,-0.23747624,-0.11583102,0.016787183,-0.082258224,-0.009546122,-0.0011119051,-0.012496634,0.0061176186,-0.050547965,-0.017732155,-0.18098451,-0.06808072,-0.1560314,0.0018053659,0.011725523,-0.0137206055,0.06895012,-0.0680816,-0.010528253,-0.09803134,-0.06473568,-0.024116307,-0.061792474,0.075731374,0.02002465,-0.03939932,-0.021856254,-0.08379108,-0.14975923,0.024226783,-0.070345946,0.01147353,0.07869479,-0.048350483,-0.23097174,0.034504373,0.025778765,-0.022304207,-0.09003226,0.017998133,-0.031380832,0.058245014,-0.10790563,-0.028290216,-0.10780223,-0.032766983,-0.07770323,-0.123370014,-0.031675324,-0.07531361,-0.03836947,0.010186906,-0.06601914,0.05754,-0.0074603665,0.036904052,-0.055310577,-0.0097825555,0.033859022,-0.02289485,0.060953822,0.018503409,-0.0445186,-0.023058768,0.07078974,0.037241496,-0.08323793,-0.047637586,-0.07889039,-0.0399515,0.080040194,-0.056489553,-0.014492927,-0.069145694,0.024752755,0.02260462,0.003266044,0.00922928,-0.10752892,-0.22066958,-0.050623775,-0.017863495,-0.042665627,-0.09217363,0.04464387,-0.07525018,-0.024389237,-0.010137621,-0.19079638,-0.11298682,0.055210024,0.015370426,0.03823436,-0.07211573,0.0083608,-0.0024237717,-0.01223528,-0.35777414,-0.10368215,-0.15492418,-0.10770062,-0.06279829,-0.035401244,0.07046043,-0.2309388,0.045015026,-0.056517825,-0.049283933,-0.04604992,-0.07168214,-0.10137076,-0.14243437,0.009954567,0.031905815,-0.025566198,-0.031370908,-0.15257354,-0.08252541,-0.071760595,-0.10432876,-0.12957153,0.082812086
0.037156604,-0.09901562,-0.031661782,-0.08223765,-0.019596364,0.056136727,0.069439486,-0.07888541,0.07565675,0.008971564,0.04579936,-0.052117467,-0.05527284,-0.045565803,-0.038744077,-0.07851851,-0.008906727,-0.07407558,-0.07046269,-0.011290613,-0.06517387,0.008773011,-0.032539718,0.012418636,0.043377016,0.067483515,-0.10143309,-0.07492779,-0.046325434,0.04409206,-0.02110895,0.01581819,0.023206621,-0.01080737,0.04343181,-0.05629785,-0.0084614735,0.015650019,0.048623502,-0.016446888,-0.072994925,-0.082856916,-0.008681998,-0.0040001064,0.022954471,-0.034133766,0.061405603,-0.064594366,-0.021581028,-0.016899398,-0.061394718,-0.022191783,-0.05945663,0.07659125,-0.050462924,-0.06364019,-0.011591515,-0.006533471,-0.07672265,0.0057352125,0.05371776,-0.03958928,0.066197105,-0.0996185,0.02897118,-0.004383258,-0.050514355,-0.08678271,-0.075121686,-0.044346806,-0.08361361,-0.020637115,0.037518684,0.053692985,0.017527014,0.0020061915,-0.034365635,0.0003731888,0.030924749,-0.06456439,0.06715329,-0.045464113,0.00066278025,-0.0040403386,-0.009307478,-0.00873553,-0.091188215,-0.07747431,0.05807828,-0.014329283,0.035294455,-0.07108512,-0.011017339,-0.047903873,0.03264907,0.030075723,-0.09251091,-0.10320691,-0.023034247,0.07082986,0.025930332,0.045459148,-0.05831625,-0.059337214,0.062145032,-0.0507078,-0.069065765,-0.06452272,-0.07971746,-0.045386888,-0.026987024,0.034766108,0.041768756,-0.0430134,-0.06195705,-0.029216366,0.015891297,0.047535688,-0.045277975,-0.019377468,0.009861677,0.03234604,0.014304904,0.023709813,0.022124643,-0.070620246,-0.020331621,0.044218194
0.00070313,-0.021006439,0.050335355,0.011674487,0.06157639,-0.07882267,0.020211754,-0.06333006,-0.072255515,0.070113085,-0.016060011,0.05500268,-0.08137369,-0.0064275577,-0.03838261,-0.09813395,-0.07927895,0.07171498,-0.020582382,0.053588033,0.06722186,-0.07247297,0.02945483,-0.014367924,-0.07832543,-0.0012106147,0.072479114,-0.047501873,0.0151020475,0.04000242,-0.001172078,-0.046288572,-0.076521754,0.03465969,-0.039467055,0.03372646,-0.032132223,-0.08146936,0.048954178,-0.0926576,0.049770948,0.0691621,0.011346072,0.069369376,0.04868365,-0.10087398,0.06440034,-0.026305256,0.01924173,-0.01662785,-0.08603921,0.007446925,-0.056650847,-0.07163806,-0.095245525,-0.060533684,0.056114893,0.06340429,-0.036849067,0.005573495,-0.0013087193,-0.038155597,0.060038514,-0.018844608,0.017826818,-0.066617146,-0.045538414,0.061944585,-0.04381239,0.025234658,0.016788105,0.050560832,0.018159,-0.0964636,-0.023523994,-0.029711232,-0.07500033,0.060690634,0.0070133535,-0.058129568,-0.0027062392,-0.08876134,-0.06767866,-0.049045514,-0.052522995,-0.047648616,-0.045874633,-0.02417555,-0.038733665,0.018352665,0.014800088,-0.058917005,-0.06084915,0.0771144,0.012231064,0.036471624,0.0037747442,-0.042617712,0.052702427,-0.062114023,0.03724551,-0.10259976,-0.08346779,-0.036869183,-0.011098527,0.06936914,-0.1024561,0.04354027,-0.033549532,-0.09756018,0.011127238,0.06502336,0.025729211,0.052225392,-0.046189003,-0.08810829,0.020017754,-0.016857537,0.08362099,-0.09034479,-0.07313901,0.00695771,-0.074913345,-0.06180164,-0.0396081,-0.02001228,-0.023513999,-0.0038314762
0.01795692,-0.044278283,0.057582628,0.0056656315,-0.06694992,0.02607844,0.021118324,-0.042712286,0.020551207,0.055485148,0.026018469,-0.10557329,-0.03028065,-0.03552938,-0.089343555,-0.0927243,0.006720389,-0.06328233,-0.04529191,0.06433069,-0.06476432,-0.07491966,-0.03245133,0.009670187,0.030917577,-0.00106842,-0.020480309,-0.059052166,0.023401529,-0.09717279,-0.00719099,0.061393406,0.042343173,-0.015195786,0.058991704,0.005106904,-0.06476977,-0.043679498,-0.08434639,0.05891041,-0.0028704144,-0.088150606,-0.069747835,0.041135237,0.029722191,-0.049385127,0.06857387,-0.03791749,0.03836098,-0.052396026,-0.090447396,-0.04754313,0.03937986,-0.095245406,-6.453535e-05,-0.0040383446,0.009458875,-0.019981945,-0.07444185,-0.0007777867,-0.0659078,0.04829964,-0.08085418,-0.11521822,-0.056572877,-0.03334832,-0.07949155,0.0009145922,-0.04487974,0.030211518,0.0037331083,0.0039652637,-0.10786128,-0.09850244,-0.0028036938,-0.07820143,0.0115112765,0.06820421,0.05868659,-0.03505475,-0.08919984,-0.05435578,0.01736262,0.013892914,-0.08775919,-0.06965123,-0.056776695,0.010039249,0.002018617,0.0091677215,-0.08415082,0.045039352,0.013681188,-0.058114838,-0.008237608,-0.0747479,-0.05544829,-0.09474545,0.010204706,-0.1072652,0.025130283,0.050772678,-0.03244664,0.008264966,0.057816282,-0.039134998,-0.06445948,0.03429297,0.04065563,-0.031856608,-0.024803147,-0.089220256,-0.048155654,0.012720265,-0.05368212,0.019540004,0.038855355,0.062426757,-0.09005758,-0.08943411,0.0018138688,0.0046989396,-0.10225572,-0.011156244,-0.086907476,-0.022178179,-0.00703653,-0.032248903
-0.0281222,-0.13954124,-0.08468529,-0.106815994,-0.13301493,-0.06863151,-0.16483973,-0.02029566,-0.00556274,-0.08870313,-0.046287417,-0.12559798,0.04219541,-0.06793033,-0.076649524,-0.037766557,-0.042369407,-0.009126025,-0.041521203,0.017853824,-0.05146132,-0.031780533,0.038500212,-0.081323415,-0.11054992,-0.1022359,-0.043355975,-0.07719613,0.029138936,-0.112686135,-0.045501437,-0.15120865,-0.033738747,-0.13094911,0.129084,-0.14013839,-0.0441937,-0.011096252,0.098152556,-0.066695556,-0.23338665,-0.121365786,0.036853757,-0.11277865,-0.111471154,0.059578,-0.11497814,0.10225675,-0.002109023,-0.060742445,-0.105014056,0.08773167,0.014672783,-0.09941447,-0.045921933,0.031855665,0.0030581576,-0.040228907,-0.06429434,-0.053462423,0.025494844,0.0023368644,-0.13536094,0.014352634,-0.01578439,-0.04358007,0.03930558,0.045328792,0.0104152355,-0.11396452,-0.003099579,-0.046882007,0.021282418,-0.057105627,-0.035597038,-0.11534492,-0.060022876,0.01697617,-0.03665813,-0.037128557,-0.14020552,-0.021762459,0.06121363,-0.045448456,-0.05825551,-0.13689944,-0.083313495,-0.08154799,0.04436814,-0.043657515,-0.050470185,0.059060514,-0.020272998,-0.013838145,-0.1768374,-0.07758688,0.0366906,-0.0019185307,-0.07661576,0.03344855,-0.03328946,-0.030486567,0.1002837,-0.16751368,0.017803136,-0.0586196,0.024708118,-0.12429488,-0.11756423,-0.034419235,-0.15612032,-0.032649945,-0.15755737,-0.09722892,-0.05864672,-0.04231295,0.007820032,-0.05121148,-0.23902135,-0.060324837,-0.104032554,0.010746043,-0.03034577,-0.090126425,-0.034966823,0.06692031,0.035933465,-0.06972707
-0.06594407,0.071068935,-0.07876174,-0.060768526,-0.1302324,0.05295288,0.07925427,0.0649051,-0.10486818,0.00345653,-0.08749061,0.045265123,0.037503075,0.023061268,0.050400496,-0.13352619,0.1210658,-0.16594784,0.09781971,-0.08938841,-0.016044356,-0.18411566,-0.21536613,-0.21072349,0.016538743,0.06012734,-0.16820617,-0.0635304,0.08192284,-0.055356897,0.010812029,-0.08402568,-0.076398715,0.03384868,-0.19235942,-0.40563655,-0.2310412,0.06899113,-0.012608416,-0.14056489,0.027395481,0.050326947,-0.054157633,-0.08751601,-0.22819395,-0.059961613,0.08751275,0.06879356,0.06317174,-0.06541404,-0.13553648,-0.038600247,-0.07218157,-0.33364984,-0.25168735,0.09309094,-0.059966918,-0.04124577,-0.023864241,-0.015104338,-0.12029711,-0.20805493,0.03719339,-0.019619077,-0.13790898,-0.09698631,0.0067525553,-0.0063490123,-0.00071413146,-0.032681614,0.07649179,-0.15803304,-0.038424622,-0.35076258,0.009530703,0.03477372,0.035106912,0.105689324,-0.026326835,-0.014187532,-0.06708705,0.015864627,0.017702077,-0.028303452,0.041410945,-0.21508266,0.07502732,0.11029033,-0.02007491,0.11530499,-0.20201717,-0.32324824,0.14071988,-0.17317292,0.012105365,-0.019778185,0.009947183,-0.14061129,-0.1634446,-0.10590893,-0.13679607,-0.15086089,0.06884871,-0.12526226,0.14265276,-0.049389016,0.089143425,-0.0051705153,-0.06142011,-0.028120868,-0.024013063,-0.11533215,-0.11796964,0.00801726,0.063399985,-0.027378328,-0.16742341,-0.07021831,0.07569004,0.026235092,-0.20054275,-0.022556044,-0.14946103,-0.19224222,-0.1767764,0.037850093,0.07477972,-0.04221529
0.030479927,-0.04315091,0.025588054,-0.0064580496,0.040752783,-0.14920732,0.065726325,0.17332171,-0.077356435,-0.13852406,0.08437269,0.036717325,0.13077119,-0.026577542,-0.025478212,0.024837503,0.11832298,0.041330006,-0.1583667,0.023607804,-0.0803945,0.095555335,0.08231536,0.18542004,-0.17754622,0.03644575,0.22142784,0.042997845,0.116785444,-0.10937207,-0.007331053,0.044549864,0.08077482,-0.055596516,-0.044427462,-0.035755236,0.14434706,0.16020821,0.25749645,-0.03225109,0.09796962,-0.048241552,-0.04451074,-0.1063654,0.09996402,-0.14989085,-0.110560946,-0.19366197,0.17108235,0.046679776,0.041213714,0.09923117,-0.10827728,0.20485829,-0.088375635,0.10229959,-0.022448754,-0.008220488,-0.1362329,-0.18566622,-0.06556512,-0.08211774,-0.03278818,-0.108774036,-0.052141014,0.118331105,-0.10146834,0.2125874,-0.17515662,0.11800428,-0.17940897,-0.033301335,-0.10476317,-0.12438007,-0.031178135,0.05289946,-0.20297702,-0.0027034609,-0.05737493,0.17326288,-0.0932156,-0.16908823,-0.042037413,-0.04236977,0.21259785,0.39115807,0.019887313,-0.026820438,-0.09877317,0.33741295,0.187163,-0.11533682,0.04714078,0.14145263,0.04268488,0.060227368,-0.35766423,0.17389563,0.10477358,-0.06616567,0.0033045383,-0.052317012,-0.10595324,0.14296259,0.20917867,0.2959011,0.09659484,0.054939173,0.046798784,-0.22590396,0.10643581,-0.0248253,-0.18174197,-0.028429465,-0.0533003,0.124106534,-0.0438593,0.09400466,-0.026968565,-0.042603385,0.08540343,-0.030193776,0.029650412,0.048645064,-0.012736847,-0.14051498,0.060784273,0.1091505
-0.23663191,-0.10123926,-0.12157014,-0.032721356,-0.17230132,-0.05157272,-0.41292912,0.030445965,0.040547673,-0.008212323,-0.39168707,-0.15928057,-0.066095755,-0.10304653,-0.037684746,-0.077267386,-0.1931631,-0.040348243,-0.07261335,-0.005466003,-0.3237879,0.0013433269,-0.0018174216,-0.20436884,-0.065413356,-0.07971201,-0.028240478,-0.10495493,-0.10000556,-0.11576178,-0.06786652,-0.10422201,-0.15496454,-0.025957163,-0.34483343,-0.22947332,0.031266615,-0.015575121,0.0068964935,-0.13294116,-0.3863006,-0.4514709,-0.03932593,0.09489222,0.1586794,0.09368385,-0.07817481,-0.010638255,0.047386162,-0.014566414,-0.020254012,0.013963305,0.05404678,0.17293435,-0.10274735,0.07527548,-0.051799644,-0.25219724,-0.067425475,0.020390177,-0.12274488,-0.08363354,-0.0010372328,-0.01576438,-0.1833651,0.0860096,-0.008253422,-0.028810455,0.040259376,-0.15167804,-0.018248703,-0.08950324,0.024741488,-0.11266447,-0.2274202,-0.03264115,0.02553396,0.042698804,0.045832995,-0.14618655,-0.07915408,-0.02383604,-0.40278545,-0.09045211,-0.22604199,-0.27767557,-0.1705217,0.16960078,-0.039759193,0.028343976,-0.09086441,0.05234413,-0.13491997,0.002817642,-0.2286562,-0.009296591,0.098463915,0.012597829,-0.123499736,-0.021023095,-0.23923245,-0.29654562,0.032392263,-0.2068248,-0.018378472,-0.19877842,-0.0042479383,-0.27078414,-0.20419133,-0.058751997,-0.0340756,-0.113923736,-0.061066158,-0.04048817,-0.021081686,-0.16361329,-0.14441408,0.1664675,-0.028578904,-0.11171309,-0.001511281,0.0212445,-0.16012464,-0.055674218,-0.07776421,-0.15594326,0.06627208,0.14290711
0.025437634,-0.028485201,-0.048793796,0.02694526,-0.013405658,-0.1128728,-0.09856741,-0.122575894,-0.05812922,-0.018021425,-0.04382038,0.012054142,-0.07894899,-0.038461167,-0.09332671,0.040115997,-0.06639889,-0.1281708,-0.07516289,0.0035523693,-0.066866964,-0.0670814,-0.060439605,-0.065477066,-0.044011187,-0.12802666,-0.1457127,0.027824532,-0.069467165,0.07528839,-0.082520485,-0.04808161,0.03364411,-0.07015171,-0.12692335,0.0135487495,-0.11873677,0.059319455,-0.0087860925,-0.022360558,-0.08433504,-0.10462213,-0.104167566,0.016073706,-0.05513274,0.009909543,0.053556252,-0.006148493,0.021377888,-0.084697835,0.011137455,0.0494334,-0.03956402,-0.0743568,0.008753955,-0.01427526,-0.10991562,-0.017555006,0.02813186,0.04391132,0.012003818,-0.0749148,-0.059585366,-0.022586549,-0.0067877225,-0.11573348,0.048981413,-0.050115075,0.060221523,0.008421533,-0.08585742,0.00514329,0.0058635147,-0.10924282,-0.08686915,-0.08954317,0.038323868,-0.05547328,-0.113836624,-0.06617577,-0.04740438,-0.0861622,-0.054084152,-0.03659543,-0.0055715586,-0.01129581,-0.11418143,0.0036223386,-0.06257324,-0.095570736,0.07175083,-0.0061129383,0.022420809,-0.016091555,-0.0336646,0.034233775,-0.10698041,-0.070683725,0.021956835,-0.10536359,0.0073472983,-0.06508954,-0.104533784,-0.05818535,-0.028380835,0.027477222,0.04554658,0.017239334,-0.052839376,-0.015355435,0.02165387,-0.10677164,-0.078926,0.017431943,-0.0096762795,-0.13138594,-0.13636957,0.03164414,0.029875336,-0.07466609,-0.047358476,-0.03164901,-0.08399848,-0.061874855,0.026846835,-0.055818014,-0.08159857,-0.091005474
-0.023673937,0.030024592,0.0041254996,-0.041067116,-0.016061144,0.018486429,-0.092391245,0.0627666,0.115820974,0.13415952,-0.1201087,-0.045501307,-0.058656234,-0.289733,-0.044703864,0.024496717,0.05827922,0.03605436,-0.19802564,-0.048118815,0.05815812,-0.019775769,-0.1484937,-0.15994279,0.030686807,-0.3027237,-0.13144106,-0.12392654,0.062761396,-0.0048362846,0.09658144,0.07647128,-0.071579605,0.09867881,-0.14876533,-0.70536745,-0.03768421,0.015010666,-0.13053575,0.04794616,0.044817105,-0.06969742,0.10814635,0.007309876,-0.11246596,0.024131611,0.06689488,-0.10321332,-0.28980047,0.06318911,0.06640479,-0.14754368,-0.05777978,-0.10945077,-0.03910685,0.043592658,-0.17565477,-0.13598011,0.13839427,0.0496578,-0.10564836,-0.07843067,-0.36553687,0.10356352,0.11208184,-0.10461651,0.002762804,-0.109115064,0.16190797,-0.18791349,0.13747622,-0.044339225,-0.028824268,-0.4614946,-0.1662992,0.12785892,0.08969256,-0.3440094,0.08780098,-0.112160936,0.089607775,-0.02046966,-0.089862466,0.08404248,-0.056550615,-0.32815334,-0.18678744,-0.033927567,-0.059758306,-0.028960628,-0.11416406,-0.2240582,0.010012817,-0.06886044,-0.023663761,0.16152324,-0.11621785,-0.013331147,-0.07391032,-0.23679808,-0.08727583,-0.29469156,0.011134227,-0.3991359,-0.1402221,-0.38633397,0.056126766,0.0952057,0.05895924,0.010492797,-0.24183255,-0.032693487,-0.12844416,0.03437988,0.008075555,0.052126102,-0.09800243,0.053777926,0.14359747,-0.00833659,-0.03578532,0.09625194,-0.36866233,-0.14035587,-0.11589578,-0.1518219,0.03944798,-0.0029098855
-0.102038205,0.022138909,0.07186736,0.04468758,-0.068660356,-0.09136851,-0.04497163,0.06396473,-0.07571543,0.05666754,-0.05320497,-0.016841806,0.06214238,0.0075835073,-0.01458215,-0.050331973,-0.076368794,0.038111135,-0.028013937,-0.04244594,-0.042182215,-0.056435123,0.027949795,0.016248848,0.064836636,0.019249262,0.045506094,-0.05926168,-0.027191963,0.016712256,0.04771078,0.003962573,-0.10918255,-0.10120545,0.022665361,-0.019009253,0.017969277,0.043649636,-0.09939587,-0.018048802,-0.042866994,0.02086053,-0.11546833,-0.012857546,0.00014578184,-0.10780664,-0.07064341,0.03628829,0.051618025,0.019279724,0.06025223,0.07180202,-0.09129508,-0.06337274,-0.09611309,0.026454326,-0.022539623,-0.08343576,0.017448926,-0.04530359,0.043770745,0.049076203,-0.03308581,-0.09421147,-0.03063823,0.026692098,0.0393534,0.03957916,0.01503269,-0.051564377,-0.023009386,0.0013756308,0.03067975,-0.0606596,-0.014529608,0.014073079,-0.09942843,-0.05354368,-0.0681413,-0.04335333,0.040134024,-0.07147945,-0.08492279,-0.03208694,0.030201383,0.050690003,0.019774232,0.023777612,0.01912364,-0.042058334,0.018710671,-0.015622002,-0.051282372,-0.007785921,0.0036715958,-0.10057584,-0.044417232,-0.042137016,-0.09207492,0.037872054,-0.02202088,-0.06182044,-0.07063424,-0.087039046,0.03474929,-0.09940538,0.035867464,0.0581798,-0.045747053,-0.088419236,0.024706174,0.03728484,-0.0503938,0.011247099,-0.08493096,0.04021924,-0.019709427,0.052275263,-0.032850698,0.013187278,-0.05834207,-0.046365555,-0.020623881,-0.04789199,-0.10467268,0.012657059,-0.04187318,-0.017004138
-0.17977877,0.097605206,-0.005783217,0.08094046,-0.046461575,-0.029896136,0.10473416,-0.0243133,0.09374383,-0.025984704,-0.41873205,0.0023645412,0.14082773,-0.06454188,-0.018351713,-0.013489467,-0.15153243,0.03284933,-0.15740776,-0.058946628,-0.069176175,-0.025502188,-0.0063537653,-0.03003639,-0.11434184,-0.12411534,-0.18631311,-0.13206641,0.03543285,-0.34542528,-0.03577738,-0.035603363,-0.37205616,0.03094951,-0.24067086,-0.13712975,0.016794313,-0.1325226,-0.032669447,-0.0059502576,-0.13830334,0.004413547,-0.056589957,0.11520681,-0.032791063,0.13916989,-0.015599051,0.087697044,-0.104999624,-0.15274511,0.029204594,0.052106373,0.17026271,0.035994865,-0.27190423,-0.08691804,0.19388081,-0.26011574,0.019305773,-0.07698482,-0.22446322,0.0064759846,-0.12696403,0.029990096,-0.08827772,0.1836672,-0.09482084,-0.06403991,0.018912349,-0.052717388,-0.09772518,-0.23125477,0.15343556,-0.06815568,-0.22597857,-0.04558514,-0.035505302,0.033910725,0.05200879,-0.22579207,-0.09805509,0.099337585,0.12177262,0.03162648,-0.11396331,-0.0959028,-0.19549404,-0.006590248,0.056583323,-0.1619127,-0.06961179,-0.035409413,0.12243577,0.08683346,0.013275477,-0.023691336,0.0317078,-0.100726426,-0.235706,-0.053453248,-0.10684345,-0.29707876,0.17875937,0.03071308,-0.13611898,0.02683599,-0.08520479,-0.09061586,-0.10717149,0.12978543,0.06777474,-0.10047279,-0.12839091,0.031992342,0.055704717,-0.124654986,-0.19451375,0.14680927,-0.0475249,0.007532174,-0.20426998,-0.022930302,0.0689322,-0.06855063,-0.102940105,-0.20318906,0.11240822,0.06997083
0.13714518,-0.008565623,-0.14967856,-0.068562925,0.038728297,-0.0044123405,-0.09416911,0.11833198,-0.10062606,0.08929607,-0.25047266,0.08205165,-0.09498514,-0.19259752,-0.08855853,-0.06241306,0.14404635,0.018671952,-0.12110929,-0.053183753,0.02000112,-0.25636008,0.20826471,-0.07439576,0.011289624,-0.11069599,0.22581275,0.06574386,-0.113151245,0.06737075,-0.040262405,0.0859304,-0.1019176,-0.0038602713,-0.0006018625,0.011277166,-0.08030701,0.10325565,0.13369672,0.0040350454,-0.0007439627,-0.056765188,-0.05911227,-0.014343602,-0.031547192,-0.1573917,0.026425567,-0.030076278,-0.036901463,-0.033552554,-0.06252538,0.07614244,-0.12546112,0.010918842,0.04070557,0.012944312,-0.32244617,-0.18501441,-0.075988,-0.08744459,0.014050683,-0.029053006,-0.035920892,0.0027728465,0.017880453,-0.26962936,0.015031359,-0.13816303,0.0041251183,0.16486976,-0.07421961,-0.02831355,-0.21699013,-0.06248202,-0.04484166,0.018462274,0.02451777,-0.16297875,-0.02911476,0.077022426,0.007448424,-0.114202835,-0.19752416,0.03675752,0.05494063,-0.12129083,-0.06482027,-0.15035339,-0.16801067,0.25256595,0.12762919,-0.09892271,-0.13506506,-0.0791191,-0.02228494,0.06596926,-0.010195272,0.16656598,-0.043528978,-0.10581802,-0.021817772,-0.19098458,-0.13916777,-0.174581,0.08509645,-0.046589274,-0.02354412,0.05233541,0.09767483,-0.05989652,0.054228805,0.09162868,-0.35947797,0.03555556,-0.05905867,0.19528273,-0.0759832,-0.12031583,-0.008390438,-0.019186212,0.07439227,-0.024527274,-0.24217744,-0.03271831,-0.08280958,0.010409819,-0.06399531,-0.21680076
-0.13688521,0.030623386,0.032790635,-0.10418042,-0.020200593,-0.043224715,-0.052839976,-0.122422285,-0.028592193,-0.14740564,0.017677857,-0.07899692,-0.011295023,0.0049920813,-0.0557445,0.044046555,0.06811563,0.02294357,-0.04310526,0.056298178,-0.100377694,-0.11417455,-0.0606257,-0.012711481,-0.070823126,-0.09611497,-0.0751666,0.028241312,0.030976942,-0.10662846,0.0046554497,-0.15647098,-0.14757459,-0.03438894,0.022467086,-0.072133146,0.041724432,-0.05675767,-0.007846681,-0.052944317,-0.15769127,-0.017056243,-0.027886014,0.013990795,-0.10069344,0.0048949337,-0.1514225,-0.058768436,0.007812903,-0.08244625,-0.030153973,0.07893909,-0.018192364,0.053729072,-0.07683893,0.027526677,-0.060572278,0.06594205,-0.011166395,-0.064192414,-0.12392015,-0.08568403,-0.12306966,0.021576881,-0.029067501,-0.069527164,-0.09921283,0.043872446,-0.04736638,-0.10568529,-0.03302002,-0.07301791,0.04609979,0.0015627444,-0.09083639,-0.038728487,-0.010217061,-0.013349087,-0.008263648,0.028187077,-0.021035375,-0.019465517,-0.04774739,-0.015104149,0.005137971,-0.06917926,-0.025721129,-0.07268544,0.05462545,-0.060179375,-0.102088325,0.011097189,0.021989184,-0.045071054,-0.09972741,-0.013442605,0.038727023,-0.07770571,-0.01976359,-0.11012005,-0.10399999,0.03998974,-0.06308209,-0.02795956,-0.009118666,-0.111353315,0.040309887,-0.11276206,-0.01938495,-0.020344524,-0.07801662,-0.028703352,-0.07534418,-0.10502207,-0.040898062,-0.10307626,-0.0014561065,-0.07913232,-0.124857455,-0.071047954,-0.0704746,-0.0969003,-0.03146201,-0.011310912,-0.033665657,-0.008224745,0.071046546,-0.06976989
0.041520968,-0.019635063,-0.040869858,-0.09647334,0.089660265,-0.060608342,-0.009034622,-0.04373048,-0.023324668,0.11488215,-0.62507737,0.01860967,0.0044473778,-0.15174286,0.043826982,0.010568212,-0.11054563,0.008739099,0.0637974,-0.058639288,-0.022093272,-0.15975831,0.071517855,-0.2717937,-0.064353436,-0.25809243,-0.030521112,0.011540067,-0.011710103,-0.017740542,0.06892691,0.053663433,-0.104019746,0.11829278,-0.14161602,-0.057060454,-0.07130864,-0.059594586,0.081835285,-0.017923437,0.071330965,-0.01012989,-0.021136783,0.055087287,-0.103077404,0.04168404,-0.050501946,-0.08784103,-0.3809488,-0.05707309,-0.011767702,0.01529016,-0.09903846,-0.21049446,-0.10060488,-0.017161997,-0.16106889,-0.14810188,0.09038651,-0.06232187,-0.09670364,0.08762632,-0.19474036,-0.016914768,0.07415991,-0.20232241,-0.00071803416,-0.07308665,0.0847373,-0.032792334,-0.042514645,-0.0127695305,0.019940283,-0.010153501,-0.21449706,-0.04973437,0.094615564,-0.37451765,-0.036391787,-0.046791416,-0.04908395,-0.10454545,-0.10076494,-0.049908947,0.06998281,0.04000838,-9.1527785e-05,-0.1439081,-0.041172214,0.03642418,-0.070061095,-0.1573263,-0.17391571,-0.15279639,0.050800513,-0.03836178,-0.08561985,-0.07286021,-0.039681543,-0.18472797,0.07933829,-0.1880521,-0.12628223,-0.11296679,0.008053722,-0.07263068,-0.04983496,0.02726971,0.0060796496,-0.08117152,-0.0005356136,0.02841185,-0.2473595,0.099323295,-0.020683173,0.033858806,-0.12248822,0.05698486,0.07720236,-0.041675292,0.029529149,-0.028257463,-0.28519052,-0.042304352,0.0029490488,-0.078232735,-0.044009462,0.042299896
-0.042279962,-0.02307069,-0.04077334,0.028374089,-0.0629102,-0.10370115,-0.041118495,0.045465138,-0.055549495,-0.03679032,0.026486795,0.0401413,0.072043784,-0.0639756,0.007490793,0.0059531117,-0.045418397,-0.053426754,-0.053536046,0.039130356,-0.08431856,-0.09266269,0.05771105,-0.10394925,-0.089252524,-0.07018974,0.066531345,0.040675458,0.07018942,0.0047109043,-0.051857926,0.018840836,0.017920699,0.0391457,0.03117783,0.05489429,-0.09537636,-0.034570657,-0.09629083,-0.075066626,-0.07345426,0.020263879,-0.0052389987,-0.080620706,0.06649091,-0.0943263,-0.08340904,-0.034595337,-0.035180278,-0.022377009,-0.093151696,0.018779319,0.03461644,0.037732754,0.06377146,-0.042475432,-0.06544028,-0.09382571,-0.022730004,-0.018843165,-0.013485926,-0.046233438,-0.076338805,-0.07718934,-0.10108271,-0.07504419,-0.02640146,-0.027656214,-0.074027814,0.00072546536,0.008573244,-0.06578185,-0.022636497,-0.010678032,-0.12724417,-0.098986946,-0.10944247,0.05148555,-0.057349343,-0.054255176,-0.031151215,-0.05502629,-0.002094753,-0.08347279,-0.017975392,-0.069616325,0.0075865407,-0.079028174,-0.035561595,-0.01250489,-0.03938295,0.04116678,0.006065915,-0.061475504,-0.04943036,0.010036773,-0.014076468,-0.0058168266,0.016832039,-0.028811408,-0.025804477,-0.018979004,-0.13017628,-0.024031794,0.017433777,0.010743232,-0.07896434,-0.03200886,-0.059627533,0.021547105,-0.08746727,0.049578022,-0.10744135,-0.08184538,0.017357133,-0.04591415,-0.072366536,0.022212878,-0.09787104,0.06045986,-0.0338731,0.034108948,-0.025057744,0.0017871874,-0.05593659,-0.002451562,-0.021906001,-0.10248228
0.12636854,-0.0618463,-0.15617055,-0.09798395,-0.02366939,-0.11817645,0.08596199,0.055225518,-0.0068321256,0.06696783,-0.17723703,0.071258776,0.018094974,-0.07103382,-0.02557194,-0.027084798,0.0694054,0.080300555,0.08188913,0.054827463,0.07027574,-0.079516545,-0.2721083,-0.17643215,-0.016538823,-0.019537324,-0.08397972,-0.028424934,-0.04556815,0.036573343,-0.018837111,0.021172097,-0.0028035296,-0.041956916,-0.20942223,-0.093025014,-0.14287318,-0.038460992,-0.022084495,0.07535089,-0.0067687077,0.103027605,-0.09827411,0.034555383,-0.14289546,-0.102598295,0.083522595,0.055103716,-0.06693544,-0.06141015,-0.007196724,0.09407977,0.0005795032,-0.23665397,-0.046548195,0.085600734,-0.10882051,-0.14597067,-0.015938008,0.108424775,-0.07997659,0.0121860895,-0.10149145,0.03894584,0.03872007,-0.17479567,0.0078110546,0.04087047,-0.0010377471,0.07920477,-0.00866601,0.009506417,-0.060973704,-0.008210782,-0.12198373,-0.027044397,0.094003655,-0.15138848,0.06170937,0.09050876,-0.09989451,0.029147675,-0.049100485,-0.114047736,-0.042681474,-0.09321941,-0.042671163,0.04573894,-0.058594506,0.06892455,-0.124254405,-0.24964447,-0.05821251,-0.14928518,0.05418887,0.02514571,-0.10398229,-0.022915473,-0.06621111,-0.0026968757,-0.06208833,-0.08617866,-0.08408522,-0.10482183,-0.034122296,0.0177802,0.019617254,-0.015261425,0.03249505,-0.078950524,0.0016645923,-0.00841411,-0.23453286,0.022947356,0.039789528,0.10058384,-0.27064344,0.014366045,0.09652888,0.089801885,-0.1855594,-0.10814324,-0.11120652,-0.0024961573,-0.026311817,-0.055680797,0.062423613,-0.12008816
0.08077981,-0.47552958,0.037343267,-0.003509489,-0.044247206,-0.0023173573,-0.028492218,-0.035149515,-0.004050639,0.07294579,-0.14560477,0.12510191,-0.009727221,0.042288363,0.07719032,-0.004319393,0.012526467,0.11713514,0.13950364,0.08245361,0.058932003,-0.18104628,-0.041036982,-0.02169152,0.17215241,-0.019142617,0.0039540767,0.012355281,0.08281534,0.10580346,0.07390497,-0.08190988,0.099475116,0.06768909,-0.11333066,0.08028892,-0.030135233,-0.018222516,-0.034480654,-0.026439877,-0.1006913,-0.00019182087,0.074778646,-0.2514388,-0.2625993,-0.52641815,0.115043394,0.17198665,-0.08337899,-0.012973913,0.10697057,0.0345363,-0.20504934,-0.13968034,0.18709742,0.037633657,0.06901208,-0.048181232,0.113047294,0.10701412,0.081708625,0.030896544,-0.052041538,0.12255528,0.019074941,-0.120242,0.041358385,0.010826437,0.017460134,0.102668256,0.16138317,0.05880447,-0.723088,-0.024549924,0.05076643,-0.014856158,0.11588637,-0.14976975,0.034480155,-0.007811109,-0.020873481,-0.062816836,-0.33171508,0.034589965,0.044118576,-0.19531937,0.02785673,0.07617692,0.01528139,0.016362144,0.12933739,0.032847658,-0.04021189,6.999004e-05,-0.107070416,-0.013727108,0.024292227,-0.05516722,0.08731091,-0.0117319245,0.1455688,0.048193857,0.13279119,0.032560907,-0.08740117,0.009324928,0.028148694,-0.03223942,0.025953239,0.04046023,0.13530497,0.08181081,-0.17544264,-0.012152289,-0.073800035,0.07084278,0.044162337,0.047603477,0.094731264,0.03905951,0.05892573,0.04488638,0.020745069,0.08595731,0.055916578,0.06569334,0.02138131,-0.14566158
-0.102425046,-0.010145801,0.04001193,-0.046640422,-0.074716926,-0.064693965,-0.02823127,-0.03913788,0.0034586121,0.007076096,0.04339312,-0.09730677,-0.077218965,-0.04827839,-0.113880746,-0.09401109,0.066358574,0.020782085,0.0016151188,0.026395379,-0.084265046,-0.02501864,-0.07085828,-0.0004010473,0.0017415944,0.061068986,-0.08510422,0.011704949,-0.105868936,0.045393452,0.004152933,-0.07639176,-0.041901845,-0.03335218,0.02582106,0.0041568014,-0.09742085,0.04601041,-0.08901053,-0.024599653,0.063966,0.06208984,-0.10091996,-0.04114454,0.026971133,-0.08275683,-0.058818128,-0.08444421,-0.05892606,0.07140334,-0.029069193,0.038585708,0.0062255156,0.058824193,0.06550879,0.06592766,-0.04569508,-0.0119688455,0.014719738,-0.01474152,-0.09337378,-0.020177107,-0.036666177,-0.09207291,-0.07501383,-0.10606146,-0.06647006,-0.09776584,0.021914141,-0.079731084,0.045826267,-0.040022843,0.03468593,-0.09110635,-0.024662973,0.039462715,-0.08329821,0.06777615,-0.055846296,-0.098727845,-0.010733086,0.023489434,-0.026677847,0.058712855,0.026202358,0.06840006,-0.051182963,0.070422515,-0.08784818,0.007916982,-0.06080305,-0.048970334,0.058999874,-0.08258857,-0.05396613,0.032950304,0.006122793,-0.05030631,-0.012893556,-0.114241205,-0.07815538,0.06635429,0.04996284,0.06826549,-0.041858476,-0.08913932,-0.04877569,0.050810378,-0.058378592,-0.055140752,-0.021772314,0.018966276,0.043545965,0.03431014,-0.0927323,-0.040377207,0.06763983,-0.05671679,0.03712856,-0.09978386,0.0033400503,-0.086339206,0.038525198,-0.017946467,-0.07818035,-0.030004457,-0.0197704,0.007012636
0.06834889,0.15150751,-0.16422707,0.0042453203,-0.046941053,-0.0242826,0.11658472,0.080425836,0.10330349,0.012353359,-0.059816997,0.09183488,-0.067029625,-0.053481724,-0.19655699,-0.058593314,0.055221103,-0.043840468,-0.3810571,0.028155066,0.13231091,-0.025654307,-0.28357282,-0.22512482,-0.18624562,0.009455518,-0.30896154,-0.09843032,-0.08765057,-0.05310162,0.03562067,0.090202294,-0.30728397,0.022157129,-0.0712553,-0.69245875,-0.08570409,0.10688232,-0.002943,0.09585708,0.09546538,-0.0043968963,0.08078038,-0.111611456,0.04352261,-0.009345985,-0.021922175,-0.081521906,-0.123109855,0.041885912,-0.008555768,0.12977847,0.08677302,0.08404826,-0.06473592,0.09279907,0.045127053,-0.14037101,-0.029551294,-0.151844,-0.08034868,0.016541634,-0.0075959503,0.088808164,0.08648094,-0.055417094,-0.10647272,-0.011620808,-0.103700526,-0.047907792,-0.015716005,-0.10027793,0.041063968,-0.6430064,-0.24555199,0.014219578,0.0282309,-0.078297555,0.032769434,-0.14029978,-0.046851236,0.037541345,0.12914518,0.06347994,0.105282396,-0.17162374,-0.22557975,0.044886425,0.067497104,-0.071222685,-0.38009033,-0.30702895,-0.028302357,-0.0025781053,-0.092154585,-0.046974406,-0.11536403,-0.2626637,-0.09984168,-0.5212621,0.0051056473,-0.0027876901,-0.077116325,-0.09096744,-0.12270298,-0.10248908,-0.04438613,0.033223018,-0.0012172861,-0.075287834,0.0771643,0.11212769,-0.020188829,0.0346612,0.05655579,0.073516175,-0.13029225,-0.051099993,-0.0351529,-0.012120269,-0.4804242,0.009313534,-0.12482805,-0.049333252,-0.1720422,-0.18792452,-0.0659529,-0.007792039
0.042256374,0.038922913,-0.12528692,0.17750211,-0.1636464,-0.5018094,-0.28701591,0.20018892,0.052027844,0.060838375,0.00408049,0.16467866,0.26410365,-0.50900424,0.05942826,-0.032103,0.24693148,0.23814195,-0.032782566,0.19410323,-0.3475717,0.11017837,-0.09526505,-0.06475434,0.03072713,-0.15496884,0.14289501,0.063328296,0.28330052,0.008874861,0.11429792,0.08007744,0.022967534,0.03139036,0.074290775,-0.63333297,-0.07414888,0.18631774,0.09848471,0.106448285,0.16987269,-0.20374107,-0.0043100845,0.0249469,-0.1417145,-0.45885193,0.0031923898,-1.0867461,-0.047908474,-0.02181977,0.20278798,0.024816774,-0.5312245,0.33070812,0.037865568,0.06933679,-1.1964593,0.035395365,0.103949435,-0.019943178,-0.05942793,0.052436356,-0.2887034,-0.1982388,0.20853822,-0.043049227,-0.1867829,0.07847937,-0.05227886,-0.25306,-0.034443658,-0.3742818,-0.32093623,-0.506094,-0.17529276,0.18549143,0.0124493735,-0.18451111,0.043209273,0.2186379,-0.04711587,-0.30801836,-0.37463263,-0.20740412,0.09909648,0.038319133,-0.012408916,-0.028678607,-0.40032175,0.079335466,-0.030008517,-0.07725608,0.21468198,0.057954434,-0.17694153,0.15732834,-0.43326113,0.023749124,0.17360933,-0.0053561945,-0.11803767,-0.024034051,-0.4734593,-0.82593644,0.080290794,-0.08342112,0.12477135,0.10922293,0.13883515,-0.60125965,-0.51166356,-0.06368263,-0.5903579,0.102336824,0.09207487,0.04094938,-0.05395426,0.3131341,0.011151594,0.1185323,-0.011702472,-0.020236183,0.031607464,0.17187467,-0.3366113,-0.106293716,0.3496862,0.23988895
-0.13558303,0.05277138,-0.07517114,0.037849598,-0.035119995,-0.03069919,0.005507653,0.0003316373,0.10455467,-0.008021068,-0.120858304,0.0023972574,0.022442853,-0.17541347,0.055695377,-0.018221442,0.016104167,-0.05326494,-0.12339531,0.03361935,0.05838264,0.00048348977,-0.011513549,-0.05575674,-0.0068355547,0.0018980163,-0.14732778,-0.04480068,-0.023499234,-0.007847097,-0.060076717,0.009293145,0.044931985,0.006094411,-0.09288174,0.018277531,-0.14836583,-0.034299456,-0.062800385,0.0059307283,0.014880702,-0.045694496,0.0089692995,-0.047887463,-0.08548399,-0.028445749,-0.057454694,-0.060772236,-0.06782708,-0.06057943,-0.04916532,0.004282327,-0.059085153,-0.14531957,-0.12518415,-0.0023504705,-0.02611833,-0.09590671,-0.07806435,-0.024560275,-0.093361355,0.06734799,-0.056994595,0.040979404,-0.007204311,-0.059279446,0.0015952028,0.017035786,0.007432203,-0.05202269,-0.03494771,-0.11057774,-0.054545313,-0.09765418,-0.04204867,-0.060075115,0.033218674,-0.024890304,0.022080494,0.07294618,-0.1064634,-0.08360354,0.024491753,-0.04854257,-0.07620319,-0.112137094,-0.018512845,0.058579523,0.039471168,-0.008336818,-0.13092728,-0.120261885,-0.027816508,-0.04512574,0.03664626,-0.11177396,-0.095733106,-0.09669395,-0.092326395,-0.16002934,-0.076838836,-0.17395897,-0.09019699,-0.008437407,0.029617844,-0.17901888,-0.019881202,-0.071543865,0.0013645682,0.003113588,-0.06893064,0.019180346,-0.15683174,-0.07509074,0.062795505,-0.069305815,-0.10352973,0.07060329,-0.06370797,0.016820816,0.045368895,-0.014812027,-0.12323059,-0.082072444,0.015602751,-0.09053545,-0.0034280238,0.057947207
0.012404699,-0.0067102644,-0.13139944,0.039206922,0.03713626,-0.1038086,0.08470824,-0.053044762,-0.03447285,-0.031958364,-0.02594418,-0.07984135,0.010837574,-0.007611168,-0.05405706,-0.04848327,0.02132864,-0.032894343,-0.11130991,-0.044959467,0.07463018,-0.1566053,-0.22772925,-0.12676866,-0.035146143,-0.04054396,-0.23877773,-0.12396399,0.025096675,-0.03372017,-0.092396356,-0.029666673,-0.034102544,-0.09287554,-0.025558002,-0.07201483,-0.12993863,-0.023363313,-0.1591222,-0.11880927,-0.028852442,-0.0077663586,-0.039570376,-0.16549984,-0.09442166,-0.12423616,-0.06456047,0.04550716,0.08632082,-0.05140402,0.023790132,0.072226346,-0.019480592,-0.08787587,-0.0400021,0.009711077,-0.00916486,-0.065918446,-0.024312329,-0.042670596,-0.013506406,-0.09194977,-0.027552344,-0.019106096,-0.08800487,-0.021988919,-0.01177994,-0.014072309,-0.077695556,0.040617675,-0.102971375,0.011032652,-0.10998375,0.010509663,-0.0067052157,0.014913971,-0.08708261,-0.08067096,-0.08494121,0.035890825,-0.093791075,-0.039793126,0.051321656,-0.096486874,-0.13842219,-0.08333869,-0.0456265,-0.040442307,-0.14677754,-0.0016052458,-0.08262163,-0.14858888,0.005231413,-0.0831892,0.09124364,-0.075236835,-0.09183153,-0.029809535,0.03847186,-0.046199422,0.08063744,-0.06599119,0.023269247,0.001202577,-0.025098348,0.0376037,0.03305008,0.014320485,-0.13223234,-0.09825015,0.025313567,-0.103730984,-0.1073232,-0.033675086,0.009618823,-0.019813709,-0.17204171,-0.018061351,0.005202948,-0.032416895,-0.24708478,-0.037181474,-0.04181464,-0.014200527,-0.079240315,-0.020702826,-0.018857567,-0.12970787
0.045035657,-0.03406419,-0.024887972,0.002731941,-0.048388507,-0.105186425,-0.108866,-0.04571715,0.043172367,0.01828996,-0.16413328,0.006328314,0.044438165,-0.14431259,-0.024111703,-0.007283753,-0.1365586,-0.052270867,-0.0044276966,-0.03216275,0.008583374,-0.04053797,0.006801304,-0.14727826,-0.05563917,-0.053057645,-0.09445597,-0.09189307,-0.01716929,0.0388603,-0.03133589,-0.078050844,0.08283704,-0.104729444,-0.050067663,-0.039787397,-0.08588674,-0.10304229,-0.006334941,0.012813046,-0.02689451,-0.08155742,0.051653698,-0.10917103,-0.10492503,0.026216833,0.008619635,0.0026982634,-0.053476404,-0.0033891457,-0.051896717,-0.045445945,-0.07856228,-0.08095187,0.034651246,-0.068468206,-0.12530158,-0.08640721,-0.01010598,0.06610381,0.091201626,-0.01071617,-0.18755114,0.06931291,-0.06547568,-0.026838765,0.081561245,-0.031837244,-0.0759075,0.0042156195,0.11245312,0.010451793,-0.10615733,0.05432956,-0.051955514,-0.07262262,0.0035383315,-0.091199555,-0.060266122,-0.05161728,-0.10363428,-0.036768205,-0.030516447,0.057678513,-0.037628777,0.013229131,-0.14530651,0.010628121,-0.03606549,-0.06595222,-0.06255214,-0.1684971,-0.10092331,-0.05161936,-0.05607992,-0.01268593,0.039863355,0.05638007,0.06799386,-0.076476194,0.035218693,-0.025254104,0.10969633,-0.09690872,-0.0890137,-0.1081125,-0.03134616,-0.081929006,-0.09820363,0.05720611,-0.076283395,-0.053612668,-0.26505676,-0.060175627,0.02086131,-0.027994579,-0.0602674,-0.0598778,-0.007521566,-0.09520869,0.056322638,-0.10106022,-0.1319247,0.09230909,-0.06061919,-0.14937827,0.06182488,-0.027119933
-0.06905181,0.034395818,-0.10532699,0.005942706,-0.08498657,-0.22783104,0.08034652,0.027318018,0.06719773,-0.020308154,-0.29467937,-0.12361886,-0.0027583523,-0.21081696,0.014030928,0.03378789,-0.03125667,-0.14473897,-0.08500398,0.04720629,-0.026196942,-0.03097235,-0.000577041,-0.063927725,-0.09500002,-0.24073397,-0.118855484,-0.06922467,0.0021965057,-0.057031613,0.026132911,-0.052602712,-0.100706354,0.055225093,-0.054733746,-0.024459535,-0.09798201,0.024162823,-0.06548688,0.035973746,-0.15799414,0.047878988,0.057576712,-0.138923,0.0025909708,0.06969638,-0.08132962,0.027879262,-0.2239698,-0.06027183,-0.010005195,0.043385744,0.057173543,-0.08078762,-0.015948463,-0.05154762,-0.19914073,-0.102495536,-0.019510627,-0.03501873,0.038534854,-0.049231105,-0.26350147,-0.015850248,-0.08359953,-0.02657537,0.028073598,0.077123344,-0.006332985,-0.1212145,-0.07105642,0.0204225,-0.054505926,-0.06936891,-0.048807934,-0.058629382,0.018032081,-0.32785872,-0.018567981,-0.08012743,0.03931828,0.033241555,-0.05357024,0.10076385,0.0058624055,-0.06023388,0.002243649,0.05162204,-0.013944106,0.015340965,-0.016979745,-0.033267576,-0.06258787,-0.04765277,-0.12188479,-0.042400453,0.034358475,-0.1803603,-0.06297206,-0.023751305,-0.05195853,0.015733631,0.06538229,0.009280339,-0.027791468,-0.1512736,0.08370999,0.010839485,-0.079073094,-0.03591023,0.006632013,0.03957378,-0.41772693,-0.08607528,-0.09074599,-0.15673998,-0.1823822,0.13335764,-0.08027418,-0.124940716,0.007771568,-0.035473533,-0.054014795,-0.061857626,0.12665659,-0.092167914,0.06169811,0.022226252
0.0937092,0.040305268,-0.01056829,-0.0010223268,0.13046741,-0.0436987,-0.03837961,-0.087447196,8.941307e-05,-0.0056058,-0.1453825,0.058299802,-0.07953353,0.00057066785,-0.058720097,-0.05995619,-0.1306597,-0.03489325,-0.07095261,-0.00902263,-0.04522881,-0.23275101,-0.20981331,-0.01899046,-0.059150737,-0.050982792,-0.15467837,0.042715155,0.005087912,0.03998446,0.01376564,-0.006304742,-0.008413263,0.1015133,0.024176499,-0.18085717,-0.100141436,-0.20519857,-0.20765735,0.011919067,0.050167203,-0.018481065,0.018808577,-0.096475266,-0.14008333,-0.05759047,0.069565125,-0.15571705,-0.025474872,0.023372732,-0.050166987,-0.057288967,-0.28432268,-0.11490162,0.014615681,-0.068424344,0.048802953,-0.047098402,0.06524512,0.06382631,0.058239613,-0.13895184,-0.1459191,0.04036447,0.12431456,-0.1835922,-0.0636275,-0.17449145,0.013360924,-0.026781064,-0.079105034,-0.100698516,-0.02805825,-0.17752773,-0.040447176,0.03860519,0.050388232,-0.11801545,0.033815473,-0.089084715,0.0046120803,-0.019942123,-0.090384886,-0.042202592,-0.110543855,-0.15028253,-0.06869806,-0.1043596,-0.07533759,-0.20009862,-0.15580706,-0.014146784,-0.12482856,-0.14790966,-0.027730793,0.06375024,-0.06803386,-0.20548446,0.058978934,-0.07955958,0.07178105,-0.01352144,-0.10962959,-0.17110229,-0.21654584,-0.0900894,-0.036212243,0.13069125,0.065605044,-0.2642503,-0.007391547,0.06986846,-0.04243197,0.1442083,-0.07121269,0.10692305,-0.10656504,0.16022478,0.13935037,0.09729553,-0.22122665,-0.036447346,-0.07641,-0.051880326,-0.05330172,-0.037326343,0.010710514,-0.048079416
-0.08795799,0.021713732,0.0476702,-0.10122165,0.0008242433,-0.11962226,-0.06276424,0.01253216,0.02770932,-0.08366693,0.0091921445,0.04751024,0.022799952,-0.13428658,0.028890729,0.022774015,-0.009662477,-0.07115476,-0.05342411,-0.07537663,0.007957101,-0.028300378,0.017699553,-0.011707785,-0.102530725,0.032478377,0.06531568,0.057292655,-0.097174615,-0.12832494,-0.07488324,0.03473629,0.03350329,0.040092677,-0.06279611,0.035916395,-0.089769304,0.064069346,0.06465047,-0.03485512,-0.01512239,-0.032050677,0.015139484,-0.092457324,0.009929079,-0.09276504,-0.13163266,0.003075569,-0.047028035,-0.12102446,-0.099791765,0.051212367,0.055596583,0.012806829,-0.09537927,-0.030335313,-0.00909231,-0.0692813,-0.06659578,-0.0508679,-0.047826458,-0.059704825,-0.025515268,-0.10483252,-0.065098524,-0.026203623,-0.033168554,0.034758694,-0.0017810039,-0.009344387,-0.091306336,0.025292529,-0.017358474,-0.066463426,-0.043825187,-0.05957873,-0.0075505762,-0.13633403,-0.04042662,-0.012297159,-0.03879774,-0.021204349,0.052961137,-0.044994567,-0.0026170146,-0.016741056,0.015094111,-0.053010933,-0.09425506,-0.035683703,-0.0008651877,0.047422696,-0.06541067,0.05911638,0.013393344,0.024736581,0.010249073,-0.059504636,0.0067396304,-0.10808314,-0.044022396,0.012971633,0.048858937,-0.058699735,0.009125093,0.016078718,0.059349738,0.009671552,-0.05217619,-0.045281734,-0.108379,-0.06363087,-0.055890113,-0.08268678,-0.105706654,0.030668428,-0.008517456,-0.09492622,-0.046300437,-0.050109737,-0.102493435,0.067949444,-0.012337905,0.0055560814,-0.118024975,-0.12182821,0.0128070135,-0.059501175
-0.09476591,0.12814844,-0.009350447,-0.010558335,-0.25644597,-0.030566381,-0.20318149,-0.034944378,0.051995736,0.0089859,0.053832218,-0.037361912,0.01684416,0.06907826,-0.1433693,-0.03884799,0.011981518,-0.14486699,-1.181068,0.042979453,0.031568516,0.018103138,0.017971853,-0.10378742,-0.0537522,0.06429337,-0.29803598,-0.35550353,-0.06757223,-0.079625756,0.087390974,0.029552868,-0.69801384,0.09423061,-0.09267149,-0.016375298,0.033908233,0.06275144,-0.0512005,-0.04206286,-0.2890753,0.018569857,0.22412567,0.048881054,0.07173862,0.15245904,0.056346916,0.01378057,-0.022423789,0.025501294,0.10519989,0.07242775,0.07728594,0.03999383,0.023180945,0.10159021,-0.008313725,-0.55310374,-0.048878767,-0.053873803,-0.07077726,0.004059498,-0.08087223,0.0878721,0.06127538,0.15551423,-0.1372604,0.16323666,-0.10307011,-0.0980772,0.07181852,-0.024363035,0.08322836,-0.33109313,-0.44520473,0.00033441916,0.046243485,0.04803852,0.06068072,-0.13103072,0.106616616,0.10589338,0.17256445,0.0829933,-0.10925742,-0.10032074,-0.72107697,0.14413947,0.0998546,-0.123239785,-0.16338632,-0.13711406,-0.14473337,-0.03275581,-0.24700579,0.01434629,0.09686162,-0.20178528,-0.115122646,-0.2861977,-0.076961115,-0.71320665,0.027154375,-0.34064245,-0.10570396,-0.11844843,0.11209155,-0.032694098,-0.0038468419,0.11317003,-0.4870408,0.0026545147,-0.08712981,-0.0019473245,0.061901946,-0.20435491,-0.19381766,0.13355556,0.0028736398,-0.004147832,-0.079895,-0.0012892268,0.10701262,-0.2153751,0.08983962,-0.36438033,0.027700493,-0.0031944271
-0.17835814,-0.05009955,0.19217756,-0.046675295,-0.17873897,-0.17473945,-0.09785596,-0.03132427,0.0341864,-0.15983243,-0.0053611826,-0.25995737,-0.053056687,-0.07384307,-0.16048436,-0.11996075,-0.054422047,-0.027833229,-0.5099754,-0.12605454,0.019366503,0.061978195,-0.02040053,0.3163247,-0.21242599,-0.08992491,-0.10126839,-0.060716584,-0.060981818,-0.29440185,0.06310199,-0.13732857,-0.31102133,-0.07650501,-0.13933875,-0.22753459,0.11345079,-0.08959929,0.01039992,-0.14135991,-0.06462746,-0.18522514,0.18909657,-0.13575801,0.21629821,-0.10214639,-0.33052713,0.048387717,-0.033466406,-0.0013518488,-0.021934224,0.072459474,0.033618685,0.12176247,-0.23002014,0.09217463,-0.4620734,-0.105445914,-0.15973568,-0.14152278,-0.21033147,-0.1057808,-0.040870063,-0.053496644,-0.032217976,0.14679408,0.041562032,-0.09144795,-0.20212667,0.023542624,-0.041971292,0.05204736,-0.035582684,-0.2064189,-0.15374477,-0.11536122,-0.24856912,-0.048767634,-0.0021358212,-0.07150258,-0.022030294,0.051878564,-0.080465935,-0.053767636,-0.119388364,0.12095849,-0.3250805,-0.15042402,0.02354863,0.024619589,-0.11140004,0.16210403,0.022633782,0.15325172,-0.06443566,-0.15172444,-0.0066466066,-0.18289831,0.020230658,-0.006993695,-0.3597365,-0.14766854,-0.049429666,-0.16024418,-0.075439654,0.11794762,-0.106336,-0.18812747,-0.13546929,-0.0011272999,-0.1737778,-0.033831578,-0.13904345,-0.10560121,0.051844474,-0.17837375,0.09302069,0.017382633,-0.20141678,-0.23134132,-0.15983307,-0.102076024,0.33991668,-0.09340848,-0.11889419,-0.08300142,-0.00045572533,0.42602116
-0.20489642,-0.13295698,0.1008747,-0.022858525,-0.034218628,-0.081413604,-0.035877243,-0.054794636,0.075424574,-0.12742937,-0.40194017,0.016436901,-0.06745148,-0.06478345,0.07084683,-0.008394042,-0.028743368,-0.012708394,0.15747087,-0.10664496,0.04334933,-0.05443854,0.03316133,0.059484337,0.03216691,-0.21237895,-0.20254646,-0.12265338,0.05757414,0.013109343,0.04855316,-0.09259153,0.023057973,-0.02438577,0.026562074,-0.08163556,-0.09003729,-0.028961021,0.02128397,0.03451991,-0.104264185,0.069651805,-0.050885096,-0.02314267,0.11810875,-0.15708226,-0.04485088,0.01977828,-0.1596311,-0.06797685,-0.022352168,-0.04750966,-0.18553469,0.22358674,0.09528221,-0.07355669,0.03682994,0.043159034,0.0009922101,-0.064691074,-0.045138557,0.10011883,-0.22376475,-0.004439058,-0.057515156,-0.15991694,0.02563096,0.031025287,-0.03616573,-0.028552964,0.0047328286,-0.06944537,-0.2638357,-0.0077008503,0.049686696,-0.025862489,-0.08462098,-0.27761444,-0.024776412,-0.12152498,-0.055371065,-0.017506495,0.06601969,-0.024048222,0.00044416453,-0.034345575,0.12232501,-0.015724592,-0.07892808,-0.18225126,-0.051646974,0.041559547,-0.105426,-0.010495312,-0.0035740712,0.0025819256,-0.042678732,-0.13812701,0.025632227,0.10519562,0.04173865,0.091041826,0.015896315,0.042921178,-0.07293489,-0.17519642,-0.049591247,0.019768188,-0.11490004,0.06773324,0.09720549,-0.065254726,-0.25036547,0.03953053,-0.096045405,-0.114013106,0.02936496,-0.058000583,-0.104761735,-0.010499429,-0.1168801,0.027967421,0.032782026,0.041519932,0.022331422,0.03891459,0.028391404,0.13219844
-0.054219086,-0.09763905,-0.045673825,-0.023357406,-0.04449402,0.007674061,-0.16934206,-0.024087641,0.019219017,0.025844896,-0.17177604,-0.060611583,-0.017700022,0.008610265,-0.001229822,0.033565935,-0.12399729,-0.026141526,-0.027469393,-0.11674038,-0.08598718,-0.24095024,-0.012326598,-0.13552357,0.046515603,-0.14273278,-0.018263202,-0.08730709,0.019861378,0.02145633,-0.052018415,-0.047060296,0.09186514,-0.05319628,-0.2037006,-0.108959734,-0.12599504,-0.010546857,-0.037531663,-0.029836426,-0.08755885,-0.026275003,-0.14793494,0.071807444,-0.086743794,-0.021725204,-0.078090996,0.032971784,-0.10983577,0.009319077,-0.07266109,-0.09316132,-0.0012420281,-0.13394196,0.05408112,-0.05461314,-0.10222673,-0.1589721,-0.058559768,0.09183543,-0.066642664,-0.088960394,-0.18313578,-0.034381088,-0.085002355,-0.16763075,0.07306828,-0.020679137,0.030595854,-0.0881738,0.055223305,0.025791952,-0.0036606998,-0.085244425,-0.13680173,0.04306772,0.015460928,-0.17824042,-0.058741245,-0.040119346,-0.10817339,-0.031820472,0.008953344,-0.08116308,-0.016373938,-0.01845646,-0.08058872,-0.01432469,0.011809156,-0.07384383,-0.06960454,-0.14433554,-0.09209984,-0.0049236584,-0.056762017,0.049834974,-0.05214644,-0.05636793,7.472358e-05,-0.10575596,-0.05497782,-0.06215079,-0.09713839,-0.07459159,-0.04917879,-0.07290362,0.01461207,-0.016084367,-0.040041443,-0.094773114,-0.067160174,0.06475674,-0.068893105,0.03152167,-0.08238963,-0.017638976,-0.05975256,-0.050048374,-0.022925947,-0.09617974,-0.03459214,-0.026865993,-0.09395748,0.06260265,-0.024152903,-0.009436301,-0.021572683,-0.12322454
-0.06565347,0.1476577,-0.07912632,0.03770663,-0.039532095,-0.083633155,-0.0051270165,-0.08601463,0.10854714,0.008525913,-0.25400808,-0.008590645,-0.012263376,-0.089203775,0.014612615,-0.026700262,-0.11483097,-0.12731376,-0.116686076,-0.06792463,0.08237299,-0.039546143,-0.17405055,-0.24381025,-0.111479975,-0.08604348,-0.45128018,-0.29144347,-0.09838203,-0.08621543,0.070893705,0.02612499,-0.05507191,0.033795338,-0.0697569,-0.6153172,-0.32933256,-0.07071286,-0.06371895,-0.03813267,-0.08582763,0.01840052,0.00053666503,-0.0039815577,-0.1478012,0.107477255,0.059384428,-0.0089514265,-0.07722869,-0.13299656,-0.07180193,-0.09825304,-0.014439425,-0.3233173,-0.19334608,-0.097631596,-0.13120854,-0.1402188,0.074517034,0.07091678,-0.14253478,-0.06227298,-0.13545787,0.10690247,-0.024463119,-0.1682616,-0.10271292,-0.08043459,0.060888205,-0.13315387,0.10863958,-0.0799364,0.12868881,-0.5467868,-0.27523842,0.053815458,0.101494364,-0.00058606185,0.015281639,-0.11699371,0.007912188,0.0017395142,0.061740283,0.016893314,-0.012632753,-0.25793687,-0.14100796,-0.09774486,-0.02047935,-0.017126132,-0.29456767,-0.27267143,-0.14983845,-0.04976441,-0.013079629,0.042039968,-0.008686721,-0.26697403,-0.30485734,-0.18371464,-0.09217262,-0.18038066,0.022360612,-0.1612446,-0.090026975,-0.26445246,-0.061429873,-0.09057229,0.053567827,-0.07047826,-0.09886243,-0.07108723,-0.13133629,0.049981367,-0.0777004,-0.10804576,-0.123819284,0.07690995,0.12783939,0.059850004,-0.24055764,-0.0005874798,-0.09665876,-0.32902953,-0.21977349,-0.074737236,-0.054737836,0.042908162
-0.033972748,0.037174758,-0.035495,-0.03936225,-0.050982837,-0.09272845,0.021579538,-0.0067336555,-0.065180644,0.013535066,0.002649689,0.060739253,0.033935137,-0.060189538,-0.1016081,0.004395326,0.030652404,-0.037410244,-0.030983984,-0.10591319,0.008994125,-0.05399398,0.035741698,-0.06862665,0.004086181,-0.0022124387,0.066139616,-0.01479746,0.03689524,0.053769447,0.059120394,-0.038987484,0.0011055204,-0.11560398,0.0020147958,-0.094803065,-0.11556411,0.057807487,0.062539525,-0.053827647,0.057846077,0.0054957084,-0.07503143,-0.03648142,-0.06700927,-0.094270885,0.011058832,-0.088712886,-0.037568264,-0.060625512,-0.006027616,-0.08725698,-0.08867286,-0.04998425,-0.02726928,-0.091395944,0.023360426,-0.09074638,0.004191366,-0.09722688,0.0014498096,-0.050344422,-0.011845748,0.015936475,0.031099128,-0.007871209,-0.10727423,-0.054772213,0.041860733,-0.04896665,-0.026750142,0.027150773,-0.08240777,-0.08860967,-0.024011496,-0.02067683,-0.025677513,0.05682258,0.0024526415,0.03699028,0.00064781995,-0.05830706,-0.012730716,0.01757993,0.0141557865,0.010553633,0.036876284,-0.10174635,0.05355488,-0.08268308,-0.03467449,-0.0049039675,-0.07362805,0.00264404,0.014728119,-0.11537317,-0.09209093,0.058065627,-0.06505865,0.034005906,-0.013152875,-0.039375048,-0.001647553,0.042145856,-0.08226703,-0.11507271,-0.044689212,-0.05600259,0.04860475,-0.0045019877,-0.012071485,-0.113622,-0.013087312,0.05963349,0.03818403,-0.11307192,-0.07421804,-0.05015893,-0.013463173,0.014216568,-0.080246955,0.013047194,-0.07967348,-0.03293717,0.05760447,-0.020220997,-0.06835707,-0.041850384
0.06922065,-0.06078463,0.012051384,0.023129426,0.037920754,-0.036244694,-0.16362219,0.28587425,0.053404514,-0.120059244,0.093871765,0.0211782,0.0659126,-0.10040597,0.006605157,0.032639332,0.24186677,0.07140878,-0.15441264,-0.03329558,-0.14786024,-0.09263878,-0.12433577,-0.11265101,-0.033322085,0.19153272,0.2972329,0.10899852,0.1378122,0.059692226,0.03024168,-0.023469606,-0.066153124,0.014730994,-0.06818391,0.018221427,0.044162244,0.187385,0.1558363,0.00173968,-0.06979917,-0.16661978,0.04317069,-0.053631444,-0.061183505,-0.25096416,-0.056155883,-0.13137086,0.14084202,-0.00012269939,0.01770536,0.08983283,-0.09758177,-0.099555716,0.043500345,0.15371424,-0.09667236,-0.024730705,0.019311149,-0.18388426,-0.011424679,-0.12075738,0.035035808,-0.13474165,0.12288369,-0.10361289,-0.12655897,0.16257943,-0.07062661,-0.00799342,-0.108854584,-0.14460135,-0.25317436,-0.026791533,-0.12085937,0.08583337,-0.04447217,0.20746127,-0.038250126,0.1753356,-0.12462163,-0.27012277,-0.25263655,-0.14361939,0.21345088,0.114429474,-0.15582271,-0.07207479,-0.27456322,0.18538755,-0.0005115227,-0.16910075,0.13321966,-0.054574758,-0.08282541,0.14293018,-0.35225096,0.12335239,0.006686338,-0.121794805,-0.062224414,-0.05964289,-0.09060946,-0.3870991,0.34066907,0.06160232,0.14579746,0.051908035,0.013587303,0.0011722539,-0.32371363,0.02762605,-0.18030664,0.054558393,-0.023214908,0.062074937,0.015484363,0.114264406,-0.10716095,0.048306406,0.10086367,0.135896,0.008703362,0.10982209,0.032378815,-0.10792759,0.11767192,0.058108848
0.01790227,0.072616786,0.02236505,-0.051230665,-0.118678205,-0.055168968,-0.03742555,-0.1111614,0.06606151,0.0049768356,-0.15391622,-0.10657513,0.0638433,-0.076737955,-0.05913247,-0.079654545,-0.07843134,-0.11875854,-0.21463586,-0.06449241,0.040434305,-0.030672805,-0.0193205,-0.13080972,-0.048323657,-0.111967206,-0.31572488,-0.26202768,-0.034773268,0.04140775,-0.04100159,-0.00096315093,0.07425123,-0.0024255686,-0.22384635,-0.0041254694,-0.11990704,-0.096821375,-0.103338845,-0.016026752,-0.32328698,0.009841469,-0.12263778,-0.098490596,0.0071311165,-0.016065622,0.045580376,0.014937824,-0.11870882,-0.013537188,-0.12662499,-0.033044253,-0.056908485,-0.06878988,0.04464531,0.0016115981,-0.07585534,-0.08318967,0.021486579,0.049323857,0.037365194,-0.04827465,-0.1805699,0.05701634,-0.06339291,-0.09497659,-0.0111151105,-0.042974032,0.0049765985,-0.08334364,0.06718849,-0.054633044,-0.022032356,0.05807574,-0.19807938,0.0340377,0.06355965,-0.057484817,-0.119289756,0.04136485,0.0041066906,0.0036876546,0.011717859,-0.021900378,-0.079061665,-0.41128954,-0.08901997,-0.053870637,-0.052032992,-0.025198763,-0.12314495,-0.27333325,-0.06269131,-0.026694372,-0.16177152,-0.06807569,0.038229864,-0.1335393,-0.006420916,-0.20910405,0.013961351,-0.02605197,0.099501185,-0.26593018,-0.0625142,-0.3160777,-0.13587344,-0.09529892,-0.04071656,0.008227219,-0.12069213,0.047326073,-0.26714888,-0.0041748737,0.00829853,-0.02073926,-0.26450506,-0.058056332,0.15801637,-0.035097506,-0.011658209,0.0143083315,-0.35530284,0.029748488,0.0365677,-0.1833946,-0.05393102,-0.06193278
-0.013232297,-0.05458915,-0.022757454,-0.087951854,0.0108380765,-0.08383658,-0.3645222,0.20247722,-0.013827143,0.072642766,-0.072379366,0.04994356,0.058354307,-0.26375702,0.15805978,0.054938447,0.18192324,-0.007862614,-0.16133706,0.16278829,-0.21972096,-0.09196782,-0.19659264,-0.35984555,0.10462211,-0.2969637,0.0801649,-0.04013419,0.06008105,-0.027241522,-0.08403711,-0.06896628,0.0907113,0.11541878,-0.42220595,-1.0063391,-0.14196792,0.14239769,-0.023478849,-0.019526811,-0.00012320814,-0.3855126,-0.014326506,0.109187715,-0.18995148,-0.05906854,0.09011855,0.06354852,-0.19046058,-0.048743334,0.06558244,-0.06529958,-0.1742435,-0.2846301,-0.082889125,0.20573099,-0.21727322,-0.2688916,0.17046897,0.17643116,-0.018622166,-0.035933543,-0.27644953,0.027255949,0.020017726,-0.10266538,0.07760349,-0.025000665,0.14058375,-0.005367949,0.05520002,-0.08106157,-0.12571765,-0.73597026,-0.20036243,0.07913582,0.14933695,-0.2523175,0.119695224,0.049610347,0.039388996,-0.007185749,-0.40600935,-0.051633816,0.16914187,0.085149996,-0.09399704,0.09270894,0.04939771,0.11202904,0.014804228,-0.42690733,-0.15606672,-0.22064036,-0.08244872,0.08407678,0.09247531,0.17444013,-0.15672465,-0.054551627,-0.3415506,-0.20193577,0.12070895,-0.31958488,-0.031632625,-0.102148995,0.059840847,-0.039845858,0.082609035,0.05964364,-0.009420593,-0.10854596,-0.053652294,0.11096446,0.02600584,-0.05299937,-0.28653273,0.19212267,0.15028591,0.11242843,0.06618783,-0.016549602,-0.51814044,-0.047006898,-0.48935792,-0.0057494277,0.19352123,-0.037786946
-0.26495084,-0.12373885,0.11143834,0.016151447,-0.09751649,-0.020574031,0.00829216,-0.15679865,0.0980452,-0.3997098,0.02251091,-0.21213932,0.121709,-0.19562003,-0.046699807,-0.1095071,0.06851733,0.18886983,0.061562918,0.21379192,-0.14133991,0.21216723,-0.113717735,0.09921751,-0.079875104,-0.0072533786,-0.060292415,-0.05548521,0.18228321,-0.24437901,0.16312638,-0.15783124,-0.13774595,-0.050755735,0.20920882,0.25312793,0.22935598,0.054030135,0.05397468,-0.005291593,-0.15959345,-0.1801432,0.19404504,0.0508301,0.2550076,0.044325646,-0.24081853,-0.07776891,-0.035060424,-0.05483138,0.089605525,0.15122092,0.13354595,0.2001721,0.07345761,0.06668901,-0.15677838,0.005895851,-0.18692546,-0.1039226,-0.09276578,0.18047895,0.104496695,-0.09586894,0.030229568,0.30483165,-0.022139566,-0.13314205,-0.25794062,-0.10288152,-0.11975042,-0.13629553,0.003533427,0.13353525,0.06866081,-0.17212844,-0.24348244,0.014079592,-0.041380662,-0.014792836,-0.052414846,-0.023088409,0.06135133,0.11523882,0.28228903,0.0920469,0.04097018,-0.026496107,0.018842801,-0.035278656,-0.063021846,0.22004199,-0.06508495,0.14307487,0.083663955,-0.2581878,0.07708821,-0.09538962,0.00032715764,0.12623282,-0.17561907,0.07351426,-0.0047316197,0.14084776,-0.054745246,0.088719554,0.0069015133,-0.044632893,-0.28896594,0.09880859,0.04974968,-0.046719722,-0.07176505,-0.21147962,-0.027208691,-0.23781835,0.11936223,0.2679674,-0.3597341,-0.2743527,-0.078778915,0.031858876,0.32372522,-0.082641006,0.07641248,0.10513229,0.23004588,0.20106553
-0.18760663,0.009686783,-0.16783695,-0.0070656342,-0.14340699,-0.014669267,0.055928558,-0.016535465,-0.03641753,-0.044164788,0.0079215355,-0.049757246,0.10264396,-0.0060631945,-0.23968579,-0.12289428,0.029106561,-0.13122427,-0.12800916,0.073070645,-0.0820949,0.06274685,-0.10489441,0.024007874,-0.2221747,-0.09098953,-0.36194485,-0.18433204,-0.06848143,0.0048772795,0.12069409,-0.089523934,0.09689888,-0.05613064,-0.05183121,0.047957234,-0.030441677,0.014064438,-0.034598228,0.008456344,-0.26950184,0.030879715,0.081178986,-0.17343763,0.09604903,0.017938068,0.0009081712,0.0066774143,0.042771097,-0.029118907,0.15181911,0.015434337,0.019454028,0.043570336,0.09424147,-0.046299577,0.013989315,0.026845977,-0.068078816,-0.18649875,-0.031627636,0.020118656,-0.016818652,-0.078969546,-0.097791895,0.042739484,-0.25878304,-0.011442323,-0.055348404,-0.55858666,-0.018006047,0.019516926,0.10137475,-0.0090548275,-0.15258402,0.010628814,-0.030794283,0.041067496,0.04490124,-0.05156724,-0.06961297,0.016377004,0.14479311,-0.023380604,-0.07091875,-0.6582053,-0.014253754,-0.045321174,0.037579104,0.03490566,-0.30492523,-0.06089174,0.06600979,0.100503236,0.0133837955,-0.17341289,-0.1296922,-0.3812856,0.01718178,-0.44862193,-0.058210753,0.06630733,-0.041974135,0.101501025,-0.06707538,-0.50653625,0.008969079,-0.025842473,-0.018014736,-0.047959324,0.061755788,-0.015134237,-0.07453057,-0.15555681,-0.05917588,-0.26059234,-0.07437924,0.14530075,-0.04787037,-0.049138483,-0.122063935,-0.046926893,-0.12325677,-0.002028875,-0.024530342,-0.042677984,0.17510614,0.16115314
0.09601331,-0.05077133,0.031248499,-0.045768574,0.113774545,-0.0628385,-0.011768027,0.054154605,-0.19741945,0.039917603,0.0033431468,0.06972566,-0.13597983,-0.09803527,-0.08537108,0.021006105,-0.0566923,-0.07210581,-0.13905023,-0.028343922,0.036162872,-0.31437153,0.0011856183,-0.10034017,0.08913151,-0.0054781684,0.035949264,-0.024010228,-0.03752106,0.110308446,-0.0045047896,0.06714788,0.03332209,0.03744207,-0.13768056,0.07803855,-0.15094177,0.003614079,-0.008929672,-0.023720257,-0.06506869,-0.044418175,-0.009373916,0.043842044,-0.31181693,0.026382558,0.064917795,-0.060147017,0.035498243,-0.039645072,0.004490807,-0.051843375,-0.020956252,-0.51207805,0.040618338,-0.05588202,-0.039428104,-0.113757074,0.01734312,-0.0349696,0.08273337,-0.07850265,-0.05412175,0.03492122,-0.004370216,-0.2768616,0.046167217,-0.0002356106,0.12320874,-0.08223245,0.02388687,0.02665775,0.009980683,0.04808752,-0.11548515,-0.06813635,0.01327277,-0.00860334,0.052327573,-0.019816594,0.009120114,-0.019941887,0.04183593,-0.0428444,-0.038193665,-0.22945844,-0.14208269,0.08519916,-0.070497535,-0.09033754,-0.046010774,-0.036066946,0.02482621,-0.2425482,-0.16854842,0.07820994,0.036669306,-0.00068832195,0.07383219,-0.17124447,0.101132706,0.06548915,-0.03329347,-0.39262718,0.00079004094,-0.25053856,0.034223106,0.011249309,0.09351893,-0.08372266,-0.26684415,0.024995692,-0.21408689,0.03679541,-0.08469993,-0.024291601,-0.12566052,-0.077933475,0.16091704,0.020114256,-0.052952662,-0.054143514,-0.18507749,-0.034479443,0.04424472,-0.05897236,-0.13908866,-0.17131123
0.067485124,0.06468995,0.007044214,0.06459171,0.035129465,-0.1565717,0.013036104,0.037561115,0.020497363,0.018629815,0.1452973,0.07092554,0.10610627,-0.10195015,-0.018719152,-0.11417319,0.080565244,0.018706668,-0.25061965,0.110524535,-0.0861731,-0.10471641,-0.18594548,-0.06317181,-0.12551348,0.2489653,0.11760509,0.024446093,0.066838615,-0.07282584,0.09992545,-0.091629885,-0.14689162,0.05468566,-0.008598501,-0.07528346,0.042654634,0.11023272,0.2436865,0.031361703,0.02252849,-0.10984356,0.009152269,-0.048300344,-0.015747687,-0.060388383,-0.0036333308,-0.15558472,0.3496734,0.08337044,0.122721426,-0.10344887,-0.043295607,0.05657084,-0.04847304,0.06330111,-0.30571133,0.011719513,0.052366283,-0.16411406,-0.07653673,0.025928054,-0.013524041,-0.124749765,-0.002339964,-0.026246933,-0.21354342,0.16172844,-0.07869678,-0.088957734,0.032353405,-0.06884165,-0.18606,-0.11314783,-0.013485488,0.009075857,-0.042311627,0.22918059,-0.06501901,0.1346607,0.041215397,-0.1339408,-0.14456774,-0.08117285,0.1817264,0.06639717,-0.188882,0.059441715,-0.12174675,0.13177188,-0.18064988,-0.09959776,0.21485353,-0.0052394085,-0.07173156,0.014837294,-0.14605868,0.08292231,0.053621087,-0.13502003,-0.09047451,-0.07269741,0.012073507,-0.3151556,0.26676533,-0.058331948,0.14105482,-0.09478343,-0.025367618,-0.009515725,-0.2026658,0.050150186,-0.26783478,0.00845208,0.08067036,0.06472048,-0.010187122,-0.019033927,0.011063974,-0.094981484,-0.13566157,-0.029009016,0.0057730475,-0.030019065,-0.16465805,-0.1295235,0.10079938,0.08889154
0.029205192,0.0028119737,-0.048418783,-0.007608457,0.016536778,0.055011243,-0.11438348,-0.06817041,0.014265398,-0.054230828,0.0050918106,-0.14920789,-0.028070267,0.012256946,0.080612876,0.030147918,0.017872134,0.045035865,-0.06819713,-0.05577283,0.020992648,-0.005154053,-0.009231024,0.038684238,0.033037577,0.013946065,0.019359024,-0.08429806,0.10819153,-0.072889164,0.026061878,0.013773026,0.027852362,0.05296893,-0.09459569,-0.055240434,0.02118788,0.05538733,-0.011072766,-0.00076868007,-0.031176098,-0.036284003,0.037300367,6.9633104e-05,-0.11038918,-0.12893844,-0.06522235,-0.06733549,0.017178576,0.009171934,-0.033148523,0.03864875,-0.02056317,-0.014744993,-0.055771038,-0.060973912,-0.040248606,-0.16057871,-0.059676472,-0.10581665,0.05205327,-0.050772306,0.015324896,-0.005406099,-0.021312622,-0.107350804,-0.008701417,-0.025021745,-0.006698356,0.059084922,-0.08339265,-0.09995772,-0.018809102,-0.0047276593,-0.085361265,-0.075401425,-0.029612409,-0.10466663,-0.008330017,-0.06323535,-0.09308919,0.027365811,-0.024317818,-0.061395742,0.01579761,-0.15939116,-0.023062509,-0.07306565,0.030057618,-0.08279452,-0.083066404,-0.08189163,0.030784776,0.053252913,-0.096962914,-0.10800668,0.008531538,-0.025926197,-0.07479667,0.004831531,0.0043909755,0.07470248,0.032760207,-0.06839755,-0.09138998,-0.12069548,-0.037943427,-0.00058596174,-0.101136975,-0.098165505,-0.075008765,-0.07324413,-0.01191671,-0.054927707,-0.062496178,0.037397977,-0.04738329,-0.09750948,-0.052213907,-0.12805514,0.029744284,0.07247602,-0.09894041,-0.022108663,-0.019700525,-0.03910191,-0.03673568,0.009562726
0.00039915254,-0.114889786,0.015466695,0.077665724,0.09475281,0.070763916,-0.10550985,0.15759642,0.05771696,0.0899106,0.04081705,0.060280915,0.012153113,-0.008078843,0.036290865,0.085726164,0.09077872,-0.02256125,-0.0935353,0.11100062,0.15151647,-0.27215043,-0.06613545,-0.033164095,0.029342879,0.027563991,0.11113811,0.10402444,0.021820627,0.12758596,-0.0033624973,-0.0069673266,0.05512919,0.037638407,-0.056832016,0.12277259,-0.27692285,0.09678505,-0.040732455,0.027499042,0.024368294,0.102545306,0.05552414,-0.32145694,-0.104274794,-0.6090079,-0.017230611,0.026328478,0.054164246,0.01973685,0.03131146,-0.003284419,-0.18806742,-0.1963415,0.1441485,0.0004486169,0.05681418,0.058898833,0.027948055,0.0754504,0.13802834,0.024719082,-0.082241125,0.06816465,0.105844475,-0.19090846,0.055541467,0.1949806,0.08094229,0.051203836,-0.020859193,0.096297175,-0.3204685,0.08944602,0.001982276,0.10078417,0.029929088,-0.09579975,-0.032528993,0.071642734,-0.020738604,-0.045034032,-0.23588876,-0.015005853,0.14896397,-0.11909288,-0.028517967,0.07907231,-0.020168858,0.057320714,0.11060723,0.049644507,0.0953832,0.03966886,-0.09164094,0.035691414,-0.08246602,0.058241956,0.13874006,-0.034295067,0.011394323,0.1140994,-0.0036466338,-0.17999487,0.07939753,-0.043500952,0.063374646,0.077253476,0.057759643,-0.10235209,-0.076821275,0.022139091,-0.16554058,0.015201077,0.030164657,0.0857272,0.038464855,-0.004221263,0.03095021,0.039294004,-0.029175496,0.0008061956,0.051247288,0.056561142,0.061603826,-0.026813727,0.070538014,-0.04528403
0.08047884,-0.13390467,0.03392422,-0.10728691,0.07012595,-0.1707592,-0.17290431,0.16956626,-0.13007607,-0.07525105,-0.26352656,-0.08558614,-0.037113946,-0.43351585,0.107836254,0.0030829117,0.23946822,0.231928,0.19782494,-0.16837727,-0.23552574,-0.098311394,-0.09385358,-0.193828,0.07552531,-0.22078183,-0.20883551,-0.082087524,0.06533344,0.21514304,-0.03034658,-0.21834223,0.1961427,-0.034863662,-0.097710975,-0.6289546,-0.054645635,0.006676482,-0.08260219,-0.109228946,0.14415488,-0.4166084,0.028121237,-0.10937651,-0.20402269,-0.15779395,0.06382131,-0.07589908,-0.3169249,0.1155928,-0.09716834,0.18372059,-0.31357592,-0.2409793,0.21210603,-0.026743455,-0.51744795,0.14856216,0.19688252,0.11508414,0.09966405,0.03637574,-0.49629533,-0.09234978,-0.052920464,-0.1871724,0.13212696,0.010338236,0.071981944,-0.2498402,0.003720511,0.0024118586,-0.3280986,-0.58293694,0.050356515,0.108508535,0.040618546,-0.18737635,0.031009275,0.08259861,-0.064573795,-0.106122084,-0.57797426,-0.033037335,0.105374604,-0.1333794,0.122445546,-0.009194642,-0.06005959,-0.13087927,-0.12032484,-0.12060947,-0.008493264,-0.1187364,-0.2507684,0.09586638,0.06741619,-0.31735682,-0.111207776,-0.006871606,-0.38892093,0.39086068,-0.061395466,-0.0076270583,-0.19593358,-0.18231471,-0.044334512,-0.00048668974,-0.08193139,-0.07806037,0.040355373,0.0028863503,-0.27576804,0.0844818,-0.10241491,0.09514932,-0.2322574,-0.114389405,0.05701094,0.07361741,-0.15125315,0.033687778,-0.09399198,-0.16528971,-0.26782674,-0.021291357,-0.0476998,-0.11879465
