0,1,2,3,4,5,6,7,8,9,10,11,12,13,14,15,16,17,18,19,20,21,22,23,24,25,26,27,28,29,30,31,32,33,34,35,36,37,38,39,40,41,42,43,44,45,46,47,48,49,50,51,52,53,54,55,56,57,58,59,60,61,62,63,64,65,66,67,68,69,70,71,72,73,74,75,76,77,78,79,80,81,82,83,84,85,86,87,88,89,90,91,92,93,94,95,96,97,98,99,100,101,102,103,104,105,106,107,108,109,110,111,112,113,114,115,116,117,118,119,120,121,122,123,124,125,126,127
0.032868423,-0.0070194714,0.0705364,0.007379662,0.031888105,0.030277425,-0.022862434,-0.077674314,-0.020206843,-0.07047294,-0.08263257,-0.06237077,-0.07059673,-0.038503285,0.07196041,-0.04691094,0.06284368,-0.09599282,-0.05957309,-0.01847223,-0.04025735,0.0028508308,0.029838167,-0.046222355,-0.0021464818,0.031113504,-0.018719565,-0.039304346,-0.0048602563,-0.0037316529,0.046669815,0.0025205002,-0.056579933,-0.037712652,-0.08456808,0.038034827,-0.07325459,-0.038222246,-0.039147332,-0.052768838,-0.1452508,-0.058890183,-0.086394206,0.050918348,-0.11319756,-0.12213926,-0.08265026,0.0725177,0.023681924,0.05091697,-0.00015082068,0.08031704,-0.040166892,-0.056542777,0.03155318,-0.049962807,0.0053546987,-0.09068956,-0.06870925,-0.056437682,-0.03258832,0.0013378201,-0.07403374,-0.031210737,-0.07937297,0.022802308,0.067869276,-0.07306096,0.008811858,-0.08094823,-0.031977966,-0.002701398,0.020791247,-0.10694367,0.032998327,0.024191568,-0.08112803,-0.09159602,0.02375938,-0.07631984,-0.1207285,0.06736829,-0.0018012084,0.08561203,0.041143537,-0.07225866,0.08359991,-0.08477355,-0.076694414,0.056219902,-0.06823381,-0.08253879,-0.039913468,-0.06699601,0.0257138,-0.05020444,0.05386239,0.06428952,0.022623107,0.008791898,0.068305746,0.025737636,-0.058538526,-0.089504905,-0.08976997,0.020421483,-0.047988523,0.037452027,0.042447437,-0.0025135877,-0.089477755,0.03793563,-0.08145131,0.030383037,-0.015917756,-0.05840624,-0.09081168,0.025815409,-0.046221472,0.021242324,0.048174005,-0.008949889,-0.057164237,-0.048919532,-0.117002346,-0.00838012,-0.024638787,-0.09153191
0.036539007,0.028658573,-0.08058323,0.038131084,-0.08641852,-0.111642964,0.025357697,0.007348596,0.04322036,-0.045189407,0.056195814,-0.11785681,0.010302239,0.020832313,0.020999376,-0.10638747,0.01633566,-0.097677335,-0.053812664,0.003227115,-0.023897445,0.017206443,0.07890382,0.07609014,-0.0919975,0.02677634,0.018979896,-0.039117176,0.025349164,-0.09429837,-0.04294782,-0.013376369,-0.012427669,-0.1216555,0.00041334558,-0.06913467,-0.06394238,-0.07177867,0.011539521,0.06867953,-0.023245238,-0.02467673,0.033389617,-0.021311224,-0.0402071,-0.08982051,-0.020932898,-0.08752094,0.035872467,0.057425696,0.030722795,0.02478473,-0.06302866,0.008038122,-0.028472068,-0.06994946,0.011004017,-0.098473474,-0.001934718,-0.046626285,-0.029696988,-0.004836079,0.03285926,0.03308301,0.002348085,-0.023110205,-0.046608683,-0.10290442,0.0361747,-0.09940817,-0.042821378,0.03485035,0.0717198,-0.042686827,-0.00087331183,0.05434762,0.031826623,0.0539547,-0.07145064,-0.003479949,-0.051099274,0.0058087166,-0.10820156,-0.08209746,0.06430078,-0.071227826,-0.09920836,-0.097786374,-0.0021737686,0.045011576,-0.05630954,-0.026722735,0.045278475,-0.008734281,-0.027389538,0.021418624,-0.028082857,0.07345821,-0.035564266,-0.049962934,-0.06251657,0.009924059,-0.03605022,-0.07461042,0.03512267,-0.020367686,-0.037537698,-0.00076572737,-0.09526143,0.053000156,5.7191013e-05,0.019029554,0.01992528,-0.07079645,-0.00015918571,-0.08424292,0.043108094,0.06701135,-0.06780979,-0.048171524,0.026934076,0.052020535,-0.117492095,-0.0023478072,-0.08817188,0.026095476,-0.067496195,0.009999097
0.0077224826,0.0022802392,0.0004240833,0.052605677,0.053902224,-0.020109858,-0.07616665,-0.09868883,0.04693403,-0.031410474,-0.08123562,-0.09240444,-0.13103876,-0.048645392,0.0152376965,-0.06768358,0.07216905,-0.09018505,0.0584358,0.002339905,-0.036672868,-0.060922023,0.010271332,0.07276619,-0.08625966,-0.11471646,0.044994157,-0.054052003,-0.08301281,-0.07741995,-0.079157926,-0.03954684,-0.059396777,-0.084073864,0.022070717,-0.051504698,-0.032347903,-0.07510357,-0.11309336,-0.09471151,-0.075141676,0.027816718,0.021403706,-0.003489628,-0.043710694,0.044097867,-0.003621203,0.07383244,0.0029564204,-0.080104,0.019918667,-0.081905715,-0.06275386,-0.024875036,0.011606994,0.020579416,0.005942582,-0.06199103,0.040514503,0.031007452,-0.0016749044,-0.05606796,-0.0759028,-0.022504374,-0.030873632,-0.06656399,0.0149845835,0.0042201113,0.0025860772,-0.06128327,0.020973416,0.026303533,0.06635612,0.05450311,-0.068612345,0.026914284,0.011918325,-0.025694642,-0.099993005,0.052694447,-0.04861471,-0.048140515,-0.017383333,0.010925418,0.006482233,-0.100705855,0.011714154,-0.057163373,0.051574443,-0.10702726,-0.014807065,0.051287472,0.066134095,-0.040827528,-0.08025659,-0.009153649,0.062098876,0.027724784,-0.041024927,0.026613439,0.020059183,-0.10417808,-0.050315462,-0.0027153252,-0.060277782,0.010192044,-0.009069056,0.02661823,-0.10423594,-0.10884029,-0.03681638,-0.050659772,0.02209922,-0.04379117,-0.014813508,-0.102045625,-0.06371991,-0.1072235,-0.08533868,-0.026207376,0.01662399,-0.08741438,0.0049794586,-0.08642134,0.01222182,-0.062250387,-0.089775234,-0.036992837
-0.28743058,-0.082248114,-0.037090264,-0.025191944,0.0023816782,0.0064008124,-0.1751732,-0.06364519,-0.055167403,-0.026529802,-0.07098807,0.016913492,-0.13052486,-0.0055190055,0.041552197,0.062718466,-0.05293646,-0.10026744,0.08375359,-0.107761934,-0.04174643,0.057103284,-0.021568814,-0.06946018,0.03071139,-0.0591637,-0.04395243,-0.062830664,0.013713248,-0.046784893,-0.01876594,-0.06299061,0.103468224,-0.094009414,0.0642508,-0.06987291,-0.017322825,0.04262774,0.13231885,-0.038256753,-0.058113914,0.07924031,0.050472975,0.04661681,0.03729466,0.008359874,-0.117755964,-0.04655025,0.16891977,-0.05707736,-0.096724585,0.0347166,0.04359879,-0.068899855,-0.046653293,-0.014482132,-0.100214526,0.04512118,-0.015649589,-0.10324519,0.016873509,-0.018520227,-0.034473207,-0.12622316,-0.04688875,-0.027137114,0.071222104,0.050408088,0.012676719,-0.028040975,-0.025854573,0.015182549,0.033638313,-0.11844785,-0.03110621,-0.046580516,0.0373449,0.05367476,-0.03911944,-0.013161655,-0.01013183,-0.017932508,0.05713559,-0.046299357,0.024544386,-0.05015159,0.057248384,0.04172398,0.06502134,0.05827659,-0.059803464,-0.0099471845,-0.013707561,-0.12439303,0.010221313,0.0015102209,0.109178536,0.05766352,-0.0069461823,-0.01144329,-0.021288216,-0.087208465,-0.033964038,-0.010925288,-0.09584998,0.05561528,-0.030859519,-0.05429626,0.052986793,0.040410373,0.0032835712,0.049911596,0.019663095,-0.069921315,-0.05814932,0.03460041,-0.11482106,0.036454514,-0.07054955,0.043946713,0.014124314,-0.0063148243,0.020835992,-0.08105645,-0.02330311,-0.047662936,0.09204605,0.008762108
-0.2766221,-0.059667155,-0.07763287,-0.040960893,0.044059988,0.13150918,-0.26589623,0.05874595,0.062507465,-0.053483248,-0.010696475,-0.034021575,0.10322162,-0.078288086,-0.038266364,-0.11716432,-0.04548582,0.017275622,-0.04107816,-0.0015119181,-0.118684255,0.036153756,0.092473164,-0.07629722,-0.030115683,0.13410139,0.115956455,-0.16619104,0.0719231,0.0634697,0.13783082,0.06859141,-0.07348828,-0.14650857,0.06250619,-0.022513276,-0.029625839,-0.055242885,-0.09862336,0.06830789,-0.085083984,0.10653571,0.071096055,-0.10369011,0.052764535,0.13309307,-0.13468145,-0.056107808,0.06751941,-0.033918675,-0.05053461,0.028584393,0.1290616,-0.008958518,-0.05775204,0.063495316,0.07260718,0.002778152,0.07284302,-0.088329114,-0.09989679,-0.086963005,-0.0570102,-0.027356084,0.08566892,-0.16097729,-0.026644826,-0.030952858,-0.512803,-0.12480356,0.14004649,-0.03130064,0.032369822,-0.103039615,-0.1110724,8.435821e-05,-0.12455642,0.022189353,-0.019236747,0.080310665,-0.07305228,-0.058551468,0.07945599,-0.20380917,0.098873556,0.13532549,0.090866864,0.026723284,0.08525005,0.06170526,-0.11453546,0.089804634,0.15778188,-0.18476792,-0.03622677,0.038622007,-0.11988429,0.017132243,-0.104572095,-0.0092858225,-0.1499255,-0.04396563,0.39253768,0.023632372,0.18176752,0.095007524,-0.07534742,0.07417317,0.03224764,-0.01685484,0.13529457,0.08987816,-0.31797197,-0.0018843914,0.050512284,0.10996606,0.021089658,-0.0026519261,-0.2449053,0.065331444,0.04752437,0.06865121,0.026987059,-0.0774265,-0.3108658,0.015041055,0.024774238,-0.014432452
-0.17353754,0.09586874,0.024515752,0.09042935,-0.072626345,0.057640772,-0.07957154,0.08256825,0.046829276,-0.024085196,0.087504745,-0.12612228,-0.35201135,0.1173739,-0.004490977,0.13606074,0.04912931,-0.20890884,-0.07246795,0.03212598,0.03611242,0.0893196,-0.02652411,0.021560028,0.042165715,-0.022805681,-0.14993903,-0.05663654,-0.024794938,0.042662196,-0.65682715,0.008432361,-0.14692517,0.079412,-0.20063594,-0.1586476,0.055021655,0.111340374,0.14213404,-0.004860409,-0.5987794,-0.17992866,0.060140435,0.023308417,0.1488582,-0.12760828,0.10204581,-0.046810847,-0.342375,-0.16232127,0.09654157,0.1517007,-0.79489136,-0.10621681,-0.05157429,0.11898269,-0.5851389,0.0022344373,0.06516375,0.09388697,-0.17759438,0.026639597,0.102211185,-0.2698527,-0.055232484,-0.12212782,0.07506985,0.082882375,0.053520754,0.17922676,-0.27816176,-0.06003314,-0.025032489,-0.23359689,0.1585884,-0.07540715,-0.27423906,0.12388653,0.069506235,-0.02162014,0.18531753,-0.13478914,0.2303049,0.023095053,0.08612824,0.055314943,-0.028668968,-0.16541523,-0.09482893,0.07046433,0.04198961,-0.025344038,-0.39390734,-0.25249168,0.097854935,0.0028533847,-0.085631266,-0.06914451,0.16046765,0.06404827,-0.13660778,0.030047964,-0.63565004,0.06241337,0.06543779,-0.076501116,-0.101047434,-0.0070057698,-0.11574245,0.002274108,0.09724738,0.03752954,0.0693728,-0.07756402,-0.081009716,-0.023703739,0.018256295,-0.07964719,0.05545666,0.07744867,0.067568876,-0.046079215,0.13991582,-0.6102721,0.036254328,0.061533526,0.053779498,0.13873535
-0.018802654,-0.030898616,-0.0849259,0.011462396,-0.07809641,0.030199762,-0.08048779,-0.022228349,-0.08022955,-0.10481713,-0.021124627,0.012637446,-0.05762368,0.075812526,0.048494227,-0.086809866,-0.07782173,-0.034440175,-0.040139556,-0.0108661875,-0.08144758,-0.08115991,0.002747112,-0.05799595,0.022367166,0.026229989,0.058132336,-0.09848132,-0.0733055,0.038277596,-0.042757485,0.06666833,-0.08384822,-0.07753705,-0.021000637,-0.094873786,0.019914338,-0.05364594,-0.041761372,-0.09616441,-0.1065559,0.038351987,-0.029491685,-0.0071727806,-0.023376575,0.028402798,0.008714911,-0.066810384,0.07167866,0.004869138,-0.034555353,-0.12387101,-0.059240934,-0.04895679,-0.032909017,-0.119331665,0.039082795,-0.02675578,-0.010736552,0.004847628,-0.077110074,0.048194792,-0.041174177,-0.031943798,-0.06010942,0.053241644,-0.088278815,-0.00011818408,-0.03717406,-0.010636645,-0.068051234,-0.07817592,-0.06124974,-0.019031862,-0.09507643,-0.076561034,-0.06292747,0.052045275,0.048172444,0.015856052,-0.058988493,-0.033240322,0.052878574,-0.051626634,-0.06223171,0.04388405,-0.039390948,-0.022964196,-0.089966856,0.025076436,0.047072034,-0.06432318,-0.077960916,-0.10032161,0.024566822,0.0052702986,-0.040893868,-0.03482784,-0.08102684,-0.04699901,-0.030546663,-0.08658496,-0.058383286,-0.013840317,-0.012444553,0.057661075,0.050492268,0.011141889,-0.009500063,-0.0365442,-0.007425293,-0.028175604,-0.00706653,-0.10804203,0.048759453,-0.09892255,-0.00017510832,-0.0720324,0.07088306,0.028442288,-0.04813752,-0.009736794,0.029454047,-0.09081008,0.042672772,0.079981565,-0.04197937,0.030350484
-0.04834044,-0.2619839,-0.049499743,-0.16423649,-0.06689341,-0.56080467,-0.17553607,0.059118204,0.047614228,-0.032313116,0.120583974,-0.0385772,-0.285973,-0.09530913,-0.043355294,0.13470754,-0.015909696,-0.2882552,-0.048845347,-0.050264183,0.00090581126,-0.05547741,0.006212961,0.003419715,0.0015256602,0.06682077,-0.3345389,0.013212367,0.07464426,-0.014644864,-0.1425712,-0.03247568,0.08730325,-0.031471785,-0.042068288,-0.1516433,-0.041256238,-0.20970011,0.10808304,-0.013648403,-0.038736694,-0.05506603,-0.16345778,0.06405972,-0.08108835,-0.044921912,-0.007895644,0.0047070994,0.045424532,-0.15670078,0.088655084,-0.07105433,-0.22499579,0.008598644,0.13436492,-0.23076446,-0.66226524,0.24837632,-0.12357921,-0.012970333,-0.0028030502,0.024291627,0.061983198,-0.13779803,0.012526979,0.13867997,-0.5606676,-0.05364544,-0.2003121,-0.13498892,-0.034551542,0.014462582,0.074431576,-0.060360033,-0.23007454,-0.05557407,-0.19118708,0.008366044,-0.17200541,-0.10553031,-0.24742192,0.0686155,-0.034557056,-0.05287128,-0.07713396,0.06892245,-0.006904303,-0.2840969,-0.014457682,-0.032397214,0.17324917,0.027536882,0.013673314,0.013242023,-0.06020554,0.049432404,0.092027485,0.046425752,-0.007633173,0.032572787,-0.24227588,0.04079219,0.10265911,-0.049008463,0.056281935,-0.06812547,0.052025434,0.0065298276,-0.24630883,-0.08122025,0.02740928,-0.107162155,-0.008421654,-0.15035771,-0.04683334,0.06367212,0.005103241,-0.029515011,0.05012015,-0.16562238,-0.1836409,-0.007050138,0.04426323,0.10499714,-0.14879932,0.090908475,0.010723951,-0.11370876
0.101092495,-0.2619538,0.061085198,-0.04547049,0.09096618,0.07250219,0.011436014,-0.046888355,-0.013570179,-0.09573287,-0.020364128,-0.05448218,-0.013259082,-0.027912581,-0.05573025,-0.062211502,0.06256455,-0.03787366,-0.009933745,-0.14606304,0.12492303,0.05594503,-0.017875463,0.07630028,-0.04626786,0.037595045,-0.0048984345,-0.028033616,-0.06775891,0.050077777,-0.04236748,-0.0011602296,0.05654145,-0.078404084,0.009437794,0.026275877,-0.06596739,0.033714697,0.091000535,0.0013481264,0.048417673,-0.44193488,0.06816164,-0.017012525,-0.0032235498,-0.08084423,-0.1059429,-0.052600082,-0.007559264,-0.11764739,-0.010395679,-0.033567004,0.061439272,0.080817945,-0.018284783,0.014595526,0.0021569587,-0.42989475,-0.18443215,-0.026510289,0.0035997308,0.0016802825,-0.007188665,0.033940732,-0.032830387,-0.027861215,0.012465704,-0.1445274,0.004013061,0.039052002,-0.043625496,0.073646806,0.049457844,0.08229242,-0.19674994,0.032281887,0.07363638,0.030728728,0.04217617,-0.078203626,0.052083537,0.089723945,0.06574837,-0.004493397,-0.026465343,0.065329045,0.0027958953,-0.033918105,0.068328455,-0.04154053,-0.09201876,-0.048017684,0.123861656,-0.1697257,0.11388102,-0.025042094,-0.020688215,0.027721042,-0.026274316,-0.109599955,-0.061083723,-0.0024262369,-0.040818512,-0.018757867,-0.0065465346,-0.05318559,0.039499257,-0.049321152,-0.03509738,-0.04635351,0.027146785,0.072593056,-0.021366319,0.022414356,-0.038820785,0.018282723,-0.035654854,-0.033238906,0.19854338,0.0098389145,-0.08114653,-0.050983526,0.056427326,0.051068608,0.048517786,0.087834455,0.092936926,0.025371632
0.30291966,-0.18550888,0.008717069,-0.10499337,-0.07663362,-0.020554744,0.28845897,0.08177233,-0.038919576,0.033872083,-0.21605282,-0.12943685,0.06575358,0.16481327,0.049577992,0.0026304682,-0.06410841,0.056973185,0.08639184,0.030481638,0.13303445,-0.10138055,0.025604473,0.050625082,-0.0525417,-0.09131996,-0.037208036,0.28202078,0.07139416,-0.05571538,0.12737787,-0.0505018,-0.21944141,0.015581153,-0.054033358,0.10970134,-0.06582186,-0.09964063,0.070633516,0.08725284,-0.35184166,-0.13868733,0.0037383197,-0.085396014,-0.0011980918,-0.038228463,0.13459837,0.015856363,0.00861468,-0.113431595,0.00031950598,-0.053994115,0.020955527,0.03363724,-0.21565737,-0.1522051,0.23476574,-0.10335996,-0.104450814,-0.08323646,-0.0759286,0.07910948,0.044570766,-0.0071251323,-0.25097838,0.031427145,-0.35961446,-0.0050496883,0.11128337,0.021995546,0.049698927,-0.026399523,-0.032753896,-0.013539984,0.10319317,0.008774994,0.14324525,0.0028600264,-0.0051488597,-0.013515066,-0.039968926,0.099638626,-0.005632328,-0.060344473,0.006161012,0.0109964395,-0.016707048,-0.08646057,-0.053157557,-0.13583139,-0.15309808,0.09586693,-0.08880174,0.2916944,0.021724416,-0.07504514,-0.07626024,-0.07332575,0.048941236,-0.14321089,-0.28035137,-0.029727101,0.017587034,-0.101962775,-0.05497583,-0.061498914,-0.037736297,0.06813903,-0.18081698,0.031159624,-0.16150317,0.0141941225,-0.06240936,0.13540223,-0.09067693,-0.11410645,0.0013200834,-0.060041074,-0.14303084,-0.06019721,0.07056233,0.006851279,0.02968574,-0.056975104,0.11044545,-0.06611245,-0.07434079,-0.018350922
-0.016552864,-0.110055186,-0.019523846,0.009055179,-0.0923849,-0.12696148,-0.114593655,0.07054823,0.08721291,-0.08240336,0.020387972,0.026695361,0.030376505,-0.13426179,-0.012261838,-0.04215687,-0.06469336,-0.08106094,-0.06685828,-0.14502881,0.0036686806,-0.019113531,0.094226055,-0.02662651,0.054864973,-0.09134778,-0.10023962,-0.12048194,0.04059246,-0.020273736,-0.019808903,-0.058639836,0.14672409,-0.11521147,-0.0030259804,-0.084856644,-0.042234752,-0.20604528,0.04297974,0.0966662,-0.03638469,-0.34199834,-0.001159434,-0.035803005,0.0063416315,0.063389055,0.01941489,-0.007897949,-0.12136972,-0.08450746,-0.0505239,-0.0028340193,-0.010181657,-0.08224263,-0.06322076,-0.10866678,-0.114492595,-0.06269564,0.018540407,-0.041655183,-0.010119388,-0.037546296,0.026620084,-0.06697992,-0.1526425,0.009561982,-0.2829408,-0.1648495,-0.040420953,0.07289444,-0.00813182,-0.054912724,0.019713266,0.016458513,-0.20071414,-0.03171925,-0.018713728,-0.08020576,-0.02687278,-0.046884414,-0.14604627,-0.12490401,0.052294046,-0.014149776,0.039441057,0.043987215,0.030562118,-0.21865438,0.07383295,-0.06461414,0.046069644,0.055181406,0.05686101,0.11384633,0.03625852,0.012541881,-0.037040424,0.015500324,0.07256808,-0.04317393,-0.015107207,0.09318351,0.1374165,0.017334212,-0.07770747,-0.059783418,0.043355066,0.03996931,-0.08259975,-0.081782356,0.037301753,-0.031237932,-0.020875104,0.02591007,-0.0077078138,0.037593104,-0.09231335,-0.061260965,-0.060586896,-0.1925415,-0.032129698,0.09766584,-0.05926965,0.025757328,-0.0030193785,0.09350577,-0.0010463034,-0.12864986
0.1254923,-0.11649196,0.0070888195,0.023923228,0.02849663,0.056756627,0.051822748,-0.07160173,-0.013676301,-0.14987639,-0.15963827,-0.012696761,0.04120902,-0.07170104,-0.06781263,0.023392785,0.036850385,0.047827817,-0.054785658,-0.08794408,0.48898765,-0.08376423,0.016221136,0.043835707,-0.07097917,-0.040831663,-0.10472025,-0.0036349124,0.095864944,-0.050163332,-0.05437241,-0.04934768,-0.061463457,0.32604104,0.057296574,-0.016209908,0.0822196,0.059969164,-0.05730599,0.04932542,-0.0011818996,-0.46504423,-0.07449973,0.023663463,-0.057436407,-0.089619294,-0.23794824,-0.029141389,-0.15470248,0.0025693376,-0.028649434,-0.077316925,-0.117105275,-0.02162121,0.12772484,-0.10538894,-0.02447194,-0.035857704,-0.079542466,-0.02080767,0.08430206,0.0047655604,-0.0016641149,0.082514785,0.041254226,0.23356828,0.0020066497,0.019584006,0.14117008,0.1558802,-0.050979953,0.01591383,0.023465302,-0.026253127,0.3116569,0.10251433,0.4861369,-0.033808466,0.11944417,-0.037208058,0.091514066,-0.004873848,-0.07216789,0.27221552,-0.22575045,0.025526727,-0.030232992,-0.21397817,0.078710124,0.063727364,-0.08899968,0.04771157,-0.077080816,-0.03325237,-0.06670137,-0.048834182,0.049410857,0.094908886,-0.087392256,-0.103997625,-0.059059933,-0.040067837,0.007264763,-0.0584718,-0.4268991,0.072348244,-0.059672322,0.07361315,-0.23152354,-0.051179465,-0.08480044,0.02707976,-0.066068515,0.118103825,0.06338995,-0.04832238,-0.059049044,-0.052187867,0.24617225,0.015156478,-0.15527129,-0.077597395,-0.034540124,-0.06716651,0.053764023,-0.030920932,-0.027726438,0.22699034
-0.075565025,0.034015074,-0.057895567,0.022003358,-0.035451606,0.015731832,0.022245165,-0.022442738,0.0036485416,-0.06949718,0.010397923,-0.07691335,0.024631955,0.06922701,0.07230783,-0.0003000906,-0.013727597,0.012823424,0.01246233,-0.02929133,-0.09494643,-0.0019546906,-0.022070834,-0.03957437,-0.03602128,-0.064920895,0.034546003,-0.029341025,-0.04125024,-0.08477338,-0.09651374,0.04746033,-0.009597615,0.05422882,-0.060635675,-0.056499798,0.06429043,0.018605264,-0.08893668,0.008747175,0.007089417,-0.04186841,0.02905321,-0.09620492,-0.119953535,-0.0022876754,-0.05671236,0.05178143,0.0070411325,0.012792018,0.040476028,-0.044330783,-0.10497364,-0.049604036,0.015409916,-0.020144515,-0.04371701,-0.06088937,-0.06260451,-0.07890414,-0.0070401537,0.006386607,0.042118248,-0.03503167,0.03316844,-0.013767739,-0.010726653,0.017956475,-0.06955952,0.014158909,-0.008035039,0.017332084,-0.010279489,0.034349512,-0.035738006,0.040774025,-0.058992893,0.03672948,0.036252417,0.029663807,-0.13790543,-0.086297,-0.0020211737,-0.048607346,-0.029878939,-0.031986415,-0.057835896,-0.0659462,0.07880355,-0.019682502,0.04718156,0.07443631,0.013879915,-0.069297865,-0.040568154,-0.08761663,0.03664099,0.03019554,-0.056316487,0.054207735,0.018678179,0.020533938,-0.038719635,0.0060692127,-0.08097142,-0.043852508,0.074248135,0.046297807,0.03665454,0.00965106,-0.051530506,-0.059477717,-0.05014273,-0.030178593,-0.057867274,0.037872754,-0.0018782981,0.049378194,-0.00818977,-0.08581666,0.039093636,0.07305408,-0.023694133,0.0013754291,0.0029574311,-0.031205492,-0.075129956,0.06484597
0.042030472,-0.09339117,0.07996787,-0.010247111,-0.05541898,0.035799317,-0.09065828,-0.010147176,0.05247726,-0.066506214,0.17783508,-0.090658635,0.07810247,0.070349954,-0.074610844,-0.22651567,0.0068986746,-0.0096290065,0.032400977,-0.1389856,0.06827822,0.11032905,-0.023191063,0.05348666,-0.041766852,-0.018498857,-0.083677344,-0.43315798,0.23263787,-0.10141504,0.041467536,0.0776154,0.05481969,-0.03657753,-0.061486773,-0.04727684,-0.055956427,-0.016156832,-0.1789539,-0.03455685,0.116318084,-0.0825604,-0.16430537,0.055196293,-0.008521684,0.0043033576,-0.119514115,0.0992723,-0.3410695,0.09680009,-0.12124943,-0.08027501,-0.119883604,-0.08590578,-0.048350435,0.038314536,0.09944086,-0.043694586,-0.15804507,-0.17362264,0.0046840655,0.0564444,-0.1938108,-0.26955107,-0.12589651,0.014585687,0.0377929,-0.30013955,-0.53478307,-0.012310039,-0.047256537,-0.01309653,-0.02739843,0.04649678,-0.35588196,-0.008026971,-0.009714579,-0.041923862,-0.041940447,0.043027297,-0.044814646,0.015749572,0.0380802,-0.18769574,0.03214974,-0.08288865,-0.06720561,-0.2555515,-0.046760306,-0.046750523,-0.033036932,0.041289296,0.07233948,-0.06801448,0.0020925747,-0.059107937,-0.14831002,0.092133485,-0.081448704,0.24783738,-0.0680499,-0.0017292778,0.01160945,-0.06255869,0.047588978,-0.04112558,0.029714435,5.966704e-05,-0.1337976,-0.050442256,-0.019238582,-0.079001844,-0.071679704,-0.11435605,-0.04633419,0.0287994,-0.2238906,0.011400597,-0.17771073,0.16149881,0.02511028,0.02977586,-0.32054386,0.04730436,0.006853929,0.003022651,-0.019155955,-0.04685078
0.036551338,0.034235243,-0.047675744,-0.064233914,-0.07164971,-0.023844901,-0.011657858,-0.050539915,0.073265925,0.00731935,0.1253307,-0.0925158,-0.009642295,-0.07667011,-0.055434495,0.031172492,0.019832091,-0.06833019,-0.024089593,-0.08338229,-0.05175416,0.032776404,-0.0050537586,0.053738397,0.016891133,-0.0031870136,-0.08171098,0.10471707,-0.05608782,0.028912297,0.044075396,0.008061289,0.15931837,0.020588316,0.057095096,0.050608717,-0.035216793,-0.06385219,0.07681615,0.0991155,-0.08508168,0.04793023,0.020053437,-0.061569944,0.06420163,0.057229064,0.002907876,-0.02765341,0.13010658,-0.08573849,0.0748074,-0.0838303,-0.06470948,-0.016883427,-0.01902231,-0.06293872,-0.103061706,-0.017024424,-0.056370717,0.0024848508,-0.09570099,0.050484248,0.025172653,-0.06232942,-0.0713939,-0.045846768,-0.02506328,0.06222937,0.12241973,0.14807037,-0.035278715,0.04294071,0.0025253026,-0.09087485,-0.05043786,-0.07753903,-0.16703166,0.04936638,0.065692246,-0.0959707,-0.09479364,-0.11605162,0.051677376,-0.018215368,-0.07059869,-0.015688062,0.015992476,0.034223326,-0.025871439,-0.0460294,0.07328021,-0.06570797,0.04983173,0.033098023,-0.034284722,0.002270379,0.0030473385,-0.048869506,0.0068863677,0.109375104,-0.07120601,-0.022227151,0.06142012,0.037702847,-0.15101151,-0.032956798,-0.013095901,0.015733292,0.01164892,-0.04782048,-0.012516015,0.021027185,0.044421915,0.04496638,-0.035092607,0.052893028,-0.101297475,-0.05127774,0.061004043,-0.07360955,-0.10965314,-0.03710149,-0.04393891,0.040282983,0.037429083,0.084462345,-0.00886277,-0.0015151409
-0.34424615,0.12766223,-0.1237156,-0.005427067,0.079462975,0.00080675713,-0.22939257,0.017513115,-0.021231318,-0.094981834,-0.056541864,-0.14876287,-0.50789833,-0.060639676,-0.06914522,-0.12929845,-0.06285336,-0.030043704,0.011615891,-0.012831269,0.016981628,-0.11821957,-0.040220287,-0.00027575664,-0.023031306,-0.080223024,0.056894626,-0.22466865,-0.26260754,-0.0156566,-0.046289176,-0.06234115,0.23674223,-0.043550376,0.11599958,-0.045335084,0.08201894,0.05795731,-0.030073464,-0.055315156,0.08863427,-0.2679572,-0.036726743,-0.043671142,-0.016313855,0.10691409,-0.020666823,0.069489874,0.4292975,0.13537611,-0.122837245,-0.07554786,0.115890436,0.06678707,-0.12578498,0.029938208,-0.4381343,-0.07239376,0.049089484,0.015753102,0.08031765,-0.022385843,-0.14250264,0.028371777,0.23266669,-0.21961783,0.040466927,0.16373561,-0.0043334714,0.15078512,0.07752227,0.04777027,-0.054365736,-0.18977085,0.02216904,-0.09636604,-0.10355207,0.04529906,-0.015808588,-0.01522098,-0.039827846,-0.014440711,0.033292003,-0.1360014,-0.14889358,-0.020409554,-0.047825053,0.15340042,-0.016228134,-0.019798325,-0.032630257,-0.014389434,0.008951185,-0.27200183,-0.053562004,0.031620793,0.22791788,0.00967074,-0.1820137,0.0640616,0.019094719,0.0058168685,-0.14203605,0.0892254,0.13996,-0.040796608,-0.012559641,-0.035033636,0.020256711,0.022276448,0.096551836,0.07894266,-0.16798006,0.0023743454,0.0060111107,-0.067052886,-0.24383765,0.053668704,0.026663698,0.03176832,-0.08893417,-0.07605517,-0.13334005,0.08339806,0.08570795,0.05033766,0.056133717,-0.009953156
-0.01677627,0.013778924,-0.007972152,-0.11336034,0.03581383,-0.034605965,-0.08090093,0.039252844,0.0026168665,-0.008987211,-0.049459036,-0.23994583,0.042539056,0.007173224,-0.019612346,-0.1339366,0.041192066,-0.020593919,-0.07389972,-0.11339894,0.26719204,-0.027714249,-0.014148777,-0.053609885,-0.0012079717,0.0640483,-0.10620581,-0.035413172,0.011666441,-0.052522726,-0.03889917,-0.063164346,0.14206526,0.08802379,0.032343835,-0.013305651,0.04879296,-0.035172895,-0.042593703,-0.04448937,0.029436149,-0.16955705,-0.060785916,0.007051147,-0.001376368,0.016144352,-0.005417311,0.100386135,0.09046537,-0.08511496,0.069264285,-0.12010148,-0.035053294,-0.048944246,-0.020898342,0.0039549824,-0.07166319,0.09326442,-0.052461296,-0.13715258,0.031662647,-0.070518784,-0.189432,0.08636568,0.08359187,-0.085974135,-0.012196678,-0.11836326,0.037003458,0.26824462,0.017095942,-0.011485584,-0.003913397,0.021465294,-0.07098318,0.07199227,0.27060872,0.020582333,-0.036545884,0.04645685,-0.062477175,-0.005222154,-0.006332993,0.14954352,-0.1834667,0.05077873,-0.012534261,-0.07229051,-0.034655403,-0.07012072,0.013980714,-0.09089522,-0.030847037,0.07180434,-0.02166023,0.07348574,-0.10927249,0.056668643,-0.13100308,0.09166055,0.06638413,0.02487873,0.019504275,0.043337867,0.22252546,0.09898205,0.062354214,0.030749934,-0.08886311,0.029209075,0.017592648,0.02587249,-0.06328194,0.016335394,-0.0010840875,-0.08091495,-0.16390274,0.07794834,-0.054631222,0.020125918,-0.038979776,0.021879988,-0.0981844,-0.014218364,0.01834159,-0.06168297,-0.010105423,0.041158646
-0.059608374,-0.21934004,0.0878802,-0.06995055,-0.099626236,0.025358213,0.015698593,0.096973166,0.04807233,-0.12333361,0.17405473,0.051890083,-0.62182885,-0.096842475,-0.09383449,-0.094889455,0.030411249,-0.011986409,0.027881375,-0.06159072,0.103507444,0.049426526,0.029189177,-0.0035800557,-0.07871829,0.16817103,0.04336518,0.010402646,-0.11636579,-0.04045954,0.0064549353,0.048687886,0.051604614,-0.060902618,0.10010553,-0.011506334,-0.012016455,0.07549016,-0.09201167,0.09905582,-0.19687493,-0.054858677,0.019416582,-0.023094289,0.031021332,0.052885998,-0.08097612,-0.054327894,0.51097625,0.28983572,0.0145004885,-0.031112216,0.082169935,-0.06880274,0.06359028,0.13397713,-0.44341886,0.12912346,-0.27182797,-0.025816444,-0.0026926603,0.059340782,-0.26314574,0.012009153,-0.10157661,-0.036379423,0.06319858,-0.042530023,-0.4874861,-0.10945882,0.0033959572,0.025072604,0.026189968,-0.50020874,-0.3832841,0.07654807,-0.049673986,0.14470938,-0.13628025,-0.00393985,-0.08853636,0.24161339,-0.06251177,-0.029564748,-0.010311528,0.012551882,-0.0151764145,0.08774373,0.006837624,0.027077781,-0.20953465,-0.06436007,-0.006708544,-0.37872127,0.011734157,0.062149223,0.35791084,-0.0013562781,-0.08591668,0.41335705,-0.1625082,-0.04051575,0.038601413,0.14849088,0.025644984,0.011442807,-0.026309842,-0.0023614469,0.016279068,0.068927884,-0.059759904,0.09342384,-0.17637497,-0.037421744,-0.049322806,0.046780806,-0.033373713,-0.0200309,-0.18333536,0.29476407,0.0073648784,-0.066808864,-0.048643578,-0.11406471,-0.122687265,0.043480266,0.007363381,0.0072719324
-0.14069256,0.28907537,-0.060124025,-0.10980888,0.058921907,0.027045857,-0.339779,-0.08126409,0.086216606,0.117053665,-0.011111276,-0.083977,-0.40847328,-0.008742394,0.024009297,-0.21184357,-0.026186947,-0.024971494,-0.061205413,0.17097746,0.050493393,-0.005564277,0.017667705,0.027347067,0.04407165,0.019877529,0.07115684,-0.064005755,-0.050578203,-0.0026276694,0.22643282,-0.015919238,-0.04560979,-0.014421309,0.06139507,0.06831859,-0.064143986,0.026455298,-0.28646052,-0.051524762,-0.13341218,-0.15434194,0.043479927,-0.08633978,-0.0037919069,0.0025568304,-0.007970225,-0.04074189,0.30407372,0.15689993,-0.10723117,0.023832811,0.13071519,-0.082949184,0.035188314,0.023495289,-0.27220604,0.046676792,-0.027745204,0.17834863,0.15954646,-0.046574883,-0.46066707,-0.09202468,-0.35485163,-0.023168724,0.08800232,0.28026563,-0.5089794,-0.34247255,0.093066715,0.027921528,0.053690318,-0.40619355,-0.38336658,0.07462464,-0.13301557,0.09039496,-0.22546746,-0.059666485,0.026335428,0.04370549,0.0659573,-0.21919551,-0.11440091,-0.06296021,0.055177692,0.14430033,0.060630362,0.053003557,0.026299987,0.0066381916,0.010119034,-0.28837723,-0.069513336,0.047028534,0.16756934,0.066219024,-0.14704412,0.09061247,0.01213135,-0.05301026,-0.050128873,0.047187287,-0.42276815,-0.042541586,-0.08181723,0.062640555,0.16457254,-0.12597503,0.061990537,-0.03616554,-0.15377302,0.021533197,-0.0167197,-0.0022437933,-0.08164316,0.047026485,0.01925487,0.024675088,-0.052394792,0.04299583,-0.14155295,-0.18514737,-0.20303725,-0.014695208,0.0010907751,0.045308653
0.041830473,-0.06941791,0.036720034,0.085661195,0.07539832,-0.07882694,0.048251577,-0.020731254,0.02757225,-0.2035059,-0.017195687,-0.06055063,0.06488356,-0.07402723,-0.0055384617,0.048994847,-0.032081548,-0.0260388,-0.07107464,-0.04820376,0.12554125,0.0053060357,-0.02277751,0.09470338,0.07614657,-0.032215174,-0.03717169,-0.12646641,0.038840298,-0.09640887,-0.008288526,-0.06792767,0.050841812,-0.004378312,-0.008505788,-0.016955288,-0.025181606,-0.07909885,-0.03037013,-0.0289804,-0.0634109,-0.14581332,0.01323734,-0.07565128,-0.08134297,-0.023005214,-0.049202878,-0.08716949,-0.04597196,-0.047667142,0.0034748404,0.01756152,0.052149855,-0.025367979,-0.071204126,-0.026210388,-0.1515235,-0.112619996,-0.14839216,-0.06904402,-0.047376066,-0.016093735,-0.0017280349,-0.103605986,-0.073977,0.010787997,0.03061225,-0.10701429,0.27886954,0.3269375,0.031911183,0.09117325,0.014332117,-0.09620298,0.07956265,-0.10417638,0.037931822,-0.066622294,0.0629322,0.03284088,-0.06132453,0.120657116,-0.0067537786,-0.08401201,-0.11015894,0.08002603,0.033113673,-0.041148547,-0.044897832,0.023157595,-0.064027555,-0.037403893,-0.03044034,-0.043313142,-0.01608008,0.04493039,-0.066086784,-0.022286346,0.033741564,0.05744679,0.122571856,-0.056154918,0.029159939,0.08235765,-0.02685757,-0.034128215,-0.027663415,-0.06616004,-0.036020942,0.089254454,-0.016625894,-0.00645469,0.1025597,0.023150561,0.010511427,-0.011999425,-0.011433945,0.09179875,0.07331959,-0.09321515,0.012232467,0.061293826,-0.12363852,0.0283536,-0.022304539,0.078733675,0.105202004,-0.032676928
-0.0007758518,-0.14869565,-0.10236977,-0.064648785,-0.10377143,0.080192335,0.04141975,0.07892863,-0.0036637033,-0.095662095,-0.0026908894,0.09393981,0.038280506,-0.0165447,-0.069320254,-0.07042281,0.012311135,-0.09371564,-0.04302815,0.03742939,-0.20079778,0.0044960277,0.04401202,0.040321935,-0.029137261,-0.07651937,0.012084545,0.10449214,-0.20197472,0.08658741,-0.010785961,0.053447407,-0.44810653,0.12970431,0.022942973,-0.17700975,-0.009373224,0.0657007,-0.036714014,0.024966912,-0.1843855,-0.16536526,-0.06304666,-0.07252319,-0.025337499,-0.14109516,-0.05841639,0.037013974,-0.4748892,-0.07993315,-0.085720986,0.08321094,-0.061434753,0.07025468,0.021339657,0.118433386,0.089197524,-0.14122432,-0.013194445,0.092569515,-0.08268407,-0.07172491,0.03524601,-0.044986125,0.10543963,0.042385653,-0.09347798,0.024971137,-0.4065935,-0.29258782,-0.040391117,0.007344921,0.014793942,0.07021349,0.15987724,0.0596245,-0.052925225,-0.10142253,-0.027013749,-0.061032042,0.057887442,-0.18636928,0.053232174,-0.06363962,0.062116988,0.0617211,-0.057840995,-0.3804594,0.08383142,0.04707307,-0.08678567,0.014511436,-0.24505557,-0.07634528,0.03501311,0.0053352043,0.0020121436,0.0035155767,-0.003833032,-0.1846358,-0.5922352,-0.031892605,0.13713181,-0.13204819,-0.18436293,0.008861192,0.023863006,0.04634149,-0.21945587,-0.0056780367,0.009938994,0.0051207594,0.014821464,0.006479652,0.06664146,0.018579984,0.18185201,-0.029144948,-0.18853715,0.042594098,0.17572324,-0.05392585,0.14816056,-0.30634734,0.02356093,-0.05105223,0.012771781,0.06855541
-0.061263245,-0.02800422,-0.05434658,-0.037825927,-0.04481725,0.02887591,-0.0015251011,0.005181035,-0.0092155775,-0.06806966,-0.055012614,-0.08844505,-0.07446174,-0.042133998,0.039401595,-0.02322162,-0.030657688,-0.10256235,-0.014680352,0.030950941,-0.04558262,-0.0885003,0.060061354,-0.066858746,-0.004255213,-0.092980325,-0.10358412,0.011902024,-0.050851718,-0.096192874,0.05138981,-0.08905581,-0.0047530592,-0.014869668,-0.024492769,-0.06160164,-0.0359563,-0.051672462,0.014659399,-0.016687818,0.018501742,-0.046960384,-0.056530908,0.0699685,-0.16054407,-0.030959921,0.014085164,0.056953166,-0.003236121,-0.071321175,0.006151452,-0.10742903,-0.00037493065,-0.0037570992,0.07382751,0.003099061,0.028462237,-0.08701949,0.042348552,-0.08959759,0.06393186,0.047295604,-0.03004756,-0.13461933,-0.028202517,-0.027503774,-0.070107564,-0.09829394,-0.072588086,0.013005991,0.0021468857,0.03936003,-0.053608786,-0.04840201,-0.124274135,0.023631481,-0.009662572,-0.10368958,0.03436554,0.01589804,-0.078305006,0.018998405,-0.031200996,0.05785907,-0.08311418,-0.08134211,0.04178988,0.0069234795,0.018168233,-0.09747943,-0.08744921,0.050049935,-0.025713932,0.03391072,0.04417113,-0.009260009,-0.059956532,-0.01393214,-0.079588845,-0.02823806,0.033414256,-0.09340237,-0.024630256,0.032934077,-0.07024472,0.074765585,-0.06558619,0.076555595,-0.11468742,-0.0959341,-0.047682427,0.027635679,0.02008598,-0.03942507,0.046054572,-0.04697753,0.01817934,-0.023714416,-0.03882926,-0.009385222,0.0008560736,-0.072803035,0.008630453,-0.12516552,-0.09401871,-0.061939966,0.027938621,-0.01735632
-0.088471875,0.07403389,0.05904962,0.0752257,-0.07057968,0.066110805,-0.12626986,0.063517906,0.017389325,0.0555415,-0.07399565,-0.1694748,-0.1738203,-0.026159713,0.07622687,-0.10188883,0.01091794,0.048601627,-0.042096447,0.04309418,-0.23666582,-0.004437883,0.013008881,0.053000625,0.013821934,0.07194759,0.09110726,-0.0740154,-0.102812536,0.06715896,0.08642606,0.030855367,-0.14562723,0.078896195,-0.016764443,-0.061459113,0.037656743,0.09811654,0.12308093,-0.00736256,-0.27409676,0.32543516,-0.0038321905,-0.008579238,0.100195184,-0.07035435,0.0022183913,-0.024668774,0.21438883,0.0787917,-0.02373928,0.12302744,0.010081911,-0.03771015,-0.0934073,0.103712186,0.04851343,-0.07150783,-0.018850358,0.030684493,-0.077191524,-0.026236944,0.014903694,0.20080394,-0.010346255,-0.088551454,0.09849912,0.048527047,-0.019462533,-0.07530624,-0.019425457,-0.01838453,0.011258899,-0.2904389,0.09907206,0.033883166,-0.38573012,0.045557395,0.03297986,-0.059177063,0.052817084,0.12173513,0.08734102,-0.12385097,0.093455575,0.015650531,-0.022620542,0.030449202,0.06880301,0.10627201,-0.13345572,-0.04204653,0.03893186,-0.2409489,-0.036508862,-0.01334578,-0.022181926,0.069562465,-0.1027492,0.08672817,0.22108215,0.025275715,0.032183822,-0.037669487,0.14621538,0.07392129,0.034782875,-0.0064854086,0.0065407,-0.007909158,0.022756897,-0.073503114,-0.11885191,0.010752163,0.028261727,-0.005828132,-0.005654063,0.06346842,-0.18579799,0.052742954,0.102908745,-0.06810276,-0.028728511,-0.18860982,-0.19758695,0.06946315,-0.048445728,-0.019687172
0.11424785,-0.15583521,0.030297205,0.08362126,0.045741506,-0.008280761,0.03755724,0.05334137,-0.01734065,-0.1164735,-0.0030448278,0.015594429,-0.026316304,-0.027817098,0.07070248,-0.0019353835,-0.05484749,0.0055813612,0.05777072,0.016908009,0.010901067,-0.03678492,-0.020912366,-0.0747457,0.08111972,-0.04496676,-0.019037077,-0.03835414,-0.06832385,0.025796318,0.038481455,0.095211335,-0.026656628,-0.13861662,-0.057260487,-0.095530935,0.07344432,-0.12973551,0.082985096,0.0583346,0.07795945,0.13579445,0.05051685,0.057981446,-0.08624832,-0.0897739,0.058291025,-0.08261432,-0.13120079,-0.03333972,0.11249007,0.0054111974,0.012638129,0.04119385,-0.11854377,-0.01892368,0.053772975,-0.17455065,-0.004743875,-0.032804858,-0.007501811,-0.11489164,0.019809326,0.025971374,-0.14846198,-0.017131733,-0.08954913,-0.03135405,-0.013617663,0.050258752,0.015739456,-0.004498097,-0.027746044,0.026815068,-0.099522926,-0.011241342,0.11207638,-0.12527321,-0.039160557,-0.042724863,-0.065537415,-0.033972573,0.041835364,0.127876,0.030399714,-0.052179027,0.080752656,-0.055565067,-0.02703912,-0.0044178213,0.017798513,0.014775306,0.051490217,0.09518545,-0.034008574,-0.057633378,-0.011836068,-0.036962118,0.039449923,-0.007335108,-0.04841988,0.077888824,0.0071879257,-0.016658135,-0.057532985,-0.022866094,-0.065476514,-0.06338859,-0.030422118,-0.057524715,0.019797508,0.0031812643,0.0136092445,-0.024987606,0.021505238,0.03061556,-0.042823587,0.08423233,0.09849636,-0.08573938,-0.09132552,-0.031226523,0.09132709,0.1456086,-0.053942714,-0.07172296,0.10955418,-0.032290395
0.15277767,0.0322081,-0.07189866,-0.023910586,-0.0040290086,-0.0635257,0.11962523,0.005311572,-0.025527062,-0.08271752,-0.033829547,-0.46893573,-0.008609772,0.21744016,0.027744414,-0.16283336,-0.050071348,0.10958249,-0.007272954,-0.08421698,-0.021228412,-0.14282593,-0.03121519,-0.017080499,-0.061773892,0.1103215,-0.033271156,-0.065917954,-0.04447428,-0.06143004,-0.17820504,0.06831138,0.06257865,-0.12266495,-0.12710194,0.058456562,0.020448275,-0.0074441265,-0.04551166,0.02167619,0.11619719,0.060788207,-0.037662,0.026981248,-0.12186608,-0.13483779,-0.067884855,-0.0049952986,-0.34112838,-0.11703296,0.03775934,-0.080267794,-0.16944088,0.03139037,-0.0036772792,0.011190769,-0.056784328,0.12944397,-0.103803456,-0.07294611,0.021361632,0.04717865,-0.18382518,-0.11458333,-0.12935188,-1.0892833e-05,-0.090634316,-0.058878634,0.21174006,0.26388666,-0.15027533,0.05008087,0.0064788894,0.21809849,0.14196046,0.0943249,-0.06326615,0.15786147,0.035346318,-0.053352498,0.039713223,-0.035893764,0.03361202,-0.16079886,-0.10356931,-0.078253716,0.003394493,-0.11347215,-0.07488566,0.00037272798,0.051954873,-0.04171235,-0.22326007,0.19567323,-0.011952159,0.010612908,-0.0901989,0.039215643,-0.2889036,0.20257235,-0.042343475,-0.095086105,-0.31101072,0.11490703,-0.029139528,0.08934719,-0.036997218,0.03533101,-0.021924958,0.014248045,0.0031388432,-0.070488095,-0.05631059,-0.06836971,-0.00086984586,-0.028530858,0.27743247,0.038502943,-0.12530234,0.17094004,-0.17805399,0.034330912,-0.090071544,0.17015715,0.058390737,-0.068839826,0.08988944,-0.016961385
-0.20224239,0.13328652,0.026759457,-0.0869205,-0.05665837,-0.008128689,-0.18901275,0.054326672,0.033078235,0.1125197,-0.042151164,-0.037669566,-0.19080605,0.025599077,-0.051017098,-0.11050366,-0.02583658,-0.056753285,0.04639313,0.19257168,0.023849133,-0.078029655,0.08781016,-0.059615105,0.021827472,-0.093707845,-0.0026579183,-0.05786957,0.0019670539,0.06466343,0.0035345033,-0.013811744,-0.03288132,0.038915,-0.036601014,0.049929127,-0.02071009,0.027995225,0.03182721,-0.050194047,-0.001100901,-0.13444819,-0.017741976,-0.08531516,-0.013478279,-0.06315784,0.17730397,0.020468578,0.056142777,0.0191702,0.00021892108,0.07693261,0.01732839,-0.070740335,-0.051591016,-0.010275131,-0.018312743,-0.04402389,0.12863092,0.10578899,-0.005639123,-0.06091876,-0.017398749,-0.022843828,0.02473915,-0.1518458,0.04973169,0.098350376,-0.10765825,-0.029334016,0.056929957,-0.04097273,-0.076794565,-0.0031905456,0.052743446,0.05826224,-0.14939791,0.01371624,0.059014,-0.011000009,0.09287129,-0.08769395,0.029012594,0.095214225,-0.024400178,-0.1490597,0.035109434,-0.052072138,0.031201804,0.059883796,-0.007302942,-0.021321252,-0.019127479,-0.15004443,0.07547936,0.04602073,-0.039105,-0.043549836,-0.15219106,-0.26751256,0.093660735,-0.10457423,-0.25003165,0.0019834072,0.0002934612,-0.050635137,-0.03269936,-0.020233449,-0.058134913,-0.05130783,0.040920593,0.009543029,-0.050766047,-0.010493244,0.027659208,0.0024911657,-0.15369645,-0.048435774,-0.021372156,-0.03895441,0.1789938,0.03578046,-0.094564386,0.04299888,-0.08735617,0.079774275,0.00032812468,-0.05924926
-0.09419825,-0.054947972,0.0436429,0.043415107,0.05517825,-0.08532354,-0.031941175,-0.071616895,0.0005201787,0.07363804,-0.061798505,0.03524742,-0.047088623,0.029421581,-0.09029381,0.020462265,-0.027273772,-0.07800906,-0.00074463704,-0.029449776,-0.05810023,-0.107932635,-0.083219744,-0.069454074,0.006089155,-0.0310271,0.0035160838,-0.019346952,-0.047981296,-0.056585494,-0.05429697,-0.0010818524,-0.06568814,-0.065336205,-0.031818826,0.049981378,-0.014074646,-0.07062236,-0.07588969,-0.054593712,-0.035032373,-0.08393943,0.02471442,0.009347679,-0.16024053,0.046493784,-0.05894734,0.010061362,0.011607129,-0.013834655,0.008636913,-0.014446332,-0.07698194,-0.031250358,-0.0906623,-0.023371644,0.059010718,-0.007067342,0.03636566,-0.06000466,-0.025063291,0.023215393,-0.021344122,-0.041554738,-0.016737051,-0.10108001,0.066384576,-0.007095363,-0.044889268,-0.03831417,-0.028569117,-0.032802973,0.07210631,-0.022136468,-0.042898487,0.04158241,0.07279688,0.023618458,-0.01076468,-0.072964035,0.030652657,0.03860419,-0.031447746,-0.09553635,-0.014188344,0.03154163,-0.029754614,-0.014078212,0.010781318,-0.079594694,-0.00091625826,-0.054925002,-0.06145725,0.011960672,-0.018345537,0.055823214,0.046601743,-0.09928345,-0.06606827,-0.047450587,0.025714489,-0.0039395043,-0.020116536,0.053968865,0.0024994463,-0.041059103,0.078751296,0.048034362,-0.04429918,-0.10509595,0.0060357195,-0.0054732226,0.0041552144,0.032741107,-0.09487828,-0.029622022,0.029797344,0.048418816,-0.054840267,-0.08802397,-0.004723324,-0.09393166,0.015802203,-0.013213103,0.056415223,-0.01070517,0.06651008,-0.10390506
-0.220801,0.036126524,-0.0065925783,0.050674073,-0.02785486,0.05286578,-0.22876519,0.029651519,0.009473586,0.011480794,-0.047064584,0.04855026,-0.029071258,0.0988642,0.10315251,-0.04828495,0.0052220067,0.08236115,-0.030880658,0.17888817,-0.1263743,-0.046964377,0.05652273,-0.031788502,0.060702257,-0.035177592,0.02893945,-0.12167657,0.0411686,0.06801783,0.03957423,0.04551269,-0.12142407,-0.0060385684,-0.054660335,0.04297712,-0.04232409,0.056624755,-0.016058251,0.013428173,-0.005449121,-0.08138966,0.08063993,0.012472549,0.0704485,0.05342465,0.06964359,0.110248215,0.04709811,-0.008563914,-0.01678693,0.07304274,0.1153783,0.016962728,-0.08246495,0.14667249,0.036272135,0.081155844,0.048630647,0.10498028,-0.091821164,0.016482014,0.025545526,0.04659646,0.050747007,0.024458876,0.08144065,0.09985687,-0.05613861,-0.1385408,-0.049331583,-0.00847908,0.054512102,-0.017519325,0.21206999,-0.031784803,-0.10402669,-0.05982399,0.024476033,0.102867484,0.09870223,-0.1506063,-0.013846089,0.037224885,-0.023196144,-0.070085466,0.041647915,0.16835886,0.020983806,-0.00022449228,-0.006598214,-0.06492611,0.00537387,-0.014230348,0.06598,0.008281671,-0.121273234,0.10094877,-0.08482196,-0.096493684,-0.050901487,-0.025707418,-0.08350192,0.005649217,0.0859281,0.028134732,0.039592244,-0.007892357,0.09140106,-0.044170793,0.13077225,0.022203444,-0.061740566,0.030149734,-0.021561157,-0.020130299,0.03766446,0.08299048,-0.040843964,0.01391639,0.13137777,-0.004683584,0.013177654,-0.16031432,-0.18322487,-0.040066842,0.09675304,-0.0995226
-0.13118434,0.08156629,0.09222299,0.03137798,-0.11245009,-0.025218135,-0.03855609,0.041152567,0.0027489157,-0.14195883,-0.07990943,0.15309013,-0.07945684,0.028923212,-0.010198807,0.14624774,-0.044101857,-0.29753107,-0.09950837,0.10071734,0.014525061,0.14708641,-0.07956761,0.058119472,-0.058876313,0.15987124,-0.16070814,-0.10327442,0.027699023,0.011203229,-0.37051362,0.068991125,0.079212174,0.06562735,-0.3614231,-0.21510543,-0.07192771,0.08095069,0.33528844,0.03990412,-0.49610007,-0.12706155,0.030547686,0.12313224,0.09327631,-0.19622067,0.03371818,0.040590793,-0.20305923,-0.19822884,0.05513084,-0.0020612155,-0.5737249,0.0764514,-0.11474011,0.013892097,-0.38016334,0.036205925,0.09838826,0.22332504,-0.1973538,-0.040304407,0.26312786,-0.3180103,-0.011134149,-0.10387451,-0.06120657,-0.17792214,0.0026375984,0.034504864,-0.1949111,0.029749092,-0.042735167,-0.021109337,0.03060529,0.07375679,-0.099599876,-0.042962544,0.15220225,-0.035630114,0.13783863,0.013663634,0.23585628,0.090662904,0.028691677,0.09036611,-0.026578123,-0.054410644,-0.06068472,0.08643431,-0.023627114,0.05872278,-0.11758352,-0.16274033,0.010562843,0.15572648,-0.24645542,0.07776253,0.22908652,-0.1002362,-0.29062054,0.10686205,-0.36174786,0.04732446,-0.14015225,0.019790908,-0.033912692,-0.025814192,-0.2061949,0.13180488,0.10670893,0.053862613,0.06327699,-0.12235306,-0.0751656,0.11913065,-0.09752092,-0.15680109,-0.080966696,-0.018901506,0.031389,-0.051766705,0.25161803,-0.71852595,0.12133512,0.051311333,0.068299726,-0.016428152
-0.06561824,-0.006516705,0.025045201,-0.09115026,-0.013919408,-0.033668224,-0.17562976,-0.012608064,-0.038460027,-0.07176353,-0.037669238,0.10196741,-0.055552673,0.017714076,-0.0067269155,-0.0056305663,0.08021021,-0.02556062,-0.00999148,0.08348905,-0.16818263,0.061653588,0.0070249704,0.0682528,-0.046959285,-0.07770929,0.08020339,-0.12355031,-0.08470955,0.06872543,0.10124953,-0.07636025,-0.15343615,-0.024935778,-0.03989245,0.03738267,-0.02106898,-0.020377824,0.0331116,-0.009245121,-0.1843428,0.13696401,-0.044349693,-0.07429908,0.025501205,0.0718244,0.024590157,-0.012063063,0.09799234,-0.1068431,-0.026341833,0.02151482,0.016036056,0.007438821,-0.14665562,0.024074983,-0.043758772,-0.068019874,-0.09237153,0.07979241,-0.11801351,-0.045516975,-0.030109745,0.13524422,0.13406883,-0.2132211,0.06675991,0.10830368,-0.09434508,-0.10534136,0.028357664,0.027168542,0.0466419,-0.28780085,0.03822825,0.057749644,-0.09541611,0.037006233,0.022523386,-0.06399399,0.06753468,0.120205194,0.057486005,-0.023733195,-0.045902714,0.021856515,-0.0015783127,0.047675587,0.0021888574,-0.038748536,-0.03503476,0.06661375,-0.036586337,-0.17161417,0.05360344,0.020853605,0.1929189,0.047818676,-0.080063306,-0.13840137,0.023487097,0.0066183647,0.09146752,0.0048331814,-0.021546,0.03859628,-0.042925186,0.072939694,0.01998322,0.018426193,0.00038913495,-0.00804002,-0.055732522,0.027751194,0.08842984,-0.045849264,0.090136655,0.015631516,-0.06285934,-0.036890734,0.064775124,-0.059686407,0.105591476,-0.13369378,-0.07664518,0.028711785,-0.001710511,0.020678174
-0.21816841,0.09811291,-0.1352429,-0.11196504,0.033384364,0.037606716,-0.21619968,0.005497996,0.070363894,0.070249796,-0.22449453,0.1498153,-0.5034347,0.22237593,-0.011568935,0.09135017,0.04452484,-0.017513415,-0.010407935,-0.026818898,0.03908317,-0.024329852,-0.04664326,-0.046681974,-0.057554945,-0.0077410387,0.03687253,0.22338171,-0.11908022,-0.03352509,-0.09620692,-0.02017664,-0.002328802,0.1394461,0.11394864,0.1676536,0.007819583,-0.023242127,0.067241795,0.03261584,0.024346547,0.10376378,-0.054794606,0.095449194,0.054212544,0.02538111,-0.006470608,0.00659978,0.35798374,-0.12320097,-0.18785967,-0.12497015,0.13376202,-0.07495035,0.12367593,-0.065902136,-0.21860987,-0.02673931,-0.10278185,0.12964384,0.13018654,-0.023360308,0.18540305,-0.14129986,0.03084859,0.028630102,0.10795185,0.026971495,-0.264424,-0.36393923,0.004896474,0.1007647,0.008189818,-0.2195969,-0.090751596,-0.04076518,-0.043923452,-0.03247467,0.0664983,-0.1027498,0.055504736,0.10732155,-0.06480803,-0.06650361,-0.017491214,-0.11121285,0.10320895,0.12796205,-0.020796454,-0.014480204,0.023080876,-0.081208,-0.015870782,-0.1957922,-0.09376955,-0.011805043,0.17789914,-0.04517849,0.04466568,-0.2173368,0.024146508,-0.09611228,-0.09539819,-0.018577654,-0.1336952,0.03384986,0.0287831,-0.033604402,0.10984074,-0.11114168,-0.06009841,0.067883566,-0.05864432,0.050497133,0.08293762,-0.037577376,-0.30193707,-0.016162382,-0.08720137,-0.013426235,-0.0483924,0.0141823245,-0.01020463,-0.04322861,0.06353168,0.052622486,0.061748195,0.06361192
-0.060248308,-0.02593487,0.045441717,-0.009551737,-0.026025914,-0.20305444,-0.24521111,0.00063191605,-0.0527956,0.08027159,-0.27553546,0.020492386,-0.03748703,-0.09674721,-0.030590612,0.07344868,-0.060673196,-0.12036105,-0.07128633,0.024846544,-0.33471513,-0.08516656,0.020573216,-0.014705426,-0.058111187,-0.10565473,-0.01656612,0.090206176,-0.05966522,-0.09002662,-0.17381606,0.022303235,-0.46685627,-0.06186704,-0.06862503,-0.26071665,0.028376259,0.043154027,0.18693425,0.10106269,-0.06048595,0.37318894,-0.108946145,0.05540275,0.010305605,-0.37187943,-0.0091597065,-0.017195553,-0.32490104,-0.092066176,-0.21788624,-0.04751354,-0.41244859,0.025611734,0.22784366,0.046209317,0.05146802,-0.26295233,-0.0040285825,0.07632118,0.09678767,-0.09575179,0.143018,0.060869966,0.16196479,-0.26510963,-0.1898826,-0.1008693,-0.38522202,-0.26602677,-0.24855796,-0.03862224,-0.010791998,-0.053921055,0.09611561,-0.15028857,-0.19585648,-0.13152629,0.0074903225,0.020123802,0.12286658,-0.0082217185,-0.039419778,0.006391115,-0.048637424,-0.1461902,0.032313924,-0.0144557385,-0.059540495,-0.1006347,-0.15304562,-0.0037609744,-0.19083558,-0.10949999,0.036296073,0.03713593,-0.034385618,0.018361308,0.03329332,-0.3186513,0.022702482,-0.06888202,-0.117373265,-0.11095324,0.055990238,-0.0035981045,-0.026700763,0.011698016,0.030594872,0.038601812,-0.038660813,0.00074590545,-0.034686677,-0.03125646,0.040996257,-0.111327864,0.047471825,0.06741871,-0.0466768,-0.048402477,0.048297703,0.044077292,0.12629317,-0.50539,-0.23362206,-0.029129643,-0.05997611,-0.05691138
-0.07282246,0.0793471,0.033274632,-0.0833726,0.06325572,-0.02350196,-0.05351704,-0.06420689,0.077891245,-0.060807332,0.064127594,-0.031504788,-0.12904993,0.05682183,0.07668921,-0.01220029,0.060037296,-0.13147046,0.022051264,-0.074034326,0.09007008,-0.0262761,-0.038798194,0.021572683,-0.05913754,-0.008556272,-0.015887577,-0.0028503651,0.070079535,0.020517185,-0.0060469406,-0.05592676,-0.08028209,-0.038797878,-0.0822773,-0.0072920127,0.08967599,-0.087108955,0.087062985,0.02515325,0.070613146,-0.031037226,-0.05940486,-0.09025776,-0.13812776,0.015890336,-0.04004927,0.011746637,-0.049947243,-0.04774387,-0.1299421,-0.08856632,0.00822092,0.03880823,-0.024501886,-0.0023654683,-0.1005603,-0.1098522,-0.020608392,-0.04840451,-0.04803757,-0.021140395,9.260586e-05,0.026745675,-0.024480697,-0.014944908,0.03170457,0.014052627,-0.09187507,0.09371961,-0.08685208,0.0523922,-0.07978081,0.05407699,-0.09807283,0.02248533,-0.08312948,-0.055647526,-0.019076925,-0.060634516,-0.0415538,-0.09527468,-0.11894792,-0.10873101,-0.10950954,0.037624694,-0.08296053,-0.06721213,-0.010188354,-0.059210755,-0.08734798,-0.019418854,-0.084400386,0.09753856,-0.086876236,0.0026484434,-0.06844747,0.03327414,-0.0642315,-0.053387586,-0.024479672,-0.109481096,0.033621464,0.039439894,-0.07461748,0.013772566,-0.006123883,-0.015615498,-0.04835937,-0.09394603,-0.016579224,-0.03550368,-0.081845775,-0.027450308,-0.07418224,-0.008579997,-0.028449979,-0.034626443,0.06495298,0.02640924,0.031579006,0.014926238,-0.060553245,-0.035714556,-0.054684095,0.03054876,-0.020830946,-0.08473474
-0.004134061,-0.03300332,0.029839907,0.032637138,-0.04605605,0.063930914,-0.08200897,0.014514869,0.08643879,-0.11433891,-0.093824,0.011998293,-0.078955375,-0.069205366,0.021504119,0.05304831,0.050521754,-0.080704115,0.036986694,-0.11497221,-0.07167105,-0.0035035308,0.042167902,-0.06933184,-0.0762591,-0.029643722,-0.13107446,-0.05100968,-0.02273869,0.058438323,-0.096897855,0.0052258507,0.024659278,0.030611057,-0.074507244,-0.07653574,0.047171712,-0.0349069,-0.099332295,0.03437005,0.06398035,0.045307074,-0.070045345,-0.021905908,-0.10955103,0.03405941,-0.07480956,-0.03530505,0.012058045,-0.0363718,-0.069800034,0.043423343,-0.11889918,0.019687265,-0.1432138,-0.02755629,-0.09645303,-0.102235846,-0.054330435,0.010002837,-0.072276525,0.039291307,-0.043033417,-0.08157462,0.003845134,-0.054539688,0.06842702,-0.06865541,-0.016882721,0.046168264,-0.061964028,0.024060339,0.012489134,-0.023223555,0.043179892,-0.08993838,-0.0059936214,-0.07975251,-0.09585972,-0.046450116,-0.040061757,-0.07848165,0.043839302,-0.01491599,-0.017170804,-0.02740139,-0.0035679836,0.026379896,-0.068561,0.02616555,0.014220559,-0.011381146,-0.041501716,0.028286288,-0.054553214,0.0002558103,0.050964158,-0.05548838,-0.011862801,-0.08556688,-0.097512655,0.004582395,-0.054126162,-0.07336848,-0.00443133,-0.074346304,-0.071516566,-0.022772025,-0.04671686,-0.014320493,-0.011202877,-0.057048496,-0.06119953,-0.06381027,-0.0751886,-0.060135603,0.038764838,-0.055768352,-0.004954838,0.04562731,-0.019249747,0.0830146,-0.104472496,-0.0014907551,0.013580589,0.08111653,-0.029041462,-0.11290995
-0.031701043,0.0054043843,-0.038870495,-0.10032994,-0.0076779206,-0.09064355,-0.03838383,-0.0011022988,0.0105618015,-0.07236895,-0.1475959,-0.247797,-0.048497073,0.05259166,-0.060188696,-0.066304915,-0.01972069,-0.11403615,0.0015532151,-0.038390048,0.02209928,-0.008362252,0.01722277,0.05311084,0.03092304,-0.06373563,-0.13117944,-0.07763168,-0.011614116,-0.07369175,-0.018536484,0.07590747,0.059364174,0.19614182,0.019466978,-0.14053172,-0.05324458,0.010115839,0.024884747,-0.06469905,-0.010172669,-0.08551925,-0.016102111,0.006996912,-0.013936073,-0.07732749,0.042582244,0.076137945,-0.06405303,-0.10852264,0.0007327951,-0.028888984,-0.012935863,0.06274272,-0.071068145,0.020006001,-0.14153805,-0.088448346,-0.044590477,-0.08695569,-0.01988157,-0.04782741,-0.13342708,-0.09330131,-0.024224361,0.0063928487,-0.06588617,0.03192566,0.08335011,0.110648416,-0.025321728,0.004030215,0.06960681,-0.05891494,0.16513899,-0.062388584,-0.11235247,-0.045434225,0.07711326,0.09288383,0.0263434,-0.055431914,0.00898427,-0.08449129,-0.02838682,0.052028835,0.04499635,-0.04455188,0.025814524,0.037021935,-0.07056814,0.025650783,-0.004491945,-0.037852097,-0.038916722,-0.11842363,-0.104496256,-0.05142483,-0.22015586,-0.19352089,-0.045715727,-0.03702276,-0.08884661,0.050942365,0.24195875,0.023830462,-0.033482525,-0.06822015,-0.038681917,-0.082044676,-0.024305666,0.04530184,-0.0076013687,0.011367711,-0.07079755,-0.065405354,0.0061244993,-0.05820791,0.026028452,0.046997923,-0.07935841,-0.01544638,-0.036496397,0.034678213,-0.110430114,0.06395642,0.10944052,0.12702566
0.10468749,-0.18273519,0.035203535,-0.0027599484,-0.07116928,-0.13743879,0.024409302,-0.028385343,0.008768207,-0.066206746,0.14126618,-0.15305723,-0.052858286,-0.11846596,-0.012660067,0.030131092,0.002741819,-0.09223066,0.057356536,-0.033597372,0.009263526,0.03586782,0.09406315,0.067452095,0.06615902,-0.017187418,-0.06350826,0.06165209,-0.023228927,-0.014273542,-0.071339026,-0.052229106,-0.020095173,-0.08439001,0.048245892,-0.07183857,0.010188994,-0.16921774,0.012530038,-0.033629302,-0.1124544,0.03576002,-0.11177294,-0.09637579,-0.043388568,-0.0592656,0.009547787,-0.002507396,0.07661699,-0.19621246,-0.028947014,-0.11581832,-0.03750637,0.026241634,-0.06550927,-0.041925665,-0.12787323,-0.13634603,-0.08960164,-0.12285329,-0.035356537,0.036074843,0.019102633,-0.14688723,-0.21521854,-0.09363804,-0.29743093,-0.19914365,0.13198566,0.10278838,-0.00753092,-0.025253076,-0.014205431,-0.061562844,-0.25539687,-0.106027015,-0.056278743,-0.12953393,-0.024642698,-0.108973935,-0.08339952,0.010147586,-0.030173322,-0.046993066,0.038269203,0.02643484,0.031350367,-0.054627754,-0.039961014,-0.099860914,0.13621216,0.039156742,-0.110319294,0.04525569,0.061016142,-0.025804712,0.07096155,-0.038240664,-0.10303573,0.09567389,0.03322787,0.033551447,-0.024865152,-0.006501059,-0.022773985,-0.036123168,-0.039407365,0.070033245,-0.0050958632,-0.039774556,-0.10409138,-0.038990922,0.029158397,-0.06823541,0.04313385,0.04844635,-0.05433099,0.07255516,0.03003238,-0.11369911,-0.1268169,0.08003095,-0.034070056,-0.029844522,0.014460777,0.03529504,-0.022852687,-0.05279297
-0.284672,-0.053417347,-0.0038869514,0.0044658347,-0.05411758,0.056228727,-0.18706924,-0.017359085,-0.037018068,-0.078685455,-0.12365529,0.12083795,0.034139708,0.053385578,-0.0443678,0.027824607,0.078037694,0.033095516,-0.02768734,-0.021834109,-0.18314976,0.06434907,-0.0049516736,0.10340965,-0.014542056,-0.094090976,0.0771725,-0.03323801,-0.043832187,-0.07971431,0.049612954,-0.012760848,0.0023422185,0.036004037,-0.006563396,0.016205149,0.02033271,0.013193377,0.012710131,0.07218792,0.067650795,-0.1080559,0.06774252,-0.020318968,0.080304146,0.1357227,-0.0317667,-0.060251687,-0.020767605,0.036336698,-0.14316434,-0.038198095,0.098259285,-0.009249882,-0.07118389,-0.09198698,0.05801223,-0.16051178,0.16854978,-0.025429834,-0.16319299,-0.021589912,0.02760089,-0.12623356,0.109566964,0.14061292,0.0007404526,-0.07222384,-0.05667076,-0.010272864,0.061723676,0.009223033,0.04881143,-0.060622707,-0.027086094,0.028041264,-0.23954357,0.0982454,-0.0075071543,0.038906496,-0.0031097266,0.023854926,-0.021046102,-0.15730065,0.0639371,-0.015972728,-0.058369033,0.07721532,0.06439711,0.032339383,-0.086143635,-0.07108355,0.023564205,-0.08056628,-0.04781907,0.08647797,-0.0706026,0.07473649,-0.03965861,-0.10434632,-0.13813236,-0.05118315,0.15039812,0.042864177,0.1638638,-0.06903319,-0.09527958,0.04820632,0.09875987,0.060037687,0.07484474,-0.07013745,0.02127183,0.026344495,0.03129561,0.003977444,-0.014809762,-0.019947058,-0.019905228,0.01122273,0.059994195,0.054736875,0.034869324,-0.04206359,-0.15673426,0.051114317,-0.05048816,-0.036049265
0.045161482,-0.09623805,-0.05910911,-0.11525666,0.046649083,0.008168656,0.0040911855,0.022393858,-0.03234211,-0.081362635,0.038538676,0.038694106,-0.024926025,-0.055830266,0.06661392,0.007337872,0.012831073,-0.09054755,-0.0074533196,0.038390163,-0.026442584,0.042211838,-0.0071311505,-0.050542925,-0.092259645,-0.022497699,0.02598659,0.04504493,-0.05788727,-0.040281735,-0.019933317,-0.001946969,-0.082037546,-0.048510797,-0.032393623,0.0044890074,0.0053490615,-0.07241394,-0.05867269,-0.039995927,-0.07432074,-0.0104655195,-0.006642214,-0.09454708,-0.12480045,-0.06175253,0.008507979,-0.08302111,-0.07513304,-0.08237042,-0.09138071,-0.053344525,-0.08603742,0.07745083,-0.07639592,0.041708525,0.05582551,-0.07402731,-0.12033749,0.027289478,0.06316049,-0.061972443,0.017701715,-0.04646183,-0.04955411,0.019527689,0.052987877,-0.015633332,0.032134227,0.06571552,-0.024986971,-0.016737785,0.050764,-0.07083976,0.023570465,0.011286424,0.024237704,0.029887313,0.014468386,-0.021870974,-0.10273015,0.0063665058,-0.09999234,-0.042126767,-0.047342412,0.031074224,0.040253587,-0.035323843,-0.078548804,-0.10819565,0.029108925,-0.038972158,0.054116562,-0.09226779,0.06590389,0.057461668,-0.07914666,-0.0551633,-0.01150774,-0.09737355,0.010811705,-0.0047914893,0.028543472,0.040382992,-0.04091987,-0.018628994,-0.063382484,0.0479257,0.052976318,0.038322832,-0.034670997,-0.044683874,0.013963342,0.04153328,0.07311449,0.034649536,-0.0771747,-0.016173737,0.04062427,-0.037617587,0.06409605,0.07828026,-0.0011541556,-0.063670255,-0.059320312,0.024791155,-0.05295549,-0.11995255
-0.04146125,-0.060196184,-0.11973481,0.016294628,-0.061125346,-0.031366296,-0.095240764,0.05809652,0.010676302,-0.046955254,0.092116915,-0.12762778,0.10901161,-0.275199,-0.0030741224,-0.11791478,0.059731025,0.09745156,0.077151954,-0.13616759,0.0017479078,0.011423634,0.03421333,0.053357042,0.033155877,-0.041120376,0.09543067,-0.016646443,0.04829041,0.05811433,-0.020176748,0.06416317,0.08603859,0.02303516,-0.029606713,0.08352259,0.031996097,-0.012192335,-0.18294872,0.025176566,0.059153553,-0.05532577,-0.038154077,0.009955474,0.03949626,-0.0504367,-0.12540802,0.045186166,-0.17894961,0.016250357,-0.10942396,-0.016949978,0.03281185,-0.043376412,-0.02120372,-0.082461655,0.035121985,-0.19849373,0.007650127,-0.1737926,0.026135562,-0.012346832,0.039542247,-0.14550273,0.03251691,-0.058180537,0.009980467,-0.10825475,-0.24294354,-0.23588869,0.050225925,0.0838614,-0.01550883,0.058750033,-0.105706066,-0.05765374,0.09869565,-0.064665884,-0.02241476,0.08821113,0.16585493,-0.004633548,0.09511096,0.022815257,-0.05441463,-0.080654465,0.074268594,0.016614215,0.022529332,-0.0665118,-0.09386089,-0.07043368,-0.030718554,-0.14646353,0.09038884,-0.015667224,-0.19861309,0.0695854,-0.053731654,-0.0075296904,0.008527496,-0.030236548,-0.025276026,0.010519102,0.027986206,0.085798234,0.018475309,0.0075318418,0.011959353,-0.0345753,0.08348849,0.05874259,-0.106180415,-0.016275024,0.04432504,-0.03286235,-0.10129884,0.0684247,-0.1278252,-0.038193367,-0.041429944,0.030485025,-0.10324546,0.06647327,-0.029956862,-0.016013088,0.019086797,0.07905769
-0.13376659,-0.017209267,-0.036114275,0.047902822,-0.072911784,-0.07081189,-0.12370267,0.05170936,-0.042378463,0.055288896,-0.07289247,0.010658491,0.016144834,0.0062473393,0.027499216,0.089665905,-0.059834074,-0.08660409,0.06075759,-0.16250664,-0.03194759,0.010067921,-0.030514453,0.0074596093,0.0180566,0.03409149,0.0486229,0.05537567,-0.1397925,-0.08736311,-0.066739626,0.046583936,-0.07436798,8.977452e-05,0.036037136,-0.09999758,0.095685914,-0.06761698,0.057863303,0.0007569494,0.0039473698,-0.122157864,-0.04255894,-0.07137974,-0.08955364,0.039980207,0.0076445085,0.064456016,0.15799968,-0.35162136,-0.07225441,0.01761613,-0.00333102,0.092915,0.05580674,-0.09257659,-0.071720146,-0.28433445,0.06744505,-0.0791369,0.09704938,-0.020922698,-0.04797808,0.0353724,-0.03547494,-0.033404812,-0.044589743,-0.10453286,-0.068555586,-0.00406806,0.087675385,-0.056295756,-0.047415577,-0.06715093,-0.2747144,-0.07319712,-0.07462551,-0.046232644,-0.078225054,-0.108831234,-0.051987924,0.088508315,0.027486214,-0.0015937174,-0.09186731,0.008206639,-0.025498452,0.015769871,0.015333148,-0.024345584,-0.051549166,-0.043121807,-0.013304563,-0.19731578,0.07989127,-0.036813155,0.011945565,-0.054264836,0.027091434,-0.063808605,-0.25649503,-0.03365936,0.0864256,0.0066058226,0.056823146,-0.05946916,0.036580298,-0.024157142,0.0929977,0.033749804,-0.056382105,0.07333371,0.06521707,0.037942953,0.09972955,-0.06074809,-0.09149622,-0.045913782,0.051824283,0.0662461,-0.24222775,0.06024942,0.0692778,0.028356291,-0.07535892,0.09824086,-0.0014061771,-0.021817988
-0.05917569,-0.15751868,0.022319024,-0.14165875,0.031889435,-0.10249762,-0.026497025,-0.06502579,0.07263997,-0.039736178,-0.052575964,0.175581,-0.016385969,0.024996508,0.069528066,-0.04590003,-0.010469347,-0.025748894,-0.06211388,-0.049769085,-0.10272323,-0.1704105,-0.10000389,0.0037140346,-0.004429385,-0.04160923,-0.02997881,-0.124236144,-0.032716237,-0.06245119,-0.11733799,0.012563369,0.017028777,-0.07443103,-0.013715572,-0.014791819,-0.08803481,-0.1449574,0.022500202,0.0165611,0.008116927,0.051400278,0.022415422,-0.14254227,-0.077421196,-0.12094513,-0.15340763,0.01244306,-0.037322823,-0.018169722,-0.053605612,-0.120211944,-0.084910244,0.00898209,0.07146698,-0.21017213,-0.1143332,-0.0073535712,-0.10535776,0.054636184,0.010783541,0.02147479,0.051451262,-0.01731738,0.112067245,-0.0426141,-0.16364445,-0.16546877,-0.024990791,-0.08435482,-0.048141345,0.0075879837,0.03014468,-0.11524769,-0.10460363,-0.10691229,0.049001765,-0.07918019,-0.13956515,-0.060012065,-0.06741107,-0.019834599,-0.14336045,-0.14356267,0.04852735,-0.11725028,-0.076544456,-0.15489651,0.008421919,-0.123193175,-0.09830258,0.036083717,0.012587646,-0.011395135,0.0040238444,-0.090288855,0.0026439626,0.013328105,-0.08152045,-0.10068575,-0.0011404327,-0.09765212,-0.18326117,-0.0016227906,-0.023982095,0.06425293,0.006575445,0.004566234,-0.13558742,-0.009153275,-0.19402538,-0.010838425,-0.013123661,0.0011792136,-0.076324284,-0.03481083,-0.0021100177,0.07558278,-0.029722797,0.01395332,-0.05889565,-0.04321565,-0.044514753,-0.03195497,-0.06313236,-0.07533362,-0.055645254,-0.11739759
0.039105386,0.31197447,0.022559673,-0.00017378556,0.040833116,0.15926893,0.1252925,-0.06756093,-0.0733955,0.11872942,-0.12870134,0.32561278,0.034535464,-0.1819803,0.070002936,0.009188419,-0.011838453,-0.0013818594,0.08420506,0.14987119,0.018552627,-0.023561675,-0.061829507,-0.056678988,0.013003136,0.021375319,0.06381568,0.012075959,0.089198634,0.026947357,0.08149428,0.071567,-0.16699243,0.24877332,0.0224116,0.109344125,-0.05010769,0.15270546,-0.28937313,0.0049634483,-0.11417153,-0.2958636,-0.023923459,-0.15486497,-0.055209532,-0.18227643,-0.00019992443,0.05770723,-0.31681818,-0.124361835,-0.0128573915,0.011167165,0.02894946,0.06773508,-0.24346083,0.05329691,0.083981074,0.03281719,-0.29370078,0.093844086,-0.07868448,-0.057574783,-0.10937451,-0.24276936,-0.16098289,-0.06351897,0.10802977,0.17330223,-0.057669252,-0.17065696,-0.05169452,0.025634918,0.062266294,0.02996175,0.2857326,0.010067846,-0.03942172,-0.088694714,-0.089647196,0.071299,0.13098416,-0.25190505,0.06545728,-0.10797693,-0.03459864,0.07945778,-0.06917246,-0.015120691,-0.014086481,-0.03730725,0.009698018,-0.0040660673,-0.1639255,-0.31896737,0.022593508,0.088343225,-0.043197792,0.046503995,-0.10078534,-0.1313801,-0.4102662,-0.07579201,0.1848689,-0.02322301,-0.19018923,0.09670112,-0.06085564,-0.06331522,-0.036823045,0.029496867,0.076597534,-0.09005018,-0.022756705,-0.00016295625,-0.027919343,-0.0868012,0.057223264,0.06987326,-0.4080976,-0.04125597,0.19467264,-0.016939368,-0.113107026,-0.1593517,0.10171526,0.065083854,-0.070611715,0.07601587
-0.01134538,-0.049011506,0.043114334,-0.0870189,-0.021305008,-0.039946035,-0.015040907,-0.012419908,-0.03643525,0.048804395,-0.05197534,-0.06883019,-0.059648912,0.01845845,0.07456727,0.037855837,-0.016787158,0.02793413,0.071160905,-0.044430725,-0.072316825,0.028707687,-0.062992066,-0.06075935,0.022963846,0.030736778,-0.07989892,-0.016621754,-0.02096659,-0.04819083,-0.096973725,-0.0060904277,-0.05855207,-0.064578734,-0.049143363,-0.034061037,-0.023742098,-0.07019027,-0.086407736,-0.0032004241,-0.09234108,0.038519796,-0.1111168,0.03656324,-0.0239798,0.046029583,0.009983353,0.01744086,-0.02306048,-0.0051423497,0.014568279,0.04619474,0.02746326,0.05794875,-0.006427532,-0.009357507,-0.0518371,-0.067223996,0.017243652,0.011584951,-0.05790842,0.028221203,0.035626564,-0.07494578,-0.0507582,0.008652737,0.02175916,0.06464442,-0.031932373,0.0133202765,-0.047957517,-0.08679518,-0.09509914,-0.06700102,-0.08287313,0.019460531,0.010052187,0.06405977,0.030292895,-0.005956905,-0.08360241,-0.021696206,-0.009664505,-0.07168696,-0.10561771,-0.019238528,0.039037567,-0.05908899,0.0073172287,-0.06790546,-0.048765313,0.006048728,-0.05631048,0.013509726,-0.040809706,0.004604079,-0.08912955,-0.016225388,0.009605562,-0.057239257,0.016510475,-0.043577205,-0.027924875,-0.09009319,0.0049391687,-0.06489238,-0.08571433,0.054011457,0.055771317,-0.048656326,-0.01976987,0.016197627,0.052593432,-0.05526069,-0.033771705,-0.059292894,0.06439536,0.011875851,-0.07435535,0.021018846,-0.06657166,0.05960244,-0.052090578,-0.03151117,0.054359112,-0.06560407,0.0018953292,-0.026721843
-0.1257518,-0.19822226,0.016441088,-0.0035164545,0.066193804,-0.2058386,-0.069822334,0.07931999,0.017236503,-0.024596678,0.16035272,-0.03733671,-0.03889244,-0.08346282,0.027500656,-0.042414267,-0.07001742,-0.083686665,-0.01647199,-0.1819883,-0.024320938,-0.03507902,0.081561476,0.06564526,0.04128131,0.019965136,-0.072077185,0.054642726,0.093659796,-0.12422589,0.014910997,-0.068210654,0.042719197,-0.006103417,-0.06065756,-0.09273367,-0.06866892,-0.18047935,0.11522114,0.05449972,-0.06557019,0.09780544,-0.03841422,0.0335102,-0.10489577,-0.07956789,-0.13635781,-0.06192512,-0.010424143,-0.04515982,-0.0369572,-0.079213135,-0.085279934,0.023103172,-0.17406945,-0.103113964,-0.116376445,0.046729974,-0.0028500862,-0.107256494,0.04845201,0.047558527,0.022140628,-0.06432254,-0.17402343,0.13641572,-0.18701948,-0.09730037,-0.09960181,0.015761387,-0.013245571,-0.036591254,0.0064725657,0.0760693,-0.4006658,0.014262363,-0.15861712,-0.045449376,-0.053468958,0.04674881,-0.13250779,-0.048646715,-0.031532925,-0.10683159,-0.038949784,0.05128084,-0.030996455,-0.04167619,-0.07318869,-0.010805795,0.038393304,-0.04151155,-0.07030914,-0.050277967,0.016476331,0.10810281,-0.0042209644,-0.049311407,0.00040117573,0.21567462,-0.0403395,0.035078313,-0.022754222,0.015192415,-0.06325651,0.009236031,0.04047937,0.082119174,-0.037560422,-0.054714695,-0.03468552,-0.020348456,-0.08381254,-0.09729828,-0.015867926,0.0056085107,-0.105346985,-0.03077927,-0.09166499,0.013644669,-0.10961336,0.06478187,-0.048236165,0.075279705,-0.18690336,-0.011784976,-0.02354838,0.0010897556
-0.1448478,0.17899777,-0.0201714,-0.31986853,-0.009557788,0.1381408,-0.2477538,-0.077288724,0.09400055,0.034907326,0.078921996,-0.008097364,-0.3636118,0.32507363,0.031215778,-0.17058533,0.09145234,0.035282698,-0.04426094,0.10740753,0.12083341,0.020267783,0.07727654,-0.05256721,-0.0042195683,-0.08351057,0.09497112,-0.035007592,0.012533515,-0.025247164,0.15094097,0.07676855,-0.029447522,0.05091149,-0.01970051,0.114887305,-0.023966385,0.047027666,0.07085372,-0.02969334,-0.36256233,-0.25037217,0.08170061,0.04226113,-0.009487062,0.090238154,0.20817833,-0.037963677,0.2912339,-0.0011860428,0.02621001,-0.04127911,0.031176893,0.055131916,-0.09201023,0.041264467,-0.19134419,-0.014071275,-0.26987898,-0.01043089,-0.010961637,-0.029077034,-0.04935652,-0.36183903,0.12690312,-0.17939185,0.07315117,0.17553863,0.094280876,0.0963577,0.0062157954,0.016110353,-0.005198215,-0.6496454,0.06745035,-0.057715733,-0.24472411,0.07646768,-0.017623007,-0.045212034,-0.040534783,0.21610634,0.01131166,-0.2631134,0.05070926,-0.08282226,0.06747763,0.09407403,0.02190443,-0.10226302,0.11392438,0.02112836,0.079602525,-0.52963805,-0.021428596,0.016117435,0.061396472,0.041556038,-0.44897157,0.0870209,-0.07401787,-0.16392323,-0.02831254,0.04334161,0.23256373,0.091753624,-0.0006163409,-0.05498409,-0.0053626015,-0.05243233,0.015473447,0.021988086,-0.2128024,0.0068922956,0.065762535,-0.065343134,-0.2801179,-0.04171088,-0.36802587,0.07599834,-0.047338594,0.058680743,-0.31822515,-0.14851029,-0.1641289,-0.040386666,0.00950631,-0.07992128
0.05170508,0.022646118,0.05954192,-0.060267664,-0.077131644,0.018000122,-0.011377299,-0.065989174,-0.064226806,0.055899452,0.050629806,-0.012821202,-0.09168297,-0.08897771,0.039367195,0.010654681,-0.04492326,-0.08767531,-0.012453612,-0.10736977,-0.08086246,-0.05402001,-0.0015426856,-0.06356399,-0.05969608,0.05787835,-0.01725606,-0.082143724,0.024953438,-0.08666528,-0.06304671,0.06960555,-0.06432157,-0.0084605105,-0.046459015,-0.0027953763,-0.0011534389,-0.10596631,0.013911128,-0.008070792,-0.031726364,-0.010608971,-0.076529644,-0.10843323,-0.0040672114,-0.028673733,-0.036315493,-0.063237496,0.05459683,0.011273128,-0.047030274,0.03755278,-0.0046211793,0.062485527,-0.07090244,0.024825389,-0.047793407,-0.08388736,-0.081483796,0.027173152,-0.009064225,0.07014638,-0.0608458,0.027269341,-0.018109778,-0.028397648,0.03912753,-0.013386559,0.06520027,-0.034066446,0.015616163,-0.047620166,0.01985782,-0.03966051,-0.044364568,-0.09098073,0.071595624,-0.09068676,0.035637427,-0.06818939,-0.020945122,0.02943145,-0.043861803,-0.03410212,-0.05050992,-0.022895312,0.0019745738,-0.0843749,-0.018087892,-0.08038428,-0.08727471,-0.034543462,-0.025565011,-0.09596023,-0.032962363,0.038999375,-0.0064983536,-0.026703784,-0.07840608,0.012295625,0.030575724,-0.034272004,-0.0042007715,0.011944428,0.039894264,-0.038391855,0.0464479,0.05428716,-0.02436776,-0.07554397,-0.1216112,-0.09637459,-0.07296996,0.071445465,-0.078883104,-0.05477214,0.054643493,0.034418825,-0.024004744,0.023917899,0.03337973,0.07626065,-0.0657698,-0.10500619,-0.08558394,0.049519166,-0.06953867,0.052042555
-0.09674986,0.046789072,-0.013430824,-0.02586474,0.009921535,-0.03095656,0.016476283,-0.0703277,-0.08478449,0.028653232,0.009172646,-0.018744191,-0.074797764,-0.06874969,0.0036880956,-0.07984009,-0.049504027,-0.0632327,-0.054533906,0.042138916,-0.03199274,0.04114505,-0.097537026,-0.09163113,0.069381714,-0.0034035146,-0.004812312,0.035696257,0.06345472,-0.049851052,-0.0038830424,0.008058761,-0.08727748,-0.06604754,-0.06349516,0.06487754,0.07366405,0.064874664,-0.083455846,-0.026183957,-0.07315373,-0.06370123,0.04261389,0.01982182,-0.12635863,0.04562624,-0.024730239,-0.031511206,0.030827941,0.029540094,0.044090055,0.04424459,-0.03658706,0.07605095,-0.09578522,0.04458061,0.07535885,0.012042509,-0.034079544,-0.04386081,0.027819715,-0.067459084,0.0150621785,-0.01307195,0.023918351,-0.0362644,0.04952953,-0.08523703,-0.06664268,-0.08021663,0.033495903,-0.061329767,-0.073483445,-0.08162919,-0.04985443,-0.09740138,0.047320794,-0.036998626,-0.0063151596,0.06693133,-0.083916426,-0.054600056,-0.035007536,-0.0400892,-0.004391955,-0.014727667,-0.018914087,0.06060101,-0.08534921,0.010771635,0.007882732,0.023587937,0.018011056,-0.042269472,0.010603021,-0.014869783,-0.075555004,0.022249874,0.036719434,-0.033841413,-0.07476175,0.016797833,-0.05801161,-0.0056496756,0.030781437,-0.009179599,0.06732661,-0.05602332,0.049192313,-0.07946861,0.035593722,0.07012813,-0.08881164,-0.05766393,-0.039765913,-0.09719311,0.038493823,-0.05183761,0.053000234,-0.08873477,-0.058401693,0.07178222,0.0031058656,0.036894806,-0.042823184,0.010528218,-0.004736972,-0.074156255
-0.29889333,-0.016923346,0.06736785,-0.063504905,0.025045253,-0.12901422,0.010970494,0.09597196,0.009230574,-0.041017197,-0.10630389,0.1263729,0.0032114554,0.12417737,0.092219286,0.080738254,-0.06754087,-0.13925272,-0.018933313,0.049478013,-0.037385672,0.012178077,-0.029880248,0.006502707,-0.07726697,-0.058972027,-0.08487837,-0.065888,-0.13334022,0.02771191,-0.13046722,-0.07002778,-0.112040594,0.08746377,-0.021870583,-0.08371311,-0.018284364,-0.0783338,0.06707049,-0.057149123,-0.123960465,-0.07085372,-0.07672843,-0.056537136,-0.01043179,-0.028340884,0.0685372,0.014094349,-0.04560251,-0.09937324,-0.18427001,-0.037519634,-0.052147485,0.044170905,-0.09768072,-0.032936804,-0.057466853,-0.09029496,0.008247602,0.004144371,-0.11824614,-0.019072091,-0.04599174,-0.11394501,0.1543127,0.07876389,-0.054672144,-0.03837658,-0.20777084,-0.19728674,-0.03895831,-0.0013011128,0.013762239,-0.044092935,0.10335324,0.034827363,-0.19286112,0.04211586,-0.03494785,-0.026720006,-0.086443715,0.043130327,0.051012233,-0.020222023,-0.07882994,-0.11224097,0.035777997,-0.11840031,0.01782702,-0.050754543,-0.07506921,-0.029891925,-0.031630844,-0.06918178,-0.014646991,-0.04499222,0.034413464,0.053256564,-0.019564567,-0.028157929,-0.26809153,-0.05780007,0.20017184,0.014441497,0.015552218,0.020943511,-0.02311927,0.053091925,-0.07793393,0.002602423,0.038808327,0.057110615,-0.09439839,-0.09375896,0.013987495,-0.022667907,0.0049535297,-0.055808745,-0.013445692,-0.043620504,0.02529775,0.09244948,0.0869358,-0.055595353,-0.085361145,-0.05737354,-0.022310026,0.0023464153
-0.078536175,-0.105026305,-0.01052488,0.026216649,-0.02629063,-0.11280534,0.0016855039,0.066859104,-0.046789974,-0.056851935,0.0572719,-0.1449028,-0.07558566,-0.12563948,0.00016212933,0.091437384,0.03333473,-0.14152941,-0.03566085,0.015044718,0.053295292,0.0054966854,-0.04805164,-0.0067496654,-0.057649195,0.047485095,-0.06789148,0.09708458,-0.06915494,0.04399493,-0.17112361,0.023025293,0.04310901,-0.010195994,-0.00032439138,-0.12178558,0.06602532,-0.15774661,0.07933647,-0.0071087955,-0.085166834,-0.030439528,-0.06777892,-0.01874674,-0.08572011,0.017021036,-0.06893722,0.028768044,0.06394225,-0.040821712,0.11357303,-0.02066682,-0.13130933,-0.07272574,0.018369112,0.00025050243,-0.19827986,0.0512038,0.062112246,-0.050493788,0.025337957,0.0045549353,0.027669713,0.16061862,-0.16149098,-0.049903695,-0.14323978,0.048894797,-0.07539536,0.10790152,-0.005743877,0.07769287,-0.05968359,-0.03698816,-0.08535964,-0.0062281108,0.06862225,0.01031984,-0.021136697,0.024816422,-0.0490856,-0.066559486,-0.08032995,-0.044179767,-0.063274264,-0.015647149,0.034888227,-0.060697373,0.040234994,-0.10903988,0.014870112,0.049330354,-0.07523657,0.057173703,0.05888467,0.060872365,-0.014999759,0.047784947,-0.06246549,0.06716211,0.07110229,0.086462215,0.029064177,-0.04538534,0.04635122,0.08429686,-0.030579556,-0.031047758,-0.015467534,-0.011299118,-0.0356701,-0.07164815,-0.010330097,0.03735664,-0.026352476,-0.06946421,0.044921424,0.09034075,-0.0113244215,-0.088184245,-0.1297093,0.02787684,0.015593093,0.16481283,-0.14703588,0.08882929,0.07537822,-0.11815941
0.13611522,0.25625306,-0.006890464,-0.04652826,-0.052646417,0.22122838,0.16955037,0.04028645,-0.0021594972,0.29734057,-0.03337068,-0.051261783,0.055225205,0.105687074,0.06218434,-0.4581568,-0.03492996,0.22250304,0.03650903,0.2517947,0.2737335,0.046253048,-0.07186621,-0.032477275,-0.0018276446,-0.015063177,0.19953558,0.40343443,0.09180464,0.12901482,0.18414032,0.0777829,-0.098963805,0.27912486,0.036823288,0.05189422,0.04483318,0.16975397,-0.6469888,-0.019574828,-0.057642106,0.16959356,0.12928742,0.024343032,0.06362925,0.088043414,0.04096801,-0.06539965,-0.19928603,-0.048807085,-0.24147971,-0.0139787225,0.23293255,-0.050763465,0.262737,0.24705797,0.2002149,-0.0089212665,-0.17514248,0.14202534,0.10369654,0.03199196,-0.1503859,-0.12782866,-0.10615745,-0.06561191,0.17190999,0.22692698,-0.795665,-0.71594733,0.007719505,0.034574896,0.094156876,0.03570065,0.3137387,0.057275895,0.4020101,0.10027428,-0.47103328,0.025034886,0.114662714,0.067895114,0.1227435,0.1725754,-0.05072531,0.0024758037,-0.12065058,0.024260333,-0.062681384,0.061651748,0.028385425,0.057492536,-0.035793193,-0.8178936,-0.037318088,-0.09509767,-0.06734857,0.055339925,-0.3501365,-0.19132002,-0.0386452,0.03213741,-0.0762531,0.024831014,-0.04226197,0.0061231675,0.07342157,-0.06448822,0.13401322,-0.08881464,0.048527215,0.068639025,-0.33605823,0.08791499,0.0681093,-0.03270948,-0.06732352,0.054576565,-0.11982643,0.053346436,-0.043627895,0.025746377,-0.2686955,-0.2946649,0.012304313,0.0025840627,0.011940921,0.21616444
-0.21783085,-0.14230846,-0.026436036,-0.028816119,-0.06340875,0.07667189,-0.1917114,0.024134273,-0.018995516,-0.19588046,0.05975822,-0.06530817,0.02086929,-0.06875241,-0.021695666,0.064630315,0.0087388465,-0.10817054,-0.04492774,-0.090234704,-0.1135057,-0.08752411,0.053557314,0.029613057,-0.058737926,-0.018944617,-0.04408899,-0.06079949,-0.13464293,-0.015316322,-0.34850848,0.0047079413,-0.78523284,0.0042696046,-0.08584551,-0.1905373,-0.05130985,-0.05713326,0.14009939,0.009524135,-0.036170524,-0.10049332,-0.10827424,-0.020630084,0.109695174,-0.06276931,-0.08085601,-0.075909406,-0.05973125,-0.17489098,0.14213902,0.026850225,-0.3501089,0.020629434,-0.055057786,-0.10118828,-0.018869875,0.03227995,-0.0014789441,-0.083521634,0.050937872,-0.04777727,-0.07727324,0.42767426,-0.17039962,-0.0418356,-0.1584349,0.07718049,0.070027895,0.026071126,0.04555473,-0.040571995,-0.07505656,-0.061896753,-0.12049505,0.1809473,0.0053852275,-0.049836535,-0.118291,0.030625645,0.04090723,-0.019841023,0.023557326,-0.16382618,-0.014369056,0.054398213,-0.020494485,0.027906792,-0.062878594,-0.09346457,0.073883414,-0.038090754,-0.27588534,-0.17536114,0.022376955,-0.043914866,-0.05191231,0.008262647,0.044466786,0.037044846,-0.0051164464,0.051544257,0.14487419,-0.007168695,-0.058908373,-0.00400109,-0.025486708,0.030928575,0.019935016,-0.05230487,-0.09938637,-0.13028973,-0.0073864292,0.11157128,-0.06352322,0.094139144,0.23338355,0.059825085,-0.08725646,-0.058177162,-0.24723756,0.086503185,0.076070316,-0.16133837,-0.15525292,-0.054171197,-0.028978582,-0.050544012
-0.049411863,0.03816295,-0.02588029,-0.22448742,-0.007838132,0.03491694,-0.05770783,-0.063029125,0.07925371,0.0706111,-0.1404333,-0.15580799,-0.14252448,0.08324021,0.037910525,0.0067027947,-0.004829759,0.07779569,0.058285814,0.019036844,0.0353214,-0.00015207476,-0.021916643,0.046619974,0.036514483,-0.12329513,-0.05345614,0.062094614,-0.17103428,-0.121583804,-0.15819162,-0.007365458,0.2093233,0.025783867,0.06279186,-0.01727578,0.0175913,0.044630803,-0.071569666,-0.006959809,0.027620794,0.014199887,-0.00026717133,-0.017928066,0.032706738,-0.05039594,-0.123662554,-0.009183835,0.05155952,0.14292033,-0.030466152,-0.038191594,-0.023725675,-0.019877778,-0.060053222,-0.11501303,-0.094278224,-0.07646512,0.007820755,-0.22268464,0.01940682,-0.07400534,-0.092782594,0.071572974,-0.020018477,-0.1221591,0.0738734,0.012601223,0.027751768,0.1083184,-0.012308708,-0.0037626843,-0.13809535,-0.05962179,-0.14129013,-0.026314924,0.0069939685,0.055653628,-0.013167045,-0.019637415,0.09104899,0.028722832,-0.0003326045,-0.022086782,-0.058416888,-0.10642203,0.03450102,-0.03113726,-0.07237622,0.01728167,-0.06859478,-0.023759516,-0.078576244,-0.16750656,0.03189734,0.046801105,0.07233235,-0.02301488,-0.31523308,0.08559295,-0.12310506,-0.24494264,-0.2115333,0.010699856,0.074066035,0.094022706,0.089853495,-0.0021097332,-0.004786261,-0.14475994,0.10387719,-0.056116816,0.038325127,-0.10769161,0.002971932,-0.07600474,-0.028967416,-0.03141977,-0.11676018,0.1588849,-0.005067124,0.042134188,-0.16927023,0.113494344,0.015552727,0.09855843,-0.067801125,0.06410097
-0.08540093,-0.06662185,-0.023836171,-0.034628484,-0.02039361,-0.049480226,-0.01962499,0.053506356,0.06502678,-0.086788125,-0.058312744,-0.07023778,-0.09870071,-0.09538278,0.040796757,-0.013577416,-0.021440767,-0.08843277,-0.028600683,-0.09737246,0.027778715,-0.08173879,-0.07802776,-0.02422334,0.012007866,0.028084291,0.06077193,-0.08034978,0.029959131,-0.061113548,-0.059054982,0.040597316,-0.012146346,-0.07928364,0.0020649624,0.026707,0.051996734,-0.068114795,-0.074757315,-0.04482145,-0.010287385,-0.022531362,-0.036661875,0.05847311,0.005943293,-0.018952128,-0.08649838,-0.016638547,-0.060771063,-0.01609191,-0.0067318496,-0.02092944,-0.1265899,0.046131607,0.049798846,-0.1285274,-0.08960901,0.07062922,-0.07125667,-0.079675645,0.03767392,-0.0380353,0.03648363,-0.024913043,0.04994997,0.01296813,0.053380225,-0.06377787,0.0534722,-0.03846319,0.02557198,-0.04335828,0.016471116,-0.073842816,-0.050449714,-0.0015063212,0.009261108,-0.11328633,0.012633385,-0.053572893,-0.23464353,0.028872158,0.019968605,0.024041852,0.03201663,-0.08204025,-0.031352606,0.0643175,-0.028858846,0.035338935,-0.06268953,0.050957166,-0.1569009,-0.041768845,0.025263602,-0.057855688,0.031781826,0.024346827,0.005525662,0.056543235,0.027989417,-0.035122506,-0.02637003,-0.10827208,-0.06435752,-0.05113401,-0.026564471,-0.090810195,-0.00432661,0.00864619,-0.15177907,0.003957641,0.033880092,0.02955572,-0.0096384175,-0.11373954,-0.032816455,0.06926558,-0.0005435248,0.00087610225,-0.08556356,0.052722022,-0.08246435,-0.054133337,-0.011604103,0.07945074,0.07322107,-0.06279692
-0.10196793,-0.04715512,-0.02239192,-0.10278734,0.080980465,-0.06353735,0.0321596,0.019582123,-0.035710465,0.053629972,-0.07135326,0.07661665,-0.045193274,-0.069094546,-0.05056534,0.07734349,0.03889822,-0.024476293,-0.034043983,-0.024787871,0.025030095,0.00608109,-0.051028837,-0.0032400507,0.07854601,-0.015316535,-0.09817265,0.03452459,0.07455773,0.018649947,0.020514252,0.057595026,-0.020519048,0.04750571,0.07257404,0.11626428,-0.06975626,-0.028104665,-0.025846917,0.08083827,-0.42206666,-0.16378123,0.0087256,-0.090479314,-0.016434105,0.038796064,0.10527346,-0.038611278,0.03292394,-0.19824028,0.05656285,-0.03317427,0.02654497,0.021616355,-0.0587239,-0.05657718,-0.00022167455,-0.0687228,-0.15257248,0.056397017,0.023731425,-0.00020094648,0.0091599785,-0.13152362,-0.06611254,0.068774454,-0.021263193,-0.08354572,-0.0680069,-0.20117424,-0.038360525,-0.07283298,0.018972466,-0.094783224,-0.1961099,0.09221667,0.09146434,-0.036187906,-0.012569262,0.072434306,-0.06567841,-0.016779901,0.0122466935,-0.06588974,-0.09336604,-0.025209047,0.059875015,-0.18526249,0.055851776,0.050527837,0.03483373,-0.07367716,-0.025865456,-0.2718903,-0.03191888,-0.02096645,-0.03939856,-0.044577714,-0.009150324,-0.10329515,-0.021955008,0.03604679,0.064159654,0.012125727,-0.084029235,0.014018328,-0.09582873,0.08057361,-0.07699662,-0.04422259,-0.021677932,0.01653521,-0.021150032,0.046707623,-0.0657098,-0.012695801,-0.077202074,0.026992753,-0.012470821,0.071271926,0.055639595,0.035031438,0.0039597866,-0.26471308,-0.14655504,0.06178084,0.019335732,-0.09087582
-0.10421272,0.207315,0.031816315,-0.12199544,-0.020473009,0.14339954,-0.08978982,-0.023577124,0.020948274,-0.06442323,-0.10899684,-0.13834217,0.12933606,-0.20780227,-0.08657492,-0.19818613,0.02635351,0.12198112,-0.07805829,0.04975346,-0.07973923,0.12071522,-0.0740993,0.054074015,-0.015513424,0.102568835,0.084716775,0.090751395,0.10254323,0.024174599,0.013440884,0.041732002,0.07715613,0.05967697,-0.0494282,-0.031849764,0.03111429,0.096343085,-0.25684956,0.026446428,0.06226157,-0.19594702,0.0670448,0.062095232,0.10453253,0.14220442,-0.0036503524,-0.028468031,-0.10979282,0.037320253,-0.1180953,0.07121463,0.07276722,0.013233084,-0.023799382,-0.01852613,0.14865795,0.11488534,0.19863127,0.041127015,0.099363066,0.07045229,-0.19168308,-0.20272174,0.010509005,-0.2214636,0.06965992,0.01788006,-0.2469659,-0.28474125,0.12457414,-0.09245823,-0.054775763,0.15821713,0.16131158,0.1262823,-0.063219205,-0.0047596977,-0.047902137,0.049101613,0.15851654,-0.16985247,0.19910277,-0.15989028,0.06142792,0.07152914,-0.10503736,-0.019317754,-0.033262502,0.02428021,-0.009152484,-0.027423864,0.14216511,-0.030179372,-0.04405365,0.07421352,-0.20950969,0.018213687,0.010002871,-0.0578641,-0.100581266,-0.021340882,0.20109938,-0.02367127,-0.055098932,-0.081315845,0.059004106,0.030620947,1.730375e-05,0.11117084,0.12181184,0.06534931,-0.21245761,0.038512554,0.06913677,0.13482544,0.045184717,0.034434225,-0.17382391,-0.08973922,-0.08947489,-0.014348954,-0.038595643,0.113796234,0.020244345,-0.0176488,-0.094701014,0.14633198
-0.03980531,0.024936594,-0.040550813,-0.0721957,0.00022362066,-0.005347441,-0.09099819,0.0070104357,0.07940457,0.1460057,-0.05505204,0.00073507964,0.24343653,-0.16077492,-0.03378416,-0.23259321,-0.08910577,0.1044201,-0.062603705,0.028392991,0.03315499,-0.08650629,-0.09141463,-0.06697565,-0.032217395,-0.030832116,-0.021594074,-0.05064333,0.27260843,-0.0066784346,0.070127904,-0.02918004,0.188816,0.065985456,0.012282842,0.12048748,0.015755307,0.07219065,-0.42018056,-0.057481952,0.24189411,0.0007771097,0.062096424,0.11431429,0.08604975,0.14796457,0.013155234,-0.03824895,-0.18974106,-0.027380854,-0.09640595,-0.023291983,0.1550194,0.06225641,-0.17190932,-0.01515802,0.16530658,-0.10266625,0.10780904,-0.075715475,-0.09273829,-0.065791994,-0.28071925,-0.199532,-0.20478767,0.12183832,0.09387778,-0.046306267,-0.531815,-0.37659627,0.06479916,0.06049559,0.0050206026,0.06882873,-0.11572503,0.010861815,0.12330416,0.091987096,-0.22369765,0.06362143,0.14019014,-0.1709776,0.16797002,0.033613198,0.022269368,0.03685242,-0.049329024,0.019224435,0.04561723,0.045265425,0.018176008,0.014339536,0.09666032,-0.16201337,-0.024363266,0.052617647,-0.2989903,0.021396484,-0.10667927,-0.01768324,0.101965554,-0.069926806,0.15033095,0.043351233,-0.13925883,0.010659849,-0.072333515,-0.086739264,0.10235967,0.06408383,0.22243531,0.10128044,-0.1659282,0.02943718,0.019880932,-0.057634413,-0.17344077,0.015192646,-0.06477498,-0.12859498,0.0003216929,0.030085463,-0.22181714,0.1258004,-0.07182193,0.013419559,0.02307842,0.09960315
-0.050648667,-0.04635617,-0.089160375,0.04850497,0.086144,-0.11107174,-0.072490804,-0.00025468736,-0.00014958289,0.07875013,-0.11148493,0.039467048,-0.10510187,0.009990223,0.06833159,-0.05179984,0.02002889,0.038305487,-0.0036569126,0.02996036,-0.057817534,-0.10740432,0.05588079,-0.0742222,-0.037675887,-0.030930763,0.014635422,0.044558924,0.02187077,-0.0780157,-0.07082125,0.053920574,-0.097562335,0.011656232,-0.06463183,-0.09141319,0.0938824,-0.078666195,-0.06895755,0.025885891,0.012412959,-0.043185707,-0.07869844,-0.08993989,-0.030811228,-0.03788531,-0.06524026,0.07105765,-0.009928975,-0.097510606,-0.062900275,-0.0245052,-0.09667133,0.005702208,0.070525154,0.011813223,0.0207235,-0.073816285,-0.02645821,-0.071125075,-0.07314518,-0.07971506,0.016776744,-0.007148024,0.020180002,-0.030469365,0.049336094,-0.039254166,-0.029020067,-0.054780006,-0.034692653,-0.068683684,-0.020887136,-0.06389209,-0.08296151,0.04993553,0.043420397,0.03362915,0.058199313,0.07677896,-0.036378622,-0.08181421,-0.013295977,-0.057442557,-0.043130342,-0.029466014,-0.06371934,0.06172248,0.07984033,-0.036269818,-0.029624552,-0.07483752,-0.012321143,-0.06341972,0.011443372,0.020169644,0.03269103,0.07713952,-0.00833769,0.0313322,-0.03608899,0.019067122,-0.0033398727,-0.051037923,-0.042020068,0.05841662,-0.07274991,-0.04742678,-0.025166545,0.0050600828,-0.12597682,-0.08163343,-0.028152617,0.04861939,-0.03436397,-0.042064536,0.010581736,0.06504861,-0.031103373,0.06823389,0.07572397,0.04344818,0.023205008,0.015909543,0.026155854,0.08422688,0.074669324,-0.03777833
0.10957668,0.12435428,0.095903754,-0.032242227,0.01734162,0.09192351,0.014341877,0.06760636,-0.009342715,-0.11896513,0.13989408,-0.121989235,-0.1783083,0.05758051,0.07136016,0.025870213,0.042799983,0.043958295,0.04350359,-0.082442224,0.15833016,-0.13333364,0.04577494,-0.08480786,0.009995115,-0.13431957,-0.05354232,-0.2605311,-0.069768354,-0.052879717,-0.19609083,0.08572923,0.050369,-0.04922953,0.005489081,-0.06464562,0.05594782,0.008397477,0.0662063,-0.026963264,0.043800727,0.011081964,-0.03309421,-0.06968194,-0.11071507,-0.13967636,-0.07454212,0.003846886,0.013662014,-0.15279181,0.08197173,-0.048416115,-0.18663687,0.038593143,-0.030117244,0.09442005,-0.43691188,0.03147216,-0.23891465,-0.061831694,-0.10784749,0.0034532303,-0.10237779,-0.12219264,-0.103044264,0.010107213,0.024005605,0.10644564,0.42945084,0.3918092,-0.059128683,-0.088585414,-0.009055358,-0.04449536,-0.023865907,-0.22978668,-0.07392329,-0.09291616,0.054166943,-0.12851475,-0.033454213,-0.15114097,0.00027458352,0.01819797,-0.22692674,-0.0061311508,0.044192187,-0.1266636,0.041408762,0.03204449,0.079068445,0.0074326717,-0.08673644,-0.105141655,-0.03642569,-0.06058158,0.17900847,0.009122318,-0.16107917,0.031623133,-0.04829574,0.01760573,-0.17587276,0.08208107,-0.022040736,0.01692679,-0.054814108,-0.09182709,-0.024206825,-0.08193872,0.06190485,-0.0557154,-0.019071493,0.0059134793,0.05729265,-0.11042403,-0.035231456,0.0808292,0.15008458,-0.042497583,0.1222877,0.06891776,-0.027671764,0.029473923,0.08495346,-0.06693335,-0.03515414,-0.086717
-0.08722281,0.034997694,0.029761158,-0.07419316,0.0037236926,-0.52477115,-0.11384781,0.022650516,0.06958167,0.03572148,0.29388538,0.008395466,-0.075968266,0.058076687,-0.0054964707,-0.18451568,-0.035256892,-0.2695199,0.040357225,-0.0032207924,0.096244335,0.0011893392,-0.060203884,0.018405449,-0.06849008,0.10437955,-0.39254922,0.043647442,0.028386159,-0.1463704,-0.12947723,0.06955202,0.08816867,-0.05452682,-0.10219107,-0.023104133,0.056473598,-0.15600637,-0.031133717,0.04265541,-0.03499428,0.044666886,-0.15392116,-0.026179278,0.039669815,0.07120926,-0.064144686,0.024850897,0.0048915143,0.11819287,0.07314207,-0.13516887,-0.31157368,0.051987674,-0.014216078,-0.25091404,-0.54340255,0.32360896,0.1332226,-0.27486154,0.07052197,-0.015132345,-0.52959186,0.018745475,0.036112636,-0.16460273,-0.534112,-0.10073872,-0.17784987,0.21913806,-0.04303198,-0.043658596,0.020275814,-0.04488491,-0.08715881,0.1528338,-0.051897436,-0.0386587,-0.3815804,0.035736017,-0.35159323,-0.0703242,0.012669934,0.0023928003,-0.12145531,0.07749023,0.074678324,-0.22944649,0.008717375,-0.03977078,0.027861508,-0.019673025,-0.016369987,-0.0028366812,0.09917872,-0.025341228,-0.09259542,0.016413273,-0.3761002,0.3124676,0.022148114,-0.027443692,0.027400408,-0.051468372,0.053828068,-0.037091512,-0.05759925,-0.020649076,-0.2273682,-0.08075196,-0.063707896,-0.12485748,-0.33985424,-0.08740896,-0.008759358,0.042336676,0.021636916,0.042010102,-0.54723626,0.09978711,-0.027205696,-0.0337551,-0.07049159,0.097898625,-0.24607512,0.09096683,0.018393086,-0.08834553
-0.09138189,-0.096336685,0.004313107,0.0073293084,0.053008534,-0.043713454,-0.09061245,-0.025642093,-0.07785334,-0.0071039153,-0.05310907,-0.034371767,-0.053997897,0.040700786,-0.018138895,-0.015616052,-0.05545389,-0.13403092,0.046115488,-0.10729264,-0.12283901,0.03076863,0.058061525,0.07380562,0.039043132,-0.037539195,0.056224197,0.023412177,-0.035172015,0.01326419,-0.05874002,-0.097694926,0.003778367,-0.028650444,0.039145477,-0.0028510971,0.057754572,-0.08435937,-0.15178412,0.06899802,-0.037953656,-0.03494378,0.040386286,-0.0020270615,-0.095541954,-0.09940839,0.0051237703,0.060762882,0.05960695,-0.043468367,-0.102644384,0.002793647,-0.12516207,-0.0022025814,0.018619625,0.015668958,-0.05930707,-0.07135263,-0.07740376,-0.11867578,-0.0054751793,-0.03921039,-0.05612437,0.01566312,-0.11941716,0.020507095,0.055044644,0.013585278,0.047358397,-0.09514543,0.033171866,0.024230167,0.01895553,-0.0055805054,0.05706756,-0.09685925,-0.10365613,0.025873391,-0.10400411,0.05611618,-0.08567649,0.006934963,-0.12423033,0.008405718,0.009062479,0.023534762,-0.050531648,0.027643293,0.006707877,-0.013308849,0.013112712,-0.07157607,-0.08943822,-0.032447923,0.031729788,0.01611612,-0.102510065,-0.09342982,-0.026140617,0.0042916327,-0.04642875,0.0715094,-0.02494873,-0.07314866,-0.032133065,0.028687,-0.07242769,-0.09018955,-0.023036785,0.0246491,-0.08401796,-0.09128624,0.042115998,-0.021536777,-0.08228112,-0.0324118,-0.08585635,-0.039763913,-0.0092764115,-0.00019291445,-0.0035623729,0.022995647,-0.0029389272,-0.083168596,-0.084959954,0.011832178,0.04655525,-0.102370985
-0.008489459,-0.012597354,0.00031971387,0.014572677,-0.047241088,-0.017960824,0.018545711,0.0072549386,-0.029011434,0.03179833,-0.018409058,0.04533066,-0.01918634,-0.04756,-0.036103714,-0.066313714,-3.9874045e-05,-0.0723992,0.00059163984,0.0016058407,-0.036314886,-0.05492582,-0.011018503,-0.025501793,0.057209574,0.057323206,-0.06933441,-0.018686889,-0.10336476,-0.049665578,-0.0070083234,0.036959004,-0.054000318,-0.021231111,-0.030075265,-0.027441878,-0.037221193,-0.0799654,-0.009271222,0.07931186,0.0438458,0.0006292153,0.03547589,-0.09719807,0.020578772,0.045453407,-0.081559405,0.092096746,-0.0006883583,0.062030036,-0.07147365,0.011768944,-0.081307,-0.054158863,0.037083674,-0.0012584795,0.0684863,0.019936608,-0.012685592,-0.083653584,-0.04784535,-0.015667163,-0.10383601,-0.019170338,0.06773945,-0.027290693,-0.04899584,-0.07612397,-0.075138554,0.019465351,-0.034881007,-0.08269804,-0.03615454,-0.05380683,-0.12257133,0.074442625,0.05671901,-0.078357644,-0.07976993,0.01880531,-0.03715661,-0.029928185,-0.052664403,-0.0202245,-0.06616986,-0.078853965,0.02141753,0.0753314,-0.023524946,-0.046438377,0.06942777,-0.00044553433,0.018268501,-0.10177213,-0.038055997,-0.060128216,-0.068882965,0.043633766,-0.036446296,-0.061529603,-0.031444017,-0.033900835,-0.11363323,-0.08873416,0.03069391,0.0819116,-0.046873543,-0.01983775,-0.02075002,0.074261025,0.029811634,-0.014787988,-0.09227096,0.059032336,-0.024331471,0.004760878,0.072886676,0.06890866,-0.067534216,0.048965387,-0.04719346,0.0141395405,-0.030859109,-0.10263202,-0.12834486,-0.072500534,-0.0060033747,-0.096587956
0.0005481765,0.023351394,0.061311614,0.03585891,0.0015389005,-0.067552,-0.058720503,0.03568582,0.049508885,-0.071033396,-0.081536986,0.04644481,-0.033205044,-0.004747783,-0.02434033,-0.101861544,0.052297782,-0.11047715,-0.06378184,-0.018141825,-0.038279254,0.030376134,0.06713531,-0.0069541954,0.011983943,0.04728017,0.030422,0.021213064,0.028692128,-0.058103666,0.078364976,0.05855949,-0.007977549,-0.067159474,-0.09350581,-0.024085646,0.060745236,-0.06663351,0.014241233,0.021640942,-0.064995475,0.020463625,0.024983322,0.02585165,0.02395056,0.016173504,-0.036124267,-0.024398817,-0.030118624,-0.0069754925,-0.07373103,0.00398574,0.030867958,-0.039609186,0.038653824,-0.102835014,-0.09953118,-0.019205328,-0.09535286,-0.087469585,0.0010198046,0.0142631065,-0.097130105,0.0444832,-0.023096038,-0.07923022,0.049944725,-0.11279112,0.012925916,0.04101032,-0.061978288,0.07488437,-0.07586424,-0.028114107,0.023428999,-0.015113085,0.009047929,0.015383932,-0.11495884,0.06575985,-0.019640423,-0.035607155,-0.00018639436,0.043380134,0.010188697,-0.07273737,0.005620606,0.051756784,0.06374896,-0.04230687,0.034587193,-0.09258983,0.008272604,-0.059117533,0.02147282,0.021815432,-0.083122194,-0.04990331,-0.018092081,-0.044637453,-0.017374635,-0.06011061,-0.048900757,0.06482275,-0.06901998,-0.097337864,0.056750778,-0.056018267,-0.05280347,-0.097690426,-0.052192207,-0.009623297,-0.054786373,-0.078402475,-0.07853239,-0.0790338,-0.080215245,0.015828744,0.04600284,0.03964885,-0.0029101574,-0.05211717,-0.04552978,-0.056437355,-0.055491522,-0.03047279,0.026411863,-0.049537074
0.42110634,-0.019758573,-0.041124664,0.04683332,0.009759644,-0.1914073,0.37073213,0.018083999,-0.09020559,-0.0040601185,-0.16515876,-0.003224041,-0.08434406,-0.12441503,-0.048463084,-0.056502037,-0.016167562,0.04217544,-0.0043118815,0.022834564,-0.09315727,-0.12673317,0.008336615,0.059520334,0.047564607,-0.19191559,-0.23411229,-0.29924944,-0.06827995,-0.029320315,-0.46941912,0.004612751,0.04694545,-0.00080657855,-0.09190269,0.032457776,-0.044566322,0.105564095,0.02276,-0.019994874,0.06786822,-0.063261636,-0.29918483,0.09386164,-0.12712489,-0.27888507,-0.0062098964,-0.028692938,-1.0726573,-0.35447913,-0.10837444,-0.013668512,-0.47750524,-0.025464464,0.051529128,0.050784044,-0.21556245,0.015346727,-0.20058602,0.038840827,0.0008907959,-0.009146483,0.03671482,0.08900882,0.17125514,-0.26107562,-0.10514812,-0.13622345,0.019608105,0.030766865,-0.53886145,-0.064309984,-0.00030553434,0.2919671,-0.003192195,-0.00023671925,-0.0073818043,-0.15142393,-0.009225428,0.03978374,0.13453059,-0.15808661,-0.066636905,-0.00762197,-0.119835354,-0.17882092,-0.026555944,-0.5068242,0.07376991,-0.015999092,0.012310181,-0.05884716,-0.6275634,0.1255612,-0.079328455,0.04725281,-0.02703741,-0.07293287,-0.09349665,-0.15636586,0.009968171,-0.15983981,-0.41302615,-0.0492345,-0.14958309,0.07467287,0.006189475,-0.026938189,-0.111955,-0.1356946,-0.10950145,-0.07207616,0.06313117,-0.13512893,-0.007284484,-0.04723296,-0.048913695,0.06700507,-0.088266246,-0.085067466,0.01792505,0.0152852945,0.02974644,0.107545584,0.16470493,-0.005180051,-0.09151036,0.0006917311
-0.0126409875,-0.074827366,-0.075991936,-0.044910558,0.0463222,0.020659389,-0.05164306,-0.008365409,-0.030132648,-0.038808767,-0.050779637,-0.021505443,-0.051941905,-0.041393597,0.0563608,0.022428878,-0.028818773,-0.042213418,0.034949727,-0.036954373,0.03093665,-0.036971137,-0.008676869,0.07593622,0.047973294,0.039605837,-0.045979287,-0.016342234,-0.024604393,0.046318796,0.008942359,0.065829255,-0.057158537,-0.062734604,-0.08170671,-0.0021575994,-0.03694562,0.04768162,-0.086657375,-0.09196705,-0.0278481,0.0038793078,-0.09097158,0.033171106,-0.088280074,0.07363462,-0.05763745,0.003728371,-0.09343146,-0.09976314,-0.045593522,-0.045358393,-0.010885137,-0.08865938,-0.06494861,0.03819769,-0.028785214,0.028802564,0.022874722,-0.027322661,0.028925883,-0.06905137,-0.0651225,0.029476816,-0.048335657,-0.095625736,-0.041687407,0.047975637,-0.041430213,-0.050226975,-0.091758534,-0.07151157,-0.017515214,-0.06654839,0.011411409,-0.05061187,-0.012078982,-0.015429642,-0.014650432,-0.06213048,-0.047254965,0.015466859,-0.062085852,-0.0480377,0.032058604,-0.010921374,-0.089438125,-0.08909707,-0.022020327,0.016898412,-0.065951735,0.07150548,-0.035828084,-0.051953703,0.0016455669,0.01162935,0.047682077,0.040202495,0.016519759,0.049011126,-0.032895915,0.016169403,-0.03504741,-0.053861257,-0.07595386,0.04282502,0.06499018,-0.059712496,-0.08512071,0.054321356,-0.0056578633,-0.07084768,0.052523155,-0.007143805,-0.0032301003,-0.08701651,0.03429058,-0.003053162,-0.06542398,0.037791707,-0.01264015,-0.08661137,0.016782306,-0.00070718746,0.059412446,-0.06949058,-0.018438002,-0.057133045
