0,1,2,3,4,5,6,7,8,9,10,11,12,13,14,15,16,17,18,19,20,21,22,23,24,25,26,27,28,29,30,31,32,33,34,35,36,37,38,39,40,41,42,43,44,45,46,47,48,49,50,51,52,53,54,55,56,57,58,59,60,61,62,63,64,65,66,67,68,69,70,71,72,73,74,75,76,77,78,79,80,81,82,83,84,85,86,87,88,89,90,91,92,93,94,95,96,97,98,99,100,101,102,103,104,105,106,107,108,109,110,111,112,113,114,115,116,117,118,119,120,121,122,123,124,125,126,127
0.008308304,-0.092479624,0.04259141,-0.011298506,-0.007526403,0.09785271,0.028019879,0.07502411,-0.041446984,0.012351535,-0.064526156,-0.07213461,-0.025248285,-0.030043863,-0.050806165,0.019941585,0.01878468,-0.08095489,-0.034144882,0.020906562,-0.027953057,-0.015007333,-0.0073795514,-0.06710565,-0.005967873,-0.034893982,-0.06974873,0.092479445,-0.005391144,0.016515298,-0.023292203,-0.031113075,-0.044322215,0.015920954,0.06383184,0.027327664,-0.0019880882,0.0166175,-0.002861073,0.004181886,-0.046644956,-0.01593655,-0.032052107,-0.0011346918,0.032776818,0.048624057,-0.068628006,-0.01664457,0.07526325,-0.054385647,0.02649475,-0.056965087,0.09668325,-0.0011107153,0.026559262,0.02809438,0.0076880134,0.005022939,-0.03331001,-0.099744156,-0.00036880202,-0.07311389,-0.0962836,-0.08200839,0.07828758,-0.07477034,0.070432164,-0.013648872,0.06401881,-0.034911014,0.031034501,0.025383957,-0.07005441,-0.17778625,-0.0138753075,-0.06327343,0.0010982351,0.013364678,-0.040788278,0.022596553,0.0017850411,0.005765429,-0.016451733,-0.01836533,0.0022504942,0.014613205,-0.0036372072,-0.012788104,0.013154977,-0.02020949,0.070068546,-0.038494203,-0.08147869,-0.03828537,-0.031547446,-0.016621597,-0.1499169,0.016126966,-0.005936544,0.017071366,-0.036661282,-0.006661769,0.019425992,-0.066198446,0.035654515,-0.013554262,-0.018331947,-0.045811854,-0.015008576,0.015193852,0.037625723,0.050120097,0.03410543,-0.025077958,-0.11129247,-0.043486886,0.08431614,0.10086691,0.005160235,0.024729066,-0.001419334,0.1063744,0.0042701163,-0.02361684,-0.05749652,-0.0134612275,0.002347497,-0.09402559
0.051341075,0.00453291,-0.0735174,-0.06848841,-0.067653656,0.07609612,-0.11102175,0.047175307,-0.22423127,-0.093048945,-0.1830019,-0.0593942,0.04783453,-0.20103218,0.091603614,-0.08746619,0.050377518,-0.114397496,0.16064605,0.056141846,0.05028672,-0.06579964,-0.02118359,-0.09031433,-0.002842983,-0.1464761,0.059226174,-0.08552299,-0.20718394,0.0080094095,0.03831289,-0.16181199,-0.082063474,-0.35208502,-0.018283194,0.03913083,0.017152224,-0.16098572,-0.08451569,0.06603694,-0.00095482,0.04490479,0.058035567,-0.10206243,-0.19179937,0.11580251,0.03455904,-0.032389045,0.07793425,-0.040001612,-0.039887886,-0.14581114,-0.028557139,0.0059509985,-0.022831775,-0.16405976,-0.015136592,0.011912966,-0.09581374,-0.026669703,-1.0306661,-0.0005120662,0.14033322,-0.04095288,0.16197644,-0.0851182,-0.03730489,0.049984824,0.045062415,0.15666965,-0.14399084,0.020994393,-0.027620794,0.0014898506,0.033928808,0.013771254,0.041373827,-0.17579532,-0.08675649,0.0964798,0.094086185,-0.4983807,-0.1706563,0.073665,0.0072325147,0.020940674,-0.014499793,0.034364775,0.10160026,0.019894004,-0.04424214,-0.43126187,-0.00016115273,-0.10009178,0.030389167,0.08525972,0.07061783,-0.037527908,-0.15594621,0.01979748,-0.06424629,0.07807463,-0.1717512,0.00073379837,-0.030612243,0.10625085,-0.07788279,-0.350711,0.09687659,0.27266312,0.02050068,-0.060502328,-0.14953996,-0.120204,0.06977973,-0.36132395,-0.30098855,0.17306462,-0.09907564,-0.2452213,-0.013427102,-0.22010441,0.0098665655,-0.15088935,0.14881472,-0.10270956,-0.017190034,-0.20153707
-0.11667862,0.05531077,-0.25177097,-0.20956536,-0.068901606,-0.09932805,-0.30912685,0.04216334,0.04696857,0.03141534,-0.005044615,0.055975627,-0.15948017,-0.041708235,-0.019447312,-0.04015778,0.018734736,0.11012003,-0.3687104,-0.026496204,0.09247996,0.03303442,0.02675659,-0.25823256,0.072002076,0.072323695,-0.32949954,-0.06255033,0.063073374,0.023236284,-0.087435134,-0.26146367,0.08030826,-0.22324511,-0.04649298,-0.05401099,0.003681621,-0.058179032,-0.098045714,0.16336891,-0.016394585,0.07943011,-0.040340286,0.055722576,-0.10874681,-0.105681784,-0.17853643,-0.037420906,0.17387965,-0.20261909,-0.08430193,-0.23281108,0.0812495,0.13475932,-0.08281219,-0.017931566,-0.17842203,-0.14464545,-0.18402565,-0.019688034,0.04337012,0.030740764,0.11867831,0.06176383,-0.21368444,-0.19471246,-0.019314818,-0.004994116,-0.0060604806,-0.026294902,0.057965565,-0.09241434,-0.071097404,-0.039864186,0.16481796,0.0005390945,0.11154898,-0.07340215,-0.013502602,0.09930637,0.15587948,-0.066917405,0.040877678,-0.07325178,0.12090016,-0.009255125,0.15011841,-0.06657212,-0.14170183,0.0190133,0.04489254,-0.03171672,-0.030703679,-0.038284235,-0.014506976,0.07021736,-0.14194322,0.088868156,-0.075227976,0.0634531,0.004870288,0.054391265,-0.16646577,-0.23209488,-0.03995206,-0.11776587,0.06572862,0.14310634,-0.32872257,-0.14093564,-0.028582605,-0.3384608,-0.11303922,-0.24840465,0.1183978,0.13168721,0.39572215,-0.049789235,-0.6421892,-0.060991995,0.033315904,-0.16830312,0.020199563,-0.021223733,-0.09636906,-0.14648159,-0.15535477,0.028686255
0.1937514,0.062611565,0.010504644,-0.049891163,-0.06775673,0.0033801438,-0.17058004,0.013343936,-0.11614235,0.0029401386,-0.30888644,-0.018713418,0.075883664,-0.16807742,-0.01717659,-0.26443413,-0.1354439,-0.13291956,0.35018125,-0.006427582,0.0697091,0.0020889551,0.010989118,-0.14232707,-0.16740271,0.08196402,-0.4206574,-0.042440884,-0.19519395,-0.012312121,-0.06240072,-0.0033166946,-0.07546024,0.062166348,0.033016786,-0.040517937,-0.057383563,0.16595268,0.024577107,0.23755613,-0.17845623,-0.03314363,-0.103029184,-0.012229855,0.2319271,-0.181142,0.0315969,-0.021366227,-0.05457774,-0.0068380604,0.11243479,-0.039318632,-0.04303145,-0.008341398,-0.017795073,-0.011161643,0.1419508,-0.16329487,-0.17767736,0.0040864693,-0.05312396,-0.038675193,0.0022302247,0.004106751,-0.10221731,-0.07738299,-0.021908956,0.018897006,-0.20074381,-0.29885188,0.000965439,-0.018469859,0.06258241,-0.04659806,-0.061166912,-0.0951424,-0.12876531,-0.17867884,-0.08028125,-0.20336145,-0.06301339,0.13753523,-0.048837505,-0.0110422755,0.11152861,0.0066507827,0.13536912,-0.0912864,-0.2029779,0.14166863,0.0008990185,-0.020757206,-0.004217271,0.2318015,-0.083207265,-0.14060573,-0.1419223,-0.02499619,-0.009121448,0.038365316,0.072737776,0.12069221,0.005032583,-0.3294473,0.00018691315,-0.07913967,0.050361555,0.073016666,-0.07720793,0.17321767,-0.11711352,0.15350364,-0.068689115,-0.086046934,-0.0049568317,0.016847933,-0.06555301,-0.029880783,-0.2607291,0.04644636,-0.051755883,-0.20542239,0.02793791,-0.072921365,0.20791748,-0.08703257,-0.232874,-0.082780205
0.08854148,0.0026342897,0.07422713,-0.2417956,0.039270755,-0.24017271,-0.2603905,0.069954745,-0.40137082,0.029086474,-0.014747625,0.041641418,-0.028496288,-0.49503165,-0.009870127,0.08111959,0.13167237,-0.015152565,0.29451573,-0.06438589,-0.13639188,0.002760231,0.029091395,0.15546516,0.16358624,-0.03369531,0.23760594,-0.025932126,-0.35201827,-0.14720194,0.09037209,-0.1911754,-0.055376593,-0.29004768,0.0719851,-0.2608859,-0.015155998,-0.08594366,-0.17199674,-0.19648525,0.1283183,-0.08301221,0.13228853,0.068014316,0.04674822,0.18659392,0.10885403,-0.053424653,-0.097845845,-0.01361824,0.0087120235,-0.12783366,-0.25875372,-0.20317222,0.05532441,0.19018088,0.2415608,-0.11291684,0.05689691,0.02815579,-0.604161,0.11166813,0.29603085,-0.026395775,-0.015791684,-0.011754319,-0.012609146,0.007679207,-0.23446989,0.10740744,0.17037699,0.008831137,0.061923143,0.06681242,-0.0023009002,0.06581742,0.22796254,0.0738956,-0.030553177,0.081901744,-0.014861516,-0.14213336,0.06989589,0.29161298,0.012183142,0.026735753,-0.005854934,0.05697673,0.18540677,0.18335089,0.020601422,-0.13148183,0.036498927,-0.2942715,0.0272746,0.08588452,0.0010174825,-0.01997172,-0.0044640573,-0.03710368,-0.09693086,0.04119181,0.030181754,0.1371752,0.009736487,-0.043173987,0.029825231,0.08636043,-0.4188925,-0.18668184,-0.07217495,-0.5322232,0.017664632,-0.23295027,-0.08327828,-0.16347004,-0.032846197,0.08636506,0.0055435062,-0.23034708,-0.037353348,-0.17529792,-0.18548572,0.060583696,-0.033340506,0.33218843,0.072992265,-0.14929837
0.045937598,-0.034013055,-0.14397804,-0.028209023,-0.013898597,0.01812527,-0.023804778,0.027752664,-0.10325457,-0.08642843,0.022048,0.07349918,0.042234607,0.021812096,0.016256632,-0.08113704,-0.06835089,0.057541523,0.00012939527,-0.0027660783,-0.0941781,0.03924339,-0.017558504,0.0021360773,0.01673823,-0.052255392,-0.089378215,0.086554326,0.020213464,-0.025545934,0.0051680487,-0.0020450966,-0.016231535,-0.08775265,-0.020590214,-0.07365908,0.060962766,-0.016899593,-0.082648076,-0.038001686,0.045323227,-0.051582173,-0.047764145,-0.084519684,-0.06149372,-0.078335896,0.06888258,0.0044271746,-0.0049606552,0.04904134,-0.014487344,0.037685305,-0.07450214,0.05156955,-0.07085642,0.07478279,-0.024588438,-0.01967707,-0.023514014,0.021907905,-0.030944984,-0.073644415,0.07292565,-0.07875131,-0.011612348,0.00036254717,-0.047531895,0.038613092,-0.12091158,-0.022925684,0.10765107,0.059495892,0.0606492,-0.009897871,0.008517899,-0.072263144,-0.09329891,-0.044182282,-0.07294352,0.038856756,-0.06015254,-0.09112539,0.007657231,-0.08268715,-0.042275324,-0.0028273172,0.009583841,0.005104367,-0.13656932,-0.08937717,-0.098541215,-0.024345424,-0.0034523369,-0.07988417,0.030340798,0.036496576,0.07215962,0.07455276,0.0056020883,-0.055493027,-0.05155094,0.05011502,-0.07561523,-0.04944672,-0.060162235,-0.08525018,-0.0146941785,-0.06508609,-0.033550937,-0.034262463,0.010538969,-0.078075096,-0.006132546,0.020222249,-0.028145669,-0.042596035,-0.024631519,-0.019485986,0.021396762,-0.06323272,0.061570074,-0.08417193,-0.08145988,-0.028878719,0.015252851,0.020955691,-0.050561156,0.0068410803
-0.0042039016,-0.06334229,-0.009918115,-0.050601587,0.011928844,0.0055406247,-0.07211463,0.03846444,-0.5419022,-0.005138065,-0.039344534,0.082619876,0.05670963,-0.23936503,-0.014019603,-0.028297458,0.1279256,-0.11146041,0.15461038,0.03514754,0.007657984,0.082631506,-0.040407654,-0.08065714,0.10049068,-0.038360678,0.13868771,0.014622292,-0.37234634,0.029350998,0.060297966,-0.21416534,0.04149895,-0.23112044,0.109068386,-0.011325871,0.02030117,0.043087803,-0.18910077,0.06068178,0.094462544,0.031957075,0.07072876,0.0146289,0.0003881392,0.22308159,0.055982094,-0.016842106,0.0889566,-0.08035996,-0.1806565,0.14015044,-0.04581591,0.036387987,-0.08208085,-0.2523679,-0.0042563262,-0.121471405,0.024701774,0.028145762,-0.88273704,-0.013497356,0.12506615,0.053946022,0.09066535,0.08181114,-0.04001375,-0.00069145206,0.027742472,-0.0033709286,-0.23188917,-0.0023962501,-0.047522146,0.06949291,0.045515355,-0.2203182,0.2141219,-0.027058646,-0.10047104,0.122789815,-0.081859596,-0.53941023,-0.16560437,0.03899747,-0.01824837,0.048465908,-0.013001027,-0.051324412,0.14454156,0.04802459,0.08070609,-0.3805829,-0.038367223,-0.04458654,-0.0064840065,0.08974053,0.043145157,0.038171336,0.021696627,0.043976154,0.035691004,-0.11934205,-0.25791487,0.03579885,-0.07273545,0.077409804,0.029517258,-0.19815075,-0.11612187,-0.028343659,0.10342203,0.07452047,0.08442541,0.04950335,0.106426895,-0.026013518,-0.27938572,-0.008066458,-0.03050285,-0.21205176,0.042132787,-0.08551626,-0.013385817,-0.04259565,-0.13321635,-0.047685526,-0.024196582,-0.11931411
0.05066905,0.027321702,-0.08673797,-0.003284376,0.035593897,-0.011924793,-0.024399392,-0.063520454,-0.0065298295,-0.09355008,-0.057811532,-0.05084462,0.02787529,-0.08131027,0.015454886,0.06753834,-0.057167236,-0.01873945,-0.07165487,0.0037452602,0.009801594,0.021316102,-0.0478857,-0.00294127,-0.057347484,0.054871134,-0.010032916,-0.02468559,-0.037101172,0.038261652,-0.055584896,0.0019759475,-0.00087428855,-0.056189694,0.06384423,-0.078087255,0.04008459,-0.085012764,-0.021039806,-0.02979903,-0.014582104,-0.07091459,-0.09804367,-0.052272502,0.065590516,-0.037326217,-0.08517168,0.072462484,0.025563844,0.07939924,-0.027015913,-0.06435463,0.03735805,-0.036715772,0.02355199,0.0662928,-0.046444975,-0.057314157,-0.028503306,0.040035468,-0.09563613,-0.017899878,-0.062491525,-0.06798274,0.05401626,-0.04593115,0.0035340625,-0.0070471205,-0.11127077,0.01821918,0.026512375,-0.006217199,-0.090934336,-0.054250494,0.01612912,-0.009071173,-0.018735481,0.017212702,-0.032586303,-0.073971555,-0.050548904,-0.08842191,-0.01516586,-0.045831952,0.0062742843,-0.032639258,-1.926297e-05,0.047268488,-0.038478933,-0.011416254,0.033966362,0.01352733,-0.01698423,-0.07402323,-0.09239178,-0.0545336,0.042635433,0.07661615,-0.0974194,0.060831815,-0.006281976,-0.02403868,-0.023988305,-0.0042710328,0.01265047,-0.0011246622,0.025961978,0.011006835,-0.091170445,-0.04659625,0.026991814,0.061386656,0.05478602,-0.06682471,-0.02786058,0.0029452166,-0.096797,0.002120665,-0.0076436014,-0.022465864,-0.0681967,-0.04552397,-0.035525225,-0.059458762,-0.0066274176,0.053593848,-0.002499435,-0.04569397
0.036221873,0.024942495,-0.1077827,-0.1914521,-0.033226036,-0.1487964,-0.2605862,0.0193257,-0.29284367,-0.20633565,-0.010616191,0.03208997,-0.037285205,0.044717934,-0.004290495,0.0068191066,-0.18063006,-0.08792301,-0.032455523,0.11567744,-0.13195646,-0.06750839,0.027135856,-0.14541188,0.094102025,-0.4801872,0.073809706,-0.007841309,-0.057838935,0.021793772,0.11134418,-0.022279471,-0.0855557,0.0828556,0.02203091,-0.14080553,-0.07022736,0.12704489,-0.029254671,0.15296575,-0.2274146,-0.13940737,0.057133373,-0.06658304,-0.19476548,0.13191499,-0.08166165,0.06485378,-0.06826264,-0.19342376,-0.028498225,0.27824333,-0.031368967,0.023749948,0.017514136,-0.17370315,-0.11029204,0.0031925207,-0.10927663,-0.05600316,-0.14891312,0.022245156,0.00010316565,-0.093843125,0.07946778,0.0969915,0.009766698,0.0045756414,-0.043189283,-0.0237425,-0.049195167,0.038873844,-0.054405868,-0.040900413,-0.09846379,0.03704731,-0.14299802,-0.0495487,-0.03851393,-0.14125942,-0.13957986,-0.17483374,-0.050986417,0.18413532,-0.039754838,0.038829245,-0.17865679,-0.10976808,-0.3942855,0.12517226,0.072467364,-0.06805986,0.013912388,0.013876904,0.033194866,-0.26190805,-0.014890417,-0.05911467,-0.044320498,-0.021104371,0.030566948,-0.10040491,-0.012335686,-0.2598349,-0.037932843,-0.20584461,0.063617796,-0.2576541,-0.13807629,-0.043182056,-0.048555784,0.022653159,0.03817818,-0.0411304,-0.1420851,-0.08577492,0.10204427,-0.223153,0.018527089,-0.15994795,0.0047875983,-0.1387188,-0.122445405,0.060740516,0.07878756,0.15933001,-0.0631359,0.054402888
-0.07720298,-0.043430474,-0.20500627,-0.13142207,-0.030528922,-0.032914057,-0.10760884,0.02333156,0.062462524,-0.10184383,0.020361496,-0.077786095,0.04761095,-0.23246925,0.08455586,-0.041688185,-0.25632548,-0.2027981,-0.04292578,0.014262604,-0.17409179,-0.027509995,-0.08900097,0.017073922,-0.14463335,-0.05639988,-0.18768744,0.024933485,-0.0699986,-0.04512127,-0.055328637,0.02882928,0.03330191,-0.0057238396,-0.05921647,-0.16155756,-0.042053312,-0.37889534,-0.013747648,-0.21660085,-0.092276424,-0.19130677,-0.073787615,-0.057893995,-0.0007120415,-0.18427674,0.029433228,-0.09483299,0.13281628,-0.098087,0.101290636,-0.22224951,0.025719866,0.13413797,-0.08972986,-0.19642955,-0.053342137,0.011572324,-0.18391211,0.009684572,0.020096637,-0.09240725,-0.079905815,-0.07252533,0.07427098,-0.0986513,-0.038717087,0.0147019895,0.008296333,0.013847488,0.02256099,0.0035959224,-0.09031103,0.08242667,0.30918917,-0.04997039,0.10406928,-0.012140704,-0.18724166,-0.108110994,-0.112223595,-0.19065116,-0.09062133,-0.056308117,-0.2379073,-0.024033438,-0.23879887,-0.12550753,0.05974043,0.050764207,0.025131252,-0.09053772,-0.021365741,0.15275529,-0.17094278,-0.01706118,-0.20236981,0.038596854,0.006095506,0.08156264,0.0265124,0.043986462,-0.16217302,-0.17367628,0.06484264,-0.12906529,-0.008984899,-0.076024316,-0.14520171,0.04886431,0.08680061,0.031391226,0.3371588,-0.3059237,-0.14706776,-0.16447657,-0.09995515,-0.2542628,-0.24883759,-0.15313636,-0.019658646,-0.16638294,0.006364874,-0.07401585,-0.26825655,-0.12550128,-0.17734897,-0.02763411
0.011187598,-0.03690619,-0.012948956,-0.0029751011,-0.0031599728,0.0036008859,-0.04071884,0.049076844,-0.0019255504,0.057004727,0.011116251,-0.018672923,0.007169944,-0.012212008,0.060371168,0.047542147,-0.0067659505,0.038317215,-0.005604334,0.0066504125,-0.024806753,-0.016275585,0.00085157173,0.012366465,-0.0239567,0.024083775,0.0035820666,-0.07300974,-0.17325298,-0.06768202,-0.015375936,-0.017397035,-0.05500392,-0.015130733,0.016029172,0.014921214,0.032917988,0.013398776,0.0072632586,0.025599947,-0.034248,0.038072694,0.057914484,-0.057473693,0.03695092,-0.0026106823,0.03879875,-0.035650667,-0.033307415,0.03297901,-0.031209733,0.06577022,-0.0395841,-0.051320817,-0.07023914,-7.993763e-05,-0.019311365,0.048508085,-0.028674293,-0.004308366,-0.02857493,-0.057896737,0.038268667,-0.022247614,-0.03256402,-0.17019892,0.015977621,0.052969407,-0.05446212,-0.031837434,-0.045012005,-0.10549005,-0.08558829,0.06750458,-0.07459339,0.031533226,-0.0059936163,-4.90203e-05,0.015604509,0.03190344,0.017095331,0.015930945,0.017101636,-0.103670016,-0.010162843,-0.08178849,-0.0015316966,-0.019656086,-0.02959453,-0.0070039746,0.047774564,-0.049381256,-0.075660914,-0.04275942,0.030889103,-0.028888296,-0.08758168,-0.0064661615,-0.08016056,0.07959687,-0.06304071,-0.011871504,-0.0013654417,-0.031225104,-0.074829005,0.010295799,0.06968686,-0.014601171,0.020893378,-0.040162362,-0.03031775,-0.0530216,0.023698429,0.01109541,-0.003907852,-0.017187666,-0.03213689,-0.0590366,-0.0020754528,-0.019812826,0.035595607,-0.0048467573,-0.031560086,0.05334521,-0.030161066,-0.01253264,-0.05141848,-0.15918162
-0.16178435,0.04940897,-0.15031295,-0.13038296,0.014450299,-0.08070646,-0.17241119,-0.0006545913,-0.3307791,-0.30867,-0.21682265,0.046387326,-0.04926965,-0.24398246,-0.07208149,0.004789113,0.12645929,-0.19319947,0.2320668,0.032298725,-0.27287006,0.093434885,-0.062257245,-0.021039879,0.017186733,-0.09645235,-0.19870274,-0.04657458,0.07045051,0.028173393,-0.08176608,-0.04272131,0.019541718,-0.024458278,0.0045864233,-0.18395735,0.019307,-0.25901827,-0.1870127,-0.05304653,0.17297253,-0.036834855,-0.13623159,-0.10119022,-0.074842535,-0.22982337,-0.30962008,-0.081767745,-0.06071511,-0.11158703,-0.027355693,-0.14385839,-0.08728577,-0.417266,-0.043800134,-0.2013383,0.15707915,0.07918656,0.21644086,0.03140593,-0.048261747,-0.3330776,0.077637345,-0.069300115,0.29386437,-0.040546507,0.0115518,0.043673858,0.0631204,0.013520941,-0.07049725,-0.07537868,0.0149005875,-0.06897989,-0.08232311,0.015191495,-0.004258681,-0.07610893,0.04687965,-0.05007385,-0.024076128,-0.261548,0.034465577,-0.03314614,-0.0060643516,0.047864918,-0.05581688,0.07352469,-0.27768436,-0.080780216,0.07764467,-0.20351315,0.03469283,-0.2299133,-0.27542928,-0.09441298,-0.01529261,0.012866514,0.053124372,0.06243661,-0.032157052,0.0122531885,-0.055455063,-0.15679674,-0.06696356,-0.09599193,-0.046020824,-0.0483622,-0.092733905,-0.1467968,-0.016566059,0.061246477,-0.013587406,-0.2686243,0.116690315,0.018254746,-0.15293027,-0.09758147,-0.21553984,0.21448258,0.052646127,0.039010428,-0.04456101,0.21282692,-0.1679121,0.11426201,0.057054125,-0.09198667
-0.42744344,0.090839446,-0.28441256,-0.117960855,0.037631467,0.13112065,-0.032196034,0.031022726,-0.007687679,-0.15349877,-0.09129577,-0.023903415,0.00031068077,-0.11850682,-0.030026859,0.17629604,0.07688195,-0.023063362,-0.08263671,0.0020062716,-0.075009,0.06467026,-0.032555055,-0.23091125,0.08023944,-0.17145054,-0.106673,-0.029621823,-0.12487718,0.0063506495,-0.03940045,-0.044221442,-0.022994336,-0.07277442,0.08694916,-0.08075489,0.0825819,0.009445073,-0.14570796,-0.21154469,-0.07489458,-0.24330413,-0.087420754,0.09691366,0.024210148,-0.096541785,-0.2218355,0.04626355,-0.003035047,-0.03562981,0.08355392,0.015208742,-0.045109224,0.11529566,0.011238251,0.035646543,0.035852935,-0.20402095,-0.1654053,-0.07727504,-0.05771311,0.09399921,-0.013894528,0.053438712,0.12349579,-0.072762206,-0.0672411,0.0770355,-0.05667266,-0.048764482,0.023397792,-0.03514092,0.074543856,-0.01042254,-0.022989454,-0.034651868,-0.17228572,0.10238618,-0.074075274,0.033029757,-0.042044263,-0.112676874,-0.2184988,-0.21280567,-0.018109998,0.026439063,0.050307833,0.0041686087,0.022413414,-0.11578702,-0.09702303,0.02610313,0.0046727587,-0.011050494,-0.09154013,0.058975,-0.050562672,-0.040905636,-0.045961067,0.06291427,0.032824818,-0.0034017644,0.27377197,-0.026988877,0.06080407,-0.05966402,-0.07942196,-0.10797998,-0.13858631,-0.02891221,0.06947935,-0.29628226,0.021178842,-0.08090532,0.20811398,-0.05698673,-0.00823417,0.014023051,-0.14897224,-0.30655622,0.09526584,-0.04598229,-0.028943444,-0.0363414,-0.028838241,-0.14461368,-0.0029668843,0.06347557
0.0026832325,0.029558685,0.0051926314,-0.026783025,0.066958494,-0.09088265,-0.05181309,0.05484109,-0.09104985,0.07568014,-0.010700271,-0.05527332,-0.022832455,-0.056748476,-0.048576623,-0.031696513,0.009664518,-0.021858586,-0.009983932,-0.10930653,-0.010581755,-0.008414363,0.034791347,-0.026221389,0.04757139,0.036652584,0.004315451,0.057041503,-0.004977011,-0.042482037,-0.08547331,-0.035250124,-0.011497115,-0.0012417829,0.06050929,-0.09953375,0.04051368,-0.12480977,-0.03873044,0.06441851,0.0027884657,-0.011714139,-0.028913163,0.08168722,-0.043114364,0.0194797,-0.09718786,0.0061142095,0.03255211,-0.044260588,0.050797462,0.06677821,-0.107343026,0.06268042,-0.07889719,-0.024603195,-0.07893675,0.017132945,-0.04331888,-0.056192912,-0.063531406,-0.06790568,0.0075755757,-0.008393608,-0.0225065,-0.086108774,0.039501224,0.040473063,-0.11677683,0.047907706,-0.10809718,0.06344589,0.059893105,0.048109062,-0.0068200035,-0.073738106,0.038921844,-0.075015426,-0.097534396,0.047486935,-0.05415867,-0.030752717,-0.084154956,-0.037771296,-0.109635115,0.011702783,0.003974618,-0.07856927,-0.0077121407,-0.027152993,0.07897953,-0.08665898,-0.079732835,-0.105831504,-0.0028929207,-0.08653163,0.06346289,-0.06324869,0.0025137477,-0.007022083,0.052174367,0.04312434,-0.07766403,0.058004696,0.064226076,-0.051574692,-0.052213553,0.002248954,0.01001959,-0.09244102,-0.06878523,0.07883686,0.05564589,-0.021694502,-0.039890572,0.015739867,-0.0813671,0.06698091,-0.03784094,-0.047645267,0.025138836,0.089009404,-0.00087193906,0.05578998,-0.053637315,-0.031584047,0.06126499,0.0034123275
0.123814486,-0.002249829,0.028436538,-0.0013949912,-0.0725758,0.1532505,-0.02016962,-0.018107804,-0.005218188,-0.07481428,0.02903247,-0.074097835,-0.2920908,-0.0059850677,0.054705434,-0.0050708214,0.041769907,0.051270194,0.0081085395,-0.071364306,-0.07643716,0.07203276,-0.066105165,-0.028119052,0.0023137287,0.098462835,-0.083587095,-0.037133303,0.056008827,-0.25546917,-0.13446967,0.07199484,-0.052435044,-0.0063302866,-0.13535824,-0.0053692507,-0.042369254,-0.026911838,-0.04863331,-0.15133882,-0.17773312,-0.049459785,-0.09505215,-0.12260912,-0.058481183,-0.008599195,-0.22041394,-0.041134268,-0.019567925,0.051209766,-0.014706809,0.05506711,-0.19918077,-0.054568857,-0.08847866,0.13178475,0.10348963,-0.068444796,0.076092884,-0.003632627,-0.022580974,-0.00826387,-0.051771376,-0.04556347,0.036259387,-0.18258066,-0.051227376,-0.0057079643,0.0681159,0.09780793,0.25860104,-0.0200814,0.023916628,-0.25852296,0.027822018,0.036082983,0.030145172,0.11639399,0.03499957,0.027375842,0.2241388,-0.03496671,0.0332312,0.18975855,0.005628341,0.06746684,-0.06574878,-0.009753742,-0.022256278,0.016957024,-0.027040957,-0.013700318,-0.078302935,0.030418552,0.04406841,-0.0076726675,-0.028553529,-0.051201303,-0.14400001,-0.03686531,-0.04107086,-0.03802884,-0.014850264,0.0059240055,-0.041376848,-0.02451246,0.06797788,0.08268986,0.010874549,0.16212532,-0.07340099,-0.07100007,-0.04442442,-0.046612497,-0.17942111,0.055604637,-0.3188179,0.14818738,0.0047832853,0.010681856,0.0035872608,-0.06475016,-0.0757948,-0.35948315,0.029958291,-0.19942655,-0.096551776,0.09389813
-0.2689349,0.031819962,-0.38112003,-0.15853438,-0.07550636,-0.041856438,-0.3868918,-0.010766484,-0.09607107,0.012423973,0.055371482,-0.093433365,0.03191862,-0.08723166,0.0190311,-0.070363306,-0.059905104,-0.10195141,-0.025939707,-0.0743102,-0.20242332,0.02451642,0.06271506,-0.040588494,-0.08785927,-0.08322817,-0.099569246,-0.066403046,-0.035925556,0.04867657,0.016155113,-0.02687264,0.018599253,-0.08510765,-0.06468409,-0.1303327,-0.053714912,-0.13555007,0.022200638,-0.07014791,-0.09037683,-0.069468975,0.042791218,0.061762013,0.046525918,-0.09545793,-0.10560682,-0.09197843,0.031595767,0.14387237,-0.1558759,-0.1111806,0.04951989,-0.010047532,0.045398682,-0.05012311,-0.21359947,-0.045256745,-0.18637872,0.06387276,0.02191854,-0.14008042,0.018519953,0.051633846,0.0010539532,-0.019901443,-0.060433734,0.059194233,-0.03705321,-0.036274184,0.1921535,-0.065938585,-0.020484498,0.024027154,-0.1266236,0.079119354,-0.029573252,0.13634367,0.24794932,-0.010017178,-0.14809863,-0.21260303,0.091197476,-0.09130663,-0.13037351,-0.026556049,0.076867685,0.008142288,-0.005851483,-0.093627326,0.00042123086,-0.06362498,-0.019065468,-0.17874639,-0.006091764,-0.18346459,-0.013334499,0.06252003,0.07774359,0.0627585,0.06875549,-0.069757015,-0.22870044,-0.3697781,-0.03427834,-0.03229009,-0.031488024,-0.086518504,0.0014049889,-0.020178549,-0.042009104,0.02983886,0.041753158,-0.14344518,-0.041553196,-0.10626511,-0.03924014,-0.15181321,-0.11294797,-0.0029893122,-0.011669972,-0.052091178,0.014907651,0.004853319,-0.06503513,-0.06206727,0.04964364,-0.009718812
0.04650693,0.020454567,-0.06523138,-0.0056429263,0.013762485,0.011848889,-0.048930082,-0.09419128,-0.0011881563,0.043076906,0.0448459,0.047301427,-0.0645429,-0.084475726,-0.058358014,-0.013208692,-0.10133522,0.00014992706,-0.055137884,-0.03977507,-0.05764442,-0.008222408,0.020580608,0.017200416,0.0628076,-0.0073719677,-0.044087853,0.030675216,0.012174153,-0.050342508,0.010450158,0.021303233,-0.09376669,-0.0844622,-0.10057601,-0.067123145,0.05343716,0.011517295,0.0061319275,-0.08046197,0.0059981225,0.06876648,0.0039390707,0.046742857,0.038292095,-0.040157355,-0.07866348,0.06304809,-0.05092052,-0.060385376,-0.073921114,-0.033096395,-0.049797576,0.020494796,-0.036463585,0.083910316,-0.012519565,0.045867022,-0.053430118,0.06498744,-0.019966282,-0.049916327,-0.054806266,0.031638127,0.043445885,0.06244529,-0.055071194,-0.042157624,-0.14304379,0.046998087,0.0030704301,-0.08872961,0.023525346,-0.015348718,0.0074760336,0.021274988,-0.088090755,0.06085712,-0.041985605,-0.07758132,-0.016055495,-0.04938451,-0.014813358,-0.066464044,-0.0060804365,-0.00830788,-0.038561378,-0.07663687,-0.0061134314,-0.07429461,0.040142518,0.041052572,0.0073019993,-0.012429728,0.00835436,0.0075792344,0.073386416,-0.0017130548,0.045061734,0.023513177,0.05644668,0.05745087,-0.056677453,0.005799194,-0.06415044,-0.069455124,-0.015573476,0.010762044,0.016755737,0.070638366,-0.05969929,-0.08713454,-0.024594955,0.031233652,0.013663526,0.01916317,-0.028183034,-0.03935641,-0.0286421,-0.016044945,0.03514015,0.07268996,0.02593503,-0.019159073,0.004488819,0.046586853,0.039262976,-0.035359606
0.034185614,-0.0625502,-0.054219414,-0.00023189595,-0.075676635,0.006153541,-0.048435487,0.032443892,-0.12604941,0.12970847,-0.14053303,0.1024638,0.041768987,-0.30100352,0.022454591,0.06273368,-0.03974854,-0.21530928,-0.03212618,0.013715316,0.008494426,0.117862895,0.043870565,-0.11124985,0.014886073,-0.08309116,0.017643776,-0.051083826,0.18631403,-0.048459064,-0.10000961,-0.14400247,-0.09856828,-0.2845313,-0.18935582,-0.0067891395,0.03969885,-0.1098807,-0.14153682,-0.14580584,-0.0038510878,-0.03519466,-0.054530274,0.057964947,0.18018632,-0.13049354,-0.01656602,0.03125501,0.019388344,-0.034889992,-0.06944051,-0.11837776,-0.1808216,-0.09230421,0.0069555365,-0.29759982,-0.11579157,-0.086345986,-0.08007835,0.018983899,-0.4173554,-0.041979726,-0.20349956,-0.0125308735,-0.0451722,0.068966456,-0.09592496,0.03128495,-0.03321094,-0.1747559,-0.04312327,-0.039319668,-0.07932985,-0.09436463,-0.039920762,-0.028610807,0.110335015,-0.13193189,-0.14108472,0.085743204,0.05068886,-0.32718566,0.049603615,0.1268791,0.08948857,-0.046835214,0.0019527025,-0.0072929314,-0.07848108,-0.04753677,-0.060286384,-0.00031399878,-0.084693365,-0.30467305,0.033033118,-0.008222429,-0.04839727,-0.04477874,-0.03885185,0.061834972,-0.051256325,-0.04961296,-0.17420948,-0.026504498,-0.10373585,0.04568178,0.10721938,-0.23472323,0.06877559,0.16202241,0.053957608,-0.20283751,-0.031071512,0.09521082,0.07929736,0.18670163,-0.093296565,0.12809134,-0.063923396,-0.12866986,0.031080648,-0.10385476,0.020990126,-0.1396744,-0.14643674,-0.15579784,-0.10863326,-0.022274682
0.074158594,0.02767641,-0.07037779,-0.045344226,-0.04624784,-0.047924735,-0.026673999,0.04834899,0.029281773,-0.062076006,0.04251153,-0.095656805,0.080100626,-0.08295966,-0.05637281,-0.037183255,-0.029681234,0.05325669,0.03800979,-0.0036766555,-0.077705055,0.0499343,-0.013696845,-0.058277637,-0.0047355243,-0.07396158,-0.027359614,0.037701428,0.020010449,0.038279857,-0.0132653415,0.07440494,0.0018428604,-0.0070164325,-0.063653156,0.03021392,0.023268133,0.0069820606,0.07530594,0.00015689747,-0.085338734,-0.09437505,-0.00902255,0.05542409,0.018643212,-0.050823025,-0.1383431,-0.0711842,-0.009340987,0.011842243,-0.11350727,0.022316528,0.023121936,-0.06994573,0.067898385,-0.09620895,0.043184206,-0.07395758,0.019284826,-0.077425495,-0.038970537,-0.09516873,-0.036874827,0.07234381,-0.048910353,-0.09560591,0.033780828,0.061737183,-0.1295552,-0.06997948,-0.023805205,0.023218986,-0.053073987,-0.033023726,-0.03557627,-0.055695467,-0.05314703,0.026714819,0.035077367,0.011079777,-0.07177271,-0.06503263,0.028526263,-0.046211988,-0.008949394,0.006513381,-0.11486611,-0.045726467,0.034447473,-0.004289513,-0.032130156,-0.01934884,-0.09212853,0.044278685,0.03870636,-0.064246155,-0.03835502,-0.056686524,-0.01694732,0.030170066,0.028962985,0.06819829,-0.016795155,0.031467352,0.045883108,-0.1382027,-0.008754883,0.026127374,0.014099686,0.03483895,0.08052823,-0.009396534,0.023824101,0.011471109,0.01665575,0.05228444,0.00921069,-0.09132706,0.010776823,0.004825035,0.060260367,0.030000038,-0.062443517,-0.02743757,-0.036985744,0.017119598,-0.07140633,0.045641
-0.0989754,0.026189437,-0.23067954,-0.20868447,0.026400987,-0.10468376,-0.5186514,-0.01983264,-0.020217685,-0.41386533,-0.3161275,0.05286432,-0.03756521,-0.3041697,0.031081041,-0.4213616,0.37968558,-0.2389824,-0.2091052,0.38501802,-0.11202599,0.087919615,-0.00531988,-0.29719067,-0.20493345,-0.024769243,0.18245848,0.06647788,-0.1356535,0.009048267,0.30412653,-0.03517075,-0.06799841,-0.057324782,-0.03686507,0.122964464,0.06130484,0.30454147,0.060669795,0.062266205,-0.23224649,-0.30649152,-0.17435554,-0.18200055,-0.23809546,-0.06286737,-0.32194844,0.10812448,-0.18607098,0.020764202,-0.16682166,-0.16580322,-0.0670258,-0.18825649,-0.04727468,0.011066488,-0.29274157,-0.17873752,-0.403667,0.06535931,0.057294596,-0.41804186,-0.09274413,-0.021857535,-0.030017644,-0.14261119,0.045298424,0.041796405,-0.04744764,-0.006663412,-0.08917414,-0.034512293,-4.155653e-06,0.24046245,-0.34542015,-0.11225057,-0.3872555,-0.3222387,0.019627742,-0.16577284,0.044683903,-0.47808778,-0.25430593,-0.23973815,-0.08181587,-0.024847737,-0.103627935,0.053654775,0.075264245,-0.1209625,0.03722066,-0.4299454,-0.052384946,0.18181968,-0.22695744,-0.35099566,0.118453175,0.07138664,-0.16540065,-0.08398148,0.07992454,-0.14312406,-0.3393628,0.065152496,-0.07022308,-0.26912206,-0.06524683,0.060115885,-0.37931424,-0.30653387,0.079841256,0.08677711,0.0891851,-0.24072489,-0.08762463,-0.060087424,-0.15728024,0.03685343,-0.34321356,0.030534154,0.034178384,-0.4254579,0.11942032,-0.11348782,-0.31521362,0.15311131,-0.43324193,-0.05763581
-0.061471194,-0.048961017,0.001043463,-0.0020721955,-0.027796775,0.09600854,-0.11520361,-0.04535188,0.0087666325,-0.40250823,-0.20397651,-0.088259414,-0.13376294,0.04415282,0.0072312434,0.14206831,0.09570482,0.06336671,-0.060989905,0.12763612,0.032828014,-0.083982944,0.06146146,-0.11714028,0.21836242,-0.07105658,-0.1785247,0.008674679,0.044882208,-0.030626323,-0.20552206,0.0347942,0.00906579,-0.27283257,-0.38662264,-0.16283454,0.055806413,-0.2504259,0.0028221556,0.18262589,-0.021338634,-0.015481173,-0.048263542,-0.01884089,-0.3160215,-0.10092224,-0.406335,0.0089504905,-0.082708724,0.18778315,-0.14084043,0.13273165,-0.544422,-0.087213114,-0.08855281,0.16602328,-0.09240536,-0.18498592,-0.25508353,0.005123617,-0.03901249,0.055280797,-0.12423676,0.021097884,0.044007502,0.018385889,-0.06351729,0.014461413,0.08834667,0.027973324,-0.23349498,-0.14694805,0.05927134,-0.06334245,-0.048382122,0.09041973,0.19832018,0.06681781,0.121151224,0.14790148,0.27300948,-0.06594877,0.06341147,-0.062976934,0.01868123,-0.0049889884,0.07832257,0.17057016,-0.0376479,-0.37833285,0.0088902,0.069794774,-0.026680604,-0.24959397,-0.05801369,0.02823112,-0.009341107,0.06625025,-0.12621924,-0.0060358956,0.04827806,0.0060161473,0.08879131,-0.51048976,-0.0026451051,-0.10691634,0.021998985,0.052790143,-0.029453361,-0.14565262,0.008650041,-0.052118376,0.0027786123,-0.0053229355,-0.05071059,0.14177285,0.031074112,-0.038595755,-0.23999684,-0.022427747,-0.0821652,0.06790864,0.012862137,-0.010382219,0.0734699,-0.098081395,-0.12477895,-0.055821788
-0.084932014,0.07676595,-0.09049282,0.0021539866,-0.030304378,-0.009909828,-0.086164445,0.017546117,-0.111685656,-0.033868372,0.011838313,0.0024569067,0.05951808,-0.116359904,0.03877069,-0.010414701,-0.048176516,0.06783146,0.13195439,-0.15187512,-0.046833117,-0.013062762,0.025582302,-0.04673637,0.07944523,0.0069714272,0.05371479,0.08408721,0.06400911,-0.0557297,-0.033445664,-0.033714093,-0.020415237,-0.020881807,0.08055764,-0.10954302,-0.030403787,-0.02810323,-0.21722525,-0.048431586,0.003885501,-0.025478913,0.021645704,-0.024634495,0.019170182,-0.081077375,0.06510482,0.04843479,0.04073368,-0.017867276,0.03103837,-0.09534923,-0.056571838,-0.07811619,-0.04470922,0.035569035,0.026172545,-0.09852058,-0.07872006,0.00087904016,-0.01817052,-0.06730004,0.036109183,0.028480455,-0.04166863,0.020845363,0.007316504,-0.08389868,-0.12384164,0.06734231,0.0022585592,-0.03666186,0.016359037,-0.07506101,0.026772017,0.03317112,0.075230666,-0.02277247,0.05787643,-0.09209281,-0.019184163,-0.056246266,-0.07635608,-0.055617306,-0.073432215,-0.0018150975,-0.04716364,-0.051887654,-0.015267227,-0.106372826,0.017622957,-0.024550414,-0.021755155,-0.10023706,-0.09673041,0.009246808,-0.022776062,0.05573631,-0.024400938,0.0910228,-0.050659284,-0.06739465,-0.060632903,-0.015912272,-0.065037966,-0.08255496,0.056454707,-0.08466153,-0.00439217,-0.051771514,0.040869463,-0.020348027,-0.002395259,-0.13335532,0.05113572,0.048968267,-0.08459777,-0.010439124,-0.008769944,0.03552833,-0.005829138,-0.056304038,-0.11395593,0.041854404,-0.012338714,0.05400186,-0.0841979,-0.058751162
-0.005503979,0.050129738,0.0016747679,-0.07840322,0.06839161,0.07482675,-0.04222534,0.003293936,-0.058905184,-0.38513783,0.10923337,0.001107561,0.104382135,-0.06678401,0.034427274,-0.2436666,0.1082884,0.020941569,0.11299369,0.036957495,0.007898939,0.08031886,-0.010566134,-0.31375855,-0.08722107,-0.042569194,-0.057474952,-0.042642996,-0.13532732,0.041634295,-0.48248336,0.05395755,-0.07393034,-0.08962577,0.028053626,-0.5630088,-0.020995261,0.16175373,0.046702743,0.01481536,0.08423725,0.064819716,-0.32018402,0.048940223,0.11048916,-0.08525807,-0.34081295,-0.013623849,-0.34611568,-0.06847403,-0.12660447,-0.18210846,-0.18322635,0.07204187,-0.017387953,-0.38344806,-0.15235144,-0.18602528,-0.30389255,0.09042916,-0.36678243,-0.64623404,-0.06538142,-0.03089749,-0.28295302,-0.124355696,0.00072868407,0.033068925,0.012171873,-0.03543523,-0.15825202,-0.0753687,0.03201909,-0.0074425954,-0.17449862,0.24668035,-0.22306016,-0.24267182,0.050969824,-0.21454014,0.0664353,0.067415595,-0.08551862,-0.14397831,0.017610589,0.092396334,0.18541218,-0.0041715596,-0.40260258,-0.043448083,-0.018878035,0.048691675,-0.011151754,0.063805535,-0.24937621,-0.21072643,-0.24004214,0.05967862,0.020311017,0.06535822,-0.06251517,-0.07290147,-0.3362002,-0.36024898,-0.055099674,0.054862544,-0.050406743,-0.19141579,-0.7100874,0.13663067,-0.026346112,-0.851156,-0.34511223,-0.19819771,0.13344344,-0.029320166,0.04679513,0.21389881,-0.5768259,-0.30145967,-0.02155869,0.004530508,0.09012267,-0.113048136,-0.10371881,-0.14248116,-0.32131505,-0.0016256904
0.1002416,0.01694376,0.022234468,-0.048367787,0.003434616,-0.029145868,-0.010967862,-0.055404473,0.08086323,-0.09012462,0.24657504,-0.084809266,-0.14913526,0.09151948,0.004855521,0.0016821334,-0.12748684,0.13182235,-0.23482981,-0.14453988,0.090044856,0.006340439,-0.043522704,-0.32940713,0.14358811,0.07611425,-0.28061846,0.07156404,0.09775017,0.057620347,-0.07644953,-0.18689795,0.012924746,-0.025452318,0.04807334,-0.2097925,-0.07095473,-0.21468145,-0.08519262,0.052153878,-0.14076887,0.08705979,-0.13071549,0.21039222,-0.12041029,-0.15311557,-0.40713522,0.027769463,-0.23705402,0.06599806,-0.050526965,0.15795341,-0.25164226,0.1091181,0.030678242,-0.13451937,-0.2829211,-0.053645,-0.4757593,-0.01528086,-0.03335253,-0.006820425,-0.2893459,-0.040638935,0.08728736,-0.050902,0.023693992,0.085215196,0.12625349,-0.16187204,-0.14994138,0.06461093,0.03186908,0.044189863,0.079363726,0.08874127,0.06310635,0.019895263,0.09362111,0.14950551,0.1380591,0.016542645,0.031509917,-0.10410388,0.04841941,0.04819458,-0.10119472,-0.16624714,0.012610901,-0.075885914,0.012436033,0.031607956,0.06605178,0.02278507,-0.007891174,0.04608492,0.061292563,-0.070054166,0.045455374,0.033020668,0.027478943,-0.16731183,0.011091785,-0.13234325,0.051448997,0.089546464,0.06376136,0.09510359,0.008417692,0.08792638,0.07792527,-0.07104048,-0.20870875,-0.023195606,-0.2692069,0.16478418,-0.16645132,-0.11298016,-0.022047458,-0.18337014,0.0033565308,-0.14951304,0.059298288,-0.2635074,0.09303192,-0.3433837,-0.04202835,-0.16669178
-0.025667284,-0.074541226,-0.023370594,0.0012245117,-0.06977377,-0.08267307,0.003998682,0.010673182,0.0066772955,-0.007301783,-0.0058612893,-0.03850692,0.032891586,-0.00029468356,0.011375841,-0.033453614,0.01216068,-0.010703209,-0.000630002,-0.012743908,-0.0032456925,-0.01838516,-0.024783466,-0.0068888203,-0.033891886,-0.03088347,-0.0040741744,0.049543466,-0.031238925,0.08972268,0.025970787,-0.0038494738,-0.030980865,-0.0059153936,-0.002496483,-0.04331947,-0.11160039,-0.008021344,-0.008132802,0.0068769394,-0.0005820195,0.0062222066,-0.038306344,-0.0409638,-0.005243777,0.009907852,-0.009663808,-0.10733999,-0.014318058,-0.026131442,-0.0030253802,-0.050472222,-0.039352816,-0.0021938784,-0.012625735,-0.007770954,0.0009956979,-0.0044029285,-0.005612333,-0.035613153,0.011191095,0.0128285745,0.0061967974,0.06461271,-0.053130347,-0.010731536,-0.010321806,-0.05924159,-0.0813102,-0.13605228,-0.012935563,-0.04270366,-0.13244653,-0.029100683,-0.0055411803,-0.03215686,-0.019981842,0.06416988,-0.006318353,-0.00408083,-0.04141139,-0.0031899838,-0.022402935,-0.0063147163,0.017749421,0.047846198,-0.006125631,-0.018648725,-0.005427531,-0.0142665515,-0.006367524,-0.030844534,0.0526928,-0.08566736,0.0047390764,-0.02685075,-0.029278336,-0.076098084,0.030910743,0.046415158,-0.010526113,0.022004928,0.009855774,0.010653393,-0.18528275,-0.05854211,-0.038520854,-0.009796282,-0.027640874,-0.06230384,-0.018859038,-0.013665365,-0.0049918434,0.0041552014,0.053988166,-0.03800451,-0.019497951,-0.063259855,0.009826603,0.0016637811,-0.08377297,-0.044456378,-0.03376829,0.051485397,-0.019414581,-0.008444884,0.023748212,0.07157006
-0.064882495,-0.04167765,-0.21208756,-0.103140466,0.0020393722,-0.25077274,0.046339285,-0.089196414,-0.32155782,-0.24646549,-0.082041614,0.043548282,-0.012855739,-0.25014314,-0.0051776846,-0.10442142,0.05465776,-0.030195046,-0.12257396,0.123820335,-0.100706816,-0.12146228,-0.13268524,0.015674988,-0.11254924,-0.5306425,0.074931026,0.038581684,-0.042835727,0.026342113,0.1168714,-0.16882522,0.012136095,0.10360494,-0.095316686,0.049499296,0.08025911,0.12361605,0.12024574,-0.15581375,-0.3327372,-0.17040934,-0.08844763,-0.24158773,-0.308559,-0.052781038,0.0066289175,-0.06518832,-0.023907337,0.0030470283,0.115431786,-0.5498219,-0.21941948,-0.18047981,-0.022929877,-0.36382243,0.1608407,-0.0111175645,-0.012061995,-0.06168545,-0.15109465,-0.19152455,-0.082004376,-0.038017146,0.25651756,-0.027959378,-0.10624771,-0.014367943,-0.08244559,-0.04242167,-0.4296862,0.028669722,-0.0040487363,-0.11094328,0.15864004,-0.25548849,0.1535989,-0.033852678,0.12410093,0.06473872,-0.12673222,-0.17001759,-0.33737832,-0.04652797,0.1712836,-0.0635077,0.13014492,-0.06465955,-0.36754602,-0.15775152,-0.02462247,-0.06555373,0.03356618,-0.17284101,0.013884985,-0.20269233,-0.08403284,0.053281154,0.015182166,-0.057719033,-0.0063173575,-0.048016742,0.063207254,-0.41021925,0.0063679297,-0.004606598,0.026983563,-0.14951475,0.15581037,-0.28027147,-0.074693896,-0.1737247,0.13405229,-0.21761549,-0.10585914,-0.42891955,0.17486097,0.051642776,-0.19206157,-0.22883473,-0.0031692502,-0.09713282,-0.07694384,0.0076416656,0.10409583,-0.09342678,-0.192025,0.07213499
-0.05939949,0.01894263,-0.012019711,-0.15568614,-0.012215011,-0.0563841,-0.12045185,-0.10887202,0.06663643,-0.094549134,-0.18507569,0.07165041,0.069495596,0.0803364,0.051074937,-0.06809892,0.029515171,0.16950214,-0.01762356,0.10053988,0.038382776,0.0069731413,0.060350195,-0.103389405,0.11068112,0.113480814,0.12916416,0.07808138,-0.17643668,-0.051806103,-0.1388851,0.043882806,0.0045732777,0.028301254,-0.013983102,-0.44946057,0.031619195,-0.26229244,-0.03554843,0.13116468,0.022262972,0.124793395,-0.043126475,0.18125208,-0.10140994,-0.098343216,0.09873186,-0.032393575,0.006280437,0.022897474,-0.12616013,0.06222373,0.1207082,-0.0057744565,0.117903695,-0.029218992,-0.07082756,-0.016300919,0.0238835,0.027277986,0.009784585,0.18240933,-0.042604923,-0.008060447,-0.034765698,-0.0322285,0.093178496,-0.08334032,-0.06597167,-0.009988638,-0.21623948,-0.009958376,0.053032655,0.066410474,0.028338704,0.13671663,0.005188778,0.30978,0.0685493,0.11301196,-0.057208423,-8.4407766e-05,0.09858245,-0.19822982,-0.18828593,0.071683705,-0.05818419,0.010719395,-0.06751929,-0.027611282,0.06396094,-0.17658399,0.018118756,-0.021168252,0.06954794,-0.09289728,-0.08104966,0.08544208,-0.0990941,0.0031196668,-0.07209689,0.12310042,0.07582035,-0.017520012,0.0056114364,-0.005894698,-0.064431086,-0.04700138,-0.011607757,-0.06517529,0.038246598,-0.053209074,-0.1976746,0.15338394,0.04765817,-0.0036731672,-0.11214423,0.08682261,-0.31273606,-0.031867903,-0.06256785,0.102440104,-0.00507386,-0.06150413,-0.029174956,-0.023723252,-0.058715537,0.0298046
0.010654585,0.0074280216,-0.15858413,0.0010194979,0.026859753,-0.14435506,-0.021538297,-0.032576844,-0.01982367,-0.1609496,-0.026658466,-0.039416805,-0.060650434,0.057759482,0.0006668927,0.02537246,0.0390005,0.07988438,0.06627319,0.08485788,0.032216437,-0.051040195,-0.11966504,0.0006359193,-0.0707255,0.041733325,0.05411753,0.034745947,0.035707917,0.028956696,0.09024511,0.0021698053,0.017785532,0.019811394,-0.007333425,0.04062386,-0.10242139,0.16052449,-0.15150528,-0.054835193,-0.1100038,-0.09013245,0.09531862,0.08711796,0.1898105,-0.03157778,0.07517381,-0.038545676,-0.0071030143,-0.13987161,0.17241693,-0.086988926,-0.1115874,0.0030322922,-0.028275775,0.20446067,-0.010237382,0.11339845,-0.033768985,-0.028544743,-0.028499799,-0.015297402,0.21020003,-0.1027863,-0.024648871,-0.24053895,0.03743775,0.026226738,-0.16073513,-0.112001605,-0.07955038,-0.092409045,-0.0404508,0.20894717,0.08256167,0.13218726,-0.044174843,0.006273402,-0.2985565,0.04012398,-0.1095357,0.004594016,-0.15453415,-0.13095073,-0.09009961,0.035114285,0.041800234,-0.28703722,0.07989138,0.047341164,0.075622685,-0.050509498,0.056074936,0.063174516,0.01779032,-0.030762827,0.1291778,0.055562083,-0.21592017,0.0105083315,-0.06534108,0.29921767,0.039254308,0.07234961,-0.038548026,-0.07675951,-0.09369734,-0.25391677,0.049668424,0.02601464,0.034396328,0.00026540988,-0.0062342654,-0.081040986,0.30955964,0.052380897,0.061836306,0.25686553,-0.03123367,-0.12474592,-0.024832912,0.21290523,-0.12657142,0.09584843,-0.29177195,0.033787973,-0.012515656,0.19764414
-0.051450636,-0.0018252396,-0.009474819,-0.050872806,-0.02298787,0.016653093,-0.11352412,-0.085142806,-0.09395944,-0.052819032,-0.10925108,-0.038171038,-0.017828288,0.048806567,0.0132104885,-0.13462979,0.048868753,0.0239742,0.010528296,-0.13506551,-0.09926647,0.0044642333,0.015845314,0.026285501,-0.055473242,-0.08529869,-0.036643013,-0.004958684,0.028333187,-0.04628834,-0.035440322,-0.065814495,-0.0810546,-0.05237302,-0.06649666,-0.001982923,0.032028135,0.054360684,-0.0087744845,0.020664139,-0.0016348208,-0.043463275,-0.048323527,0.0694855,-0.04668595,-0.105171345,0.0030969132,-0.09936124,0.07010001,-0.013473457,-0.11993303,0.021731945,0.010336831,-0.0036204201,-0.05412253,-0.07719857,-0.08223803,-0.02370121,-0.08108173,0.06263964,-0.014264796,-0.03639764,-0.03972824,0.064468436,0.011671377,-0.09543134,-0.06990374,-0.098203406,-0.062165752,-0.0877064,0.0005129509,0.037156597,0.03101561,0.07728903,-0.010957945,0.06609195,0.019046085,-0.11156288,-0.056530636,0.018620804,0.09586387,-0.14060098,0.051007632,-0.006329803,-0.087902054,0.002909263,-0.11475293,-0.018562535,-0.007423114,-0.120674305,-0.054804668,-0.05678842,0.007278376,-0.03311235,-0.13985738,-0.000505154,0.019694384,-0.06091419,-0.08093609,0.062003624,0.030741118,-0.06285943,-0.08188478,0.012289381,-0.12346402,-0.101881005,-0.0054049925,-0.073421784,-0.007483925,-0.040290356,-0.0424153,0.04229932,-0.07905816,-0.03718323,-0.10034065,-0.008444366,-0.09507377,-0.05330499,-0.03850782,-0.022896089,0.03366293,-0.0042907484,-0.041860405,-0.060557116,-0.012021413,-0.011107184,0.042590696,-0.05164331
-0.07098047,0.0152462665,-0.034899388,-0.041775677,0.031072808,-0.0884565,-0.0133416625,0.04810812,-0.030783659,-0.13136244,0.037196036,0.0069506085,-0.053305,-0.011990146,0.041531757,-0.012597996,0.02592848,0.059754025,0.09074739,-0.012073925,0.004773032,-0.35634312,0.014030167,-0.47634456,-0.04146806,0.035541534,0.20670503,-0.07367458,-0.13949503,0.002492069,-0.11027637,-0.022186756,-0.040852867,-0.031698667,-0.0815559,0.030458009,-0.10172689,0.024699276,0.021304496,0.07181302,-0.06099511,0.015964119,-0.010038182,-0.06966192,0.0026915497,-0.05457832,-0.058630306,-0.034355976,-0.16502838,0.07830111,-0.09152533,0.07193531,0.03945328,0.02073684,-0.018862924,-0.024358127,-0.13523336,-0.01214067,-0.4738017,0.015566347,-0.06528058,0.013015659,-0.35628065,-0.029507196,-0.04174505,-0.026983535,0.053945255,0.071930565,0.029906172,0.0258833,-0.027851487,0.2610176,0.06033777,-0.15709822,-0.01549274,0.10258266,0.01140671,-0.11792493,-0.07998678,-0.08687718,0.008372629,0.010552531,-0.005333833,0.18109682,-0.098849915,0.00023687452,-0.014195563,-0.05521523,-0.08246018,-0.017344166,0.09403083,0.05509784,-0.07415972,0.052871753,-0.06458588,-0.0076438067,-0.0772653,-0.07283167,-0.08096491,-0.064183556,-0.031296767,0.17509468,-0.18929477,-0.17779692,0.01962101,-0.08013959,0.0041888277,-0.099053904,0.0008262,0.022139905,-0.070424035,-0.01584787,0.0035856133,-0.059144214,0.13334651,-0.039562423,-0.049357068,0.0074557643,-0.021303406,-0.0996316,0.02678253,-0.1203511,-0.06659065,-0.17021066,0.03864681,0.029739471,-0.48047295,-0.21205743
-0.13007654,-0.05079108,-0.16714117,-0.09959945,-0.029324833,0.073556475,-0.043981846,0.037248064,-0.082482114,0.0011454277,0.0019348025,-0.012305539,0.074823104,-0.1653827,-0.008561067,-0.09732102,0.11982284,-0.19913618,-0.028003048,-0.026010148,0.01073444,-0.007548873,0.07279152,-0.14732845,0.05813333,-0.14827205,-0.5475025,0.0024367883,-0.052590143,0.018559983,-0.21501985,-0.07930916,0.04723295,0.043284684,0.021328872,-0.13283591,-0.0075098206,0.11878832,-0.0036833456,-0.06506026,-0.009355881,-0.020953663,-0.13597652,0.06463109,0.17814332,0.08756195,0.012528953,0.10007216,0.007843452,-0.0019775524,0.068025656,-0.29275873,-0.031122087,-0.2572662,0.054677803,-0.116590895,0.037801307,0.029364327,-0.11242484,0.047260128,-0.10084045,-0.06365046,0.0893606,-0.030076781,-0.14437865,-0.08514903,0.0004946937,-0.057440616,-0.10637352,-0.22172303,0.05723508,-0.06233386,0.0038638057,-0.06426619,-0.017314006,-0.10128694,-0.07546133,-0.018877221,-0.07088255,-0.22401199,-0.063993216,-0.05826928,-0.14903802,-0.054808438,-0.29127103,0.039112926,-0.054341026,-0.03915867,-0.14107902,-0.07760421,-0.09344521,0.022625467,-0.07421859,0.031210532,-0.06581691,-0.13044292,-0.20223305,-0.024595598,-0.09558292,-0.021357218,0.011855041,-0.04167888,0.14540316,-0.14796983,-0.012985379,-0.08309156,0.034331743,0.009862974,0.002548777,-0.09420875,0.011061494,0.085029386,0.11001646,-0.4407773,-0.05889725,-0.020088967,-0.1470097,-0.06352806,-0.18616161,0.1549389,-0.071282096,-0.16835345,0.14682648,0.07485833,0.17136523,-0.46151674,-0.077541605,0.07807278
-0.03186027,-0.024342611,-0.09808856,-0.037365388,-0.035721764,-0.070506774,-0.15324637,-0.024392366,-0.02442148,-0.08448239,-0.008371942,-0.08257278,-0.042418044,0.06348858,0.00807333,0.010142131,-0.18886596,-0.08090205,-0.08804742,-0.06363257,-0.08454986,-0.1405384,-0.043629352,0.04819556,-0.08861622,-0.07383766,0.038894795,0.0064481627,0.010686009,0.05973089,-0.19732714,-0.028869195,-0.049236573,-0.08117197,-0.062167767,0.22995035,-0.016529778,-0.051484857,-0.0040242504,-0.01107248,-0.026910286,-0.07033428,-0.19259946,-0.08651651,-0.03125889,-0.042530157,-0.048863605,0.06584011,-0.018215112,-0.0582338,0.11549408,-0.010710506,-0.07590467,0.028766751,-0.024404509,-0.07284606,-0.04097827,0.017377986,0.050224014,-0.048898403,-0.12848184,-0.20280854,-0.037253674,-0.054340966,0.072303146,0.05013653,-0.08094579,-0.00029756944,-0.15343815,0.028893756,0.13222235,0.018658306,-0.08448825,-0.024991043,-0.021986144,-0.09034207,-0.05011826,0.10552633,-0.015672648,-0.06520769,0.15598859,0.008006992,0.05835064,-0.011902977,-0.049647816,0.026135376,-0.049854886,0.03813332,0.0100863855,-0.099290214,-0.07852586,-0.07787336,-0.05504633,0.053111378,-0.10614642,-0.029686065,-0.019108143,-0.027417306,-0.018031023,0.038446687,0.021068906,-0.00763339,-0.10007575,0.025958324,-0.022863248,-0.040378164,-0.005297446,-0.049171384,-0.023580521,0.03963573,0.047245797,-0.09538425,0.022653103,-0.19315794,-0.13734882,-0.04462217,-0.01699903,-0.103487045,-0.040206343,0.014083635,0.022971055,-0.031716738,-0.15647943,0.020051697,0.03029444,-0.0048747724,-0.03433415,-0.08111097
0.054485638,-0.061498307,0.004706171,-0.09871156,-0.05698001,-0.045133762,-0.019124018,-0.0068978188,-0.03019431,-0.050112754,-0.003045699,0.005519191,-0.045198873,-0.056582656,-0.0517875,0.052195955,0.010732692,-0.05676781,0.024190523,-0.060533255,-0.049594693,0.05540875,-0.027444225,0.07002349,-0.029718123,0.021683838,0.09642841,-0.084556825,0.007613673,-0.070938595,-0.010945771,0.024190985,0.0063181054,0.055723958,0.03967238,-0.09740325,0.06594945,-0.09783256,0.062171325,-0.09949708,0.0023120183,-0.014649067,-0.0073080645,0.022729881,0.04690034,-0.07139604,0.0025870719,0.008528294,0.019001093,-0.04727245,0.012877226,0.0414025,0.025498703,0.07558284,-0.018475326,-0.09320843,-0.08456275,0.026817024,-0.10798501,-0.011297597,0.027670287,-0.004554051,0.069200955,-0.029375343,-0.07348547,0.0075814845,-0.099160165,0.029095946,-0.12448937,-0.061203368,-0.024105243,-0.008130226,-0.062042054,0.044577464,0.03275508,-0.012024124,-0.0056987014,-0.028294325,-0.07015416,-0.064763635,-0.002332567,-0.08409052,-0.061258335,-0.015838042,-0.026602527,0.03641991,-0.091031246,-0.04588536,0.008862362,-0.014247094,-0.018371616,0.019602327,-0.05197515,0.06697894,-0.065881096,0.048115194,-0.09598983,0.0035753215,0.085466176,-0.014727679,-0.07287738,-0.014991933,0.027920075,-0.038514618,-0.05903715,-0.08616093,-0.018713342,-0.05280226,-0.013554,0.052846808,-0.015858278,0.0050812946,0.03811444,-0.028486732,0.14363213,0.030616218,-0.05080986,-0.071923085,0.0277644,-0.020822203,0.018891063,-0.021826124,0.003517465,0.07932873,-0.10423497,-0.1052349,-0.13612215,-0.026238319
0.03370282,0.08029416,-0.1555835,0.021208249,-0.01668142,0.05904227,0.0059514446,0.061835658,-0.1093574,0.15843186,-0.275588,0.051900126,0.057633717,-0.33306754,-0.06429564,0.029767606,-0.0500761,-0.22957107,-0.08444769,0.038708497,-0.04353005,-0.08597453,-0.090685636,-0.30946788,-0.0046492163,0.045725,0.11497043,-0.046418965,0.06959996,0.018228559,-0.075301945,-0.034087542,-0.0408713,-0.11778759,0.108444065,-0.052860122,-0.070637524,-0.1526777,0.19870926,0.053788356,0.015884668,0.16081691,0.13305357,-0.014895902,-0.268947,-0.059548568,0.07023975,0.03733631,-0.08176943,-0.20739898,-0.028578829,0.2758766,0.017430322,-0.09080397,0.058373753,0.08712259,-0.14002119,0.18384609,-0.07611417,-0.06202305,-0.25998256,-0.07628674,0.045341283,-0.08286288,-0.2651399,-0.13567346,0.069400445,-0.091936775,-0.008277343,0.05945618,0.08978387,-0.054050542,0.025886426,-0.027861342,-0.14816923,0.031577915,-0.23370518,-0.04516403,-0.009261884,-0.08203651,0.06625413,-0.33526325,-0.12125362,-0.063055605,-0.10117396,-0.04457943,0.14156644,0.02920731,-0.0038475825,-0.043490417,0.03051344,-0.048757598,0.0697639,0.09758567,0.041701183,0.09047419,-0.06336296,-0.036913652,-0.06408046,-0.05728897,-0.0569136,0.005736968,-0.009309527,0.03380332,-0.035095803,-0.12697756,-0.10009612,-0.14218122,-0.18876587,0.1890361,0.05295629,-0.35694775,0.009346723,-0.17678462,-0.00080859323,-0.017933056,-0.0047646826,-0.07414698,-0.011871281,-0.038456906,-0.055920023,-0.2404285,0.0147582395,0.042960953,0.39474925,0.011237687,-0.18761772,-0.022180792
0.02252012,-0.031953394,-0.067806944,-0.04180326,-0.07481042,0.05607663,-0.103371345,-0.034542628,-0.01821976,-0.036243185,0.009456298,-0.06790182,-0.072718866,0.0054829097,-0.023975544,0.042931817,-0.0463171,0.054720215,-0.03637828,-0.069084294,-0.045518484,-0.024583025,-0.0793621,-0.020792717,-0.0758744,-0.0498675,-0.08532921,0.04222691,-0.030825473,-0.008654723,-0.10288721,-0.043427657,-0.082002506,-0.05314311,-0.073595755,-0.027057473,-0.022201408,-0.0834287,-0.028923608,-0.063461296,0.04607246,-0.040084105,-9.210278e-06,-0.04133274,-0.03496925,0.046825353,-0.0028972805,-0.047710735,-0.014195997,0.030717406,-0.026903184,-0.024979137,-0.04014034,-0.029831277,-0.055164587,0.043706045,-0.0098376395,0.008123248,0.005206422,-0.0050180648,-0.02569203,-0.012102329,0.00070811243,0.0861623,-0.07444183,0.069609664,-0.0077702724,-0.0070078867,-0.10383677,0.011115894,-0.006773089,0.0429281,0.009654025,-0.045611996,-0.01637237,0.037376538,-0.087161526,0.03595325,0.023825977,0.07928649,-0.08530779,0.01585203,0.03401776,0.008676799,-0.10024703,-0.08994181,-0.03240576,0.06340889,-0.034630787,0.006134272,0.07514105,0.03459199,0.039005514,0.015461168,-0.06498288,-0.025904985,-0.048211824,0.049293034,-0.0052922717,-0.04863092,-0.072501525,0.054140404,-0.017205156,-0.07568694,0.05679273,-0.059554026,-0.085328914,0.02756378,-0.0037555879,-0.06724376,-0.03965138,-0.10322481,0.058635086,-0.053842068,0.04362835,-0.018038495,0.07847757,0.028466472,0.030794458,0.057056814,-0.08406579,0.031023081,-0.10952307,0.06346375,-0.068096206,-0.08328283,-0.042417347,-0.03827938
0.010869898,-0.031760603,0.02558917,0.10912079,0.015185457,-0.015584962,-0.06280299,0.020102957,-0.17372186,-0.06584619,0.041685198,-0.088178754,-0.052149676,-0.070900865,0.050097257,-0.15640582,-0.29603493,-0.12857978,0.0034419473,0.17450774,-0.05222075,0.011138986,-0.04581911,-0.08554235,-0.053990077,-0.07877365,-0.073068425,-0.029847931,-0.13742243,0.080185905,-0.18426438,0.1739715,-0.08746309,0.13001989,0.048020285,-0.2862833,-0.041839886,0.16178237,-0.08520903,0.09202467,-0.0037199743,-0.008331574,-0.11850682,-0.052521747,-0.16164911,-0.09642691,-0.007012148,0.04961379,0.022574415,-0.08582405,-0.013082982,-0.18720458,0.08218147,-0.10670911,0.03465889,-0.099721305,-0.091537446,-0.001785656,-0.026960427,-0.053273354,-0.1990039,-0.0067558107,0.035138696,0.031590577,0.17415753,-0.006994653,-0.021097694,-0.060695514,-0.10384526,0.024829388,-0.13125858,0.0026561345,0.07316957,0.0006444376,0.06866242,-0.061400484,0.044450972,-0.08061994,0.014781126,0.0662083,-0.07611434,-0.16921386,0.019115431,-0.07188105,-0.018139401,0.03809012,-0.039327987,-0.03499028,-0.13067487,-0.027595475,0.050977632,-0.016789606,0.018520009,-0.062155012,-0.15679397,-0.084300004,0.08040851,0.042956702,0.0009926693,0.053602688,0.07800039,-0.0013586315,-0.030546272,-0.018282603,-0.028599301,0.022651125,-0.049638547,-0.23826288,0.08369409,0.075133175,-0.14705634,-0.14066066,0.07620206,-0.031027764,-0.074683964,-0.14343105,-0.3077266,-0.105948105,-0.20628488,-0.08472744,-0.06245208,-0.036380623,-0.095483445,0.022033976,-0.22686814,-0.11516879,-0.13247375,0.005947701
-0.033193637,0.068887874,0.017928347,0.005908282,-0.038968097,0.058881786,-0.06449619,-0.01868084,0.023512693,0.03896463,0.05681962,0.047426265,-0.06647735,-0.05509496,0.05431141,0.02122415,-0.086941205,0.012825002,-0.058979597,0.018488742,-0.064433925,-0.028321281,0.0337715,-0.0006390583,-0.031834945,0.015835533,-0.017054165,-0.043011732,0.008543708,-0.0075719324,-0.031384867,-0.06775643,-0.06730113,0.026796566,0.022333099,0.009022267,-0.08398931,-0.05403034,-0.024353262,0.007821687,-0.009154439,-0.09651088,-0.092989065,0.00087050244,0.07104827,-0.01848604,0.06078315,0.057148684,-0.012579288,-0.019258248,-0.0032520439,0.06338029,0.029228609,-0.044197142,0.042358264,-0.094290234,-0.018860478,0.015189164,-0.03364329,-0.0047356347,-0.08100128,0.0072236583,0.038145687,0.060347997,0.05852259,0.023766097,0.070430204,0.05313995,-0.044260144,0.006319665,-0.10024512,-0.024600916,0.040788524,-0.06947567,-0.07664085,0.03977841,-0.0030998036,0.060659703,-0.009042929,0.0051025487,0.019863252,0.020605596,-0.08873322,-0.038243614,0.010266066,-0.070211105,-0.096683614,0.02894199,-0.0043705055,-0.0011073154,0.024348387,0.038240645,0.027532721,-0.03243051,0.04023206,-0.08509322,0.0663096,0.008417781,0.028572017,-0.089173034,-0.058601003,-0.051710866,-0.03295551,-0.011221427,0.064601995,-0.04363911,-0.03211575,-0.0071313363,-0.03021674,0.031024909,-0.03305064,-0.056887046,0.080556296,-0.098982096,-0.04154939,-0.09422196,0.022281751,-0.09210144,-0.055782948,0.014419551,-0.014164163,-0.0016146345,-0.10890867,0.023220103,-0.038633198,-0.032588758,-0.085276954,-0.079830855
0.08811209,0.003343099,0.084887356,0.08125443,0.021464173,0.19822952,-0.08117134,0.030764978,-0.09017775,0.117958,-0.022900926,-0.028452937,0.14405273,-0.14239927,-0.063073575,0.091425374,0.040184822,0.11221145,0.009891818,-0.13940674,-0.01567623,0.18051638,-0.17262536,0.20951225,-0.056994956,-0.16066737,0.037430193,-0.018128509,0.001562412,0.11754943,-0.0004205426,-0.09658046,0.0930359,-0.10127378,-0.0027372246,-0.24245517,0.05158572,0.04196926,-0.041830245,-0.043612234,0.010615351,-0.13591473,0.20711511,-0.27737492,0.01838934,0.0359045,-0.044414487,-0.066525325,-0.12962855,-0.016172366,0.030735528,-0.14335875,-0.09628053,-0.14956328,0.020714102,0.1556404,0.182134,-0.07663829,-0.0356207,-0.05690544,-0.28272885,0.111353844,0.14211136,-0.031219386,-0.024872158,0.10417211,-0.054490387,-0.0001973592,-0.005903023,0.24835779,-0.023314012,0.07113099,0.099978164,-0.07517397,0.02881217,-0.18983778,0.07445844,-0.028363617,-0.17155834,-0.15301412,0.062821664,-0.12146978,0.019475907,0.05109288,0.09406321,-2.4168183e-05,0.08301787,-0.023649875,0.082016684,0.117259,-0.042833712,0.08876115,0.051597983,-0.43820083,-0.092825405,0.093598835,-0.10375035,-0.05809152,0.020457333,-0.052245002,-0.042520113,-0.2616293,-0.017218342,0.06360068,-0.014469486,0.17272621,0.047014475,0.06427575,-0.029301263,-0.08302215,-0.030089036,-0.24242675,0.071546435,-0.14134887,-0.037278797,-0.2103478,0.027308756,0.06774756,-0.074900955,-0.043161478,-0.079961196,-0.09831778,0.025560493,-0.07648218,-0.37537572,0.3002447,-0.086559996,0.1336083
-0.017722415,0.0558477,0.010323515,-0.23617944,0.021175781,-0.07066562,-0.0097195385,-0.03942889,-0.19169655,-0.2533057,0.057065926,0.07475548,0.046217475,-0.20696013,-0.008161166,0.19275221,0.16266966,-0.11265076,-0.4917199,-0.23770979,0.14014193,0.014155978,-0.025763387,-0.28905433,-0.12777114,0.06774859,-0.14166065,-0.044520788,-0.01374483,0.021848647,-0.1258799,-0.077093735,-0.025812563,0.079995416,-0.011841907,-0.24541552,0.037772875,-0.04962189,-0.07702981,-0.15923461,0.059688747,-0.25988784,-0.06713237,-0.044966143,0.09092487,0.060880538,-0.35805166,0.013414845,0.052366,0.059453864,-0.18448521,-0.42611867,-0.12803414,-0.16824219,-0.021312196,-0.19309519,-0.16282992,-0.06688631,-0.40621006,0.013486955,-0.32849523,-0.10866553,0.08585951,0.051619887,-0.06859742,-0.23397227,0.043787554,0.0042139073,-0.0035859896,-0.036148507,-0.09786614,-0.112455755,0.034875296,-0.095721826,-0.159487,-0.14475903,-0.24080259,-0.12603654,-0.22664022,-0.16545637,0.25724584,-0.14766352,-0.082052216,0.024772815,0.02502714,0.03306478,-0.27943465,0.06396929,-0.27770078,0.09241551,0.058230016,-0.03682456,-0.024811115,-0.06735302,-0.20171796,-0.51091224,-0.1149569,-0.038100775,0.037665326,-0.024244467,-0.08029889,0.041241094,-0.3545225,0.009209249,-0.08300485,0.07749823,-0.03509435,-0.26469594,-0.61380666,0.018700695,-0.016842565,-0.37109038,-0.2685939,-0.024538077,0.08481192,0.019234795,-0.0898775,-0.0050875214,0.09444637,-0.29507366,-0.059054397,0.07533876,0.07063219,0.04911129,-0.06976279,-0.12823616,-0.0861429,-0.00021508742
0.099165335,-0.04419648,0.008217357,-0.015327671,-0.0015610866,0.018345429,-0.089306936,0.045946952,-0.41383755,0.12147025,-0.06608236,-0.010230445,0.0876037,-0.10839986,-0.043063596,0.031417605,0.1084352,0.021500293,0.2119527,0.0059480476,-0.07694955,-0.0010927065,0.030867133,0.14363328,0.09919011,-0.14958686,0.15339774,-0.020162754,-0.38613185,0.16974954,0.05869496,-0.17188375,-0.070693895,-0.11113385,-0.067202635,-0.12029341,-0.01826645,0.11083088,-0.0730852,-0.050304048,0.08387655,-0.036659583,0.055948433,0.059726644,0.13632117,0.20532353,0.03986777,-0.08566112,0.05153595,-0.10129291,-0.24077202,0.06597474,-0.06964131,-0.020228649,0.009407697,-0.25485596,0.045117803,-0.15370193,0.059900116,-0.06551736,-0.8333521,-0.084181964,0.2845057,0.07770134,0.21458319,0.1326349,-0.08245362,-0.039897863,0.046437357,-0.04387757,-0.22392508,0.06570229,-0.045580056,-0.013735769,0.085581824,-0.05051611,0.13338338,-0.09597316,-0.045222737,0.047457136,-0.13136266,-0.46960807,-0.08875484,-0.04415711,0.019311577,0.06697798,0.044547003,-0.053296413,0.09513375,-0.022092996,-0.033826157,-0.44036996,0.021106075,0.05954665,0.042782396,-0.055369172,0.0058192937,0.0007819427,0.040414717,0.0489284,-0.07047268,-0.17920701,-0.2503451,-0.02249841,0.012822293,0.10651023,-0.038212936,-0.01816342,-0.077891394,0.03216748,0.034505,-0.03155188,0.061889507,0.022121359,0.005516977,-0.28556573,0.05861807,0.024429148,-0.056697223,-0.08101116,0.039624378,-0.17897809,-0.013127495,0.005941997,-0.36649975,0.38150445,0.05919173,-0.053895477
-0.06826451,0.07554994,-0.049411476,0.006382298,-0.07503682,0.025153002,-0.1240804,0.043553576,-0.039172776,0.008773767,0.03930098,0.014058788,-0.06356859,-0.07423439,0.06335108,-0.013959224,-0.0028811586,0.019706069,-0.093797415,-0.028984003,0.0023308292,-0.017259996,0.048770797,0.011740258,0.010687759,0.0032907855,0.03706524,0.00409495,-0.0782828,-0.03459811,-0.062724456,-0.00813376,0.047337335,-0.104577914,0.0008756642,-0.057650223,0.04304997,0.010845218,0.028076954,0.09510528,0.035884213,-0.07559043,-0.01423037,-0.024484709,0.061977096,0.030253217,0.00046661723,0.054850597,0.07065511,0.04378774,0.032816898,0.05256657,0.05870851,-0.07696791,-0.033493377,-0.036727615,0.01515065,-0.024654329,-0.08453379,-0.07119988,-0.05067701,-0.16981319,0.05626567,0.021452904,0.0057650968,-0.035558403,0.0025889734,0.010947121,-0.14686818,0.087792024,-0.019829588,-0.011933316,0.0153309805,-0.115735196,-0.07317408,-0.051354825,0.063041076,-0.008323826,-0.06963364,0.053545684,-0.05545048,-0.022733072,-0.07575674,0.04454096,-0.07332891,-0.0064419047,-0.09567208,-0.025538716,-0.008445739,-0.036186792,-0.041535627,-0.035039358,-0.041625775,0.15712784,0.03836472,-0.12584116,-0.041282043,0.030361908,-0.096412085,0.07381881,0.042938266,-0.003125907,-0.04828635,0.0058363834,-0.08404202,-0.056645658,0.06570344,0.06813603,2.1828248e-05,-0.04376013,-0.024018101,0.042139843,-0.046259135,-0.08196291,0.009378541,-0.07381393,-0.058633327,-0.0051462613,-0.22204517,0.008644348,0.051481992,0.06675573,-0.21804626,-0.04464237,-0.07319518,0.047110222,-0.038249645,0.047103062
-0.15888843,-0.018460702,0.11099535,0.010545366,0.081312135,0.17489485,-0.3688117,0.006826513,-0.2934763,-0.020516573,-0.21377552,0.08846861,0.04409195,-0.56183714,0.08425463,-0.04555422,0.19679752,0.14589845,0.05563749,0.0660406,-0.03372978,-0.086990245,-0.072845824,0.06600201,-0.2110802,0.15468156,-0.019021941,0.06511871,-0.13152924,0.06886235,0.17666389,-0.21455136,0.03600526,-0.11489219,0.021621592,0.17475942,0.021917563,-0.052993674,-0.05953307,0.07585711,-0.036382195,-0.17844546,-0.0030420239,0.038069885,-0.18512003,-0.0037853403,-0.124030866,-0.019332448,0.01207046,-0.28557852,-0.17289406,0.23092683,-0.14837302,0.000121014295,0.004547758,0.035209402,0.045713767,-0.17914242,-0.05994522,-0.015015576,-0.35024893,-0.06355547,-0.13577822,0.021539163,-0.16944969,-0.12397353,0.026886536,0.061817784,-0.026145348,0.043087047,-0.23187709,-0.11328791,-0.053984273,0.028280543,0.031579293,-0.043349124,0.14741214,0.20399915,0.046046626,0.054946505,0.16743125,-0.602652,-0.13774598,-0.23824638,0.1171048,-0.029822024,0.014554054,0.060802605,0.013986538,-0.119051196,0.054711007,-0.11860442,0.0031179118,0.03826621,-0.06355433,-0.050169047,-0.05802502,-0.05069188,-0.31077504,0.024951596,-0.06328899,-0.14162026,-0.02648533,-0.105537154,-0.07356307,-0.06504865,0.01045611,-0.3179942,-0.26707494,-0.36828732,0.06823018,0.086078234,0.103532486,-0.16961166,0.39153138,-0.011839493,0.081638426,0.038307413,-0.061729934,-0.03243351,-0.0244247,-0.11956585,0.030662738,-0.038402375,0.006080191,0.06548331,0.014278079,-0.14626554
-0.17082237,0.055694144,0.009765315,-0.019622937,-0.058851544,0.20078848,0.06271342,-0.026690237,-0.043363113,-0.13185187,-0.098924525,-0.05010427,-0.15162547,-0.08320993,0.010379228,0.04039977,-0.24267289,0.084157966,-0.2122791,-0.17664208,-0.13232447,0.051244136,-0.0068499018,-0.3055124,0.09501284,-0.13784845,-0.17689955,0.020492507,-0.030969918,0.036193516,-0.02255192,0.027360752,0.014489363,-0.03317064,0.024000991,-0.115659766,0.055184264,-0.0023678748,0.0020906278,-0.2143212,-0.0434884,-0.0049123922,-0.08321868,-0.101618744,-0.019335402,-0.07864581,0.045632973,-0.04964902,-0.11131419,-0.070061944,-0.17019293,-0.04453588,-0.11250248,-0.20796898,0.064378224,0.17140186,-0.10403317,-0.103175946,-0.14355123,0.0630216,-0.04029042,-0.13808204,0.05568346,-0.0040579163,-0.068777144,0.08715412,0.03500734,-0.033806264,-0.031773675,-0.0022605609,0.019441312,-0.06123954,0.0703856,0.07114214,-0.011108145,0.09037729,-0.06614466,0.012769087,0.15304007,0.04109653,0.11022389,-0.14699094,-0.076312944,0.053647663,-0.0185287,0.063977204,0.0064988546,-0.04349696,-0.05892478,0.10411697,0.062397253,0.026521647,0.014265989,-0.022751335,-0.30138868,-0.10985406,-0.02489524,0.010161266,-0.08358537,-0.06961303,-0.024278546,0.1350196,0.038893547,-0.25315255,0.061848886,0.09539324,0.033964332,-0.116673455,-0.15845513,-0.1504801,0.05373598,-0.20942053,0.096703306,-0.040794443,-0.05723867,-0.11741346,0.16096884,-0.031242808,-0.015523722,-0.1779244,0.058154713,0.012693911,-0.024027191,-0.10593685,0.06862291,0.19037226,-0.06843611,-0.03844847
0.079915114,-0.044349395,-0.0077817575,0.048585378,-0.025554288,-0.06806567,-0.093103945,0.009468849,-0.14624505,0.045670483,-0.029157072,0.05550547,-0.04576875,-0.090732425,0.087202296,0.1137594,0.046759486,-0.13868761,0.03186481,-0.15480535,-0.10520162,-0.041205995,-0.083811715,-0.063863344,-0.08518947,-0.057389516,-0.013008161,-0.020912403,0.17418042,-0.047029614,-0.12579757,-0.17128856,0.00497634,-0.057897825,-0.09305051,-0.030927442,0.018387629,-0.02146115,-0.105912924,-0.007786077,-0.1633777,-0.014473065,0.11542823,-0.0636746,0.22387624,0.10620301,-0.02958449,-0.05934366,-0.03239092,-0.18495354,0.0130156195,0.012229836,0.17663892,0.008891302,-0.06980024,-0.21837942,-0.11668058,-0.05760266,-0.03526089,0.030455498,-0.3155018,-0.12281843,-0.14090917,0.024784518,0.11394465,0.027133783,-0.06980095,0.035361532,-0.020294804,0.027788602,-0.19361746,-0.11582211,0.1271677,-0.015684541,-0.017209275,-0.13546789,-0.030767709,-0.1667082,-0.045759927,-0.15493593,0.05871621,-0.062805764,0.056303542,-0.15203123,0.056609306,0.04648965,-0.0070077674,-0.032923806,0.028422115,0.03920649,0.030947695,0.044924855,0.002868374,-0.110448234,-0.07865618,0.086047895,-0.1896999,0.010097577,-0.10775118,-0.03307771,0.047571223,-0.089145295,-0.17959411,-0.1726665,0.051024545,0.0036427276,0.053607836,-0.18952897,0.015743066,0.107798256,0.0020545772,-0.0823218,0.030866811,0.07585337,0.06356237,0.04853946,0.124930196,0.17481235,-0.03768019,-0.05847765,0.03848172,0.14332725,-0.013505821,-0.2103336,0.042845234,0.1768812,-0.090674564,-0.01137314
0.01349785,-0.009770869,-0.08536004,-0.07886966,-0.069289796,-0.048733413,-0.046525612,0.035132922,-0.018707776,-0.005595102,-0.028666541,-0.008841489,-0.014399666,-0.010228191,0.058867976,0.002271156,0.005248887,-0.039293885,-0.09409116,-0.09304359,-0.053337052,0.029390752,0.04389233,-0.08408661,-0.03443093,-0.016381612,0.1686745,0.0062851156,0.04581048,0.08000665,0.029437982,-0.031964697,0.03669112,-0.09178985,-0.05321121,-0.054883227,-0.07357028,-0.04130458,0.01427903,-0.07584693,0.052378364,-0.00034727092,0.051932383,0.042274468,-0.0090917,-0.027858583,-0.059800502,0.031516947,0.064668454,-0.00011861536,-0.08690016,-0.08819978,-0.042601746,0.060647305,-0.04326599,0.041686192,0.027160704,-0.040540833,-0.052185465,-0.054723598,-0.08520967,0.025776848,-0.07799863,-0.07197759,-0.08300418,-0.04540263,0.0425969,0.05965905,-0.14138566,-0.07217372,0.04499942,0.028154718,0.041975826,-0.068721384,-0.028419977,0.006745955,0.03408993,-0.1360122,0.010411161,-0.05556592,-0.104399115,-0.07817936,-0.09333848,0.06052495,-0.032471977,0.03348063,-0.1187238,0.00045744856,-0.17332414,0.012173472,-0.004354758,-0.029866215,0.02345457,-0.09230033,-0.047614295,0.029956728,0.02132498,0.03860806,0.08916738,0.039529137,-0.063271835,0.0049398094,0.120838985,-0.13678916,-0.08225093,-0.027767587,-0.0009221616,-0.019389745,-0.016904332,0.06158491,0.08720836,-0.050527,0.006989155,0.009333261,0.021335633,0.017314333,0.028175663,-0.030422766,-0.026853215,-0.03958631,-0.080611974,-0.018203486,-0.15500677,0.037937753,-0.014249161,-0.023371676,-0.0788615,-0.091424555
-0.07649962,-0.021911282,-0.031597033,-0.21347189,0.020658256,-0.111153394,-0.045965187,0.009606644,0.018878927,-0.036606107,-0.047484152,0.046869587,0.04571298,-0.055455755,-0.03316877,0.05414264,-0.035310656,0.016749114,0.02318627,-0.08565755,-0.0033560316,-0.059876174,0.023083007,0.07271627,0.16866021,0.084208794,0.026785418,0.05406592,0.028188223,0.079697914,-0.056610327,-0.17397206,-0.08367422,-0.10727578,-0.08978577,-0.23978414,-0.044038594,0.11072698,-0.054059315,-0.0068522664,0.07770309,0.13477339,0.09500557,-0.08419237,0.12767068,-0.005985588,-0.04709623,0.0928055,-0.03986258,0.028428225,-0.0073154154,-0.08413209,0.04419386,0.05864173,0.08419578,0.072551176,0.038159274,-0.021689195,-0.002826858,0.05805051,-0.07951905,0.018146163,0.08367481,-0.012863609,-0.12848717,-0.01861956,-0.050828844,0.040503424,0.04615742,0.13808702,-0.18149091,-0.036421448,0.01283786,0.035682607,0.09879326,-0.034918398,-0.002915159,0.01721673,0.13089874,0.14607261,-0.081263386,-0.07700533,0.021987585,-0.062038675,0.086345404,0.039050546,0.12919573,-0.008084059,0.0039213886,0.04215107,0.052787296,0.05414062,0.03623463,0.03211763,0.06000126,-0.009446944,-0.21581492,-0.022134028,-0.048683118,0.014416849,-0.025835445,0.1940216,-0.06309838,-0.052148674,0.08821508,0.076776035,-0.040100545,0.04316104,-0.17920151,-0.06532426,-0.04529688,-0.40363717,-0.11020377,-0.26958737,0.10704118,0.091840714,-0.023421738,-0.06998411,-0.24205366,-0.26686466,-0.043052536,-0.22121318,0.013124214,-0.017004313,-0.059693012,0.060859375,0.027391113,0.005795678
0.09064229,-0.062029365,-0.019035283,0.005981393,-0.031611387,-0.079631194,-0.05821507,0.09709443,-0.3891662,0.006240724,-0.12899396,0.0012879478,-0.12413122,-0.20797575,0.06798701,0.04284079,0.03794966,-0.007989158,0.10643465,0.039823074,0.02833665,-0.03632523,-0.03978965,0.023979595,0.10917181,-0.038652863,0.14135021,-0.05706812,-0.3828557,0.18830618,0.086643286,-0.30845425,-0.06446853,-0.08683208,-0.03542974,-0.11171282,-0.01708758,0.11710215,-0.17442459,0.08775252,0.09272061,-0.03263333,0.07563919,0.08356976,0.12868151,0.094328485,0.028913246,0.069990054,-0.01806587,0.13274355,-0.21791145,0.010093489,-0.08507242,0.023848418,-0.090502,-0.24884395,-0.060337998,-0.11498729,-0.020630827,0.015464772,-0.5006626,0.011831756,0.17718284,0.058410726,0.11297711,0.044418808,-0.0075124814,-0.04951928,0.015198792,0.080725,-0.5337084,-0.2528164,0.033407852,0.0045456234,0.09918446,0.021207094,0.21336545,-0.18978548,0.085992225,0.050593268,-0.052144144,-0.5460552,-0.0683187,-0.00538796,-0.026533358,-0.017692601,-0.058419526,0.006844626,-0.052651983,0.0077855727,0.10272228,-0.33638498,0.005597237,0.13996628,-0.03354766,-0.10399532,0.12081501,0.006856886,-0.079235375,0.033849332,-0.085634544,-0.17742631,-0.43208635,0.011187428,-0.048454173,0.08135352,-0.01844948,0.056984976,-0.0154115455,-0.0033091204,-0.036262177,0.03842486,0.06414318,0.029136125,0.11330032,-0.4026783,-0.104050465,0.09018772,-0.032959703,-0.36044696,-0.02895232,-0.16843061,0.00014945466,-0.17265317,-0.1899866,-0.05604491,-0.012237537,-0.09652708
-0.055127807,0.014459525,-0.09813769,-0.04927268,0.088097945,-0.09107839,-0.23966236,0.0034762633,-0.023758175,0.04285691,0.046234027,0.033074364,-0.020954639,0.012740999,0.021159476,-0.08287013,-0.08469942,-0.09161839,-0.057228293,0.044147417,-0.101646535,-0.026365303,-0.09341536,-0.07031066,-0.03944653,-0.060339384,0.03807666,-0.016937772,-0.006638878,0.019555528,-0.014990349,-0.008117208,0.016931728,0.011305509,-0.015085408,0.06422001,0.073229596,-0.020945294,-5.2100615e-05,-0.11925553,0.0008363816,0.0007399071,-0.10906803,-0.0931996,0.07628713,0.031119024,0.046848558,0.00015226305,-0.001155288,-0.036179233,-0.13403167,-0.0063329595,-0.095331855,-0.06437137,0.022660982,0.008495734,-0.12813893,-0.00037646235,0.03652283,0.0047170343,-0.074018516,-0.028292842,-0.018585704,0.021092668,-0.09377515,-0.0811838,0.0684165,-0.013926007,-0.17493372,0.040142227,0.040191844,0.029951008,-0.023856405,-0.049386106,-0.017525958,0.0060449746,-0.086855695,0.12543954,0.08203785,0.036296777,-0.06805024,-0.044936597,-0.013558021,-0.012952024,-0.10854737,-0.036030706,-0.075663924,0.039085165,-0.03250818,0.009882031,0.030586084,0.04756355,-0.04955699,-0.02336631,0.0125377765,-0.1389991,-0.05551876,0.03850141,-0.020488078,-0.022026792,0.04614838,-0.012002096,0.07939366,-0.016787402,0.03846179,-0.017227665,-0.07927573,0.12737334,-0.0034322706,-0.0011595436,0.027874596,0.01148021,-0.028927298,-0.010386214,-0.08507151,-0.08527355,-0.025000142,-0.062825546,0.030043928,-0.007479209,0.020605698,0.07166031,-0.16480863,0.07308669,0.025887547,-0.115918815,-0.059077937,-0.05082343
-0.23346831,0.042034995,-0.08119473,-0.060703356,-0.095360756,0.024417391,-0.062485926,0.03655123,-0.14246115,0.24747147,-0.40962315,0.041513845,0.030480232,-0.005853075,0.0005677453,-0.09582786,-0.47052315,-0.11531136,-0.29169542,-0.23640431,-0.121570244,0.0013658155,-0.04120361,-0.068774134,0.00768102,-0.053737555,-0.4645702,-0.08767873,-0.48050803,-0.026937393,-0.11663549,0.13225912,0.034245998,-0.21098314,-0.09019079,-0.14128263,-0.05083021,-0.17986967,-0.24132775,-0.16954972,0.07329545,0.018042898,-0.43263936,0.039271735,0.2776413,-0.3851871,-0.023484372,-0.038162272,0.1911296,-0.19331147,-0.3924884,-0.00088893855,-0.22508408,-0.21859683,-0.09461833,-0.07187051,0.19649054,-0.00046215794,-0.2573392,0.027140528,-0.0057469853,-0.42617396,-0.09212304,0.0037447906,-0.40594807,0.13502407,0.07403089,0.022788752,0.11838893,-0.14014648,-0.08725513,0.026461331,-0.1213237,-0.111637965,0.13690384,-0.19610257,-0.0023948033,-0.051031202,-0.20672247,-0.08711136,0.05765476,-0.47213265,0.09032835,-0.22764336,-0.16717969,0.0877968,-0.29779005,0.09443739,-0.18931521,-0.28639966,-0.0077817296,0.055143256,0.0009520244,-0.10008186,-0.0138492845,-0.0034449531,-0.07230691,0.06699845,0.04486108,0.041979227,-0.09969009,-0.024762025,-0.22425057,-0.3561408,0.10791115,0.0028440596,-0.032300364,-0.091492265,-0.14787275,-0.008931033,0.06016842,-0.04731628,0.06974192,-0.40451047,-0.02218697,0.0794894,0.004282101,0.11995247,0.022667166,-0.50227916,-0.09856045,0.18500747,-0.091560975,0.22570303,-0.11073207,-0.16409922,-0.06415415,0.062348276
0.1075064,-0.035092443,0.0014118862,0.006146969,0.05325581,-0.0857282,0.033304356,-0.014912868,0.012516824,0.013528384,-0.08948843,0.05195059,-0.0030289406,-0.02599337,-0.025066402,0.01678533,-0.015149177,-0.04630605,-0.15322141,0.09532996,0.016197687,0.07309155,0.042596743,-0.09638006,-0.030270271,-0.010769431,-0.33715498,-0.022534968,-0.06512142,0.10168116,-0.10605421,0.032786295,0.004897648,0.04572168,0.01545,0.04727061,0.10867764,0.03542478,0.076532364,0.1290469,-0.08804108,-0.038066193,-0.16581936,0.17775318,0.06753251,-0.105211355,-0.32572952,0.030273998,0.084008716,-0.051187553,0.0104731945,-0.116052955,0.11198834,-0.0019964154,0.07300529,-0.029442027,-0.19267628,0.08330899,-0.21483211,-0.06710535,0.008832027,-0.087835476,-0.5399755,0.010737149,0.14204574,-0.058235936,0.016559271,0.14495589,0.15946507,-0.007336683,0.029268093,-0.11514794,0.045198914,-0.5328709,0.03862946,-0.03837703,-0.030682346,-0.15695274,-0.06946378,-0.029256154,-0.005839507,0.042100735,-0.030451972,-0.016535342,-0.007602087,-0.010463709,0.05755223,0.07781824,-0.09604458,0.04524704,0.10561245,-0.09667959,-0.06722362,-0.032904614,-0.07416873,0.025722956,-0.30782,-0.021735175,-0.12509495,-0.030427385,0.028633405,-0.016606722,0.050107364,-0.08281214,-0.02929831,0.04763693,-0.058644082,-0.0621577,0.04527989,0.090128146,-0.063782364,0.09960368,0.08317186,0.056425422,-0.054680184,0.008611694,0.110411555,0.09314364,0.01540404,0.04198745,0.06628207,0.15273453,0.08829433,-0.0835461,-0.055192053,-0.24084471,-0.08426383,-0.37306988
-0.08585609,-0.061482366,-0.16516155,0.01839837,0.001411809,0.010811235,-0.24478738,-0.07380429,-0.020088643,-0.3401099,-0.13018514,0.0848646,-0.0069213635,-0.10512448,0.0858801,-0.14495803,0.03891514,0.18630241,-0.10321035,0.06580206,-0.03385013,-0.056609478,-0.0016576136,-0.1912688,0.1218936,-0.08200617,-0.1368124,-0.07261668,-0.07629782,-0.003371619,0.11455594,-0.059838176,-0.055163696,0.02777543,-0.0064703114,-0.12109872,-0.0059148,0.028209083,0.17299195,-0.108273,-0.024317747,-0.039528146,-0.17101564,0.008106515,-0.005051806,-0.08544108,-0.1222835,-0.059024952,0.007610265,-0.058021024,-0.027060267,-0.039897315,-0.09066295,-0.02091683,0.0014552901,-0.028869763,-0.096824355,-0.045619592,-0.2441752,0.059315,-0.1917439,-0.035544377,-0.0115709,-0.011763101,-0.0021077944,-0.11610882,0.047323808,0.068055965,-0.02568092,0.02379191,0.058300544,-0.010818971,-0.04452841,0.116634116,-0.0040534306,0.06751344,0.042115856,-0.03773646,-0.15350841,-0.2348049,0.030922353,-0.23456825,-0.035485823,-0.03145502,-0.17309928,0.10366693,-0.0395473,0.024865726,0.008688105,-0.17478491,-0.036216468,-0.104158305,-0.002998313,0.18329811,-0.08294045,-0.026166415,-0.010015268,0.0030801767,0.18026589,-0.029374234,-0.0539692,0.022208305,-0.08340078,-0.18359952,-0.027703043,0.00977554,-0.045061585,-0.23933955,-0.18328504,-0.07414687,-0.05540384,0.0807445,0.01088359,-0.17591964,-0.012997386,-0.046274528,-0.15185308,-0.030434424,-0.35355088,-0.055258792,-0.04108687,-0.047241464,-0.14750761,-0.008846111,0.08148437,0.0613722,-0.22427312,-0.0013606423
-0.050620098,0.013262749,-0.057469796,-0.124953546,-0.050087698,-0.071077704,-0.058152154,0.04213361,-0.10865786,0.075834304,0.05223508,-0.005993726,-0.05106517,-0.08730019,0.007628521,-0.2613607,0.19057034,-0.17641918,-0.032354802,-0.098784715,-0.18237545,-0.12405976,0.003429012,0.12755609,-0.061737992,-0.02431655,-0.18845174,0.04705139,-0.029177342,0.033838686,-0.06821006,-0.095489636,0.0076429504,0.006420841,-0.012606507,-0.040097985,0.038232166,0.15221386,-0.045337018,0.21614642,-0.37543225,-0.013499248,0.08510506,0.021702187,-0.06437182,-0.06325633,-0.119695246,-0.015401559,-0.06615638,0.056019213,-0.0843916,0.034920942,-0.23996824,0.11424306,-0.078996405,0.030480139,0.08015086,-0.05167946,-0.20226543,0.030820973,-0.19178174,-0.14432263,0.07267398,-0.08100088,0.14862143,0.0075282636,-0.07730967,-0.09557424,-0.053199578,0.09790088,0.012648829,-0.14020859,-0.072461255,-0.021286465,0.1667917,-0.033474844,-0.18381314,-0.03859137,-0.3503463,0.06765105,-0.08428502,0.00049808546,-0.14151944,-0.0573135,-0.04432645,-0.012615683,-0.11972212,-0.06958121,-0.024994405,0.06921077,-0.04068604,-0.04587601,0.03390204,-0.084831595,0.1676258,0.04915448,-0.06990366,0.02531882,-0.07220487,0.015302127,0.04991496,-0.025929462,0.044315413,-0.11741037,0.038515754,-0.1564391,0.021803757,-0.010399733,0.057450704,-0.1190604,0.056700885,-0.11412062,0.15647191,0.08068934,-0.0674203,0.058759447,-0.006822724,0.045205686,-0.0158166,-0.061258625,-0.046853237,0.11096597,0.020444874,-0.08495751,-0.39226225,0.23379019,-0.14832063,-0.05384421
-0.0239581,-0.046271704,-0.16882111,0.07426675,-0.079521805,-0.033446323,-0.119848184,-0.010856782,-0.065784164,-0.011198974,0.014006931,0.055032514,0.06353482,0.07091843,-0.02996812,-0.04281673,0.28303254,0.05716289,-0.08289883,-0.09341764,-0.017270377,0.045619477,-0.07131658,-0.06647229,0.1089965,0.122319855,0.3366407,0.019381335,-0.07274242,-0.076716736,0.051218208,-0.0068881204,-0.02805123,-0.0493002,-0.044610567,-0.11019573,-0.029598927,0.13368626,-0.019633925,0.016481541,0.023450835,0.04598388,-0.012418791,-0.02517672,-0.011015287,-0.05966125,-0.032287486,-0.027791366,-0.049609527,-0.053680133,0.025237134,0.096632056,-0.11179681,0.06069834,0.03318083,-0.085314855,0.095574215,-0.10432777,-0.023450822,-0.058999766,0.0015628217,-0.095801204,-0.045117307,-0.048060153,0.1435863,0.054976102,0.0145752,0.03727189,-0.09648943,0.02141516,0.045487884,-0.034905452,0.03986867,-0.020223413,0.06438025,-0.011952828,0.10711937,-0.05519423,0.087266006,-0.09220226,-0.06154478,-0.06483621,0.08213161,-0.06921133,-0.023053784,0.00771742,-0.06803774,-0.016232565,-0.13561454,-0.1253395,0.006041169,-0.12559335,0.051063035,0.13939902,0.10066509,-0.03894262,0.061954144,-0.0014640003,0.02496719,0.021159206,-0.07858535,-0.029886415,-0.17149639,-0.16703892,0.051893245,-0.038913917,0.057217658,-0.035171803,-0.06900882,0.0010932862,0.035987366,-0.061628267,0.10660532,-0.016488435,0.08353468,-0.016964996,0.0391195,0.114873216,-0.13678786,-0.06262782,0.049721733,0.04412867,-0.100977264,0.028988643,-0.10334022,0.06644674,-0.03878134,0.05165818
-0.050004758,0.09391923,-0.07652539,-0.27332684,0.031066911,-0.008625526,0.08424561,-0.026122537,-0.21118362,-0.19284597,-0.010366236,-0.024731763,-0.01171406,-0.06520026,0.021893332,-0.052600726,0.0421385,-0.12851015,-0.029268697,0.13844924,-0.17939894,0.06529278,-0.034480758,-0.041439,-0.12301,0.123071216,-0.13943352,-0.008468065,-0.03922072,0.04526261,-0.060755197,-0.036730785,-0.06499935,-0.14218129,-0.048715957,-0.081200525,0.0031182072,-0.092730515,-0.13136047,-0.054545946,0.024784781,-0.034005053,-0.043855924,0.053009324,0.054738022,-0.027861329,-0.068817064,0.06908439,0.018573053,-0.06496692,-0.0211566,-0.07402458,0.040455945,-0.09834947,-0.005898764,-0.014687076,0.04375017,-0.15235442,-0.080251694,-0.015238999,-0.21872829,-0.034670386,0.036749516,-0.079605006,0.076086104,0.0038594757,-0.061234944,0.049153697,-0.07796381,-0.015674962,0.017668286,-0.05530593,-0.039659154,0.053412307,-0.14039977,0.04913035,-0.10937663,-0.06307124,-0.0079296725,-0.17392832,-0.02581717,-0.000392878,-0.09488168,-0.20490314,-0.20714654,0.06275906,-0.5213295,-0.008443592,-0.030383663,-0.14973502,0.059196513,0.0108376285,-0.072233826,-0.15544209,0.12911144,0.092586756,-0.07171243,0.015937535,0.022520674,0.03400818,0.010113985,0.054188818,-0.37220752,-0.05156816,0.07366995,-0.2072599,-0.033386882,-0.022673367,-0.3809114,-0.06444873,-0.04079364,-0.08841197,-0.01770159,0.1064527,-0.08423394,-0.022092752,0.030002385,-0.08191176,-0.12635845,-0.077595234,0.07524284,0.034558594,-0.46702757,0.01699531,-0.079155594,-0.088006966,-0.026629195,-0.07195377
-0.000722887,-0.012951764,-0.0063359155,-0.04697949,-0.03852304,0.07516393,-0.16037647,-0.08400891,-0.03347143,0.011601474,-0.08938229,0.05889395,-0.09028549,-0.018371642,0.030316412,-0.008678994,-0.007155256,0.009915836,-0.094858944,-0.06465365,-0.027154008,-0.0022576957,0.02282436,0.019970497,0.07808449,0.018394133,-0.000176498,-0.030986682,0.0039175027,0.057485618,-0.12962005,0.033794448,0.028131956,-0.08219759,-0.036778454,-0.13631453,-0.077828154,0.021271529,-0.05190366,0.031277735,0.021093514,-0.08647674,0.0065453085,-0.07975188,-0.044694107,0.046470582,-0.0971241,0.011067119,0.07078547,0.06671519,-0.061720867,-0.08001836,-0.029382972,0.020328443,0.029754616,-0.03139577,0.05250884,0.021551954,0.025130507,0.0020185716,0.014466048,-0.07976764,0.0052825348,0.057813816,-0.08510764,0.0055595967,-0.06172751,0.005969333,-0.07563702,-0.11514883,-0.06886267,-0.040472466,-0.024987387,-0.082098916,-0.031006312,-0.044157356,-0.09378018,-0.06386544,-0.07526072,0.062397394,-0.0018104794,-0.1698569,0.058017988,-0.08365167,-0.09455739,0.042730708,-0.037532605,0.028545225,-0.051981103,-0.020367647,0.055670794,-0.03536569,0.05420152,0.046248414,-0.08918803,-0.05783667,-0.08371785,0.025783192,-0.072579406,-0.015209637,-0.07804336,0.054262258,0.018408358,-0.015363281,0.015953327,-0.038356945,-0.074657485,-0.07805976,-0.08054532,0.055275753,-0.06382388,-0.105032176,0.0324542,-0.07729838,0.055623583,-0.116941825,-0.060254812,-0.039456114,-0.0150605915,0.045531932,-0.012057569,-0.017390337,-0.044035446,-0.0735555,0.066853866,-0.071195446,-0.07336471,-0.0006777922
0.07814684,-0.027948622,0.03132697,-0.040849134,-0.029177908,0.08652987,-0.08028466,0.041992117,0.0549378,-0.12745412,-0.12157906,-0.06804823,0.069294475,0.05624654,-0.035852596,0.07439447,0.073172994,0.050170373,-0.10838761,0.0094348,0.032335173,0.00403478,-0.01148371,0.0413665,0.01830431,0.066706724,-0.05423814,0.008705617,0.094782375,-0.15632801,-0.1039577,0.065339684,-0.07281286,-0.23127747,-0.08744955,-0.11441456,-0.038900126,-0.2309227,0.0029555673,0.0066562667,-0.065495096,0.055795707,0.08269691,-0.24037403,-0.15690506,-0.11560184,-0.06629327,-0.050831173,-0.12476536,0.034922607,-0.07828896,0.1658691,-0.2713025,-0.03471762,-0.038787365,-0.022433825,0.021838099,-0.17922266,-0.07383293,0.016833795,0.054737933,0.03819865,-0.049606323,0.07663622,-0.0067410837,0.02453248,-0.004341307,-0.066343136,0.10248515,0.07833701,0.017643912,0.007789435,0.04237639,-0.014667213,-0.0033934587,0.12943307,-0.0014270808,-0.063140586,0.14223155,0.05770672,0.119488485,-0.055674206,-0.023538288,0.07868378,0.05874981,-0.028971203,-0.022030158,-0.07884537,0.08138582,-0.027506271,0.026759772,0.03577251,-0.05652271,-0.1473101,0.014884772,0.07478833,-0.08081186,0.020578306,0.0039157793,0.028941775,0.054159053,0.13005842,-0.17146127,-0.02975815,-0.00625206,0.08408781,0.002166128,0.012560861,-0.008320012,0.026313478,-0.014187087,-0.042315062,0.03249801,0.15320803,-0.051502693,0.11111517,-0.09609241,0.035576418,-0.153531,-0.106039286,-0.048096903,-0.005432988,0.010101743,-0.09709616,0.15584755,0.10845201,-0.10602377,0.14651309
0.011268642,0.05555462,-0.093900226,-0.038705185,0.068310946,0.0322738,-0.0682713,0.017642437,-0.25894108,-0.10597769,-0.14795285,-0.11251854,-0.030245759,-0.123035714,-0.059706595,-0.058884364,-0.084923536,-0.19297922,-0.13376449,0.14619713,0.050081324,0.11863455,-0.04192851,-0.17455018,-0.03215561,-0.09071447,0.098830245,0.010124998,-0.15382652,-0.043796428,-0.13122506,-0.04336661,-0.038255416,-0.08228421,0.062056653,-0.0317677,-0.0532337,0.13404775,0.15655598,-0.026605831,-0.16450462,-0.13898791,-0.065712534,-0.07170006,-0.025270762,0.038807232,0.0351161,-0.06354346,-0.09655025,-0.30119953,-0.19128613,0.14578094,0.005291438,-0.10263006,0.07840555,-0.14717835,-0.15266769,-0.058345445,-0.22184989,0.046393793,-0.4437183,-0.02940979,0.072909705,-0.04310318,0.25840807,-0.011771875,-0.073577106,-0.019534083,0.013833541,-0.076873235,-0.088366896,0.031280015,0.09193357,-0.03128935,-0.08095265,-0.05540588,0.0439063,-0.1060629,-0.055068858,-0.026858533,-0.053445835,-0.26882043,-0.3261906,0.059942212,0.014265759,-0.07233131,-0.07000081,-0.12885877,-0.56030184,0.017244522,-0.036796093,-0.33288896,-0.09002677,0.0067459,-0.11021749,-0.24631105,-0.16964205,-0.08222006,-0.0755043,-0.046877556,0.009271478,0.01726272,-0.10681813,-0.4006702,-0.0840643,-0.12537758,0.031339806,0.101440646,-0.46861652,0.062949106,-0.06436731,-0.14135054,-0.10797096,0.11862638,-0.03876404,-0.11172843,-0.04317585,-0.0071504097,-0.19752228,-0.24296917,0.06444538,-0.006017838,-0.020960452,-0.07920999,-0.07132387,0.107609935,-0.4021519,-0.05509644
-0.029842358,0.009990852,0.05484491,-0.01012293,0.018689573,0.0110590495,-0.10947706,0.06843384,-0.08737791,0.0026187664,-0.08961848,-0.069507465,-0.011299876,0.026860544,0.06826933,-0.05458417,-0.009608245,0.046219543,0.04096453,0.0040419362,-0.043011963,-0.026843417,0.012322583,-0.014558537,0.06230211,-0.028629607,0.015124141,0.065572694,-0.07452426,0.027921349,-0.07776386,-0.062503174,-0.058680803,0.026137238,-0.01401843,0.050539073,0.04554381,-0.077746145,-0.002815994,-0.020401241,-0.07683466,0.06227662,-0.11469558,-0.09045731,0.021254959,0.017533805,-0.04549309,0.047641084,0.03587552,0.012032162,0.06358133,-0.031332888,-0.019030176,-0.056749355,-0.0130238915,-0.044184573,-0.03242446,-0.055788852,-0.054983877,-0.012215999,-0.012487824,-0.10066596,0.033664137,-0.031906433,-0.09720805,-0.06410314,0.04733566,-0.074788705,-0.12664971,-0.056262873,-0.061654095,-0.093288876,-0.031917013,-0.020584134,0.06533567,0.0075457757,-0.05344002,-0.033798993,-0.0797799,0.0319488,0.009621587,0.036202453,0.004798328,0.031475026,0.04984956,0.0134038655,-0.031993818,0.014159233,-0.041685205,0.053621378,-0.08445601,-0.0068042064,-0.023087809,-0.014098613,-0.096884646,-0.04754508,0.04494819,-0.040468466,0.06746068,-0.029469594,-0.06686549,-0.053455308,-0.0074844104,-0.03760391,0.034181695,-0.046061415,-0.031793483,-0.05679656,-0.077772565,0.03298001,0.03238877,-0.051327426,0.044229917,-0.025987443,-0.041386724,0.05010223,-0.07734212,0.06331727,0.01922504,0.045746945,0.015526839,0.039572407,-0.11180535,0.067199886,0.00325506,-0.035053536,-0.09299937,-0.05158457
0.1693607,0.03213268,-0.17086151,-0.20474915,0.041838203,0.021088557,-0.026366156,0.08619568,-0.08327607,-0.15459888,-0.01553491,-0.026121447,-0.028389558,-0.015167391,0.04143826,0.056773223,-0.045817487,0.1060774,0.06220866,-0.04494397,0.01087271,-0.106457114,0.045190964,-0.2807891,-0.04163334,0.099090405,-0.04363185,0.08683584,-0.39025432,0.058935326,0.35669938,0.05738473,0.018455522,-0.28936762,-0.12017304,-0.3858666,0.050995655,0.2301821,-0.04826102,0.14344077,0.0035086328,-0.034592956,-0.20471017,0.11910223,0.12575279,0.12971883,-0.21887349,0.07449509,-0.13392377,0.16053227,-0.0076346584,-0.17306527,-0.21311808,0.19657536,0.0042569735,-0.38356188,-0.31035128,-0.26553202,-0.20832455,0.008523939,-0.059339635,-0.19771451,-0.2232039,0.029561177,-0.003742337,-0.06441553,0.0028658991,-0.07807243,0.026421992,-0.077560894,0.07477809,0.023680218,-0.042832837,-0.06950876,-0.018144662,-0.18825357,-0.20272292,-0.09554813,-0.01733934,-0.21827048,-0.5570827,-0.16465764,-0.015906064,0.11015875,0.063074,-0.09602884,0.06297237,0.21704707,-0.22913574,-0.07913489,0.011967734,-0.24518375,-0.013882728,0.02051063,-0.18477406,-0.049860753,0.021493133,-0.046619155,-0.14148507,-0.045609504,-0.013380679,0.13465528,-0.021414017,-0.19579783,-0.02243686,0.03321525,-0.058078732,-0.1456818,-0.056070823,-0.2340891,-0.040955577,-0.18228452,-0.20857076,-0.10973366,-0.15716046,0.0016461528,-0.09396436,0.4631291,-0.11183316,0.008109463,-0.03649129,-0.12866652,0.057532523,0.074689776,-0.27800047,-0.2044854,-0.4191864,0.002783098
0.04299062,0.09607595,0.017380841,-0.08681742,-0.008276389,0.07235112,0.0012099369,0.06683162,-0.14120963,-0.04756731,0.043504238,-0.05558001,0.018216401,-0.088018574,0.052679803,-0.014397212,-0.06660864,0.036307696,-0.019924367,-0.099602036,-0.030884326,0.0559978,-0.028411003,-0.020210793,0.014074434,-0.051745865,0.14436737,-0.06974986,-0.022241091,-0.00856834,-0.013705519,0.06320828,0.045550894,0.039898463,-0.09756683,-0.034599856,0.061855424,-0.07140039,0.040998705,-0.03878204,-0.027065385,0.027650539,-0.0302019,0.014276452,0.039916344,-0.024085661,-0.095914245,-0.00042216852,0.019844206,-0.07491927,-0.0036815945,0.027064912,0.004438854,0.030647539,0.054349262,0.0676409,0.040363573,-0.047396123,-0.099744946,0.04039766,-0.028066957,-0.08873228,-0.083970495,-0.01190482,-0.07608677,-0.03298612,0.048969146,-0.011412576,-0.1625887,-0.08967851,-0.14381681,0.055572476,-0.06573713,0.06208377,-0.10126854,-0.079315886,0.016504264,-0.045387737,0.069968455,-0.060264997,0.0642259,0.016162189,-0.07625793,-0.011365901,-0.029313397,-0.05462951,-0.044506162,0.01682105,-0.017230166,-0.011298433,-0.082883455,0.011440358,-0.014705445,-0.0023077775,0.019659646,0.0019713594,0.060288124,-0.025913432,-0.02086477,0.040010396,-0.061800703,0.09655761,-0.024350148,-0.049313378,0.03604316,-0.02751662,-0.076751284,-0.01868197,-0.06441449,-0.07065902,0.042473406,-0.09053069,0.052821472,0.05854424,-0.032020044,-0.02096178,-0.00653055,-0.07039809,-0.1000525,0.013933388,0.0047137234,-0.042161524,-0.025325326,-0.021995747,-0.07826481,0.032389645,-0.018680887,0.062223908
-0.09326759,0.0411988,0.063290276,-0.06721109,-0.025035933,-0.08893106,-0.08746588,0.014933455,-0.067686036,-0.091959745,0.0141233215,-0.032184336,0.043407716,-0.10057663,-0.0750817,-0.09904305,-0.042594656,-0.0849648,0.040704813,-0.017314414,-0.047071286,-0.0548924,-0.032344613,0.007169883,-0.045098767,0.017141823,-0.00014148721,0.029099181,0.002788737,-0.06828653,-0.043496396,0.023259716,0.07459026,0.010604947,-0.030221343,-0.05853064,-0.09094603,-0.12127451,0.038708586,-0.051234,-0.052572206,0.027216708,0.044949654,-0.029699698,-0.022689965,0.024709063,-0.05981065,0.013483763,0.012551772,-0.054090798,0.03319673,-0.030043479,-0.089758374,0.03982772,0.006449053,-0.037014633,-0.06832946,-0.06630281,0.007870576,-0.08604207,0.008085607,-0.10340535,0.06888547,-0.013782247,-0.018091317,0.017719407,0.02433177,-0.040954605,-0.11230514,-0.035292543,0.03715149,0.07252811,-0.055405397,-0.0600907,0.04585942,0.034715727,-0.035488203,0.012244693,-0.068381,-0.03734361,-0.0103901215,-0.058394853,0.035520636,-0.017793948,-0.036317308,0.046034094,-0.13580833,-0.08707117,-0.00579266,-0.08014341,-0.03240673,-0.0050888825,-0.03530466,0.082290895,-0.038470317,-0.104966514,-0.06976177,0.012763344,0.059695046,0.014918078,-0.060684513,0.029411336,-0.066834666,-0.045046337,-0.03905188,-0.11405584,-0.050575588,0.024204217,-0.059686948,0.08512854,0.022290163,-0.09443179,-0.06437475,-0.017418696,-0.08810748,-0.075522356,0.0030981249,-0.08564737,-0.04648337,0.020275492,-0.058246706,-0.043056495,0.0013215546,0.018098762,-0.052568726,0.05806561,-0.04300424,-0.015891131
0.062201485,-0.003069932,-0.28682736,-0.24596919,0.011075019,-0.09445189,-0.05511777,-0.01204238,-0.22977889,-0.23299325,0.054560155,-0.044360224,0.031941343,-0.09649301,0.022230944,0.050005157,0.14539939,0.16244464,-0.07267211,0.12204304,0.11908729,-0.119640596,0.023922522,-0.11665998,0.14277916,-0.20801039,0.06535311,-0.002413399,0.021882448,-0.039245386,0.19210818,0.10050521,-0.042221088,-0.09078398,0.050135605,0.14320129,-0.041268557,0.15354921,0.1099376,-0.16965553,0.04536292,0.0143197505,-0.25127274,0.18847066,0.21085054,-0.07854985,-0.34292313,0.04421986,0.111714594,0.0028230378,-0.052162904,0.10350352,-0.17841382,-0.14277758,0.0021296896,-0.15495448,-0.10447949,-0.10350758,-0.46769172,-0.007973387,-0.28740963,-0.317432,-0.25045705,-0.049150903,-0.1271329,0.16431731,0.03347558,-0.054759037,-0.08654788,-0.15313143,-0.12575796,-0.06819135,0.06062972,0.16900176,-0.31284618,0.11127561,-0.40990424,-0.1778489,0.15954,-0.10688573,-0.21925476,-0.018288787,0.016925475,0.10891024,-0.052519556,-0.092916384,0.07853439,-0.058206327,-0.0060187695,-0.078674465,0.04086086,-0.025332546,-0.028173698,0.23807901,-0.11897992,-0.07029658,0.02460306,0.054811627,-0.1437713,-0.070763215,0.027814051,-0.13062343,-0.43671197,-0.10684385,-0.067760184,0.053412274,0.12066839,0.08749087,-0.27787203,0.10442691,-0.048484914,0.077374056,-0.39136234,-0.18977381,0.063229956,0.23598374,0.064269714,-0.22225864,-0.184609,0.14895321,0.06932596,-0.114317395,0.07683012,0.056274295,0.05927424,-0.012675904,-0.20163049,-0.07051795
0.11796247,-0.014052019,0.023913603,0.016465569,0.003871522,-0.03948116,-0.00065258256,-0.036057737,-0.2209761,0.105938725,-0.12912829,0.014409446,0.0624157,-0.09991512,0.03409066,0.06498958,0.12223162,0.03073645,0.016468609,0.008900408,0.038180873,0.051368,-0.19934846,0.07679561,0.044625726,-0.16955431,0.1101653,-0.044538144,-0.22111726,0.10004992,0.0049883663,-0.29558077,-0.015359904,-0.04877499,-0.027272211,-0.008444753,0.05851619,0.17785008,0.045181155,-0.042880107,0.019818181,-0.0011300009,0.10185442,0.080811694,0.060611617,0.15992734,0.040864088,0.0006291378,0.060662273,-0.18666475,-0.11049336,-0.054845348,-0.028766094,0.014121815,-0.031412654,-0.22060058,-0.067068234,-0.09361264,-0.022938695,-0.011455837,-0.53015685,-0.032573123,0.044103526,-0.013537093,0.13975011,-0.032581456,0.028534958,0.015726712,-0.021355683,-0.015025162,-0.4948446,-0.048191946,0.026224019,-0.081364304,0.086418495,-0.109034404,0.18618502,-0.098110355,-0.11450214,0.0038380565,-0.30117565,-0.35346025,0.032422658,0.05434621,0.0142807765,0.041471314,0.009204454,-0.0648788,0.07680405,0.02921449,-0.09157135,-0.23161563,0.059909366,0.13157578,0.015628502,-0.023145322,0.013906072,-0.08080789,0.058189582,-0.0498849,-0.0005107053,-0.29482067,-0.32522205,0.01042632,0.10108484,0.04942883,0.046706203,-0.17437223,-0.074363165,-0.26779157,-0.051193044,-0.026174026,-0.0050765844,0.0009033046,0.10352495,0.18035325,0.19849445,0.067777075,-0.0462014,-0.022309223,-0.0416884,-0.19793016,-0.017084531,-0.0071117817,0.019971473,0.26340058,-0.028842172,-0.036252722
-0.057092853,-0.021568863,-0.17489807,-0.012312269,-0.05834341,-0.033480335,0.00030478166,-0.045427594,-0.11578205,0.2595174,-0.2926341,0.00800677,-0.032065257,-0.104530066,0.008849971,-0.2545203,-0.09463396,-0.20553856,-0.031356294,-0.37914807,-0.036874343,-0.01884843,0.01914503,-0.1867147,0.0036700238,-0.14667115,-0.088012435,-0.030376013,0.0028328134,-0.00096579303,-0.22872399,-0.005636517,0.05076989,-0.25307682,-0.06487486,0.10481843,0.07936529,-0.013787068,-0.2628949,-0.00015220398,-0.048878778,-0.21166494,-0.18569998,0.037260834,-0.0619094,-0.096998826,-0.012185322,0.01401361,0.12098829,0.16902302,-0.46003228,-0.06051407,0.01967409,-0.06498542,0.009731282,-0.018400209,-0.05627417,0.09031348,-0.2602799,0.055883855,-0.0018748376,-0.009715949,0.058202356,-0.060693786,-0.09708421,-0.032070767,-0.05216184,-0.06208539,0.06576111,-0.11287348,-0.20175985,-0.025925444,-0.056171842,0.020800043,-0.15950851,-0.046953056,-0.09143242,-0.06590031,-0.08775946,0.06923613,0.03685204,-0.19588143,0.12641054,-0.00208075,-0.36395618,-0.019797811,-0.2646906,0.027948685,-0.04614268,-0.10528967,-0.09308047,-0.045750555,0.063012145,-0.31965342,-0.12022307,0.021484205,0.06046687,-0.049527816,0.05887772,0.063094184,0.061616253,-0.066878274,-0.02071419,-0.011141357,0.0014716687,-0.3240699,0.0039718198,-0.08455293,-0.13143133,-0.0072205546,0.00047041159,0.07346796,0.016893977,-0.18755223,0.07780918,-0.12897077,-0.340315,-0.065112226,0.016049784,-0.17056915,0.028479097,0.08291077,-0.26874015,-0.047607675,-0.11045999,-0.051784217,-0.120095365,-0.045118168
