0,1,2,3,4,5,6,7,8,9,10,11,12,13,14,15,16,17,18,19,20,21,22,23,24,25,26,27,28,29,30,31,32,33,34,35,36,37,38,39,40,41,42,43,44,45,46,47,48,49,50,51,52,53,54,55,56,57,58,59,60,61,62,63,64,65,66,67,68,69,70,71,72,73,74,75,76,77,78,79,80,81,82,83,84,85,86,87,88,89,90,91,92,93,94,95,96,97,98,99,100,101,102,103,104,105,106,107,108,109,110,111,112,113,114,115,116,117,118,119,120,121,122,123,124,125,126,127
0.04441471,-0.047196154,-0.020352054,-0.08267519,0.073052555,-0.122875854,0.014367885,0.010399493,0.1396815,0.12719975,-0.043481547,0.1551436,0.11337032,-0.07584045,-0.06992329,-0.10037604,-0.11954317,0.17240596,-0.18402937,-0.29801175,-0.09500353,-0.11987745,-0.11949123,0.2636936,-0.008842829,-0.21548933,-0.05508125,0.08451762,-0.13703445,-0.11917951,-0.040961344,-0.008277137,0.025549918,-0.24870615,0.17333853,0.050132554,-0.097820945,0.17316857,-0.11697904,-0.1534986,0.0061011887,-0.08877586,0.20045157,0.0011867911,-0.061514735,0.18189621,-0.21333659,0.020349339,-0.131649,-0.118793525,-0.031237556,-0.2699199,-0.14663325,0.06221515,-0.16498074,-0.1788701,-0.10179501,0.08041465,0.20851004,-0.031832565,-0.17716901,-0.14034343,-0.012561706,0.04550211,-0.34341672,0.20250592,0.0735856,-0.08239651,-0.007332046,0.040060855,-0.09452807,-0.13610798,0.027845033,0.20027822,0.05078853,0.007681741,-0.16919301,-0.034934904,-0.1458189,-0.16479564,-0.1909968,0.20533322,-0.11535664,0.14528182,-0.031226093,0.11074753,-0.08691602,-0.02760693,-0.07439146,-0.04815854,-0.19593953,0.18118146,0.053973317,-0.04217769,-0.114402816,-0.35028586,-0.012548143,-0.3598278,-0.15734538,0.028445171,0.008823375,-0.030438706,-0.026492402,0.034564447,0.037781227,0.10401735,-0.1873629,-0.065396644,-0.096428685,-0.3849563,0.14450002,-0.14670345,-0.079796515,0.083513424,-0.21456124,0.06408765,-0.19710633,-0.13797817,0.08581378,-0.03850419,-0.14236706,0.019132266,-0.3110912,0.042817995,0.07947661,0.16373011,-0.022704022,-0.12836479
-0.113950625,0.046173103,-0.013224925,-0.022650065,0.0036349776,-0.042410556,0.026137013,-0.10045206,-0.09893122,-0.052004702,-0.016607692,0.07250535,-0.07340665,-0.076939166,-0.055477183,0.0038159955,-0.014737953,-0.028019177,-0.037448116,-0.04004615,-0.09993636,-0.0691193,-0.12611237,-0.12318891,0.062560365,0.016872674,0.03381473,-0.019563265,-0.13339946,0.051283725,0.0074142297,-0.07152225,-0.06457441,-0.05341078,-0.05221237,0.01545351,-0.062217023,-0.02945799,0.0005842078,-0.0070514097,-0.058674652,-0.0031547847,0.055154502,-0.045232013,-0.018711532,-0.057054978,0.023389686,0.02895894,0.052061733,0.06580819,0.06344001,0.0037346235,0.04648521,-0.1218313,-0.07103792,-0.09251827,0.026469307,0.03759266,-0.052425362,-0.064744785,0.048497513,-0.01762631,-0.08465695,0.007174044,-0.091523,-0.06577656,-0.07175213,-0.12766458,-0.104913674,0.019322535,0.024269354,-0.048458964,-0.06736096,0.022142544,0.02602411,0.0367177,-0.087743275,0.021362424,-0.07680839,0.05113743,-0.021202782,0.03721877,-0.020604454,0.02711304,-0.06933661,-0.08529506,0.034245916,-0.05648095,-0.038876656,0.033429403,-0.06520787,-0.09149519,-0.108798444,0.02811335,-0.093509555,-0.03102128,-0.104735784,-0.055435568,-0.098072216,-0.0072391834,-0.0066734715,-0.03332395,0.014885747,-0.0066754986,0.01998753,0.077586286,0.00985604,-0.058301978,-0.041302472,-0.043394543,-0.04411893,-0.021099603,-0.063066505,0.017645666,-0.10686741,0.021279436,-0.0410113,-0.09536545,-0.0012214811,-0.09841394,0.04567412,0.019862495,-0.028952517,-0.10679577,0.026445277,-0.1021132,-0.031416427,0.031650282
-0.047535755,-0.36887243,-0.024965502,-0.0813163,-0.006344911,-0.10671672,-0.12512814,0.051638596,-0.054191303,-0.12080338,0.075515114,0.07873925,-0.0034107016,-0.03690534,0.06760185,0.13230127,-0.26629552,-0.12560298,-0.0125604,-0.001631509,-0.24367332,0.10622281,-0.24876128,0.059943087,0.002881786,-0.094923854,-0.40645146,-0.028404372,-0.20352373,0.15867053,0.025422582,-0.1858752,-0.016308477,0.12518515,0.042489674,0.08088802,-0.19038118,-0.21219105,-0.25230035,-0.0398237,0.045264985,-0.020939294,-0.05937849,0.033691205,0.27700675,-0.36136988,0.043565236,0.19947778,0.19765823,0.013411287,0.0041616946,-0.09015133,-0.035577603,-0.08944,-0.20424147,-0.10608447,-0.009493006,0.15165041,0.035254832,-0.21747436,-0.014850018,0.01939432,-0.09484328,-0.046657298,-0.14292377,0.09265132,0.09609322,-0.15663695,-0.06634867,-0.0047042496,-0.12846392,0.11496296,0.11991609,0.09772265,-0.26759565,0.15268464,0.032841995,0.2558794,0.12395994,-0.026178436,-0.3058021,-0.05874642,-0.008857124,0.012446718,-0.022846885,0.14703679,-0.046945244,-0.020572912,0.044172924,-0.1300129,-0.22878401,-0.26061943,-0.03996281,-0.32901746,0.011596682,-0.10313683,-0.03603019,0.11032258,-0.192673,0.0088183675,0.101517454,0.03087941,-0.039917953,-0.017492002,0.16534884,-0.010354191,0.027202524,-0.043957826,-0.039002776,-0.0793604,0.0057705026,0.14579797,0.01487811,0.10211527,0.015173033,0.021088345,-0.18455093,-0.2677978,-0.0640893,0.06261777,0.104510404,-0.051810473,0.03930412,-0.0901608,-0.07098043,-0.1612624,0.15919985,0.15437941
0.038736325,0.023432473,-0.008646758,0.02805315,-0.15923902,0.0100421,-0.10536936,0.10166498,-0.2280555,0.03756573,-0.07902345,-0.081424035,-0.031607542,-0.19619955,0.055069312,0.028506255,0.02028039,0.01591648,0.18153802,-0.056881245,-0.011776988,-0.29517743,0.16368267,-0.0733379,0.01729623,-0.33299524,-0.022549404,-0.27073714,0.099144466,-0.43774632,0.10938019,0.03438051,-0.12663695,-0.059402883,-0.005839413,-0.07841104,-0.0024715608,0.018582644,0.011939062,0.11051804,-0.20729268,0.059924062,-0.3788433,-0.09547969,0.041731525,0.31568396,0.10644049,0.22592033,-0.25353694,0.0212935,-0.15550116,-0.003089106,0.10966652,-0.17381638,0.11086774,-0.37318802,0.030516258,0.12787002,-0.11272286,-0.069895916,-0.4364084,0.0643448,0.059779853,0.09774785,-0.021500949,-0.04333522,-0.0381568,-0.037617985,0.020927474,0.10293229,0.09795211,-0.2721328,0.031973507,-0.16739845,0.23806174,0.018665742,0.043411326,0.25196394,-0.061676823,-0.17827249,0.092081256,0.030334873,-0.05639057,-0.08517717,0.09222968,-0.029102689,0.23859154,-0.0820025,-0.032165494,-0.118984066,0.022258304,-0.49547005,-0.06019642,0.009344286,-0.07583485,-0.1323546,-0.03629611,-0.187015,0.026158102,0.11434467,0.14428082,-0.12140339,-0.04383701,-0.006153969,-0.05148831,-0.045948263,0.010250372,-0.14311115,0.026869737,0.07761432,0.00036359692,-0.12749736,-0.19917439,-0.15822235,-0.019094337,0.17710973,-0.2102389,-0.0153854955,0.005307215,0.041470274,-0.15024188,-0.05575916,0.09180656,-0.04219757,-0.52133715,-0.4452271,-0.018430356,-0.009736062
0.054513652,0.030422032,-0.033970818,-0.051561996,-0.024652494,0.0023137466,-0.06806837,-0.09546543,-0.03577486,0.07339626,0.01480962,0.05183797,0.055135585,-0.01862626,0.013000849,-0.03993679,-0.042019945,-0.035452843,-0.06616192,-0.049036343,-0.047749575,-0.041256417,-0.08116951,-0.03110145,0.04269006,-0.026585422,-0.035650853,-0.0050145844,0.03998736,0.06802968,0.035142623,-0.07100019,0.0029943984,-0.0432316,-0.02624843,-0.032442793,-0.050747644,-0.059012398,-0.043179844,-0.04860818,-0.02106893,0.007397698,-0.038291242,0.049465246,-0.023967655,0.065293096,0.017680423,-0.0007432584,-0.009693884,-0.036803328,-0.010899154,-0.07933492,0.044082835,-0.022126984,-0.06880479,-0.03282922,-0.045921315,-0.09064861,-0.06826616,-0.08027319,0.058778577,0.055939876,0.027361121,0.03818092,-0.09788623,-0.07452863,0.026157608,0.028208526,-0.022820633,0.02684752,-0.071335815,0.02537777,0.01060286,-0.06909674,-0.04981568,0.023258766,-0.049166016,-0.0918252,-0.053942088,0.01907838,0.028750738,0.0005428019,-0.10273722,0.03954001,0.059434954,-0.07358159,-0.051164567,-0.017199747,-0.05122922,0.053310838,-0.08720819,-0.024441803,0.052834842,0.058930002,0.043385785,0.06943666,-0.107345015,0.0060904296,-0.028717767,-0.06182928,-0.087829456,-0.07443549,-0.04358914,0.017067878,0.06821352,0.052935146,0.0144565,-0.020579638,-0.069743924,-0.05585601,-0.06719191,-0.026311703,-0.09556492,-0.08565022,-0.061820474,-0.10477185,0.030835072,-0.056298196,0.044966444,-0.061021157,0.04917118,0.017896542,0.038001366,0.00061308,-0.0760375,-0.030039318,-0.0028326667,-0.06495273
0.064349085,0.094367355,-0.071292035,0.03367011,-0.11468314,0.06291701,0.10824581,-0.026549192,-0.20185043,0.06594643,-0.039716832,0.07328211,-0.098288715,0.048420414,0.038507998,-0.168375,-0.081903934,-0.080843784,-0.012394109,-0.25110614,-0.10022923,-0.16026005,-0.031166244,0.02138318,-0.014015177,-0.035304144,-0.15487765,0.17964357,0.07130307,-0.027975729,-0.1490799,0.118001945,-0.034867253,-0.066780314,-0.04621319,-0.10685089,-0.057812788,7.755566e-05,-0.05224815,-0.086187966,-0.039333694,0.040473,0.03546449,0.017776553,-0.07618221,0.06666965,-0.03992695,0.03929441,-0.19694868,-0.035473738,0.0056807245,-0.137301,-0.025255205,-0.08763346,-0.009425433,0.2327687,-0.010143,-0.072880395,0.0066586644,-0.044832002,-0.007871496,-0.07113482,0.04621236,-0.2920465,0.055155285,-0.16836424,0.064908944,-0.29953635,0.05022745,-0.0075120362,0.017087994,-0.09777261,-0.11080617,-0.009183089,-0.033291508,-0.09442105,-0.094703384,-0.026394866,-0.36936533,-0.08000778,-0.103892766,0.049104113,-0.10824352,-0.18018238,-0.107035644,-0.08003945,-0.12327929,-0.08727618,-0.028373372,0.048681814,0.030069154,-0.24462876,-0.08188372,-0.026577033,-0.2148116,-0.25338086,-0.022688383,-0.015038874,-0.14239967,-0.124666125,-0.143439,-0.0027470249,-0.24489103,-0.21594238,-0.04344802,0.040839247,-0.09507116,0.14186718,-0.010247252,-0.23473293,-0.03845206,-0.003569321,-0.24585763,-0.019184992,0.046286,-0.04119818,0.10447513,-0.15377967,0.07794628,0.025017995,0.089679286,-0.0796674,-0.06918425,-0.025023451,-0.2431826,-0.052664135,-0.01449904,-0.037873134
0.101360135,-0.02707136,0.053162534,0.074520774,0.036531422,0.02382206,0.0040523703,0.09056106,0.2518139,-0.00580175,-0.13275194,0.061163392,0.011207479,-0.31728214,0.06819332,0.18284965,0.17654493,-0.05673003,-0.16951634,0.06011378,0.052662406,0.15839186,0.06283902,0.00937101,0.078159474,-0.27239442,-0.20304838,-0.058369104,0.22060145,0.0452568,-0.012994798,-0.045171577,-0.1400033,-0.03421644,0.052338205,0.0039315447,0.024315478,-0.09939503,-0.012869391,0.04639357,-0.20666154,0.070976235,-0.22774047,-0.20072019,-0.031412847,0.11395329,-0.09544519,0.21702462,-0.2679591,-0.056409914,0.33910877,-0.07415497,-0.009571069,-0.027298108,0.035916794,-0.17399731,0.14235535,-0.20306665,-0.15055466,-0.017997576,-0.015297335,-0.029457275,-0.0007660198,-0.054012608,0.3792707,-0.06679572,-0.10202585,-0.0017119149,0.226914,-0.07636733,0.22424157,-0.2954372,0.19574803,-0.063532576,0.27908647,0.11946135,-0.13255824,0.113211185,-0.0891614,-0.09504126,0.29920936,-0.22464904,0.2879765,0.17503239,0.042141274,-0.0045088734,0.042193133,-0.012585958,0.07132599,-0.20426159,-0.039940298,-0.05219005,-0.0024115988,0.22783181,-0.07852032,-0.16903186,0.061866317,0.27629468,-0.044041708,-0.009033065,0.1370688,-0.07290865,0.05153232,-0.0077283867,0.18011026,-0.011686934,0.13149834,0.0004976654,0.023171445,-0.3627317,0.004968868,-0.0568344,-0.06665529,-0.17120032,0.011072539,0.0018094648,-0.061175186,0.10236828,0.00758708,-0.13992172,-0.080781035,-0.018365767,0.09639806,0.0937039,-0.00035238682,-0.19315977,0.046286747,-0.00618081
-0.06879874,-0.013636337,-0.06360007,-0.071060225,0.039730128,-0.10771024,-0.0854781,0.03878293,0.00042455064,0.02530901,-0.0036232467,-0.09794191,0.00990636,-0.107726954,-0.0671378,0.08913122,-0.002562846,-0.06731877,0.104613714,-0.09716427,-0.09612922,0.001480508,0.035617907,-0.05056993,0.043004025,-0.050511602,-0.085222125,0.049599227,0.0041816463,0.046791203,-0.06865932,0.030960979,0.02544013,-0.06374634,-0.08934477,-0.014629131,-0.028019505,-0.11056143,-0.09710449,0.031759858,-0.026874295,-0.08240849,0.064055115,0.07105091,-0.04628224,-0.012511348,-0.07121326,0.011355144,0.023929534,0.0380036,0.07123189,-0.066263445,-0.06314199,-0.13928665,0.0047347355,0.016647687,-0.07952329,0.005891251,-0.09998499,0.009368204,0.015230554,-0.097785294,-0.065117046,-0.11080829,-0.069014415,-0.06467771,0.037181012,-0.023994707,-0.01703068,0.06446669,-0.08617068,-0.0044961725,-0.028820312,-0.00939685,0.011440586,-0.112939745,-0.009165456,-0.01200114,-0.038361743,0.004162198,0.039147664,-0.018896427,0.052466374,-0.09027834,0.017159678,0.053434562,0.03307966,-0.094580024,0.026738081,0.010803551,-0.03164872,0.028760204,0.022255694,-0.0011776702,-0.10737646,0.0067026047,-0.1400255,-0.069050446,0.049736824,-0.06803965,-0.07172715,-0.05456906,0.0564652,-0.046196215,-0.069728024,-0.06877774,-0.09543161,-0.010937861,0.017225547,0.040431138,-0.038273588,-0.061560236,-0.09140969,-0.0013861351,-0.09480259,0.005483148,-0.056572817,-0.0024122228,-0.03974891,0.0178486,-0.029877147,-0.09622472,0.0037061747,-0.041223094,-0.018670991,-0.045204513,-0.08577778,-0.088518485
0.061484333,0.11229367,-0.037254106,-0.3280223,-0.023441155,-0.3058649,-0.22447197,-0.026362631,-0.2509549,0.16101226,0.032253414,-0.13923413,0.15446022,0.06726805,-0.046354085,0.006063565,-0.20034052,0.055057473,0.13360855,0.0015543222,0.035242606,-0.0060351784,0.01659772,-0.2889029,0.073243834,0.046350427,0.014066384,-0.12128622,-0.1700703,0.16184048,-0.08721825,0.10590833,0.021329908,0.10787344,0.08306892,-0.010334356,0.02621381,-0.096438095,0.116665885,-0.0693186,0.04243679,-0.10305921,0.09279341,-0.5519632,0.030388005,0.111724414,0.039044507,0.036856692,0.14928827,0.07361982,-0.585961,0.03138286,-0.074286245,0.015378415,0.064657405,0.10549703,-0.07324784,-0.11678134,0.009082475,0.012826465,0.053491894,-0.4287173,0.04384203,0.08877478,-0.22603449,0.023862172,0.056928873,-0.025477452,-0.22867398,0.107583806,-0.13516404,0.04318208,-0.1278001,0.16229723,-0.31228897,-0.22067617,0.0102065625,-0.093625806,0.06878499,0.100730136,-0.01245152,-0.0074203135,-0.026019327,-0.077427134,-0.02516557,0.10674561,-0.20429799,0.028200937,0.046767764,-0.025216235,0.07127636,0.057191055,0.18413053,0.25657973,0.01629938,-0.015005398,-0.028959164,0.06985013,-0.008438948,-0.09779635,0.0043384954,-0.16199099,-0.09854581,0.03028771,-0.13209802,-0.15949853,-0.19290446,0.017416717,-0.186913,0.320531,-0.042735986,0.14676122,0.16523802,-0.10232698,-0.08254321,-0.07917079,0.09846731,0.024148136,-0.1631814,-0.018721098,0.029546522,0.055445448,-0.13817783,-0.06187224,0.02158144,0.018051466,-0.27102312,-0.051815454
0.008764762,0.008756287,-0.089921966,0.063727275,-0.17543882,0.085483596,0.13664198,-0.024656007,-0.09732077,0.10757736,0.07251641,0.0112044765,0.1670847,-0.35031536,-0.22261484,-0.01638595,-0.18992822,-0.26747498,-0.12251794,-0.16797431,0.004177836,-0.2656169,-0.18254744,0.18114808,-0.21044452,-0.4478046,0.03800343,0.014952285,-0.15937278,0.04464683,0.029324232,-0.41038495,-0.0061962903,-0.03639934,-0.055485085,0.043246306,-0.0005615807,-0.07860686,-0.20909227,0.15147321,-0.29132918,0.1374461,-0.10545836,-0.11302037,0.30389974,-0.19302173,-0.05665987,-0.17369308,-0.16762309,0.16334544,-0.100738265,-0.312804,-0.3426486,-0.22283486,-0.057200976,-0.0034755934,0.12931257,0.17991823,0.023514198,-0.12991197,-0.5929991,-0.11364074,-0.07155992,-0.00996222,0.24954964,0.005209665,-0.09701629,0.09667745,0.20037678,-0.08022741,-0.035659708,0.011726008,-0.10445988,0.15866446,0.35297206,-0.069425784,0.13092132,0.04005073,-0.18785924,-0.00837568,-0.3310953,0.16552415,-0.012573085,0.028424732,-0.052477222,-0.019647561,0.10978717,0.007329422,-0.024630371,-0.40844524,-0.087736845,-0.2025466,-0.30427027,0.16799897,-0.14575769,0.11655965,0.00238425,-0.34838808,-0.2236057,0.025751095,0.30226386,-0.147408,-0.077799,-0.18776396,0.008834901,-0.16429572,0.09600331,0.10591053,-0.3099795,-0.19912808,0.10079035,-0.1753139,0.057835788,0.018819135,0.08552805,-0.11361797,-0.34875634,0.045819584,-0.52305406,-0.21771166,-0.038961615,-0.067874625,0.13586918,0.21971254,-0.047299877,-0.10142584,0.028502136,-0.16908364
-0.42025682,-0.06941043,0.12737831,-0.13951834,0.0725127,0.20657554,-0.19419836,-0.28596485,0.22548594,0.3014786,-0.26629955,0.17356154,0.095266275,-0.17725033,0.01857258,-0.047014564,-0.26638177,0.019709429,-0.108775266,-0.009876768,-0.024129603,-0.29174197,-0.015161073,0.095154256,0.09406113,0.0018394939,-0.2481028,-0.096793495,-0.3149675,-0.37884364,-0.2596947,-0.0044647474,-0.27242875,-0.06201402,-0.12568891,0.028215159,0.10882687,0.07738037,-0.12084187,0.0139436675,-0.10859234,-0.2869949,0.1431411,-0.04100767,0.114628,-0.1326307,-0.16877772,0.08920091,0.017947039,-0.26486844,-0.23894802,-0.16194347,-0.04520243,-0.30274752,0.31973013,0.10591032,-0.11322036,0.0781246,-0.050040845,-0.019836087,0.003940399,-0.012655573,-0.10396368,-0.0048251194,0.21643388,0.10330938,-0.11128012,-0.14831935,-0.19648397,-0.07378534,-0.37815022,-0.15518269,-0.074538484,-0.027983598,-0.02546785,-0.041977316,-0.35664982,-0.051025994,-0.19040403,0.1429293,-0.08540487,-0.20969252,-0.39388642,-0.12132397,0.111406215,-0.1105341,-0.10593193,-0.098554626,-0.13594458,-0.09483743,-0.1266212,-0.060161587,-0.26309732,-0.110852525,-0.008523966,0.026951173,0.07819883,0.046389535,-0.27032074,-0.29833463,0.16241871,-0.010044936,-0.009769723,0.06814817,0.1853217,-0.28019723,-0.106399454,-0.026237704,0.037722163,-0.11621881,0.0018607177,0.20229651,0.013762681,-0.37744993,-0.34112096,-0.067843005,0.16924809,0.256961,-0.28426883,-0.10036038,-0.2647971,0.058944944,0.06656841,-0.4740746,0.112510696,0.06528827,-0.19749877,-0.25580353
0.023562541,-0.0848968,-0.11207577,-0.019464608,-0.059160247,-0.041693352,-0.08343727,0.023894183,0.0155235445,0.007676817,0.014618858,-0.011735081,-0.11586091,-0.04732523,-0.02448753,-0.012750026,0.023582552,0.009714456,0.012928577,-0.05316672,-0.12767753,-0.07882642,-0.035460543,-0.07449729,0.03524564,-0.032052025,0.0038152547,-0.047208965,-0.09546209,0.055788945,-0.11982246,-0.03413754,-0.0036793025,-0.011038318,0.01630334,0.032169335,-0.054358363,0.0045398762,0.059852254,-0.05640152,-0.052756287,0.0059960987,0.020126361,-0.024050346,-0.05938587,-0.09272313,-0.10720964,-0.08912577,0.014641579,-0.08767733,0.034959853,-0.09857135,-0.08965532,-0.09316814,-0.037286237,-0.034382716,0.023216201,0.014912595,0.025260428,-0.12492908,-0.009666797,-0.05053246,-0.0051938295,-0.058248073,0.027719593,-0.112223074,0.0050106742,-0.103287674,-0.066565394,0.0013634334,0.003277141,0.08057759,0.005135152,-0.017164499,-0.03905119,-0.07867687,0.032214206,-0.06689848,-0.039712414,-0.072362855,-0.01573481,-0.07677601,-0.04216344,-0.035833195,-0.039981455,-0.027350564,0.062214416,-0.073946714,-0.03560836,-0.09088932,-0.06084817,-0.08871257,-0.028530462,0.093622655,-0.099243626,0.015266365,-0.11286484,-0.08958721,-0.09228848,-0.004343028,-0.018606795,-0.09124024,-0.04310376,0.014152097,-0.12103118,-0.023629518,-0.017464673,0.031237116,-0.09540935,-0.0625442,-0.10332301,-0.067214146,-0.03561599,6.117673e-05,-0.03370269,-0.09212121,0.032420482,0.06484713,-0.045726333,-0.1078709,0.050206788,-0.06191239,-0.10572765,0.037437774,-0.10878681,-0.067356445,-0.038501646,-0.08186281
-0.016508615,-0.06375945,-0.11641435,-0.04452834,-0.095385134,0.08172566,-0.20419832,-0.091396704,-0.13027316,-0.09008581,-0.11970478,0.17519945,-0.06313755,-0.02869903,-0.018176304,-0.08454049,0.08796449,-0.08802225,-0.03701418,-0.12765124,-0.0014679827,-0.18487822,0.01067801,-0.019711273,0.009437854,-0.07096867,-0.072538964,0.073450394,-0.040475667,-0.20374472,-0.027261803,-0.045352515,-0.08157694,-0.13885611,-0.029864898,-0.18097432,0.039651234,-0.04710398,0.06526927,-0.08563414,0.10222391,0.023260063,-0.048878778,-0.06958099,0.040889084,-0.0049958806,0.047856558,-0.03985045,-0.014329712,-0.02573583,-0.09245855,-0.40412292,0.022027545,-0.055809546,0.035824433,-0.08741329,0.017041523,-0.06061379,-0.09856545,0.06401864,0.06201794,0.057221115,0.13752064,-0.110272,-0.012111459,-0.07758616,-0.06851833,-0.10585754,-0.008937875,0.043864764,-0.10341562,0.014526087,0.2231991,0.025477843,-0.042931665,-0.0010865077,0.07266651,-0.07027216,0.02417893,-0.095975116,-0.0018065097,-0.11371863,-0.036330227,0.14697562,-0.004103458,-0.16076759,-0.17250162,-0.054600865,-0.028105892,-0.017133934,-0.072218016,-0.046994764,0.017880829,-0.025367845,-0.12634934,0.04523668,-0.093078986,-0.042984515,0.005695025,-0.20468442,-0.17322105,0.013733723,-0.055309903,0.2270921,-0.09490552,-0.041126914,-0.42468032,-0.05868696,-0.11904196,-0.045136683,-0.100911826,0.041791614,-0.053080864,-0.05360656,-0.039128084,-0.09920036,-0.061508883,-0.006904252,-0.3076955,0.03397486,0.14674501,-0.24498767,-0.056185916,0.0152910445,-0.04751996,-0.08192911,0.1240563,-0.0021169214
-0.07544544,-0.11501836,0.06737614,-0.17229788,-0.07372544,0.039004207,-0.15476331,-0.14071123,-0.17752084,0.2284795,0.088986576,-0.13252673,-0.27128908,-0.06533047,-0.23904182,-0.14295377,0.26458213,-0.081521615,0.0659498,-0.034897827,0.10744903,-0.14542422,0.12987451,-0.07829314,0.076474786,0.16488917,0.03231052,-0.2031302,0.14446093,-0.15312637,-0.0011844838,0.013064945,0.13532905,0.07024409,-0.090528265,0.12498039,-0.37343225,-0.3100085,-0.13932952,-0.0064923456,-0.0712401,-0.08131828,-0.06686912,-0.5144225,-0.65298337,-0.084340066,-0.079260826,-0.1314333,-0.39290622,0.083602495,0.297292,0.018179892,0.14555663,0.082265235,0.14832795,0.33792794,-0.14135368,-0.20088744,-0.22655013,-0.42666578,-0.18815331,-0.46214208,0.04374442,-0.0878508,-0.065439105,0.15489829,0.042304702,-0.4048334,-0.1901113,0.009729244,-0.07457078,-0.17445163,-0.08613795,-0.3098032,-0.5405806,-0.28478128,0.15688439,-0.169144,-0.40038395,-0.061586507,0.026735662,0.063580245,-0.54888165,-0.06320806,-0.09842405,-0.040311035,0.1823475,0.016544903,-0.026293479,-0.22845747,-0.24780212,-0.25040773,0.03239577,-0.093646325,0.06829612,-0.03401371,0.07678517,-0.11576642,-0.08268222,-0.14953291,-0.0057017747,-0.2440888,-0.12462628,0.028631799,-0.007818753,-0.10561361,-0.16325843,0.05235654,-0.15808688,0.009218806,0.10942668,0.1820548,-0.25642252,-0.19184095,-0.031066673,-0.23511633,0.09263267,-0.094678305,0.068167225,0.011467247,0.13008633,0.01920889,0.022931807,-0.12468061,0.076783754,-0.22942144,-0.10243018,-0.08282951
-0.021637002,-0.10023457,-0.021700602,0.005450462,0.053473946,-0.028858775,-0.019543365,0.01641961,-0.07594594,-0.102370046,0.06455182,-0.046506654,-0.0682515,0.05725609,0.030012969,0.020738004,0.003330995,0.03228526,0.06021103,-0.06546754,0.03683865,-0.022192337,-0.024135107,-0.037783623,0.023707913,0.045032315,0.028562503,-0.05189536,0.027669042,-0.07324567,0.034578573,0.0009807578,-0.09522753,-0.022695279,-0.055644244,-0.07934678,0.008958003,0.024118781,-0.06402873,-0.006855807,0.023671832,-0.04032034,-0.037567392,0.018960178,0.028604517,-0.024277786,-0.061367195,-0.011780055,-0.03666742,-0.0878934,-0.07292002,-0.073016174,-0.07307589,-0.066957764,-0.061398067,-0.091787286,0.07414742,0.048598643,0.06451488,0.030345,-0.020000061,-0.042985152,-0.016855389,-0.10278879,-0.009295958,-0.004763767,-0.08714316,-0.020008108,-0.070727035,-0.029531809,-0.006719928,0.0351158,0.01352386,-0.046377,0.025012055,-0.032283667,0.022486191,0.049521506,-0.010515865,-0.051756244,0.03225933,-0.035252567,-0.09332489,-0.022686051,0.04547179,0.03647739,-0.09626734,-0.039989263,-0.093750685,0.042370938,0.016279327,0.008032627,0.06327814,0.005798206,-0.050489426,-0.068829775,-0.082374446,0.026753496,-0.08042804,-0.026131198,-0.051535565,-0.046023145,0.058011275,0.03975284,-0.079435684,0.016286166,-0.0067436006,0.015837109,0.053002812,-0.013715104,0.06445992,-0.0033203177,0.043222036,-0.0013577044,-0.03286009,0.06819799,0.025886716,-0.091381066,0.018339599,-0.039430633,0.040265456,-0.06563288,-0.07610571,-0.09821978,-0.04234288,0.012529388,0.012199764,-0.03325794
-0.0018329561,0.022287868,-0.48231584,0.15562668,0.0617555,-0.3390955,-0.08956749,-0.46831954,-0.033318672,0.10862803,-0.027254209,-0.4575218,0.19952871,-0.09510887,0.007279937,-0.21484506,-0.2809775,-0.05754847,-0.1925467,-0.053418994,-0.18324278,-0.009833395,-0.21494687,0.11252351,-0.13384925,0.14129224,-0.13696778,-0.15548638,0.008967296,-0.3017934,-0.12172501,0.07083769,-0.051420577,-0.45965332,-0.36087456,-0.025605435,-0.069429785,-0.2957455,-0.2578173,0.059007164,-0.0568999,-0.15966174,-0.09348063,-0.0029628782,0.2272282,0.010682853,0.06567533,-0.2005002,-0.04016502,-0.015472775,-0.38385382,-0.039458346,-0.18186706,0.0046660607,0.18099393,-0.032947127,0.07910095,-0.086093,0.15918566,0.21054871,-0.14494021,-0.10764075,0.109408915,0.011513016,-0.0466396,-0.09489565,-0.044501524,-0.2685013,-0.25275517,0.057366956,0.21969081,-0.019380596,0.14995806,0.031372376,-0.09537042,-0.052603927,-0.04029078,-0.006349241,0.059810024,0.013334148,-0.09267611,-0.05505753,-0.28338376,-0.43212616,-0.027026732,-0.13971463,-0.008291183,-0.32659084,0.11672416,-0.017531127,-0.017755272,0.054221913,0.11229634,0.066163875,0.07281585,-0.17126782,-0.060200915,-0.16995274,0.027079316,-0.21825984,0.14326242,-0.32231742,-0.18903136,-0.54111165,-0.107343696,-0.1509744,-0.02631052,-0.22877519,-0.30429348,-0.20253281,0.0697883,-0.004103016,-0.1876024,-0.06967625,-0.25020525,0.038040936,-0.34789416,-0.010237689,-0.0047911066,-0.07053342,-0.045990612,0.10513702,-0.046741333,-0.101970226,-0.21251167,-0.23714942,-0.14338006,-0.23822199
0.08477536,0.00045887145,-0.053332575,0.066046685,0.07827999,-0.1197145,-0.0932927,-0.12785225,-0.045757253,0.09859919,0.048067074,0.15792173,0.07186024,-0.14271648,0.33436507,0.13843311,-0.2811421,-0.18642676,0.11125964,-0.25100932,-0.53706276,-0.3108434,-0.38916397,-0.10956385,-0.544699,-0.21636967,-0.15293504,-0.66533864,-0.013686468,0.17485797,-0.29599583,-0.07665097,0.01298118,-0.0151277,0.12961118,0.02640997,0.023549141,-0.18568438,-0.059797026,-0.10076604,0.105054334,-0.25740966,0.06704245,-0.24311215,-0.017872533,-0.1753501,-0.124534205,-0.13709001,-0.068777055,0.02305669,-0.05301358,-0.14199552,-0.3445663,-0.017750591,0.007926467,0.18502486,0.099408284,0.008530603,0.20582734,0.108451605,-0.1994191,0.27510345,-0.29182816,-0.03836441,-0.032846026,0.10765461,-0.23422077,0.06628615,0.024462571,-0.024463313,0.0567516,0.044201087,0.11745066,-0.30940723,-0.046137642,-0.060237706,0.08968881,0.089872174,-0.1828861,-0.0659904,0.11302239,0.07866491,0.09770755,-0.01653026,-0.08224116,-0.21465552,-0.1278688,-0.4902284,0.10912544,0.17265476,-0.11296534,-0.07190693,0.06434097,-0.5388447,-0.05930278,-0.08986966,0.0454206,-0.21353672,0.086157024,0.043017246,0.020020364,-0.09249972,-0.54732656,-0.034299523,-0.05606694,0.080920994,-0.98886895,-0.20807138,-0.24098013,-0.24289578,-0.16376954,-0.20200637,0.2785403,0.016290268,-0.06501591,-0.1191698,-0.2628557,-0.10979827,0.03646091,0.019701537,-0.2249694,-0.14254986,0.025039304,-0.4746674,-0.20143813,-0.011784824,-0.27708256,-0.072805405
0.13429593,-0.12033578,-0.13024387,0.14444998,-0.023910638,0.15273713,-0.24956678,0.14380725,-0.0637388,-0.044603053,-0.12243929,0.23016106,-0.33966962,-0.10013533,0.016188497,-0.15936495,-0.103337705,0.08461064,0.08578436,-0.10141126,0.25201154,-0.038796198,-0.1093833,0.0566388,-0.042743396,-0.038057953,-0.1193311,0.15314257,-0.13521615,0.095263846,-0.14932555,-0.14288671,-0.085675515,-0.037451867,-0.24784888,0.0014844888,0.07367069,0.007999286,-0.27582565,-0.10011721,-0.048550848,0.07119905,-0.05945837,-0.104307406,-0.15778916,0.041213483,-0.123723164,0.010151246,-0.004327792,-0.12587403,0.04118555,0.02592053,-0.14231665,-0.118578844,0.082620285,0.10918659,0.048016574,-0.42774415,-0.3252077,-0.106440105,-0.06088352,0.06061001,-0.28208697,0.08077999,-0.44406667,0.043830078,-0.14593674,-0.060033303,0.020930529,-0.09319427,-0.052051574,-0.08875615,0.04625594,-0.016964614,-0.11706761,-0.037874863,-0.1582522,-0.020794192,0.0719085,0.13382156,-0.010834588,0.13727428,-0.18080357,-0.0010440941,-0.09892817,-0.09317343,0.09443104,-0.13003214,-0.03137707,0.061173223,0.045304682,0.18579715,0.10154264,0.14022852,-0.19509098,-0.022792084,0.021060303,0.27108312,-0.01067642,0.19931224,-0.19731215,-0.29847446,-0.20160057,0.2392607,-0.08666749,-0.02367743,0.11814159,-0.24633284,-0.102349795,0.28234622,-0.0059988135,-0.100438535,0.11186635,0.022421278,-0.15042143,-0.010217473,0.04984006,0.29663017,0.0244565,0.0532949,-0.15788282,-0.05118742,0.104174994,0.004943768,-0.08012301,-0.17668602,0.043920632,-0.042230226
0.081016526,-0.3760359,-0.062021002,0.225632,-0.0879953,-0.121237256,0.10348967,0.056941714,-0.07457703,-0.55485046,0.004306253,-0.31289217,-0.048416115,0.053781416,0.12966499,0.13510261,-0.051845472,-0.062219422,0.016974125,-0.52712786,-0.1050421,-0.088259675,0.121797174,-0.00022697059,-0.1617315,0.09248008,0.027642056,-0.01714598,-0.13963725,-0.63312197,-0.32083228,-0.123872295,-0.14333797,0.11125472,-0.30626035,0.17898628,-0.12642878,-0.038586095,-0.06726386,-0.1551511,-0.21136409,-0.1379171,-0.14247562,0.05949853,0.006111193,0.08467013,-0.12668055,0.33103225,-0.17185234,0.013065857,-0.32939348,-0.3322544,-0.13533999,-0.057402164,-0.13129471,-0.17992309,0.023571782,0.06407112,-0.09020248,0.068026826,-0.45706135,-0.3378548,-0.44447768,0.018493101,-0.14936632,-0.24991764,0.06592581,-0.17024003,-0.03190136,-0.059779234,0.012610194,0.29241845,-0.16023299,-0.24169171,-0.04292911,0.14129458,0.118559375,0.010980498,0.06322246,0.19837406,-0.13614246,0.12703635,-0.4392102,0.0769037,-0.25746822,-0.45729926,-0.28241548,-0.08305585,0.107742034,0.07785474,-0.10048381,0.14352663,-0.18712066,0.062677756,0.07764051,-0.09920833,-0.031484783,-0.2775319,0.046038333,0.07859414,-0.1803031,-0.27072388,-0.39940536,-0.19241393,0.08898124,-0.46124637,-0.24294773,-0.64369583,-0.055292435,-0.27210903,0.06769522,-0.058489688,-0.25345746,0.005404513,-0.12381858,-0.27492425,0.0684107,0.17465046,0.11006303,0.02291641,0.00783585,-0.04795364,0.0062382156,-0.14657861,0.0101315435,-0.27338746,-0.2308089,0.35973743
-0.053110007,0.0572255,0.08961843,0.07865882,-0.24723008,-0.042722564,-0.4783179,0.07237516,-0.11657939,-0.057280067,-0.047839887,-0.22105296,-0.048505325,0.12818368,0.22510284,-0.250572,-0.04975224,-0.117411956,-0.18696694,-0.22929479,0.26104847,-0.006788745,0.22777312,-0.012808307,0.20260935,-0.06230195,-0.2051267,-0.40588325,-0.02694629,0.12416984,0.13032122,-0.09236335,-0.07175761,0.04608146,0.057671797,0.1261955,-0.04082738,0.14596668,-0.6498787,-0.06378265,-0.0028940246,-0.24442378,-0.24946181,-0.21379462,0.0095705055,-0.07452402,-0.08638744,0.09833844,0.045521263,0.042693164,-0.6376716,-0.043300916,0.008274309,-0.07653545,-0.10808051,-0.23506567,0.03684673,-0.09701135,-0.112051055,-0.12853506,0.025877086,-0.18556905,-0.07909483,0.058038525,-0.105144255,0.032811157,0.01908197,-0.0028723218,0.038034547,0.16264743,0.108463064,-0.0943353,-0.00963664,-0.16958146,0.040971123,-0.12333493,-0.18917458,0.1433254,-0.2953941,0.16693744,0.03959202,-0.08185409,-0.124437794,0.2393421,-0.097064175,0.058712732,0.032405064,0.06583904,0.090050586,0.16234219,0.11331691,0.060323212,-0.04744519,0.0005122343,-0.060645558,-0.039258707,0.034172248,-0.70702875,-0.06391505,-0.030432062,0.063032664,0.19051929,-0.099613756,-0.15175526,0.0818174,0.15196773,-0.0053780642,-0.09549271,-0.09377089,-0.0039187064,0.011115409,-0.023541834,0.10329962,-0.055588733,-0.05835737,-0.075815685,-0.1853484,0.23882827,-0.1770009,0.09699857,0.11483213,0.06430299,-0.026358558,-0.074140035,0.013478501,-0.24704982,-0.24570376,-0.109916635
-0.0012801967,0.03415568,-0.111949556,0.018607033,0.0022506078,0.03195764,-0.10594149,-0.19785795,-0.11813547,0.17881185,-0.023861911,-0.057592604,0.116186365,-0.11620531,-0.26309872,0.021059351,-0.16144224,-0.14436238,-0.27001885,0.005348374,-0.075523764,-0.5690908,-0.01474647,-0.3851783,-0.1623982,0.10992603,0.012700085,-0.25173283,-0.14200968,-0.08375601,0.0087529095,-0.019181859,-0.054368,0.16533178,-0.11420621,-0.045877174,-0.005755908,-0.14825818,0.053576585,0.05138674,-0.016148575,-0.07358616,0.20895317,-0.18896155,0.23093322,-0.18516845,0.020515746,-0.10311787,-0.07790645,-0.03900492,0.18233946,-0.028201979,0.028056579,0.069844015,-0.037653185,-0.058288664,-0.09621747,0.15961002,0.08591522,-0.049875367,0.11656354,-0.3043108,-0.017359389,0.06993135,-0.17980185,0.02635091,-0.07116552,0.068116374,-0.1934324,0.03533174,-0.25585255,0.05607716,-0.049090326,0.15024187,-0.019899625,-0.16997728,-0.028048696,-0.08354674,-0.08801745,0.08214503,-0.42634967,0.0634505,0.025357349,-0.03323849,-0.038594026,0.040140443,-0.1097696,0.019549206,0.038513806,-0.15315312,0.031939473,0.010998219,0.11682164,-0.26080358,-0.016557138,0.07006753,0.10380308,-0.2665656,0.07432113,-0.139099,-0.15945892,-0.15296099,0.058053363,-0.103713006,-0.16487853,-0.117514625,-0.11124268,0.025156789,-0.03310172,-0.023128655,-0.10609351,0.005434801,-0.22253788,-0.07320464,0.015649797,-0.025026968,0.010824709,-0.44224778,0.044257484,0.117027104,-0.08274558,0.009272217,-0.11860539,-0.21184643,0.13716541,-0.051992584,-0.12565793,-0.008017248
-0.06178449,-0.10282204,-0.16018876,-0.04330574,0.017528398,0.055297345,-0.109250896,-0.025524596,0.0053105326,-0.044842172,-0.01152857,0.0041100476,-0.116811745,-0.0031931463,0.010243872,0.028771887,-0.024150612,-0.021741362,-0.06928249,-0.15156743,-0.015466831,-0.13900907,-0.11020435,-0.02698287,0.05904249,-0.11975053,0.005244891,-0.013647326,0.033321653,-0.076017894,0.023020307,0.019087223,-0.01412529,-0.099870265,-0.07725162,-0.096930474,0.012229735,0.051786274,-0.03806261,-0.14615221,-0.08737662,0.10808002,0.0030568233,-0.036877304,-0.038759615,-0.085680656,0.046638973,-0.07828761,-0.015198958,-0.1414843,0.061027046,-0.061493214,-0.060929492,-0.07057007,-0.11179614,-0.043982487,-0.08510571,0.05564678,0.09120694,0.004008816,-0.0013367705,-0.1149083,-0.06844134,-0.04190522,-0.03967575,-0.12697889,-0.086225815,-0.23342997,-0.068761915,-0.020736484,-0.07009101,0.027038751,-0.07049004,-0.014818797,-0.09551697,0.014765055,-0.058018625,-0.04975718,-0.060507745,-0.012292112,0.005020963,-0.022110583,-0.08631113,-0.09884136,0.02049461,0.010067235,0.102578245,-0.014810902,-0.011124596,-0.10162626,0.053990964,-0.031075645,-0.084655456,-0.021090649,0.046922244,-0.04482133,-0.07820263,-0.033055563,0.050100792,-0.1157608,-0.08028158,-0.12891059,-0.06653091,0.05064642,-0.021550039,0.03546143,-0.022741767,0.09790161,-0.09123886,-0.06795838,-0.042334717,-0.096343316,-0.06798824,-0.12616478,-0.0842217,-0.17041568,-0.051661454,-0.13013542,0.03110353,0.06134816,0.008049891,-0.064357996,-0.13859208,-0.067705624,0.033283215,-0.100133605,-0.0123613095,-0.015718063
-0.07064671,-0.05202032,-0.010908602,-0.008050456,-0.08855373,0.0042040665,-0.027378859,-0.09117156,0.06558722,0.038009234,0.022264719,0.04756655,-0.014108954,-0.11642642,-0.0138005335,-0.02334653,-0.108261526,0.11535801,-0.09228152,-0.024029506,-0.03660491,0.07016712,0.057209034,-0.015458222,-0.021241872,0.03226863,0.035056263,-0.10499633,-0.088484876,0.058148604,-0.10054779,-0.12025793,-0.0821494,-0.028716756,-0.11676744,-0.07301092,0.015333114,-0.06826215,-0.016486036,-0.045045946,0.030684203,-0.078254566,0.046571754,-0.043291304,-0.0011655067,0.054297693,-0.08674078,0.056296393,-0.060077623,-0.10026055,-0.049787294,-0.10790121,-0.0255556,-0.084062316,-0.07434392,0.017161205,-0.10336575,-0.05234165,0.008646675,0.015687075,-0.06514906,-0.08230419,0.050309,-0.120211974,-0.047834422,-0.011487395,-0.027704174,-0.19209799,0.089757614,-0.10063122,-0.008599315,-0.11677068,-0.078127936,0.059657164,-0.093746796,0.031774946,-0.09128254,0.04941639,-0.1685442,-0.033900857,0.027215615,-0.13045126,-0.015983429,0.03285363,0.010715603,-0.035183907,-0.09578476,-0.02638067,-0.045791492,-0.048020225,-0.0575517,-0.082578205,0.020947788,-0.00396796,-0.14398181,0.044781376,-0.033386365,-0.10109625,-0.0022866356,-0.0067939805,0.012060806,-0.040181987,0.043412905,0.04483309,-0.019292578,0.085881665,-0.085440494,-0.043780997,-0.057116818,0.012458233,0.038063955,-0.08940838,0.011419777,0.01868418,-0.067854546,-0.057404913,-0.012631257,-0.087585665,-0.01333229,-0.09288656,-0.117161505,0.019258212,0.09963682,-0.03301545,0.02197676,-0.07791637,-0.012201357,0.036473047
0.014240155,-0.057575647,-0.13159022,0.25223467,0.08487233,0.055976775,0.08067763,-0.09793053,-0.032564558,0.025191538,0.046813622,0.22263113,-0.16471416,0.19676095,0.028873686,-0.15135033,-0.01452876,-0.15397438,-0.25856087,-0.24940239,-0.13768107,-0.28011182,-0.33163074,0.15485351,-0.45595387,0.05894057,-0.07558278,-0.3042951,-0.2644743,0.24540503,-0.28786632,-0.01622966,-0.16081214,-0.0490424,-0.029226987,0.14250076,-0.015394262,-0.21782072,-0.19062383,0.02672322,-0.100064605,-0.036878575,-0.114521615,-0.18420464,-0.012165828,-0.17282623,-0.027027264,0.14977026,-0.12934375,-0.11047312,-0.15197994,-0.27697536,-0.3165048,0.072409965,-0.22000282,0.057235613,-0.023882767,0.18649365,0.09354704,0.08758891,-0.50860304,0.23324141,-0.1429429,-0.21940887,-0.079944,-0.17122613,0.060739122,0.095593825,-0.027050382,-0.005820351,0.02922358,0.28184023,-0.35114142,0.16359045,-0.23473743,0.14489165,0.0023729412,0.093630984,0.048254658,0.1054121,0.007909528,0.055512164,-0.11914088,-0.0873614,-0.0178823,0.11018367,0.2975704,-0.23024425,0.004847463,-0.112325884,-0.31885743,-0.04763627,-0.31956655,-0.17414223,-0.1239184,0.004344719,0.022765966,0.09951639,-0.25920713,0.018358856,0.020501519,-0.25420105,-0.4622671,-0.19133209,-0.38539475,-0.25839955,-0.62615913,-0.13246731,-0.12827216,-0.25875893,-0.04337621,0.085031934,-0.21250273,0.07131989,0.03376411,0.08207113,-0.2563503,-0.12843066,0.034733586,0.06834511,-0.22515455,-0.1576606,0.16087991,-0.5727868,-0.2413893,0.07326856,0.058216833,-0.07951349
0.10437164,-0.1782912,0.14016324,-0.2915804,-0.06910493,-0.052476496,-0.17672767,-0.3860656,-0.018182727,0.20763604,-0.20004788,-0.25864217,0.032567848,-0.13062845,0.06576434,0.03426769,-0.20548917,0.027210945,-0.026423514,-0.17410365,-0.47023594,0.14887887,0.054220866,0.07899873,-0.14724767,-0.080644496,-0.09410356,-0.6615807,-0.035809133,-0.014421741,0.03937613,0.03283864,0.11775208,-0.035086185,-0.005766958,0.13607898,-0.21990508,0.07732074,0.048513554,-0.11948421,-0.061298788,-0.06913828,-0.07797192,-0.10926584,-0.047346875,0.03344442,-0.19027449,-0.03805655,-0.11785006,-0.11313334,0.1436205,-0.019334,-0.3656953,0.07128775,-0.15418942,0.1100737,-0.18879232,-0.41929835,0.16524467,-0.21317865,-0.07636824,-0.16850588,-0.026636112,0.11318026,-0.1385291,-0.29906735,-0.07839612,-0.11039207,-0.206743,0.0047247717,-0.13598353,0.12734902,-0.09857393,-0.05314976,-0.040918726,-0.03549951,0.23934075,-0.20128882,-0.056075796,-0.17857371,0.07437394,-0.1272407,0.057711545,-0.109495625,0.025517775,-0.22950228,0.105512865,0.15448292,-0.06616617,0.043710142,-0.059047196,-0.02484426,-0.0300541,0.031331927,-0.2618926,-0.20574246,-0.06355959,-0.068573534,-0.101238936,0.103115775,0.07291245,-0.08921015,0.097401775,0.07366484,-0.12936725,0.0905593,-0.047187656,-0.17256618,0.014659224,0.16948512,0.06429143,-0.094701536,-0.06898253,-0.5488415,0.030533228,0.053850304,0.09890777,-0.25764376,-0.081617005,0.23601298,-0.27942684,-0.13322526,-0.07010887,0.029190924,0.1562691,0.1062196,-0.046083238,0.07378618
-0.033060633,-0.41169527,0.2679945,-0.09414172,0.001885756,0.14949611,-0.19177444,0.025275005,0.16381145,0.22118452,-0.027354555,0.061059088,0.0122901555,0.045045923,-0.05560293,-0.096939534,-0.05946689,-0.0837103,-0.08938714,0.053372107,0.031700592,0.021283863,0.009312731,-0.14745468,-0.22970241,0.043606672,-0.21120314,-0.019244796,-0.026638322,0.13949566,0.063196495,-0.1684688,0.03482735,0.102114946,-0.21021576,-0.011789064,0.010758297,0.05851323,0.07433495,-0.024604522,-0.16768086,-0.100862324,0.10401293,-0.33445174,-0.037772067,-0.04228109,-0.06392371,-0.15081868,0.24586155,-0.19800565,-0.1239934,-0.16528408,-0.071525395,-0.045286085,-0.123617746,-0.11716838,0.035219707,-0.37430567,-0.039322793,-0.032902144,-0.170959,-0.19044454,-0.062063895,0.02769604,0.19748993,-0.055513777,-0.108387895,-0.056223877,0.0626062,-0.19699709,-0.06600019,0.0032947848,0.044786926,0.10843259,-0.22197445,-0.03659117,-0.20241603,-0.04509587,0.11705544,0.015681457,0.16176313,-0.10228724,-0.07636636,0.12930338,-0.10484115,0.057081975,-0.12980734,-0.19662932,0.038756654,-0.0009186165,-0.25160187,-0.032612182,-0.30991575,-0.15418407,-0.0654255,-0.20277733,-0.015385282,0.06645661,-0.062038668,-0.07290242,-0.17782068,-0.04030027,0.01708807,0.1193754,0.17389336,0.11987428,-0.1652656,0.07960415,0.22477108,0.050534915,-0.032345198,0.16599104,-0.010414813,-0.11745502,0.021412874,0.16469266,0.08336998,-0.02452138,-0.24861735,-0.26363343,-0.082591176,-0.038669884,-0.215761,0.19068173,-0.08011542,-0.11531866,0.19550882,-0.009478942
0.01186691,0.02692109,-0.43568355,0.06843614,-0.44519386,-0.4011269,-0.04578438,-0.17841099,-0.1455106,-0.011749174,-0.023704259,-0.23365927,-0.14759636,-0.09961728,-0.03241568,-0.036887288,-0.15220603,-0.24356858,-0.16201983,0.088779576,-0.45494345,-0.047285616,0.079776764,0.12514046,-0.39084706,-0.17834565,-0.10326029,-0.5358093,-0.010032141,-0.06282787,-0.024257844,0.08068292,0.10990865,-0.27374372,-0.06753595,-0.04277269,-0.015883464,-0.15384643,-0.08541897,0.010539813,-0.3960147,0.21300185,-0.30189267,-0.42060888,0.08432463,-0.3740199,0.021308834,-0.16541599,0.005723733,-0.094559535,-0.19364867,-0.10518744,0.26669434,0.060625393,0.14247271,0.21088424,0.028320473,-0.19886276,-0.031155862,-0.19980258,-0.057561044,-0.03554713,-0.33939278,-0.12684,0.25342435,-0.1762346,-0.16544229,-0.050069384,-0.18349703,0.039663844,0.12998307,0.13097309,0.006384135,-0.03730335,0.14273961,-0.21345045,-0.107001945,-0.16281891,-0.049405977,-0.01573139,0.05295398,-0.017307617,0.06394135,0.192873,-0.245927,0.04378031,0.025654476,-0.044405352,-0.006861292,0.2313001,0.0836984,0.15089472,-0.07156877,-0.19324657,-0.024507541,-0.02287422,-0.019664709,-0.43737012,0.005064312,0.07856305,0.086301215,-0.036937393,-0.26329207,-0.088381134,-0.027668249,0.3284068,-0.07640252,-0.43246904,0.025536038,-0.35890734,-0.07662968,-0.00897111,0.122168906,0.07427102,-0.20225294,-0.17700294,-0.25173727,0.20741467,0.051132813,-0.0016432061,-0.09931638,-0.37282303,0.14341685,-0.38635796,-0.0115824975,-0.28171948,-0.026535468,-0.014482186
-0.08682088,-0.07956973,-0.023682266,-0.09465923,0.037586402,-0.04337288,-0.012898867,-0.09936647,-0.07305605,0.05086309,-0.05058881,-0.12077663,-0.109956615,-0.061139833,0.0408652,0.0460684,-0.004692332,0.046446025,0.05125882,-0.07417435,-0.0017416042,-0.0039117327,0.077414416,0.02132534,-0.035977382,0.06929067,-0.022668691,0.014960516,-0.04857327,0.019587357,0.005526407,0.049377967,-0.06810556,-0.08378235,-0.12370939,0.0013485237,0.034761775,-0.08427966,-0.037612747,-0.035607524,-0.09278572,0.0048298417,-0.0067883697,0.044804648,-0.03841014,-0.059772626,-0.06992627,-0.098363854,-0.09885172,0.051296815,-0.04070695,-0.020114426,-3.644895e-05,-0.046778187,-0.06127532,-0.06353121,0.028267743,0.030725477,0.0045836763,-0.051164236,0.04555534,0.062711686,-0.024399016,0.00292693,-0.049897168,-0.034954973,-0.016132124,0.01759693,0.04214048,-0.016492913,-0.036316145,-0.05910994,0.003631947,-0.0828443,-0.028488096,0.027923182,-0.083564006,-0.043830663,-0.059548043,-0.06413392,-0.02360813,-0.07812523,-0.0668748,0.0535227,-0.02659579,-0.109635636,-0.017572511,-0.0057046018,-0.07318615,-0.00060270075,0.0034824081,-0.06290543,-0.010065314,0.055388566,-0.0013755024,-0.11458506,-0.11739886,-0.041434523,0.009695541,-0.0695544,-0.05041614,-0.047420412,-0.009550436,-0.037550554,-0.006305333,-0.04894564,0.037736062,-0.0040687523,0.071426354,-0.06401116,-0.07010977,-0.051273033,0.04434109,-0.022444863,-0.09010227,0.05654482,0.021311693,0.0113090975,0.05845944,-0.06827203,0.019317694,-0.005117674,-0.028982598,-0.004313684,-0.07793641,-0.084908724,-0.07661089,0.0049338466
-0.00026438208,-0.33622664,-0.36654007,0.08274592,0.068982236,0.05345784,0.12470238,-0.031150317,-0.28957212,-0.30799216,-0.17524384,-0.6556729,0.059281457,-0.44285813,-0.08200077,-0.10133715,0.34566963,0.13490444,-0.0031629598,0.04961346,-0.041570112,-0.3140995,-0.115774654,-0.0092110615,-0.100434005,-0.100636356,-0.1060193,-0.11858947,-0.31471634,-0.09747096,-0.17716938,-0.14417736,-0.0983188,-0.36807317,-0.12236284,-0.49708447,-0.5319362,0.14650372,-0.14232203,-0.056836035,-0.58084196,-0.15415378,0.12511739,-0.2589785,-0.06896811,-0.12275339,-0.005272004,-0.03130313,-0.16507898,-0.010508759,0.16493487,-0.1998256,-0.17322971,0.0255405,-0.18093531,-0.1449818,-0.07281194,-0.2423613,-0.008763328,-0.06866257,-0.2280836,-0.116821565,0.10892427,0.060327407,0.050943244,-0.023522148,-0.037904143,-0.14879994,-0.008071779,-0.011050065,-0.21113993,-0.28366694,0.08902037,-0.14066015,-0.031665422,-0.05309361,0.14127149,-0.05044336,-0.285306,0.04553569,-0.03811007,-0.17154995,-0.10374705,-0.36516574,-0.0392996,-0.21145616,-0.060967613,-0.33517113,-0.0056950455,-0.027564095,-0.007021313,0.031363353,-0.16103971,-0.06857812,-0.06931766,-0.2684254,-0.011727434,-0.094612904,-0.07152155,0.074978724,-0.01643108,-0.12012258,-0.053552583,-0.10793354,-0.10993126,-0.3654771,-0.13438517,-0.14265986,0.11004044,-0.09646409,-0.12992156,-0.108852275,-0.18708137,0.03376904,0.15330406,-0.11198443,-0.20482484,-0.3062685,-0.037178684,0.14231023,0.026237864,-0.16417785,-0.12139855,-0.120276965,0.014799045,-0.13413744,-0.21852398,-0.17239897
-0.10693433,-0.14455536,-0.044650853,-0.123214565,0.025053823,-0.0830453,-0.019651014,-0.06558444,-0.06561083,-0.04213732,-0.054618202,-0.024666302,-0.1357132,0.033167176,0.049313556,0.033348028,-0.084083475,0.03620396,-0.03741676,-0.094314516,-0.07603784,0.015509179,-0.09652383,-0.09832451,-0.05171353,-0.03732115,-0.16744965,-0.090565585,0.06754228,0.13111547,0.020947132,-0.1831594,0.043779403,-0.028780432,-0.04313383,0.055388708,-0.026695745,0.0103756925,0.0023557036,-0.06225245,-0.061173536,-0.026242442,0.073930025,-0.05162667,-0.07512769,-0.089159735,-0.036593203,-0.038148258,0.050171237,-0.16020873,-0.111161105,-0.06843352,-0.1820787,-0.042513877,-0.05399283,-0.15755278,0.057954755,-0.12418222,-0.004866898,0.026505806,-0.051915232,-0.03703361,-0.025297778,-0.1558874,0.018044112,-0.09922473,-0.1288064,0.0057003177,-0.082512625,-0.12600882,-0.097276434,0.15645583,0.06980582,-0.11215004,0.048754632,0.06837245,0.017452177,-0.06494843,0.086405255,-0.13011801,-0.089309804,0.03514667,0.062690355,-0.043931644,0.002121833,0.13462652,0.011133153,-0.09895668,-0.13501859,-0.06452622,-0.00083453883,-0.035039756,-0.011298962,0.039157696,0.078634165,-0.12992215,-0.059261963,-0.08698546,-0.07116099,0.031802956,-0.15564658,-0.025609626,-0.10260227,-0.029183881,-0.04172373,-0.025018727,-0.030568996,0.09300502,-0.029857645,-0.053960554,-0.13040711,0.01782491,0.083103634,0.048719134,-0.1018131,-0.010492671,0.06636743,-0.13773496,-0.0081406245,-0.10665863,-0.11679813,-0.023544723,-0.023703525,0.06631356,-0.07776078,-0.117826,-0.13248177,-0.0052609406
-0.023779834,0.031899843,-0.3031995,0.25687695,-0.06369296,-0.21283606,0.0604178,-0.17748061,0.028571917,0.1652414,0.19053228,0.085478336,0.09769374,0.03213848,-0.08256452,-0.15057236,-0.16256124,-0.45920053,0.12437762,-0.37781063,-0.41250974,-0.37070444,-0.18964113,-0.3041772,-0.16942161,-0.18896495,-0.031682204,0.07075651,-0.05055476,0.07734134,-0.110258244,-0.010117185,0.11974687,0.0686781,-0.2848473,0.04312497,-0.19095424,0.05520635,-0.0422559,0.037622873,0.10789087,-0.15324941,0.08482071,-0.05061215,-0.1675817,-0.3700045,-0.21081774,-0.23766692,-0.38945946,0.07308118,-0.012469799,-0.19511692,-0.1786797,-0.04978514,-0.010791838,0.15627275,0.08784289,0.1478346,0.11666727,0.19523573,-0.30680653,0.08629095,-0.06725117,0.00630232,-0.080185674,0.17354567,0.04142224,0.08580965,-0.10106217,0.022223424,0.01717157,-0.016524684,0.12458477,0.062913224,-0.26535735,-0.14294781,0.0531047,-0.05540216,0.12494989,-0.11578347,-0.29631576,0.37475932,-0.14921579,-0.045399655,0.0419287,-0.32118225,-0.10674682,-0.25784767,0.012916567,0.0079757795,-0.051523276,0.05294961,-0.29330504,-0.38166815,-0.1500965,0.13983774,-0.06307074,-0.067999005,0.11242697,0.022642862,-0.054121107,-0.08977806,0.011640555,-0.05584333,-0.16092958,-0.14295043,-0.19922252,-0.50999904,0.043755066,0.16801627,-0.002943405,0.10872286,0.024120491,0.044580437,-0.11544239,-0.07236171,0.009820383,0.17432903,-0.009030957,0.004617714,-0.2442657,-0.098816246,0.08247109,-0.2880913,0.058034174,-0.1640984,-0.1361715,-0.20225571
0.049519107,-0.041328795,-0.021622228,-0.14764465,-0.36342144,-0.21169066,0.104747646,-0.33899584,-0.00038395968,-0.19131672,-0.17772721,0.12864926,-0.20458598,-0.039176296,0.02045904,0.021330688,-0.0036056698,0.034350976,0.011115324,-0.15857221,-0.009562517,0.2151216,0.011642769,-0.25092074,0.14523302,-0.48926347,-0.29775584,-0.080075964,-0.5777455,-0.2619327,0.048422527,0.0061690947,0.00043380292,-0.064461,-0.5046111,-0.5354075,-0.016864603,0.003450548,-0.05353428,-0.16954382,0.10642939,0.028900394,-0.07749747,0.27401006,0.04929448,0.0074657584,-0.112752,0.013273918,-0.18063292,-0.112725526,-0.22316001,-0.05768165,-0.0956717,0.029078789,-0.024643077,0.049358808,-0.035036076,-0.3142755,-0.006967458,-0.3638222,-0.122897744,-0.30095693,-0.25337476,-0.07642181,-0.023970302,0.1591635,-0.09695066,0.09372698,-0.07024668,-0.06545942,-0.21703836,-0.15835993,-0.41664845,-0.37102473,-0.17707747,0.18110657,-0.09753596,-0.08411492,-0.0646282,0.0068692556,-0.009484068,-0.03992617,0.102153555,-0.24073914,-0.25999257,-0.3843521,0.0089280885,-0.12217362,0.043760467,0.012791729,-0.15867555,-0.1371817,0.030958366,-0.0426016,-0.1952337,-0.009271727,-0.23730727,-0.08052334,-0.059626725,0.042925134,-0.0686134,0.073706135,-0.158884,-0.07318135,-0.098138206,-0.057958,-0.52571,0.23319663,-0.027525099,-0.0133901,0.0030821147,0.17746738,0.005579235,0.20646574,-0.23025241,-0.13620363,-0.23247285,-0.54069453,0.08916791,-0.027277092,-0.65377706,-0.10823011,0.24946795,-0.07787848,-0.15205368,0.13478893,-0.17002866,-0.001978552
-0.08017178,-0.021385478,-0.048186824,0.039585944,-0.029039025,0.0012380657,0.0020659778,0.039737172,0.049582858,-0.011442836,-0.11134113,0.077234976,-0.061179783,-0.07551791,0.03222637,0.00095566077,-0.060216762,0.0012388768,0.034218032,-0.05496797,-0.074779086,-0.020212926,-0.023125747,-0.087487005,0.054419626,0.022523906,-0.06342783,-0.021172326,-0.10179374,0.010343542,-0.070760496,-0.107186824,-0.07258932,-0.020406116,0.021571765,-0.116678424,-0.03271326,0.013539834,-0.010683748,-0.0033405959,-0.0677781,-0.04791679,-0.047569,-0.05918686,0.033364847,-0.08042349,0.043826632,0.002706526,-0.031321947,0.030145768,-0.015609855,-0.13961971,-0.025089577,0.013794474,-0.04710206,-0.02579021,-0.057129763,-0.0059346603,-0.06728617,-0.06576144,-0.0679086,-0.110630356,0.0027837006,-0.056822155,0.046377,-0.06129382,0.033083662,-0.05864602,-0.08191548,0.027340632,-0.061719652,-0.12985352,-0.013246595,0.010553948,0.031238938,-0.052534744,0.033347275,-0.0040876474,0.042982407,0.05493726,-0.031146146,-0.044933468,0.034556,-0.0613011,-0.037246246,0.052233893,0.07923471,0.05054378,-0.10739519,0.03983855,-0.021554004,0.071995765,-0.037576675,-0.03776263,0.022899548,-0.06589586,-0.0053816414,0.014458433,-0.077427424,0.016662776,-0.059766628,-0.023666335,-0.059503857,-0.099229574,-0.040386643,-0.005802077,-0.050396197,-0.01542326,-0.025874075,-0.03689581,-0.043567177,-0.05327468,-0.08016266,0.031112514,-0.10620149,-0.021185357,0.006245969,-0.10266149,-0.013190739,0.028241558,-0.037776727,0.03106948,-0.07221391,-0.010479795,-0.040967688,0.021550892,-0.094245374,-0.03750728
0.02518012,-0.0021544409,-0.03957271,-0.16745758,-0.010615108,0.09524492,-0.058761448,0.05674784,0.013261158,0.029482558,-0.28604308,0.14026932,-0.05382375,-0.31359923,0.06119585,0.06662166,0.057547957,-0.34887806,-0.17188288,-0.065484256,0.15117374,0.13284956,-0.0022400608,0.09809603,0.0036382966,-0.06291216,0.013568619,-0.12515707,0.077215225,-0.47827744,-0.031924184,0.13864367,-0.02810063,-0.100174166,-0.09068532,-0.22783977,0.0742015,0.11362405,0.09275,-0.0110053215,-0.20711958,-0.015132966,0.052580085,-0.19437258,0.20679624,0.19472665,-0.27654082,-0.16363789,0.12412645,0.07680661,0.25614488,-0.06388865,0.47560903,-0.023059834,-0.27490777,-0.22294271,0.24157202,-0.24498531,-0.23077135,0.01631147,0.12305128,0.006397988,-0.054773133,0.052169427,-0.2235755,-0.28409272,0.09517957,0.07847821,0.12610841,0.0073126354,0.08090097,-0.22116129,0.38026214,-0.16741847,0.13570471,0.22259356,-0.12551737,0.07836928,0.030953217,-0.17003016,-0.051124025,-0.48224804,-0.08968741,0.18572162,-0.040384986,-0.072107,0.38155165,0.06314261,-0.012682037,-0.6856893,-0.08253569,-0.20549066,0.05802284,-0.0017617975,-0.016804451,-0.2724103,0.06058189,0.34503594,-0.2588076,0.050389912,-0.05404779,-0.01686867,-0.09096665,0.05112352,-0.043424375,0.20400685,-0.18498532,-0.30207133,-0.16819493,-0.2772578,-0.19988248,-0.18804581,-0.07481325,0.022115977,0.007466355,0.17616531,-0.11467075,0.00023659154,-0.025307028,-0.30345267,-0.44781962,0.08914281,-0.043263163,0.010344767,-0.16915567,-0.25908875,-0.11522607,-0.1756585
-0.05779307,-0.15179582,-0.035221905,-0.01386833,-0.08083097,-0.08683623,-0.11620633,0.003828691,-0.08544482,-0.08175569,0.13101122,-0.020036254,-0.12669472,-0.10410028,-0.114714965,-0.009857013,0.1576218,0.020450428,-0.04906524,0.03428187,-0.017301857,-0.0055406587,-0.22009543,-0.14013822,-0.024378948,0.053770963,0.110673726,-0.03965141,0.084423095,-0.03698639,0.085135944,-0.116664745,-0.06209107,0.0062364982,-0.06871034,-0.057090722,0.017291171,-0.081693076,-0.12183023,-0.011402193,-0.10339258,-0.067945465,-0.005797702,-0.09854257,0.03357558,-0.17061909,0.13192628,-0.022107504,-0.010757752,-0.23356293,-0.025453182,-0.0038530144,-0.114969514,-0.13410324,0.06002396,-0.03889274,0.039564367,-0.042306885,-0.06868241,-0.045070473,0.006029572,-0.09899021,-0.08685587,-0.04400908,-0.0016629475,-0.08335981,-0.02361049,0.04848362,-0.012331209,-0.1340461,-0.10928609,0.017431198,-0.023343267,-0.083301745,-0.06519281,-0.017758556,0.14046599,-0.082544185,-0.012907571,-0.17246175,0.063206606,-0.06938979,-0.07920917,-0.0604057,-0.10398775,-0.13574651,-0.061071347,-0.09062211,-0.040265378,0.025733316,-0.070446484,0.027378151,0.0442454,-0.035972282,-0.15052702,0.061509617,-0.025647957,-0.09445757,-0.12930116,-0.009857692,-0.07591084,-0.03823114,-0.18804006,-0.13947381,-0.07703352,-0.013440738,-0.054445244,-0.010762269,-0.1339019,-0.00049629493,-0.08797048,-0.07437215,-0.16630219,-0.04462906,-0.06801222,-0.009634399,-0.062155873,-0.035407092,-0.09552739,-0.059644684,0.024959572,-0.009030278,0.009207245,-0.102404326,-0.0024709536,-0.08040322,-0.013920622,-0.1368992
0.08916063,0.15512855,-0.07759928,0.09638663,-0.080077104,0.06052277,-0.12879315,0.0709932,-0.28379378,-0.021755332,-0.068445235,-0.24641633,0.0043811486,0.060780384,-0.18050924,-0.21124862,0.1652375,0.13339834,-0.03988444,-0.16968104,0.14863595,-0.32286987,0.25688526,0.07812875,-0.26573753,-0.061915662,0.11479481,-0.22985898,0.09758478,-0.012064636,0.21085574,0.10749004,-0.026840467,0.020470802,-0.17483804,0.056033757,-0.40078217,-0.0054870257,0.021895137,-0.18272305,-0.4344036,-0.1227317,0.17571956,-0.503553,0.027752373,0.17948148,0.01841926,-0.031648837,-0.028807072,-0.1982233,-0.26850733,-0.14129768,-0.090061575,0.0027535362,-0.47089228,0.13695586,-0.31135923,-0.059854828,0.06769262,-0.0936017,0.14747176,-0.21507543,-0.252461,0.044492234,-0.002613652,-0.25802276,0.2796362,0.026482929,-0.13268246,0.018179392,-0.01096503,0.0045205816,-0.1413286,0.06386018,0.09817129,-0.056292083,0.16365878,-0.28371933,0.046048585,-0.39979327,0.021136452,-0.2774156,-0.020833068,0.14468652,0.12524316,-0.050249223,0.16269737,0.05831768,-0.039191786,-0.13859795,0.11613541,-0.23266388,0.026629772,-0.13954608,0.016969787,-0.3812416,-0.047780074,-0.23305453,0.09503627,0.04494893,-0.17954491,0.19174333,-0.25239652,0.096532285,-0.101945974,0.13852149,0.051294368,-0.22315098,-0.2971864,-0.20985869,-0.36851913,-0.0073509333,-0.2582698,-0.020829175,0.04926647,0.084304035,-0.12208458,0.16673666,-0.2425367,-0.08390054,-0.33729053,-0.115395226,-0.020740172,-0.24860069,-0.25080377,-0.072674155,-0.08643493,-0.24950749
-0.089659624,-0.11377017,0.0037479212,-0.08907322,0.039045576,-0.056710728,0.045993656,-0.03681615,-0.05699808,0.03482226,-0.009220367,0.03175012,-0.0041882065,0.029142419,-0.036589555,0.09134002,0.03665324,-0.098591,-0.04477289,-0.07531996,-0.06718043,-0.02887879,0.050764497,-0.04560902,-0.048689593,-0.0065199556,0.014163481,-0.030023031,-0.010827154,-0.027848924,-0.047798906,-0.08220316,0.06451068,-0.026741121,0.052376114,-0.04815327,-0.021913273,-0.009437374,-0.086439505,-0.03467419,-0.014229551,-0.0053566806,0.00031051898,0.042848337,-0.02101849,-0.043555994,0.034737337,0.013688781,0.005926419,-0.08579725,-0.060153708,-0.20926553,0.034229703,-0.064566016,0.03813705,-0.07396403,-0.08015474,-0.066263735,0.02981962,0.027160728,-0.07347458,0.0053112614,-0.091488816,-0.10430542,-0.052637037,0.029254802,0.0014311741,-0.045617256,-0.011008274,-0.017736146,0.025039744,0.02087202,-0.016110744,-0.0158077,-0.031234706,0.056046892,0.03722677,-0.087614395,-0.039655764,-0.031454414,0.0416015,-0.039110288,0.07605671,-0.027672747,0.063618004,-0.07866519,0.06857781,-0.020258952,0.015722292,0.016093772,-0.105167896,0.011415902,-0.05041251,-0.049485806,-0.056312103,0.014069765,-0.100334905,-0.023197163,-0.074787766,0.055754498,0.032071356,-0.049920134,-0.015213744,-0.08646885,-0.028506448,0.050457347,0.047476225,0.003717511,-0.06815691,0.028406689,-0.038839594,-0.022637008,-0.00056756823,-0.102096304,-0.031215714,-0.047263876,-0.050376434,0.0022313271,-0.03284681,0.008936307,0.013506429,-0.094383895,-0.058645993,0.048395004,-0.07043858,0.028721647,-0.08981138,0.016103484
-0.04785149,-0.0072851456,-0.099713154,0.09852849,0.17078462,0.057313986,-0.19579785,-0.04259625,0.083203174,0.088647775,-0.05923863,0.0872776,-0.20218772,-0.36191815,0.116311155,-0.086812794,-0.0043560765,-0.06452007,0.07005546,-0.19944008,0.018893704,-0.17478575,-0.14681457,0.00034441304,0.04557956,0.022213621,-0.08900861,-0.056862097,0.08885541,-0.005046862,-0.03278386,0.023259774,-0.122694224,0.015043737,-0.19868173,-0.43341222,0.057973124,0.016782982,0.11374996,-0.22973755,-0.1422007,0.017466977,-0.06322133,-0.20649323,-0.09245835,-0.15525374,-0.07347272,-0.046027627,0.111642525,-0.6045629,0.1775997,-0.06753122,0.11389409,-0.017604202,0.12731607,0.1829652,-0.24458058,0.13610646,0.04360064,-0.05684239,-0.046237566,-0.0010129001,-0.08193433,-0.14838667,-0.031943515,-0.1393476,-0.16693988,0.029047377,0.02981191,0.02882579,-0.051346455,0.17715581,0.03760806,-0.10511344,-0.12720446,0.11468819,-0.08198848,-0.019165628,-0.09283444,-0.1326146,-0.13054827,0.11407808,0.16770923,-0.14117664,-0.14576225,-0.15310957,0.23712286,-0.15263405,0.048803434,-0.04929465,-0.27207986,-0.14502083,-0.0077322577,-0.28586558,0.02068791,0.119905524,0.014750249,-0.08981668,-0.119229406,-0.034881696,0.13373289,0.21113628,0.0033968182,-0.22951607,0.04230795,-0.007621678,0.027708597,0.12069546,-0.22422263,-0.36924726,0.022662543,-0.05485523,-0.17296943,-0.014950738,0.09810234,0.0051478855,-0.4311939,0.07993651,-0.039617594,-0.10933631,-0.23213601,-0.21866918,-0.015011886,0.09497001,-0.12939523,0.06914209,0.081655696,-0.08777171
-0.16097216,0.02696222,-0.04587302,-0.0774273,-0.1716977,0.059113417,0.14620675,0.10060588,0.12825309,-0.1779263,-0.16776149,-0.15052351,0.071330585,-0.16814381,-0.10209305,-0.1903837,0.05755126,-0.26411384,-0.07993287,-0.002537269,-0.3183538,-0.13179234,0.23362872,-0.07165093,-0.18209945,-0.021403244,-0.06219229,-0.06786017,-0.08845863,-0.25472203,-0.023591856,-0.13396671,-0.18059552,0.12538794,-0.25714213,-0.15428403,-0.018244484,-0.10822257,0.16906479,-0.044098392,0.2343798,-0.0026224628,0.02940237,-0.045768537,-0.022124588,-0.07610701,0.08644077,-0.06981088,0.036973096,0.044473913,-0.029227708,-0.041709125,0.062318135,0.0039981273,-0.018160947,-0.050731573,-0.035449002,-0.1783915,-0.22119838,0.043186028,0.027895546,0.14314865,-0.1838193,-0.28458393,0.0523351,-0.18222508,0.0040857936,0.104772344,-0.05630853,-0.15144855,-0.27517197,0.038983323,-0.031085873,-0.06869598,0.12952428,-0.047448296,0.07583382,0.24856913,-0.13379689,-0.10667621,0.11177213,-0.3502692,-0.19073723,-0.06622704,-0.18189612,0.015579906,-0.26882523,-0.11354909,-0.07359369,-0.078508645,0.050022304,-0.17299584,-0.22110096,-0.051446386,0.011860857,-0.10369829,-0.034294914,0.26487598,0.03577969,-0.06632678,-0.20047289,-0.092114255,-0.10381957,0.040996723,-0.30567592,0.026005631,-0.14694154,0.07649003,-0.034146152,-0.17296818,0.103643805,-0.24986236,-0.19851494,-0.007924746,-0.05348623,-0.013206316,0.12237317,0.067152455,-0.074085966,-0.12651595,0.05835015,0.021033471,0.10045956,-0.18206176,0.037831888,-0.33854982,-0.2605754,-0.056030665
-0.026488084,-0.1577413,0.08826949,0.09558183,-0.19212975,0.08666204,-0.19841793,-0.004628283,-0.04696012,0.14769833,0.038444065,-0.054069698,-0.17046091,-0.24689831,0.0757106,0.24237075,-0.18332832,-0.3531369,0.20972846,-0.01236879,0.032059,0.063262716,-0.18569033,0.14272675,0.055814713,0.009544611,-0.0131611265,-0.11955707,-0.22643411,0.22950247,-0.01177062,-0.0075233527,-0.029845316,-0.036406875,0.16744931,0.029238125,-0.12950589,-0.19525142,-0.10187546,0.013667898,-0.218903,0.0057785166,0.02859209,0.2006141,0.013703863,0.109018646,0.09484975,-0.523358,-0.3546772,-0.10240822,-0.51132655,0.0953506,-0.2144602,0.1368228,0.014240803,-0.48441902,-0.01829973,0.2376498,2.9116525e-05,0.0051953024,0.058866356,-0.29728606,-0.5431777,-0.040922306,-0.17059977,-0.38313413,-0.122949764,-0.5981427,0.12476877,0.00048048742,0.062581286,-0.21400534,0.03275296,-0.38182598,0.03718698,0.06475467,0.09098863,-0.029704832,0.10130789,-0.0051529766,0.16027033,-0.15082233,0.076642945,-0.044035304,0.076180056,0.14400333,-0.21160218,-0.0020992279,-0.037122957,-0.11467675,-0.07880457,-0.08043801,0.1346062,0.027266806,-0.094700105,-0.2335873,-0.05535596,0.17511652,-0.53964645,-0.6574492,0.00038948847,-0.105904706,-0.049710177,0.14096105,-0.18768467,-0.121877186,-0.08578891,-0.10659527,0.022172002,-0.33207867,-0.25938836,-0.37716672,0.16645011,0.039773624,-0.1616668,0.08093288,-0.26878956,-0.12486524,-0.19653521,0.07758228,-0.34355712,-0.2697658,0.023317674,-0.08513068,0.09792408,0.23710833,0.03510415,-0.016999258
0.020421507,-0.17069583,-0.08526018,-0.11385019,0.041837662,0.021586848,-0.1110864,-0.41676164,-0.1580872,0.107458085,-0.045380298,-0.33254984,0.08740149,-0.09133927,-0.19892955,-0.22640406,-0.27921382,-0.00046419897,0.047339592,-0.294335,0.05027229,0.052247457,-0.0615744,-0.1319356,-0.31115913,0.14063855,0.09682306,-0.48123637,-0.04396038,-0.3552488,-0.4347268,-0.15009414,0.05951538,-0.2841824,-0.0040273056,-0.17906654,-0.16696371,0.030674646,0.103164904,-0.055710077,0.017664937,0.22155422,-0.0364467,-0.5113466,0.0076557533,0.088487945,-0.14468604,0.24644475,-0.028434634,-0.070415646,0.06182985,-0.036977325,-0.2129226,0.057461143,0.090347186,0.058154326,-0.32822132,0.10609452,0.040696524,-0.19001977,-0.048040863,-0.26128042,-0.030330991,-0.09987243,0.09896626,-0.062080536,-0.3513112,-0.11097404,0.13321468,-0.20541441,-0.14430764,0.028640224,0.11590918,-0.16852713,-0.06160617,-0.08962853,-0.15674695,-0.13006252,0.026734542,0.12463806,-0.20538075,-0.12669572,-0.22564909,0.05805673,-0.12569205,0.032296736,0.08121767,-0.017543208,-0.028660545,0.23022132,0.19566366,-0.024740014,-0.028786503,0.010858808,-0.098626345,-0.18817645,0.0041350652,-0.5402449,0.21142879,-0.10543205,-0.08781396,-0.0094978055,0.03636696,0.029172847,0.033907022,0.20011346,-0.00781734,0.005897573,0.034282185,0.16308203,0.14725374,0.058597434,-0.1942011,0.06340458,-0.12591417,-0.11099236,0.061258465,-0.2147114,0.15620154,-0.031503126,0.049735654,0.05458205,0.14935578,-0.07561989,-0.12538584,-0.22826904,0.14322774,-0.22063997
0.10627001,-0.32317865,-0.08012486,0.14728697,-0.4285996,0.10930353,-0.24137321,-0.020099616,-0.14885883,-0.12227795,-0.028272865,0.006076598,0.11539153,-0.057789013,0.19116779,-0.12939382,-0.08708571,-0.0861614,0.047419865,-0.031576045,0.099280044,0.051758803,0.2588806,0.05856412,-0.14484276,-0.19812842,-0.04643665,-0.022818463,-0.26464954,-0.13036682,0.016734375,0.003460083,0.05506634,-0.18491106,0.06070522,0.09929462,0.1030315,-0.039757624,0.05129339,0.076360725,0.098181926,0.107509285,-0.03149877,-0.09884948,0.14417875,0.08189549,-0.089221075,-0.36699718,0.0064072595,0.061635975,-0.055921175,-0.08829935,0.15923491,0.07198875,0.049511503,0.01454612,0.21709958,-0.15341838,-0.033713352,0.04397905,-0.058630046,0.11699797,-0.10686517,-0.10371534,-0.07861773,-0.09178761,0.037854042,-0.072182976,-0.17288475,-0.22654286,-0.19672553,-0.33064663,-0.2875271,-0.042311613,-0.14914897,-0.024109926,-0.019506307,-0.2717222,-0.0019125992,-0.13579027,-0.17085563,0.10829038,0.051891785,-0.07175855,-0.022160761,0.11102211,0.08293353,-0.037290916,-0.04577252,0.11238925,-0.0054744184,0.018840801,0.12503132,-0.49718907,-0.024549823,-0.07746392,-0.0078319395,-0.0957969,-0.0002928622,-0.14073132,0.12761629,-0.27318218,-0.10460762,0.024365125,-0.029527973,-0.1157266,-0.07138569,0.05396855,-0.20377913,0.1372232,0.01826934,0.039065387,-0.08575613,-0.025761649,-0.2672488,0.166533,0.15844665,0.004538224,-0.0031785234,0.09418783,-0.08278049,0.0847912,-0.08535061,0.011887827,-0.026044399,0.0257525,0.13331531,0.06671234
-0.37107584,-0.035846997,0.024552831,-0.45525637,0.07188943,-0.018937273,0.12084923,0.15435928,0.033675455,-0.07158795,-0.74783045,0.30910867,-0.12559219,-0.037663154,-0.16216591,0.11064429,-0.09550553,-0.0026647423,-0.13143861,-0.05095731,-0.23010735,-0.10974982,-0.17232834,-0.103276856,0.2293629,0.10250152,-0.025452616,0.16837469,-0.1747025,0.36072713,-0.3440486,-0.2165204,0.1230841,-0.27150136,0.19116756,0.037143756,0.09633806,-0.046020478,0.033024527,0.069910504,-0.03975211,-0.15696424,0.080454335,-0.025653092,-0.039812658,-0.060862858,-0.1507018,-0.11073375,-0.45362172,-0.17791057,0.015177246,-0.21194534,0.06513317,-0.0956653,-0.20805503,0.15771192,0.12586023,0.23940112,-0.041481357,-0.06850507,0.15206958,-0.009529812,-0.4606861,-0.0023193941,0.22857003,-0.27172917,-0.05779454,0.058098506,-0.4999982,-0.10637433,-0.09931639,-0.30930305,0.15647957,0.11748224,-0.34086153,-0.4080215,-0.15043789,-0.047866143,-0.04431892,-0.5217699,0.08701643,-0.053155497,-0.3248272,-0.117894955,-0.064193815,0.147243,0.11774044,0.030714534,-0.12642112,0.014329479,-0.18289453,0.013280132,-0.32594633,-0.25269023,-0.28739825,-0.0077503063,0.02591043,-0.11171184,-0.0018612165,-0.04889337,0.09514,0.010369151,-0.13681956,-0.233144,-0.17985389,0.16918766,0.015109339,-0.12331754,0.0038464651,-0.15445602,-0.15885003,0.01674647,-0.14056562,0.060322024,-0.09531882,-0.043353114,-0.0856698,0.24197006,0.030690653,0.107217595,0.097229086,-0.48446423,0.14332323,-0.059778426,-0.08880922,-0.16935,-0.19739333,-0.06867669
-0.18434262,-0.129955,-0.014317862,-0.19729379,-0.1439904,0.083268754,0.060219966,0.047707915,-0.054004923,0.2705502,-0.19415875,0.2422676,0.0031795956,-0.0892658,-0.16879272,-0.09426904,-0.19922595,-0.14542456,0.017089646,-0.05710714,-0.119451955,-0.2654582,-0.2253182,-0.07942331,-0.2939506,-0.02652697,0.032849696,0.22088775,0.058049493,-0.112649225,-0.22066979,-0.07808701,-0.20903067,0.053710833,0.22356427,0.09463698,-0.07700652,-0.16289112,0.04177852,0.12022011,0.057718053,-0.050701153,-0.014466588,-0.0028816834,0.061664272,-0.08332295,-0.18347538,-0.04237862,-0.14614467,0.1075152,-0.17309141,-0.33491483,-0.1265874,-0.063915215,-0.04607318,0.01087244,-0.038109787,0.044247717,-0.011706144,-0.22434756,-0.104112245,-0.30847818,0.043192603,0.011258769,0.106342256,0.020892937,0.20121874,0.10954169,-0.06849271,0.03885327,-0.0688768,-0.021871703,-0.051441338,-0.07040381,-0.04979716,-0.029210595,-0.113351494,0.012324442,0.105597265,-0.10974321,-0.18713902,-0.0074661844,0.0784918,0.0045072692,-0.08895014,-0.057333086,0.028280912,-0.039701648,-0.03236509,0.03505092,-0.090392485,0.02560883,-0.059775013,-0.05175112,0.06907019,-0.0785008,-0.069882214,0.012110865,-0.07935051,-0.2220344,-0.16969259,-0.1078867,0.044094414,-0.002939459,-0.054111768,0.20362768,-0.26261166,-0.073584676,0.09962477,0.05089072,0.08734259,-0.019682221,-0.0130438935,-0.00497918,-0.12472409,-0.10936722,-0.061533272,0.07882983,-0.058231387,-0.12445552,-0.36388642,0.030094301,0.06624344,-0.04342988,-0.22360627,-0.05639893,-0.107003495,0.011286668
0.049251035,0.049137164,-0.010471108,-0.3136391,-0.15405081,0.016822327,-0.09993715,-0.18187116,0.2352379,0.11265051,-0.055762604,-0.040922087,-0.3709266,-0.18071976,-0.08684835,0.39010456,-0.16467065,-0.34357825,0.16464244,-0.087891854,-0.20721382,-0.2565644,-0.3792985,0.13103724,-0.12936585,-0.63017136,-0.6106609,-0.13582213,0.028387908,-0.25167105,-0.3071147,0.004218897,0.120265774,-0.46045578,-0.021203263,-0.04292961,-0.013611931,0.10464034,0.06041503,-0.3172376,-0.023540359,-0.08289456,-0.10961545,-0.105599195,0.29463398,-0.22872129,-0.20359555,0.19714262,-0.07095879,0.0072661117,-0.21057865,0.081474,-0.29521167,0.028914033,-0.04649717,-0.34945768,-0.1607125,0.10109207,-0.0791569,-0.053586327,-0.081845455,0.017581621,-0.085589506,0.05744871,-0.04600512,-0.11781892,-0.113861814,0.0850999,-0.06090459,-0.01112908,0.072256014,-0.055658758,0.34211478,-0.1666855,0.088340275,-0.28589007,-0.43143588,0.08870939,-0.19549882,-0.5316912,0.26009962,-0.013952705,-0.03685736,-0.20477535,-0.03232202,-0.096017085,0.24504803,-0.02358756,-0.117878154,-0.07953637,-0.2750077,-0.0032047415,0.23111461,-0.16039723,-0.006957255,-0.27481475,0.047899637,-0.2710418,0.19157791,-0.0019849252,0.11679306,-0.17308457,-0.060134005,0.03966617,-0.23594569,-0.08892466,-0.5352435,-0.527251,0.0039541996,-0.32298428,-0.17494932,0.13421305,-0.21668896,-0.26709715,-0.042367093,0.04377711,0.19555114,-0.20250382,0.019478641,-0.18674064,-0.27342877,-0.047972754,-0.55020326,0.05852198,0.21136646,0.00197835,-0.042866442,-0.39071524
-0.1608845,-0.21474886,-0.13756463,0.22515818,-0.015721798,-0.17535913,-0.03846548,0.06210019,-0.31666735,0.09141439,0.07435035,-0.19445094,0.122892156,-0.105964296,0.10382436,0.17513746,-0.3065284,0.08755041,0.09892662,-0.168802,-0.07451424,-0.08512127,-0.342894,-0.07547091,0.03370233,0.23482485,-0.31096447,0.04607906,0.26137456,0.10586393,-0.13319904,-0.0026913562,-0.06513932,-0.15103252,-0.123830155,-0.1270642,-0.28149417,0.099634856,-0.06267497,0.17326373,-0.072194576,0.108832896,-0.040745422,-0.14289011,0.04322157,-0.13052426,0.13836944,-0.08743996,0.14136024,-0.049086083,0.057884365,-0.08443505,-0.18987477,0.032086473,-0.009481245,0.045143012,-0.18201269,0.14261496,-0.29534313,-0.049740616,0.07203262,0.035926644,0.0047424478,-0.10130806,-0.13186195,-0.009277505,0.07136719,0.012500044,0.05449616,-0.035824485,-0.08194151,-0.043959334,-0.09869439,-0.3086577,0.028668303,0.18493566,-0.11502343,-0.03693291,-0.089677185,0.12183173,-0.08498194,-0.19801266,-0.1984725,0.05471837,0.024429396,0.0038788435,-0.10012089,-0.19985881,-0.05718891,-0.16700664,0.09415784,-0.118865,0.03525962,-0.41661653,-0.06980793,0.005908629,-0.11371779,-0.11812275,-0.088207096,-0.38120833,0.05167701,-0.22075668,-0.07152253,-0.29480976,-0.078577206,0.114087544,0.24162216,0.18837066,-0.003449534,-0.14761837,0.07345239,0.15855618,0.13989672,0.0120075075,-0.0040455996,-0.2833315,0.022233576,0.090742365,0.028117973,0.037364002,0.24090242,-0.024304666,-0.2646769,0.01891287,0.16955318,-0.25955325,0.11843368,-0.17469499
0.0053993408,-0.15795672,-0.07981144,0.12756836,-0.05337801,-0.28222921,-0.017424023,0.31938767,0.018794069,0.37515268,0.153142,-0.22201617,-0.28914744,0.09055504,-0.04664446,-0.03405174,-0.09355461,-0.54252553,0.30241033,-0.22183678,-0.40585995,-0.2641491,-0.46307918,-0.1884005,-0.33082104,0.14065091,-0.11503597,0.03586822,0.07303825,-0.3835705,-0.1955033,-0.025094345,-0.024150027,0.01696266,-0.8232653,0.030266311,-0.19176787,-0.11782655,-0.07079634,-0.0772837,0.0635017,-0.09222909,-0.3658798,0.06389893,-0.07628843,-0.29276532,-0.2708079,0.09477865,0.5202613,-0.036114294,-0.0811123,-0.23882516,-0.18017027,-0.0032407893,-0.06161965,0.29272768,-0.041074295,-0.13484599,0.02854766,-0.023390433,-0.23284352,0.18518224,-0.19372223,-0.028114868,-0.101488434,-0.068553515,-0.14105183,-0.17362538,0.06590756,0.040861864,-0.20982514,0.1227523,0.037404638,-0.12517011,0.08929585,0.06019185,-0.029336123,-0.17354174,0.13617392,-0.20145376,-0.35880244,0.08893157,0.032541677,0.14360246,-0.13756388,-0.39248306,0.05834404,-0.35872066,0.028325088,0.3728801,-0.056738388,0.25233287,0.025509823,-0.21105483,-0.025450304,-0.104667,-0.06959994,0.0786681,-0.1639019,0.11021784,-0.049838223,0.024222724,-0.19773968,-0.09961062,-0.04895516,-0.05697585,-0.041937213,-0.63470787,0.041151963,-0.16880599,-0.0034385389,-0.044961866,0.23182882,0.028292323,0.2551505,-0.3215228,-0.3649898,0.110888936,0.072434984,0.05144021,-0.32357126,0.028319787,0.042479333,-0.3329674,0.036525656,0.019755362,-0.2461637,-0.0715006
-0.06910221,0.03738156,-0.1082712,0.03165687,0.034938797,0.00872586,-0.03948075,-0.03524416,0.014101045,0.06626919,-0.093148574,-0.089326724,0.045483846,0.0019085266,0.033201415,-0.055584062,0.0037852915,-0.0912951,-0.031013733,-0.065731496,-0.060291875,-0.072199665,-0.09660876,-0.014202798,-0.0742595,-0.07892,-0.08522408,-0.025049299,-0.019172551,-0.072027266,0.037072893,-0.10416505,0.031045778,-0.11291892,-0.050328888,-0.050299883,0.042411193,-0.06779054,-0.095848605,-0.06111725,-0.10577138,-0.030407172,-0.016910853,0.029027376,-0.023510795,-0.008491655,-0.009668003,0.042243697,0.030518888,0.03118048,0.04065932,-0.042282663,0.078678526,-0.023150519,0.022813072,-0.07804453,0.05843425,-0.037650745,-0.08122392,-0.040926244,-0.016982403,-0.052307326,-0.01874561,-0.073083065,0.037870247,-0.04124636,-0.012094277,-0.015296791,0.022512209,-0.13089965,-0.053565774,-0.12011828,-0.091114365,0.07673571,0.09122249,-0.07247792,-0.08915869,0.032390412,0.055594232,0.044861622,0.06972433,-0.086681746,-0.06866474,0.040086016,-0.12541659,-0.05739264,-0.09776607,-0.12376839,-0.013458266,-0.037747595,-0.11708557,-0.087001294,0.07682238,0.04707692,0.008992225,0.03323287,-0.081961915,-0.04402869,-0.01958464,-0.016528463,-0.058524463,0.010415318,-0.09354927,-0.031750623,0.020897062,-0.08780626,-0.00528096,0.028829122,-0.0721438,-0.035162583,-0.002598466,-0.041291486,0.040203076,-0.013961086,0.07184459,-0.040917106,-0.011688466,0.010922236,-0.08303329,-0.071791545,0.0318276,-0.08079672,-0.05112963,-0.03661854,-0.06976485,0.010472379,-0.010186849,-0.087796815
0.027539741,0.08982842,0.03238646,-0.0019315755,-0.06621204,-0.051379647,-0.00032882034,-0.14796129,0.005617902,-0.074502856,-0.2770464,-0.05547485,-0.3315865,-0.08427409,-0.01840477,0.026268281,0.09381905,-0.057534914,0.034872778,-0.06864938,0.14065783,-0.038140453,-0.07117799,-0.043269943,0.07545778,0.17456976,-0.047304057,0.023208924,-0.16705932,-0.091045156,0.087198354,0.06082711,-0.03953447,-0.14978436,-0.041089393,-0.19299376,0.060045343,-0.05871237,0.077121146,-0.09963268,-0.13280526,0.027504154,-0.08164916,0.12643814,0.040204663,-0.10127028,0.02365485,-0.32049578,0.08314781,0.18584651,0.32296273,-0.08094604,-0.041784875,-0.0022962014,-0.22958763,0.10263211,-0.006160821,0.10743195,-0.051236805,-0.024726713,-0.10489283,0.050822712,-0.27468544,-0.07444557,-0.052927118,-0.16065976,-0.029090216,-0.10215383,-0.0008338865,-0.20234428,0.045710728,-0.12250328,0.0036032335,0.26786396,-0.18482833,-0.18768442,-0.0613961,-0.16840015,-0.022458266,-0.099131145,-0.13529246,-0.0005728164,-0.26593307,0.018374695,0.14931232,-0.08682247,0.0759066,-0.078736074,-0.08625202,-0.08100281,-0.22783346,0.06969012,-0.07530743,0.03064386,-0.07218212,-0.047479335,-0.085835636,-0.12248129,-0.26179624,-0.09212921,-0.0274673,-0.065122604,-0.22801355,-0.041817162,-0.04154962,0.12972258,0.08619068,0.13272902,-0.0894332,-0.13944411,-0.18715334,-0.031558983,0.22838882,-0.23805444,-0.1373911,0.210519,0.13476016,-0.12863134,0.23642248,-0.16364464,0.0004596211,-0.07468999,-0.14323293,-0.060592994,-0.15764514,-0.077473715,-0.264367,0.066170216
0.16899738,-0.0075548133,-0.0057236482,0.09839644,0.08716612,-0.23184325,-0.019949876,0.013467278,-0.0064260517,0.04670244,-0.06773925,0.09874316,-0.39988756,-0.10611086,0.049006015,0.06777678,-0.26205096,-0.06698543,-0.32053098,-0.14690161,0.15809928,-0.1548865,0.012945962,0.044016477,-0.35673666,-0.004976206,-0.51265866,-0.04519972,-0.22374758,-0.100644164,0.21738154,0.15131357,-0.0846928,-0.11971068,0.047690332,0.15778415,0.056848723,-0.103048764,0.19233008,0.015504355,0.084713355,0.17489457,-0.18467464,-0.35397178,-0.07685043,-0.22899552,0.14613226,-0.4253357,-0.053016223,0.042064976,-0.31092623,-0.003556525,-0.14959686,-0.0148792295,-0.22742805,0.043856658,-0.18701209,-0.1653535,-0.0019841697,-0.08927372,0.068258494,-0.056239303,0.026361287,-0.11286199,-0.09929061,-0.063831285,-0.10114254,0.12681805,0.069197215,0.072889976,-0.032736663,-0.56707895,-0.27563962,0.0614244,-0.35452554,-0.030841738,-0.35595262,-0.29069826,-0.22614121,0.17310455,0.14650907,-0.17432356,-0.331013,-0.12485281,-0.0842759,-0.19450085,0.029191304,-0.137856,-0.04103194,-0.039205175,-0.09162761,0.015760534,-0.0014558709,0.08930012,-0.1365787,-0.048473693,-0.08886791,-0.3082975,0.08981291,-0.0011963481,-0.03424168,0.016503545,-0.05969929,-0.13408114,-0.14121446,-0.018265933,-0.14823358,0.22297089,0.11489355,-0.2976685,-0.085878216,0.06378453,0.11509807,-0.2003688,-0.05159734,-0.084621355,-0.24157278,-0.20275939,-0.47242385,0.10615418,-0.14908107,0.04291582,0.0907486,0.09041518,-0.11361016,0.28951344,-0.007884352,0.05689457
-0.16249558,0.08504644,0.16928743,0.1349799,0.017022014,-0.15143894,0.12881081,0.11751251,0.13637011,-0.21225862,0.13245396,-0.1395503,-0.23896448,0.11556105,-0.086295776,-0.013415019,-0.029063448,0.050316826,0.01648868,0.05927346,0.07408035,0.02286063,-0.06269415,0.06826814,0.05917734,0.055460185,-0.09726369,0.103644334,-0.120273694,-0.079120085,0.06270635,-0.116788715,0.036464565,-0.027180154,-0.09131081,-0.112685114,-0.18554842,-0.2051279,-0.25289375,0.10232234,0.115642846,-0.2443495,0.18790846,0.0504237,-0.06356301,0.12300295,0.05946463,0.023267526,-0.19011757,-0.056094524,-0.15945037,-0.28819388,-0.036722895,0.12031662,0.03450022,-0.07419463,0.053015836,0.057743657,-0.0851647,-0.026586886,-0.023951586,-0.18985268,-0.1285969,0.06156977,-0.119073756,-0.06768914,0.015070566,-0.008405804,0.14780176,-0.15950382,-0.108983554,0.04579675,-0.04746216,0.11129265,-0.2289858,0.065547794,0.05302672,-0.22527798,-0.13767499,0.03188939,0.11440338,0.14817964,0.200981,-0.10464026,-0.059793893,-0.028751964,-0.07934973,0.044948995,-0.10447032,-0.38075516,-0.015818203,0.08803754,-0.06101805,-0.012790869,-0.024687959,-0.09696397,-0.092137314,-0.09272391,-0.273173,-0.23003457,-0.0031121522,-0.108109385,-0.024258919,-0.30670255,0.044108253,0.10237567,-0.015569216,-0.13233355,-0.16452144,-0.2036089,-0.0237833,-0.14396432,-0.28815678,0.07459563,-0.06867591,0.099569276,-0.3882174,-0.033780556,-0.18560946,0.06854671,0.18788259,0.076198384,-0.07475762,-0.010216379,-0.031587347,0.15820119,0.09773384,-0.15670907
-0.0013551769,-0.21975479,-0.028750302,-0.08041247,0.0069086156,-0.08083196,-0.050520424,0.1294179,-0.3771824,-0.115191825,0.10643041,-0.1884743,-0.29766026,0.23069595,0.10614453,-0.102896124,-0.22600551,-0.2631746,-0.122070715,-0.050277747,0.06918538,0.034468647,-0.33505785,-0.5899968,-0.30870295,-0.18620409,0.095085524,-0.21907233,-0.10479608,-0.10478896,-0.106363446,-0.290306,0.1971361,0.04602502,-0.20575187,-0.22861238,-0.11204306,-0.013649227,0.22429432,-0.28618565,0.017429695,0.14148459,0.061553385,-0.14851297,-0.17380013,-0.27842402,-0.21705991,-0.050570793,0.059576385,0.0061665834,0.14649728,0.025367176,-0.34868002,-0.15762253,-0.19442758,-0.5438271,0.09801906,-0.24224614,0.07402779,-0.24376795,-0.07718336,0.10775704,-0.06209838,0.13288608,0.016065568,-0.21047166,-0.26086497,-0.06350103,0.07694126,-0.17105335,-0.07176585,0.05119609,-0.34096634,-0.1918117,-0.003474315,0.095698826,-0.19184645,-0.05345813,-0.031315915,0.13128975,-0.36716086,0.16956906,0.005531624,0.114879765,-0.3992066,-0.19478925,-0.10955467,-0.12353471,-0.034250297,-0.11391314,0.19487809,0.067619026,-0.18426341,-0.13363874,-0.15162851,-0.20915478,0.039351165,-0.41440457,0.13043231,-0.29137808,-0.19065905,-0.0030319034,-0.050370645,0.11024884,0.023952244,-0.37658992,-0.07368032,0.00011192973,-0.12956212,-0.2054475,0.20604338,-0.22125855,-0.3643405,-0.021678533,0.089177445,-0.13687378,-0.124482825,-0.18799607,0.19633031,-0.20283891,-0.21451479,0.18281674,-0.12221794,0.05423489,-0.120437786,-0.45404452,0.14077486,-0.22148946
-0.04809511,-0.05588986,-0.34165248,-0.120306864,-0.27932602,0.27326724,-0.013017031,-0.02519663,0.030195864,0.03638088,-0.116782114,0.16344066,-0.039196074,-0.093240805,-0.20994343,0.11839637,-0.035659894,-0.13021058,-0.16996658,-0.2467336,-0.22729816,0.13282347,-0.25776792,-0.14831471,-0.08331606,-0.24915236,-0.16033126,-0.095982134,0.14816506,-0.015251223,0.03752097,-0.077187866,0.10154606,-0.25489876,-0.39736408,0.32542652,0.08527843,-0.07284696,-0.31291744,0.16870993,0.03983812,-0.0119078355,-0.19690321,-0.268554,-0.107843,-0.18559508,-0.22811235,-0.17760515,0.076707214,-0.1402948,-0.022244817,-0.017998012,-0.1748397,-0.044648845,-0.2140574,-0.1569896,0.043482065,0.098449804,-0.0161432,-0.24841878,-0.20436452,0.097651854,-0.31491804,0.017243205,0.0010187228,-0.081770256,-0.25416023,-0.1181512,-0.084247634,0.00015768882,-0.022820044,-0.13632502,0.12812443,-0.29681736,-0.12685794,0.006012826,-0.21689086,0.11429842,-0.33322585,-0.09218978,-0.03508072,-0.5213859,0.2560841,-0.29094273,-0.26650026,-0.06853622,-0.41395685,-0.29965848,0.046601273,-0.030267417,0.06864896,0.060988247,-0.036288884,-0.20343933,0.09173124,0.009833837,-0.09518412,-0.11034067,-0.07702455,-0.23321177,0.18049848,-0.036107674,-0.122082904,-0.26349673,0.020207278,-0.03713028,-0.20058742,0.0045954026,-0.1735693,-0.1505851,-0.17709503,-0.08221003,0.071966216,0.0011951213,-0.1313573,-0.24001949,-0.012349651,-0.20586044,0.09271874,-0.08478377,-0.24432509,0.11516483,-0.06268419,-0.114763625,-0.31756365,-0.33071685,0.16395159,-0.17650536
-0.1202384,0.018504685,-0.32330617,0.17711565,-0.18468101,0.107831225,0.01352591,0.014338424,0.15357761,0.21172968,0.23024462,-0.059184663,0.008972203,-0.0816166,-0.28848365,0.009970964,-0.1361003,-0.12200484,0.08426357,-0.16313602,-0.0130780395,-0.2906667,-0.2044711,-0.15092832,0.22594409,-0.13639407,-0.18056121,-0.44181803,-0.28011528,-0.06073764,-0.122877546,-0.0654607,-0.107066415,0.1834047,-0.028090976,-0.076051645,-0.1195209,0.00402354,0.1364567,0.057350293,0.03450344,0.18541747,0.10270796,-0.07212646,0.053893752,0.088357024,0.007968405,0.12315737,-0.007701344,-0.13461524,0.009737663,-0.10278759,0.14997537,0.1110982,-0.111054316,-0.09927779,-0.037858006,-0.24271631,-0.07546549,-0.0891343,-0.05421021,-0.119100735,-0.113359675,-0.08470231,-0.27494347,-0.14695147,0.04439581,-0.361566,0.080804706,-0.18575394,0.08286323,-0.12400089,-0.15480223,-0.037142944,-0.32495832,-0.025580578,0.017206479,-0.25068894,-0.29602358,0.105024636,-0.034059215,-0.1749535,0.08092614,0.053475145,0.057096343,0.064221844,-0.16556892,-0.05802111,0.10778512,-0.034257103,0.0017524043,-0.01673408,-0.193065,0.056959838,-0.11339023,-0.03888499,-0.14825544,-0.018047102,0.07966101,-0.24501322,-0.06433721,-0.09285721,0.006412371,-0.21142331,-0.0058727465,0.009777888,-0.048341658,-0.5018927,0.24523646,-0.29475647,-0.022724506,-0.25526837,0.06529199,-0.037567288,0.006267197,-0.054970216,-0.08088762,0.0712725,-0.26924628,0.09334865,0.035578374,-0.26773122,-0.10933958,0.06838382,0.008517104,-0.0418357,-0.01797658,0.13611269
-0.051602025,-0.14578241,-0.025331417,-0.03866231,-0.04614587,-0.018704167,-0.12319328,0.020125197,-0.15343541,0.13640921,-0.095547825,-0.037636533,-0.07080029,-0.24106699,-0.08412299,-0.01539668,-0.08731114,0.002541653,-0.052644964,-0.07167441,0.1449088,-0.116565056,-0.13076489,0.02724001,-0.0775999,-0.059579663,0.048485383,-0.1641099,0.040358618,-0.07552695,-0.073673,-0.06807301,-0.12738726,-0.08183273,0.015295251,-0.033541374,-0.049413286,0.027624587,-0.20830533,0.04739247,0.06732151,0.02068205,0.036486886,0.059035446,0.037154615,0.12472711,-0.07004879,0.06249877,-0.09616995,-0.08039178,-0.0648131,-0.013487643,-0.050201684,-0.027371012,-0.050533768,0.020245964,-0.075980134,0.025279844,-0.15585881,0.012543004,-0.038623005,-0.05398543,-0.0007778086,0.028701648,0.025199601,-0.025613584,-0.04502911,-0.058259875,-0.14139219,-0.054555845,-0.0025793149,-0.120435655,-0.051410813,0.01130107,0.07837383,-0.035481457,-0.03196079,-0.20653096,-0.015702859,-0.07610536,-0.014366531,-0.23736292,-0.045626894,0.009068172,0.066927075,-0.063595414,-0.0028617624,-0.14275569,-0.051481806,0.07357567,-0.020073162,-0.049098972,0.02524599,0.045930397,0.00034055687,-0.06320925,-0.063585244,-0.08725526,0.062114593,-0.06543631,-0.06904508,-0.08754238,-0.10478508,-0.13042454,-0.06832955,-0.063195206,-0.11555705,-0.08734195,0.035567783,-0.26737988,-0.0089025395,0.07309422,0.034305718,-0.1659653,0.0814855,0.04191473,-0.22225945,-0.017634535,-0.15132864,0.06318567,0.035155673,0.08879385,-0.09802534,-0.012439555,-0.10211972,0.053269688,-0.03391688,0.0042253425
-0.10289785,-0.13648677,-0.19754742,-0.3122267,0.061959043,-0.27028838,0.07722892,-0.82905734,0.05968839,-0.08957207,-0.035600353,-0.069673166,-0.076151565,0.06606817,-0.5779712,-0.22334799,0.28583443,0.18104234,-0.487595,-0.025696719,0.010779862,0.042073645,-0.13476531,0.37506357,-0.6005961,0.07294316,-0.3437211,-0.5296401,0.23454113,-0.086173326,-0.14169815,-0.27621388,-0.11008213,-0.07176891,-0.124291666,0.061341364,0.09111409,0.13116652,-0.21904665,-0.13068767,0.09060514,0.0717957,-0.2805138,0.11717716,-0.0072239963,-0.21260597,-0.13699844,0.015505492,-0.18497968,-0.06445204,0.13080116,0.05926503,0.31567153,0.015448985,0.0942044,-0.38731065,-0.20194156,0.035701394,-0.2779558,-0.2261064,-0.24289232,-0.6689773,0.06730489,-0.14262517,-0.10007494,-0.40600097,-0.2696223,-0.37021786,0.013268231,0.07137984,-0.22012633,-0.14829217,-0.3980283,-0.2698194,-0.37120512,0.057287548,0.19711202,-0.047921456,-0.041756574,-0.42926645,0.040361263,-0.19433889,0.014695513,-0.30053964,-0.24580027,0.091086365,-0.2366777,0.15560114,-0.118334174,0.11743536,-0.2695077,-0.19334339,-0.17708272,-0.36819512,-0.13707174,-0.35403332,0.014720535,0.028532937,-0.09940326,0.007897632,0.2121172,-0.37642935,0.009436601,0.019718276,0.08364132,0.09917917,-0.080207005,0.05545216,-0.14755997,0.1047649,0.06589145,-0.257944,-0.6164039,0.06550572,-0.0115610985,-0.0022236954,0.07951745,-0.32370633,-0.050332714,0.17740887,0.13441283,-0.5027491,-0.0268359,0.1794703,0.09051596,-0.75753087,0.068948485,0.2873924
0.05257259,-0.017596457,-0.09232477,0.17620713,-0.06603981,-0.21542993,0.03621364,-0.07737326,-0.11620576,0.0076338765,0.2144425,-0.24318486,0.05532761,0.072015986,0.0050405203,-0.104984485,-0.62179095,-0.2673534,0.13484707,-0.5391499,-0.08975743,0.12759586,-0.089238666,-0.099910185,-0.4233567,-0.099755,-0.18316598,0.33612826,-0.35007903,0.010113978,-0.51159054,-0.040730543,0.024943432,-0.1069911,-0.4830798,0.026745992,-0.27434027,-0.07590254,0.047529344,0.06466308,0.043441057,-0.008646613,0.032101337,-0.11659329,0.013841909,-0.09784221,-0.03319503,-0.02438871,-0.20897762,-0.07688565,-0.35934,-0.4046919,-0.17877439,0.009124554,-0.015850008,-0.21377312,-0.10328085,-0.022891251,0.12003448,-0.13386293,-0.16224454,0.05270246,0.021161642,-0.052153774,-0.08998575,0.063945845,-0.017247528,-0.10648454,0.035799265,-0.2565233,-0.38495287,-0.099585235,-0.041233756,-0.029073011,-0.26781806,0.13886924,-0.057822652,-0.11486065,-0.07946114,-0.025037881,-0.34929386,0.11752966,-0.29657537,-0.36120018,0.07119328,-0.13280661,-0.21030562,-0.022807738,0.020042438,0.028664537,-0.18868865,0.068216614,-0.059506174,-0.009138396,-0.28462392,0.013924172,-0.025781706,-0.0139809,0.16655542,-0.04569587,0.16310506,-0.0865468,-0.23801103,-0.13986227,0.19517548,0.031389717,-0.15215814,0.0011277017,-0.11013695,-0.12087437,0.0063040913,-0.3303462,0.30942088,0.14931493,0.04536626,0.11185787,-0.20986477,-0.09863054,0.10829178,0.022975273,-0.07061804,-0.13538873,0.06591289,-0.19323261,0.010514861,-0.19150276,0.266658,-0.029524658
-0.015762785,0.14460863,0.023412341,-0.1613567,-0.117329314,0.14760982,-0.04954081,-0.11617035,-0.014137993,0.07246219,-0.26830894,0.087414145,0.088846244,-0.1889228,0.0952443,-0.001970165,-0.1035856,-0.10703169,-0.2082841,-0.13136306,0.03190042,-0.1513619,0.13001962,-0.23343496,0.022407737,-0.2569855,0.0062503153,0.34855863,-0.12324028,0.005881581,0.14303398,0.050655942,-0.012543894,0.11266814,-0.016317628,-0.22903419,0.07264587,-0.20100453,-0.08696809,-0.002443471,-0.21092547,0.12845197,-0.40712816,-0.07160927,-0.0444351,-0.11162094,0.007842743,0.029339874,0.10348652,-0.3946195,-0.18096387,-0.08980191,-0.08461526,-0.09442832,0.014623277,0.026805881,0.28201517,0.01113101,-0.034353625,0.0051769875,0.021178726,0.0687264,-0.11091221,-0.039748188,-0.1469532,-0.03266579,0.2886927,-0.01611597,-0.22156717,-0.03094504,0.062737785,0.023987811,-0.102507174,0.15337719,0.025691919,0.11414965,0.14969487,-0.21167105,0.10958271,0.13870415,0.2255787,0.06813622,-0.085760914,0.03337553,0.034768444,0.14753574,-0.10581413,-0.39473227,-0.08881765,-0.1279391,-0.22009215,0.07504159,-0.015715009,0.16248836,-0.12821846,-0.10911248,-0.24537198,0.021573197,0.16668487,-0.23818311,-0.05743664,0.04551768,-0.23131385,-0.19382326,-0.26856995,-0.18034904,-0.042528342,-0.45042807,-0.16906108,-0.0552445,-0.005581611,-0.00075780204,0.14532374,0.06765392,-0.12427919,0.27323467,-0.035549015,0.16458845,0.2931292,-0.009835096,0.00095034175,0.10688554,-0.32145828,0.022674216,0.07663242,-0.20966634,-0.0020055862,0.08037337
0.011784734,-0.103673965,-0.16371126,0.21133848,0.048501045,0.01665741,0.020365916,0.047765095,-0.0011125562,0.13185182,-0.011681921,0.16486849,-0.049258057,-0.16399886,0.14797509,0.03598851,-0.04436408,-0.5318925,0.28140855,-0.1337264,-0.0192459,-0.28368106,-0.51728356,-0.02860369,-0.25566283,-0.1965186,0.14613725,0.1302837,0.006002279,-0.0257257,-0.18892893,-0.105923295,0.002854654,0.04421844,-0.4585646,0.011909106,0.022485811,0.047922634,0.086115904,0.049350314,0.083322965,0.019618941,0.011704835,-0.034404557,0.27421114,-0.12996848,0.005640466,0.20886274,0.4044512,0.024677895,-0.2228277,-0.14414926,-0.38098246,-0.032038357,-0.18878175,0.29932857,-0.19987318,0.35345033,0.0007764568,-0.051754434,-0.21736608,0.14954266,-0.49969724,0.024694784,-0.2269186,0.03368678,-0.10717116,0.12326391,-0.017704787,-0.021083606,-0.17143415,0.28146142,0.23055212,-0.012964511,-0.039786577,0.01985328,0.043747257,0.05856971,0.16740641,-0.05767831,0.09055298,0.009424575,0.023533069,-0.16049097,0.08267135,-0.22289054,0.31808582,-0.035511937,-0.062338836,0.14434157,-0.28653222,0.06178943,-0.4680517,-0.34942627,0.042241506,0.049394403,-0.023623697,-0.09140999,-0.09751156,0.031269193,0.06769501,0.069559276,-0.22067627,-0.17622504,-0.044472538,-0.09444267,0.031404857,-0.16659774,-0.047518615,0.066797145,0.11510025,0.19978338,0.14104263,0.07421874,0.059565138,-0.26216787,-0.21640073,-0.07100348,0.10956316,0.016282445,-0.48178557,-0.08974171,0.0675369,-0.13037622,0.09124111,0.045226667,0.020588722,0.0043734596
0.054425098,0.01624206,-0.11698323,-0.03465906,0.04282733,-0.108317144,-0.0993944,0.040451404,0.030925522,-0.070371926,-0.048699882,-0.07987359,-0.08933893,0.002349832,0.048357856,-0.006796364,0.032799337,-0.059117638,-0.052826285,-0.10260028,-0.062308677,0.05128772,-0.0059837834,-0.027024912,-0.045041792,0.06635204,-0.054131147,-0.04403009,0.027908389,0.040349178,-0.059018496,-0.05108315,0.013049852,0.063251734,0.01377097,-0.08987746,0.035403755,0.02873937,-0.054380875,0.020995513,0.015197346,-0.013607707,0.027972663,-0.059426587,-0.048102755,-0.078978695,-0.08589866,-0.03805459,-0.03519792,-0.04978812,-0.07275467,0.014936387,0.032936588,-0.0945783,-0.07272028,-0.05440456,-0.0019494573,0.031809848,0.039410554,0.018383069,0.011201327,0.049157,-0.08859769,-0.0531708,0.036023613,-0.042724237,-0.07807062,-0.06305675,-0.048933104,0.011798166,-0.04111564,-0.08461254,-0.04102069,-0.060299233,-0.041515205,0.013235699,0.012647382,0.029029464,-0.062429994,-0.074222915,0.044275254,-0.07763142,-0.06653945,-0.064700834,0.018680114,0.041883443,-0.008560673,-0.017201826,-0.028945094,-0.058929242,-0.04787308,0.065219864,-0.10348035,-0.022255,-0.08550831,-0.0116295945,-0.063037045,-0.0019453781,-0.003442302,0.024573859,0.032175027,-0.02060429,0.027247062,-0.09282147,-0.09500148,0.037045565,-0.022934457,-0.02166756,-0.04928515,-0.046452343,-0.027609395,-0.04256891,0.07456744,0.018752987,-0.069559395,0.045030892,-0.03777178,-0.06101882,0.014631556,-0.087757684,0.04309574,-0.07473084,-0.061364517,0.024040373,-0.008724763,-0.07795625,-0.018098649,0.018509284
0.06448429,-0.06350739,0.037623163,-0.027958132,-0.23594394,-0.10397373,0.0066939224,0.027536806,-0.008257163,-0.11942472,0.008933453,-0.0075663156,-0.047329895,-0.022163294,-0.044570748,-0.08233437,-0.09947018,-0.0080072135,-0.04968582,0.024618465,0.14830661,0.021681884,-0.024118023,0.020447308,0.3364347,0.018090371,0.021392168,-0.14478683,0.01105498,-0.1234514,-0.074377455,-0.014509429,0.10353253,-0.091011785,-0.18901044,0.16299899,-0.0464523,-0.056184415,0.048791148,-0.044110693,-4.5893892e-05,-0.12378277,-0.24720243,-0.10981503,-0.18494734,0.019177431,-0.039383058,0.035420697,-0.16290393,0.01106068,0.0973737,0.038190067,-0.22892034,-0.011049808,0.07809441,0.019184254,0.061457705,-0.2084543,0.011890932,-0.113056935,0.14214037,-0.07671088,0.027493434,0.040516738,0.21682301,0.10978651,0.01605748,-0.08726293,-0.007257413,0.15634376,-0.10061179,-0.16960727,-0.23820628,-0.0036361967,-0.034948513,-0.14968298,0.044812202,-0.095730454,-0.12549536,0.042897027,-0.037443705,0.050333973,-0.1148786,-0.22118609,0.0014146821,-0.10334472,-0.2297163,0.12935022,-0.017516483,-0.07944088,-0.03487557,0.10794834,0.13609385,0.10975548,-0.05480843,0.013192897,0.06276555,0.07970902,-0.07852909,-0.12952825,-0.0051939473,-0.124305144,-0.0026447335,0.026890218,0.11730097,-0.44779122,0.22983225,-0.10741477,0.15396991,0.12562248,0.012730318,-0.09826855,-0.028009512,-0.056862477,-0.010569771,0.007748058,-0.12210054,-0.19522934,-0.14109126,-0.03263466,-0.10565432,-0.0513591,-0.013025022,0.012767032,0.02233763,-0.23588681,0.19892058,0.0003205956
-0.059718594,-0.12487073,-0.29431945,-0.019638862,0.020331899,0.061283708,0.010779388,-0.21824008,-0.05189931,-0.29633465,0.10712725,0.29335317,-0.00939803,-0.03341484,-0.16965519,-0.2222965,0.00083543116,-0.016404204,-0.045135237,-0.16406208,-0.23121683,0.009396871,0.29140568,0.04440472,-0.23406005,0.1268485,-0.019566843,0.091207765,-0.063941054,0.054283388,-0.31545746,0.0015521796,-0.03891672,-0.04410706,-0.3037773,0.026985856,-0.27940056,-0.15946078,0.18361339,0.20768139,-0.10534853,0.17508209,0.1075168,-0.026467446,0.088455446,-0.4013526,-0.08607324,0.008926413,-0.19727555,-0.05386447,-0.18200642,-0.012531016,-0.041241154,0.02723425,0.12614135,-0.2739942,-0.177884,0.1584619,-0.01189015,-0.061516434,-0.06277917,0.12415662,-0.09496022,0.105105415,-0.14235453,0.016825475,0.16588905,-0.11705887,0.029165795,-0.05630819,-0.4247981,0.026389737,0.17973994,-0.1492018,-0.45794928,0.0916367,0.0638506,-0.23721568,-0.025459796,-0.30564955,-0.2627428,0.13734576,-0.11772294,0.03503246,0.13234632,0.15209852,-0.065316565,-0.04863906,-0.025703434,-0.09018255,-0.3039512,0.0070542376,0.02326093,-0.3511335,-0.023512097,-0.40481898,-0.03756055,0.22790731,-0.09705512,-0.33801368,-0.057663076,-0.1600118,-0.15232037,0.17653799,-0.0024058253,0.121823676,-0.10013774,-0.09286754,-0.13035873,-0.10974267,0.0045742253,0.25020292,-0.08981737,0.10386234,0.02236764,-0.33263615,-0.32645795,-0.018930333,0.053772748,0.08306849,0.03843525,-0.26644805,-0.36871552,-0.23825873,0.093311,-0.39386415,0.02942045,-0.12548801
0.0028795898,-0.15721343,0.037803873,-0.09366264,-0.10740858,-0.2564909,-0.15673156,-0.23342432,-0.029631848,-0.1403906,-0.44751075,0.022204997,-0.064964905,-0.16319408,-0.06367442,-0.099486075,-0.1304563,-0.043922123,-0.08946815,-0.26168895,-0.12330263,-0.13650593,-0.028369073,-0.28511983,-0.14668232,-0.005279159,-0.09215841,-0.38118327,-0.09073595,-0.2348088,-0.17761391,0.04987987,-0.18613227,0.06459123,0.026338968,-0.022957332,0.03160517,-0.097726315,-0.13486612,-0.16125767,0.049015872,-0.19844963,-0.25933853,-0.04725592,-0.051029254,-0.09977438,-0.19108836,-0.07654631,-0.10731395,-0.12566648,-0.20527972,-0.26276958,-0.10238946,-0.03155277,-0.044599954,-0.025828347,0.074324615,0.0559154,-0.169511,-0.22564757,-0.039854795,-0.22256,-0.17388098,0.097631074,-0.074034005,-0.13752241,-0.19459282,-0.2584109,0.000216386,-0.3357198,-0.09208808,-0.43987587,-0.2594216,-0.15111345,0.0011144169,0.047424696,0.10511031,-0.0036234348,-0.16793863,-0.08672602,-0.05386759,-0.028535718,0.43865228,-0.2819457,0.008549981,-0.3558426,-0.14431432,-0.5046113,0.045440722,-0.04541036,-0.22165914,0.04679154,-0.11435913,-0.15832125,0.15622513,-0.24759758,-0.043294385,0.043829653,-0.13487606,-0.15956809,-0.037473153,0.30432463,-0.08388405,-0.43878138,-0.041174408,-0.081439555,-0.81079674,-0.3431574,-0.15591495,-0.032894205,-0.08643197,0.050772913,0.010444748,-0.14623243,-0.314553,-0.10773253,0.062173054,-0.108649395,-0.08555618,0.15705077,0.029864041,-0.31911722,-0.15247548,0.0030931197,0.02645262,0.18971293,-0.09942001,-0.007083675
-0.0035780638,-0.08832996,0.0137613425,-0.034102872,-0.09350264,-0.024883727,-0.016570866,0.047543228,-0.06919852,-0.058834985,-0.033704665,-0.07251271,0.022130348,-0.0074844193,0.05092329,0.023365125,-0.013365473,0.056902636,-0.046431847,-0.06280555,-0.05586053,0.0073911953,-0.016554408,-0.082736135,-0.07542393,-0.015096831,-0.1280234,-0.046688214,0.019020015,-0.042009346,-0.05518404,-0.025625264,-0.03667722,0.0035870117,0.030411722,-0.097048305,-0.09242182,-0.09980067,-0.019641995,-0.07786856,0.033493854,0.01730791,-0.005715192,-0.007128126,0.020796474,-0.048573755,0.064634904,0.051438577,0.0063874153,-0.09700694,0.004924597,-0.079096444,-0.019727763,-0.11044263,0.018817017,0.029144105,-0.06302374,-0.054741357,-0.06324812,-0.061794784,-0.02442865,-0.011862397,-0.029141845,-0.108173825,-0.019633388,-0.002460406,-0.037592243,-0.018015105,-0.050628394,-0.018393781,0.051307328,0.082746185,-0.033374853,0.016933436,0.024331661,0.041441906,-0.088212065,0.032187305,-0.008282395,0.055815045,0.045654375,-0.07803637,0.027974745,0.010068063,-0.022904718,0.042638157,0.011485024,-0.030986898,0.010055677,-0.06455263,-0.07507889,-0.033345252,0.05955014,0.019873066,-0.052470557,-0.04640542,-0.14533874,-0.05025553,-0.04459967,-0.06702211,-0.07438442,-0.031334706,-0.0219569,0.03028836,-0.029190848,-0.054591395,-0.08674017,-0.03269647,-0.048083346,-0.027124071,-0.06923,-0.03013986,0.05574484,-0.04316619,-0.0749423,-0.01673506,0.036052417,-0.020885618,-0.079362825,-0.10223341,0.033047285,-0.10628726,-0.073857404,-0.05289286,-0.050589092,-0.07428616,0.045626707,-0.053246107
0.009795028,-0.001856048,0.14520103,-0.09262865,-0.37121472,-0.09204272,-0.096400745,-0.05210588,0.08866606,0.174446,-0.5915811,0.12799972,0.2241438,-0.19010837,-0.0042879432,-0.40202102,-0.0132310055,-0.21276075,0.26571575,-0.29903984,-0.030265901,-0.0622014,-0.12805247,-0.045023244,-0.36216563,-0.12219654,0.12010139,-0.23045886,0.13519652,0.06902816,-0.088292435,-0.42625192,0.025837792,-0.420627,-0.26459643,-0.088717,-0.25992095,-0.22134973,-0.28205228,0.017776761,-0.10400659,-0.24883829,-0.10738683,-0.04017393,0.03916826,-0.099712476,-0.24946399,-0.36787927,0.0004960755,-0.16952643,0.06973079,-0.14415056,-0.09577826,-0.010087581,-0.0048847655,-0.12699023,0.17715555,-0.021532381,-0.094520226,-0.06867661,-0.13204299,-0.12977394,-0.18175778,-0.014000703,0.030338038,-0.2406539,-0.34064248,-0.021723054,-0.21359731,-0.2976051,-0.16414274,0.17076054,-0.09894101,-0.19151692,-0.096649125,0.09841336,-0.5507791,0.035502344,-0.06551257,-0.0057852995,0.16792665,0.15372036,-0.25287995,-0.42166933,0.057364438,-0.27549124,-0.30229637,-0.19620958,0.09056306,0.0028529912,-0.0038069473,0.14311975,-0.540444,-0.1339702,0.0013233729,0.082671106,0.056462593,-0.12316695,-0.18130738,0.008154044,-0.020008938,-0.35064507,0.054496836,0.027910791,-0.049378205,-0.07423397,-0.028575554,-0.058648046,0.16565275,-0.22003809,-0.18759163,0.042543024,-0.29297307,0.098707475,-0.08204324,-0.14196509,0.070706,-0.33903953,0.07127139,-0.074945316,-0.2882086,-0.30038995,0.11418523,-0.24846466,0.13659854,-0.14205481,0.031168386,-0.16884151
