0,1,2,3,4,5,6,7,8,9,10,11,12,13,14,15,16,17,18,19,20,21,22,23,24,25,26,27,28,29,30,31,32,33,34,35,36,37,38,39,40,41,42,43,44,45,46,47,48,49,50,51,52,53,54,55,56,57,58,59,60,61,62,63,64,65,66,67,68,69,70,71,72,73,74,75,76,77,78,79,80,81,82,83,84,85,86,87,88,89,90,91,92,93,94,95,96,97,98,99,100,101,102,103,104,105,106,107,108,109,110,111,112,113,114,115,116,117,118,119,120,121,122,123,124,125,126,127,128,129,130,131,132,133,134,135,136,137,138,139,140,141,142,143,144,145,146,147,148,149,150,151,152,153,154,155,156,157,158,159
-0.03879005,0.028618513,0.019493207,0.059629552,0.03787634,0.12864734,0.019879306,0.004944074,0.13750722,-0.08059689,-0.03554144,-0.012739514,0.14331415,-0.26246446,-0.06450542,-0.18807964,-0.01757668,0.07954473,-0.15519775,-0.088555984,0.07822658,0.029473064,0.05892119,0.001818249,0.010080454,-0.0032963462,0.055813074,0.009993479,-0.050880596,0.12812662,-0.0002327713,-0.105060235,-0.04416689,-0.13265285,0.114439584,-0.07462454,0.11745144,-0.020894408,0.081360735,-0.09931541,-0.033577505,0.05803234,-0.043757834,-0.0025563003,-0.05959311,0.047536906,0.026738605,-0.0242909,0.09436199,-0.05588133,0.105653,0.016328631,-0.05525569,-0.04874099,-0.0071452986,-0.079200216,0.107419334,0.05210184,-0.008468976,0.09576169,0.025121855,0.02776809,-0.076991156,0.110006385,0.00091485394,-0.08631312,0.02255437,0.027974997,0.030162739,-0.05933777,0.006716863,0.06374384,0.007635909,0.12522082,0.005714174,-0.025890596,0.10166725,-0.0025185782,-0.11251949,0.032589614,0.06468662,-0.019154118,0.06673266,0.07838073,0.035401616,-0.03948947,-0.056650523,0.012680545,0.084268235,-0.056229394,0.26281703,0.006696609,0.06309572,-0.016762225,0.11480484,-0.0148139,-0.023894249,-0.057473883,-0.03739292,-0.022685107,0.046710677,-0.1089859,0.030679047,-0.029166317,0.07060684,0.038669582,0.12472751,0.14309089,0.015712872,0.06783221,-0.018043643,-0.213494,0.054171324,0.039227538,0.03150349,-0.014748589,-0.0663352,0.06697915,-0.028808463,-0.012492455,-0.068136886,0.047467846,0.0023080977,0.08755517,-0.0042211832,0.01668099,-0.07081778,0.07087398,-0.008543254,-0.015115688,0.027753642,-0.009859077,-0.04627017,0.094964646,-0.10498128,0.078068666,0.009662691,0.06852851,-0.10319373,0.0368973,0.51966834,0.10048099,-0.41738465,0.1462623,0.04800478,0.0073262155,-0.39308715,0.6309206,-0.24316896,-0.25017762,-0.46607158,0.13835178,-0.34793684,0.13983656,-0.32103616,-0.1902714,-0.43773404,-0.5949515,-0.06608298,0.25713104
0.24920525,-0.03468673,0.020874795,0.20717436,-0.202294,0.041807722,-0.0198162,-0.05109492,-0.035415728,0.2071194,0.05174386,-0.062834166,0.16932034,0.14195752,-0.21537185,0.2312311,0.18490218,-0.049357798,-0.123416245,-0.09402908,0.2303617,0.095757775,-0.10324631,-0.03955677,-0.047909025,-0.05431155,0.053044144,0.24314179,0.02274676,0.23029217,0.07178071,-0.36359045,-0.001521422,-0.09055187,-0.16002524,0.1370247,-0.16268715,-0.08873654,0.009662872,0.11957182,0.18447779,-0.20948376,0.11871877,0.16595685,-0.013749543,-0.071359955,0.12577875,-0.09723492,-0.00013405361,-0.06851562,0.036742,-0.11014819,0.13637154,-0.18793118,0.01623118,0.38249248,-0.06195627,-0.03557929,-0.08436892,-0.30274442,0.08006262,-0.0008701583,-0.04883231,0.29362863,-0.3038571,-0.0029191796,0.10339224,0.0683425,-0.031556852,-0.13790253,0.027508684,0.2089517,0.25731108,0.05184387,-0.18650807,-0.09038165,-0.19141431,0.0341072,0.16607969,0.020778723,-0.045604657,0.048360325,-0.1047033,0.03640819,0.11911274,0.18114242,0.1360464,-0.021083314,-0.036576267,-0.065351926,0.32873216,-0.03547321,-0.008751276,0.030264782,-0.08884442,0.25814798,0.070015736,0.1829181,0.049565013,-0.004415927,-0.15686984,0.10026436,-0.0023055759,0.14143236,0.13391615,0.16482385,-0.6192081,0.08922475,-0.09968111,-0.14546685,0.34871894,0.059577618,-0.041246977,0.06729874,0.055535376,-0.13736483,0.11152747,0.06304825,0.28024456,0.031118374,-0.082702085,-0.3242101,0.024107374,-0.074319094,-0.026450241,0.12833147,-0.12205791,0.16035773,-0.09208486,-0.033169415,-0.042633865,-0.3382539,0.10598722,-0.12513842,-0.1360572,-0.057552744,0.22502682,-0.01822992,-0.07882055,0.04336032,-0.65114534,0.2780498,0.14103112,0.47371083,-0.48488677,-0.13212797,-0.73500174,0.35254347,0.24630879,-0.26802635,0.1465964,0.17975515,0.48821437,-0.04102822,-0.19919853,0.1343564,-0.47529247,-0.52361345,0.6429527,-0.14197296
0.27032977,0.20893964,-0.10561475,8.89331e-05,0.2441997,0.0784961,-0.0418349,-0.098031305,0.27551204,0.16718638,0.11029568,0.13343304,0.18609263,0.3698543,0.33278388,-0.44883874,-0.3567548,0.04418169,0.035620123,0.22416614,-0.15624647,-0.05821742,0.040455274,0.26458195,-0.14670028,0.11904925,-0.3046514,-0.15448277,0.104824014,0.29112205,-0.06472504,-0.04617307,-0.09673838,0.06666878,-0.10648394,-0.115768515,0.21536455,-0.049366236,0.11631999,0.28406003,0.3325169,-0.2396857,-0.029620314,-0.09487239,-0.13602495,0.017432088,-0.29978594,-0.12418908,-0.35353366,-0.08182814,-0.3082128,0.02910217,0.01760177,0.080841124,0.05121841,0.17030996,-0.018224003,-0.07205729,0.04650823,0.07465652,0.025913361,0.20443608,-0.05338425,0.11449886,0.1400398,-0.04296508,0.035049554,-0.073446706,-0.039033048,-0.015327018,0.039927345,0.052453738,0.0022419295,0.03129816,-0.12599124,-0.049605526,-0.12940848,-0.06509515,-0.16129415,-0.11149628,0.09289202,0.27059188,0.057793435,-0.11415586,0.109869525,-0.16526294,0.0051428825,-0.11979106,-0.4842445,-0.06481559,-0.30303776,-0.22693962,-0.0002758866,-0.0035126118,0.17808643,0.06357631,0.010504498,0.04624745,-0.006681482,-0.014438574,0.07344889,-0.032581694,0.0141066415,0.08343059,0.08059272,0.17119868,0.015597174,0.07763668,-0.036104023,0.09335752,0.27629662,0.3242358,-0.07902435,-0.2591514,0.064739816,-0.118575,-0.0073967925,-0.07463884,0.09348028,0.027439684,0.22977535,-0.016121281,0.07720737,-0.102505505,0.029135952,0.23282705,0.04103935,-0.3036998,0.27700368,0.005545127,-0.1592081,-0.26385993,-0.031222176,-0.064026795,0.06320001,0.15613402,-0.009130835,0.02644406,0.14469698,-0.0016008719,0.4524271,0.082452394,0.14804749,-0.17782557,-0.29433063,-0.010231767,0.31037316,-0.87909204,0.05438272,-0.321878,0.24350592,0.012897982,0.19433436,-0.0059016757,-0.014709446,-0.10500738,-0.41532597,-0.31052935,0.48645887,-1.0359656
0.2977847,-0.39979336,0.004148666,0.13235988,0.026371164,0.089260645,-0.041536693,-0.04805668,-0.38403818,-0.01731152,0.049184598,-0.5025796,-0.28229785,-0.32842615,0.22326905,-0.029625414,-0.5522819,-0.36240992,-0.28874213,-0.06471415,0.12329317,-0.1167445,-0.16658352,0.19491003,-0.16997255,-0.3553276,0.15152545,0.18823148,-0.2649013,0.15771717,-0.36295682,-0.081224255,0.058564007,0.19993858,-0.30943948,-0.16119051,0.110952325,-0.062474754,0.17564905,-0.20276202,0.15436818,0.024573088,0.26342908,-0.15129456,0.028922949,-0.078230895,-0.10043542,-0.16878024,-0.59151685,0.15327233,0.060214363,0.31393588,0.063220575,-0.09065265,0.035682246,-0.381169,0.21742372,0.019518051,0.021803515,-0.11450812,0.026882289,-0.024963222,-0.06354002,0.044317003,-0.07988549,-0.21961854,-0.053594343,-0.10193101,0.102578074,0.15781716,-0.16528016,-0.13393797,0.3197199,-0.7248135,-0.6441698,-0.08110328,0.16431653,-0.19847696,0.026865758,-0.08917415,-0.22057901,-0.051367015,-0.10324212,-0.47272766,-0.17326269,-0.09166124,-0.11590814,-0.05977308,-0.10625366,-0.17192087,-0.00083600025,0.051536128,0.05892147,-0.025531953,-0.16195422,0.058995474,0.013819461,0.16131642,0.069968246,-0.07289554,-0.032297123,0.10103107,0.120289624,-0.29069826,0.005719882,0.27017492,0.027338928,0.04277833,-0.2281859,0.14273562,0.16907309,-0.27886918,-0.1893144,-0.43540302,-0.035723895,-0.26995152,0.02340877,0.08273449,0.18657365,-0.23279627,-0.047023,0.27314255,0.043924835,0.11798947,0.1020865,0.19414103,-0.30352226,0.19511154,-0.27106452,0.079811014,-0.039704934,-0.3537149,-0.09737243,-0.2798848,-0.33017796,-0.12882966,-0.112324044,-0.6881019,0.062142063,-0.119717695,-0.39461267,-0.18531556,-0.07427981,-0.58097297,-0.2751711,0.021742474,-0.4886519,0.811659,-0.9414525,0.13013059,-0.1038841,-0.21082805,0.11467512,-0.15995426,-0.20350344,-0.40671286,-0.027069742,-0.065923065,-0.5894974,0.5246978
0.20440117,-0.019791842,-0.018455844,-0.016149854,0.18766584,-0.22193742,-0.0060925,0.10542674,-0.11776958,0.1881342,0.03553892,0.06396834,0.3092549,-0.49668112,-0.4952159,0.1769354,0.121178366,0.014078774,-0.14402993,0.25157073,0.06575822,0.11721067,-0.23926607,-0.10781002,0.10208599,-0.30843595,-0.12721683,-0.02959241,0.057391845,-0.012039182,0.0049597486,0.35120788,0.05809961,0.0930894,-0.22435272,-0.08301799,0.3008038,-0.0339006,0.08785516,-0.104618065,0.08713561,-0.19313544,0.037535902,0.19553772,0.2529009,0.008359484,0.060700137,0.02020671,-0.064904466,0.053808752,0.04748395,0.31973922,-0.057351947,-0.14704195,-0.010981785,0.08802589,-0.37472475,-0.017361306,-0.047368277,-0.20164454,-0.12772092,-0.20021936,0.118268736,-0.019031595,0.07794051,-0.06225935,-0.006701609,0.11531347,-0.07207928,0.14591318,0.052470528,-0.25344035,-0.18079121,0.24159496,-0.08887369,0.05005815,-0.0014777121,-0.12807807,-0.51958245,0.10514303,0.056408904,0.26199237,-0.03556966,0.014059506,0.08958767,-0.027763177,0.02532029,-0.022442868,-0.12363272,0.056306016,-0.23846148,-0.035373203,0.064741276,0.094650246,-0.27349782,-0.13447991,0.05504894,-0.1887727,0.0441552,0.040964574,0.0663624,0.23736882,0.12949674,0.16578546,0.119129665,0.019468812,0.51060796,0.120318905,-0.075564615,-0.08311534,0.10659062,0.077484354,-0.11126878,-0.07732407,-0.024771439,-0.41722587,-0.03385762,0.062305477,-0.21323128,-0.10225598,0.065378636,-0.38013902,-0.4777143,-0.16196126,-0.06414663,0.070976034,-0.034587115,-0.10777494,-0.085786976,0.003942457,0.12365047,-0.037058987,0.072026625,-0.1482146,0.18997562,-0.20088844,-0.046948817,-0.28289914,-0.1606732,-0.009968423,-0.15193471,0.13664578,-0.5274057,0.18041623,-0.83335155,0.07863241,-0.22639975,0.8506888,-0.62139267,-0.15996425,-0.8374091,0.010133032,0.7856106,-0.05171603,0.59643567,-0.45196423,-0.17619786,-0.3309269,0.1378773,-0.4253289
-0.007856541,-0.0053612995,0.067406274,-0.07485351,0.09414981,-0.05711266,0.048433542,-0.07171911,0.1481617,-0.19953832,-0.053821005,-0.13279675,-0.22723666,-0.33043352,-0.341724,0.26492727,0.066408746,-0.08727809,0.33468226,0.10078749,0.02157436,-0.006137073,-0.018767029,-0.026227912,0.008551456,0.19428588,-0.010036721,0.006990048,0.08634347,-0.07526428,-0.008506376,-0.067078516,0.045596316,-0.014872383,-0.0039138044,-0.1864643,-8.0494494e-05,0.026171325,0.06544952,-0.3075708,-0.16523618,-0.08866776,-0.04629736,0.069708966,0.04796527,0.01090534,-0.064076096,0.11326376,0.14487776,-0.2859654,0.0121073015,-0.20591298,0.01448281,0.078455016,0.02756261,-0.0670793,0.02641828,-0.29784983,0.14686568,-0.108415246,0.010468308,0.022252304,-0.17065395,0.11907412,-0.13201313,0.0032371753,0.07427318,-0.06806187,-0.23005392,0.24509697,0.06955313,-0.06845258,0.14016335,0.10828029,-0.26676518,0.06214573,-0.12325625,-0.13385236,-0.12252192,-0.07494452,-0.036107834,-0.122562386,-0.031563476,0.12149123,-0.25029013,-0.01769788,0.1796492,-0.019547662,0.21483435,0.14490616,-0.2701779,-0.029391602,-0.06141035,-0.21902603,0.19338399,0.079002075,0.024036855,0.11096591,0.025587752,0.06373019,-0.029114082,-0.0358685,0.039120823,-0.15535799,0.16752777,-0.88096976,-0.029903257,-0.09678925,0.049387988,0.087595105,-0.011000582,0.049077746,0.012905515,0.08261113,0.026193317,0.24800353,0.09423469,-0.002554028,-0.2864689,0.072686836,0.04647581,-0.2381899,-0.14074327,-0.012502828,-0.076793306,0.09832198,-0.08298761,0.33378404,-0.183889,0.012734205,0.02330064,-0.32917637,0.003553096,0.14098482,0.072029404,0.078370765,0.036151275,0.19441065,0.04817169,0.066156834,0.13712823,-0.25170466,-0.016016873,-0.048071787,-0.22087207,0.016142529,0.13444638,-0.6183428,-0.37219846,-0.8580435,-0.22449337,-0.06550467,-0.011345987,0.0074989293,0.038648997,-0.5216414,-0.31244442,0.3797494,0.5563973,-0.38634083
0.1602394,-0.13555565,-0.045766074,-0.04311371,0.03350719,-0.05131637,0.17021444,0.13009936,-0.49178445,-0.6156771,0.005360675,-0.10455627,0.11063968,-0.00980984,-0.78760135,0.06447961,-0.04266106,-0.18397601,0.09796402,0.014009295,-0.18384656,0.16307175,0.01886712,-0.09889997,-0.06731324,0.026888594,-0.1437327,0.27392402,-0.39358547,-0.1979981,-0.10353322,-0.4722453,-0.09923907,0.099542,-0.19837858,0.013686709,-0.026151657,-0.078673966,0.040176082,-0.42029274,-0.17999044,-0.015256959,0.123153664,-0.09138819,0.07536508,0.052403916,-0.025598908,-0.25210893,0.20997684,0.1097984,0.0034021777,0.30338392,-0.095968485,0.1473725,0.024077663,0.23222522,0.095138304,-0.1105624,0.08562421,0.20214517,-0.08787558,-0.12056585,0.0757775,0.28352672,-0.30138797,-0.20245408,0.07496172,0.07361371,0.099150166,-0.1236116,-0.12745841,-0.09731463,-0.08492905,-0.03170745,-0.29808778,0.09026353,0.017446972,0.022486022,-0.5277713,0.082207,-0.62730145,0.13591854,-0.123093545,0.013713803,0.012878978,0.051142424,-0.11297984,-0.04144239,-0.029388802,-0.022917688,-0.081797086,0.03230317,0.016596103,0.09082801,-0.07042237,0.30642536,-0.04143406,0.017784085,0.018602269,0.0668401,0.0053364537,-0.11240453,0.007698355,0.027271422,0.09252962,0.14587362,0.09575019,-0.0360772,0.0357213,0.1613674,-0.22414027,-0.2960328,-0.011639184,0.11927029,-0.030803513,-0.20839854,-0.025783638,0.05214043,-0.14864798,-0.1492971,-0.23850301,0.27194315,-0.24631503,-0.12807839,0.038149346,-0.06880554,-0.035756946,-0.26356423,-0.10512855,-0.34430015,0.00760967,-0.08632008,0.065388,0.054452144,0.19394937,0.0644369,0.01814364,0.20318675,-0.6888784,0.060446955,-1.0293896,0.07015495,-0.3583419,0.22512643,0.14492136,0.101760425,-0.39353633,1.0947146,-0.6183677,0.777702,-0.04272744,0.10585731,0.95084095,-0.15886414,0.57642126,-0.42339155,-0.13234867,-0.25324667,-0.53356886,0.42594725
0.0920468,-0.24743971,0.01248189,-0.4646263,-0.16468656,-0.0389223,-0.058903243,-0.6008374,-0.2366103,0.030965352,-0.1430875,-0.40638646,0.07975301,0.23074527,-0.13517573,0.24769747,-0.22390974,0.06820995,-0.009491595,-0.06406936,-0.020244608,0.22845666,-0.048658654,0.08762816,0.12340332,0.16617239,0.11467763,-0.50326914,0.07883805,0.25767776,0.06824903,-0.13042504,0.15654469,0.22469372,0.005512448,-0.109940395,0.26647702,-0.2599504,-0.073613614,0.15163216,-0.5876925,-0.06968778,-0.1486389,0.20795256,-0.16311447,-0.027339997,-0.37549222,-0.046409726,-0.048596095,0.3077828,0.09902353,0.021973848,0.05579298,-0.29661393,0.0445911,0.10924692,0.012382612,0.12240864,-0.2247503,0.1706682,0.16958374,-0.12982799,0.015963644,0.27579477,-0.07349102,-0.15622845,-0.19824326,-0.23263526,-0.3922584,-0.51883036,0.20315988,-0.033898026,-0.16844198,0.48154786,-0.059718117,0.17445596,-0.17598249,-0.044029895,-0.32026896,0.085444525,-0.10093831,0.2202526,0.045094967,-0.2661024,0.06394031,0.2480612,0.0061982474,0.24667473,-0.34614116,-0.43490455,-0.2273409,0.123350054,0.058297426,-0.17495227,-0.043259688,-0.012041103,-0.1336535,-0.022027368,0.058186445,-0.3119811,0.07937541,-0.18407378,0.23829997,-0.023997992,-0.098036766,0.008359012,0.0796644,0.17957102,0.053133644,0.24545756,-0.14261277,0.03208972,0.045107197,0.02037053,-0.08885656,-0.51251805,-0.17087471,-0.10221195,0.035600595,-0.35911834,0.05534834,0.028472902,0.05687057,-0.115840524,-0.043758076,-0.049536634,-0.059739314,0.17119609,-0.014621663,-0.12690459,0.03171914,0.34777543,0.064947866,-0.039312404,-0.054776758,0.05174397,-0.031767964,-0.21511611,0.14611195,-0.06540648,-0.17293692,0.4963077,0.087118566,-0.05765712,-0.18470739,0.47500873,0.23218304,0.11884949,-0.5008538,0.3694598,-0.35046357,-0.41972303,0.5797417,0.30747738,0.6151329,-0.15961167,-0.16558975,0.14991397,0.13282216,0.7811207
-0.058366705,-0.05360858,-0.038969956,-0.22760764,-0.0057116584,0.017344149,0.0046326458,0.13191906,-0.20454243,-0.13029963,0.17177445,-0.02610969,-0.29133108,-0.18045157,0.042040743,-0.27786282,0.24410497,-0.06375365,-0.5206591,-0.28725493,0.08483952,0.0042078183,0.20123364,-0.14835595,-0.12572116,-0.040553104,0.061739087,0.1441373,-0.40817428,-0.101872034,-0.117039025,0.13312915,0.048729964,-0.1533911,-0.004813741,-0.18788205,-0.009211433,0.013103728,0.16143657,0.11750012,0.2735094,-0.24371709,-0.10317451,-0.010298984,-0.052873824,-0.10207119,-0.28072625,0.075182825,-0.18453526,0.16456799,0.0022486034,-0.05689136,0.03068803,-0.35581183,-0.014816746,0.37405553,0.21791026,-0.21853264,0.02588225,-0.24420676,0.0663387,-0.01560784,0.008390096,-0.26165402,-0.10523801,0.013317578,0.07631573,0.07297347,0.065198764,-0.055065494,-0.07686872,-0.17893663,-0.018551428,-0.32890657,-0.10347989,0.043905858,-0.035080228,0.014471631,0.36823177,-0.06431587,-0.22684781,-0.038932793,-0.21203057,-0.40767244,-0.013363572,-0.008866963,0.10550506,0.1986036,-0.12342854,-0.06657956,-0.29406652,-0.008477745,0.06396024,-0.09750483,0.051106695,0.07558278,0.118208475,0.082972884,-0.012310051,-0.17314798,-0.3893141,-0.20808628,0.013589123,-0.03460719,0.03632467,0.063788205,0.038578235,0.044290155,-0.040848892,-0.13409142,-0.28372914,-0.02691395,-0.2119486,0.10269255,-0.031494703,0.010678517,-0.2092104,0.017982198,0.00090687536,0.09443076,0.05620808,-0.038833003,0.06676448,-0.12579611,-0.107603945,0.2517235,-0.19486561,0.07006361,0.35755974,0.009189085,0.085370064,0.14964429,0.11694913,0.16100192,0.0012639867,-0.21225916,-0.27918068,0.05385458,-0.14318873,0.074568376,-0.020266613,0.74818814,0.60627806,-0.45697457,0.60234064,-0.09767121,-0.63060224,-0.5351742,0.39476454,-0.049942266,-0.16110304,-0.5115589,-0.13643068,-0.061203834,-0.10600247,0.037767272,0.5167367,-0.23243685,0.715011,-0.68432134
0.043714218,0.013398589,-0.07670012,0.05589084,-0.6032669,0.028833456,0.20134294,0.10062226,0.029763289,0.15200794,-0.023457542,0.034509975,0.34008715,-0.05956466,-0.25433928,-0.38889524,0.06332148,-0.28079307,0.09459775,-0.21523415,0.05280451,-0.10297336,-0.20118022,0.028578598,0.038152914,0.068834625,-0.23953886,0.08751014,-0.26840457,-0.4967951,-0.27867568,-0.10536877,0.2911184,0.020955916,-0.36169288,-0.12610364,0.021607045,-0.007635646,-0.28341264,0.16698001,-0.07832313,0.07654266,0.093077935,-0.58988047,-0.031569764,-0.010664852,-0.5016124,0.104615375,0.050121017,-0.086073644,0.11262123,-0.29608682,-0.14487024,-0.10248886,-0.024900863,-0.14029194,-0.09473377,0.093419455,0.29433125,-0.015759848,-0.1426692,0.12274049,0.04131776,0.2391555,0.044656694,0.1052094,0.052407354,0.2270064,0.021713696,0.07552849,-0.3964353,0.038805176,-0.5127451,-0.4373059,-0.13075101,-0.0064609656,0.16306047,0.12568693,-0.3190797,0.054984063,-0.030478373,0.15190569,-0.043559976,0.1247771,-0.07427378,0.10368862,-0.22101298,-0.0521313,-0.16922829,-0.20637338,-0.0033069768,-0.16871707,-0.07559473,0.23293152,0.35002917,0.19800405,0.033105385,-0.34262672,0.09856432,-0.16028239,0.11049302,-0.15067536,0.1020864,-0.13389535,-0.01152248,0.29617667,-0.2662299,-0.22969517,-0.05720396,0.0002226016,0.08465096,0.15852648,0.027643654,-0.11229517,-0.038494628,0.014571664,0.10960546,-0.076564,-0.064947866,-0.17922781,-0.11039356,-0.16042304,-0.42144468,-0.16772811,-0.06973478,0.15041241,-0.05776614,-0.07625994,-0.2526587,0.037072767,0.047597192,-0.10726874,-0.39571202,-0.25131822,-0.22890769,-0.1486315,-0.01299291,0.373211,-0.23166665,-0.029390272,-0.41530195,0.082838856,-0.05618789,0.13524538,-0.37044218,-0.10491571,-0.40564883,0.034191173,0.2832645,0.19287376,0.27173096,0.042018406,0.30077264,0.0829405,0.3858879,0.34622338,0.15134107,-0.28798404,-1.4913414,0.032612734
-0.21869694,-0.03182316,-0.104674235,0.0251283,0.21347871,0.053874254,-0.1054254,-0.12295113,0.1710874,-0.41495204,-0.0129888235,0.2713626,-0.07773957,0.17317945,0.24055007,0.09452581,0.24290301,0.16444018,0.08330317,-0.39061013,0.06741661,-0.029325683,-0.117336445,0.29717153,-0.0105076125,0.2744944,-0.055214535,-0.15324415,0.13919234,-0.21083494,-0.021698898,-0.014236393,0.08867688,-0.08828957,0.1065009,0.23658851,0.27465868,-0.10441398,0.05366497,-0.25492123,0.05425161,-0.33376175,-0.06820679,0.0065444545,0.02382202,0.34586254,0.010695002,-0.39949298,-0.12843184,-0.09210509,0.1593568,-0.075247005,-0.026653321,-0.1548151,0.006409168,0.028644465,-0.10586048,-0.40969697,-0.1483387,-0.66175586,-0.13822024,-0.031399775,0.089353964,-0.070484295,-0.028418578,0.12887928,-0.03131849,0.12770563,-0.01801666,-0.0431367,-0.21319735,0.097889915,0.11349877,0.1806786,-0.18600023,0.039279852,-0.051468372,0.21288064,-0.57845277,-0.029389182,-0.4158793,0.2233693,0.011684518,-0.15309241,-0.08048165,0.09275099,-0.015199793,-0.070573494,-0.038369216,-0.0470629,0.16780747,0.026172271,-0.3703471,-0.4880183,-0.05872237,0.09242248,0.14175782,0.045607015,-0.14310372,-0.13231084,0.060341567,-0.24434188,-0.10966939,0.0011109788,-0.20563737,-0.3290349,-0.076048024,0.0686085,-0.23694822,-0.13576499,-0.00676841,-0.054048296,-0.09626396,-0.19211677,-0.15008697,-0.20479624,-0.03170739,-0.24937063,0.30562752,-0.026556507,0.120467514,0.24565639,-0.001027513,-0.17212765,-0.05233341,-0.04084621,-0.016043767,0.19124736,-0.07720654,0.0008130833,-0.20395213,-0.1568443,-0.026312422,0.16677128,-0.0008275371,0.36549813,-0.07837381,-0.25334895,0.040822413,-0.16148715,0.08912286,0.11993184,0.116547674,-0.099694654,0.04099338,-0.23340644,-0.6504353,0.21033968,-0.1556348,0.6957672,0.09400798,0.04560986,0.23900133,0.4313749,0.6766857,-0.3837833,-0.008846446,0.2230003,0.90701747,-0.509857
0.23412564,0.10411043,0.078321554,0.0051853396,0.16287722,-0.07895143,-0.031632807,0.08910876,0.445356,-0.093404934,-0.05730878,-0.20074679,-0.03164738,0.33970326,0.42299715,-0.14276896,0.30200645,0.16765894,-0.16614741,0.060041923,-0.02934208,0.17271483,0.08953239,0.20658842,0.004529193,-0.14687717,-0.23500928,-0.08578028,0.08615566,-0.08415941,0.055062473,0.012754479,-0.004378023,0.07149013,0.01289758,0.026261145,-0.027084095,-0.0011840458,0.017831529,-0.29436535,0.55085236,-0.12616467,-0.14195836,-0.3376936,-0.0040639257,-0.10274255,-0.4339078,-0.06326114,0.16843812,0.08181975,-0.082309686,-0.020482304,-0.21244748,-0.12592167,0.052614,-0.21536846,-0.19675606,-0.32017022,-0.022243554,0.2142498,0.0044769733,-0.014736433,0.105453685,0.09249502,-0.028680589,0.29991627,-0.040252537,-0.10449643,0.059694838,0.12298976,0.122167885,0.13504232,-0.011138002,0.008027219,-0.092741154,-0.115519285,-0.14957461,-0.15561718,-0.008088662,-0.026767392,-0.07256136,0.016724475,-0.18562748,-0.21948528,0.17509432,0.0031177755,0.30220604,-0.06218427,0.28147107,-0.048300024,0.038245104,0.09646086,0.06040424,-0.3602066,-0.04767832,-0.1504352,-0.09684597,-0.015599998,-0.016361935,-0.22089876,0.05815889,0.09716208,-0.09082325,0.045712627,-0.07904482,0.07752965,0.06645579,0.25503018,0.019248595,-0.03469093,-0.5204967,0.34365922,-0.0009834814,-0.08549186,-0.14135867,0.20300153,-0.02321006,-0.036185056,0.030016385,-0.06934319,-0.2924134,-0.042865478,-0.18233564,0.021046938,0.15412846,-0.02245637,-0.16526864,-0.14160782,0.05816857,-0.029590901,-0.024943426,-0.42922923,-0.010034993,-0.19822568,0.20606023,0.32315284,0.06205397,0.22927637,-0.1714804,-0.10808706,0.09094135,0.08014493,0.30587634,-0.09637841,-0.2912329,-0.67015713,-1.303809,-1.4389981,0.11299551,-0.33524033,0.47944254,-0.2028063,0.14678691,0.00844622,0.26605588,-0.18750265,0.15946105,-0.09406727,0.5774068,-0.36490512
0.11092047,0.13560028,-0.007921728,0.08250807,0.035457123,-0.039811894,0.04793839,0.07003667,-0.0019244555,-0.072652645,0.106357984,-0.025426514,0.093875326,-0.0041058743,0.035209037,0.09737551,-0.0043785097,0.09464608,-0.096832834,-0.019077584,-0.03335805,-0.05144865,-0.062344603,-0.041260235,0.037060544,-0.034417666,-0.11678217,0.020344052,-0.06884242,-0.04880712,0.10402969,0.09626135,0.09704775,0.041372158,-0.04390399,-0.05341374,-0.049824197,-0.03530744,0.007847708,0.06829038,-0.067587405,0.04597652,0.00012462049,-0.060231317,0.21476763,-0.059404604,-0.005471032,0.008611321,-0.255257,0.093728624,0.041562803,0.042898536,0.071917966,-0.077778645,-0.042980112,-0.014523276,-0.14449254,-0.012882859,0.0136717595,-0.20163634,0.12115476,-0.017852446,0.04313211,-0.050978582,-0.04229544,0.06882922,0.029615734,-0.0016247545,0.08512708,0.073076256,0.040832926,-0.11075984,0.10640203,-0.17226438,-0.1161709,0.04153949,0.1131612,-0.35631797,0.17263904,0.058028176,-0.050370913,-0.04633709,0.092014804,0.11049249,0.014890234,0.051628638,-0.003220973,-0.009814576,-0.09506936,0.014470288,-0.20424415,-0.13695396,0.01949237,-0.1258165,-0.06108814,0.013492929,0.0043351203,-0.15411256,0.038913865,-0.050903127,-0.041393254,0.043340076,0.007933901,0.041710354,0.014034653,-0.029002085,-0.022946874,0.011591059,-0.024852509,0.054532677,0.03864117,0.114526965,0.046996117,-0.023625296,-0.04155209,-0.071242884,0.10985309,-0.088311344,0.15207726,-0.042121395,0.08006686,-0.0282573,0.06704913,-0.019930905,0.06806776,0.06079173,0.15056843,-0.06691678,-0.018872757,0.07873047,0.060615677,-0.0730821,0.016606975,0.0622578,0.00038000502,0.12642193,0.1132853,-0.06908736,-0.04150872,0.005268171,0.47917163,0.24269965,-0.15780786,-0.18752825,-0.47812366,0.3670434,-0.18406583,-0.34967577,0.20138249,-0.060127832,0.037035484,-0.39565125,-0.6684221,-0.15919356,-0.7837474,0.5298955,-0.10701142,-0.37512952,0.014378519,-0.63996565
-0.3039228,-0.41510087,-0.08373087,0.08857677,0.26878917,0.032604326,0.10012123,-0.01314028,0.13101774,-0.096974865,-0.2038148,0.08594537,0.019731691,0.054470442,0.3627045,-0.009279995,0.078577384,-0.0926861,-0.007830753,-0.24115834,-0.07442563,-0.12594369,-0.16295233,0.46148717,-0.1275402,0.076885246,0.07187526,0.05388968,0.012602188,-0.2773948,-0.016402235,-0.043326467,0.11276541,-0.247238,0.02115898,0.18518326,-0.3406686,0.0025389048,-0.081712455,0.01765802,0.048909362,-0.028159468,0.022602526,-0.037196837,0.32232833,-0.07907326,-0.116180144,-0.016810222,-0.40559837,-0.01665363,-0.033910498,0.16918182,0.05224931,-0.1469902,0.045575067,0.1612262,-0.17936958,0.06291508,-0.110314034,-0.017714266,-0.08123065,-0.1235252,-0.10750883,0.2873438,0.4377268,0.09473445,0.037399277,-0.16651665,-0.17910284,-0.1631911,-0.055157267,-0.03925635,-0.2860851,0.19373783,0.18883346,-0.0058827098,0.0517748,-0.041469343,-0.0070978114,0.028868275,0.06619917,-0.04957164,0.025089515,-0.09256752,-0.02099425,0.0014156781,-0.022545861,-0.11102099,0.22254507,-0.076488756,0.11297363,-0.13539398,0.024055935,-0.04435924,0.061023418,0.17371969,-0.08921271,0.118537605,-0.07309238,-0.18092705,0.040787414,-0.15638278,0.20563449,0.0759498,0.012273395,-0.41163647,-0.30115828,0.14430308,-0.051804896,0.11704244,-0.023689404,0.0031087098,0.08247478,0.036949947,-0.060352296,0.29247227,0.22256184,-0.016774943,0.1990677,0.04720223,0.1912547,-0.2461238,-0.30916667,0.08018565,-0.031414494,0.0885225,0.041618276,0.18398985,-0.019981926,-0.093503386,0.13992274,-0.23940673,0.16550311,-0.22478229,-0.25794223,-0.14326935,-0.051382646,0.30099842,-0.055413134,-0.03974039,0.06342394,-0.06677247,-0.056780607,-0.21032411,-0.027865915,0.17895189,0.17629282,-0.27392733,-0.4456258,-0.13711053,0.224718,0.116217814,-0.23088537,0.24838988,0.041882396,-0.017999185,-0.49774063,0.13145608,0.490202,-0.12906943
0.1014065,0.0077111246,-0.07257818,0.02062443,-0.44709057,-0.107013516,0.04910246,-0.19858511,0.27431673,0.06523168,0.03196811,0.009808394,-0.2685756,-0.47787052,0.28736344,-0.17293766,0.014533697,-0.0628609,-0.16157979,-0.020916162,0.033830564,-0.26522523,-0.01217524,0.14042181,-0.23768228,0.063226074,-0.031348743,0.07610306,0.03064066,-0.0078091873,-0.06771045,0.14064214,-0.27893478,-0.060938418,-0.018570067,-0.32831025,-0.15382503,-0.036522884,0.05822768,-0.12524323,0.35312077,0.042816065,-0.42886373,0.113179795,0.35328245,0.048922803,0.20591971,-0.0470142,0.0491479,-0.29215816,0.0530443,-0.12843935,-0.16021588,0.10410532,0.071275346,-0.40097958,0.04014742,-0.2945146,-0.07522126,-0.034113966,0.064630345,-0.019038264,-0.04502604,0.08845062,-0.023554929,-0.026421184,0.050478935,-0.079742365,-0.4006117,-0.32103777,-0.069572955,0.077531904,-0.39943805,-0.0903406,-0.24958535,0.07804397,0.0004285908,-0.303568,0.15799773,-0.024921227,-0.16115117,0.0029775274,0.03691559,-0.021595992,-0.46826464,0.21679291,0.114933275,0.10115824,-0.32754683,0.0924936,-0.46617535,-0.13732494,0.05795576,0.010491854,0.10033099,0.15385434,-0.07569153,0.31245342,-0.16170962,-0.048882924,0.040562086,-0.2473264,0.053121373,-0.2892619,0.07345977,-0.085421816,-0.08729842,0.27544054,-0.01140849,0.18618816,0.058103602,-0.07713036,-0.0072014923,0.013122704,0.021299228,-0.17872067,0.4827342,-0.011846717,-0.044073768,0.13421994,-0.04077472,0.07717692,-0.036109723,-0.019222584,0.16029105,0.09058252,0.03982673,0.16199997,0.117524855,0.035504457,0.040334396,-0.3092041,-0.15556917,-0.15735087,0.11402267,-0.110158764,0.004578435,0.3285134,-0.11545008,0.020986086,0.569967,-0.17334728,-0.22139691,0.05669444,0.18570411,0.34440792,0.08349137,-0.77691054,-0.42143008,-0.55576074,-0.5681877,0.21135892,-0.6467011,0.38268748,-0.5806847,0.142539,-0.435041,0.13594632,0.5212062,0.20667753
-0.1811473,0.027948774,-0.014540781,-0.007115413,0.28364518,0.15320943,-0.28733626,-0.06696778,0.046085753,-0.10872609,-0.10847355,-0.04968981,0.21214107,0.40283635,0.41451597,-0.5033517,-0.08661391,0.017840723,0.061652843,-0.107432835,-0.3076664,-0.13978665,0.006643603,0.010264665,0.096688084,-0.0015454058,-0.046678085,0.0646088,-0.6752355,0.09803529,0.195197,-0.028656865,-0.1268482,0.022599854,0.033842143,0.23966362,-0.23162729,0.07234908,-0.07225073,-0.13836136,-0.1260121,0.02905866,-0.1617554,0.099225536,0.04708688,0.08796729,0.05913943,-0.021620527,0.015728062,-0.095306024,0.07433032,0.034347787,-0.36331853,-0.08908298,-0.47624773,-0.39973447,0.033416,0.08507289,-0.028193736,-0.03255105,0.0017512626,-0.16893655,-0.060096685,-0.17265193,0.25818068,-0.3417498,-0.030918432,-0.051056154,-0.1431604,0.036844943,-0.21027346,0.08382995,0.28691044,0.023746295,0.0062282877,0.06476424,-0.012855506,0.063961975,0.16149925,-0.08678966,-0.018563334,-0.31031322,0.05084786,-0.06358909,-0.15394661,-0.37077665,-0.10348203,-0.048924956,0.14800002,-0.10531315,0.25008336,-0.009515829,0.054790247,0.07418104,0.23114091,-0.16761436,0.00893794,-0.059363287,-0.06372937,-0.12036777,0.040166516,0.020591028,0.024351677,-0.28143844,-0.016229462,-0.26421693,-0.17824765,0.08508049,0.08877643,0.123598255,-0.25097317,-0.41422832,0.030479884,-0.037494637,0.051418263,0.12789766,0.20377247,-0.015015177,0.278033,-0.11799817,-0.098494,0.34382755,0.109959066,-0.0005832844,-0.04920695,0.017174924,0.095074326,-0.062806495,-0.016543945,-0.62661415,-0.104375206,-0.23831233,-0.08723451,-0.0020939112,-0.17171595,-0.008321793,0.012509469,0.096919544,-0.16544,0.00644864,0.86025006,-0.025114663,0.17871757,-0.5020153,0.5089832,0.0036211049,0.37365252,-0.44561097,0.29760376,-0.121501945,-0.63229847,-0.038522474,-1.3168663,0.0956233,-0.57042533,-0.06886347,-0.12547338,0.1809244,-0.3618704,-0.108203776
-0.57702446,0.036701187,0.02366946,-0.13717513,0.17495373,-0.056797255,-0.18919984,0.0693258,0.0056474707,-0.2765407,0.055370163,0.11913178,0.0975051,0.3649299,0.15452364,0.31325385,0.15465403,0.09844496,-0.13636746,-0.57897675,0.36589924,0.09985733,0.019393913,-0.2282655,0.16921575,-0.06556193,0.15930791,-0.39675742,0.109149635,0.057053633,-0.119395524,-0.19827308,0.08350573,-0.07274638,0.5957958,0.0101408735,0.044426084,-0.12939636,0.08707289,0.2920174,0.26326492,-0.20550746,-0.22369689,-0.10152458,0.20061177,-0.110537015,-0.24582468,-0.01772017,0.09481192,-0.56248933,-0.015645726,0.026144834,-0.0020203139,-0.03686834,-0.038090855,0.10690994,-0.1568778,-0.29688886,-0.0077900686,0.16369529,0.0107792225,-0.05701904,-0.21243891,0.007884106,0.18495983,-0.010455533,-0.0815444,0.17082192,-0.25737387,0.44230503,0.23641393,0.05898137,0.25795776,-0.272944,0.031218557,-0.15944085,-0.23409273,0.21153763,0.015751632,0.05719953,0.069337904,-0.26718795,0.0017715524,-0.19515295,0.04083142,-0.067513734,0.32990286,0.08927332,0.2662838,0.069703415,0.39750198,0.069486275,-0.05696587,0.050942644,-0.0105878385,0.48024327,-0.07469645,0.2337732,0.07519498,-0.00669513,0.02431876,-0.38399172,0.083820365,-0.1531389,-0.037579026,0.31735647,0.09694773,0.16287279,-0.03984424,0.1432295,0.17511663,-0.20146507,0.06398242,-0.106885284,-0.058270987,-0.12146333,0.1670651,0.033591826,-0.0655191,-0.05954866,0.15458255,-0.5092888,-0.07262117,-0.12737915,0.052641787,0.089753464,-0.07263186,0.13814059,-0.2263316,-0.00025825325,0.03282257,0.24704683,0.057900652,-0.08157575,-0.24401513,0.15128376,0.12068594,-0.3070019,0.0074950075,-0.0028668265,-0.76204306,-0.2045792,-0.01925489,0.41901135,-0.33004993,-0.060679756,-0.2585573,-0.71313524,-0.3748359,-0.7418969,-0.35361478,-0.61421233,0.57134074,-0.56257695,0.35395604,0.26641518,-0.15762377,-0.019324418,0.51809853,-0.57361054
-0.19388369,-0.25340334,0.022266591,-0.34834775,0.1039275,-0.04447,-0.053085387,0.34353784,0.4749132,-0.15041272,-0.10906818,0.3199941,-0.04315477,-0.15445636,-0.37961254,0.10201434,0.19882311,-0.045728255,-0.43915418,-0.1177465,-0.35355482,0.04242681,0.20279895,0.13883735,-0.10750624,0.057286147,0.043490715,-0.23470083,-0.28217497,0.11971463,-0.2958166,0.037199758,-0.12048502,-0.20654874,-0.029278256,-0.23153277,-0.19486563,-0.07872222,-0.0017100074,-0.13797426,0.26021162,0.37895578,0.00052197697,0.1432543,-0.24059062,-0.10447427,0.20954478,-0.18748555,0.18836495,0.17839569,-0.07926773,0.023138454,-0.2508782,-0.10363341,-0.22289155,0.38328093,0.5466707,-0.021326441,0.20377919,-0.2446312,-0.055999715,-0.1585286,0.1319288,-0.22807059,0.24976932,0.03171653,-0.099111736,-0.31139076,0.004798707,-0.23398024,-0.4985382,-0.29483974,-0.0102975685,-0.34310228,-0.12884367,0.16692224,0.13547944,-0.0742249,0.055952135,0.081278756,-0.14587592,0.17215164,-0.1682765,0.1336507,-0.048393223,-0.8356263,0.13838407,-0.04582887,0.32015678,-0.42357704,-0.03469599,-0.07473685,-0.23942824,-0.16620098,-0.00411597,-0.15579028,-0.026410118,0.39288408,-0.15829454,0.090586334,-0.006749459,-0.030904451,0.04594028,0.051679052,-0.08953541,-0.009956992,0.093488924,0.29722983,0.029983537,0.19343835,-0.20478524,0.080048,-0.3711494,-0.016858732,0.052136187,-0.20829558,-0.49774864,0.062295597,-0.24122132,-0.23491356,0.16771555,-0.7182185,-0.2663009,-0.20730078,-0.097420126,-0.21768214,0.08121473,0.55757296,-0.44536352,0.08820492,0.12352712,-0.050583877,-0.053055353,-0.18801683,-0.047954507,-0.023110244,-0.2712792,0.03435461,-0.48514068,0.06014635,-0.23579633,0.15841922,0.120568626,-0.050275918,0.5522906,0.18910894,-0.017024335,-0.0019381908,0.061234362,0.19589685,-0.14654648,-0.19148871,0.1131665,0.05572392,0.4752347,-0.05675343,-0.43764836,0.07614716,-0.58772856,-0.018096942
-0.20995991,-0.26812065,-0.11844609,0.043435745,0.15173925,-0.08385056,0.071101315,-0.06330418,-0.5824191,0.03848199,0.017232837,0.08867035,-0.03835688,0.18212186,0.28002352,-0.10889255,-0.3457487,-0.13273163,-0.63267785,-0.016893616,-0.04020053,-0.07945843,-0.14885631,-0.3892011,0.14775926,0.11281292,-0.12735322,0.008226695,-0.0762867,-0.21440904,-0.09867444,-0.05815371,-0.29656357,-0.42647356,-0.34114087,0.06391767,-0.08073433,-0.01565098,-0.10256064,0.73774886,-0.06859449,-0.1083401,0.062366422,0.14374338,-0.27042353,-0.088905156,-0.3180293,-0.09661371,0.28222954,-0.10077943,-0.13656749,-0.35857055,-0.15421663,-0.35621923,-0.08639137,0.19066928,-0.26382017,-0.2862294,-0.15151381,-0.44493362,0.11198792,0.24749224,0.1529442,0.13477872,0.003392919,-0.2360504,-0.016913446,0.21337701,0.20849442,-0.045111373,0.06309906,-0.21106817,-0.06617307,-0.23243293,-0.039336275,-0.040394142,-0.009183171,-0.105141416,0.081544265,-0.06985261,-0.011348876,-0.32473487,-0.15245163,-0.0736066,-0.072264925,0.101052694,-0.104052745,0.06529829,-0.51875013,0.21711898,0.01407263,0.15921848,-0.1822049,0.12992437,-0.8134026,0.47400364,0.012201994,-0.05724928,-0.017127864,0.15668815,0.029814295,0.1011049,-0.04076123,-0.124231875,-0.5297863,0.45148587,0.35118318,-0.23891822,0.095740214,-0.034645643,-0.10951612,0.09728456,-0.44766545,-0.0951898,0.024308642,-0.16193607,-0.7568154,-0.017195176,-0.19834305,0.12066467,0.005221094,0.1684294,-0.049050562,-0.020644194,-0.03730849,0.19188653,0.1120933,-0.13433646,-0.4656639,0.03812253,-0.25892788,0.2871271,-0.06794533,-0.1487836,0.14664967,0.028305074,-0.007651817,0.010148183,0.15756257,0.06003581,0.08995802,-0.13383184,0.3493803,0.5353627,0.400783,0.06130671,0.21477793,-0.3159668,0.41321835,0.08832306,-0.6611755,0.12359135,-0.50862575,0.18261331,-0.5810328,0.36286563,-0.11286196,0.22114664,-0.23671743,0.11857112
0.4988962,-0.18687734,-0.020656738,-0.04867123,-0.50186324,-0.21492523,-0.44756234,-0.3158719,-0.3620465,0.6088009,0.13793144,-0.35816768,-0.12053785,0.22298194,-0.074457355,0.44521815,-0.03546214,-0.3637154,-0.30351105,0.33911136,0.07262979,-0.0683184,0.1092534,-0.048122663,-0.16783534,0.023143928,0.06500486,-0.24386853,0.08707065,0.2237348,-0.07760319,0.073867,0.17032766,-0.54558414,-0.06528259,-0.09533777,0.12711029,-0.12048303,0.08661283,-0.12678663,-0.15157866,-0.21130523,-0.59651816,-0.22581363,0.31941375,0.090367414,-0.011206665,-0.05457501,-0.70887166,-0.045918275,-0.14035003,-0.33031434,-0.03318288,0.15634581,-0.0018779032,-0.6086898,0.2239774,0.15618826,0.08249321,-0.13538118,0.07564664,0.25576508,0.040122777,0.18696563,0.25493175,-0.09771805,-0.0011734919,0.23213366,-0.0022091111,0.17099558,-0.34482455,-0.06932885,0.25914112,-0.41408822,-0.21781678,-0.13081229,-0.12087027,0.1398881,-0.35313034,-0.005874638,-0.054271247,-0.15758018,-0.04279255,-0.0878424,-0.08673979,-0.07333387,0.06454081,0.1751184,-0.15682673,-0.26918393,-0.19697183,-0.1213193,0.10998992,0.1544583,0.028853197,0.47938138,-0.11074872,0.108048774,-0.34857556,-0.482483,-0.029272981,-0.4135914,-0.011152099,-0.42631012,0.09440457,-0.059224352,-0.32283553,-0.34758654,0.0005154106,0.23144637,0.062774606,0.24699293,-0.09150086,0.10487122,0.014019675,-0.35716897,0.04822522,0.035932995,-0.21791019,0.008796998,0.24473576,0.20532587,0.27142182,0.11714685,0.008077912,0.19882955,-0.0865772,-0.1872222,-0.09824092,0.014527986,-0.29383892,-0.06807405,-0.08404505,-0.29491588,-0.030980373,-0.2639305,-0.0652513,-0.4842802,0.12712006,0.005698322,0.12668557,-0.1504559,-0.031979647,0.3257248,0.21875668,-0.06776218,-0.13378723,-0.6933422,-0.887412,-0.21578228,-0.15356418,-0.16308218,-0.0828328,0.012409931,-0.08715192,0.31282896,0.4449475,0.3449164,0.05990449,-0.12702863
0.08133673,-0.8218107,0.1098832,-0.20057528,-0.3912446,0.0068705934,-0.043554634,-0.12646995,-0.02483363,0.0809724,-0.029200217,-0.22300583,-0.37400267,-0.8210018,-0.4686767,0.24002247,-0.12973368,0.005984452,-0.21194601,-0.09263494,-0.047937457,-0.083789095,0.047980767,-0.0033922046,0.2435594,0.084107436,-0.17733853,-0.25387645,-0.06583588,0.003360993,0.2048452,0.010819696,0.051695645,0.07764288,-0.094386935,-0.16966407,0.17568645,0.11172344,0.055102848,0.08708101,-0.12204844,0.2620931,-0.41646463,0.073606364,0.27652782,-0.020549618,-0.28086,-0.062371574,0.5461274,-0.12966004,-0.0595099,0.12907328,-0.026270704,-0.16020972,-0.021604223,0.23933302,0.0136859715,0.105142765,0.07828364,0.06449891,-0.10118343,0.14874813,-0.49067822,-0.108101904,0.1809852,-0.28946337,0.09137776,-0.16251652,0.08679206,0.04543878,-0.2721014,-0.04671929,-0.31459394,0.071967356,-0.24313907,0.15722069,0.19765404,-0.2394235,-0.19614641,-0.13948475,-0.46359128,0.1724653,0.0080580795,-0.4658196,-0.07865751,-0.070836164,0.00930763,-0.021904485,-0.11208502,0.001965018,-0.370542,-0.39079374,0.22172189,0.004290369,0.25255296,-0.12730642,0.26643112,0.19090258,-0.028518008,-0.034869324,0.05475246,0.056212343,0.12820068,0.108667344,-0.1385879,0.10768178,0.5713192,-0.040823895,-0.10962147,-0.06714558,0.0414585,-0.09761069,-0.0927348,-0.16848789,0.015510224,-0.3360763,0.24206789,-0.059173115,-0.12923096,-0.03461791,-0.5876728,0.020998867,-0.06883141,-0.02269832,-0.14150214,-0.021646641,-0.0003723715,0.019638022,0.066090405,0.03958859,0.06381735,0.034589157,-0.2492443,-0.18657462,-0.274735,-0.16710494,-0.094311796,0.2615204,-0.25930527,0.087154776,-0.41971314,-0.0395371,-0.5018971,0.4771124,-0.24835801,-0.051312506,-0.19416243,-0.29196784,-0.6130611,0.20425643,-0.3264214,-0.6274425,0.45596993,0.001915291,-0.14527498,0.42949116,0.11043417,-0.21983935,-0.52325106,0.29829028
-0.22928514,0.14225617,0.093345664,0.07955846,0.2521763,0.10711128,-0.084161304,0.16914877,-0.179576,-0.1117213,0.019289115,-0.12553893,0.22795422,0.1909734,0.3702811,-0.259629,0.055439267,-0.02501406,0.021068545,-0.17632706,-0.27585462,-0.09781872,-0.11758798,-0.1761896,-0.08362306,-0.16288191,0.07251394,0.31405517,-0.37875357,-0.06661353,0.052745745,-0.12064692,-0.27626777,-0.1986779,0.22264247,-0.48658127,-0.062411208,-0.08124595,-0.057497464,0.2912507,-0.3222825,-0.19785133,-0.08245462,-0.007143512,-0.19215737,-0.10771008,0.09729746,-0.035182863,-0.294261,-0.08487574,0.03807457,0.12571119,0.12949191,-0.09285702,-0.12559113,0.29371762,0.03096746,-0.047971126,-0.29620427,-0.5104108,-0.069550015,0.06554449,0.14366329,-0.0027833025,-0.026005978,0.06775341,-0.067950256,-0.27228588,0.11548092,-0.044061057,-0.41500676,-0.0077691246,-0.18271297,-0.61655205,-0.43726242,-0.37742093,-0.1064513,-0.15978931,-0.066578045,-0.009173558,-0.39300737,0.26777053,-0.15407972,-0.033709355,-0.059065253,-0.5521026,0.17761117,-0.026338784,0.018967524,-0.036102753,-0.33946657,0.31304714,0.030669803,-0.016325582,-0.25953668,-0.21969171,0.30175477,-0.24854316,-0.030708782,-0.021260148,0.14614186,0.05459629,-0.023833081,-0.08796424,0.111152604,0.22362833,-0.20940472,-0.25485337,-0.051320232,-0.06847187,-0.10764389,0.44545463,-0.120017014,0.03019258,-0.0931356,-0.15085235,-0.54515386,-0.20731169,-0.11508471,0.02604709,-0.46026796,0.014565444,-0.14048286,-0.12877177,0.074600056,0.024964303,0.03562496,-0.055340465,0.31452817,-0.010008949,0.07312284,0.24943677,0.053216144,0.030760122,-0.06834497,0.084898084,0.048237454,0.07869791,0.015483465,0.11815478,0.0013650022,-0.1405503,-0.036778145,0.4211465,-0.2950064,0.32683972,-0.98477894,0.4220615,0.20023648,-0.067300655,-0.4168518,-0.23317531,0.09159187,0.005143895,0.4450299,-0.1377554,-0.550215,-0.0635719,-0.42240524,-0.72877705
-0.03943354,0.18276967,-0.057414096,0.009414601,-0.34219256,-0.044695247,0.049780864,-0.050473515,-0.06321448,-0.3471431,-0.1277655,0.115520164,0.10107298,0.005090389,0.11094279,-0.4628363,0.15400985,0.18888044,0.21368529,-0.19978711,-0.06015664,-0.087764375,-0.05738674,0.41850156,0.1175974,0.07159432,0.022366462,0.18132108,-0.045107648,-0.16121157,0.14014882,0.16369484,-0.13642232,-0.15650034,0.38513955,-0.08361945,-0.015617095,0.08802679,0.0841324,-0.22063552,-0.35159588,0.12717578,0.09257366,-0.090970196,-0.20197582,-0.016713558,-0.19292368,0.024656054,-0.013405596,-0.0049346746,-0.05704708,-0.37411866,-0.01329075,-0.20833659,0.053179707,-0.63301855,-0.38367888,0.111675896,-0.25032082,-0.25907654,-0.0677255,-0.08602137,0.0018937173,0.09159483,0.039704002,0.057223488,-0.08170746,-0.060048707,-0.0070535094,-0.43199202,-0.04392892,0.24571864,0.13675961,-0.27074495,-0.0826208,0.041136593,-0.06939192,0.086894386,0.056416072,-0.19842084,-0.025994662,0.25987488,-0.052203227,-0.16754042,-0.48950133,0.11947301,-0.16895218,-0.3846404,-0.46230486,-0.15741178,-0.30924535,-0.15369035,-0.30599526,-0.112803414,0.09948032,-0.25392228,-0.07260617,0.11289461,-0.004042237,0.020217935,-0.15588915,-0.0020797488,-0.02951856,0.00229128,0.03171732,-0.21214563,-0.2695553,0.1457721,-0.08777016,0.112792104,0.0121818455,-0.16038837,0.047373094,-0.022268226,-0.01013847,0.07655057,-0.016188018,0.0371927,0.16259025,-0.07042239,-0.40361282,-0.044039298,-0.02598083,0.10806564,0.036063917,0.21142633,0.093545906,0.17930673,0.25774986,-0.0894406,-0.0074578617,0.10194254,-0.0274808,-0.0016443427,0.24132203,0.28611866,-0.15182681,0.0028216504,0.14924599,0.047570594,0.6391349,-0.19800472,0.20020851,-0.14082034,0.2560214,-0.06582057,0.4400124,-0.8294421,0.1584113,-0.31149754,-0.100740485,0.15420404,-0.42775232,0.2163134,-0.13906188,0.48669717,-0.18456742,0.04943455,0.42944238,-0.32357273
0.13097881,-0.030779328,0.041680377,0.12450372,-0.25339785,-0.0056656394,0.0032382298,-0.1420786,0.1852051,0.375323,0.09023663,0.10871897,-0.15410765,0.06035604,0.2586087,-0.061514128,-0.01880997,0.13988611,0.011482539,0.05773818,-0.004301028,0.053270645,0.24402975,0.1063229,-0.010477636,0.14093934,0.1440632,0.42788643,0.034930393,-0.119162105,0.04255844,0.056829065,0.11980972,0.062538095,-0.07023642,0.15088321,0.036221243,-0.10052621,0.07588084,-0.23105626,0.1288375,-0.081202954,-0.074420564,0.031394947,-0.042074177,-0.08922511,-0.4485443,-0.07072995,-0.54064995,0.031664774,0.07730889,0.03612767,0.0900023,-0.2742381,0.046037324,-0.0526583,-0.004837262,-0.18682508,-0.029251399,-0.40579444,0.029642766,-0.007852356,-0.0735111,0.06601591,-0.08900305,0.060399286,-0.0144119635,-0.13574952,-0.29810062,-0.048997715,-0.12611648,0.11529111,0.23541522,-0.1420725,-0.0036808325,-0.1309925,-0.07222257,-0.007483194,-0.25932717,0.012813312,-0.012965112,-0.03907891,-0.023414476,0.10260355,-0.07588667,-0.030990977,0.024228869,0.037644815,0.20371759,0.13593744,-0.36297297,0.09544143,0.032568302,0.10239211,0.23430677,-0.07492562,0.003398848,0.18071152,0.015584803,0.031529624,0.084523536,-0.064065345,-0.05655447,0.017851647,-0.02298164,-0.23135231,-0.13038178,0.015515262,0.03264902,-0.16790593,0.04716048,0.14642762,-0.19266477,-0.0188181,-0.0012980502,-0.1928106,-0.017913837,-0.04972621,0.045850866,0.16028574,-0.1175886,-0.24334048,-0.23847891,-0.0421897,-0.015385736,-0.005489574,-0.033785734,0.1938585,0.03922599,-0.049631946,0.008046642,-0.29418817,0.1319067,0.1722774,-0.17209728,0.1732006,-0.1096263,0.022420915,0.114604615,0.10521445,0.6250946,0.17663111,-0.15084465,-0.1909224,-0.12824541,-0.058916975,-0.38774544,-0.73717713,0.276995,-0.48730752,-0.114022724,-0.18273652,-0.075542584,-0.64699084,-0.16535261,-0.36557522,-0.2997998,-0.28535604,0.77817786,-0.752885
-0.026400173,-0.18041652,0.012605889,0.08083638,-0.25487888,0.009304948,0.06282118,0.18183242,-0.27380002,-0.41150635,-0.033452317,0.0117523465,0.24649969,0.12562391,-0.15544999,-0.42306775,-0.07631826,-0.18700874,-0.3278412,-0.18844272,-0.025161764,-0.0723735,-0.23136279,0.1954765,0.3129541,0.034184065,-0.13736157,0.081467696,-0.00033491204,-0.09663295,0.06855593,-0.05486702,0.12794617,0.10564771,-0.01946694,0.09937818,-0.031142786,0.050888713,-0.022737525,-0.4123543,0.07803323,0.16743805,-0.2226249,0.025048282,-0.38723832,0.0127660725,-0.010245224,0.01530792,-0.2866038,-0.11090064,0.008579614,-0.05189037,0.07499725,-0.07280927,-0.026578264,0.22190326,0.0972943,-0.43176365,0.1909443,-0.21368828,0.024415933,0.029962374,0.06915733,-0.06621987,0.18336602,-0.08598224,0.014481807,-0.07564355,0.07763529,0.1716279,0.13235475,0.09520791,-0.076726,-0.075999886,-0.122546576,0.07940609,0.08812709,-0.076687105,-0.14107665,-0.06438219,-0.04097512,0.005671238,-0.08490041,-0.15248366,-0.13028632,-0.20482521,0.24460943,0.16340098,-0.14486851,0.039820623,0.4365246,-0.20832853,-0.019265087,-0.09241849,-0.07804284,-0.2926089,0.0023666178,0.26753354,0.023477342,-0.20062591,-0.019631825,-0.31633234,0.10067401,-0.30112475,-0.13875833,0.21135248,-0.11246871,0.07717907,0.0029983644,0.022347182,-0.10022769,-0.030781912,-0.07580072,-0.08173977,-0.005405109,-0.32550177,-0.009112234,-0.13829081,-0.2573943,0.009172508,0.098763816,0.019295221,-0.18847676,0.08482141,-0.038068637,0.05074711,-0.16444227,-0.02710972,-0.27607343,-0.14157227,-0.029642543,0.26305634,-0.10503011,0.14927904,-0.07574091,0.018779337,0.06138837,0.13843852,0.29811934,0.096597485,-0.357927,0.1397042,-0.31891552,0.24073151,-0.78673536,0.085548274,-0.4898662,0.76787823,-0.25702384,0.25558642,0.19251753,0.104788385,0.5865608,0.16584206,0.04236407,-0.7323063,0.17603919,-0.14118046,-0.74401253,0.35812673
0.055255394,0.10553835,-0.047642443,-0.041777212,-0.08143504,0.0136552565,-0.052302267,0.053228416,0.12914105,0.50341,0.029770818,0.14602913,-0.0005873916,-0.083690934,0.11191215,0.17063293,-0.09953311,-0.17347555,-0.08086368,0.16405429,-0.10361136,-0.0018068211,0.01631853,-0.06240452,-0.24212907,-0.17032975,0.07340464,0.21645768,0.11159721,-0.11867808,0.05337565,-0.08435835,-0.08438802,-0.011594381,-0.08169474,-0.019441748,-0.031172918,-0.09508148,0.093176596,-0.13138126,-0.1092628,0.14710744,0.10251722,-0.28019744,-0.29447478,-0.3652203,0.2812865,-0.07420425,0.24890006,-0.34433207,-0.041965604,-0.1523933,-0.15264925,0.27795556,0.05147485,0.11411081,-0.00912597,0.24081673,0.0062110443,-0.17509548,0.1043368,0.004898226,0.016711706,0.14404766,0.32657552,-0.002272632,-0.093030505,-0.13464244,0.04602571,-0.08256386,0.069868,-0.12291572,-0.15379643,0.15513903,-0.09110063,-0.10233699,-0.031508762,-0.13873757,0.13416524,0.0570779,0.0015543228,-0.09193517,-0.19946994,0.064542696,-0.055540454,0.009642523,-0.12656727,0.30078706,0.15060285,0.37453672,-0.13945112,-0.21639478,-0.30414125,0.048736442,-0.19815405,-0.039525203,-0.11956417,-0.5124397,0.05911483,0.022284817,-0.124636136,-0.014912875,0.19950229,0.022222854,-0.18249956,0.1702222,0.06766735,0.2306116,0.13985157,0.06143924,0.08324073,0.19213514,0.035002943,0.02656378,0.040302295,-0.36049145,0.19973682,-0.111559056,0.21927051,0.039591122,-0.40149322,0.09692743,0.17645264,-0.10286665,-0.2007224,0.03246431,0.007206096,-0.47820494,-0.028754363,0.03607154,0.07717713,0.22611846,-0.03327728,-0.041236624,0.2921381,0.13276345,0.0662144,0.17284077,0.12990631,-0.07974003,-0.5309698,-0.01218293,-0.22451206,0.2548085,-0.008628464,0.47537425,-1.2233186,1.1262404,-0.027074307,0.59095,0.11702266,-0.1489368,0.47119373,-0.24839713,0.2452414,0.04924944,0.32362714,-0.26583013,-0.3364205,-0.18678805
-0.082323454,0.18144754,-0.0064094397,-0.15087363,-0.07341045,-0.14369965,-0.17470127,-0.032716747,-0.05360185,-0.4620566,0.039439958,-0.18422629,0.16342726,0.16766512,-0.44388422,0.1893833,0.21984772,-0.099464536,0.22940631,-0.0691611,-0.30244148,-0.019345893,0.111293696,-0.14385667,0.02111208,-0.11065572,-0.029468814,-0.034438178,0.05521554,-0.583517,0.0034565458,-0.12913612,0.014132355,0.032986388,-0.05020006,-0.032851703,-0.08735239,-0.05452951,-0.07935582,-0.020125449,-0.087049685,-0.17245857,-0.15949565,-0.09978918,0.15422064,0.20316528,-0.173668,0.20364207,-0.4349024,0.15064292,-0.085078724,0.27430502,-0.10392823,0.049633097,0.06096678,0.037593435,0.23478618,-1.0065591,0.13866808,-0.044433706,-0.059176587,-0.12415091,0.112997495,0.049571645,-0.051415913,-0.0902741,-0.10107342,0.12812363,-0.25752735,-0.36482653,-0.14756732,0.10036392,0.036417194,0.22908206,0.083880745,0.017339425,-0.1228176,-0.12059374,-0.19593515,0.08008824,0.06762938,0.05753875,-0.10702239,-0.05037921,-0.025018139,0.03163909,0.016022172,0.034556918,-0.12246742,-0.23152879,-0.56408596,1.1636888e-05,-0.08457919,-0.31845072,-0.067828715,-0.26658788,0.035455577,-0.05528662,0.1834025,0.027621798,-0.06924628,-0.1631066,-0.18875039,0.070806965,0.25512788,-0.06254322,-0.23382899,0.084058665,0.03705554,0.07007794,0.20076501,0.13200846,0.008617938,0.018029746,0.036972698,-0.28596473,-0.15362667,-0.18731998,-0.040020667,-0.028456528,-0.18134648,-0.09027016,-0.21620141,-0.075701304,0.009764093,0.016638597,0.023191517,-0.006509073,-0.21957222,-0.048268598,0.22627175,-0.37367395,-0.0894579,0.17435898,-0.0021447677,-0.117551275,-0.028446786,-0.5606756,-0.30657184,-0.17641439,0.18640666,0.09895696,0.34971723,0.10148827,-0.16678406,0.2382695,0.015100164,-0.35464025,0.38668188,-0.56057185,-0.32345077,0.14910161,0.09762627,0.23048343,0.3477808,-0.3616639,-0.32417524,0.029924061,0.44449475,-0.2749714
-0.024869608,0.10087624,0.051735334,-0.008329118,-0.0109452475,-0.10098204,-0.1254208,-0.097098626,0.45130938,0.16760166,-0.11397858,0.06523498,-0.05234481,0.48008114,-0.20829591,-0.2660471,-0.40563557,0.06744748,0.03570444,-0.0834059,-0.5326477,-0.42249984,0.24960276,-0.26504478,0.076756135,0.18588866,0.079264686,0.29254258,0.019565152,-0.08702959,0.11096791,0.14763552,-0.42288905,0.020251647,0.2052896,0.2977264,-0.42123204,0.09022191,-0.05463858,-0.34950995,-0.09239798,-0.01399143,-0.25516972,0.120974064,0.06497588,-0.056036886,0.20930262,-0.024558252,0.2712893,-0.30640924,0.054209862,-0.07257352,-0.46151733,0.05834402,-0.54594785,-0.31430107,0.2648374,-0.03565965,-0.048934445,-0.3458237,0.05379184,0.17900199,-0.08565139,0.23713532,0.36314672,-0.17099845,-0.017656114,-0.04619598,-0.21643908,0.17227174,-0.05746312,0.003988155,0.14297909,0.19892707,0.07162948,0.0412557,-0.11568026,-0.15509357,-0.082044326,-0.017941538,0.0021509887,0.10380216,0.021513058,-0.072409146,-0.06922647,-0.7491527,0.11941849,0.08484901,0.048399597,-0.04618788,-0.13808876,0.22913468,0.05889133,-0.09932826,-0.43579343,-0.14380595,-0.37204692,0.13804677,-0.07183413,0.038721297,-0.037208803,-0.22528599,-0.016901942,0.105697006,0.031926453,-0.5146969,0.10414211,-0.060677536,-0.007543552,0.002043324,-0.0394439,0.3240938,-0.19874468,-0.01730044,0.011501269,0.2075657,-0.15862246,0.05512877,-0.09359808,-0.1281868,-0.073558204,0.2110697,-0.08609966,0.035381917,-0.06806536,0.14293428,-0.08541516,0.01860047,-0.1660517,-0.49281445,-0.0399033,0.057186663,-0.17500018,-0.27408957,0.058326796,-0.42146116,0.15763417,0.03159435,-0.13576442,-0.059700176,0.8366113,0.6568676,0.28862134,-0.3317588,0.767287,0.18856113,0.3176258,-0.3537771,-0.019282786,0.6068393,-0.8536176,0.20199998,-0.99876046,0.81592065,-0.57100266,-0.002059584,-0.16122255,0.44585812,-0.74113697,-0.03727037
-0.093620196,-0.0626761,-0.21271753,-0.014157785,-0.11359211,-0.40968633,-0.027688637,-0.027032742,-0.09660876,-0.28142646,-0.0743325,-0.16070437,-0.25261843,0.36118567,-0.1356797,-0.11948648,-0.23045313,0.01664423,0.35908476,-0.41973117,0.18088666,0.01726547,0.25098085,-0.007289731,0.11931057,0.027709162,-0.2060624,0.039023142,0.10420339,0.06350251,0.10121013,0.34190592,-0.1333277,0.054099806,-0.39578727,-0.03781156,0.1303781,-0.12670398,0.055077787,-0.39844167,-0.18585895,-0.0942208,-0.042592287,-0.42185876,0.053816244,-0.13944949,-0.042200737,-0.2414146,-0.100227565,-0.15527506,-0.14018261,-0.09675609,0.040050857,0.2433872,0.03848413,-0.1231887,0.12390352,-0.22150008,0.11416043,-0.4619868,0.083383605,-0.024591576,0.06316912,-0.31476754,-0.00705052,-0.23716436,0.07019285,-0.16884023,0.049361054,0.23349507,0.0842015,-0.17033657,-0.0019234146,0.29678044,0.1829817,0.09313967,-0.09308454,0.32057786,0.04611559,0.11543387,-0.06505965,-0.0018622868,0.027861495,-0.034754124,-0.022780498,-0.21550941,-0.12387824,0.17138587,0.011300653,0.18704453,0.31448403,-0.07282907,0.012790958,0.012016199,-0.065013476,-0.018606832,-0.06281039,-0.094855,0.043788616,-0.056640286,-0.002224235,-0.11061631,0.09962865,-0.07718249,0.1114408,-0.119607165,0.48078912,0.1229915,-0.059626237,-0.15152282,-0.02176922,-0.07632476,-0.14244221,0.17721511,-0.027514884,-0.48991036,0.041155558,-0.10655228,0.04283447,0.11871094,0.1297789,0.05481768,-0.16496913,0.0449509,0.016207218,-0.06808837,0.09326746,-0.1009093,6.419371e-05,-0.034527443,-0.059342302,-0.04131561,0.16706672,0.009525603,-0.043201383,-0.08836164,0.1436061,-0.22521688,-0.09891638,-0.01459295,-0.261385,0.25379333,-0.4772913,0.24904375,-0.41147006,0.059702933,-0.24162705,1.0801926,-0.3249992,0.62970304,-0.057777118,-0.32876647,0.42138776,-0.0077643995,0.098615706,-0.43864423,-0.029612724,-0.22407934,-0.4895528,0.24719934
-0.2003409,-0.5042281,-0.047336303,-0.10867036,0.11522146,0.109035626,-0.22089502,0.042262282,-0.21637592,0.09351362,0.16942288,-0.1307675,0.2665261,0.3679238,-0.29955602,0.20516865,-0.050767444,0.0406525,-0.69205457,-0.46835104,-0.06479614,0.0810925,0.29334363,0.07244415,-0.22747888,-0.23980707,-0.14299375,0.28681555,0.01719786,-0.06922793,0.08481283,0.050921723,0.028519992,-0.0068395096,-0.17981543,0.17814128,0.08034343,0.10644375,-0.040284663,0.12937155,0.05214449,0.15830597,0.111986,-0.29775012,-0.22389214,0.18305658,-0.18139635,-0.19349317,-0.2765153,-0.4820901,-0.010539605,0.076912686,0.18109915,-0.042100247,-0.11044869,-0.1574265,0.10796304,0.08376192,0.031745847,-0.49730796,-0.029706763,0.018418642,-0.21396463,-0.20383099,-0.3559416,-0.36971268,0.029774416,-0.25520203,0.0077574826,0.07589707,-0.34681246,0.15048581,0.02912378,-0.11656594,-0.3670485,-0.22281013,-0.08456548,-0.20362239,-0.12732382,-0.023301177,-0.005496919,-0.021901125,-0.11929701,-0.13734809,0.020905195,0.06507117,-0.27327663,0.107601814,-0.11461498,-0.2694184,-0.064038485,0.104177065,-0.059746113,0.07972283,-0.027650462,0.075790316,-0.32981142,-0.29803333,-0.16696152,-0.12155708,-0.27101785,-0.20437618,0.18026257,0.042772107,-0.070229135,0.19960602,-0.23557144,-0.14365716,-0.14914091,-0.066588596,-0.47536063,-0.14683709,0.05401073,-0.10204806,0.046472292,0.002241276,0.13151358,-0.017057456,0.1284389,0.21161465,0.13462313,0.018705606,-0.30921325,0.104257956,0.19471642,0.112031706,0.07777015,0.011095133,-0.2755729,-0.26753518,-0.17689227,-0.10712557,-0.014562186,-0.10090984,-0.1979438,-0.28358808,-0.11241684,-0.41066948,-0.40907064,0.014062394,-0.07108777,0.30611175,0.2604367,0.11236047,0.22079769,0.24421284,0.19507897,-0.04288624,0.0259578,0.3689001,-0.2120832,0.04041771,-0.093033746,0.12412627,0.056826245,-0.025520181,-0.50891036,0.41361412,-0.6522699,0.27404606
0.25258502,-0.03165847,-0.1546238,0.07142586,0.0608289,0.0032288353,-0.109906234,-0.08434996,0.082427524,-0.1650894,-0.20362803,-0.14433931,-0.17376183,-0.21587834,-0.31425074,-0.42301625,0.028844625,0.01501066,0.42844918,0.118463285,-0.31821743,-0.049264245,-0.37716928,-0.37667713,0.09942076,-0.04119434,0.061286718,0.017445982,0.058833927,-0.047856797,-0.18059354,-0.5326939,0.15185869,-0.061502505,-0.42419243,0.21414585,-0.7543848,0.07761138,0.025448294,-0.24853532,-0.5246524,0.18348752,-0.23087111,0.08162519,-0.13435012,0.0022828921,-0.051658824,0.174986,0.110763036,-0.2884863,-0.095157996,-0.1518183,0.008546008,0.18333872,-0.3170614,-0.045457333,-0.28766903,-0.3755213,-0.0555684,-0.1776195,-0.068080515,0.2766646,0.06374218,-0.4577745,-0.33201614,-0.108335294,-0.056477387,-0.04593477,0.1155622,-0.3258706,-0.17233019,-0.009207167,0.22075446,0.022402477,0.24518274,-0.09482979,0.032546062,0.00014903772,-0.0383379,-0.064674005,0.021714132,0.0776501,0.07006844,-0.089571066,0.06957675,-0.346837,-0.30561602,-0.028698351,-0.41060153,0.15000525,-0.10684766,0.13478084,0.06253872,0.05623766,0.0807654,0.026889632,0.2314673,0.20983708,0.24901368,-0.2429573,-0.04407916,-0.03580624,-0.20977098,0.2513247,0.0982337,-0.40047488,-0.11769221,-0.12625284,0.07082669,-0.56522506,0.1431189,-0.24354544,0.086341515,0.0649951,-0.03511432,-0.020929666,-0.015573549,0.0617574,-0.29346547,0.0637537,-0.034113843,0.24802919,-0.17777336,-0.06981558,-0.12082648,0.037278302,-0.16894901,-0.20108594,0.065996006,-0.6784925,-0.11211382,-0.3571572,-0.038156502,0.2035502,-0.3509582,-0.1678718,0.17238483,0.10052717,0.046240486,-0.068120584,0.27000177,0.16856013,-0.11622354,-1.0859278,0.3040783,0.18585142,0.41746134,0.6260254,-0.5064437,0.3377358,-0.40823945,0.75842565,0.12247002,0.35352916,0.60794115,-0.47618976,0.033940945,0.1322288,-0.89535946,0.20513009
0.11866973,-0.041925687,-0.069948986,-0.18294878,-0.01812014,0.02763277,0.15313956,-0.28466314,-0.22534557,-0.4717048,-0.023078991,0.16190408,0.39839712,-0.394961,-0.28210658,-0.69394207,-0.37978953,0.097232506,-0.1528655,0.12791464,-0.29852423,-0.042764317,-0.14943129,-0.2823626,0.022592725,0.03606259,-0.019895522,0.24589336,-0.37063953,0.10619895,-0.06071343,-0.0014898173,-0.014332633,0.08707898,0.18165542,0.1713138,0.12766385,0.030037118,-0.031761557,-0.00027727155,-0.5401609,-0.1749951,-0.18053365,-0.005479133,-0.2199242,-0.44942662,-0.161063,-0.37988234,0.60690206,-0.016804948,0.07000926,-0.12619619,-0.080368415,-0.120167054,-0.035245527,-0.120658144,-0.036622226,-0.18119283,-0.04182152,0.50517935,-0.27837992,-0.07955601,0.0017027158,-0.45133382,0.25040635,-0.412434,0.07222774,-0.11862532,0.037718404,0.34604707,0.20051844,0.011822429,0.18981989,-0.19937457,-0.22910182,-0.2455211,-0.12159882,-0.1808171,0.10092278,0.05792001,-0.048490625,0.19913402,-0.119079,0.21022275,0.021677146,-0.2535081,0.13877147,-0.06090258,-0.1517168,-0.07164647,-0.20213875,0.035245135,-0.1087259,-0.1499926,-0.38327315,-0.6987036,-0.27020732,-0.2740789,-0.04826551,0.13859376,-0.32326806,0.2554529,-0.10637122,-0.18484068,-0.13068257,0.32606208,-0.09978911,0.3861683,0.07382603,-0.043302152,-0.39044622,0.1574489,0.07380623,-0.038807925,0.07569409,0.21440795,-0.26117104,0.028532006,-0.219474,0.0055047404,-0.48141968,0.059464775,0.22335826,0.035197783,-0.16071995,0.18759504,-0.1007551,-0.23162009,0.29483,-0.47177356,-0.12792556,0.13062987,-0.12672669,0.07744104,0.023501,-0.20814228,0.29187766,0.47116148,-0.47341824,0.054470714,0.0109805,-0.20364466,-0.06821942,0.26159412,-0.43846568,0.09826993,-1.0558952,0.6159213,-0.2387261,-0.7497173,0.13842973,-0.15374579,0.6197306,-0.44362977,0.48773763,-0.19723156,0.0144814355,-0.25352687,-0.94034445,-0.4278598
0.2455436,0.10238405,0.008504802,0.060126428,0.34549698,0.020613916,-0.017207513,0.15112399,0.13376366,0.1695468,-0.080683134,-0.15158464,0.021030689,0.049454458,0.17240012,-0.30734503,0.2010013,0.105264835,0.17265913,0.0071267346,0.01896824,-0.06166495,-0.016538713,0.27302685,-0.088470854,0.05409994,-0.068056405,0.011484066,-0.28287247,-0.016642967,0.030767636,-0.087596014,-0.107394084,0.15736726,-0.04314811,0.29197565,0.030078886,0.031954482,-0.013005617,0.16318749,0.21628548,-0.0022521724,-0.023312286,-0.17409308,-0.11448742,-0.04006707,0.21415283,0.047796085,0.1385474,0.11660524,0.043965925,0.0005380144,0.01451665,-0.044984356,0.0053707897,-0.013052885,0.014278433,0.14415082,-0.042549312,-0.11184623,-0.015252741,0.05198084,-0.050477486,0.12168872,0.16751133,-0.122952335,0.023879698,0.07816309,-0.044433814,0.010819417,-0.12544806,0.16577001,0.21534906,-0.012268287,-0.10115312,-0.03808931,0.07569898,0.07927696,0.13042118,0.0020489793,0.06409219,-0.10546889,-0.046664715,-0.12201422,0.08011795,0.10790684,0.10816445,0.074879445,-0.18913847,0.15070377,-0.005776043,0.049876805,-0.023570696,0.03516142,-0.21284163,-0.03546016,0.083928026,-0.08018172,-0.052790493,0.047639064,-0.011323272,-0.010606974,0.06988585,0.1185936,-0.2066066,0.03628013,0.064178064,-0.10426073,-0.07186795,0.03634689,0.09487417,-0.111530654,0.02543144,0.008724507,0.036274437,0.025091141,0.0022943793,0.034011807,0.14505897,0.072776176,-0.106186666,-0.028133428,-0.242262,-0.008599641,0.06831032,-0.15272163,0.02988224,-0.24389763,0.14309716,-0.028106108,0.023207366,-0.14250137,-0.006831803,-0.091247596,0.18201126,0.085752375,0.12480521,-0.08116305,-0.059073973,0.03524612,0.59904844,-0.13546954,-0.38613358,-0.07257935,-0.6399413,-0.17695114,-0.21794356,0.19824499,0.63832796,0.022513097,0.16759345,-0.061870642,-0.8182722,0.09367464,-0.8236947,0.28974077,-0.036974143,-0.3420341,-0.38049805,-0.22196443
0.099759325,-0.39848447,-0.00816525,-0.17486222,-0.16988494,0.08754551,-0.09746619,-0.2212245,-0.14873265,0.10977552,-0.19094868,0.1861456,-0.05584908,0.4750668,-0.35707515,-0.58450466,-0.8563388,-0.2892733,0.21909583,0.23629071,-0.09266675,-0.10664345,0.16144985,-0.21133238,-0.16308592,-0.1256451,0.19283329,-0.036922928,-0.22578074,-0.013234671,0.07037873,-0.14743765,-0.05410222,0.06478507,0.32416004,-0.06849757,-0.10639286,-0.012080906,-0.45710173,0.43564346,-0.2567556,-0.166725,-0.0146848345,-0.23579569,0.44394523,0.04909321,-0.025848284,0.07608829,-0.087920606,-0.21484227,0.10221283,-0.07093383,-0.052039996,0.052559648,-0.056550834,0.13116543,-0.14436153,-0.07743928,0.119474106,-0.115691185,-0.28126216,0.05585968,-0.048072066,0.47505233,0.3245776,-0.059710953,0.07717398,-0.28813553,-0.4418425,-0.14868256,-0.46675068,0.038980287,-0.0638979,-0.07959807,-0.049981102,-0.03936852,-0.06577713,0.116359815,-0.06252141,-0.26464623,-0.009143199,-0.13849306,-0.13253541,0.03220697,-0.105480075,0.11377965,-0.26750603,0.15396233,0.5820609,0.18793125,0.023197033,0.1743188,-0.2570626,0.09107011,-0.09801579,0.039227556,0.1186022,-0.18844709,-0.30204245,-0.08110484,-0.0069486587,0.123523004,0.219009,0.0053460067,-0.12792465,-0.13767241,-0.53731537,0.14603916,-0.08496937,-0.22534196,-0.03658911,-0.09764324,0.040577862,-0.026374727,-0.10490649,-0.20180179,0.0985843,0.05854289,-0.24214736,-0.1856965,-0.14163767,-0.2321911,-0.4488294,0.022214996,0.07102932,0.07260461,0.21319234,0.37573177,-0.2694871,-0.40717635,-0.052169736,0.059933648,0.14719968,-0.4773652,-0.20988967,-0.044917688,-0.39856896,-0.20688906,0.39327917,-0.02701017,0.14066005,-0.18518274,0.03253967,-0.1674591,4.3891494e-05,-0.2122976,0.16011062,-0.3551198,0.6632595,-0.25869632,0.14409578,0.028532276,-0.5220401,0.0042065764,-0.24827458,-0.16209319,-0.4532767,0.0144927455,-0.22157234,0.069308266
0.030230345,-0.033071596,0.009997456,-0.21652853,-0.16939397,-0.056756288,0.09133387,0.056816194,-0.06320557,-0.021368355,0.05422654,0.03934209,0.035829086,0.24753076,0.11872482,-0.14359431,-0.16085732,0.13229847,0.32002482,-0.23787189,0.038008746,-0.0029149316,-0.1352138,-0.5097168,-0.16606115,-0.11871752,0.08991392,-0.07417874,-0.1703285,0.0784924,0.028689364,-0.039880987,0.0516607,0.1836526,-0.06550254,0.22643952,0.33728987,0.09661318,0.048598662,-0.12223784,-0.13498175,0.10678973,-0.0628169,-0.117367834,-0.45975277,0.050340634,-0.122414805,-0.139867,-0.19471888,-0.36032867,-0.03069514,0.11750427,0.07843317,-0.03276854,-0.07935187,0.09490813,-0.06554114,0.07615527,0.16895139,-0.11705588,0.04888624,-0.14686318,0.066177845,0.12115282,0.07573336,0.04723702,-0.09098537,0.018516876,-0.051026404,0.30518803,-0.04373353,0.09840706,-0.25828597,-0.0129314335,0.005693322,-0.16942865,0.15665965,-0.031397074,0.12649247,-0.18372239,-0.25723502,-0.50191855,-0.13602023,-0.083231285,-0.10151958,-0.03055472,0.043803513,-0.04580931,0.32097834,-0.013304133,-0.13192867,-0.07999991,0.0021036838,-0.28920853,-0.04124898,0.17455612,0.040018227,-0.017122889,-0.0108463485,0.065555595,-0.056624033,-0.11539987,0.020976823,-0.063648954,0.11985871,0.23840567,0.0050347163,0.12113166,0.083373845,0.10241054,0.5050908,0.2581311,-0.08423401,0.23754299,0.025395503,-0.0057217367,-0.34983638,-0.06939237,-0.13186844,0.031749133,0.10779215,-0.1493417,0.22068919,0.011026582,-0.032852825,-0.35340664,-0.069955245,-0.39672253,-0.24240434,0.03962902,0.09844538,0.23706032,-0.054078825,-0.03686941,-0.046377447,0.19749115,0.015026674,0.0048082387,0.012370126,-0.005435924,0.4642453,0.094542116,0.22535925,-0.16487637,0.58934367,-0.3907795,-0.37860405,-0.3152365,-0.43997693,0.20253481,0.03217389,0.023220034,-0.07355267,0.038598184,0.37890476,0.042461205,-0.11471113,-0.2604303,-0.33821648,-0.19376004
0.11972095,0.08024249,-0.012567335,-0.16921808,0.22378197,0.012332198,0.26689675,-0.19033928,0.12669843,-0.27922052,0.11187976,0.006335177,-0.007851444,-0.26337478,-0.15240724,0.037359435,0.010243075,0.0630146,0.3638084,0.30920413,-0.359235,-0.22983308,0.31353244,0.060161337,0.03303057,0.06676454,0.059873942,0.019636601,0.04955018,0.09146358,0.0076299147,0.14675868,0.04397033,-0.09723993,-0.23101419,0.10331198,-0.04098568,0.014842092,0.072402,-0.28472814,0.071009316,0.15686888,-0.3070866,-0.012269015,0.07874518,0.13488814,-0.34221813,0.034435373,0.008023679,-0.07796045,-0.04656437,0.2646015,-0.018957622,-0.012124579,0.03792346,0.26977658,0.0016662679,-0.44044602,-0.059693143,0.16622685,-0.09054356,-0.1182781,-0.037926305,0.08319682,-0.072068505,0.056642316,-0.015748423,0.05967966,-0.23930989,-0.2131482,0.020873316,0.002897966,0.017038168,0.10513011,0.14377117,0.12644975,-0.10515989,0.045688957,-0.20897046,0.02111727,0.035428267,0.21211238,-0.09979705,0.16481103,-0.036395688,0.030514201,0.09228883,-0.0046289093,0.06118394,-0.10342288,0.22397391,0.215015,-0.014086387,-0.01547836,0.04783181,0.019547997,-0.026688224,-0.006880605,-0.018041322,-0.026230428,0.044806544,-0.1670253,-0.028548824,0.0022525766,0.18836176,-0.24147244,-0.17329864,-0.09765732,0.02423892,0.022673922,-0.11299236,0.3431522,-0.10986021,-0.12607864,-0.108558446,-0.02865857,-0.26941925,0.027208332,0.0740317,-0.015192716,0.30002818,0.0818985,-0.18491068,-0.113227084,0.048073094,0.108304806,0.017615903,0.47874144,-0.08964841,0.023449944,0.022813687,-0.2128779,-0.00454965,0.20089012,-0.050140887,-0.20920122,0.0055588204,-0.004180801,-0.367972,-0.048517633,0.12988675,-0.1651995,0.35730502,-0.053086367,0.29931027,-0.34817246,0.6974948,-0.92010295,0.05189664,-0.43319145,-0.023162184,0.31235886,-0.17074282,0.16762578,0.25140077,-0.32330322,-0.6751876,0.24488819,0.44423154,-0.2681854
-0.035361767,0.09489494,-0.0221395,-0.23457843,-0.35727102,0.08194114,0.13749564,-0.28801858,-0.24360232,-0.029664423,-0.16281,-0.21110249,0.107012436,-0.54805076,0.3125317,-0.019629108,-0.073926054,0.034157675,-0.17982982,0.068556026,-0.12152746,0.095920645,-0.06906046,-0.09269008,-0.00027128131,0.008440609,0.1828197,-0.087276004,0.031431492,0.007992801,-0.071257286,-0.10021817,-0.08327023,-0.19350304,0.34809515,-0.107582904,-0.08821938,-0.032194708,-0.1626551,0.13536982,0.16476336,-0.2171472,-0.16172603,0.24086557,0.06261651,0.09586596,0.0135495765,0.35700822,0.020483866,-0.26675242,-0.18430805,-0.18001297,-0.0007822065,-0.10164318,0.046936173,-0.6828856,-0.13255519,-0.31843022,-0.2665269,0.10884703,-0.04318571,0.20224327,0.18092696,0.12327085,-0.0027338506,-0.103822306,0.06070473,0.060933147,0.07364486,0.20368929,-0.079899415,-0.16166599,0.23344104,0.6526719,0.017099023,-0.03534717,-0.15013021,-0.08931512,0.004282033,0.00077086606,-0.009366108,-0.20411128,0.037115827,0.1051223,-0.038223013,0.012497752,-0.05557231,-0.017466644,0.3716185,0.09612141,-0.13806142,0.057311423,-0.35160044,-0.20655562,-0.29310915,-0.17351411,0.18618216,-0.2699544,-0.07554806,0.19048701,-0.1487052,0.06789363,0.04311608,0.16841014,-0.35167432,0.016564742,-0.17099431,-0.2783063,0.090457685,0.1473985,0.083041236,-0.21773443,0.008771613,-0.043683045,0.06529093,-0.07392843,-0.22731298,0.047684804,-0.16799924,-0.09053102,0.3201392,-0.14849488,0.004387016,-0.10380325,0.046558026,-0.19712497,-0.15650389,-0.020351695,-0.018782858,-0.009718977,-0.108804494,0.09769877,-0.41123354,0.06843527,0.13203749,-0.04023007,-0.27410585,-0.70630264,-0.2609758,-0.051924378,-0.039802507,0.067347676,-0.26511732,0.48570174,-0.13188648,0.29190046,-0.4914092,-0.14347911,0.21594372,0.3646357,-0.27478236,-0.08925363,0.3121947,0.018436683,-0.0572104,0.53148955,-0.57678896,-0.21940835,-0.20231824,-0.12768756
0.1947664,-0.19373962,0.11003891,-0.101918675,0.07125281,0.030037561,0.086395495,-0.501253,0.28806564,0.24608605,0.015788034,0.6182795,0.14159141,-0.03209182,-0.0027863996,0.14659196,-0.16532177,-0.015014313,-0.0073256916,-0.2082818,-0.29821306,-0.2530292,-0.072617024,-0.07632425,0.049871724,0.047952496,0.014097012,-0.19541244,-0.049384773,-0.23853163,-0.15734254,0.24070957,-0.08484009,-0.016349401,-0.09513802,-0.37298036,-0.0887154,-0.050722856,0.04110257,-0.05906671,0.31796363,-0.10617887,-0.44901007,0.15993729,-0.028890377,0.045859408,0.008217887,0.04007516,0.18901667,-0.11742379,0.12387334,0.015700562,-0.058468387,0.039506674,0.10310027,-0.2615095,-0.20031585,-0.050230395,-0.025429038,-0.3824359,-0.06280694,-0.10585433,-0.14355022,0.2593778,0.086249426,-0.020068863,-0.0038557665,-0.047267064,-0.2734249,0.3990834,-0.102957815,0.0363431,-0.16237986,-0.056858327,0.18432504,0.011181205,-0.061251804,-0.0010991439,0.017027676,-0.07104231,-0.07876845,-0.022297405,-0.08939806,-0.006205384,0.059787817,0.13015263,0.09400546,0.049048785,-0.32550257,-0.15590172,-0.39535683,-0.26096886,-0.10180026,-0.07952942,0.050701182,-0.30277342,0.09972523,-0.12342663,-0.19429654,-0.22156289,-0.16637114,-0.39217043,0.15926409,-0.07096585,-0.17189693,-0.36927137,-0.17457348,-0.07044022,-0.08972497,-0.26125702,-0.18879478,-0.25887892,0.027834328,-0.12800536,0.10318334,0.1308316,0.08372969,0.08605798,-0.09295989,-0.2664352,-0.20388694,0.055963263,0.07462537,0.06530197,-0.08021132,0.13807438,-0.0168322,-0.00092185475,-0.20499612,-0.0813365,-0.08500189,0.24592535,-0.3188521,-0.48304996,-0.09901905,-0.269258,0.047394823,0.33525878,0.06998213,0.014478222,0.86438864,0.17698532,-0.18190975,-0.0529477,0.08371682,0.4553676,0.2111314,0.2882327,-0.8406978,-0.53453904,-0.77765095,0.4108754,-0.40355548,0.48963553,-0.16335347,0.26314425,0.44050425,0.1342798,0.41747662,-0.21466571
-0.01773618,-0.073831886,-0.06861641,-0.48085693,0.34865376,-0.003718381,-0.04194558,-0.06001175,-0.10273062,0.012969142,-0.019781856,0.19676964,0.13712509,0.081289545,-0.12983695,-0.6452826,0.27825087,-0.21374255,0.3110881,0.033135697,-0.06516815,-0.31678322,0.10213839,0.12990913,0.04240276,-0.1193472,-0.0091444915,-0.5534659,-0.17057756,0.2563756,-0.38182962,-0.5292325,0.014344526,-0.36054087,-0.72448987,-0.37258115,0.29406622,0.06575936,-0.123398304,-0.07720964,-0.1962778,-0.03826604,-0.5381645,0.04339938,0.077318005,-0.08998396,-0.25231263,0.016158666,-0.22689652,0.3896706,0.11342844,-0.1038779,-0.40643835,0.034143966,0.029048897,-0.36695993,-0.34407723,-0.16618925,-0.29683012,-0.46530655,0.001933778,-0.11228698,0.11921161,-0.085247464,-0.30098295,0.05103482,-0.10252243,0.15248597,-0.2270339,-0.29157242,0.037474655,-0.08409253,-0.26637965,0.5685991,-0.09160767,0.035426486,-0.02753821,-0.4501282,0.1491618,-0.021395037,-0.09858247,-0.040005337,-0.18934871,-0.05924456,-0.5210029,-0.2929717,0.01728608,-0.0016598254,0.2032409,-0.176954,-0.004525619,-0.0637936,-0.38088647,-0.015195904,0.36990362,0.56463957,0.22527161,0.64559984,-0.13040718,0.009755741,-0.09656499,0.0059048436,0.04471024,-0.06388515,0.027917724,0.09959873,0.36932993,-0.27317685,0.102514215,0.25157943,-0.40243718,0.22059283,0.06966899,-0.4335612,-0.0007482658,-0.2260688,0.668619,0.043533485,0.18368135,-0.1296066,-0.24219489,-0.47294915,0.09440389,0.08212454,0.0057390337,0.07698669,0.01804267,-0.28374478,-0.17829198,-0.22192869,-0.29311547,0.17945644,-0.15991336,0.42236462,-0.36701494,-0.012947906,-0.15107986,-0.41642544,0.21626012,0.083192475,0.6868355,0.35075867,-0.2696453,-0.024385134,0.2053066,0.25974765,0.39300743,-0.060077287,0.1244617,0.5745176,-0.2441171,0.5891188,-0.2013322,0.3321056,0.40483978,-0.25020835,0.11903357,0.46051815,-0.3490384,0.33848596
0.07333723,-0.029625941,-0.24760321,-0.31023043,-0.57613426,-0.0473456,-0.15123703,-0.15535513,-0.13966528,-0.26053494,-0.06919387,-0.2716576,-0.18662404,-0.37459183,0.15774035,-0.4377033,0.4595521,-0.11044729,-0.1194738,0.26881853,0.264846,0.050089113,0.0706994,0.022231879,0.053026654,0.14424016,-3.6624155e-05,0.12385845,0.0765244,0.122452855,0.027743151,-0.43716255,0.010060512,0.3097395,0.123269856,-0.040762585,0.07825287,0.047098808,-0.122886084,0.00041715632,0.26045328,-0.06320823,0.039853606,-0.4279774,0.19989751,0.0493877,-0.35692143,-0.12943864,0.32366028,0.22035906,-0.010685097,-0.061036542,-0.105208464,0.24429709,0.05540592,-0.31865317,-0.42671543,-0.030426195,-0.072153136,-0.0026483352,0.011654834,0.044139586,-0.124835625,0.2650375,0.06017944,0.18486468,0.047468908,0.013715206,0.16881436,-0.007200534,-0.025699925,0.09443199,-0.27638206,0.3225597,-0.12350151,0.21095814,0.21317604,0.21714263,-0.22372599,-0.020316197,0.11546119,-0.046348214,-0.0882207,0.035803966,-0.004138111,0.057128478,-0.032240294,0.12456875,-0.015951635,-0.06131211,-0.3218196,-0.21178675,0.042419236,0.098295785,-0.09131815,-0.10313187,0.15489687,-0.6293942,0.07163774,0.06945893,-0.08479205,-0.23309998,-0.16211422,-0.19207206,-0.009290146,-0.23256598,0.1617316,-0.005169349,0.043389708,0.28195098,0.056663305,0.07403143,0.015969865,-0.15754417,-0.09157579,-0.1322494,-0.120341934,-0.0040810117,-0.22445747,-0.253213,-0.29047844,-0.14957619,-0.20663294,0.009787288,-0.08134048,-0.22386813,-0.0013343504,0.061036892,0.00406855,-0.013007356,-0.02823315,0.11569518,0.045035716,-0.2152929,0.093192756,0.14753552,0.08376609,0.113253206,0.051216766,-0.11966745,-0.08946523,-0.09896262,-0.3669072,-0.27416146,-0.17146403,0.021622488,-0.21882361,0.2856736,0.05772011,-0.094764866,-0.36631986,0.08182334,0.19186416,-0.28965512,-0.2748614,0.35232627,0.538393,-0.09554532,-0.6201501,-0.050839324
0.15190643,0.009172036,0.0113066025,-0.15528996,0.0044213133,-0.012511404,0.14098588,-0.048505124,-0.004368673,-0.06540534,-0.09248804,0.25147182,0.13784634,0.058607604,-0.25400043,-0.17365047,-0.1888126,0.11229864,-0.39257616,-0.04681163,-0.10177261,-0.014592038,0.119682066,0.08971061,-0.060765773,0.10465115,0.08656439,-0.2087475,0.038160928,-0.04241556,0.02364023,-0.029185198,0.07831084,-0.037903592,-0.21303123,-0.07582455,0.087931044,-0.12600575,0.04171589,-0.34365985,-0.06066129,-0.16194281,-0.017349394,-0.08620594,-0.068675466,0.107086696,-0.013768933,0.033414416,-0.17253405,0.1813872,0.11668105,0.009411607,-0.08845021,-0.18871202,0.08907409,0.029706055,0.1617856,-0.23993413,-0.3076493,0.15919055,-0.0072837854,0.13740768,-0.2886216,0.06362814,-0.30143884,0.06602977,0.005293802,0.035792455,-0.29997802,-0.24463871,0.11475542,-0.1996464,-0.04828278,0.14212318,0.1656386,0.020370346,0.04090281,-0.24281769,-0.3569594,0.07834381,0.00081676326,-0.13282523,-0.08223643,-0.0011668404,-0.054652687,0.07658359,-0.11216797,-0.37923554,0.38692617,0.0027654204,-0.107190356,0.12451699,0.10634167,-0.13172452,0.023140335,-0.18805611,-0.0694758,0.21268424,0.028923389,0.009430578,-0.35838163,-0.14631367,-0.04506366,-0.14793704,0.13689451,-0.30583543,0.13745779,-0.110937476,-0.066033214,0.039591547,-0.1227609,-0.04401977,-0.062057897,-0.07590826,0.020282323,0.4069174,-0.10208993,-0.0703371,-0.102416456,0.118761115,-0.19110985,-0.09203756,0.061879463,-0.013246047,-0.095450744,0.18547162,0.05753871,0.3349443,-0.095742285,0.024011882,0.026530607,-0.14403982,0.05553378,-0.01499188,0.08825442,-0.036621764,-0.0004573942,-0.120019294,-0.45444894,-0.09811221,0.31072393,-0.14572163,0.22677913,0.22314432,0.1514321,-0.08415,0.103343934,-0.58383524,-0.09990719,0.08524877,-0.052325554,0.04844524,-0.05615963,0.29596505,-0.08726068,0.089017145,0.24205567,0.07493115,0.57280385,-0.33966383
-0.051751785,0.14285888,-0.15725958,0.21355844,-0.3803092,-0.017397117,-0.11447264,0.0066247075,0.18339859,0.27341655,-0.07191224,-0.16219835,0.32464072,0.5454536,-0.2645832,-0.48880184,-0.2598551,0.13399489,0.084119536,-0.14658572,0.24945503,0.0749964,0.11928397,0.22145054,-0.0002714227,-0.2906141,0.0636557,-0.35263166,-0.5708361,0.24721844,0.050592475,-0.14753912,-0.22308613,0.2749892,0.24884814,0.4798017,0.21958137,-0.08267217,0.11283184,0.17451917,0.07676877,0.18478495,0.25609148,0.009781249,-0.09480021,-0.02705574,0.057060212,0.008516524,-0.07128205,0.21010853,-0.008564772,-0.037779808,0.020590285,-0.0078897765,-0.22465597,-0.10293228,0.05224868,0.36856338,-0.118652865,0.14805973,0.11568816,-0.06095829,-0.26177898,0.050696228,-0.20928551,-0.49177596,-0.023962256,0.12459167,0.16714628,-0.14819035,0.31436747,0.106172316,0.13951829,-0.008466947,-0.04184481,0.07633345,-0.12262031,-0.14646327,-0.0057723243,-0.035525337,0.0071502607,0.09335575,0.01605464,-0.052598093,-0.061276656,-0.07039095,0.14698373,-0.038787205,0.076923765,-0.26709267,0.1722184,0.04949235,-0.20150335,0.043830216,-0.29482865,0.17264,-0.13901778,0.12330581,-0.20149052,-0.10360169,0.04627467,0.021224653,0.0562955,-0.029933782,-0.25321513,-0.7592381,-0.046892315,0.13179871,0.025869725,-0.05474076,-0.37456325,0.05857586,-0.0055053364,0.08765548,0.02429771,0.08848144,0.3969748,-0.05044322,0.06961431,-0.20890568,-0.44599393,0.47299927,0.16395175,0.080521785,-0.30585998,-0.11226114,0.09139219,-0.20046686,-0.23296796,-0.3798398,-0.14627507,-0.5522724,-0.15096627,-0.276878,-0.034912962,-0.03038159,0.112986445,0.07614852,-0.005472,0.013628784,0.7203484,0.20070331,0.05256373,-0.8213821,0.49607378,0.052855022,0.23888053,0.5183789,-0.017020585,-0.017634828,-0.052689105,0.02050602,-0.76031286,0.18807185,0.10176181,-0.26436123,-0.32061195,-0.031627268,-0.6217812,0.4107687
0.034860313,0.07127669,-0.097896226,0.18908288,0.059789997,0.11184296,0.06475184,-0.016710443,0.1252452,0.021726303,0.06716904,-0.048113894,0.20126985,0.17172568,0.2844304,-0.30096072,-0.27430716,0.11826325,-0.056964997,-0.023203477,0.07985517,-0.07549223,-0.063327335,-0.061941665,-0.13350387,-0.11966216,0.061811022,-0.36043742,-0.034050662,-0.22424369,0.088539965,-0.054127302,-0.030198706,-0.17928506,-0.2044655,-0.28621623,0.043799307,0.06205057,0.10292544,-0.094621494,0.003102123,0.053810436,0.089398116,0.10044172,0.16347167,-0.052393094,0.10049539,0.24479648,-0.2587333,-0.017656667,0.06405377,-0.019909875,0.11265366,-0.39801618,-0.12759195,0.060884587,0.14456144,0.030027451,-0.070510566,-0.35729122,0.055335227,-0.10464825,0.03968961,-0.12904514,-0.20793818,-0.097911105,-0.1081376,-0.116771095,0.017840607,0.08245041,-0.027773315,-0.029214203,0.3240696,-0.3222813,0.10236115,0.03182989,-0.011557834,0.09009725,0.090710685,-0.02352145,-0.5558996,-0.21429302,-0.08875395,-0.17350718,-0.14005823,0.060736686,0.011719047,0.03944569,-0.16521776,-0.019708507,-0.4472608,0.17998053,0.08836558,-0.113007,0.066927664,-0.09069402,-0.04742395,-0.3383641,0.089341536,-0.29243523,-0.023865601,0.13064283,0.07399183,-0.13453051,-0.32108817,-0.12111902,0.008031364,-0.025404869,0.030335097,-0.2538369,0.3221463,-0.08101328,0.006764599,-0.17203999,-0.02178419,0.14019752,-0.20119128,-0.45798698,0.00886598,0.08816152,-0.17335963,-0.34184623,-0.17081805,-0.15632306,0.17786029,0.25346848,-0.005847004,-0.32623252,-0.0011695406,0.13805167,-0.022751944,0.051173944,0.17027533,-0.0047032516,-0.049714673,0.054571673,0.06901461,0.19800712,-0.00502935,-0.24288625,-0.61788315,-0.0021391814,-0.027579349,0.08173614,-0.21642293,0.0565122,-0.016553462,0.44712812,0.047026332,-0.06119267,-0.15752327,0.3274765,0.2635241,-0.4363373,0.11892235,0.048786096,-0.18596047,-0.0020743823,-0.2684472,0.14240585
0.3483297,-0.43521532,-0.14927089,0.09591985,0.22697541,-0.17952627,0.08529713,0.11943708,-0.22750302,0.016361538,0.05005812,0.31526968,-0.3867274,-0.62651974,0.06337978,0.24625589,-0.044484098,-0.095482334,0.008901641,-0.2021537,-0.36627948,-0.082571976,-0.091023825,0.019578135,-0.03323996,0.2333224,-0.059310447,-0.3688706,-0.09739248,-0.16075942,0.03422101,-0.27277678,-0.062460497,-0.11331039,-0.11510415,0.2835324,-0.09587226,0.09308285,-0.21356198,0.10709226,0.049656212,0.13029301,-0.09113512,-0.028285727,-0.45227298,-0.13086616,0.32423383,0.20804136,-0.13080028,-0.041591458,0.056110438,0.103862196,-0.30218714,-0.086273625,0.022976456,-0.4483991,0.2919441,-0.17260335,-0.28748235,-0.027956693,0.12468289,-0.4838967,0.0073802145,-0.42139107,0.008902959,0.013434622,-0.085868835,-0.24914463,-0.1775526,-0.1063932,-0.11072358,-0.018660882,0.2924909,0.029250463,-0.11198184,-0.05004907,0.14004494,-0.35440338,0.011998658,0.06448209,-0.0024966164,0.2359083,-0.023415267,0.1828203,0.057399116,-0.11436514,0.21800078,0.063061565,-0.03394012,0.10995052,-0.17955817,-0.4482085,-0.035919767,0.14786036,-0.006557945,-0.2632831,-0.08722334,-0.571574,-0.063818604,0.11825594,0.00045816664,-0.022792218,0.1534429,-0.22119085,0.1303952,-0.13811184,0.14637604,-0.18488859,-0.07294488,0.386639,-0.29933378,0.20344293,-0.37065855,0.1289009,0.078347914,0.17874001,-0.029685218,0.06471342,0.13848747,0.16640112,-0.18865757,0.23692417,0.22151336,-0.048797045,-0.14098628,0.13382475,-0.059512563,-0.124914885,-0.04531003,-0.12982398,0.0224935,-0.02706562,-0.1170233,0.10204165,-0.21737088,-0.08284971,0.017828077,-0.02581059,-0.25971276,-0.10813986,0.16123623,-0.5792504,0.34696427,0.4975161,-0.37322584,0.08066748,-0.06758888,-0.6980788,-0.02364547,-0.7707813,-0.098445095,-0.34881222,-0.509634,-0.10608978,-0.12856905,0.08147661,-0.04404187,0.123297326,1.0485038,-0.9363686
-0.009927662,-0.12695113,-0.21462722,-0.16729948,0.11229397,0.06699029,0.18564045,0.101435356,-0.077627845,0.32176805,0.08118352,-0.0061759637,0.13277252,0.12541449,0.15717517,-0.12012786,-0.042130712,0.09781839,0.28471893,-0.2430063,-0.004159775,0.0029714173,0.09595191,-0.04239761,0.043106176,0.01863325,-0.20049646,0.10852659,0.061939776,-0.12054118,-0.048911005,-0.039060276,0.07062853,-0.079395294,-0.201366,-0.009640351,-0.058715686,0.00034056132,-0.1263303,-0.11688765,-0.059906058,-0.25823066,0.080996536,-0.45224926,-0.07948584,0.068718925,0.019462526,0.03292816,0.19793987,-0.13184866,0.064876355,-0.06673783,-0.04874834,-0.10461389,-0.02086645,-0.1525093,0.23040387,-0.32585317,-0.025244888,0.06285744,-0.0006331617,0.034637783,0.02975837,0.11480237,0.08798031,0.056521423,-0.0015790809,0.082674846,-0.024281295,-0.1012976,-0.006798371,0.07230996,0.13464682,-0.042241007,-0.02548257,-0.032239527,-0.026868612,-0.19948089,-0.0069524236,-0.12251662,-0.07864433,-0.058016744,0.009816618,0.13022678,0.042830784,-0.02902317,-0.17321168,-0.040845226,0.093506485,-0.0030013581,0.058718402,0.033835657,0.119192556,-0.057337224,0.03489722,-0.15111537,0.039853945,-0.04647773,0.08267945,0.017524797,0.09117576,0.12087173,0.06421932,-0.15138474,0.05291605,-0.4154959,-0.14216273,0.096240915,0.05446175,0.03220129,0.38600457,0.11061822,-0.03810539,0.09395688,0.0381517,0.3040667,0.110297225,0.0024879957,-0.015046974,0.025260516,-0.30086607,0.09072889,0.042905077,-0.105318435,-0.092446886,0.0044420594,-0.0065821107,-0.015544943,0.21500693,0.036576036,0.0011313644,-0.40701202,-0.13402951,0.019963544,0.02906111,-0.111243546,0.048655786,-0.055934913,-0.374406,-0.0089806495,0.8239277,0.2001656,-0.27082688,-0.20099474,-0.3391099,-0.3592512,-0.21403493,-0.128575,0.008226921,0.07059946,-0.043128643,0.09194446,-0.98475915,-0.21004145,-0.37788245,-0.06636116,-0.6330314,-0.29088902,-0.3499908,-0.63182265
0.14169103,-0.022642469,-0.036417976,-0.22406398,0.010758879,0.11676755,-0.42679095,-0.4171145,0.13360079,0.09934236,0.07803657,0.17790456,0.11903693,0.17850274,0.463214,-0.6091066,-0.025535194,0.09376795,-0.4638607,-0.18913284,-0.40492892,-0.20061855,-0.06490325,-0.17182195,-0.18470871,0.150585,0.13082746,-0.16222207,0.059990413,0.13903032,0.03782567,-0.04420341,-0.017256076,0.055766698,-0.23823309,-0.21250165,-0.06653871,-0.07018638,-0.010659218,-0.108971365,-0.20498411,0.15213147,-0.77294624,-0.12666966,0.16570976,0.01381024,0.13324346,0.04850225,-0.098804474,0.01598209,-0.016651098,-0.038529858,-0.36557573,0.050085872,-0.0023446346,-0.5826418,-0.119508475,-0.18083827,0.12618728,-0.118365645,-0.066169545,0.26695088,-0.22658901,-0.051272545,-0.15097885,-0.041213732,-0.03687701,0.047437023,-0.43015653,0.1221348,-0.12491957,0.03267307,-0.014210793,-0.2735575,0.08580565,-0.050708476,-0.061600387,0.13213146,0.04274602,-0.18618882,0.092162915,-0.12726417,0.009898114,0.010770628,-0.63068575,0.101077445,0.046517566,0.20760405,0.28047743,0.17849302,-0.32095954,0.11148921,-0.29842862,0.07174246,0.24863383,-0.11571345,-0.27462196,-0.0051627164,-0.12993209,-0.16763365,0.11783263,-0.7973566,0.034553997,-0.021057354,-0.3463435,-0.3092849,-0.17747208,0.11575901,0.031105833,0.096486695,-0.079794616,-0.39105058,-0.015481655,-0.12164726,0.0138036,0.124065384,0.36072248,0.008585579,0.12270184,-0.0066083316,-0.13626744,0.1672966,0.16522093,0.0799838,0.13127178,0.01556255,0.07247594,0.1893343,0.21743314,-0.014258286,-0.1882907,-0.17183186,-0.18478169,-0.07090385,0.17668077,0.10725302,-0.058477826,0.008270516,-0.27042747,0.052885573,0.7723923,0.09160836,0.25182062,-0.017886948,0.52898,0.33973226,0.48793817,-0.40673032,-0.9025588,0.0490727,0.025109388,-0.039594036,-0.82922953,0.34841374,-0.83501667,0.26651603,0.45584148,0.41915745,-0.18810059,-0.69084173
0.0029315937,0.20418909,-0.11392473,-0.048653435,-0.075743474,0.02150575,0.028941065,0.16490477,-0.044436768,0.47938526,0.041880723,-0.49678576,0.14487702,-0.27817023,0.099730626,0.2223363,0.11651623,-0.053339686,-0.4114619,-0.015115973,-0.057563983,0.13950287,-0.121137045,0.11634671,-0.033936977,0.040571023,0.02768319,-0.12849861,-0.067095704,-0.26707068,-0.04093684,-0.017164871,-0.061435573,-0.13063104,-0.11688851,0.052317236,-0.16722082,-0.13928957,-0.059786245,-0.16791557,0.010084159,0.09457631,0.10556,-0.14037743,-0.30513287,0.10758935,0.08759396,0.037545342,-0.262785,-0.23452912,0.012232204,-0.15347412,0.005619274,-0.002104984,-0.0024985722,-0.114925124,0.15816689,0.3231341,0.095716834,-0.3649105,0.019607106,0.107568845,-0.011239329,0.06552329,0.16145049,-0.12719467,0.008383704,-0.16092423,-0.052664164,0.19766441,0.12883745,0.07558874,0.11747302,-0.25951666,-0.09201097,0.059352238,0.119614735,0.26208213,0.021548942,0.088966645,-0.08282455,0.08600981,0.014076914,-0.025026992,-0.011226484,0.09250083,-0.3449411,0.054808557,-0.23380044,-0.10494709,0.07359004,0.10040281,0.10171022,0.10884312,0.12625776,0.020991988,-0.051354133,0.0028149965,-0.078871846,0.15590763,-0.0030653018,0.18956827,-0.021125682,0.09577031,-0.032444376,-0.01014484,0.06219925,0.13340093,0.05725027,-0.15473022,0.31371066,-0.426262,-0.113524474,-0.028472088,-0.051653117,-0.014566593,-0.17039448,-0.009157791,0.43803746,0.093409576,-0.31591853,-0.18199442,-0.03872359,0.045851044,0.1232476,0.028478542,0.01894282,-0.35457984,0.0063187717,-0.046503708,-0.053532783,-0.42412493,0.042928457,-0.076507635,-0.2643273,0.11579765,-0.041985158,-0.064744994,0.035372462,-0.10682054,0.22088626,0.25703928,0.30229455,-0.07914189,-0.69906425,-0.09233481,-0.17036843,-0.47986868,0.1588602,0.44093895,0.3232243,-6.1400446e-05,-0.17174615,-0.024765316,-0.20625667,0.42459404,-0.080490105,0.5119504,0.33295968,0.055912163
0.014564218,-0.035264783,-0.015710304,-0.03825893,0.06362584,-0.07493238,-0.003686523,0.09453304,-0.098694056,-0.18527867,-0.075206734,0.042955007,0.0039238543,-0.13044241,-0.21612516,0.25325152,-0.035604876,0.025163438,0.026901307,-0.02499034,0.03695766,0.10368253,0.059387702,-0.03275602,0.007549156,0.03255539,0.110362016,-0.112651825,0.0963137,0.0507375,0.0040445826,0.0017846549,-0.06612124,0.07160168,0.1980192,0.012559236,-0.08074702,0.06090167,-0.029493723,0.13409953,-0.045625214,-0.054108083,0.12442154,0.065554075,0.109209634,0.09470793,0.02236957,-0.014654229,0.18330352,0.12517698,-0.03983874,0.024100678,0.014234369,0.16582656,0.082036324,0.22282298,-0.058212772,0.17071623,0.0033941783,-0.06441318,0.05815052,0.12552123,0.13186918,0.07194914,0.07921555,0.020721767,0.08301125,0.10015134,0.15801649,0.17305647,0.06654459,0.059380777,0.046918407,0.028116606,-0.22454323,0.03229739,0.059613235,0.14469905,-0.082295984,-0.012821696,-0.036829457,0.069552116,-0.036709778,-0.031394128,0.080261804,-0.0017083744,-0.02602079,0.07373517,0.008996479,0.037323892,-0.018524151,0.048970044,-0.009097413,0.074680984,0.028940402,0.1420708,0.10689606,0.005718197,0.08422581,0.10065639,0.13023287,0.030409968,0.04172064,0.09555061,0.023754349,0.18122737,0.22177705,0.06992955,0.050250396,0.019281032,0.047167517,0.097112015,0.018038452,0.1585501,0.07867966,0.01905583,-0.0012985806,-0.062719114,-0.062789,0.073415875,-0.007496061,0.02725516,0.12222529,-0.015202741,-0.027152978,-0.04813023,-0.098008744,-0.08826222,-0.08623743,0.025709186,0.01400281,0.0836776,0.062204104,0.021486504,0.114879675,-0.016064351,-0.035615526,0.044289894,0.1655855,0.061652705,-0.041456677,0.19863547,-0.50130445,0.16710651,-0.47174722,-0.052118912,-0.36971626,0.2539148,0.05015555,-0.05831984,-0.13235408,-0.024890821,0.16366741,-0.23499602,-0.483108,0.22678931,-0.043305848,-0.43867442,0.095244616,-0.0737454
0.038540114,0.3266999,-0.03436067,-0.06732272,0.16717468,-0.052581046,0.06763195,-0.071020365,-0.24309403,-0.34067333,0.022252081,-0.04716666,0.15706454,0.027341928,-0.2480587,-0.16893138,-0.043640494,-0.017390365,-0.09308114,-0.29228458,0.1329443,-0.01878493,0.11139068,-0.36447942,-0.18041283,-0.11850413,0.13529687,-0.057399195,-0.50888276,0.10242449,-0.012282943,-0.20712794,-0.029555732,0.1529899,0.15764832,-0.17732461,-0.4468749,0.11413843,0.011857642,-0.057254598,-0.1305073,-0.031258598,0.28949645,0.17055961,-0.014218388,-0.02665752,0.13691308,-0.06980561,0.1625873,0.12235603,0.009985341,0.044605024,-0.20759524,-0.010085742,0.007885833,-0.2716457,-0.016810525,0.2378175,0.11365305,0.24849518,-0.059745975,0.0072620856,-0.12249393,0.1788848,-0.21400717,-0.22117965,0.061002374,-0.0940574,-0.007828489,0.19118875,-0.17922556,-0.03589737,-0.12579057,0.22949214,0.20935194,-0.026711991,-0.02171656,0.11340333,-0.063945234,-0.025991423,-0.1699639,0.11528289,0.066862315,0.034851402,0.061463024,-0.0055038473,-0.21176624,-0.1600597,-0.060256183,-0.06943093,-0.14362797,-0.15758021,-0.14741966,0.09185251,-0.07789008,0.12569357,-0.013130426,-0.033845205,-0.00813542,-0.17478691,-0.057346087,0.07970546,0.0143661415,-0.07728367,-0.074073344,-0.05505462,-0.08244015,-0.006042363,-0.103855945,0.18143797,-0.47104037,-0.22925337,0.022519212,-0.062340524,-0.07982041,0.09064168,0.20951882,-0.04239114,-0.009088976,-0.057935737,0.107679404,0.25566483,-0.08238516,-0.119416185,0.10892434,0.20584898,-0.058021296,0.040919345,-0.08399372,-0.42372704,-0.0008390687,0.23835856,0.09825957,0.11579776,-0.0025580607,0.1984064,-0.24435209,-0.31805018,-0.34967095,0.009786146,-0.017582754,0.041144025,0.15279362,0.037763245,0.19010413,0.09520941,0.21059486,0.859794,-0.7309756,0.21238667,-0.1188008,0.014899443,0.44837514,0.09197375,0.8356514,-0.6364981,0.05052167,0.2513354,-1.2071886,0.33347586
0.18740503,-0.10879383,-0.06999116,0.106489584,-0.109666884,0.089509234,-0.52155024,0.12512593,-0.14563882,0.13490082,-0.02479852,0.70639896,0.39544788,0.18095466,0.17323449,-0.57737917,0.020320235,0.083974876,0.19350088,-0.028562527,-0.39611948,-0.065693475,-0.21874984,0.025702879,0.06229191,-0.17969689,-0.047080737,-0.091646574,0.06398372,0.24690612,0.15185928,0.068736315,-0.13140321,0.052607927,0.44446337,-0.07094194,-0.39966205,0.037605807,-0.17696856,-0.6598561,-0.2845151,-0.18246615,-0.42175356,0.09802651,-0.16912518,-0.01048043,-0.28550646,-0.0126974275,0.06655329,-0.18262208,0.05552384,-0.3223513,-0.27917883,0.075984724,-0.49590823,-0.31977972,-0.05712077,-0.15628602,-0.02499207,-0.23760931,-0.10496819,0.011132599,-0.0723294,-0.11705222,-0.145295,-0.14712322,-0.0599374,0.077276565,-0.02574599,-0.059671182,-0.4935806,0.0037620342,0.30258593,0.20869125,0.06095285,0.038150262,-0.030469814,0.13665363,-0.10838747,0.04962147,0.10322666,-0.20717336,0.00220378,-0.3601488,-0.033476517,0.30148217,-0.28998923,0.015757063,0.1054414,0.120287254,0.23776355,0.002339274,-0.22099528,0.044415854,-0.17905262,-0.31374064,-0.07293935,-0.14834383,-0.15220545,-0.0038103485,-0.30483553,0.24406013,-0.06967776,-0.17109512,0.04280782,0.2143113,-0.35024574,0.189915,-0.00053741544,0.19685365,0.070228375,0.14105774,0.02860669,0.118610665,0.16369583,0.049539577,-0.26685148,0.01655021,0.21169269,-0.17696995,0.30460712,0.06209539,0.19943586,0.082871504,0.11307245,-0.14093092,0.052373767,0.026513271,0.18780094,-0.54579,-0.30476233,0.05836775,-0.22288083,0.058863662,0.25591373,-0.3363215,0.1075194,0.46004763,-0.72955006,0.013339657,0.51182926,0.41405705,0.056258015,-0.6168836,-0.19899482,0.52285683,0.5260284,-0.42988378,-0.25222194,0.41416535,-0.46371904,-0.09739507,-0.49065274,0.4111374,-0.6148473,-0.32466614,0.3649828,0.46818244,-1.0543078,-0.367388
0.30225348,0.022677835,0.08960446,0.07735033,-0.074400164,-0.04895572,-0.33404827,-0.35560533,-0.2672157,0.48917806,0.081578955,-0.33038193,-0.22014318,0.6663377,-0.3271522,-0.10598001,0.35420004,-0.009859069,0.39538226,0.29964876,-0.36954308,-0.20809163,-0.13466138,0.07789621,0.18675599,-0.04793019,-0.038084697,0.26810148,-0.5540078,0.007381725,-0.17242856,0.35484448,-0.18128651,0.12422963,-0.490536,0.438511,-0.29755595,0.09421082,0.19511668,-0.638731,-0.41147482,0.15502219,0.14446253,-0.025994396,-0.093110524,-0.0032105737,-0.023086643,0.08987467,-0.124096304,-0.14540188,0.03565145,0.32652503,-0.08784732,0.018607214,-0.16815248,-0.3606355,-0.114761956,0.15855326,0.20459332,0.30967647,-0.06863669,0.17952263,-0.017425993,-0.17892489,-0.47489148,-0.35888633,-0.033895053,0.20259692,0.07487612,-0.3056414,0.02724876,-0.09320413,-0.11266503,0.112818435,0.13535245,-0.07505621,-0.11524847,-0.2517354,-0.14130975,-0.18651888,-0.19595663,-0.41083473,-0.0097215185,0.15026566,0.08547026,-0.6000406,-0.06431013,-0.238187,0.11472509,0.006225436,-0.15623115,-0.057108503,-0.021483941,-0.20324656,0.2492906,-0.1586289,-0.20829679,0.084787145,-0.0043541314,-0.39558905,-0.0740211,0.023388308,-0.035841618,0.26366857,0.1321759,-0.3788476,0.21002668,-0.011356463,0.046999667,-0.16529131,0.030507388,-0.3478716,0.022924935,0.26445848,0.10843008,0.65036505,0.043394074,0.018788423,-0.36151427,-0.047416877,-0.046417885,0.3430943,-0.2388625,-0.32069856,-0.03179577,0.12175796,-0.070006736,0.07173998,-0.0352687,-0.021142857,-0.44661468,-0.048968174,-0.15972732,0.035299838,-0.4748917,-0.017411564,0.14223179,-0.020378808,-0.61439747,0.06305641,0.72754043,0.14697982,0.053687766,-0.22509769,-0.10435659,0.34468278,0.16164598,0.5735953,-0.18857689,-0.6329218,0.06381869,0.39879906,-0.19632682,-0.29403484,-0.05726057,-0.47324097,-0.3414538,0.093146,-0.85330635,0.30977395
0.32639158,-0.08880113,0.05514623,0.048296746,-0.029453162,0.1022393,-0.05167,0.005652528,0.049724434,0.038347367,0.07700044,0.31947064,0.09056065,-0.18701604,-0.04260788,-0.022265008,0.052373067,0.011863565,-0.23825566,-0.02340972,0.029320588,0.08086905,0.17867336,0.057673115,-0.0843677,0.00024826833,0.038830232,0.26141942,0.069107845,-0.14924705,-0.10424964,0.056853715,0.1476272,0.33285114,0.4067052,0.19165148,0.07271871,-0.100436345,-0.0029796713,0.11355741,-0.09485429,0.11718141,-0.06315756,0.029187938,-0.3012601,-0.11080505,-0.40010694,-0.22818823,0.03454633,-0.05753659,-0.11500063,-0.33406729,0.07937771,0.010261971,-0.10462965,-0.19382057,-0.035943057,0.18162197,-0.16133821,-0.047016148,0.0031765297,0.25407535,-0.01201281,-0.17679563,-0.19515544,0.0017491425,-0.03632962,-0.042533256,0.17107758,0.14661181,0.01157966,0.121076584,0.030295027,-0.13993706,0.16854236,0.1367716,0.133438,0.14829004,-0.24097739,-0.0017222279,-0.13899754,-0.55082715,-0.037869465,0.12947401,-0.12756333,-0.13887745,-0.0033900358,-0.016739732,0.02049147,-0.1026098,0.21289982,0.0145099,0.08656081,-0.1312027,0.040036764,-0.19355723,0.07329522,-0.49616587,-0.0031413406,-0.13926527,-0.1446346,0.08008062,-0.14051805,0.1671622,0.031294983,0.13447769,-0.13840772,-0.16580243,-0.044990603,0.08307071,0.31049573,0.13212912,-0.06691667,0.106115915,0.09004271,-0.0585305,-0.018739793,0.05609301,-0.26767847,-0.027990334,-0.22813484,-0.13598338,-0.07361006,0.13010724,0.07875001,0.05367573,0.03783857,-0.038214546,-0.0060775443,0.048464727,-0.21927449,0.12055489,-0.09916376,-0.24262461,-0.2528829,0.14459367,-0.08971669,-0.05718904,-0.40273696,-0.024451004,-0.024561396,0.14819682,0.3595245,0.7226948,-0.3069193,-0.19782868,-0.38961765,0.05590027,0.027673192,-0.27564362,0.28464764,-0.18966158,0.24331272,-0.29203466,-0.03389217,0.19892412,0.5160454,-0.3173198,0.5981459,-0.04235439
0.19940375,-0.46042693,-0.20236379,-0.13395903,-0.13259885,-0.005497433,-0.0066152504,0.22730498,-0.3057874,-0.34075075,-0.06440083,-0.31603262,-0.53525627,-0.3103919,0.21875057,0.071401365,-0.22077668,0.019317063,0.09137156,-0.25739402,-0.13371746,0.0562957,-0.109341405,-0.1573214,0.08501588,-0.47038737,-0.21639921,-0.07940998,-0.087908745,0.24212447,-0.6089823,0.28201622,0.2298978,-0.13960944,0.04718669,-0.20572588,-0.28057516,0.09461613,-0.20679535,-0.15033242,0.06177341,-0.009407231,-0.5430321,0.1484637,-0.11516365,-0.008555756,-0.4535959,-0.21776165,0.29506928,0.07493359,0.057842936,-0.3214123,0.15587555,-0.018195007,-0.3723137,-0.36248276,0.6211451,-0.14342548,-0.09156358,0.04221598,-0.027255377,0.10371718,0.09511245,-0.073438905,0.24489295,0.049269993,-0.017157745,-0.44458976,0.025586018,0.17120922,-0.25487706,0.06628617,-0.025328875,-0.100580245,0.020587426,0.11089494,0.11526485,0.19550158,0.3239847,-0.12491378,-0.08442815,0.06430058,0.10125383,0.06538263,-0.10850132,0.16345568,0.115249045,-0.1847038,-0.38665432,-0.48556206,0.11137379,-0.2378924,-0.17868029,-0.002752053,-0.8785871,0.09386426,0.1501143,-0.41200885,-0.17218855,-0.15927441,-0.21260688,0.14418617,-0.044156846,0.7354445,0.100005254,0.06369132,0.21102148,-0.4508637,-0.13020228,0.05452449,-0.004034742,0.22754149,-0.11292629,-0.17859398,0.020976422,0.36012018,-0.3411714,-0.07358341,-0.24483258,0.10777251,0.09819905,-1.869247,-0.11557351,-0.022468798,0.15637493,-0.17124802,0.08765641,0.16954312,0.09302256,-0.07099157,0.050320216,0.44488215,-0.2495011,-0.1766947,0.029304316,-0.26142916,-0.40722802,0.17253944,-0.013684794,-0.037414484,-0.047138385,0.14039716,-0.2685187,-0.03835575,-0.29702488,0.2697642,-0.028254334,0.47733572,0.1161569,-0.06261892,-0.16387552,-0.024706779,1.1385603,-0.120708056,0.9392413,-0.23800004,-0.078991555,-0.4017853,0.04616247,0.14452188
