0,1,2,3,4,5,6,7,8,9,10,11,12,13,14,15,16,17,18,19,20,21,22,23,24,25,26,27,28,29,30,31,32,33,34,35,36,37,38,39,40,41,42,43,44,45,46,47,48,49,50,51,52,53,54,55,56,57,58,59,60,61,62,63,64,65,66,67,68,69,70,71,72,73,74,75,76,77,78,79,80,81,82,83,84,85,86,87,88,89,90,91,92,93,94,95,96,97,98,99,100,101,102,103,104,105,106,107,108,109,110,111,112,113,114,115,116,117,118,119,120,121,122,123,124,125,126,127
-0.041942947,-0.07605844,-0.07437957,0.13535623,-0.038275898,-0.23540716,0.053971726,-0.05136978,0.20847517,0.057767842,-0.076502115,-0.038441077,-0.12988631,-0.0054698023,-0.29094803,-0.009144209,-0.079775244,-0.014277446,0.047484703,-0.054573495,-0.13580061,0.08380225,0.001936917,-0.19293869,0.094071746,-0.1410441,-0.0067003043,-0.039767805,-0.14558949,-0.015412517,-0.0249077,-0.01298385,0.015180504,0.03441012,-0.04038433,-0.26392183,0.011836557,-0.049307536,-0.07335713,-0.12866923,-0.12953019,-0.13483714,0.12126987,0.07013585,-0.077704504,-0.08107464,-0.020681424,0.0010722106,0.07513555,-0.029985663,0.022305662,-0.029040266,0.032467704,0.009202618,-0.0566758,-0.0051696966,-0.12693854,-0.12730789,0.004721661,0.039365966,0.18622829,0.0052099144,0.07482481,-0.06624633,0.07473355,-0.0065876567,-0.028671589,-0.01898058,-0.039889537,0.06747395,0.038353585,-0.11013014,0.12093298,0.052174762,0.022553148,-0.004337784,-0.08594684,-0.119089946,-0.11984015,-0.100260854,-0.07058821,-0.058433864,-0.20481686,0.029237391,-0.122985534,-0.0579207,-0.15165368,-0.09361545,-0.040996253,0.19254823,-0.0036329653,-0.06546212,-0.040640958,0.025743729,0.076145574,-0.110565916,0.19124228,-0.08490188,0.067583025,-0.13465816,-0.0035543859,0.0475946,0.062392022,0.029788686,-0.12674521,-0.018603344,-0.13968009,-0.04217513,-0.04374603,-0.10028518,-0.12940632,-0.00054332375,0.25636086,-0.016599532,0.068674006,0.02245763,-0.22238773,-0.099778295,-0.08687916,-0.19742548,-0.01794661,-0.022497637,-0.023014793,0.049504943,-0.06853038,0.074234106,-0.026865128,-0.0909607
-0.009802739,0.003123156,-0.044490583,0.08641154,0.0003069673,-0.027368374,0.046265252,-0.16343063,0.024169799,-0.07279397,0.050959527,0.0054801344,0.007460401,0.096715756,0.0009084632,0.0044517834,-0.017933732,0.00981796,-0.028471565,-0.016505975,-0.020058556,0.026557071,0.013846704,0.012785338,-0.03758741,0.038259555,0.020169284,0.03263624,-0.010852307,-0.0056136604,0.013441244,-0.00965355,0.067630455,0.026255332,-0.16891856,-0.028143248,-0.05146864,0.00849686,-0.021086907,0.09397723,-0.0024769052,-0.09020951,-0.13437292,0.046147633,-0.064867996,0.05399224,-0.03516509,0.0022413128,0.028037122,-0.00214684,-0.016274778,0.020450467,0.017836802,0.06449297,-0.0577098,0.0023047486,-0.005969562,0.026794232,0.014425128,0.16201201,0.04378327,0.0012492748,0.07048745,-8.1643186e-05,0.03416076,-0.013009323,-0.033125244,-0.06969622,-0.009839419,-0.011468689,-0.036632422,0.061869416,-0.037542384,0.035692245,0.056282125,0.047649745,0.15978253,-0.008564404,-0.031632293,-0.025227662,-0.05726639,-0.014720896,-0.015572269,-0.008027642,-0.004671587,-0.012526195,0.10186942,0.021436404,0.01098141,0.04472213,0.020551678,0.050992027,0.006220957,-0.026959954,0.049600806,0.010572011,-0.016844101,-0.058462903,0.024260342,-0.019193802,0.040009383,0.010808814,-0.1344617,-0.046977088,-0.017966243,0.0092583345,-0.05530915,0.071054645,0.026798587,-0.058588803,-0.05540766,-0.046299938,0.031162404,0.048635222,0.03611521,-0.013868495,-0.003612881,-0.035215273,-0.023720134,0.0022449053,0.055040598,0.0778647,0.03191847,-0.01779261,-0.0060089375,0.018016512,0.07430767,0.00016355475
-0.044149164,-0.04930599,-0.03281626,0.2237901,-0.19487047,-0.087805904,0.035278305,0.04615009,0.22389685,-0.07207924,-0.15417452,-0.06637816,-0.050072722,0.011716342,0.028290924,0.020639693,0.044693522,0.014308864,-0.0690995,-0.07398885,-0.016066272,-0.094558366,0.063087896,-0.040244028,-0.03205493,0.03844698,-0.035301037,0.0850436,0.04828553,-0.36183822,-0.028994689,-0.09030923,-0.13467836,-0.14516105,0.052925617,-0.1865162,-0.18227388,0.038935456,-0.07635707,0.0019194392,-0.052539866,-0.06134549,0.027467411,0.01846171,-0.05241946,-0.01959575,0.055308983,0.070653476,-0.00020065921,-0.054593384,-0.16650163,-0.06150127,-0.06007569,-0.18681107,0.06100334,0.044994663,-0.17375016,-0.083504945,0.05074308,0.045015838,0.28754508,-0.010522412,-0.23642056,-0.10240764,-0.06435463,0.05497987,-0.041143484,0.005639364,-0.09804555,0.015942859,0.060559597,-0.012683053,-0.02965727,-0.0287383,-0.10629053,-0.068669766,-0.42781436,-0.017111668,-0.052750047,0.15458713,-0.042637236,-0.16573498,-0.028604176,0.08233806,-0.22030506,-0.1406833,0.120006375,0.0954567,-0.045498762,-0.0890032,-0.090705074,-0.002825973,0.15777685,-0.02569801,0.0026353297,0.025060223,0.014779876,-0.20243014,0.06512686,0.041951936,-0.12538539,-0.16763939,-0.086722486,-0.048923105,0.001823688,-0.21253568,0.23802502,0.10404004,0.0003304996,-0.11532684,-0.30609992,0.08093064,0.19529377,-0.14164805,-0.028623968,0.027360033,-0.04406149,0.0054560383,-0.03231928,-0.09856141,-0.10427769,0.064793356,-0.24375173,-0.16724825,-0.02572702,-0.031008895,-0.10872571,0.052355073
0.07811163,0.0005974429,-0.061233778,0.042417906,-0.103968896,-0.038316585,-0.012257669,-0.022426346,0.034895603,-0.12805432,0.016116153,0.012936675,0.053646974,-0.017585376,0.12594968,0.028606376,0.009836106,-0.02793745,0.05409192,0.03645534,0.07685741,-0.15569296,-0.008103123,-0.024310462,0.013173561,-0.006214843,-0.019012861,0.0017431767,-0.049704533,0.09319702,0.11299479,0.06693179,0.07092301,-0.039171237,0.062658645,0.021399477,0.13033085,-0.01711639,-0.016361149,-0.009759927,-0.035967637,0.06650238,-0.043051276,-0.16586661,-0.07449985,0.013161675,0.11807785,-0.003322572,-0.07141427,-0.11449308,-0.007958171,-0.23119977,-0.021541316,-0.112805374,-0.056839455,0.01625612,-0.13162038,0.06726148,-0.060409926,-0.09506232,0.07298861,0.0013480415,-0.123984754,0.052876614,0.072229035,0.06936772,0.04831498,0.06811648,-0.33215445,-0.035294726,-0.0048871916,-0.08981016,-0.018702712,-0.13691829,-0.06491769,0.072409414,-0.034342077,0.096725784,-0.039963342,0.012591185,0.016188031,0.097614154,-0.029462386,-0.047180112,-0.0748124,-0.120808914,-0.06610908,0.09358802,-0.08457871,-0.22164482,0.03141626,0.020142317,-0.102766685,-0.101578645,0.020447236,-0.15620025,0.05792683,0.2893519,-0.023471233,0.07150782,-0.11446698,-0.084086135,0.0016799864,-0.13918255,-0.082711905,-0.18334568,-0.1284498,-0.10223699,-0.050133467,0.051060352,-0.3366822,-0.050014697,-0.04779326,-0.037991695,0.22002633,0.09735325,-0.123580664,0.11372292,0.055005156,0.045541234,0.022489848,-0.03142193,-0.003221546,0.028086033,-0.17543682,-0.017254276,-0.0991427,0.03939083
-0.035156704,-0.078469835,0.037455082,-0.020080077,-0.018625028,-0.14008671,-0.078561835,-0.07713781,-0.056240436,-0.13194665,0.0010861313,-0.03586211,-0.08806447,-0.044693537,0.035246275,0.053802826,-0.14324364,0.0040783715,-0.03615038,-0.04501915,0.08188552,0.0002216709,-0.034166723,-0.012218045,-0.12921067,-0.05645278,-0.017772708,0.028497417,-0.042401817,0.085886225,-0.070086055,-0.017730912,0.0057271696,0.03788339,0.080545485,-0.025906412,-0.0021702466,0.17048687,-0.05016063,0.0059862095,-0.122022055,0.00065536826,0.021862166,0.013719024,0.016209666,-0.07878877,0.042020183,0.016275391,-0.03364958,-0.0915636,-0.045020953,-0.08048345,-0.11700681,0.0060738353,0.0068468084,0.049670715,-0.06496311,0.03441217,0.08549204,0.06588659,0.066126704,-0.09240072,0.004034195,-0.08821677,-0.05496068,0.0097793,-0.021765918,-0.07689303,0.023188608,0.036963258,-0.05830775,-0.0613723,-0.08577663,0.040010255,-0.043757837,-0.009634572,0.059872948,0.01476009,0.023125438,0.047647007,0.060803868,-0.03340148,-0.13697301,-0.0923783,-0.0387999,-0.014666084,0.030732006,0.021243451,-0.07843635,0.053147875,-0.045984562,-0.1025425,-0.1219359,0.035292108,-0.014683779,-0.0338002,0.023345947,-0.02778584,0.026401442,-0.030510632,0.07594619,0.01975634,0.020276658,0.038092084,-0.007935198,-0.12395406,0.07407516,-0.05083536,0.018145801,-0.08380621,-0.0046321275,-0.017761765,0.02455347,-0.013301414,0.0135224825,-0.07607613,-0.022047358,-0.034842163,0.024698628,-0.11658472,0.003450588,0.054558046,-0.0032687713,0.019668732,-0.06988464,0.019099649,-0.12781711,-0.04527411
-0.004666847,-0.019130863,-0.008784399,0.074569575,0.059746295,-0.2324432,0.057682216,0.008364815,0.113320254,-0.07895727,0.10380721,-0.08387798,0.047519945,-0.087490164,-0.114068516,0.10391882,-0.018926596,-0.01913593,0.033879366,0.06834328,-0.11438181,-0.16474497,-0.026956692,-0.066766225,0.070397116,-0.24996187,0.069298305,0.06288264,0.108520865,-0.2789363,0.015164602,-0.009565595,-0.13369785,0.1014782,-0.024283195,-0.3609481,0.12047744,-0.25899923,-0.016446471,0.11292176,-0.25002706,-0.023871308,-0.082709186,-0.109206274,-0.025934877,0.059127655,-0.06378876,0.03971431,0.06636848,-0.027390966,0.0078283725,-0.4143448,-0.1359948,-0.21975397,0.2581451,0.030833129,-0.11948079,-0.009116317,0.09601334,0.06925489,0.023788668,0.03666462,-0.031462856,0.038382035,-0.12622906,0.020275097,-0.019480936,0.019745732,-0.23223059,-0.01589268,0.01566262,-0.14330254,-0.23438138,0.18416443,-0.03286757,0.009915225,-0.04464106,-0.008539288,-0.049594708,-0.009797642,0.043010935,0.042439666,-0.15231651,0.065899074,-0.22518945,0.06925995,-0.07053508,0.06587935,-0.07764136,-0.13687743,0.074838705,0.007685332,0.0022792062,-0.044000126,-0.0038229125,0.097904176,0.07513945,0.16538516,0.045818955,0.21825522,0.009432075,0.053881045,-0.073483154,0.05264605,-0.15483598,-0.16903512,-0.20179236,-0.010964761,0.015547464,-0.25038373,-0.3524686,0.018337071,-0.1858569,-0.06271845,-0.07437102,0.06141453,-0.05047626,-0.09205203,-0.050115548,0.06837719,0.012571542,0.046584837,0.012942151,-0.028308403,0.095982604,0.14011115,-0.127833,-0.011656737
-0.07039006,0.06814764,0.033798583,-0.19327362,0.052516885,-0.009403635,-0.054869987,-0.1066746,-0.12261576,-0.08639941,-0.007275791,0.04994682,0.05868138,-0.060219996,-0.13534842,-0.086060144,0.058143772,-0.087621495,0.032069284,0.0676362,-0.00022283879,0.02723744,0.00052863336,-0.2967756,-0.11462398,-0.028809233,-0.031915523,0.07245518,-0.21145308,0.031921804,-0.033904646,-0.20151852,-0.08017147,0.003828977,0.12924646,0.07501682,0.047350455,-0.17842461,0.07099049,-0.10257941,-0.08570266,-0.07344871,-0.09081283,-0.011229871,-0.105720714,0.08275291,-0.06946758,0.08093714,-0.06689331,-0.047560416,-0.04586604,0.01110726,-0.08531472,-0.054418616,0.039482325,0.10553439,0.07366381,-0.107268006,-0.022031559,0.08733775,0.06168411,0.007802838,-0.053976044,-0.15837714,0.029278433,-0.06933258,-0.003759567,-0.03681662,0.094615534,-0.073481806,-0.037068337,0.06259953,-0.051127363,-0.018307025,-0.022657868,0.061628293,-0.343486,0.05844298,-0.058673054,0.023245336,0.10009607,-0.13322155,-0.0059871343,-0.08400988,-0.043717362,-0.101012416,0.09275231,-0.07518182,0.013758089,-0.05522314,-0.043614693,-0.03674231,-0.049541358,0.002470136,-0.03556302,-0.056986976,-0.08940036,0.0056852875,0.0036987085,0.058351208,-0.033173505,-0.36115894,0.026911596,-0.14394316,-0.07916094,-0.0075002136,-0.34584346,0.035213225,0.016644647,0.07762367,-0.041364647,-0.007806636,0.06089235,0.14052047,-0.33862966,-0.002784056,0.14471062,-0.17249528,0.07999138,0.037082348,0.06260406,-0.007454073,0.06014879,0.062073935,0.024309417,-0.028742328,0.07691782,-0.05738575
-0.08242603,-0.013890616,0.11837695,-0.122411825,-0.20084727,-0.11372633,-0.07940516,0.38146892,-0.0019249122,0.16898882,0.10242094,-0.081012696,-0.05549528,-0.027859995,-0.17286803,0.11504091,-0.051158186,0.0061737793,0.030181352,-0.06466097,0.022488676,-0.030439412,-0.19807798,-0.14319044,-0.016627934,-0.041382205,-0.18258677,-0.070603155,-0.1101543,-0.08113765,-0.107041866,-0.10847481,0.06162812,0.042136878,-0.05770836,0.022873782,0.07367085,-0.025652802,-0.071413375,0.009223123,0.077227905,-0.11254772,-0.08231795,-0.07969732,0.00041333577,0.046292994,0.03426862,-0.05303782,0.0068795346,-0.06535106,0.014350004,-0.11606049,0.029303655,-0.21060759,-0.006570632,-0.04857815,-0.005976043,-0.07478833,0.016247204,-0.02016128,-0.031856816,0.020646388,-0.047305107,0.26914188,-0.09845987,-0.022060856,0.054810047,-0.075333804,-0.10035567,-0.08450914,-0.2809236,-0.14013757,-0.023661736,0.06847916,-0.12390066,0.045043323,0.21081935,-0.050503936,0.02926902,-0.012808764,-0.011607035,-0.018516328,0.014608938,-0.025707228,0.012935311,-0.10250516,-0.039546933,-0.0037095484,0.06306623,0.09074265,-0.06085008,0.017456213,-0.030861724,0.006217147,-0.042339817,-0.025044683,-0.051185574,0.15290995,0.054907966,-0.009649997,-0.13705449,0.058927666,0.02506162,0.09489979,-0.111008614,-0.05018288,0.06940883,-0.048646916,-0.020280575,0.022757674,-0.04298522,0.014092171,-0.2132673,-0.016124872,-0.005186833,0.034050655,-0.06635541,-0.221306,-0.011580586,0.071528606,-0.028145967,0.024597982,-0.09918959,-0.055382684,0.040416617,0.06673135,0.0073134773,-0.07707136
-0.23708774,-0.05348183,0.06511562,-0.34985578,0.1709299,-0.05591195,-0.07557536,0.102233216,-0.18945397,0.123606,-0.15219614,-0.03479439,-0.13636105,-0.08722966,-0.28153372,-0.02317615,-0.109829195,-0.04655119,0.051928263,0.07629568,-0.16950968,-0.09518809,0.020681478,-0.06308296,0.01819002,0.02925445,-0.3176883,0.06089013,-0.08804334,-0.08280618,-0.13711698,0.02162133,-0.123277195,0.02253803,-0.13089937,-0.24463178,0.19628522,-0.23259507,-0.08733971,0.028322643,-0.17441078,0.050878312,0.16993424,-0.2542768,0.032223176,-0.05634225,0.11290173,0.10675349,-0.13419291,0.15153056,-0.08179409,-0.0034570782,-0.09877898,0.022190766,0.056282613,-0.3273625,0.03864956,0.095529236,0.004432631,-0.1767625,0.10536464,0.038962554,0.016536694,-0.02884462,-0.022037333,0.1990563,-0.1977207,0.12784414,0.1431442,-0.1581252,0.008668627,0.054895636,0.06832369,-0.110709466,-0.009422246,-0.030224558,0.25177276,0.10204234,-0.22411019,-0.048625723,0.3019931,-0.23916385,-0.01813999,-0.12491555,0.026197137,-0.18880521,-0.12266594,-0.049920868,0.10140244,0.22086625,0.074389815,-0.1927323,0.120030865,0.021617904,0.117839806,-0.14910518,0.12252025,0.17581543,0.16748948,-0.14332452,-0.033516407,0.13477892,-0.047434285,0.07266493,-0.017545737,0.045868564,-0.12807494,0.012750494,-0.120763145,0.15838087,-0.08772957,0.3080254,0.12132793,0.1358311,-0.02955421,0.10595228,-0.16034251,-0.1991037,0.030086722,0.1308594,-0.006578558,0.07666283,-0.13746628,0.19975336,0.06742407,0.023594413,0.019290153,0.07506278
-0.01581295,0.033699542,0.003972357,-0.050178528,-0.050253376,0.059444025,-0.05510094,0.056176122,0.045583487,0.011647429,0.06233643,0.013903404,0.0062158327,-0.044112373,0.048568357,-0.11926269,-0.05667746,-0.11753719,-0.020130655,-0.016125027,-0.031617455,0.011903435,-0.08807326,-0.08379532,-0.027130462,-0.06301056,-0.011253888,-0.04813831,0.012414862,-0.05119993,-0.07880829,0.045508776,-0.03543657,-0.00027928373,0.076512955,-0.037116792,0.051381342,0.06602854,-0.10870262,0.026116438,-0.05719408,0.001518076,-0.040632416,0.0068686455,0.038604267,-0.012225152,-0.025778806,0.032187425,-0.0024436002,-0.052602295,-0.090504795,-0.07493577,-0.06329712,-0.0051946603,0.078798756,0.0028593887,-0.073907584,-0.034424055,-0.03889081,0.08050734,-0.08646841,-0.08948968,0.03202369,0.010259552,0.010382014,0.06130275,-0.05760965,0.04545496,-0.11945386,-0.049038384,-0.061376434,-0.036480904,-0.07850514,-0.027074203,0.007871835,0.0015933241,0.076025315,-0.03722044,-0.057254758,0.07412783,-0.08447994,-0.089886546,-0.05346847,-0.13250904,-0.0738027,-0.0518324,0.036131643,-0.04743796,0.04197688,0.010189657,-0.08022244,0.026057865,0.021430377,0.07590005,-0.103271015,-0.05936698,-0.037109304,0.043053657,0.04830753,0.03647392,0.06906761,-0.03242807,-0.014579629,0.0033948473,-0.09117896,-0.01312266,0.053261884,-0.07094269,-0.09200997,0.018265307,0.01418312,0.03720799,-0.06442412,-0.03763275,-0.05918326,0.046493154,0.0251616,-0.04002294,0.05292696,0.036940124,-0.033151746,-0.09592597,-0.015732136,-0.07170543,-0.059181713,-0.0496636,0.069578245,-0.0483312
0.05046112,0.019433878,0.11276459,0.085579485,-0.03359471,-0.014483551,0.02664781,0.04606411,-0.009721217,0.088682845,-0.109032415,-0.009988361,-0.0011400557,0.030472133,-0.19798245,-0.19479267,0.03137234,-0.072471626,0.08540715,-0.12808508,0.12115152,0.06459811,-0.0015172593,-0.12103492,-0.019756358,-0.02411236,0.04941872,0.04186639,-0.037522893,0.08825587,0.061312854,0.04044955,0.10057265,-0.052642167,-0.09137949,-0.047318265,0.014084003,0.06146016,-0.02522788,0.13157775,-0.061675716,-0.04213846,-0.04254098,0.17542939,-0.025138395,0.0039974065,-0.008673383,0.103990816,0.014605025,0.016120944,-0.03190154,-0.027622001,-0.06579312,-0.08726053,-0.06625458,0.08804454,0.0048543364,-0.040214293,0.0035156482,0.12477827,0.074868046,-0.019646954,0.042768918,-0.080143124,0.04753742,0.02664759,-0.023866758,0.041800614,0.06303223,0.01640373,-0.21621718,-0.022510577,0.080794245,0.006065216,-0.09302209,0.04343545,0.20036325,-0.11856047,-0.17180698,0.012399501,0.03129453,-0.03465521,-0.012006456,0.0128529,-0.07284087,-0.05890752,0.018596405,-0.0633127,0.037972115,0.052887056,0.051286645,-0.007784264,0.009473156,-0.04457829,0.0025418838,0.074886,-0.011661113,-0.06085558,-0.033796858,-0.06712239,-0.07940642,-0.20224911,-0.057142448,-0.13013765,0.025850141,-0.04550705,-0.050949864,-0.04655548,-0.044885766,-0.050083615,-0.0038317905,-0.10678765,0.11277382,-0.0011360846,-0.025888938,-0.04702056,-0.06639918,0.03968557,-0.03739293,0.05693473,0.034282815,-0.0012354642,-0.04148874,-0.10979231,-0.0016050644,0.05924823,0.097187184,-0.062016975
0.08744986,-0.017580125,-0.024445383,-0.07996368,0.104056224,0.023038432,-0.13864319,-0.046824463,-0.14079586,-0.10848992,-0.07208367,-0.055876635,-0.04834649,-0.03245457,-0.031024756,0.023913315,-0.11453165,0.033039633,0.079433985,-0.024231814,-0.057079088,-0.011385663,-0.094155446,-0.018738884,0.014800096,0.08919566,-0.0927849,0.050591096,-0.078563236,-0.13871531,-0.038422566,-0.07975512,0.06664855,-0.08645902,0.13817652,0.012685854,-0.17766671,-0.008959685,-0.13874088,0.042879667,0.031180957,0.047514293,0.088942476,-0.08851802,0.0073254965,-0.07356038,0.054231226,0.021105716,0.00066529715,-0.0028926658,0.057203718,0.03647303,0.017041009,-0.0053074425,0.052108094,-0.067561395,-0.07991331,-0.03595663,-0.068814516,0.04047705,0.007910085,0.0010511448,-0.0015200407,0.028506316,0.017065868,-0.09909571,-0.09419251,0.07184713,-0.1407231,0.013150741,-0.015119839,-0.009710027,0.13423088,-0.045079436,0.058055438,0.083150245,-0.074171156,-0.058654293,-0.049612425,0.035486158,0.06310288,-0.099792175,-0.1410647,-0.07173246,0.091824375,-0.054670263,-0.06621204,-0.13339974,-0.032983076,-0.07205083,-0.014573617,-0.0130202,0.026941363,-0.011606921,-0.1369272,0.091834486,-0.06714439,0.046647873,-0.083565585,-0.089367166,-0.06926852,0.013393604,-0.082547724,-0.023706606,-0.22877231,-0.14641449,0.053598348,-0.07840912,-0.14829025,0.07456698,-0.18289596,0.09425008,-0.027364664,-0.09637146,0.04270484,-0.051644247,-0.20253286,0.06393688,-0.10109884,0.027658803,-0.09065939,-0.05254891,0.02181827,0.0005252452,-0.050681245,-0.114196174,-0.061380725,-0.14057489
-0.1789957,-0.02097159,0.09172841,-0.23090878,-0.102508776,0.051206794,0.04929623,-0.25017756,0.05167718,0.014725654,-0.04972833,-0.074729934,0.07640044,-0.26738432,-0.13070813,-0.3989939,0.022340313,0.045072593,-0.060630415,-0.14136451,-0.098813206,-0.004320299,0.0027878582,-0.17181677,0.046780437,0.09344415,0.007568331,0.033486154,-0.017257517,-0.101694815,-0.037528288,-0.27667567,-0.10508268,0.05345002,-0.15946387,-0.03879324,-0.047757268,0.020730417,0.077531934,-0.056567974,-0.1883769,0.087686375,-0.15587312,-0.10813361,-0.017432699,-0.019421488,-0.04607458,-0.05101109,0.021460865,-0.022461463,0.00041564167,-0.012784588,0.088009186,0.03841671,0.008641196,0.07727974,0.041788314,-0.006153607,0.03247549,0.105056755,-0.017956762,0.07663399,0.014031372,-0.041475978,0.011932741,0.032128315,0.02894233,0.04631919,0.010093595,-0.017611722,0.0038221863,0.03708489,-0.24465305,0.0031915298,0.14330296,0.06518098,-0.7148257,-0.046580214,0.045987684,-0.069293745,0.059383936,0.012064027,-0.08279984,0.025565926,-0.055767365,-0.15536064,-0.014324853,-0.060014002,-0.20168987,0.030967725,0.012809289,0.036470354,-0.24398063,-0.39178592,0.023932707,0.16093533,0.029994564,-0.10747264,0.009038734,0.023338044,0.04406621,-0.38498214,-0.024280425,0.011603787,-0.024669476,0.004811866,0.05884296,0.06334318,-0.051781666,-0.111844495,0.04615909,-0.03059511,-0.0656173,0.04395444,-0.13148943,0.012988284,0.028045835,0.052329604,-0.031009223,-0.08271509,0.12392118,0.0735424,0.107737266,0.015524408,-0.2828019,0.09944835,0.06819991,0.032437112
-0.012973506,-0.10408926,0.0038321193,0.07769084,0.0016860486,-0.09417985,-0.011248363,-0.06091771,-0.023355518,-0.012161619,0.03112826,-0.045054857,-0.121026956,-0.08032307,-0.0879744,-0.044140514,-0.13309592,-0.010488321,0.045379773,0.016298134,-0.010808049,0.024188459,-0.00021555358,-0.061108567,0.01682066,0.066992044,-0.023675118,0.057357777,-0.075269654,-0.100472406,0.051328115,-0.042505633,0.022481056,-0.056332625,-0.035634052,-0.023494324,-0.07350349,0.057608355,-0.089915484,0.04608102,0.00781364,0.046953656,0.03675855,-0.026264535,-0.107152194,-0.071757585,-0.03641938,-0.011495114,0.0005184702,-0.04636201,0.07169525,0.033702783,0.012340928,-0.05482156,-0.038309373,0.014253784,-0.06319204,0.071633056,0.004039319,0.05982421,0.07344425,-0.06601896,-0.05507345,-0.09171881,-0.01283067,-0.0071261358,0.028781695,-0.081664145,0.058689296,0.039620634,-0.061052058,0.107183576,-0.031358384,0.020655751,-0.021550981,0.046339873,-0.07566679,0.020014245,0.03737962,-0.021835065,-0.0739185,0.0032105518,-0.12127898,0.0600957,0.046573374,-0.07856551,-0.07228499,-0.052759092,0.066752486,0.044799164,0.05958721,-0.052608144,-0.04292151,-0.063124955,0.007078239,-0.021537192,-0.097381674,-0.03320166,-0.06416972,-0.076588385,-0.042973842,-0.03954764,0.0022881478,-0.005101128,-0.07710925,0.0032527759,0.015203798,-0.022907592,-0.080194674,0.03636069,0.054974254,-0.06895174,-0.068266094,0.05060661,0.05812603,0.046119463,-0.00041073776,-0.020909458,-0.1211109,-0.063228756,-0.09534861,-0.043528236,-0.04880765,-0.036078442,-0.018601965,-0.020141294,-0.02287584,-0.08680085
0.033421807,0.035348833,0.007534534,0.06662714,-0.118840165,-0.09384681,0.014153378,0.020167436,0.094318606,-0.09656082,-0.026949761,-0.047525976,-0.03499793,0.0636129,-0.12672053,-0.09189867,0.004191699,0.03300611,-0.058470678,0.06004657,-0.09286823,-0.28301308,-0.03437343,-0.11135452,-0.029168563,-0.032575835,0.015012659,0.037262823,-0.058057476,0.020741943,0.03207968,0.063906975,-0.02691982,0.11095196,0.074286915,-0.09539058,0.24450755,-0.086368114,0.054076143,0.005479275,-0.24799676,-0.22875082,-0.034065697,-0.15850766,-0.11034316,0.0034914955,0.020705711,0.15331781,0.0597512,-0.13609411,-0.026564302,-0.18869314,-0.06525514,-0.009947908,-0.03785474,0.09208396,-0.3283938,0.18227607,0.1266505,0.059952877,0.14512268,0.04396765,0.058030427,0.012819149,-0.042767737,0.08591105,-0.010450299,0.07816207,-0.31313422,0.018162703,0.15436359,-0.15614109,-0.1818614,0.1556684,0.012412021,-0.017216386,0.10239106,0.15696096,0.048479643,-0.17645703,-0.04272041,0.04357565,0.022352295,0.027488172,-0.07146972,0.0010121769,-0.018662246,0.19189249,-0.09311539,-0.10893461,0.17677729,0.020985158,-0.08028007,-0.2667222,0.050582558,-0.08040075,0.05901506,0.0032509754,0.07714781,-0.3046374,0.11373919,-0.11616306,-0.07875473,-0.042398494,-0.14671311,0.090805516,-0.39978114,-0.11237803,-0.04348876,-0.20048879,-0.41362607,-0.112693004,-0.14066388,0.079978675,0.13044171,0.15406372,-0.04543664,-0.21586913,-0.0037157096,0.19836003,0.09377703,0.0018331392,0.0759219,-0.04402955,-0.10109513,0.030311098,0.043825228,-0.049228456
-0.06258584,0.05317206,0.14333321,-0.31220222,0.0023667587,-0.1260823,-0.28472406,0.15163824,-0.033566892,0.03900094,0.09357565,-0.0074297907,-0.0057162293,-0.08907815,-0.17216413,-0.23037878,-0.03848686,-0.06445642,0.008063336,-0.062429886,-0.043273862,0.018562725,-0.053504337,-0.04097451,-0.0038662083,-0.028241418,0.22988231,0.15081184,-0.023766747,0.115843564,-0.028175754,-0.020067662,-0.2584938,-0.0028665578,-0.0020067736,-0.25537387,0.07179541,-0.08681533,0.0921146,-0.09582751,-0.06967669,-0.05317205,-0.14252548,0.11256948,-0.103392504,-0.24052288,0.053585883,0.0743363,-0.0031550622,-0.017193906,-0.30667424,0.052043617,-0.08090135,-0.0062658056,-0.01051899,0.28621286,-0.05660912,0.13094015,0.09229763,0.008629085,0.051637955,0.017072748,0.051487725,-0.017776832,0.31618416,-0.10329231,0.06588757,0.033966362,0.014614166,-0.01802724,-0.2777659,0.18509509,-0.09065103,-0.20052487,0.014193624,-0.08015768,0.32970574,-0.005408687,0.12226546,0.122009255,0.045649584,-0.39208543,-0.1198313,-0.076553166,-0.061411012,0.043537885,-0.11980359,0.056653358,-0.13394575,0.09125439,0.09286472,-0.036344413,0.055146474,-0.18851747,0.062053535,-0.012835334,-0.37516445,-0.0017629436,-0.031939384,-0.05992225,0.014565329,-0.28589952,0.04089002,-0.25737527,0.035498645,0.012052039,-0.075126894,-0.2288265,-0.0017899935,-0.10193732,-0.035162132,0.07181893,-0.109517455,0.063803025,-0.0899568,-0.27598593,-0.071266904,-0.18911992,-0.013051409,-0.11227509,0.10226881,0.025730306,0.00926065,-0.10260034,-0.033972774,0.058892407,0.060954757,-0.09465641
0.010418458,0.06281137,0.0094055375,-0.04613309,-0.25941107,-0.0823882,-0.11858337,0.07243336,-0.039033324,-0.04444392,-0.05219177,-0.06273359,0.06808549,-0.05239995,-0.022621041,-0.04988459,-0.004820283,0.0058616675,0.07074826,-0.12147105,0.0053673247,-0.20749238,-0.118269555,0.01841151,-0.12847449,-0.061655577,-0.14369747,-0.0064537143,0.01392663,0.1623892,-0.011480291,0.032667354,-0.11434159,0.20916328,-0.0063694385,0.007930487,-0.07593997,-0.17311613,-0.03373547,-0.20643744,0.023500035,0.16360755,0.11053285,-0.16465068,-0.2522859,-0.055810507,-0.20046219,-0.11887577,-0.09343871,0.024748659,0.02358178,-0.3016296,-0.0008135651,-0.1493686,0.14424482,-0.06507763,-0.2564179,-0.023209108,-0.0082508465,0.17585811,0.10321359,0.012808599,-0.1599483,-0.03565118,-0.03868758,0.077657886,-0.022345103,0.10173757,-0.3685604,-0.119705915,-0.010000678,-0.040802043,-0.10643183,0.03276501,-0.053995956,-0.057348967,-0.13063768,0.08336072,-0.11033862,0.060169633,-0.13236836,-0.133937,-0.009394388,0.018627334,-0.14677046,0.12200318,-0.13514931,-0.03430012,-0.05753099,-0.15952058,0.08727856,-0.12177594,-0.10669926,0.016116517,-0.02402633,-0.20025523,-0.07993557,-0.085732795,0.11198097,-0.1176685,0.0061252154,-0.16314214,0.024033172,0.017016253,-0.008906413,0.0970557,-0.13402852,-0.07212104,-0.05545644,0.053797692,-0.047479913,0.11665732,0.04023513,0.022405207,0.09596351,-0.004686323,0.04072442,9.405216e-05,-0.050530348,0.14274989,0.062279664,-0.092441,-0.0042158077,0.020310778,-0.051841985,0.24711552,-0.29923186,-0.12829821
-0.057836693,-0.040053055,-0.066719785,0.039948415,-0.054104947,-0.09628293,0.015167709,0.07038463,-0.00012861821,-0.12502307,-0.020664653,-0.02191273,-0.14279263,0.077211276,-0.037045084,-0.013088377,-0.024660164,0.017141672,0.07186124,0.00035244646,-0.03963768,0.060269237,-0.025015669,-0.06735243,-0.072529435,-0.041579828,0.005911563,0.013574881,-0.032004397,-0.09436347,0.0051733945,-0.093140386,-0.093024984,0.048512492,-0.019260542,0.022399966,0.064884506,-0.017197946,-0.11666086,0.017675938,-0.019018855,-0.022221277,0.021385243,-0.059176963,-0.06305515,0.0041128355,-0.107008666,-0.08567254,0.04544127,-0.094785884,-0.074746735,-0.07721357,0.06910343,0.006552361,0.044213213,0.0059368424,-0.018482685,-0.009199764,0.008295523,-0.001601808,0.011617426,0.018130744,0.014398877,-0.053475186,0.04803527,0.052685443,-0.03825915,-0.04811859,-0.001210339,-0.070349686,0.06415433,-0.014945816,0.03513177,-0.04095223,0.029458493,-0.09532874,-0.04221197,0.023042645,-0.035782404,0.01080277,-0.0725924,-0.019050617,-0.06922961,-0.12202831,-0.08065322,0.028546896,0.008784464,-0.078024745,-0.052504178,-0.0629391,-0.06254531,-0.104918025,-0.032559466,0.044643495,-0.11328196,-0.017595526,-0.020628268,0.011051515,-0.0057327454,0.073084086,0.021825429,0.017346581,-0.07878002,0.05918677,-0.16480024,0.03534063,-0.08424639,-0.045374863,-0.10923242,-0.06566946,-0.0106546115,0.07659117,-0.065979764,0.008411734,-0.022048395,-0.08307345,-0.043611363,-0.067097016,-0.013037605,-0.046057828,-0.014512794,0.044528026,0.0024434829,-0.10588833,-0.040002324,-0.06579432,-0.113867745,-0.055150993
-0.35576954,-0.064551264,-0.022771055,-0.40368792,-0.11898805,-0.11904422,0.062532336,0.02395886,0.30714655,0.06021676,0.015378199,0.08190913,0.041575566,0.121833734,0.026288094,-0.023192797,0.08864578,0.17264628,0.036963087,0.0024923221,0.07112303,-0.12499441,0.06565564,-0.077529535,-0.15670745,-0.27672824,0.1549726,-0.123283975,-0.03257641,-0.17209871,-0.09900412,-0.17824115,-0.0617458,-0.083402134,-0.05252931,-0.7312889,-0.08156318,-0.09237212,-0.051331755,0.29601482,-0.055548906,0.046494804,-0.009873802,-0.08321404,0.07472213,-0.09988929,-0.015567853,0.06332468,0.1152064,-0.05409677,0.048001762,-0.10938253,-0.044746988,-0.19003648,-0.18911803,-0.055692993,0.009605889,0.2607115,0.008011464,0.002385157,0.22774437,-0.093742594,-0.099078946,-0.070634976,-0.0987077,-0.057218377,0.09364184,0.04170722,0.07915865,0.17601715,-0.079368316,0.1384098,-0.18253273,-0.14477496,-0.01143882,0.049092595,0.07497616,0.033005774,0.046234228,0.15902655,-0.15573184,0.024646292,0.059549294,-0.024956059,-0.087920204,-0.10954366,0.040858697,0.21019214,0.05946372,-0.18648389,-0.1056155,-0.026784876,-0.081927165,-0.028882362,0.13850139,-0.04744397,0.0023976846,0.055085644,0.10887311,0.06788074,-0.0070578787,0.093323536,0.06635693,-0.011628275,-0.090920754,-0.061327253,0.12062256,-0.16886105,-0.056736052,-0.022034215,-0.26001674,0.08734157,-0.24547951,-0.30625865,-0.0455588,-0.023130534,-0.045166478,-0.1186069,-0.046779525,-0.05363376,-0.08547768,0.06114873,-0.09969467,-0.08796027,-0.1737931,-0.1808712,0.08643753,-0.09110086
-0.05147012,-0.046266094,-0.059415035,0.022801839,-0.017928509,0.035405718,-0.01846289,-0.09567824,-0.038609665,-0.06636388,0.032012362,-0.007756169,-0.020335129,0.056622468,-0.044437487,-0.033395402,-0.07150628,-0.005964128,-0.04431627,-0.07887337,0.05986586,-0.019375652,0.030253487,0.028863313,-0.059595555,0.03957963,-0.029044747,-0.016621344,0.044444066,-0.07496193,0.006254459,0.08532698,0.06752602,0.012908719,0.0067498796,-0.034559697,0.0642201,-0.019151185,-0.12834401,0.041418098,-0.075794,0.02379707,-0.06420486,-0.017608395,-0.022231624,-0.025938557,0.06897871,-0.03490473,-0.03253921,0.018189818,0.074707,-0.10930074,0.07194109,-0.035039134,0.0035409008,0.06968301,-0.07508596,0.02899907,-0.059676804,-0.06011884,0.047543097,-0.089541905,0.04721524,0.055161495,-0.047861665,-0.029972373,-0.004806064,0.038444567,-0.08956183,-0.03347766,-0.010753101,-0.09253907,-0.09598974,0.043581683,-0.030369457,-0.040123057,-0.03390242,0.044374835,-0.06010472,-0.053828727,0.06665958,0.06194029,-0.038394704,-0.095221676,0.029075999,0.047590993,-0.08344788,0.008102721,0.0014983644,-0.014437998,0.002559009,-0.091708265,0.0068243197,0.0057167676,-0.09374833,-0.060847633,0.029382482,-0.005102621,0.014971041,-0.032932177,0.034247663,-0.048173945,-0.04433017,0.022427969,-0.094665036,-0.022452006,0.008684055,-0.097927004,0.060276765,-0.005185315,0.056089725,0.060202014,-0.024556106,-0.099325985,-0.015272991,0.0148970075,-0.002453566,-0.001606495,-0.08967815,-0.008986445,0.004636335,0.02111271,0.013017734,0.0043782485,-0.015232044,-0.009951045,0.020298017,-0.032812346
-0.010260242,0.04545509,0.066592366,-0.019375209,0.13837966,0.024645837,-0.00797391,0.02643308,-0.15426083,-0.38772115,-0.0069723125,0.13030998,0.10779678,0.1514527,0.1244486,-0.13272987,0.1254418,0.08313613,0.0019544896,0.022146164,-0.1327931,-0.10373647,0.051161893,-0.045185674,-0.0077546593,-0.048737105,-0.0655173,0.04641567,-0.15125608,0.07517063,-0.07503378,-0.2852457,-0.060489886,-0.0925862,-0.341738,0.08046411,-0.20308669,0.08913697,0.011322754,-0.16347358,-0.07187941,-0.11665967,0.08206312,0.07002184,0.026008079,0.02828376,-0.007134499,-0.3142562,-0.064329535,-0.14780977,-0.042716116,-0.11121907,-0.001214034,0.032443978,0.06576569,0.10938009,-0.062258534,0.032811888,0.038340617,-0.054029774,-0.071394145,0.039932434,-0.09931733,-0.013949781,0.1755255,-0.04023493,0.16070946,0.05902561,-0.16252322,-0.07792344,-0.081495605,0.0027347207,-0.14740996,0.06854154,0.021568669,0.07423947,0.061625175,-0.083917126,-0.20088965,-0.022353377,-0.027348071,0.030195428,-0.112082295,-0.01320405,0.013477293,0.11730884,-0.15406208,0.07105133,-0.2002033,0.18546979,-0.017808141,-0.0053817034,-0.05060446,0.004047566,-0.09811104,0.0161154,0.0959799,0.095462374,-0.106057,0.09489694,-0.03676815,-0.09971976,0.00102563,0.030188872,-0.34312606,-0.16075929,-0.14197479,0.11880055,0.02719675,-0.08731147,-0.17023772,-0.20875435,-0.10598963,0.0326657,-0.021930417,0.094740994,0.08029582,0.123499,0.18428901,-0.11492494,0.100368984,-0.2094592,0.08815833,0.08811254,-0.029505827,-0.016281806,-0.1306827,0.075012594
-0.33947086,0.02091667,-0.19784413,-0.04326723,-0.043206755,-0.10817036,0.11509952,0.007825262,-0.123781234,-0.27120286,0.13155235,-0.16935612,-0.051234253,-0.03542782,-0.10887594,-0.15600054,0.1559106,-0.29397732,-0.0788495,-0.015126655,-0.3580356,0.040949736,0.060870305,-0.23774515,-0.07188241,0.1252186,-0.053844735,0.11577451,-0.064597435,0.055957854,-0.15628259,0.23441589,0.23205616,0.10191699,0.11059508,-0.2900191,-0.3134628,-0.22087653,-0.05223258,-0.10728908,-0.029081479,0.015841715,0.02773705,-0.22334501,-0.6474766,0.11329826,-0.18387885,0.007254545,-0.036790103,-0.045530174,-0.31235513,0.05092052,-0.09199814,-0.17660433,-0.20561156,0.031003846,-0.17102306,0.37606284,-0.17556533,-0.031233592,-0.021291504,0.09452244,-0.14155602,-0.120182015,0.07418729,0.0068293675,0.011168414,-0.012524466,0.07196455,-0.43349725,-0.096121185,0.009003599,0.15615307,-0.15360501,-0.07249707,-0.07052711,-0.06541944,0.05466101,0.060335025,-0.18185541,-0.14841639,-0.14055954,0.03331508,-0.6977562,0.103833124,0.13090721,-0.14944237,-0.053849597,-0.23586637,-0.20160653,-0.044349715,-0.26136807,-0.0750886,-0.055051167,-0.10372547,0.24778327,-0.12767726,-0.20168932,0.018788366,-0.1992688,-0.07865292,-0.17412218,-0.048977286,0.20018113,-0.034124047,-0.18417242,0.0825025,-0.31372687,-0.032054156,-0.10838842,-0.324008,0.042066645,-0.16119772,0.015518853,-0.08713746,0.1141524,0.099203244,0.17686716,0.017981824,0.16145022,-0.010944391,-0.04336955,-0.023965094,0.12521598,0.07959669,0.14583237,-0.040366873,0.18508492
0.0696602,-0.036841743,0.061670173,0.1444892,-0.17713696,-0.21447779,0.00051792304,0.060823947,0.18719736,0.010165974,0.16217004,-0.15406093,0.048242427,0.064924605,-0.01002709,-0.01074126,0.054310057,0.046045452,-0.061853245,0.10348719,0.10312702,-0.12988131,0.011268605,0.1641453,0.13815475,-0.31740132,0.041794933,0.06395945,-0.06815924,-0.28480303,0.09664227,-0.3362527,-0.17646007,0.06109687,0.14549409,-0.43724358,0.21294115,-0.23731028,0.030323187,-0.042081222,-0.20377474,-0.13054876,-0.24123074,0.093171924,-0.018242875,0.02784759,0.1035262,-0.13097733,0.013676372,-6.149859e-05,0.012005913,-0.64596355,0.035754886,-0.45208654,0.11739999,0.0422949,-0.19761653,0.2259456,-0.013479083,-0.05187551,0.17684646,-0.07667478,0.14949489,-0.0072649503,-0.046609245,-0.001885353,0.023054842,0.007848966,-0.38059452,0.06674034,0.008956555,-0.27394795,-0.5169309,-0.0244304,0.01683493,-0.04024021,0.05448412,0.01538157,-0.027300289,0.07063603,0.12183101,-0.0035979534,-0.1581175,-0.032723308,-0.3292349,0.094098635,-0.10566821,0.23768131,0.09646504,-0.19026959,0.11705675,-0.060605213,-0.011474729,-0.11620629,0.01711849,-0.1550021,0.041845948,0.16987212,0.15863073,0.054916587,-0.15533128,0.022994041,0.006187023,0.08356544,-0.1201868,-0.5166896,-0.19338214,0.04547014,0.13435616,-0.086538605,-0.097853936,-0.18417786,-0.19127914,-0.11888567,-0.11169846,-0.052908935,-0.065631576,0.16972831,-0.034875255,0.22369789,0.025615405,0.20680782,0.065616764,0.014883534,-0.021078639,0.08051267,-0.11171317,0.026560599
-0.3667822,0.033098765,-0.03996407,-0.4956177,0.012996877,-0.04196717,-0.08837548,-0.04294814,-0.19744037,0.08749011,-0.03130641,-0.13160111,0.06640209,-0.111382484,-0.2670472,-0.53508085,-0.009476427,0.013928921,-0.060148638,-0.14106005,-0.1517922,0.082196265,-0.0070934827,-0.35759792,-0.1361569,-0.07782492,0.168624,-0.10349423,-0.48316434,-0.046881247,0.015265545,-0.08327467,0.2671226,-0.026658654,0.078967735,-0.24893649,-0.14891614,-0.035681855,0.021559065,-0.22458248,-0.507323,0.037214756,-0.2035161,-0.19588354,0.06008602,-0.4409918,0.054630693,0.04776564,0.12489175,0.119207,0.28616396,0.04405228,0.15428935,0.14960766,0.10293479,0.2046044,-0.037925467,-0.0031993212,0.22281758,0.087211624,-0.28438053,0.077441014,0.04905941,0.009845592,0.21050517,-0.2793459,0.048208512,0.0073480154,0.066900186,-0.13684446,-0.19650948,0.08060749,-0.27761158,0.047260515,0.108041346,-0.0439533,-0.291142,-0.12787965,-0.03817841,-0.1068952,0.026053498,-0.07234744,-0.33478206,-0.4888155,-0.04454245,-0.33410555,-0.0219126,-0.26469737,-0.26407516,0.06108353,-0.156722,-0.09454611,-0.053453103,0.23535095,-0.12294875,-0.026722524,-0.64536667,-0.0169119,-0.0363375,0.11208093,0.008250397,-0.16355005,-0.073629305,0.031842567,0.044951852,0.015434656,0.08664741,0.0010882764,-0.0849215,0.03569961,0.038461916,0.30220625,0.103784755,0.04203415,-0.24097605,-0.22795832,0.027119182,-0.110957034,-0.008314969,0.04957773,0.1378168,0.09815481,-0.032715816,-0.39675042,-0.0092883045,0.15005805,0.06837179,0.082341366
-0.08924674,-0.08721114,-0.041259434,-0.033474587,-0.0931609,-0.068487845,0.01967899,-0.023315495,0.02491509,-0.021799535,0.055732496,-0.122295715,-0.110736825,0.049936503,0.024848355,-0.03151322,-0.10395935,-0.039769493,0.03689444,-0.060480155,-0.07987775,-0.022103745,-0.006643158,0.0017650693,-0.0021533584,0.010658617,0.004943009,0.051032837,-0.11034889,-0.004365216,-0.0482885,0.021672443,0.015162694,-0.00041978934,-0.033184934,-0.0035697804,0.04636629,0.04541295,-0.023014762,0.0073853647,-0.024046412,-0.015834857,0.049031578,-0.00519806,0.036906026,-0.11789659,-0.019081902,0.068119936,0.059952702,-0.09239662,-0.09238474,-0.037420087,-0.07476313,0.031068519,0.061952516,-0.02475565,-0.035738625,-0.031631455,0.06899234,0.009729263,-0.05857873,-0.051449507,-0.053707965,-0.09834551,0.029221494,-0.08870979,-0.096447155,-0.0059443344,0.037713654,-0.08624874,-0.08298557,-0.10870815,-0.008945129,-0.088603735,-0.043781795,0.039830405,-0.10252311,-0.02479035,0.032729533,-0.062062476,-0.040208887,0.056049906,-0.06695353,-0.038656052,-0.009947858,-0.0539579,0.029403955,-0.008280924,0.020126667,-0.091881365,0.048548598,-0.034350894,-0.021553155,-0.045034233,-0.04789296,-0.05172578,0.04430063,-0.018652266,-0.06529268,-0.06601691,-0.047037974,0.049247064,-0.029453257,0.04855837,-0.20526053,-0.09525799,-0.09319893,-0.024375156,-0.042538133,-0.032602895,0.0006548301,0.029363833,0.07188989,0.0029218763,0.023995627,-0.018100789,-0.06696268,-0.02056114,-0.12370221,0.055054996,-0.12661037,-0.023970403,0.031047335,0.062412407,-0.009046515,0.044911534,-0.054913536,-0.017805496
0.0028489637,-0.11039566,0.048647538,-0.07435168,-0.004179918,-0.0040014046,0.038792823,0.015177932,-0.0908469,-0.02690939,0.033342477,-0.10495119,-0.036468767,0.07720699,0.035759635,0.083454564,0.0071439086,-0.068045475,0.019363891,-0.08255059,0.019785386,-0.020202892,-0.096792005,-0.06897256,-0.072062604,-0.017340565,-0.075087175,0.070284724,-0.020791551,0.04768906,-0.021616435,-0.057419945,0.014959449,-0.039567277,-0.09687654,-0.035266254,0.018331839,-0.021713434,-0.026825061,-0.0105383145,-0.038933717,-0.06792019,0.0024725348,-0.087595604,-0.09289196,-0.06225471,0.07297512,-0.02960127,0.055666775,-0.086098135,0.0025323888,-0.040378556,-0.087204404,0.06491983,-0.014421377,0.0098993275,-0.09253131,-0.042382546,0.033575013,0.051215038,0.028925078,-0.10776455,-0.031438258,-0.09704521,-0.07158528,-0.007695481,0.019852474,0.046356868,-0.05867877,-0.019896861,-0.078868136,-0.031978637,0.0018513941,0.06174062,-0.025734007,0.07765306,-0.061943892,0.0064158556,-0.05478815,-0.0564998,0.043516386,-0.0072569526,-0.009825406,-0.122944094,0.03400704,0.054569315,-0.10009179,-0.00092507206,0.031195898,0.0040343157,-0.09707892,-0.035258066,0.0017415108,-0.02496504,0.029263915,-0.0068850266,-0.028791089,-0.024656154,-0.094496146,0.0064800754,0.0017070229,-0.08365102,0.025288664,-0.010030693,-0.123866156,0.059267644,0.058454838,0.052034274,-0.017922333,-0.0012788932,-0.10343721,-0.055549793,-0.02625446,0.025396615,0.059487678,-0.044118997,-0.101579696,0.0521365,-0.0006628439,-0.06665724,0.0099776955,-0.020445885,-0.112071514,-0.08325347,0.032317497,0.06394386,-0.07466559,0.023182321
-0.024806947,0.031405494,0.10757881,-0.19347112,-0.1629973,0.019523034,-0.07750181,0.053879615,-0.20707329,0.03916183,-0.15781653,0.025047889,-0.002953654,-0.0052653253,0.03520913,-0.06182829,0.09749852,0.0073554586,0.075538695,0.053370845,0.06580576,-0.07791467,0.08171397,0.0626162,-0.21304777,0.035134204,-0.17476586,-0.012131881,0.028695416,0.09308767,-0.04194606,0.12503077,-0.11312782,-0.051568825,-0.087155305,0.12441748,0.013002072,-0.085940465,0.09549324,-0.5502755,0.04642046,-0.13084628,-0.10752518,0.054820593,-0.04938704,-0.050120782,-0.009380918,-0.0754036,-0.10612524,-0.05824064,-0.2957988,0.044986278,0.01193682,-0.0878808,-0.097114734,-0.20225646,0.025968099,0.087836295,-0.050233364,-0.16212764,-0.14863302,0.010769239,0.033830937,0.17260037,-0.033853587,0.074139565,0.017862739,0.0069703544,-0.06966123,-0.054782767,0.07442914,-0.10942779,0.054441318,-0.10995322,-0.18280491,-0.03666032,-0.14189978,-0.049142852,0.14622466,-0.057060543,0.05506168,0.10340171,0.027305014,-0.1679809,0.0457224,-0.13718854,-0.31059873,-0.13419075,-0.08983791,-0.16001044,-0.3809842,-0.05614337,0.011886058,-0.06016985,-0.16450335,0.12622097,-0.1295439,-0.022958253,-0.1306928,0.06838229,-0.10369419,0.028421568,0.036467087,-0.03915944,0.057129413,0.046473492,0.0702713,-0.06274896,-0.1722664,-0.12043206,-0.047418863,0.074024856,-0.100735776,0.03980162,-0.015666619,-0.05352256,-0.14426626,0.053231407,0.07987705,-0.08022407,0.02818966,-0.008195843,0.061245505,0.041479487,0.017465971,0.03816812,-0.094334275,0.0062703094
-0.11434067,-0.06571122,0.03645793,-0.028720029,-0.0612974,0.08296303,-0.22819556,-0.08568643,-0.017158322,-0.089376055,-0.09323654,-0.003640492,0.023927396,0.040615227,-0.06954427,-0.014661577,-0.08295138,-0.0022046983,0.0031195919,-0.06842223,-0.0066970573,-0.0023007467,-0.039277688,-0.15837415,-0.027531078,-0.0764065,0.029412713,0.051719103,-0.04100845,0.06587539,-0.024771268,-0.0012703586,0.05138736,0.027252063,0.049306273,-0.042686615,0.038529463,-0.17109817,-0.09414786,-0.017570099,-0.01652446,0.03760016,0.17749391,-0.048261393,-0.1126708,-0.12256422,-0.028194556,-0.066946425,-0.019702634,0.021855123,-0.02401356,-0.16187839,0.03335169,-0.029301854,-0.0012000165,0.07655701,-0.022951892,-0.024371048,0.01500775,-0.037528276,0.06122051,-0.011689287,-0.012130659,0.031239236,-0.08173934,0.033219703,-0.0026324326,0.0046632136,-0.07234298,-0.14894563,-0.14208186,-0.035612684,0.008146409,-0.09124795,0.0034332064,0.029841898,0.075313605,0.005410952,0.016506737,-0.023408974,-0.021359155,-0.08902398,0.0167721,-0.06760483,-0.14226061,0.017949885,-0.0740593,0.017110426,-0.06899564,-0.03992725,-0.042262502,-0.068104446,-0.039230302,0.014467353,-0.09707323,0.015535972,-0.06794775,-0.09674912,-0.06766291,-0.03731854,-0.04037829,-0.08452526,0.027581502,0.05661629,-0.049831554,0.0752165,0.072460085,-0.0060953083,-0.03331573,-0.03509058,0.03106496,0.056559414,0.054773197,-0.08208478,-0.06698526,0.066777594,0.08887502,0.0548068,-0.015556464,-0.083903,-0.06667264,0.0026347854,-0.051763065,-0.087838896,0.028102405,0.0492043,-0.10487681,-0.0007173158
-0.02334694,-0.14108977,-0.08898593,-0.17287014,-0.05423487,0.03315401,-0.13529965,-0.031247145,0.042480778,0.030923065,0.08293853,0.08376712,0.011707503,0.07717324,0.22682464,-0.08465703,0.020548325,0.0820525,0.01405804,0.20242499,-0.0046694325,-0.3440071,-0.17422715,0.058151845,0.08342788,-0.47114852,-0.068517625,0.014134334,-0.089855336,0.059695207,-0.03138527,0.005174771,-0.28068238,-0.009655321,0.1183368,0.06582831,-0.05419547,-0.12465301,0.011792681,0.016297735,0.09948113,-0.13029106,0.21285754,-0.3084601,0.14557582,-0.04813791,0.06738605,-0.17984603,-0.26148915,0.004807666,-0.057170946,0.016700357,-0.0560386,-0.08846065,-0.053328797,-0.08383009,-0.12027297,0.050507374,-0.05541371,0.01164357,-0.13828452,-0.0352384,0.18544123,-0.0643956,0.05373541,0.029196033,0.028176125,-0.15017176,-0.16866034,-0.024398936,0.067375034,-0.07699418,-0.0073489207,0.1248376,-0.057541043,0.053576823,-0.04108775,0.015944937,-0.054331284,0.02613964,-0.28755084,0.19781965,-0.1789491,-0.06890897,0.020166773,-0.098708354,-0.09922481,-0.024711896,-0.03991499,0.016572393,0.13406855,-0.2321767,-0.07157058,-0.09886684,-0.13169637,-0.041208003,-0.158298,0.10089879,-0.028743304,-0.0012165029,-0.13793926,0.13560112,-0.035005555,0.035066642,-0.021523707,-0.15984169,0.0031566354,0.09122538,0.08445462,-0.076334625,-0.006264385,-0.024061162,0.1901529,-0.13970497,-0.023873879,-0.17875174,-0.16117728,0.06743481,-0.18921594,-0.0753566,-0.22349581,-0.17039157,-0.06245272,-0.07634009,-0.066473216,-0.13217536,-0.08292094,-0.041713838
-0.010721781,-0.044819493,-0.050472543,-0.11550865,0.0041706273,-0.034634925,-0.040522646,0.013910133,-0.062125284,-0.03197145,0.04946286,-0.092128165,-0.14744362,-0.07682603,0.021113822,-0.037802532,-0.08872109,-0.12873732,-0.04890978,0.03108573,-0.077897914,0.018689193,-0.110001855,0.027745485,-0.11613498,0.033432562,0.05711139,-0.055097017,0.00828763,-0.050398078,-0.15365782,-0.01353898,0.016583482,-0.06499514,0.072806716,0.061931502,-0.05995426,-0.011842943,-0.09123757,0.03252503,-0.115017526,0.029096281,0.04350391,0.053964447,-0.022700733,0.042103395,0.037010107,0.06641349,-0.018878005,-0.08128771,-0.087220676,-0.11854294,0.013421737,-0.0892479,0.058977634,-0.046697553,-0.15144555,-0.04773376,-0.09955476,0.04122474,-0.07738412,-0.0058347154,-0.01715477,-0.06065887,-0.09509406,-0.09540404,-0.034892656,-0.031813256,0.06803086,-0.10249254,0.033368792,-0.0059630205,-0.03575595,-0.08086986,0.03438155,0.06236825,-0.0019859746,-0.0153014315,-0.044877082,-0.021737356,0.011846824,-0.077119395,-0.0795577,0.03855638,0.0019821778,-0.041103903,-0.101580724,-0.03152919,-0.05382374,-0.0037361465,0.0795366,0.029991012,-0.007452026,-0.022826679,-0.11477283,-0.0025607203,-0.019548636,-0.009008651,-0.02515336,0.035412896,-0.015746946,-0.026466167,0.017211763,-0.092373095,-0.050361045,0.033990264,-0.06219432,0.005320616,0.09633194,0.02174576,0.016219385,-0.026790518,-0.011210634,-0.026102483,-0.06250138,0.024398336,-0.041108355,-0.085171245,-0.06954134,-0.09762242,-0.0622365,0.0075522396,-0.078982405,0.009969239,-0.1221456,-0.07598958,-0.09169756,0.009969992
-0.03486259,-0.099548295,-0.05261916,-0.042493884,0.0034088397,-0.09595431,-0.041845545,-0.049669765,-0.08479049,-0.003484352,0.033971537,0.0582822,-0.068832695,-0.08432182,-0.047705542,-0.1102608,-0.15853262,-0.022978242,0.028381778,-0.035626147,-0.0790722,0.02697285,-0.06237819,-0.052570984,-0.08030161,0.03492077,0.045173086,-0.07186662,-0.07972298,-0.0931823,-0.116377406,-0.084462255,0.049761344,-0.048564866,0.011496096,0.096028894,0.055337448,0.05476285,-0.09802677,0.008298106,-0.05367692,-0.059889067,-0.06765861,-0.007404774,-0.03678537,0.014561069,0.037517693,-0.003367678,-0.017195553,-0.059407458,-0.003117943,0.048303075,0.017932434,0.00655138,-0.0050640544,0.024929892,-0.045084465,-0.020221688,0.04038765,0.07375251,-0.08295066,0.023514481,-0.06354485,-0.025919748,-0.08659551,-0.067839704,-0.051376723,0.062450122,-0.046964407,-0.030537076,-0.022565363,0.0101894,-0.07643285,-0.046701446,0.03000873,-0.07578079,0.0763341,0.045008384,-0.046670225,0.112737775,0.011725799,0.028668992,-0.12044712,-0.0147875445,-0.07090272,-0.0744614,-0.030704977,-0.07354373,0.0645496,-0.093175516,-0.011024533,-0.08209629,-0.08137005,0.06478214,-0.1099725,-0.0007256579,-0.082099356,0.050641935,0.02222361,-0.042325445,0.076952145,0.00866624,0.005721002,0.02832299,-0.11681002,0.041767254,-0.015655262,0.030014517,-0.015140627,-0.02639257,-0.06981705,0.021261223,0.052276324,-0.05842304,0.07314566,0.058496717,-0.052805316,-0.06917534,-0.09703647,-0.041482653,0.051650412,-0.057143923,0.029967764,-0.006425713,-0.075011626,-0.021144904,-0.02795097,0.029822
-0.03628199,0.05969797,0.06866798,-0.011711669,0.037967205,-0.016086636,-0.07221542,0.052800532,-0.008679989,-0.07215837,-0.04898841,0.05703025,-0.08471669,-0.008380798,-0.04046161,-0.04911859,0.021048106,-0.07146917,-0.059655696,-0.051842347,0.04905648,0.000121167584,0.037917007,-0.017092444,0.0821552,0.009116895,-0.072879255,0.017637584,0.03145693,0.0150958635,0.011463804,-0.04593143,-0.07152157,0.015543845,-0.049073726,-0.029332217,-0.011157586,-0.058072764,-0.06822999,0.014761912,-0.06978047,0.08851151,-0.0075403,0.026578274,0.047640026,-0.0390396,0.062435452,0.0053437133,-0.05823161,-0.06428433,-0.009642269,-0.00922925,0.022204073,-0.020524343,-0.039710484,-0.079597004,-0.046922795,0.041380752,0.044428166,-0.043871954,-0.12966615,-0.04710417,-0.050123785,0.025826171,-0.07674566,0.05309773,0.038577046,0.019143632,0.0072201113,0.017716546,0.051373933,0.07997882,0.039003123,-0.0037162676,0.010328423,0.07582827,0.06880542,0.07122458,-0.04156906,-0.0916604,-0.026811086,0.03958822,-0.13402826,-0.069965586,0.03740138,0.03321538,-0.06345158,-0.030920444,-0.07123846,-0.033653717,0.08404267,-0.07679267,-0.021749275,-0.088312335,-0.08694052,-0.07155923,0.03270794,-0.043548413,-0.050447118,-0.078743346,0.002761651,0.0648428,-0.00500797,-0.08976295,-0.12817585,-0.11926967,-0.09261249,-0.023267081,-0.03536381,-0.075797416,-0.000668645,-0.06751133,0.006296429,0.036900014,-0.03202213,-0.071638286,-0.051133096,0.023425905,-0.052837595,0.07770177,-0.06223184,-0.02385367,0.017025042,0.008106996,0.014537798,-0.05887616,-0.04186875,-0.08130604
-0.03426587,0.0977077,-0.122926235,-0.6231867,0.05488364,0.026326673,-0.29441985,-0.07786283,-0.09706063,0.01757283,0.024250194,-0.06644874,0.08601612,-0.0796385,-0.089349516,-0.06177946,0.013905627,-0.11578538,0.008545291,-0.088128544,-0.094770774,0.035621595,0.026914284,-0.32184583,-0.03490896,-0.06469748,-0.13377844,0.050181814,-0.09977373,-0.109679945,0.07321933,0.006202557,-0.12163943,0.05753706,0.11122317,-0.28093776,0.046836287,0.26421425,0.12525648,-0.5267502,-0.036483485,0.08012467,-0.14826752,-0.071626164,-0.06502823,-0.11839712,-0.025259653,0.12407972,0.08897075,0.068472326,-0.10783896,0.027304927,0.054463025,0.098874226,-0.022255355,0.063059956,0.0131242545,0.058924228,0.14063182,0.0021887943,0.08937186,0.0543969,0.052479804,0.067824125,0.09685315,0.03887758,-0.13632748,-0.034200955,0.11215996,-0.4243286,-0.086645864,0.0771779,-0.013237527,0.14231622,-0.011547749,-0.10124249,0.08586325,0.11469076,0.070193335,0.022213148,0.006829142,-0.42797437,0.020066306,-0.34968492,0.0077610034,0.14870761,-0.087769695,0.15369731,0.06006867,0.03185317,-0.09890814,-0.14063406,-0.30563483,0.026757292,-0.11484674,-0.052035972,-0.059086405,-0.048028167,0.05801213,-0.03210402,0.014887098,0.016174277,-0.14703664,-0.046170488,-0.011976562,0.005784857,-0.11344185,-0.40939167,0.071706444,-0.098830715,0.015924033,-0.033580095,-0.08861172,0.031237086,-0.08477216,0.17583404,0.067319684,-0.13104163,0.06339764,0.045838844,0.066826664,0.026202764,0.0523377,-0.00660767,-0.018311547,0.07475289,0.1395422,-0.035818383
-0.1573431,-0.143625,-9.3184346e-05,-0.12546982,-0.099059284,-0.18262963,-0.15738656,-0.10840818,-0.08617766,0.24306494,0.32159445,-0.08869844,-0.09704834,-0.27170193,-0.5249109,-0.34444645,-0.32798004,-0.28385058,0.012903171,-0.29319093,-0.077799745,0.059344646,-0.021240707,-0.027995426,-0.077431716,-0.31138656,-0.25796494,-0.45019054,-0.23169117,0.046354726,-0.37211204,-0.20166299,0.041274704,0.18367934,-0.040688846,0.057907764,-0.14937024,-0.36334282,-0.041458897,-0.039179873,-0.23375024,0.057977322,0.022337608,-0.016939297,0.041774325,-0.15961286,-0.004504775,-0.13684656,0.3813051,0.24857962,-0.056865998,0.010348494,-0.017836273,-0.05973247,0.00967107,-0.08557032,0.108974904,0.1177862,0.04618261,0.025822064,-0.065584995,-0.038927503,-0.13030304,-0.028509183,-0.012344943,-0.1651709,-0.13490035,0.044545643,-0.35496014,-0.20673808,-0.004006682,-0.23012921,-0.22500633,-0.090086594,0.06882173,0.03315413,-0.045168694,0.19992758,-0.16141291,-0.19247681,-0.016182274,-0.13758789,-0.27818918,-0.05768853,-0.0959044,-0.19955471,0.12588799,-0.07409913,0.11596767,0.07749779,0.04740151,-0.16016522,0.122721694,0.06347479,0.09729094,0.16318691,-0.01795523,-0.33679008,-0.4264918,-0.029625598,0.11354707,-0.13505127,-0.08916641,-0.04181692,0.17384894,0.065832645,0.14505357,-0.06012277,-0.16079101,-0.1597635,-0.23781943,0.15847923,-0.1456985,-0.2384346,0.30543572,0.05784822,-0.028626874,-0.17125134,-0.15184894,-0.21629877,-0.028678704,0.12582998,-0.11245007,-0.14504397,-0.0093541695,-0.020715326,-0.16396956,0.051401563
-0.024180995,-0.023578584,0.01995185,0.24107678,-0.09009562,-0.11908004,0.023067731,-0.04575255,0.016375348,-0.03814574,-0.07063895,-0.011180943,0.020883901,-0.07750887,-0.28277358,-0.015978586,0.18637848,-0.06622226,-0.037620537,0.0033967262,-0.11811475,-0.05944395,0.09077022,-0.29519302,-0.036216654,-0.27805924,-0.15893632,-0.116971,0.0490726,-0.21310638,-0.08244986,-0.02445136,-0.12876414,-0.09514698,-0.022625102,-0.41794503,0.05851195,0.122449696,0.046706285,0.06512992,-0.025587782,-0.07743617,0.0439165,-0.1123634,0.058803655,-0.08959082,0.041558675,0.1489789,-0.0060271085,-0.030384097,-0.07920446,-0.010209138,-0.12822385,0.15082721,0.242792,-0.086023,-0.06915503,-0.05111024,-0.33531573,0.043237947,-0.15234196,-0.08872065,-0.055929758,0.1231897,-0.011947231,0.01895673,-0.03769873,-0.074758,0.14029896,0.17477663,0.116205275,0.013396339,0.034453843,-0.06190654,-0.000729516,0.048668973,-0.033903617,-0.086462,-0.26672894,0.11562031,-0.1116269,0.055548035,-0.034582663,0.115109816,0.0065841796,0.00418371,0.17997356,0.21841174,0.01516097,-0.025238391,0.015156622,0.013904836,-0.14839177,-0.09827059,0.05668569,0.034897316,-0.31209973,-0.085213445,-0.12826738,-0.029667402,-0.08007239,0.03391628,-0.025509167,0.052977838,0.042080972,-0.2664864,0.12982555,-0.30952188,0.029000062,-0.047589645,-0.33435115,0.07362096,0.08155361,0.044658743,-0.3095654,0.011443692,0.069582954,0.060055573,-0.16307528,-0.15018709,-0.11647506,0.062619835,-0.25948516,0.014828888,-0.019879956,0.015598072,0.106157236,0.022684619
0.028073482,0.07637398,-0.048864786,-0.37583926,0.06141549,-0.034809735,-0.24618492,0.05557922,-0.058961455,-0.008058905,0.03587673,-0.05334155,0.09691914,0.16740374,-0.014859723,0.07912013,0.020668726,-0.1496322,0.06281441,0.028862312,0.04089983,0.008903939,0.004944406,-0.005408014,0.1007291,-0.020291975,-0.37425378,0.004145835,0.019310057,0.026071858,0.029827774,0.006711558,0.10081713,0.004591791,-0.080705725,-0.060479432,0.061257236,0.033672303,0.09247263,-0.0360221,0.03857075,0.0032416948,-0.04580416,-0.09840694,0.036932126,-0.027177215,0.04339833,0.10364038,-0.0734959,0.041599385,-0.101050794,0.03295825,-0.036274683,-0.04612957,-0.033398483,-0.054213095,0.068501495,0.1236036,0.021262474,-0.18177874,0.033153303,0.10462866,0.11918566,0.045502555,0.027580805,0.014558436,-0.018215433,0.12296834,0.0013729477,-0.41824988,-0.109175414,-0.096056834,0.027574893,0.037838634,-0.02501837,-0.027476422,0.025463937,-0.008602668,0.019155424,-0.0014404176,-0.0066067935,-0.12911275,-0.017414717,-0.76997733,-0.021898588,0.10872427,-0.10948982,0.14231102,0.11398795,0.03623379,-0.17109692,-0.15847746,0.014076776,0.09095479,-0.072932735,-0.034004368,-0.023165617,0.06884321,0.013195333,-0.10179272,0.10771053,0.05519193,-0.040959433,0.064873494,0.040204234,-0.036978655,-0.073762745,-0.4472216,0.12582272,0.048696887,-0.030533424,-0.07882261,-0.21272278,0.086380824,0.058027674,0.015218247,0.07242725,-0.009018621,-0.00030733694,0.073999405,0.0038716588,-0.021303428,0.0048171086,-0.002454006,0.11031622,0.0449647,0.002675496,0.02090104
0.015642356,0.04915955,-0.026420027,-0.008078167,-0.008158183,0.055414356,-0.021730173,-0.07763024,0.0013242919,-0.08227825,0.022059081,-0.083998196,-0.055950943,0.058525775,-0.07307138,-0.09085759,-0.03586787,-0.06580953,-0.063515045,-0.07775262,0.025130209,0.040101454,-0.021073211,-0.0673964,0.025637181,-0.03261637,-0.084173255,0.058543935,0.016850518,0.04789881,-0.1377404,-0.08553672,0.03764474,-0.040825617,-0.0124263195,0.021265332,0.027460927,-0.047690004,-0.025522856,-0.058197077,0.0010315954,0.06275772,0.017020047,-0.08932544,-0.049168665,0.018267704,0.06566362,-0.0007760434,-0.048914537,0.02579083,-0.016755916,-0.06080435,0.055265583,0.08089117,-0.06766503,-0.022684364,0.004064136,-0.078770846,0.042018477,-0.025071306,0.0058422983,-0.057637732,-0.09328837,-0.00073615246,0.04296538,-0.019336985,-0.071633495,0.0029437733,-0.082780346,-0.053621776,-0.0059470953,-0.043942112,0.054190867,0.062135007,-0.09159038,-0.06095385,-0.08619144,0.048634946,0.036780067,-0.04819321,-0.07203806,-0.081673436,0.008877938,-0.043739237,-0.052803673,-0.024871463,0.06280223,-0.0018741605,0.012733323,0.04622022,-0.015664415,-0.07044623,0.0071040182,-0.018560728,-0.09339785,-0.0682309,-0.0059805578,-0.03155944,-0.06813745,-0.01876459,0.039978158,0.06891859,0.040829454,0.08187595,-0.13665596,-0.023603702,-0.07566474,-0.06764203,0.0041663893,0.034641355,-0.05491818,0.07334189,-0.075485304,0.028391741,-0.061251123,-0.028427767,-0.038619738,-0.061313473,-0.0022302032,-0.06211242,-0.0276776,0.044196162,-0.09616621,-0.014432564,-0.036867645,0.060892984,-0.0065535884,-0.09646896
-0.0024293577,-0.07504627,0.04309882,-0.08160475,-0.105954364,0.0457102,0.016216818,0.037268933,0.045811154,-0.09186816,-0.07667657,-0.025901688,-0.062315945,-0.06274274,-0.030135266,0.04415568,0.06184434,-0.011585257,-0.081874914,0.012290245,0.06289416,0.053931206,-0.08298855,-0.073456004,0.038761828,-0.08530116,-0.01144287,-0.042635582,0.081562124,-0.047660712,-0.096176565,-0.075018466,0.05091806,0.039958186,0.027177043,-0.0009472109,0.082555026,-0.0383505,-0.10574103,0.03132246,-0.10098734,-0.0015914583,0.0503149,0.010740061,-0.042307846,-0.029239032,0.08187287,0.013665111,0.047089122,-0.015048821,0.024575038,-0.036274727,0.052029505,-0.07270622,-0.038612377,0.056432206,-0.07146661,0.052921627,-0.05322447,-0.08351842,-0.098842,0.025117004,0.05454435,-0.012147423,0.06762269,-0.07525203,0.012433593,-0.012786675,0.0055155223,-0.0074077677,-0.06671254,-0.03076105,0.03636825,-0.041791473,0.004344794,-0.0428091,0.045161556,-0.037967224,-0.0017431921,0.010752131,-0.035035577,0.02557304,-0.021549616,-0.0043795244,-0.04694651,0.013942747,0.008135075,0.054923538,0.035576507,-0.09600089,-0.08331228,-0.018323073,0.011380389,-0.09573981,-0.07772324,0.017873788,-0.07842191,0.007066547,-0.084426716,-0.0019156166,0.038425487,0.004767568,0.07112308,-0.04924571,-0.10546197,0.0734122,0.013584957,-0.050184797,-0.08401015,-0.03803564,-0.01685002,-0.08434068,-0.061475173,-0.03622702,0.011965374,0.07741461,-0.088579476,0.06809267,-0.08509894,-0.055866975,0.015368193,-0.05511743,-0.07471595,0.052377697,-0.05777378,0.0562665,0.023494778,0.037848704
-0.13714913,-0.10909977,-0.029231036,-0.110017106,-0.049747426,-0.07811213,-0.061552048,0.023085576,-0.043866057,0.11204956,-0.0074953064,-0.009802199,-0.1314972,-0.05229474,-0.02001511,-0.090166226,-0.22842035,0.004858379,-0.079021715,0.028435107,0.0029641928,-0.017536785,-0.032748684,-0.062155038,0.000953188,-0.024569672,-0.09964927,-0.07427466,-0.007921952,-0.039819337,-0.11967086,-0.1906384,0.0073708897,-0.054641545,-0.0073733707,-0.023023842,0.0378371,-0.10144731,0.031545226,0.050923772,-0.09448993,-0.060235918,-0.06329413,-0.012387141,-0.061329484,-0.15865874,-0.1008443,-0.0057934048,-0.05364413,-0.048658434,0.07451525,-0.10397809,-0.052885875,-0.047210507,-0.06267039,-0.009350633,-0.27647907,-0.07839763,-0.024757804,-0.04159575,-0.06794955,0.042416878,0.08152802,-0.08491583,-0.07929251,-0.04841872,0.04065771,-0.123246685,0.02447059,-0.037147705,-0.013835993,-0.061304253,-0.019241937,0.10609158,-0.09942698,-0.03623909,-0.058883056,0.032951836,0.024619287,-0.06308588,-0.059069153,-0.097113915,-0.23845512,-0.12923178,0.012091083,-0.08922681,-0.050112735,0.009624804,-0.010837328,-0.08021817,0.028423198,-0.17994049,0.057175886,0.072737984,-0.1193767,-0.12787805,0.055391748,-0.09776483,-0.05247654,-0.0032752827,-0.081723504,-0.08962314,-0.054226983,-0.117096804,-0.10831043,0.14899583,-0.088019,-0.071417905,-0.1144058,-0.06128263,-0.21203233,-0.06186854,-0.105912715,-0.08700931,0.06351465,-0.07196376,-0.15362152,0.0119130565,-0.023148518,0.0041585136,0.01772717,-0.12423029,-0.021252798,-0.025693094,0.055888146,-0.09727241,-0.045802113,-0.065517075
-0.06364767,-0.046271183,-0.07291633,-0.17925934,-0.07784321,-0.006312765,-0.13166854,-0.0063347714,-0.1911885,-0.11553375,-0.03961453,-0.03744912,-0.10621143,-0.02572883,-0.15962604,-0.20609707,-0.04400644,-0.16715074,-0.0568193,-0.048916776,-0.024983574,0.08982233,-0.0896889,0.051774286,-0.06576138,-0.0723395,-0.10935453,-0.08998643,-0.023658585,-0.20865317,-0.12527272,-0.07589531,-0.07352588,-0.099253014,0.010349664,-0.053912602,0.0769354,0.01800519,0.01646193,0.0806447,0.07627867,-0.08599388,0.017703105,-0.056709442,-0.16106866,0.057134192,-0.090271495,0.07991657,0.0021375983,-0.0435951,-0.09974522,-0.22869228,0.04803857,0.035908774,-0.02830058,-0.022313463,-0.13081574,0.05042366,-0.120535396,0.033513952,0.16603054,-0.0060362173,-0.08711316,-0.09986459,-0.036421124,-0.001525081,0.0043808287,0.13686094,-0.05898819,-0.13593817,0.045816906,0.0021450252,0.018137043,0.11446389,-0.043753047,-0.05368933,-0.035934776,-0.09104363,0.053543713,-0.17360988,-0.016204976,-0.046837505,0.023163302,-0.20722073,0.11763482,-0.006506918,-0.18656603,-0.039811984,-0.03213027,-0.10244699,-0.010253344,0.0073133456,-0.058512438,-0.101284534,-0.18427831,-0.02966809,-0.04360274,0.0494881,-0.06892393,0.08230855,-0.05152022,-0.023622796,-0.028860878,-0.04454757,-0.04237681,-0.042447332,0.0034945346,-0.15338317,-0.027367197,-0.08922605,-0.18081649,-0.06421887,0.027888523,-0.049365204,0.022263937,-0.02036895,0.0644693,-0.031620752,-0.02834422,-0.0052876985,0.0010178607,0.0074729146,-0.11484998,-0.018899785,-0.0759801,-0.040698037,-0.054733958,-0.10899663
0.025995864,0.059974037,0.10055299,-0.041901167,-0.012430562,0.011401586,-0.1109583,-0.18044499,-0.12523486,-0.00017310846,-0.0191477,-0.10411012,0.047124505,0.0036377588,-0.0358831,-0.28428555,-0.041352503,-0.11783839,-0.027978463,-0.025764536,0.15682997,0.022391478,-0.027625764,-0.1621196,-0.12379783,-0.04492459,-0.055116832,0.02445449,-0.13279316,0.08628987,-0.04683415,-0.21250337,0.02432375,0.0010259001,-0.15741926,-0.10548071,0.0030588128,-0.14506647,0.034391265,-0.08865718,-0.13473406,0.0015881243,-0.084569626,-0.22249117,0.021663338,-0.03206045,0.103812404,0.023325492,-0.019372834,-0.04010012,-0.07202378,0.024447916,-0.0037289797,-0.11504875,0.0031600683,0.15946561,0.06705056,-0.041127726,0.046272404,0.0120405555,-0.033176493,0.0060917684,-0.061102174,0.026849205,0.029193798,-0.015935864,0.05585347,0.0033298018,0.037559386,0.03065208,0.083060436,0.022358112,-0.20429954,-0.050457265,-0.050733306,-0.068972245,-0.5146888,-0.0030708471,-0.055577952,-0.076522335,-0.050973076,-0.085458696,-0.06259434,-0.042465765,0.0030882645,-0.30660957,-0.064612746,-0.18120947,-0.009504628,-0.10527623,-0.16190095,-0.029101465,0.0036106918,-0.15634717,-0.026911149,0.10362459,-0.04810336,-0.12074716,0.020006645,0.028042044,-0.06847399,-0.15088747,-0.0049240384,0.019759664,-0.04549044,-0.020116739,0.030681806,-0.04128001,-0.07501774,-0.028350875,0.004186983,0.023313869,-0.060388535,0.07848706,-0.20368873,0.027547752,0.02381917,0.050975807,0.041681577,-0.025520874,0.043352094,0.028285336,-0.023138499,0.027122632,-0.22282483,0.07125975,-0.008196185,-0.00037548572
0.00078643736,0.030103296,0.11221719,0.029922858,-0.07526659,0.040489748,-0.08103405,0.07422152,-0.17688414,0.01607253,-0.050256874,0.07961889,0.04101571,0.013347413,0.06412693,-0.0013233032,0.15125278,-0.05039539,0.07165197,0.03882218,0.063128255,-0.012153575,0.080154195,0.030639246,-0.1695872,0.032106668,0.0045785406,0.03752977,0.07733925,0.06622273,0.050200373,0.05396332,-0.11049171,-0.081333384,0.012347899,0.0061529777,0.18808684,-0.039799567,0.13955678,-0.18815903,-0.025985247,0.0312058,-0.30254596,-0.00045573074,0.0073398165,-0.08930489,0.13090362,0.018676382,-0.05618869,0.048516758,-0.13131645,0.060211826,0.055437222,-0.01304097,-0.07912682,-0.11180404,0.055042256,-0.007739996,-0.022771442,-0.20237695,-0.1317627,-0.011169292,-0.06485509,0.23036078,-0.060264103,0.06351013,0.0686598,0.14049874,0.0146009475,-0.04265794,0.026052387,-0.15271212,0.06100532,-0.03460686,-0.28080136,-0.03872243,-0.25326633,-0.00066775666,0.19397993,0.06891802,0.14764997,0.10239257,0.053450752,-0.07098164,0.122061014,0.030288596,0.100445695,-0.12939566,-0.030730056,-0.12226087,-0.36391735,-0.13243982,-0.028153839,0.03240062,-0.07707509,0.06769023,-0.2645983,0.0664242,-0.12005198,0.03171404,-0.05838511,-0.03634207,0.007814742,-0.19992852,0.14273368,0.002231134,0.040820174,-0.12966911,-0.17840472,-0.08168354,0.049306028,0.04510655,0.012027013,0.0068607507,-0.18784115,-0.0009192891,-0.0634852,0.14221431,0.072077155,0.0033098727,-0.006646942,-0.033403303,-0.04273124,0.058887508,0.11432613,-0.059292782,-0.11980237,-0.0065933336
-0.01566415,0.016677802,0.086258486,0.11167774,0.009413539,-0.06276306,0.10726778,0.047056943,0.12115398,0.042502094,-0.057988174,0.09355481,0.08412579,-0.05267511,-0.3107346,-0.2231153,0.06186174,-0.02255994,0.007914914,-0.0837183,-0.0741726,0.054277554,0.017185874,-0.39939177,-0.062438883,-0.08286548,0.087383695,0.003442161,-0.09363823,-0.035373576,-0.0067879036,-0.23377346,0.21004891,0.027023967,-0.11080844,-0.0650328,0.03427585,0.15121391,0.040864863,0.1310687,-0.08071592,0.06227889,-0.23415145,0.09255011,-0.035976227,0.13429242,0.04010724,0.040969875,0.08871812,-0.113023825,-0.0765163,0.043703504,0.006337426,0.0907282,-0.040778395,-0.027365273,-0.047956146,-0.029167429,0.04928267,0.15113038,-0.0021652256,0.109122485,-0.16463539,-0.2553515,0.015928408,-0.03108836,-0.040029313,0.02609085,0.04906005,0.04329826,-0.037780296,-0.024553392,0.006238931,-0.04336055,0.019608034,0.027601816,0.060493466,-0.112763755,0.1078415,-0.028539814,0.055196088,-0.04772656,-0.027378213,0.048922535,-0.025024014,0.04000223,0.2339246,0.10044315,0.010541691,0.15397517,0.0644818,0.077694446,-0.040738173,-0.024145722,-0.05178303,0.03219261,-0.03377244,-0.06344048,0.021368038,-0.10737964,-0.05708652,-0.25918418,0.06717922,-0.11869228,0.016722105,-0.07028104,0.106704116,0.09068898,0.11736962,-0.01714223,0.051488083,0.0951687,0.1440737,0.13247085,-0.1607963,-0.051770326,-0.070675746,-0.035905696,0.10205994,0.0012822986,0.11537739,0.005117059,0.04063858,-0.064295344,0.0006545156,0.039265737,0.04502404,0.045133516
0.041671786,0.059717756,-0.00399735,-0.5335278,0.0022921504,0.019796291,-0.22175923,-0.58405524,-0.14070423,0.062478304,0.08736731,-0.14312254,0.06600594,-0.18794116,-0.18775858,-0.24658541,0.032327287,-0.22993565,0.059504744,0.015546149,0.16061975,0.16647911,-0.0052310023,-0.3074135,0.030546755,0.10004651,0.20503381,0.14452048,-0.098240525,-0.045053393,0.040380444,0.035730753,0.11001796,0.073316954,-0.10460858,-0.5934696,-0.05160081,0.1225767,0.08720958,-0.20565456,-0.17473799,0.15983337,-0.5068575,0.039355576,-0.03132404,-0.2969325,0.038687304,0.14864555,0.1609652,-0.0056903046,-0.104425654,0.050651643,0.07384829,0.22634351,0.024440046,0.110052325,0.048786998,0.059703924,0.095395766,0.01664411,-0.013324396,0.039013933,-0.12345075,-0.041793015,0.1233872,-0.28700718,0.09351878,-0.02754963,0.109343626,-0.20848158,-0.10830207,0.2531876,-0.046158582,0.04453421,-0.044539437,0.031293787,0.15506652,0.12390589,0.121098176,0.023085386,-0.15249257,-0.52782446,0.0038909658,-0.3446329,-0.06765839,0.08087903,-0.011044056,-0.17721029,-0.06524582,0.15905118,0.058456976,-0.33699813,-0.00095761335,-0.5494656,-0.18654442,0.07467779,-0.565514,-0.13668407,0.09786676,-0.19159439,0.060775824,-0.28825045,-0.006522582,0.005417588,-0.012235227,0.002001324,-0.3336365,-0.4890955,0.16223961,-0.09563295,0.052818995,-0.19048089,-0.11435553,0.092610784,-0.5513276,0.03569122,0.07354051,-0.14338909,0.010354367,-0.004294457,-0.0044241366,0.07334754,0.04411459,-0.20887668,-0.47239497,0.09925909,0.12872472,0.06729324
0.15283164,-0.0588483,0.13823313,-0.11253675,0.010314666,-0.0459645,-0.02108308,-0.11128718,-0.05606527,0.12794079,0.024506971,-0.122763224,0.084556624,0.26153064,-0.00025544627,-0.15522201,0.15832724,-0.77751994,0.11134579,-0.09184525,-0.017456196,0.10184985,0.045739863,-0.45897168,0.00265089,0.09201394,0.22890548,-0.13853014,-0.13197325,0.1452061,0.032820914,0.10235982,0.18607123,-0.062420618,-0.18698639,-0.46882427,-0.058737803,-0.6830747,0.075838245,-0.09263219,0.04833891,0.07668447,-0.32161808,0.21960738,-0.24282211,-0.1461064,0.021808632,0.14485979,0.17157744,0.029394051,-0.17525646,-0.11355191,0.053658884,0.1882256,0.26870716,0.1766361,-0.03716825,0.3146736,0.20237398,0.17778464,-0.010993529,0.04735227,0.007167676,-0.05148592,0.025863066,-0.18897673,-0.016512806,-0.13421945,0.047051538,-0.047786,-0.21877053,0.25927323,-0.20045932,-0.15828526,-0.17913091,-0.049193885,-0.440238,-0.18146668,0.037408765,-0.12139547,-0.26076615,-0.5786742,0.11282718,-0.14844912,0.16380344,-0.2405869,-0.041421518,0.13339119,-0.4389937,-0.005751985,0.023800971,-0.47032294,-0.05045274,-0.1673288,-0.24741979,-0.048350368,-0.42757463,-0.11057967,-0.008254185,-0.024006192,-0.016824177,-0.26568007,0.025723208,-0.25839287,-0.009456436,0.12312077,-0.22242899,-0.3654339,0.18282296,-0.2187762,-0.06763517,-0.68414277,-0.20572771,0.08527001,-0.6622658,-0.25935248,0.109317034,-0.18482675,-0.043129887,0.06817054,-0.12700021,-0.0612379,0.03793018,-0.0593137,-0.03727459,0.2035778,-0.022216083,-0.12186366
-0.08851702,-0.05038606,-0.07419921,0.06387582,-0.041272692,0.02115874,-0.11637789,0.056759093,-0.054547943,-0.038744297,-0.0117648775,0.00846921,-0.04380452,-0.014791841,0.019083994,0.012968158,-0.040215977,-0.0005816223,-0.07236719,-0.08426425,-0.078151934,-0.056211617,0.0016462741,0.03937571,-0.058839492,-0.019715061,-0.041101247,-0.053563476,0.030715438,-0.02662018,-0.109021306,-0.011792623,0.033368934,-0.08729394,-0.0046784496,-0.12097857,-0.008044404,-0.07303071,-0.048988122,-0.04248853,-0.05602445,0.04431386,-0.039375026,0.05617458,-0.066328295,0.047263496,-0.093964376,-0.011317659,0.011525509,0.01077691,-0.051265065,-0.019994687,-0.08938103,-0.047338843,-0.041737996,-0.012668139,-0.018625712,0.042769846,0.071643434,0.027133971,-0.045879588,0.051273543,-0.08847504,0.08557457,0.03249885,0.02797824,-0.015706537,0.071878366,-0.019225663,-0.041088514,0.026568597,-0.02933039,-0.00762595,-0.055940587,-0.08967236,0.06441127,0.0853349,-0.059700117,-0.09572959,-0.07712701,0.002424334,-0.057390083,-0.010192976,-0.08126821,-0.033767592,-0.032511495,0.043563273,-0.06662535,0.06728943,-0.048738107,-0.02107934,-0.12042819,-0.043478232,0.05492792,-0.07773076,-0.05520032,-0.041887175,-0.09854375,0.018654104,-0.07316211,-0.021426585,-0.058131367,-0.07514122,-0.08399621,-0.032678027,-0.09368062,0.059903663,-0.022913527,-9.942838e-06,-0.03892552,-0.09898122,0.006472701,0.035355367,-0.06251896,0.047271118,-0.0200624,-0.07233943,0.05402194,0.013158511,-0.07278529,-0.015429574,-0.07341738,-0.035652183,-0.039188188,0.0692213,-0.09759779,-0.04596566,-0.044951838
-0.010649149,0.038253393,0.093108654,-0.044755105,-0.1735082,-0.039006602,-0.027876914,0.067750394,-0.001355464,-0.06594484,0.030118482,-0.111311756,0.04774417,0.11599094,-0.068880126,0.01797623,-0.022240398,0.013667894,0.072229005,0.07443805,-0.207072,0.07279838,0.0015775156,-0.065256804,0.057945065,-0.15689677,0.07641373,0.043573868,-0.0023570089,-0.07144231,0.088592775,-0.027685944,-0.15752615,0.09756027,0.11215775,-0.29652864,-0.01872491,-0.05443793,-0.035960242,-0.047999922,-0.2772318,0.030846737,-0.08881618,-0.119306885,-0.21953942,0.0084793335,0.01303199,-0.17547663,-0.0046872855,-0.009146266,-0.007083525,-0.33970156,0.058397822,-0.21261638,0.019238561,0.03870749,-0.23000868,0.032617766,0.20294549,-0.08474102,-0.017370313,-0.021601861,0.12320577,-0.01822569,0.066175036,0.00413301,0.05339376,0.01488075,-0.22395,0.016055789,-0.19896677,-0.12736323,-0.20936878,0.09736158,-0.035658225,0.050754912,-0.08264563,0.051189754,0.04730105,0.016741114,-0.0045153047,-0.081962846,-0.1285494,-0.0065792836,-0.19756202,0.073992,-0.11308028,0.047263674,-0.09959656,-0.090857536,0.03085886,-0.044095144,-0.024453986,-0.12064485,0.009992174,-0.05338028,0.022044482,-0.18661472,0.12298581,-0.035564635,-0.061548516,-0.0060250605,0.033438623,0.016777413,-0.10716345,0.18534318,-0.012903178,-0.0051967665,0.053458102,-0.1638812,-0.10369371,0.08882186,-0.28133243,-0.01949268,-0.08149224,0.04996234,0.05378244,-0.027122498,0.0022607606,0.09103768,0.008192528,0.05792213,0.03570417,0.051511757,-0.06093207,0.10124166,-0.1252504,-0.050434705
-0.059466366,0.02681773,-0.0015978386,0.014202118,0.01652279,0.060657963,0.04386992,-0.002051396,0.02508678,-0.023824096,0.018094137,-0.019892689,0.024081903,-0.070510074,-0.021102935,-0.21351486,-0.030535849,-0.025902357,0.06630135,-0.0020518026,-0.015178175,-0.015013705,-0.007421379,-0.06688341,0.051423997,-0.11786538,-0.03759773,0.019025479,-0.11035913,0.05485065,0.016756266,0.0025517154,0.037546095,0.18089527,0.111935325,-0.10622113,0.061056007,-0.01943766,-0.082480505,0.035886448,-0.063504755,0.05176831,0.19544896,-0.07318517,-0.23467393,-0.08471582,-0.13905646,0.19389674,0.0054538054,-0.027987553,0.056405,-0.04890311,-0.03317334,-0.15617724,0.019102342,-0.016208118,-0.02697689,-0.021384237,-0.018454665,-0.14672765,0.107424274,0.05027337,-0.00039760876,-0.07690357,-0.097951554,-0.1085038,0.070518814,-0.117488384,-0.27504805,0.02159222,0.028261457,-0.015258542,-0.17556594,0.036126327,-0.0024763148,0.049285788,-0.0005923112,0.003672416,-0.09158191,-0.22258992,-0.16833617,-0.057960887,-0.092724785,-0.07984668,-0.05876914,-0.01854884,-0.115259774,0.1241874,0.014679846,-0.043364696,0.23301777,0.0023023929,-0.09780415,-0.10571188,0.0018109763,0.032642957,-0.012168685,-0.059175912,-0.00429225,-0.027507907,-0.07002183,-0.100177445,-0.04799202,0.13293558,-0.033000812,0.07122835,-0.044742458,-0.0205966,-0.04023407,0.02096816,-0.15672241,-0.09784964,-0.0049829083,0.01922662,0.001274362,0.18888713,-0.07280186,-0.013507548,0.025217226,0.0014119035,-0.038643084,-0.009906009,-0.08407184,0.07189667,0.020030716,-0.14311358,-0.09452567,-0.007895352
-0.105782144,0.040611755,0.02084024,0.1499035,0.06769171,0.15192452,0.02130359,0.051656995,0.1489529,-0.1615862,-0.10393059,-0.055702887,0.097228095,0.060480714,-0.020978833,-0.007821378,0.01829689,-0.06456114,-0.05571331,0.2191708,0.20694642,-0.22853322,0.027701348,-0.05797709,0.006745727,-0.02184682,0.06682225,-0.07523262,-0.30262303,0.14706878,0.04601571,-0.1317766,-0.022641974,0.014076378,-0.21391335,-0.05922431,0.22479513,-0.28877115,0.022443863,-0.014734626,-0.088940345,-0.23851557,0.0339629,0.0052374913,-0.062449243,-0.10786719,0.05378955,-0.12977332,-0.08399254,-0.037680674,-0.05399277,-0.059838727,-0.11694637,0.017436044,-0.0357657,0.20778634,-0.3009302,0.10141583,0.09669527,-0.12206536,0.12837456,-0.066702925,-0.0015938677,-0.09498638,-0.07447449,-0.005127708,0.025929572,0.10223321,-0.5357185,-0.17502247,-0.05612018,0.17837226,-0.07191872,-0.10243735,-0.046014134,0.016476268,-0.46352872,0.15785687,-0.07800473,0.069857895,0.09900488,-0.23912671,-0.04696487,-0.023774907,0.023275655,-0.02649653,-0.07987462,0.03661722,-0.34900942,-0.081769764,0.12572512,-0.022772385,-0.15306015,-0.21263,0.07170613,0.11623305,-0.07744693,-0.10765542,0.062273834,-0.024592044,-0.058877192,0.021556502,-0.021031486,-0.19175765,-0.15942916,-0.04503207,-0.10103246,-0.09120814,0.032532237,0.18713585,-0.16994116,-0.08346185,-0.0122362,0.0770293,-0.013856399,0.14731394,0.043791465,-0.028681928,-0.07451273,-0.051844135,0.05647827,0.019643333,0.058144383,0.0898378,-0.0921681,-0.026541034,-0.13830115,-0.043753587
-0.058231615,0.0480806,0.062109154,-0.33167118,-0.032236904,0.078640305,0.03724972,-0.2634641,-0.07950269,0.08872915,-0.0033856367,0.0063503543,-0.029037245,-0.11635653,-0.25899005,-0.2672463,0.081567295,-0.112901144,0.032162864,-0.17329888,0.11122935,0.12956595,0.02941755,-0.20373988,-0.12944219,0.011733512,0.09765756,0.11193903,-0.1526818,0.11761983,0.103049174,0.06494171,0.06753663,0.052648876,-0.1672367,-0.20408054,0.081352174,-0.06412027,0.13476919,-0.1973244,-0.16753481,0.22173026,-0.19195864,-0.07110244,0.04612141,-0.15160412,0.16024193,0.11267677,-0.014601378,-0.08089664,-0.03841375,0.02609315,0.108123444,-0.08113653,0.0004017913,0.15616614,0.10085068,0.16403009,0.122039266,-0.017518891,-0.02372064,0.050733395,0.17258048,-0.08514702,0.18479238,-0.023982117,0.13827014,0.07274767,0.13096437,-0.025420642,0.10222581,0.08904255,-0.1581584,-0.0061389585,0.118047625,0.045067813,-0.3574419,0.049975254,0.0026468774,0.07437506,-0.1441643,-0.15693165,-0.07583608,-0.05240941,-0.09502025,-0.16281193,-0.16962342,0.031128729,-0.032758594,0.0041941926,-0.27575478,-0.13635132,-0.060208764,-0.31700417,-0.15011999,0.05227391,-0.14748713,-0.09484795,0.023097739,-0.080809996,0.007997164,-0.08021645,0.15730588,-0.2908809,-0.069737665,-0.06346073,-0.40978938,-0.03401703,-0.0773674,-0.23400483,0.016053222,-0.23460487,-0.0009466253,0.061904404,-0.4193104,-0.2507813,0.09534453,-0.18808366,-0.044225156,-0.0028049026,0.005428329,-0.08276032,0.07178324,-0.005863558,-0.23881315,0.13967514,0.15632598,0.07415311
0.005685351,0.0584616,-0.07971289,-0.33437425,0.13108057,0.062156547,-0.101263784,-0.5774041,-0.065828666,-0.08783851,-0.07695985,0.02823977,0.04319113,-0.0507392,-0.12574689,0.017565029,-0.005815882,-0.07464467,0.03517598,-0.0645091,0.029021194,0.06586336,-0.067110136,-0.117459975,0.0024907708,0.009877139,-0.038627815,-0.014693384,-0.047511756,-0.14128363,0.041084338,0.01623381,-0.024981838,0.015903153,-0.06936452,0.24676771,-0.022877712,0.17695571,0.031589426,-0.17090559,-0.029156072,0.092635415,-0.09242401,-0.015353561,0.053274497,-0.0047518434,-0.022110272,0.08121702,-0.11778,0.043722913,-0.0018030462,-0.006264908,0.036368925,0.077913575,0.0910614,0.137556,-0.0056821126,-0.028719049,0.09790195,0.106489144,0.036665544,0.04918907,-0.193233,0.06857439,-0.07148839,-0.016484482,-0.09370328,-0.0642967,0.109209605,-0.00499821,-0.0265143,0.03317399,-0.043189675,0.10714379,-0.023386488,0.07201912,0.22009031,0.1080829,-0.028047979,0.007918669,-0.11253497,-0.025186643,0.0005577616,-0.10371878,-0.0747621,0.037339624,0.09558872,-0.055069085,0.115911976,-0.00495064,-0.02896218,0.1271202,-0.056969102,0.02014229,-0.03748987,-0.016787013,0.002503793,-0.030486107,0.024579218,0.03292691,-0.057415236,0.08996986,-0.20801897,0.050858613,0.05512056,0.00022758263,-0.11092726,-0.037232608,-0.00025829425,-0.007713626,0.018197896,-0.040235102,-0.06189205,-0.018463826,-0.26943314,0.107195795,0.044550415,-0.1868598,0.042055517,0.057276573,-0.05672761,0.046811942,-0.043348573,0.01873445,-0.06250911,-0.02183007,0.1254809,-0.00052087434
0.06472976,-0.08324909,-0.07132959,-0.022484148,-0.024472123,0.020030728,-0.05228552,-0.103913106,0.012881766,-0.10287445,0.028081695,0.06155875,0.049749028,0.008901224,-0.08400707,-0.062485315,-0.029780561,0.017280482,0.02699793,-0.07931478,0.05221835,0.06295656,-0.024911331,0.06839883,-0.05740643,0.0004312587,0.04455559,0.04595274,0.065660425,-0.06860588,-0.09970563,0.063841775,0.03938041,-0.09791655,-0.017933577,-0.049290694,0.0703412,-0.0004048006,-0.08229749,0.013459335,-0.077344514,0.057198897,0.006230861,-0.07996019,-0.08313329,-0.018858088,-0.061137356,0.06702386,0.005430372,0.028596316,-0.073657446,-0.05752548,-0.10221406,0.05613663,-0.005920517,0.03849317,-0.01767252,0.007999978,-0.056052994,0.03545364,-0.05519436,-0.06701571,-0.07635776,-0.0029275275,-0.030399388,0.045312434,-0.09315731,-0.029559176,-0.042487975,-0.05474073,0.040865574,0.028503872,-0.05988724,0.0092016,0.04234348,-0.067720555,-0.041712925,0.030670865,0.024908334,-0.032491256,0.05646609,-0.09895526,-0.0048146774,-0.069609225,0.03298677,-0.058280755,-0.026712295,-0.04465639,-0.09246368,-0.10500925,-0.08617773,-0.015104733,-0.007973312,0.035044666,0.018969713,0.055554453,-0.07433178,0.07110128,-0.0013533306,-0.045409035,-0.06475565,-0.12719326,-0.10212135,-0.07836957,-0.011077477,-0.07056903,0.037659448,-0.034623105,0.009587122,-0.0062028132,-0.10809124,-0.102692395,0.042615,0.00807172,-0.046222243,-0.015770696,0.028812198,-0.004429255,-0.0012524249,-0.06412122,-0.06190508,0.0055126557,0.005108349,-0.07029754,0.005145125,0.05639016,-0.0679526,-0.043497566
-0.009352551,0.038359713,0.007343253,-0.11986127,-0.07215438,-0.057886746,0.04383811,0.11102273,0.037691504,0.036646508,0.036419157,-0.14727765,0.0049271537,-0.018053666,0.08308422,-0.058463313,0.033792272,0.03923751,0.060362697,-0.020806994,-0.10829012,0.0115477545,-0.05204746,0.0044261715,0.029096408,0.03072956,-0.0020574136,-0.019611826,-0.16767064,0.020950902,0.040557448,-0.020015059,0.097354,0.0072505455,0.031036166,-0.13567303,-0.060029887,0.049272206,-0.05895737,-0.117002144,-0.109396465,0.12145973,0.18212624,-0.124460496,0.053148456,-0.009781465,-0.0931299,-0.22573423,0.10402084,0.03132991,-0.075923,-0.032994244,-0.054437004,-0.010466461,-0.045426022,0.05749708,0.02652893,0.00586183,0.060583256,-0.015558922,-0.006506346,-0.029887764,-0.03476227,-0.22557656,-0.055847023,-0.09144949,0.12552927,-0.0015175712,-0.028125035,-0.06290421,-0.12967964,0.0251896,-0.09217659,0.04986128,-0.0046174834,0.06928859,-0.21190862,-0.09390431,-0.110287726,0.0007730919,-0.0815913,-0.08067659,-0.1396823,-0.10943477,-0.06408647,-0.034562927,-0.20595232,-0.09302464,-0.029947152,0.07340294,0.007861951,-0.059725653,-0.121240556,-0.10622227,-0.055367265,-0.023599816,0.001288021,-0.19100547,-0.049404006,0.03264704,-0.11564337,-0.0809636,-0.024112105,0.018843144,0.044923194,0.050569613,0.033254445,0.0032345161,0.0017366587,0.048580833,-0.029220374,-0.02242039,-0.08909398,-0.006892407,-0.10923344,0.0376466,0.020616567,-0.16186117,0.024057614,0.04596019,-0.09867328,0.0044983984,0.004795983,0.0007323142,-0.007712092,0.0115812095,0.07111341,-0.0023903889
0.047535982,-0.050477628,0.009959054,-0.10673108,-0.041438513,0.015347976,-0.07604503,0.030677464,0.0402001,0.03429773,-0.01655552,-0.07435545,-0.065377146,0.07736447,-0.03911656,-0.008855149,-0.07700136,-0.0031131625,-0.048986834,0.024491707,-0.11753276,0.027025964,-0.12508196,0.07416449,-0.037327364,0.052218135,-0.07069192,0.042725742,-0.017557736,-0.037932623,-0.017825386,-0.029696234,0.084695905,0.022135481,0.011748819,-0.039354756,-0.025086727,0.035911426,-0.037791573,-0.039684348,-0.02499918,-0.043630265,-0.09540224,-0.0035726153,0.021541901,-0.002061091,-0.09312495,0.056239087,-0.00010260112,0.046768047,-0.040691577,-0.07889902,-0.070097685,-0.05209056,0.031591147,0.04698337,-0.10774875,0.02980609,0.034936953,-0.04343171,0.054538827,-0.0076859314,-0.040412836,-0.04788801,0.014388922,-0.04912454,-0.07439388,0.02709529,0.013553506,0.041656394,-0.08656198,0.00045992798,-0.06401822,-0.019767202,0.027828608,-0.05865252,-0.09686813,-0.0078075384,0.04904711,-0.057384208,0.0067275334,0.06560425,-0.123357125,0.03393768,-0.013911514,-0.064254165,-0.02777037,-0.010312581,-0.0432509,-0.08776605,0.06814346,0.008303181,-0.025228923,0.0055620163,-0.004598621,-0.097856656,-0.05186292,0.07866815,-0.069205396,-0.011335284,-0.10232634,-0.0006090267,-0.08031758,-0.06395098,-0.05169058,0.02197282,-0.043676898,-0.054714832,-0.21658833,-0.093977645,-0.027931321,-0.06948004,-0.010452161,-0.06425717,0.030022714,-0.03484012,-0.07470093,-0.04732419,-0.082465835,-0.06702593,0.019894917,0.034843,-0.034079213,-0.10333847,0.053603817,0.0067689056,-0.06915299,0.012576333
-0.28273678,-0.08899696,-0.11593872,0.05100897,-0.111480005,-0.016691927,0.117776826,-0.086037815,0.17250805,-0.098286934,0.011928956,0.028708879,-0.010037433,0.03299031,-0.052060198,-0.042549558,-0.05788489,-0.061640836,-0.010560503,-0.17641859,-0.021281296,-0.18086962,-0.0014478182,-0.07996284,0.21549226,-0.33223835,-0.1184109,-0.027080787,0.046215415,-0.49917156,-0.28719002,-0.132465,-0.037273206,0.0093104215,-0.14159179,-0.15024698,0.060400046,0.014723876,-0.13532162,0.020508675,-0.074051045,0.031119913,0.22020465,-0.13595772,-0.045134734,-0.046613295,-0.01285159,-0.078390524,-0.00080382614,-0.049409263,0.026143704,-0.38098425,-0.05459832,0.09647863,-0.030986575,0.13048446,-0.18788989,0.27338552,0.025433647,0.046888273,0.33057925,0.05706813,0.1700783,-0.00032191636,0.1840692,0.074824095,-0.007592194,0.05923371,-0.36086342,0.093358286,-0.0036027306,-0.039008558,-0.31360453,-0.22154811,-0.016138969,0.074805215,-0.00022319,-0.057134934,-0.13408116,-0.014733037,0.0884358,-0.041010305,0.0574278,0.037562747,-0.031218804,0.010232116,-0.06827588,0.31028116,-0.03089559,-0.11643907,0.38143867,0.007791057,-0.19522806,0.073133305,0.03701382,0.06663343,0.22858356,-0.1834574,0.17448594,0.0019530568,-0.087231636,-0.12929444,0.052588873,-0.026553433,-0.02177971,-0.15588889,0.15978166,0.104991294,0.1419115,0.046067547,-0.27999076,-0.14401118,-0.06443765,-0.18255782,0.10849738,-0.1677913,0.10422018,-0.08757353,-0.11380083,0.17998084,0.018969066,0.07256505,0.032430507,0.050666597,-0.04075023,-0.08286964,-0.100536436,0.08331425
0.0036735062,-0.04812357,-0.021113943,0.1415586,-0.03326158,-0.080246925,-0.09531937,-0.091088966,0.027011584,0.03787535,0.07261415,0.05338081,0.053389106,0.06729027,-0.07416516,-0.0033971837,0.0005867826,-0.053530727,0.011545205,-0.046875242,0.012103158,0.13819489,0.040758647,-0.12998687,0.018382628,0.0047836406,-0.14095357,-0.037575085,0.023287315,-0.026174277,-0.033578746,0.059744574,-0.045593634,-0.08703726,-0.07973734,-0.0502747,-0.09336491,-0.027226435,0.009234907,0.046952467,0.03807201,-0.034135014,-0.1961484,-0.13139631,-0.15330654,0.00838213,-0.015412948,0.012837466,-0.015410007,-0.082479954,-0.047075614,-0.06945011,0.012278685,-0.04557042,-0.040716436,0.046661396,-0.06139085,0.07542139,-0.024398733,0.011010898,0.059306495,-0.08177592,-0.09351459,-0.014028457,0.00080325286,0.02339175,-0.016408907,0.06420927,-0.019419134,0.007856346,0.061453614,-0.04230979,-0.013740696,-0.068073586,-0.02186429,0.05703388,-0.031353645,-0.0053531174,-0.106023595,0.007068679,-0.06439756,0.03670492,-0.05817847,0.036707968,-0.0044377684,0.013155637,0.028807178,0.06350588,-0.2522453,0.13401839,0.0002290241,-0.00025543087,0.09928143,0.07723466,-0.009558175,0.018536668,-0.0033236328,-0.02974405,-0.004640839,-0.009962991,-0.00042874663,-0.1757253,0.022042817,-0.05597574,-0.043316625,-0.24625154,0.1282536,0.0040374943,-0.09807155,0.06082049,-0.12688571,0.088702776,0.083589874,-0.016580435,-0.09701111,-0.12914853,-0.0042233933,0.085641585,0.056112036,0.04399192,-0.011539985,-0.0017287956,-0.00516292,0.016039643,0.04343918,-0.03932997,0.025435826,0.019400693
0.0614069,-0.052147627,-0.11406123,0.047012158,-0.088202015,-0.056078725,-0.012829951,0.04604966,0.07023673,-0.114899814,-0.05443495,-0.01245026,-0.0704772,0.029552411,-0.040732015,-0.064241625,0.007050244,-0.06158124,-0.009960564,-0.0037049626,0.016069205,-0.033873238,-0.023353329,-0.017806526,0.048092168,0.028469995,-0.09938458,-0.075512126,-0.011576066,-0.018170904,-0.038211662,-0.076903224,0.022190806,0.05391497,-0.07681729,-0.09563484,-0.08066104,0.017854806,-0.08707078,-0.0814716,-0.08654999,-0.0772723,-0.024668697,0.03285605,-0.12659554,-0.110021695,0.045627266,-0.052576102,-0.025690544,-0.09684662,-0.02235156,-0.07415371,0.009645768,0.058961235,-0.08269036,0.048948053,0.008116244,-0.09627359,-0.097399205,-0.102195896,-0.03559126,-0.021053337,-0.077443495,-0.04701755,0.0051325085,0.042895306,-0.018356005,-0.050937343,0.02201157,-0.08785092,0.048248217,-0.09020541,0.06732772,-0.040858883,0.05134553,-0.081365295,0.016294286,-0.032351203,-0.035767186,-0.13075808,-0.10379568,-0.040701997,0.047869187,-0.057772115,-0.086087726,-0.09645293,0.0029354019,-0.0699151,0.11636276,0.023176763,-0.07178669,-0.07018666,-0.07797402,-0.07715161,-0.10492793,-0.05688802,-0.098616846,0.067942575,-0.026934449,-0.07986555,-0.076813996,0.016007323,-0.09047417,-0.00032207952,-0.06093822,-0.059613597,0.036188047,-0.02078425,-0.009503962,0.008127679,-0.025805531,-0.009177626,-0.019076515,0.022352364,0.05369273,0.033822704,-0.08943223,-0.037468016,-0.09995875,-0.07058599,0.00063084444,-0.008141077,-0.061130606,-0.0039047552,0.04691398,-0.06750842,0.029830743,-0.16458715
-0.008043515,-0.040695388,0.055266626,-0.093118824,-0.040424287,-0.028690567,-0.04180554,0.07510992,-0.06593981,-0.038670875,0.0069961506,-0.010952301,-0.0055836607,0.027628683,-0.051147606,-0.05679231,-0.01641136,-0.075143114,0.06381964,-0.049445644,-0.011586889,-0.032312937,-0.10522997,-0.015542409,0.021352755,0.027265579,-0.071504146,-0.05140389,-0.12682712,-0.0854193,-0.023991859,-0.004079784,-0.04534673,0.00011020219,-0.015816964,-0.044446997,0.052075997,0.00072464073,-0.10682704,-0.033749823,-0.0380665,-0.015565879,0.024689628,0.059771225,-0.01485056,-0.08240457,-0.0063541164,0.07040665,0.0037722755,0.07878699,-0.08823254,-0.06951682,0.04045166,-0.066931635,-0.020540806,0.061018035,-0.054320667,0.082625434,-0.12500592,0.016466152,-0.013817482,-0.03260386,-0.070896424,-0.030929558,0.030154286,0.07383134,0.03664535,-0.046908844,0.00895734,0.012838825,0.00015782093,0.01988944,-0.06743148,-0.01684365,0.11822039,-0.0504918,-0.08814928,0.056094397,0.04812548,-0.07727654,-0.0674323,-0.08195102,-0.03384539,-0.07942801,0.047030635,-0.011968778,-0.02525383,0.028286533,-0.020210063,-0.005372251,0.0016259972,0.025514297,0.031742424,0.032533314,-0.11622995,0.023677057,0.016889192,0.025064066,-0.036129836,0.00061605056,0.016232401,-0.056903433,0.03632592,0.0021720142,-0.09395379,0.0021029816,0.07126236,0.045880906,-0.08493475,-0.12156186,-0.0784681,0.0304839,0.022090808,-0.045042545,0.04655776,-0.084860586,-0.0027738016,0.024390582,-0.03734656,-0.03517105,-0.0691808,0.015314784,0.07411796,-0.07822501,-0.030429587,0.030432248,-0.07140026,-0.09279342
-0.06304206,-0.17956413,-0.061079066,-0.02609203,-0.010908192,-0.12326955,-0.13181815,-0.034106206,0.16421099,-0.026325895,0.01230824,0.054480936,-0.11698819,0.05909549,-0.04016442,0.15667793,-0.06370795,-0.020206543,-0.065478526,-0.065786295,0.2004692,-0.039121345,-0.07993821,0.26928914,-0.09182615,-0.052811876,0.08292032,-0.036542047,-0.11655591,-0.11974522,0.01954581,0.0442627,-0.06790891,0.025526538,-0.07645861,-0.2719125,0.13541356,0.056188166,-0.18242067,-0.08141068,0.06766388,-0.26046368,-0.07379827,-0.07706498,0.028564438,0.018572418,0.0501076,-0.020964064,0.055027667,-0.08909468,0.009909911,-0.06126342,-0.10617642,-0.07712763,0.042098697,-0.1338649,-0.027312314,0.048877943,-0.0019761669,-0.04952328,0.14018714,-0.051776133,-0.0330511,-0.04075391,-0.079727605,0.011678127,0.13485849,0.057191603,-0.11616837,-0.0926368,-0.03884025,-0.21770675,-0.09288629,-0.020101642,0.0054512983,-0.050696142,-0.018023394,0.009842548,0.014492631,-0.10123132,0.11543304,-0.051254075,-0.09610034,-0.055070456,-0.026647875,-0.11081144,-0.1847999,0.0019055239,-0.024271559,-0.07709917,0.057068177,-0.014554446,0.019923603,0.009346523,-0.07427827,-0.021829631,0.06180738,0.22386673,-0.037023727,-0.03283739,-0.03811395,0.06814723,0.038591847,-0.053695444,-0.12615414,-0.028444942,-0.07477953,-0.047854334,0.003812697,-0.10361929,-0.02768362,0.04676324,0.038239878,-0.08000039,-0.2224163,-0.08009536,-0.058370836,-0.046672396,0.05062507,0.15291713,-0.16727969,-0.0009630641,-0.043892577,0.051664345,0.018673846,-0.058855396,-0.10096451,-0.21800068
0.0041561634,-0.076834574,-0.008835524,-0.0658491,-0.052393194,-0.06260666,-0.070774525,0.029954266,-0.040633485,-0.026600169,0.071946695,0.055922985,-0.033213593,-0.02798001,-0.074835904,0.031449962,-0.13049693,-0.0024687178,-0.037517644,-0.10726525,-0.0918424,0.05171817,0.037710667,0.0024172345,-0.031268373,0.04990047,-0.007458607,-0.0002210507,0.056914434,-0.09046336,-0.10790697,0.038865797,-0.059573226,-0.082308434,-0.034869984,0.052029606,-0.025013544,0.06347965,-0.07903198,-0.07609368,-0.06367181,-0.016043015,0.00995864,0.039601106,-0.009250023,-0.10859214,-0.02238854,-0.0014872241,-0.09713111,-0.07636185,-0.04029767,0.06901972,-0.05661452,-0.027635936,-0.057467032,-0.03194351,-0.06484586,0.068349816,-0.095164314,-0.00093330647,-0.08806315,0.037057463,-0.029894676,0.0037311506,0.011521578,-0.068133205,0.027185906,-0.10315983,-0.043738157,-0.048922002,0.010885139,0.060520656,-0.066911824,0.032920036,-0.031137515,-0.044114582,0.046752915,0.022481922,-0.0948799,-0.05671744,0.048069607,-0.04439053,-0.004149554,0.0068400167,-0.063038886,0.05627239,-0.035211034,-0.035506427,-0.0035857663,0.049958613,-0.015571566,-0.042766254,-0.061520934,-0.07623239,-0.04209133,0.041696448,-0.012290609,0.011182988,-0.08552693,0.0017500555,-0.07139193,0.030782938,-0.035322543,-0.068351135,-0.08715277,-0.0068346793,0.03444324,-0.04651959,-0.02856146,0.059822403,0.027628053,0.032935917,-0.10223026,0.05228261,0.07079691,-0.02239737,-0.0659063,0.013792234,-0.029130751,-0.050460126,0.051782835,-0.020009493,-0.013583739,-0.0038683875,-0.012963628,-0.09093485,-0.047956634,-0.08728001
-0.07027584,-0.04591606,-0.10747132,0.061684605,-0.15213561,-0.2312005,0.09630108,-0.066671595,0.063294806,0.10421558,-0.17327271,-0.27847716,-0.01949115,-0.05704945,0.05517662,0.0541699,-0.07965038,-0.10210975,-0.026813287,-0.14455259,0.13016799,0.024093086,0.14931875,-0.26901445,-0.008282138,0.11470061,-0.29539245,-0.09266152,0.04163279,-0.23925771,-0.14579372,0.008914472,-0.30492446,0.10258833,0.1168256,-0.37509272,0.007358206,-0.026287025,-0.051580966,-0.13087907,-0.05231502,-0.0097938785,-0.36438912,0.012344637,0.04696187,-0.22658132,-0.14960505,-0.1105129,-0.101777196,0.05218266,0.041500773,-0.20890465,-0.14954807,-0.098038994,-0.049929876,-0.18319519,-0.09018969,0.008558732,0.08861949,-0.2601977,0.07357925,-0.08884815,0.02795845,0.10650875,0.08860645,-0.09678388,-0.10202116,-0.0065362286,0.01506867,-0.015586779,0.07854424,-0.20662397,0.13798313,-0.09417961,-0.0003756135,0.0027867896,0.016419327,0.009448116,-0.33221188,0.06086524,0.05967473,-0.1457614,-0.02323474,0.30014917,-0.17647234,0.24790868,-0.36473042,-0.25483686,-0.09959329,-0.11007716,0.19635598,-0.1576678,0.24219,-0.018630914,-0.087216,0.01333609,-0.060189407,-0.12055707,-0.016103592,-0.23092741,-0.05269287,-0.019153187,0.15150084,-0.059048556,0.0912451,-0.28906748,0.17163512,-0.25807267,-0.20773344,0.10797528,-0.022991272,0.013038075,0.20025748,-0.0059437146,0.1604407,0.08094182,-0.02715209,-0.15858847,-0.15226093,0.10060866,0.046063107,0.25787848,0.028320307,0.12955302,0.022103354,-0.023337295,-0.11033133,-0.2362845
-0.09308024,0.06209575,-0.12405164,-0.002332416,-0.100564316,-0.1930396,-0.24676935,0.008150251,-0.22224782,-0.18690749,-0.01164266,-0.07536074,-0.06251617,0.065663114,-0.0710592,-0.096431084,0.039510284,0.061073154,-0.087996446,0.049062144,-0.04269276,-0.021889837,-0.15697737,-0.069518894,0.0058216746,-0.045694,-0.06902222,-0.18023756,0.06291498,0.018278042,0.0048417803,-0.16096856,-0.057397842,-0.21328317,-0.03769509,-0.026634611,0.008764819,0.033007838,0.013902183,-0.059525516,-0.23774348,0.018699143,0.019354166,-0.056848753,-0.09656028,0.0047017913,0.005521711,-0.018693648,-0.027463209,-0.08218463,-0.12026519,-0.06525075,-0.12647319,-0.019702498,-0.0069290986,0.04392985,-0.12574582,-0.099746734,0.17960969,-0.035208736,0.07971935,-0.022356153,0.004030916,-0.07762308,-0.0070515284,-0.12954304,0.017576016,-0.0899248,-0.13655436,-0.116943,-0.059511986,-0.054547526,-0.12669969,-0.079587355,0.0055447374,-0.068789296,0.056881662,-0.026996942,-0.0017389903,-0.037182484,-0.23364349,-0.15347023,-0.19058454,-0.17872418,-0.05579917,-0.116021544,-0.105746344,-0.04530572,-0.10355993,0.01709321,0.14851016,-0.020416657,-0.120969296,-0.08635176,-0.02792493,-0.11768592,-0.15883537,0.12964623,0.15903355,-0.06741288,-0.038755458,-0.06118659,0.06976534,0.010678043,-0.058375314,-0.018398939,0.05963681,-0.08445037,-0.0066718957,0.028685974,-0.29913172,-0.08592523,-0.2647685,0.13771959,-0.027996223,-0.005192,-0.09847412,-0.047311533,0.07528004,0.16017476,-0.0087793125,-0.053355873,-0.009149981,-0.07020923,0.033963125,-0.05460098,-0.007462174,0.08821762
0.10639914,0.0063380473,0.093811706,0.17437656,-0.010729149,-0.35793114,0.06628239,-0.02915265,0.32252443,-0.12368171,0.17659175,-0.06898983,0.050098542,-0.110001996,0.04280482,0.09600779,-0.005578367,-0.0056769373,-0.023943003,0.017924068,0.030526431,-0.27956152,0.06444973,0.14467113,0.07455652,-0.4547613,0.029431758,0.07719338,0.0544228,-0.28695586,-0.07236459,-0.3192245,-0.1042283,0.09663163,0.015337491,-0.4729039,0.05179028,-0.2689698,-0.08003355,0.11862006,-0.14440338,0.010697208,-0.21505257,-0.08738052,-0.23903789,0.054469805,0.08722505,0.10445457,0.03291901,0.06042574,0.0061148508,-0.49364722,-0.07833088,-0.4115086,0.24460821,0.10460283,-0.37173504,0.15448274,0.20722887,0.022323094,0.15609337,0.034592304,0.030027684,-0.017778676,0.021199523,0.032027386,-0.010079097,0.06097733,-0.29469728,0.026540965,0.17418392,-0.13597527,-0.23132214,-0.05057578,-0.10729504,0.027908929,-0.0304045,0.09876141,-0.02928168,-0.06219437,0.08144263,0.06755474,-0.19287267,0.06902534,-0.14061904,0.07944341,-0.13282526,0.20166998,-0.05671672,-0.13989736,0.21520177,-0.04378875,-0.019365491,-0.0530377,0.07247205,0.0020068309,0.10938323,0.3386697,0.12588607,-0.17240438,-0.04246271,-0.06715561,-0.07230495,0.097511634,-0.13476753,-0.26146153,-0.13151422,0.030399906,0.041466657,-0.3207025,-0.5305157,-0.11744125,-0.11544076,-0.120073795,-0.019886596,-0.015780142,-0.13630353,0.16014186,0.007195752,0.1538477,0.009097576,-0.066023454,0.019439382,0.024989583,0.055432428,0.014286046,-0.18361959,-0.0042953114
0.16901423,-0.21317253,-0.10639213,-0.008974598,-0.10575897,0.11619553,-0.33202773,-0.096480094,-0.031129843,-0.08994814,-0.2109383,-0.12629382,-0.07153485,-0.1652853,0.03264029,-0.026755448,-0.37225658,-0.17836282,-0.0073568,-0.32234138,-0.31387946,-0.026768362,-0.023014592,-0.3910414,-0.023212858,0.24540317,-0.1675596,-0.1473303,-0.20593314,-0.24335346,-0.09924659,0.022623818,0.033791054,-0.028724236,-0.087304026,-0.22756477,-0.06618196,0.16557007,-0.068607055,0.008840385,0.18510196,0.22629666,0.07539371,-0.06615292,0.09646451,-0.28888687,-0.00687306,-0.018331964,-0.13517922,0.049122903,0.023516126,-0.104947925,-0.41262764,-0.087484196,-0.151856,-0.07220228,-0.1128354,0.03506956,-0.12170525,0.034448653,-0.03492857,-0.20989192,-0.16298592,-0.12261131,-0.12980665,-0.073953,0.07445301,-0.0786953,-0.07243475,0.0005412822,-0.0011018787,0.04333467,-0.25875023,-0.06486447,0.06289162,0.10855285,-0.029850885,-0.48416537,-0.076731704,0.10298386,-0.049639333,0.026013521,-0.012186395,-0.22462626,-0.05653848,0.02680815,0.08629582,-0.12173183,-0.17893054,0.012602126,-0.00072114734,-0.07670882,-0.048435036,0.017196303,-0.26184583,0.03416053,-0.14655596,-0.1953186,-0.034346215,0.13686557,-0.36280704,0.09025357,0.004632424,-0.03089558,-0.0014793058,0.017650537,0.11643345,0.019981788,-0.26660168,0.03297929,-0.2943004,-0.22357498,0.11720661,-0.13909929,-0.11233781,0.03428012,0.010122903,-0.08014277,0.10408236,-0.098050855,-0.2931022,0.25858295,0.28082445,-0.20265116,0.036896553,-0.1539697,-0.19869645,0.08619679
