0,1,2,3,4,5,6,7,8,9,10,11,12,13,14,15,16,17,18,19,20,21,22,23,24,25,26,27,28,29,30,31,32,33,34,35,36,37,38,39,40,41,42,43,44,45,46,47,48,49,50,51,52,53,54,55,56,57,58,59,60,61,62,63,64,65,66,67,68,69,70,71,72,73,74,75,76,77,78,79,80,81,82,83,84,85,86,87,88,89,90,91,92,93,94,95,96,97,98,99,100,101,102,103,104,105,106,107,108,109,110,111,112,113,114,115,116,117,118,119,120,121,122,123,124,125,126,127,128,129,130,131,132,133,134,135,136,137,138,139,140,141,142,143,144,145,146,147,148,149,150,151,152,153,154,155,156,157,158,159
0.0962287,0.21584359,-0.13952287,-0.10359424,0.09720629,0.06578751,0.049734488,-0.11499968,0.025693271,0.03169984,-0.057905834,0.10642723,0.41200674,0.1262154,0.1193088,-0.013885323,-0.007230834,0.040238492,-0.14821498,-0.18492748,0.040830527,0.08945738,0.17980868,-0.06790736,-0.07095614,0.18839468,0.108338,-0.15460166,-0.38978675,0.046521243,-0.005296381,0.07013631,-0.3708234,0.05806228,0.059847496,-0.20479533,-0.116035625,0.07163041,0.12894914,-0.014470615,-0.26860458,0.0081523005,0.06366271,-0.19665155,-0.13837332,-0.043550353,0.12629603,0.12658668,-0.0522618,-0.54057086,0.033377517,0.13197984,0.03111271,0.068799496,0.04806774,-0.29706252,0.14177333,-0.07548869,-0.073189504,0.41319382,-0.013381722,-0.031480897,-0.07326401,-0.008801607,-0.048261255,-0.18350661,-0.069536395,0.14382274,-0.005890009,-0.1469912,-0.3050678,0.044636764,-0.052576512,-0.046657637,-0.080070056,0.08378115,0.045516245,-0.10552637,-0.1858235,-0.07627748,-0.0010496902,-0.13786653,0.03145051,-0.033464152,-0.040084656,0.123766184,-0.032751955,0.06494586,0.41622412,0.018892089,-0.009347217,-0.039251946,-0.039207973,-0.019415146,-0.4127623,-0.17336698,0.019366182,-0.33271936,0.045128364,-0.12409721,0.036949072,-0.07263259,-0.022044104,-0.14721924,-0.26562676,-0.0049644546,-0.10299938,0.25434062,-0.015000459,-0.06285463,-0.16182627,0.066137336,-0.029948426,0.032401845,0.069224685,-0.23199368,0.012369097,-0.00015681465,0.28267935,-0.03599602,-0.5260103,-0.014657184,-0.134787,0.11351066,0.011844039,-0.21517055,-0.11213026,0.26254734,0.08175014,-0.16737479,-0.061848223,-0.08529648,-0.06710047,-0.089956604,0.089248545,-0.06304362,0.12141566,-0.026642,-0.48162934,0.041455287,0.6348336,-0.25995976,-0.30737886,-0.39698702,0.06579875,-0.18979023,-0.037961133,0.38860866,0.10611229,-0.25468233,-0.38282275,0.2729315,-0.37008968,0.16291848,-0.4723855,-0.41187873,0.07433644,-0.7212947,-1.1434698,-0.06922785
-0.08217309,-0.0051093986,-0.076997004,-0.01593104,-0.10594513,-0.038277604,-0.0026485776,0.0958176,-0.07025087,0.16556582,-0.01626425,0.0845911,0.15418121,0.4662918,-0.12890744,-0.08453732,-0.22480264,-0.07250737,0.33528313,0.13335033,-0.061728198,0.0911785,-0.07193581,0.14324982,0.035620376,0.13381481,0.06515692,-0.12051156,-0.44822147,-0.0664679,0.079720326,0.27351755,-0.084863245,-0.17444605,0.13188863,-0.021705462,0.10546804,-0.002988791,0.017830351,0.14219256,-0.30614352,0.034992058,0.044564858,-0.12827589,-0.27710488,-0.11793663,-0.015358599,0.03400845,0.17199472,0.024845285,0.0054638283,0.038234208,-0.017225336,0.17979516,0.033099744,0.0755983,-0.20460458,-0.37686735,0.15894948,0.49443096,-0.20539571,0.19896324,0.04813926,0.17977484,0.10417579,0.005586206,-0.04700194,0.022677362,0.08895055,0.076210804,-0.085524835,0.05453929,0.38765696,0.12203563,0.18911503,-0.18711637,0.063484386,0.11570171,-0.04211264,0.08788105,-0.13567786,-0.06161243,-0.05138812,0.01684977,0.050689302,-0.0987852,-0.039614942,-0.053739022,-0.13697547,0.021975204,-0.022230038,-0.0038163047,0.101119794,-0.27067685,-0.13304172,-0.11366857,-0.030876009,-0.018803284,-0.010055003,-0.024380786,-0.17286567,-0.10673709,-0.04572611,-0.05022116,-0.15565114,0.064463064,0.060909692,-0.017460164,0.044495072,0.07412506,-0.12373617,0.33762804,-0.20466888,0.064839154,0.06334018,-0.021890901,0.24609539,-0.17698577,-0.07107882,0.10567955,0.1933332,-0.23045768,-0.06339681,0.088851266,0.031926055,-0.10204551,-0.15916078,-0.19236179,-0.0318972,0.02846207,-0.058092196,0.35939643,-0.031878296,0.007075406,0.20059937,-0.10096714,0.26968527,0.3083507,0.19013189,-0.120580696,-0.8900137,0.4759366,-0.47962505,-0.021393629,-0.2939818,-0.24278268,-1.4619344,0.1700264,-0.2831688,0.3408721,0.03129082,-0.30331963,0.95113033,-0.16701308,0.6691396,0.19166249,0.38827434,0.06961155,-0.007134365,0.12943675
-0.053075336,0.27464646,-0.05079357,-0.016764143,-0.12755223,-0.007968125,0.024743918,-0.002697929,0.12358664,-0.053713165,-0.13931282,0.054203585,-0.09741869,-0.01684565,-0.15617418,0.025250506,0.19199276,0.1307359,0.016487403,0.17998244,-0.08977701,-0.0063697826,0.08616747,0.07493994,-0.038114157,0.13061869,0.048507553,0.045801092,-0.43554434,0.081140384,0.042312436,0.10522521,-0.012685464,-0.058575623,-0.07646247,-0.33928245,0.048695765,0.041898027,-0.11192127,-0.30970794,-0.0448735,-0.25697306,0.084183544,-0.03763488,0.27757257,-0.34572098,-0.082996786,0.008779864,-0.29887837,-0.016215399,-0.02558419,-0.0042027477,0.0082971975,0.09591694,-0.037665308,0.28843677,0.17738488,-0.14764667,0.16304854,0.20189564,-0.023542926,-0.022723634,0.076108605,-0.034535687,0.2532572,0.07056147,0.042484917,0.013218738,0.044043947,0.16892555,-0.15258147,-0.051968582,-0.25815997,0.17607783,-0.22106525,-0.1954375,-0.14127693,-0.16184968,-0.2863456,0.046038024,-0.34027612,0.02203563,-0.026427753,0.09126414,0.0066427025,0.059964817,0.09383038,0.12064938,-0.12039381,0.22588195,-0.013813673,-0.20000386,0.07189631,0.04065838,-0.053059522,-0.20579226,-0.037877575,0.13778485,0.050123397,0.129052,0.077414416,-0.17620784,-0.056175385,0.11636327,0.16648242,-0.12705892,0.061613314,-0.024747659,-0.015984327,0.062194854,0.12611187,0.09833359,0.06314647,0.04942051,-0.013302509,0.0413227,-0.003133423,-0.08670377,-0.21630287,-0.09194152,-0.51263845,-0.0062163826,0.14087124,0.011685849,-0.17233674,0.014371867,-0.095492184,0.060523953,-0.034916382,-0.3921043,0.14243934,-0.23680711,0.076128595,-0.13346279,-0.19704595,0.07869355,-0.18258423,0.09828061,-0.05949717,0.1213736,-0.57580274,0.23329622,-0.44889745,0.12082894,0.51942515,0.43638292,-1.3000011,1.0759791,-0.20503767,0.3364114,-0.58643025,0.31133443,1.0317054,0.059262723,0.6155864,-0.84439117,0.110613935,-0.43085784,-0.99060607,0.33258697
-0.11980562,0.058936886,-0.21185988,0.2702763,0.32560703,-0.025694665,-0.13530135,0.2338459,-0.33692822,-0.17573096,-0.25801292,-0.020134382,-0.20459044,-0.21136406,-0.87608397,0.05656895,0.19154659,-0.43107456,0.3643733,-0.050830446,-0.88368326,-0.02593351,0.13349332,0.41925368,-0.071023054,0.19679068,0.2903223,-0.5597366,0.034965664,0.11654245,0.09363592,0.2901917,-0.70743734,0.19306828,-0.84690833,-0.7130463,0.19813381,0.034047496,-0.07558613,0.23360784,0.040850613,-0.026237004,-0.19264406,-0.08645592,-0.2608582,-0.16930866,0.13781172,0.016508512,-0.41829348,0.24569987,0.14295365,0.42039645,-0.6748557,-0.09716333,-0.21336864,-0.053858534,0.06853742,-0.17367521,-0.07221708,-0.41582847,-0.1358814,-0.09647997,-0.13869834,0.5647261,-0.4690546,0.032714505,-0.13881838,-0.0051080133,-0.18829371,-0.36770916,-0.13019058,-0.16522548,0.028125161,0.2666024,-0.079277165,-0.013744955,0.1148733,-0.2605846,-0.018628554,0.0015597461,-0.01628423,-0.05548497,-0.09974275,-0.34664023,-0.18745315,0.23557584,-0.62852037,-0.47826898,0.61228436,-0.5686201,0.30497694,0.14478448,-0.2973291,-0.036143746,0.18534455,0.017637312,0.07946901,-0.13785768,0.07936945,-0.21754602,-0.108631104,0.08242007,0.013026406,-0.115414806,0.030610843,-0.36515757,-0.03668304,0.027691895,0.05987001,0.25421813,-0.3549763,0.20086166,-0.52546066,-0.008768405,-0.010711862,0.2816266,-0.19687754,0.0832508,-0.024851887,0.045864273,-0.08630627,-0.14700834,0.13030913,0.06748422,-0.039317243,-0.11013421,0.16269584,0.04965715,-0.08861212,-0.47957677,-0.026877219,0.11809895,-0.07675291,0.38907185,-0.019359691,0.15766889,0.024913853,0.060016204,-0.21721636,0.037159406,0.58252925,-0.06627953,0.11907096,-0.34121156,0.45845482,-0.13565657,0.5311207,0.197864,0.1776837,0.19141413,0.5381179,-0.012215748,-0.83942807,0.4600637,-0.098859355,-0.3857442,0.5049944,0.47536647,-1.2059287,0.30178264
-0.26193696,0.17277195,0.0467591,-0.07208284,-0.16502173,0.09357125,-0.26803064,-0.19576433,-0.34686318,-0.2870769,-0.14967693,-0.3889541,-0.083355345,-0.23297073,-0.78868407,0.03452066,0.13122655,-0.055753075,0.18055855,0.17574276,0.10407295,-0.113257766,0.46498588,-0.32729995,0.08098404,0.21594311,-0.09758601,0.07722086,-0.02898832,0.30043817,-0.4378205,-0.5016344,-0.1573274,-0.12161161,0.008592791,0.071157224,0.18181853,0.0798162,0.036944788,-0.049362555,0.2566026,-0.18399738,-0.09160789,0.049893387,-0.021691045,-0.0035645508,-0.5491507,0.088942714,-0.57852924,0.094324216,0.02758426,-0.18205257,-0.26407033,0.3879991,-0.066167705,-0.08981454,0.20967095,0.0331209,-0.09432558,0.42564148,-0.16259174,-0.18358847,-0.27533346,-0.23086137,0.020868154,-0.23471875,-0.018686159,-0.2425568,-0.20119022,-0.44719985,0.067402,-0.19231448,0.0854088,0.079248264,0.18611848,0.08404254,-0.022673307,0.13439572,-0.3263456,0.109626584,0.08071383,-0.0009016927,-0.04478453,-0.20178145,-0.2636279,-0.27357632,-0.21160609,-0.21860728,0.22961415,0.1608137,-0.2008197,0.17727323,-0.3397906,0.13415419,0.37222517,0.23183699,0.14609726,0.13637902,-0.025704991,0.013795859,-0.012354362,-0.06578293,0.19367437,0.05835577,-0.032565,-0.36947817,-0.48687506,-0.17489089,0.026866233,-0.19236462,-0.3226943,-0.18640083,0.0052188053,-0.036514923,0.018968293,-0.05285507,0.07481076,0.059532247,0.04136127,-0.37542605,0.1206244,-0.032251023,-0.10088248,0.050777033,0.054204695,-0.20860681,-0.0024722654,0.061432317,-0.26599133,-0.2533753,0.107361786,-0.44928575,-0.26148129,-0.018530978,-0.070415184,-0.34522474,-0.0045451494,0.18396728,-0.15699084,-0.13501213,0.5129643,-0.23532361,0.2274529,-0.026238421,0.50754184,-0.037495732,0.57128876,-0.118554175,-0.2924581,0.17601061,-0.14577481,-0.44658452,-1.2523199,0.1004868,-1.0459306,-0.059873782,-0.14886272,0.41906103,-0.09143852,-0.68546325
0.15209462,-0.33041906,0.058913637,-0.0645355,-0.44943407,0.062120482,0.2466124,-0.07076739,-0.1303485,-0.047231358,-0.08838336,-0.002430019,0.118906476,0.30526334,-0.21458833,-0.24312744,0.112022094,0.0987585,0.21864776,-0.11470237,-0.11847944,0.0027664166,-0.08616375,0.13278456,0.021444412,0.018952815,0.10586878,0.062873036,-0.09659724,0.035729114,-0.08323651,-0.3125952,0.056604173,-0.124647886,0.34611735,-0.14344479,-0.05212702,-0.046996675,-0.22401348,-0.300338,0.11247943,-0.063792594,-0.022100588,-0.11916765,0.16169833,0.0737871,0.028928414,0.045143194,0.58558613,-0.052673515,0.022272877,0.044752214,-0.12661391,-0.03754805,0.035963595,-0.32358572,0.11300587,-0.05358534,0.20559771,0.014215862,0.029417364,0.0059695295,-0.0006353292,0.06886006,0.24815935,-0.18803816,-0.11107989,0.044201586,0.08367298,0.1805171,-0.06274289,-0.028645346,-0.068368345,0.18134241,-0.08320076,0.05969826,0.00067940826,-0.4707599,-0.16478185,0.021681352,-0.31027764,-0.12035674,-0.030990073,0.100195855,0.06763409,-0.28631133,-0.05061385,-0.12770632,0.026263021,0.013362963,0.19438145,0.042580232,0.04219108,0.1619175,-0.21233442,-0.0062982603,-0.028905232,-0.43297595,0.11694895,-0.1395414,0.0007501509,-0.06656094,0.09210748,-0.004677783,0.0234539,0.017705053,-0.08077791,-0.32119763,-0.13183118,-0.029882481,0.112137064,-0.24676707,-0.07904508,0.10431299,0.0811435,-0.037560437,0.042228144,-0.068611324,-0.28241205,-0.06077558,-0.4945016,-0.08459694,0.06822334,0.012085094,-0.048572466,-0.11907032,0.06487729,-0.0051445505,0.0055309376,-0.1169142,0.20529217,0.17869857,-0.21931389,0.014697549,0.25132918,-0.0073905843,0.11507953,0.13551824,0.2155092,-0.008509595,-0.50029385,-0.18804538,-0.87586635,0.10039631,0.06800018,0.24369192,-0.4339625,1.2132977,0.21100459,0.2694139,-0.3233437,0.29120412,0.70846474,-0.058016248,0.20103899,-0.09835829,-0.5552612,-0.3049624,-0.72620803,0.5629511
-0.06535424,0.2117671,0.033454906,0.02092233,0.1325641,0.088873096,-0.30919304,-0.099105045,0.13229035,0.42146355,-0.2749836,0.38466048,0.5161878,0.49931931,-0.10317751,-1.3070418,-0.046332628,-0.1201152,0.05597067,-0.08617751,-0.16349809,-0.1319117,-0.17390043,0.5651158,0.08250542,-0.14210248,-0.23859654,0.14751779,-0.8719365,0.1933052,0.21705863,0.13122715,-0.16133082,0.104259446,0.06586133,0.19089389,-0.030705862,0.026427092,0.044008702,-0.050892413,0.26215678,0.15755452,0.057661884,-0.1460713,-0.18405911,0.12527585,0.017850231,-0.055253696,0.14727797,0.27053875,0.081009746,-0.23673363,-0.47362173,-0.080133095,-0.5745831,-0.5154452,-0.07369666,0.29199877,-0.16629453,-0.051554777,0.030653778,-0.07700701,-0.2516211,0.32996637,-0.13053021,-0.5496199,-0.022214215,0.03189997,-0.44386682,-0.03905164,0.022991301,0.07872777,-0.16889106,-0.23313482,0.11814342,0.07430291,-0.23150027,-0.13479564,-0.098609,-0.068066336,-0.11173541,-0.25735527,0.003005825,-0.15370199,-0.113521315,0.15907013,0.064879835,-0.17804521,0.08431253,0.19956188,0.2788825,-0.11875077,0.11912968,0.0905011,0.0025876742,-0.54585296,-0.07782995,-0.19141117,-0.044357754,-0.048280008,-0.20315433,0.24760816,0.08385034,-0.18830973,0.009480737,-0.32122222,-0.24439318,0.09879193,0.063740276,-0.04666922,-0.4187188,-0.18622524,0.01277883,-0.025447588,0.12887594,0.17257294,0.06123271,-0.014712954,0.18308762,-0.1516967,-0.063840374,0.10778904,-0.2617311,0.065926366,0.047579475,-0.08890423,0.0929399,-0.12629636,0.18446897,-0.56762564,-0.12849388,-0.16162425,0.01368204,-0.16119795,-0.48183402,-0.19469266,0.055666916,0.08177376,-0.2892891,0.014693148,0.7522356,-1.1173098,-0.03016994,-0.9784665,0.48947057,-0.11232006,0.19182819,-0.59236497,1.1310171,-1.3148154,-0.26544234,0.34586686,-1.0553045,-0.46511218,-0.7112249,-0.3673052,-0.5623263,-0.2526118,-0.77239966,0.033351697
-0.115626775,-0.056922667,-0.11891378,0.0866362,0.043162994,0.14255835,-0.6914843,-0.5338492,-0.4535165,0.6018171,-0.3433334,0.42049643,0.060923725,-0.64809644,-0.4234603,-0.57679677,-0.2554556,-0.109797165,0.15413083,0.28661102,-0.38235953,-0.15552935,-0.023584234,-0.8075587,0.18586099,-0.30445948,-0.056907192,-0.33456242,0.036156934,-0.069187805,-0.11717921,-0.33429995,-0.27686456,0.24459654,0.0687771,0.11371366,0.10671137,0.18199204,0.074131586,0.1761216,-0.49927583,-0.11378238,-0.4023163,0.009981835,-0.2667702,-0.094464235,0.07799602,-0.10585302,0.4734963,-0.33819282,-0.0080120675,0.09787979,-0.10230509,-0.24679114,-0.1473802,-0.93604755,-0.08829346,0.42315993,-0.06890226,0.2533218,-0.09753878,-0.32758185,0.14347738,-0.3804169,0.14066614,-0.3575,-0.0142985815,0.12785773,-0.14340249,-0.078254946,0.12861109,0.14397256,0.031514253,0.3653782,-0.027344406,-0.26933813,0.08972734,-0.32121083,-0.4183925,-0.003987766,0.050099835,0.03869768,0.03310564,0.26323053,-0.2934525,-0.49479574,0.11421518,0.1786069,0.1002771,0.034431465,-0.16151579,-0.3286605,-0.3885711,-0.26963982,-0.6285188,0.09476037,0.4493502,0.115305774,-0.12681898,0.16045703,-0.0055278153,0.14219716,-0.16457054,0.08484707,-0.023879366,-1.1608995,-0.26916662,0.10226348,0.019502373,-0.060946997,0.29473966,0.33547357,-0.018517463,0.16034622,-0.06955488,0.09599503,-0.3692645,0.028072905,0.05979116,-0.47816348,-0.40064877,0.19551866,0.08896438,-0.066157155,-0.23946749,-0.047757283,-0.15608346,-0.43357477,0.019149538,-0.36929718,-0.20126303,0.11998281,-0.33282328,0.2715158,-0.3633864,0.20704989,0.095400825,-0.35991284,0.19117615,0.09420211,0.6287177,0.5483117,-0.22312723,-0.52257305,0.6880019,0.38604456,0.35655817,-0.0063784127,-0.21529697,0.018576311,-0.24699898,-0.49489504,-0.050583553,0.12470724,0.56411433,-0.1457302,-0.48560804,0.16219877,-0.9360424,-0.4505282
0.09809411,0.0040753162,-0.0012437605,0.14620802,0.023980375,-0.16723199,-0.35669515,0.19247268,-0.39440274,-0.02938468,-0.016051693,0.04949429,0.44176197,-0.034866,-0.4860709,-0.37405765,0.20040318,-0.024544569,-0.1900011,-0.33243313,-0.01643632,-0.020646552,-0.011656457,0.07022543,-0.09070295,-0.19402686,-0.21466781,0.16100605,-0.82685786,-0.012292251,0.14725623,-0.00055899087,-0.14537604,-0.24159396,-0.054060347,-0.07736148,-0.21967763,-0.077404656,0.020541776,-0.13104433,-0.088265024,0.14054751,-0.18765575,0.026528668,0.093057655,0.1417961,-0.09259496,0.11883,-0.11703941,-0.054488927,0.0008315815,0.1592035,-0.17811595,0.13630037,-0.07216046,-0.035421252,0.32364532,0.08056898,0.25468612,-0.8344676,-0.14706178,-0.06520515,0.16989338,-0.29629618,0.19234277,-0.5300774,0.09916235,-0.048555784,0.065403596,0.26606005,-0.42670962,0.025849104,-0.02055385,-0.010948969,0.051006578,0.039964557,0.007515507,-0.10635026,-0.011015487,0.05449509,-0.020761684,0.19171652,-0.22407514,-0.015636304,-0.016147127,-0.17102619,-0.100689135,-0.3523279,-0.3516094,0.1821386,-0.94075835,-0.027740806,-0.30507773,0.0040481933,0.0050494443,-0.13788322,0.032951318,-0.19403511,-0.013006214,0.020271216,0.08156871,0.20624459,0.10339824,0.14098226,0.121061794,-0.20762263,0.03871609,-0.011058352,0.035932276,-0.18677944,0.06864141,0.29919526,0.0749249,0.23657086,0.15276924,-0.16850984,-0.014915749,-0.095869035,0.07875622,-0.012888238,-0.20029403,0.21284026,0.050098147,-0.027233848,-0.09250151,0.12247039,0.09093385,-0.69471264,0.17589712,-0.26567596,-0.11564975,-0.17412007,-0.08369984,0.054939717,-0.14653268,-0.09797835,0.06016261,-0.3821521,-0.44742092,0.0890154,-0.22828808,0.24288608,-0.3233396,0.6812448,-0.5695467,0.45411316,-0.47792727,0.9091059,-0.06839944,0.87276417,0.05589927,0.31214747,0.3930776,0.2576582,0.3659635,-0.6622963,0.2911036,-0.57374084,-1.4745783,0.1184992
-0.13179225,0.22150284,-0.10160014,-0.11790838,-0.4223493,-0.030702839,0.0476837,0.1971131,0.18202795,-0.43083867,0.1382408,-0.20583393,-0.34341174,0.16419953,-0.17565799,-0.3652481,-0.19270813,-0.23197901,0.16439663,-0.5183875,0.21457039,0.22338265,0.35294953,-0.56694347,-0.045155287,-0.052580852,-0.094509095,0.109287515,0.11619847,0.51371765,-0.045865286,-0.60425174,-0.07032225,-0.22472136,-0.07138773,-0.98729426,-0.44739747,-0.230333,-0.01882102,0.36450574,0.028658316,-0.022243844,0.19682485,0.056617357,-0.20957613,0.18856256,0.6556176,-0.3206346,0.07624724,0.05761332,-0.12654722,-0.12232139,0.0056163915,-0.1706265,-0.06834379,0.1339412,-0.4900172,0.29816145,-0.61159843,0.12298443,0.06875693,0.2936362,-0.20541956,-0.027108222,-0.5444177,-0.1568868,0.051516015,-0.2585763,0.08474268,-0.02098415,0.0998213,-0.21099098,-0.13351133,-0.19790618,0.06851398,-0.0003034185,-0.14484689,-0.29858592,0.04284375,-0.0487923,0.08780474,0.37144348,-0.020402275,-0.070642404,0.04461572,-0.21658713,-0.4245252,0.012388175,-0.4852899,0.0052607516,0.308133,0.22131798,0.03390727,0.31320825,-0.0766018,0.071354896,-0.2598123,0.536801,-0.30394372,-0.33650228,0.15002364,-0.6170461,0.026933024,-0.15272012,-0.53083104,0.19147405,-0.6392013,0.112697914,-0.072711535,0.09648685,0.103323065,-0.2851337,0.08285571,0.122556955,-0.086809844,-0.066972904,-0.060731597,-0.121886656,-0.54970294,-0.124121815,0.16504747,0.32145235,0.12532684,-0.48851883,-0.0984856,-0.6511147,-0.17143463,-0.16333513,-0.40395874,0.15254587,-0.18047568,-0.7622203,-0.24229188,-0.2824576,0.19012941,0.096301556,0.22437552,-0.06525088,-1.3883519,0.07366043,0.2540421,-0.10907256,0.09877627,-0.07607465,0.47362998,0.06957205,0.24365947,-0.105509445,-0.70608395,-0.72984886,0.1137853,-0.3595304,-0.5505068,-0.089075714,-0.32027146,0.0049963817,0.32996327,0.34196416,-0.216356,0.046017323
-0.5216388,-0.041223057,0.031269807,-0.31584555,-0.2188725,0.033853482,-0.11411388,-0.25037482,0.31755847,-0.15764992,0.0790036,0.4792576,0.061046176,0.30566433,0.12397262,0.27047807,-0.022218995,0.009599327,0.3125737,-0.18697444,0.08255796,-0.14433172,-0.03054769,0.14097688,0.047206044,0.11186379,0.045746278,-0.06853657,0.0687183,-0.029799147,-0.17887521,0.112106115,0.19810915,-0.1495699,-0.073792614,-0.15588835,-0.0055629467,-0.009252258,0.16407363,-0.17965205,0.2648485,-0.12777694,-0.11269783,0.10581483,0.12112714,-0.062673084,-0.32368934,0.034458436,0.043702804,-0.054328464,0.054831192,0.089311674,-0.22012569,-0.14248364,0.047333494,-0.2092057,0.07636394,-0.5620417,-0.0886232,0.13594656,-0.059580233,-0.14992215,-0.23588839,0.06546289,-0.19879234,0.16178358,-0.035712916,-0.08699405,-0.20001814,0.1594193,0.009169659,0.07407241,0.120771684,0.21450002,0.24376033,-0.24594569,-0.22400877,0.12678634,-0.22034872,-0.09370151,-0.09093675,0.040042292,-0.022006646,-0.25138888,-0.06358982,0.033642344,-0.046747852,0.0001185138,0.3168632,-0.04328996,0.126218,0.09394581,0.008875736,-0.015769579,0.08650526,0.29492864,-0.032335702,0.28417754,-0.10442225,-0.0367672,0.04110394,-0.29366282,-0.05608881,-0.1931157,0.03548562,-0.5386259,-0.13485801,-0.13336743,0.047137182,-0.060333643,-0.34011412,0.22816025,-0.08201542,-0.18773067,0.06806035,0.11191455,0.08848252,0.0391033,-0.09619686,-0.08310603,0.25298303,-0.1396352,0.04391155,-0.0018281129,0.07563707,0.19502777,0.024890076,0.38817292,-0.16510785,0.07236333,0.07747707,0.00014852114,0.17635234,-0.05809964,0.12274551,-0.15629114,0.04169827,0.0105305575,-0.13134882,0.0628949,0.09437746,-0.07651138,-0.019418774,0.041485175,0.23884657,0.13406168,0.4068795,-1.0457604,-0.28230113,-0.29203388,-0.12143392,0.07483761,0.14476362,-0.3437638,0.34155348,0.32076314,-0.5656585,0.14314127,0.6181823,-0.6334631
-0.33072734,-0.15161331,-0.048048455,-0.15507026,0.1106991,-0.07695013,0.04985552,0.081094295,0.15166679,0.040454186,-0.12949462,0.3291864,-0.01833819,0.010098195,-0.55320615,0.29534742,0.17464991,-0.2253952,-0.071092814,0.08683967,0.10618411,0.078811,-0.07864082,-0.16016358,0.18583584,-0.17366673,-0.07066259,0.06042426,-0.26885608,-0.0363085,-0.042802308,0.34423804,0.039956726,-0.088791996,-0.15421343,-0.056229405,0.084805876,0.07593067,-0.053587064,0.089452736,-0.1326,0.16867793,-0.004840735,-0.54932773,0.16534655,0.26091272,-0.2370366,-0.10143788,-0.18484846,0.017473781,0.02000892,-0.1834358,-0.17963777,0.2490119,0.022516334,-0.23982002,0.12910014,-0.2760428,-0.14497752,0.30358738,-0.11140045,0.009882917,0.10590061,-0.1120477,0.0820857,-0.23064657,0.039514568,0.06018741,-0.10127976,-0.075011425,-0.19662043,-0.3693725,-0.42898288,-0.35029477,-0.46501213,-0.24362934,0.0026629728,0.16130435,-0.20883605,0.06308637,-0.34759423,0.087896936,-0.12646192,-0.022042418,-0.07173785,-0.37069824,-0.1467585,0.02692185,0.040044688,-0.23895697,-0.049566105,-0.053126622,-0.02100556,-0.18580168,-0.0003536715,0.18213138,0.12327616,-0.22619951,-0.065147914,0.069643974,-0.092810065,-0.17347944,0.103239864,0.1732937,0.074833065,0.15886898,-0.15878253,-0.18360063,-0.26938263,0.10067464,0.2147945,0.18585008,-0.05259389,0.22640345,-0.11557683,-0.38500488,0.39464048,-0.25956804,-0.13613485,-0.06943448,-0.17954318,0.04205576,-0.13100678,-0.048327204,0.05405838,-0.17625162,0.035975017,-0.16042405,-0.10124722,-0.33933252,0.12591194,0.13919769,0.07148935,-0.1303948,0.2961124,-0.06686554,0.039045207,0.1314151,-0.006075956,0.0905539,-0.46799198,-0.04839539,0.11006611,0.28477415,0.54059577,-0.14304802,-0.13536344,0.6535382,0.050284944,0.566939,-0.03794847,0.03303068,0.6825851,0.18366696,0.26232484,-0.41673928,0.22735812,0.19143277,-0.4553134,0.27233258
0.30926952,-0.23112847,0.09223055,0.13607581,0.06991581,0.11954873,0.007662448,-0.18996552,-0.41539466,-0.06736877,-0.122595035,-0.05819981,-0.19382776,0.32522166,0.48069802,-0.79837316,-0.25088093,-0.1536645,-0.12242991,0.17170031,0.089751974,-0.09239934,0.25797117,-0.24988422,-0.14048555,0.22564937,0.05420554,0.187301,-0.004757219,0.11484554,0.14370492,-0.03297758,0.1961706,0.118299164,-1.012691,-0.051494077,-0.44153664,-0.11947105,0.01660109,0.16176634,0.1237458,0.004475329,-0.27238238,0.06198683,-0.16816737,0.06163443,-0.0745431,0.053267162,-0.25679553,-0.09135017,-0.094359055,-0.43295023,0.08070442,-0.18733498,-0.04873473,-0.4783916,-0.023128236,-0.13488036,-0.6644258,0.18928045,-0.123326354,0.26877508,-0.028070703,0.14787902,0.10741269,-0.26483616,0.04169327,-0.10380864,-0.025106449,0.18548822,0.29149252,-0.03155515,0.36242875,-0.12686339,0.20730552,-0.15392296,-0.12515269,0.59075487,-0.012849886,0.0424487,-0.065712616,-0.63382846,-0.016500525,-0.11815087,0.06696303,-0.052475426,-0.26887795,0.101972036,0.12075426,-0.16741839,0.6230562,0.2280202,-0.16464815,0.11241649,-0.25084046,-0.23544455,-0.31462324,-0.27799305,0.03687126,-0.032891408,-0.095871784,-0.13525014,-0.098672725,-0.25587147,0.16064855,-0.029959619,-0.26797128,-0.13688411,-0.016052762,-0.15263137,-0.09785682,-0.11922251,-0.28122613,-0.054514565,0.03874797,0.4022472,-0.28816777,-0.13396576,0.06528515,-0.048011195,-0.12941127,0.0026336464,0.14276707,0.091835916,-0.06653416,-0.037447073,0.03324696,0.26470378,0.0034416344,-0.13626209,0.00017305031,-0.1043704,0.029016087,-0.22844005,-0.1424218,0.06391401,-0.019721426,0.11889501,-0.026620554,-0.0013344187,-0.10703246,-0.2898189,0.20410293,-0.048895676,-0.08762289,-0.37053952,-0.75005,-0.17961776,-0.38292915,-0.26715982,0.06442277,0.55353284,-0.15869138,0.13995717,-0.42307836,-0.37207776,0.21814696,0.10458161,1.0311109,0.2734286
-0.20997092,-0.11818623,0.032720122,-0.009127067,0.03214854,-0.21262409,0.008884885,0.13627674,-0.3431583,-0.15382285,0.22986773,-0.18164548,0.0715928,0.3448268,-0.5891704,0.4260164,0.22815679,0.17320004,0.0038520973,-0.053419806,0.17641716,-0.003918416,0.2980387,0.022977635,-0.026149653,0.0035231172,0.07454664,0.038607955,0.20119691,0.109262325,-0.020846374,-0.04596509,0.05558605,-0.09933895,0.0618941,0.03267031,-0.3939091,-0.101939514,0.017490562,0.4372398,0.027397214,0.3169003,-0.04883669,-0.22362924,0.34552276,0.22218895,-0.3789278,0.071994066,0.6211783,0.18450734,-0.102357216,-0.2119509,-0.15930729,-0.2850905,-0.018577667,0.08896826,-0.13602857,0.12495356,-0.08357048,0.26842898,-0.031632405,0.087098576,-0.010638424,-0.29429615,-0.34662718,0.038917236,-0.06421558,-0.058465358,0.08536607,0.25311375,0.3131043,0.1551843,0.11588275,-0.49826244,0.06846126,-0.072859265,-0.105480805,-0.24860667,0.1560115,-0.12934561,0.08204526,-0.25244096,-0.23313247,-0.3629161,-0.03858464,-0.022652542,0.29894704,-0.009776282,0.018104393,0.20609622,-0.19924246,-0.16465499,0.31866157,-0.032836393,-0.10898515,0.25782108,-0.044809144,-0.08302474,-0.06999703,-0.046445385,-0.04993633,-0.017891444,-0.22107609,0.086027734,-0.089733526,0.25804937,0.35439882,0.32822284,0.040660877,-0.22665064,-0.41356155,-0.028640874,0.018280866,-0.205827,0.07382906,0.26442558,-0.3397486,-0.053257123,0.05698446,-0.22684848,0.057418283,0.05810105,0.20296697,0.06543788,0.04082426,0.16473784,-0.18790746,0.12362975,-0.10278185,-0.11265638,-0.030398173,-0.17716509,0.03653784,0.11929337,-0.35122824,-0.12150986,-0.019742372,-0.07505189,-0.24727434,0.043151114,0.4564333,0.06982166,0.31606758,-0.97080123,0.13096894,-0.20650554,0.011123328,-0.6162485,-0.0007169663,-0.09734159,-0.1681769,-0.57284516,0.03261554,-0.2874953,0.25222808,0.21124493,-0.012620378,-0.35990268,0.9182173,-0.6358649
0.46481368,-0.2330702,-0.07986879,0.022331767,-0.1438917,0.11488751,-0.24841689,0.027960092,-0.4285862,-0.025859771,-0.022160977,-0.37216407,0.5427684,0.39713085,0.35139984,0.057735253,-0.15101166,-0.5010939,0.09764737,-0.3583476,0.27212542,-0.20908113,-0.20566711,0.10320781,-0.26155132,-0.15476145,-0.06464744,-0.18454601,-0.58069336,0.22031559,-0.26714545,0.14589156,0.10639384,0.14664514,0.26515865,0.0035880504,0.20776333,-0.06538642,0.14255841,-0.05746854,0.13738875,-0.046601374,0.1536977,-0.17934266,-0.021724356,-0.12288343,0.058708616,0.15233885,-0.45199898,-0.30254102,0.021707013,0.035469674,0.08475678,0.12169538,0.039652143,-0.37435153,0.22489572,0.6069158,-0.0042477003,-0.25998092,-0.09130387,-0.26547483,-0.04419663,0.15233377,-0.6107153,-0.4491902,-0.10298395,-0.04088823,0.005510559,0.4834153,-0.33784014,0.02934232,0.27350542,0.112676516,-0.3777874,0.058287,0.2870401,0.3505204,0.13156806,-0.07785459,-0.34446192,0.13717704,0.04231785,-0.29702884,-0.19876918,-0.063766256,0.06318193,0.06112048,0.0025551778,-0.10994728,0.12519571,-0.5528082,0.07791979,-0.28235933,-0.13415697,-0.4812049,0.1075497,0.2565199,0.050089203,-0.026147105,-0.43133566,0.077812634,-0.037009224,-0.19762751,-0.0546028,0.18067752,0.12344911,-0.096056215,-0.061395094,0.07535759,0.48101974,-0.11485894,-0.027859725,-0.30290216,0.028375033,0.079457246,-0.4595354,0.009065735,0.43236572,-0.2817096,0.19293478,-0.6451378,-0.13215077,0.05402706,-0.27136096,-0.0075781248,-0.11297406,-0.30020103,0.06903562,0.07121501,-0.10924797,-0.22044413,-0.06254235,0.1580612,-0.0867219,0.030572584,-0.29037416,-0.47660133,0.15572412,0.030524975,-0.38209733,-0.21103512,0.70816153,0.2243922,0.50418925,0.45045906,0.43467888,0.020079346,0.06224643,-0.16592157,0.09753345,-0.46133146,-0.29812938,0.45497754,0.13370104,-0.57048965,-0.04595688,0.4525157,-0.5840154,0.0004999328
-0.41858777,-0.07845344,0.038013536,0.03597819,0.18561797,0.021352066,0.21028687,-0.19124669,0.31014535,0.3949391,-0.16297011,-0.03831888,0.11244566,0.41822648,0.16118884,0.20097016,-0.10244647,0.20166765,-0.7236414,-0.3943773,-0.039093778,-0.2193467,-0.080570266,-0.099504806,-0.016152106,0.024482407,-0.11467511,-0.08749859,-0.046864003,-0.09209878,0.14818205,-0.14487647,-0.050535068,0.012457583,0.20266408,0.017412312,0.2204096,-0.05992206,-0.14326239,-0.14127427,0.048687294,0.06885336,-0.021314431,-0.3048171,-0.417514,0.15769769,0.040601175,-0.29270142,-0.6206689,-0.05637667,-0.03990943,0.016258327,-0.11908903,0.18561703,0.07689508,-0.46392423,-0.09932379,-0.14359714,0.03318864,-0.11904177,-0.109260246,0.08328629,0.03765658,-0.022693422,0.08673077,-0.0086435955,-0.123952135,0.0071445554,0.056781862,0.26699123,0.20537457,-0.07035823,0.18787852,-0.65878904,-0.009323838,-0.1259086,0.056714736,0.27047953,0.24670483,-0.09396295,-0.05726547,-0.1430491,-0.076285265,-0.0699477,-0.07168542,-0.15760529,-0.09119883,-0.009356329,-0.06288953,0.05749919,0.053111438,-0.08264832,0.23234811,0.2008927,-0.0036495347,-0.060887128,0.070044175,0.26544213,-0.20264968,0.006312639,-0.033534486,-0.034712214,0.10318818,0.07495486,0.095309205,0.055981994,0.07892485,0.10270642,-0.24991122,0.14037119,0.032184802,0.0015719051,0.0026156686,0.22166795,-0.015326799,0.025503756,-0.07593042,-0.23149757,-0.078789435,-0.14131045,0.027093181,-0.47523096,-0.13872296,0.12061661,-0.041778214,-0.20032044,0.18449551,-0.3000682,0.2130592,0.062083635,-0.036620278,0.09702166,0.039953187,0.11691063,0.16707985,-0.05820052,0.013808983,-0.083250634,-0.29652092,-0.103602946,-0.2226314,-0.17329268,0.26705098,-0.11657102,-0.15938401,0.26049504,-0.48043343,0.49195996,-0.24272557,0.18939081,-0.008345966,-0.2763591,0.08255599,0.25792697,-0.26334247,0.30801937,0.55595964,-0.06673313,-0.8402008,0.034469422
0.19475865,-0.49629045,-0.042757805,-0.14342423,-0.01794132,0.042582545,-0.25367096,-0.26952404,-0.120331936,0.13035677,-0.054385703,-0.04052708,0.09895756,-0.010875428,-0.62909126,-0.114386,-0.33810455,0.16120432,-0.0727005,-0.6173945,-0.063105665,-0.12458485,0.07338911,-0.15667213,0.14049318,0.15738718,0.11254772,0.047115467,-0.3860727,-0.004722673,-0.18524833,-0.10551881,-0.20404238,-0.11551361,-0.35537264,-0.12257343,-0.3217352,0.06393627,0.115091726,0.76671284,0.045330618,0.3217239,-0.15541598,-0.020107359,0.1854277,-0.000195465,-0.020710796,-0.2372606,-0.28603828,-0.48148698,-0.06207843,0.016968274,-0.13420513,-0.21284875,-0.04757688,-0.13741545,-0.35417545,0.04621415,-0.29871038,-0.31178334,0.003174355,-0.076228894,0.032129332,0.3557293,0.10361965,-0.1172886,0.101757444,-0.42435238,-0.15582798,-0.04737013,0.280487,-0.13634892,-0.23157454,0.3737826,-0.051424623,0.037404373,-0.17016217,-0.13211694,-0.15900025,-0.07498801,-0.18676542,-0.19698676,-0.11184788,-0.12227332,0.0023717538,-0.0883176,0.07810977,0.0698396,-0.12129268,0.06741459,0.011735415,0.04152041,0.45209455,-0.5797835,-0.10142253,0.17175515,-0.16269563,0.042806897,-0.030109044,-0.031063352,-0.4877165,0.23004328,0.25195456,0.12705512,-0.037989613,-0.2591,0.12268983,-0.2174688,-0.013509677,0.069427416,-0.12580061,0.3541393,0.008936279,-0.13050753,0.071162626,0.23934011,0.5035474,-0.015220869,0.08660103,0.26836473,-0.6265316,-0.07164092,0.1684355,0.01995729,-0.33993497,-0.027363222,-0.19008873,-1.0563102,0.06631334,-0.12498444,-0.01791405,-0.31433272,0.07556048,-0.10305775,-0.035516024,0.113599956,0.114541024,-0.16991225,-0.5706874,0.044943683,-0.47345588,0.19581263,-0.4029364,0.5806252,-0.42989174,0.05742753,-0.31615403,0.7763776,0.49924365,-0.10046251,0.24160403,0.0032234997,0.3971058,-0.12499895,0.09301589,-0.082319185,-0.13000567,-0.4366446,-0.67319465,-0.17631866
-0.047475796,-0.6355148,-0.03086019,0.09209827,0.32893646,-0.17220542,0.19853249,-0.31291255,-0.07393742,-0.14365762,-0.09203619,-0.29813805,-0.59495217,-0.40281326,-0.5648481,-0.35640845,-0.09088261,-0.19514441,-0.8029899,0.22008076,-0.0022139405,-0.20151214,-0.18888432,-0.097943105,-0.0012021895,-0.14685278,0.14511152,0.016392155,0.03276258,-0.039361738,-0.18936801,-0.024985323,0.1416171,-0.5166368,0.49672392,-0.53954804,-0.035146955,0.14006047,-0.25895387,0.6052248,-0.050511044,-0.6978787,-0.097027585,-0.2793848,-0.3198421,-0.19609709,-0.09320744,0.24906242,-0.015405951,0.1806747,-0.11955925,-0.08149598,-0.026590418,0.00089508976,-0.01723467,-0.027929323,0.22542235,0.064744115,-0.121627405,-0.27819037,-0.16430217,-0.028275004,-0.2808964,-0.0445916,-0.2854262,0.12756248,0.115588434,0.0062052836,-0.030016942,0.30785984,-0.2570424,0.18768297,-0.53530014,-0.57023025,-0.14014156,0.108083665,-0.11497586,0.26441136,-0.115239844,0.026129507,-0.24499562,-0.36207804,-0.0036904272,-0.367561,-0.12906042,0.05751158,-0.060309533,-0.13937595,-0.39375305,0.15118483,-0.17729886,0.2291647,-0.5991276,-0.029201925,0.031028518,0.33919105,0.06545127,0.010277241,-0.16640623,-0.3698849,-0.20808189,0.25516072,-0.04436007,0.20308125,-0.025898103,-0.42010558,0.14331561,0.3176593,-0.17250276,0.06821226,0.2487984,-0.34325948,-0.039407134,0.29675114,0.031623118,0.049787316,-0.060239576,-0.011638972,-0.104289025,-0.029985117,0.040455453,-0.07813952,0.20136125,-0.45408082,-0.0048886486,0.10222735,-0.17220442,0.47513005,-0.31797722,0.04664379,-0.15155418,0.025570601,0.08968971,0.017613377,-0.44377068,0.12801994,0.18047297,-0.51366633,-0.1051037,0.09208357,-0.3516485,-0.10547986,-0.17197698,0.075209774,0.40373507,-0.7676824,-0.36680484,-0.29028285,-0.4239682,0.100990675,-0.16232885,-0.19911757,0.3780255,0.14297484,0.1536614,0.07487781,0.6408192,0.037260182,0.51442677,0.42945704
-0.46663955,-0.09566317,0.038278293,-0.13944788,0.45405632,0.19546743,-0.14410992,0.009864306,-0.06847182,-0.22001755,0.06778429,-0.076300584,0.31956133,0.27867594,-0.33508864,0.67098546,-0.0029545587,-0.47894567,-0.45528096,-0.32750577,0.12998158,0.25751588,-0.034903623,0.1444995,0.046524674,-0.38447443,0.22306049,-1.0084252,-0.057322215,-0.6806801,-0.27340162,-0.85154456,-0.018940354,-0.20073237,-0.06528332,-0.41731533,0.21403818,0.01692118,-0.08345309,-0.014566523,0.36900932,0.011730976,-0.1526477,-0.24441153,-0.23083517,-0.074530445,-0.45967337,-0.0022150686,-1.1503422,0.23748285,-0.15554418,-0.4889832,-0.14385027,-0.025948552,-0.2599277,-0.102073535,-0.1849058,0.55323094,0.023133254,0.0056642555,-0.13594066,0.14917865,-0.16884384,-0.18191984,-0.010341146,-0.6722134,0.0076818205,0.19428958,-0.11227091,-0.541073,-0.11925381,-0.15447843,0.5444533,-0.2981455,-0.10178746,0.10188241,-0.06331266,-0.16042508,-0.567681,-0.17575428,0.05477848,0.018980706,-0.034120873,0.29312012,-0.12920317,-0.195353,0.12012585,0.18614413,0.4741447,0.21624613,-0.41868314,-0.04993914,0.028976562,0.12684414,-0.04458585,-0.131387,0.13022904,0.36820203,-0.28904992,-0.066367686,0.010778596,-0.18303366,0.054561615,-0.112559795,0.004187595,0.10228659,-0.31535485,0.086895496,-0.005400388,0.26030484,-0.3612272,-0.3564938,0.015690845,0.23156126,-0.16321437,-0.26587656,-0.38067827,-0.049591813,0.08801842,-0.14933133,0.06877458,-0.07426037,-0.17092626,0.1265946,-0.122892946,0.10848945,-0.041164577,-0.7769175,0.11270833,0.09363093,-0.05930452,-0.4067962,-0.30654487,0.18840191,-0.13932893,0.08966906,-0.17934906,0.26280317,0.3017199,0.122049965,0.43836966,-0.506347,0.3828033,-0.3397745,0.790572,0.090366706,0.5902283,-0.73507375,-0.2121541,-1.5726643,0.2645377,-0.39946312,-0.82054543,-0.18165983,-0.641159,-0.31870708,-0.117149025,0.1653318,0.2774648,-0.019591019
0.06505747,-0.10973278,0.0016390084,0.047088083,0.060845047,-0.02266877,-8.1349855e-05,0.063058205,0.22203246,0.23275113,0.027360486,0.11415104,0.3249478,-0.09725647,-0.013126916,-0.2458721,-0.07754768,0.0047300817,-0.15241714,-0.10692585,0.11473928,0.048377387,0.011989955,-0.25015715,-0.06974373,0.031191316,0.12960526,-0.325074,-0.09290514,-0.23468003,-0.022128867,0.41139233,0.0106163295,-0.09895793,0.043813534,0.05413859,0.35246488,-0.1722332,0.113246314,0.089808606,0.41662845,-0.22246286,0.030743489,0.113463625,0.003560382,0.04156757,-0.4902108,0.011355377,-0.5661363,0.27476338,-0.031082565,0.092910536,0.1081954,-0.41296226,-0.028151426,0.074521266,-0.20136265,-0.24942814,-0.23377766,0.08686736,-0.072433464,0.027391553,0.15382688,0.054426007,0.21801822,0.2011025,0.0063360115,0.057531547,-0.121297024,-0.17617728,0.11432571,-0.21834832,-0.14428139,-0.2302864,-0.008738564,-0.21478058,-0.1437253,0.029444959,0.12431447,0.11532927,0.20790777,-0.017807841,-0.0046233055,-0.23352335,0.09134658,0.06271256,-0.034232877,0.07051324,0.051624086,0.15870003,0.14393125,0.14773214,0.006170316,0.106900394,-0.19177832,0.1904277,0.11571069,-0.008602937,-0.0059704212,-0.06860905,0.027142894,0.16583945,0.08903767,0.006772107,-0.08401837,0.34950003,0.0402452,0.32451057,-0.08367038,0.008330471,-0.08419548,0.2233276,0.056587044,-0.106526524,-0.082421675,0.066656224,0.08004119,0.066122346,0.23910612,0.0075641912,0.37354726,-0.23614502,0.037743866,-0.04959837,-0.0129263885,0.2032587,0.0033375686,-0.11713092,0.0004077874,0.050101653,-0.015416487,-0.35237744,0.07418309,-0.012954969,-0.11204828,0.09344434,-0.08425212,-0.27013448,0.052863684,-0.10986599,-0.017160272,-0.07500995,0.0417899,0.0032118459,-0.91233075,0.002380884,-0.3262587,-0.95566076,0.602181,-0.45778912,0.12989743,-0.573008,-0.23114838,-0.49682787,-0.7064891,0.15689985,0.06361696,-0.08325645,0.81132305,-1.3330178
0.28536013,0.15384804,-0.06629287,-0.14976594,0.011963425,0.005293483,0.12651697,0.11337359,-0.3435314,-0.5525553,0.10673176,0.16161585,-0.51597166,0.08643433,0.06421635,-0.57186717,0.21428156,-0.2577214,-0.18496887,-0.6262619,-0.06065897,0.06284536,0.09976889,0.1366755,-0.027893616,0.18314034,-0.051208172,0.42036927,-0.031193512,-0.003818044,0.058990054,0.083288394,-0.0691147,-0.31795937,0.007576804,-0.12937252,0.30141515,0.06272884,0.067823455,-0.37136808,-0.21258104,-0.64892083,-0.2867361,0.0829612,0.124312855,-0.5097284,0.28962925,-0.10830059,0.074937224,-0.1704443,0.03228384,0.16240135,-0.296321,0.056634326,-0.0034509185,-0.42203295,-0.011017832,-0.87427926,0.06324514,0.33684042,-0.013514885,-0.28428558,-0.109965175,-0.0018970082,0.5169485,-0.091213726,-0.10607814,0.06945534,-0.23550172,0.51093245,-0.442085,0.054365452,-0.30165535,-0.31133133,0.074484326,-0.5927581,-0.1310061,-0.19218864,-0.16423306,-0.08408814,-0.072067276,0.20874602,-0.1161134,0.22012626,-0.0030610089,-0.19907525,0.117787376,-0.0505344,0.39964235,-0.108032584,0.29776493,0.0399459,0.05831382,-0.0038032494,0.19118625,0.34852004,-0.16206029,-0.32483643,-0.16569561,0.24783911,-0.004481945,-0.38166943,-0.5284039,0.059829004,0.23709257,0.04679443,-0.046059612,0.20860878,0.05755121,-0.061209556,0.020655867,0.19459155,0.03603076,0.22093894,0.09986362,0.023898255,-0.39338624,0.12903164,-0.055494335,-0.08238349,-0.26102567,-0.09236414,0.27160788,0.12713477,-0.0057524005,-0.040667366,-0.035118926,0.054805826,-0.033626236,0.06982673,-0.10291931,0.41457948,-0.23510921,0.026421515,0.030353108,-0.38083702,0.2154051,-0.14442512,-0.051786162,-0.045789216,-0.26008806,0.06784339,-0.10857065,0.1918507,-0.15218966,-0.19092558,-0.884155,0.025660159,-0.31855333,-0.37050462,-0.018007988,-0.14337283,0.5238782,0.1358215,0.4328343,-0.21975268,-0.18664072,-0.40067127,-0.17516558,-0.105853654
0.18534958,-0.19588265,-0.23676194,-0.028054016,-0.3270892,-0.40111026,0.13578008,0.09730775,-0.15773258,-0.4344001,0.049533524,-0.4304191,0.23691818,-0.11972442,-0.40099025,-0.33667776,0.080900066,0.07565193,-0.105163306,-0.067535765,0.30123657,-0.07106381,-0.31116188,0.28253308,0.28372017,0.20225292,0.019700408,0.32247308,-0.13409145,-0.15848053,0.04104442,0.1695451,0.04183682,0.091847055,-0.16152425,0.14591758,-0.13195598,0.011221866,-0.17328875,-0.24975394,0.0066286847,-0.4373654,-0.1717374,-0.06053957,-0.02499757,0.021136176,-0.4485365,0.025675243,0.60497665,-0.21609052,0.1718526,-0.08872942,-0.015288377,0.014055616,-0.13053721,0.26218563,0.04667158,0.41015854,-0.0639045,0.4387645,0.09198508,-0.19317915,-0.09729456,-0.6692281,0.15005088,-0.18769747,-0.07376865,0.04889907,0.07024571,0.101030886,0.0023315717,-0.011090487,-0.0071786293,-0.07347353,-0.14400923,0.32079473,0.1718989,-0.11753732,0.032317836,-0.1312122,-0.0116089145,-0.00421496,-0.06494066,0.25004548,-0.073701754,0.17936769,-0.15289171,0.22259614,-0.21057042,0.075233266,0.30013925,-0.45103833,-0.16422904,0.059389427,0.078189336,-0.3868889,-0.16100256,-0.6413541,-0.12744035,-0.25115272,-0.150923,-0.022042843,-0.1059644,-0.015954182,-0.17504884,-0.077083424,0.32885212,-0.10017497,-0.004512588,0.34889102,-0.49132174,-0.016826186,-0.050820604,-0.13735357,0.07681245,0.032918893,0.005507381,-0.16190782,-0.26090837,0.17894137,-0.29928124,-0.092690706,-0.17007972,-0.10062684,0.2687949,0.08426096,0.12384135,-0.13910533,-0.12752002,0.05201504,-0.0035498429,-0.22310668,0.016331494,0.08292028,-0.36091128,-0.1735487,-0.18034077,0.37120834,0.08161935,-0.04778986,-0.039429285,0.23658878,-0.29519364,0.014064415,-0.2882018,-0.0021277813,-0.15860145,0.4559227,-0.32359266,0.10530692,0.037859976,0.32580432,0.1952718,-0.84206265,0.19476493,0.37592128,-0.32954687,-0.2380522,-0.072764926,0.18971752
0.24950796,0.108211584,0.008766564,0.2628963,-0.032510407,0.09296831,0.21294373,-0.16508068,0.2345446,-0.091511756,-0.004047834,-0.11458618,-0.29307756,-0.021351596,0.2318741,-0.4376862,0.36889845,-0.16603312,0.056217834,-0.34151813,-0.0763487,-0.065187946,0.03246993,-0.5305414,-0.2908921,0.03010379,-0.014215267,0.33441904,-0.01931559,0.04515566,0.1779163,-0.10749524,-0.015964149,0.6059927,0.15913957,-0.13381101,-0.18061015,-0.00529014,0.01436455,0.3583167,-0.03136787,-0.31366923,-0.37812123,0.18116732,0.17645468,-0.01898199,0.39767012,-0.19966437,0.22891593,-0.72112113,-0.18627918,-0.07695975,-0.109989375,0.19973627,-0.028887372,-0.40011442,0.21902622,-0.3750992,-0.01997172,-0.29214895,-0.10605439,-0.29102787,-0.1413505,-0.55953497,0.07712688,-0.17017817,0.07759358,-0.26156974,-0.08004751,-0.03840347,-0.018429477,-0.2149516,0.4449158,-0.23462349,-0.384915,-0.051404748,-0.25572285,-0.37798747,-0.0017112953,-0.040972143,-0.9506245,-0.21425022,-0.16986988,-0.053733464,-0.16158792,-0.06514012,0.1470202,0.038455192,-0.33589208,0.039086387,-0.8909089,0.355644,-0.124943174,-0.071887605,-0.358304,-0.031019067,-0.021918718,0.22013292,0.0864252,0.15224917,-0.12195501,0.10817307,-0.11792085,-0.30386853,-0.0014549124,-0.46921602,-0.4626792,-0.2575192,0.07997228,-0.076687954,0.06459492,0.120043464,0.017905742,-0.08231246,0.014725622,0.012825246,-0.52204174,-0.16375981,-0.46629688,-0.11167744,-0.6512721,0.21933234,0.16657367,-0.023273146,-0.0053713634,-0.10421897,-0.022348873,-0.4736565,0.12216494,0.02913287,0.02392614,-0.18898599,0.08636646,-0.06665717,0.01958641,0.031658627,0.23463596,-0.29468015,-0.3214335,0.12118877,-0.18700051,0.067779735,-0.06337615,0.43049297,-0.26776472,0.3947841,-0.5322505,0.8763427,-0.26025063,0.025918245,0.22580054,-0.28618163,0.5470095,0.19649993,0.46407247,-0.24015886,0.011232415,-0.31476334,-0.22353005,-0.1325494
-0.06315779,-0.19760016,0.02084825,0.01221314,0.040873382,-0.17700969,-0.26618853,0.005647421,0.19018665,-0.4150578,-0.27696186,-0.3088447,0.1705331,0.64429516,-0.09421828,-0.74457645,0.054479335,0.1060408,0.11920907,-0.2986591,0.03297471,-0.11499561,0.13063549,0.18032004,0.09848293,-0.2595749,0.19232017,0.07126484,-0.88855153,0.16477272,-0.004430347,-0.40817797,-0.0054103318,-0.37619677,0.6524552,-0.4205118,0.5084021,0.172047,-0.15740678,0.34949082,-0.23661634,0.07724129,-0.07808461,-0.00110969,-0.10778559,-0.0051761772,-0.03402518,0.20942566,-0.0077733737,0.17698398,0.070522614,0.36908388,-0.36134326,0.20796117,-0.1932972,-0.09258158,-0.23528147,-0.14873263,0.08079169,0.14010797,-0.11047315,-0.4207523,-0.3008303,-0.42484882,-0.008982983,-0.66041285,-0.0027670742,0.07970886,0.1463896,0.57596004,0.29141247,-0.12242555,-0.5119045,-0.3121683,0.0031647931,-0.11487434,-0.25216526,0.15559193,0.010565179,0.09086206,-0.06493518,0.029583314,0.048825815,0.26897633,0.14725372,-0.1671836,-0.038217936,0.10334198,-0.16253069,-0.5690907,0.078766845,-0.32044306,-0.35322726,-0.110290244,-0.2734336,-0.62693846,-0.20724782,0.19903113,0.08316136,-0.69785607,-0.099677816,-0.0693353,0.021508947,-0.26909652,-0.05797127,-0.03195742,-0.029636355,-0.25130534,0.06302747,0.29858384,-0.6200871,0.070028916,0.013384998,0.031734806,-0.10019522,-0.10886745,-0.06917046,0.05652289,-0.4056831,-0.018711302,-0.13908845,0.06496283,0.1037076,0.00041266496,-0.23994462,0.03269292,0.047077253,0.40329722,0.3369026,-0.22743936,-0.0054993303,-0.070765145,-0.38068768,-0.47814256,0.38816744,0.21643886,-0.08591876,-0.029877236,-0.45478335,-0.13206995,-0.44559565,-0.15074995,0.043666057,-0.20681645,0.17151587,-0.4099415,-0.6200742,-0.66110957,-0.46273166,-0.57796544,-0.46527684,0.546645,-0.046493836,-0.5095109,0.20302677,-0.39189807,0.53503174,-0.0036773772,-0.8336846,0.32398835
-1.1301115,-0.71515447,-0.022038082,0.22435337,0.13194208,-0.14783612,-0.63547814,0.18413205,-1.1802471,-0.34167275,0.22406258,-0.25748858,-0.72612584,0.05096434,0.28297698,-1.5229154,0.13262673,-0.10874585,0.37984937,-1.5053095,-0.70015746,0.013482834,0.044959422,-0.6461277,0.2715819,0.08857744,0.1718099,-0.62779486,-0.2672798,0.266136,0.026905237,-0.07859721,0.15560995,-0.21339509,0.081145845,-0.84808564,0.38568956,-0.006278436,-0.16550086,0.16868128,-0.012667423,-0.48293486,-0.24944967,0.17761534,0.20243777,0.0031667042,-1.206588,-0.118961945,-0.21277888,-0.010235816,-0.2184843,-0.41630068,0.1427405,-0.23961891,-0.034389537,0.34737813,-0.43768954,-0.48569086,-0.40553847,-0.6011888,0.0070535904,0.040268447,0.22571908,-0.32355148,-0.8988814,0.3382254,-0.046627037,-0.44929823,-0.19875495,0.04964379,-0.41699567,-0.269487,-0.2886311,0.4617596,0.42874116,0.017003084,-0.29173034,-0.1381173,-0.06226958,0.12414048,-0.2344901,0.11787892,0.123231195,-0.21820417,0.077787094,-0.17210543,-1.1870672,-0.005310549,-0.4735223,0.34743837,0.17801999,-0.03138907,-0.19820651,0.055057883,-0.117286354,0.1948671,-0.5956482,-0.0002357054,-0.037507433,-0.064591415,-0.16761026,-0.15631808,-0.052191786,-0.2287931,-0.16583227,0.21779649,0.16423763,-0.2584036,-0.06935358,0.33756056,-0.6737968,-0.20648226,-0.31742388,-0.26708126,-0.13721424,0.323447,-0.5739607,0.014881065,0.06564327,-0.6689341,0.67046964,-0.55073184,0.097036146,-0.0012961543,-0.25311002,-0.022377338,0.016338969,0.3784313,-0.44115314,-0.047098424,0.20498869,0.12771612,-0.29875025,-0.033393122,0.031285882,-0.06734846,0.17566283,-0.22555403,0.28768015,-0.13366114,-0.56555516,-0.57836205,-0.20157932,0.4433911,-0.47728738,0.28919014,-0.4274503,0.48059973,-0.37225798,-0.59386414,0.12152396,0.049352825,0.6949557,-0.6256868,-0.18769997,-0.17724401,0.6987716,-0.17707394,-0.27624214,-0.0007675742
-0.0015032244,-0.009150574,0.0041416544,-0.22586352,0.12544669,-0.26555043,0.12944582,-0.23358327,-0.0031036865,-0.30647036,-0.009470508,-0.26219416,0.12984036,-0.162535,-0.4188502,0.36535433,-0.1267961,-0.14718966,0.28272715,-0.18754365,-0.068810314,-0.178598,0.07203019,-0.08032237,-0.112016596,-0.19203234,-0.30758858,0.06747625,0.09188132,-0.11548567,0.035253283,0.061570495,0.10814115,-0.2494106,-0.122592166,0.082750395,-0.1412398,0.055182632,0.06841753,-0.38144374,-0.1282435,0.061220232,-0.2614933,-0.49782205,0.008590973,-0.042415436,-0.21879126,0.11037761,0.103250265,0.080159664,0.06260792,-0.16083273,-0.14075392,-0.2736393,0.08892817,0.14848045,0.25367022,-0.08703276,-0.30674267,-0.23573336,0.028248554,-0.11556796,-0.058834087,-0.031139862,-0.024425874,-0.11850413,-0.07593047,0.017956115,-0.06626574,-0.32887593,-0.24246503,-0.45487186,0.06354158,0.1891926,0.14187227,-0.13385724,0.19018275,-0.23287652,-0.0754259,0.050626025,-0.06255405,0.26114118,-0.030579314,-0.053244807,-0.023534434,0.11461391,0.05993009,0.18288434,-0.37202808,-0.48563996,0.102646306,-0.5678942,0.16639622,-0.034861278,-0.022624448,-0.16440898,0.062395383,0.19545789,-0.007188793,-0.039638076,-0.07071226,-0.2766143,0.0008018281,-0.17535222,0.18096702,-0.092284195,-0.23208103,-0.23677877,-0.11615834,0.022424666,-0.32114547,0.37998375,-0.07019441,0.12802674,0.05523285,-0.36633274,0.07359305,0.09642998,-0.37146923,-0.09355327,-0.23999114,0.14122115,-0.1776185,0.11665948,-0.1556694,0.25558695,-0.17756112,0.39759043,-0.42987686,-0.09528366,0.019532021,-0.17830808,-0.05164673,-0.13913485,-0.0025745118,-0.13764822,-0.008276112,-0.17201819,-0.3765334,-0.07597871,-0.083443336,-0.45837247,-0.31955615,0.51797175,0.096010156,0.34716782,0.03666707,-0.7400292,0.07038641,-0.8497699,-0.43761086,0.57181025,-0.061500903,0.09417596,0.3270677,0.2924465,-0.53304183,-0.029139789,1.1295767,-0.2713607
0.09271129,0.09194079,0.059094604,0.0084606465,0.27301642,0.1729331,-0.0019104864,0.05253228,0.19753219,-0.572318,-0.081977636,-0.47587085,-0.11642203,-0.7324411,-0.23447245,0.21132533,-0.015055504,0.08344243,0.05004431,0.32200515,-0.017608915,-0.04273645,-0.09911401,-0.12513039,-0.13900077,0.43508306,0.067548774,0.2399195,0.12597698,-0.47299224,0.18303618,0.12166396,-0.018508373,0.07366535,-0.6075566,0.27031034,-0.36378017,-0.0906621,0.064818606,-0.14010136,0.035196725,-0.053285033,-0.13601223,0.13289753,0.26750502,-0.12018178,0.35599953,-0.14922215,-0.1942978,0.16456264,-0.055505265,-0.14995658,-0.24335964,0.10727904,-0.13665234,-0.14049532,-0.17646089,-0.04652791,-0.27932337,0.054809783,0.008404043,0.06429077,0.034845624,-0.4146547,-0.010724474,0.16357942,0.113269754,0.020887658,-0.14712581,-0.050498012,-0.012423572,-0.00017284745,0.029509725,0.096015036,-0.19148174,-0.124758996,-0.050267085,0.3383206,0.027625537,-0.13813409,-0.006431696,-0.2172794,-0.06511497,0.025571797,-0.064535685,0.11325352,0.01192329,0.06856896,0.11051018,0.23096348,0.8048419,-0.28991175,0.0042329337,0.32791582,-0.15277877,-0.09367645,-0.055670545,-0.40758008,0.058936905,0.2537074,0.035461463,-0.24014536,-0.034578487,0.22261,-0.19564891,0.52432024,-0.0826848,-0.053325024,0.05054774,0.10005434,0.29239732,0.08133642,-0.22814043,-0.030934,-0.027862748,-0.20996498,-0.3804234,-0.07276094,0.16147165,-0.07767456,-0.39239696,-0.5875338,0.10392683,0.05026329,0.14456525,-0.062132057,-0.05941034,0.345189,-0.16613708,-0.20577557,-0.15049936,-0.062645555,-0.23692286,-0.4814441,0.12659237,-0.028122144,-0.2486087,-0.35517293,0.27236408,0.041083883,-0.29442394,-0.11663193,0.15801054,0.057700615,-0.07876481,-0.27250925,-0.75447565,-0.5813067,-0.19527443,-0.32387683,-0.030168729,-0.683888,0.08120259,-0.19970004,-0.04740939,0.20206764,0.12652877,0.38470146,0.8279125,-0.18408607
-0.31335795,-0.15549934,-0.04981518,-0.22060859,0.19375248,0.23727821,-0.19461045,-0.28906754,0.6008993,0.3456112,0.21745378,0.28784746,-1.1308559,-0.63248956,0.38557643,-0.44438988,0.0044052587,0.1594667,0.61168593,-0.7198756,-0.025429977,-0.24837343,0.21296477,0.12694569,0.00277274,-0.48921943,0.10682819,-0.29497376,-0.30619988,-0.21580571,-0.049377624,0.10759275,-0.16310516,-0.479223,-0.03196083,-0.26806727,-0.052061375,0.0045076944,-0.41322488,-0.5047651,0.10933757,-0.8562875,0.30649126,0.12220954,0.02315136,0.07791062,-0.006645025,-0.34970734,-0.35182354,-0.2752761,-0.017461497,0.018023206,-0.12394608,0.06332872,-0.13545114,-0.6493356,-0.3498634,0.19340484,0.15709394,0.14226459,0.08409288,-0.08117061,0.24575953,-0.33478117,-0.15122066,-0.072279274,-0.08483004,-0.387868,-0.009101896,0.41444695,-0.41665536,-0.097400434,0.50473285,0.7760151,0.28363293,-0.05629895,-0.13519502,-0.41896152,0.1722162,-0.061860133,-0.046214134,-0.04689447,0.055835336,0.30435753,0.16786687,-0.12929137,-0.6466847,-0.61275816,-0.014234956,-0.24795319,0.2713442,-0.13649572,-0.37854558,-0.12036618,-0.2090725,-0.14958611,-0.04523668,0.30308917,-0.10505954,-0.26995,-0.10378957,0.20515966,-0.09887739,0.091980904,0.20821977,-0.31726226,-0.42211118,-0.10329187,0.010781782,-0.41127625,0.14692385,-0.1892728,0.045661174,0.12808198,-0.061259516,0.16091388,-0.22219245,0.0025489277,-0.19451131,-0.29039285,0.09020571,0.030640846,0.3215969,-0.67172503,0.040512122,-0.15725538,-0.21912047,0.17917277,-0.3400379,-0.6347134,0.107077494,0.29000401,0.022445247,-0.039977536,-0.24186032,0.3985872,0.21023875,0.28153637,-0.28488994,0.018064559,0.848129,0.39312238,-0.18009055,-1.1129122,-0.13747284,0.70421106,0.4602256,0.34979203,-0.3709174,-0.5843067,0.26713058,-0.13543557,-0.48438516,-0.78773606,-0.0076401583,-0.242373,0.10467045,-0.49299046,-0.68854445,-0.13548575
0.10747628,0.29956985,-0.029012058,0.08781325,0.079598986,0.09528094,-0.03138479,-0.24584386,0.1647953,0.15995474,0.11766784,-0.054887164,0.08433548,0.07979891,-0.7788268,-0.053468145,-0.24314937,-0.024642762,0.21145783,-0.09988775,0.07810136,-0.15926641,0.17114675,0.2051756,0.37163204,-0.3941438,0.084714025,-0.19414029,-0.2161354,0.09550955,0.12989044,0.032266937,0.047480397,-0.0048891534,-0.7194064,-0.10226576,-0.18132307,0.08000847,0.14377275,-0.42865425,-0.44705746,0.10143256,0.21651495,-0.11004534,-0.12947689,0.15796864,0.05600339,0.19673738,-0.057939734,-0.29382035,-0.0571182,-0.035045084,-0.12117924,-0.16773258,-0.05469415,-0.46124154,0.16286154,0.13133726,0.262631,-0.41951656,-0.028547494,-0.042747468,-0.09017312,-0.15419696,-0.529473,0.13905384,-0.19860084,0.024305569,-0.07697317,-0.08251128,0.021021396,-0.030382013,0.1563947,0.010323907,0.030591354,-0.038832173,0.18354198,-0.26356164,0.079868704,-0.08158783,-0.028137224,-0.0076033715,0.059154034,0.017564839,-0.20952657,-0.058917593,-0.2367377,-0.19575703,0.10953701,-0.39902514,-0.77674687,-0.2542836,-0.2852484,-0.20576303,0.19278623,-0.14954706,-0.009036301,0.44093946,0.18993782,-0.20236568,0.04285809,-0.09786216,-0.10300721,-0.29381326,-0.19466653,-0.08080855,-0.20661093,0.034645464,-0.07352142,0.03298875,-0.35333303,-0.43853244,-0.029009363,-0.14217155,-0.053579684,-0.063529305,0.05780775,-0.027791305,-0.07202677,-0.26199818,-0.18124022,-0.00024872556,-0.16117534,0.14623761,0.07684883,-0.0127223795,-0.073771834,-0.07670226,0.2971439,0.09288606,-0.022111166,0.21750769,-0.0817508,-0.07162595,0.013617658,-0.09092104,-0.0143158855,0.010595197,0.2757484,0.01490809,0.2734081,-0.0684626,-0.06132108,0.406532,0.29932266,0.14889762,-0.054187108,1.0251801,-0.85182774,0.45696902,0.44254333,0.24723572,-0.23554462,0.20363949,-0.33336413,0.48674297,0.3155646,0.37214854,-0.74881977,-0.012482636
-0.13316034,-0.14384484,0.15824632,-0.27971652,-0.71276045,-0.15286136,-0.19888963,-0.015157855,-0.6018568,-0.3642144,0.332897,-0.30203107,-0.22166716,0.38564828,0.09561357,-0.54815006,-0.52955174,0.25068954,0.8154283,-0.7871045,0.23172794,-0.09903742,0.12372865,0.34923595,-0.5089071,-0.2942166,-0.1138864,0.18638264,-0.021362524,0.06859858,0.17251296,-0.37684506,-0.45634037,0.060715526,0.49625012,0.19226053,0.024513915,0.04037106,0.004532217,-0.5740638,0.22137128,-0.057256572,0.0071217567,-0.7666161,-0.004072137,-0.117932156,-0.024306215,-0.19777146,0.04577815,0.070890896,-0.14469284,-0.4144471,-0.02887274,-0.2631054,-0.18704525,-0.6340262,-0.13157743,-0.17668192,-0.2834774,-0.2609857,0.027460098,-0.31299204,0.09233406,-0.4282323,0.18721637,-0.18680581,-0.09823698,-0.38018167,-0.46278495,-0.22909458,-0.01286873,-0.27469572,0.013855112,0.1915217,-0.18670322,-0.13018706,-0.22196108,0.094969735,-0.055751737,-0.011036962,-0.019024791,-0.1560846,0.043792844,-0.07616343,-0.06628318,-0.00015626357,-0.39776954,-0.02653682,-0.07848402,-0.38293016,-0.18320939,-0.08878966,-0.09692132,-0.04633884,-0.075090736,-0.08707349,-0.68613136,0.60097957,-0.31826848,0.27259058,-0.13068004,-0.12986808,0.14848071,0.36784503,0.1326981,0.34005845,-0.10234927,-0.015597296,0.007989347,-0.43279204,-0.46037942,0.26712647,-0.009380286,-0.20926455,-0.07288171,0.028416408,0.15979473,0.069096275,-0.15204068,-0.31267995,0.5110434,0.31908658,-0.53587157,-0.20515834,0.048769865,-0.06642104,0.042804353,0.4306346,-0.52716327,-0.19852102,0.34292915,-0.097809955,-1.2615829,0.22734453,0.23998827,-0.112056255,-0.088207856,0.39764944,0.22752383,-0.02429158,-0.37336683,0.06976435,-0.07953373,-0.89727205,0.08363333,-0.28249404,-0.16731213,-0.68752086,0.09949067,-0.14951473,-0.45549536,-0.2405063,-0.6928324,-0.25556213,-0.4033545,-0.29448777,-0.8844128,-0.082040906,0.7365538,-0.054632664
-0.07057402,0.24835189,0.04381814,-0.13232228,-0.5752784,-0.0023384946,-0.039148252,-0.03572163,-0.3137055,-0.20594998,-0.013986069,0.24026912,0.0007011069,0.042924233,-0.35343274,-0.48197317,0.084666654,-0.033130933,-0.01319019,0.1158733,0.22872065,0.08604039,-0.0015915255,0.17335093,0.05531493,0.13125145,0.2108741,0.26498732,-0.11985997,-0.48607162,0.039905168,0.2605344,0.15326446,-0.22297494,-0.106482945,-0.17446606,-0.008674541,-0.12894344,0.07830846,0.34330496,0.2486746,-0.2928023,0.1454968,-0.002444022,0.045942493,-0.072309524,0.006533398,-0.40055433,0.70474553,-0.029796474,-0.019726029,-0.046680953,0.028151568,0.29224917,0.0028204173,0.06410137,0.052706417,0.23776598,-0.06808413,-0.33581668,-0.097240575,0.1759164,-0.036898933,-0.35117602,0.06180451,-0.24568062,-0.050358154,-0.097617306,0.075571656,0.18541323,-0.14985244,0.16889763,0.1146426,0.24036944,0.108776376,0.17904556,0.29123688,-0.22283308,-0.11732091,0.036453668,-0.07103691,-0.13330998,0.0031116146,0.051326435,0.049763482,0.04841346,-0.20965351,0.07232999,-0.1842049,0.03066605,-0.64155674,-0.52457196,0.0824658,0.040209893,-0.3448588,0.38443336,0.026956284,-0.07411839,-0.043235466,0.045319956,-0.019232986,-0.11849407,-0.0012725121,0.1257093,-0.12032359,-0.20936972,0.32372218,0.12015805,0.017766504,-0.09108393,0.031269085,-0.5659365,-0.14851111,0.08212085,-0.026830476,-0.19282617,0.073044226,-0.14313243,-0.27619272,0.0066491053,-0.25103605,-0.10603103,-0.017962582,-0.13262767,-0.144551,-0.08895934,0.04648911,-0.20363368,-0.23102632,0.04498292,0.039296523,0.033170253,-0.036446046,-0.06929777,0.03280881,-0.16841476,0.0031286408,0.0815972,-0.17579928,0.08017976,-0.40107208,-0.2071373,-0.23426409,0.32728368,0.14522758,0.18626927,-0.46061864,0.52747643,-0.2926022,0.18530285,0.053430784,0.5933891,0.5532446,-0.07291462,0.3339356,-0.11071115,-0.70731634,0.042072847,0.012130059,0.5876165
-0.053180654,0.11733172,-0.26803198,-0.1356599,-0.064459436,-0.11207751,-0.09203184,-0.030589709,-0.20969744,0.25125337,-0.072852835,-0.14005108,-0.31015363,-0.17208263,-0.63366723,0.18939574,-0.18773828,-0.044768717,-0.21656418,-0.06283135,0.27028978,0.028456045,0.09475158,-0.37006056,0.26163802,0.08215029,-0.0066527384,-0.06562606,0.03995072,0.0036678447,0.13391875,0.0014263527,0.04179909,-0.050876092,-0.0016157555,-0.1621737,-0.09557023,0.019381236,-0.039226457,-0.2107311,0.14843449,-0.11428973,-0.02050822,-0.3360877,0.01906961,-0.034859747,0.12840031,-0.34879842,0.32535017,-0.2835535,0.0013781331,-0.055417683,-0.023440825,0.033602666,0.053359516,0.15250118,0.03874827,0.21997544,0.013085418,-0.20542353,-0.041173596,-0.056665935,0.043646835,0.1832542,-2.451043e-05,-0.061267503,-0.009481688,-0.18026435,-0.024254488,-0.23047018,-0.121449724,-0.08939743,-0.083436094,0.12563458,0.07481925,0.06096874,-0.09778447,-0.036108404,0.060120087,0.106526636,0.02465259,0.07312237,0.077791475,-0.09570968,0.15262756,-0.039501417,-0.46308073,-0.044384804,-0.18940604,-0.10167233,-0.254252,-0.10976976,-0.00963925,-0.119907364,0.06741032,0.1705874,0.012888025,-0.258423,0.024166837,0.090850055,0.031821597,0.054233935,-0.01046102,0.04325991,0.14279161,-0.0999931,-0.08534263,0.085424624,-0.017413868,0.012895758,-0.11601001,0.2619816,-0.104409866,0.111758284,-0.023716396,-0.1058843,0.17513867,-0.033596776,-0.06513161,0.02796929,0.14252648,-0.1172824,0.3048578,0.020027569,0.07907627,-0.15030771,-0.07173847,-0.02185042,0.06170148,0.047466464,0.006104989,0.33876324,0.0985746,-0.08194431,0.0005413571,0.020308165,-0.18262987,-0.08660594,-0.06957881,0.057274897,-0.44981864,-0.54718447,-0.7503614,0.36057344,-0.860342,0.047031492,-0.26943263,0.59838307,0.026942855,0.21545714,-0.57785374,0.040374186,0.35104024,-0.1934767,-0.16237529,-0.22284968,-0.46316782,-0.08604213,0.42710644,-0.4569888
0.06423387,-0.2241017,0.054179177,0.04606661,0.06949003,-0.2559275,0.05495513,0.040219348,0.34453475,-0.24422523,0.06808902,-0.49447638,-0.061779726,-0.4407278,-0.061904516,0.3595585,0.021631949,-0.0556432,-0.24909663,0.034934953,0.06494149,0.090463564,0.007255163,0.15968439,0.06903269,0.0079946015,0.112424225,0.02514349,0.09228032,-0.13784987,-0.16969664,0.3383205,0.042169757,0.02185039,-0.13104843,-0.05395247,-0.19513462,-0.030303402,-0.10234596,0.28415182,0.48378173,0.2159843,0.028306995,0.12971866,0.2342608,-0.04961906,0.23370762,0.16661054,0.16565017,0.08832946,-0.066902064,-0.31245732,-0.19324319,-0.1098659,-0.014638736,0.31972298,0.1379421,-0.109257266,-0.03500418,0.14466587,0.04206653,-0.0917218,0.040716264,0.1603995,0.27463168,0.03502511,0.043834466,-0.06802238,0.092558086,0.17475647,0.20211421,0.08586056,0.06226684,0.1145564,-0.16992322,-0.060309276,0.023599489,0.07800192,-0.22246252,0.010430083,0.006549658,0.15931503,0.04927009,-0.02313822,0.012233843,-0.10592417,-0.15545872,-0.055940133,-0.035135224,0.019622214,0.32669964,0.009759447,-0.080560975,0.04261647,-0.008778642,-0.023299804,-0.04247349,-0.03519917,-0.14895606,0.07928175,-0.05888716,0.07435432,0.107056044,-0.12266745,-0.08941272,-0.11140212,0.14175934,0.085347,-0.08089262,0.06413504,0.1009394,0.08893431,-0.015178399,0.035448853,-0.028146267,-0.09566952,0.040339425,0.03368231,-0.4281215,-0.08022847,-0.40439007,-0.5953707,0.011680042,0.025988832,-0.14504215,0.09394846,-0.025139812,-0.22378835,-0.22641198,0.038766798,0.13194843,-0.40164953,0.0997516,-0.36784044,0.10601971,-0.36094373,-0.024329448,-0.015138639,0.08466734,-0.005777608,0.053187866,-0.14548965,-0.37927714,0.08210038,-1.0202856,-0.186796,-0.5927891,-0.9387397,-0.2209984,-0.1714442,-0.030027812,-0.30470598,-0.29943958,-0.30008098,-0.9014961,0.6527429,-0.5264583,-0.88620776,0.48041773,-0.3334967
0.17698716,0.12023649,-0.090356715,-0.078985356,-0.3362157,0.035391726,0.17439705,-0.2867003,-0.10730031,-0.14210224,-0.2213006,-0.081981786,-0.014244338,-0.042908046,-0.37311158,-0.3436504,0.21268648,-0.0899957,0.082826555,-0.27366364,-0.019476112,-0.11404548,-0.111504614,0.04986368,0.0050219907,0.31689188,0.034316838,0.032251686,-0.03230089,-0.072662525,-0.03271647,0.06746,-0.013917625,-0.12510309,0.5083837,-0.5691234,-0.20792817,0.020272007,0.03043375,-0.08945131,-0.6010405,0.14671555,-0.24042358,0.22999145,0.023354707,-0.044390347,-0.28672212,0.09928972,0.2973803,-0.23473197,-0.15534836,-0.14341481,-0.19375637,0.100119114,0.06805385,-0.2369818,0.18551846,-0.37692472,-0.29746664,0.09398288,-0.1299588,-0.3627396,-0.015856268,-0.10675742,0.108647004,0.054154344,-0.059183706,0.19028784,-0.2792347,-0.08933529,-0.056235816,-0.019103443,-0.11322556,0.24325857,0.10715015,-0.0873629,-0.06908585,-0.024424767,-0.14808401,0.07837204,-0.19850163,-0.15218368,0.07818279,-0.18015474,-0.07419765,0.18554154,-0.026099335,-0.18604732,-0.22651984,-0.10289788,0.42572904,0.12211603,-0.2405311,-0.0068985373,0.071950294,-0.36214918,0.075246006,0.076571114,0.031826418,-0.077829696,-0.12806979,0.03842196,-0.13735154,0.002771797,0.16673845,-0.26112378,-0.19243434,-0.045978498,0.09556675,0.21744104,-0.36254385,0.13750426,0.04218211,-0.12032795,0.10663137,-0.054209933,0.2470488,-0.029330377,-0.21120301,-0.11818914,-0.34796515,0.2517722,-0.38842723,-0.014327276,0.16449502,0.055403378,-0.03467292,0.25607082,-0.16720292,0.03881322,0.15733276,0.099795975,0.10909864,0.039046742,0.019578543,-0.17526388,-0.17606537,0.25518474,-0.043859012,0.06768061,0.5036634,-0.44938454,0.058189213,-0.06267768,-0.12647733,0.18147781,0.376166,-1.2038178,-0.27208427,-0.52590114,-1.010404,0.68963325,-0.62492275,0.5061656,-0.6677359,0.23970933,-0.492283,0.34729657,-0.12368494,0.08690174
-0.12667023,-0.045588978,0.07826953,-0.022418758,0.124178186,-0.08431235,0.0026431321,0.14053181,0.22941937,0.25392377,-0.038278833,-0.3862656,-0.3195155,-0.34203032,0.4076267,0.11873686,-0.05041258,-0.08864393,0.02759029,0.108626805,-0.025353855,-0.0670733,-0.14683038,-0.07561811,0.06161765,-0.24941795,-0.21188161,-0.26499814,-0.7219093,-0.6821026,0.081202924,0.012416315,-0.09472648,0.46512306,0.018986344,0.13715692,0.08232563,0.0643991,0.07996361,-0.06718744,-0.24157898,0.1398792,0.060430866,-0.021988904,-0.10756484,0.063825905,-0.097828776,-0.03784447,0.0544893,-0.22086476,-0.06326578,-0.1250706,-0.035048693,0.017135642,-0.0657603,0.2518483,0.5197637,0.118886165,-0.0624119,-0.25485134,-0.22831702,0.22787978,0.15231124,-0.23990849,-0.054062508,0.13600837,-0.19066724,-0.14731787,-0.20614605,-0.027491635,-0.25635403,0.18114117,-0.23118539,-0.40065897,-0.01596381,-0.29174423,-0.006765628,-0.61797816,0.042860325,0.0004275072,-0.17021719,0.2973578,-0.027061265,0.06020375,-0.04658707,0.12022551,-0.26108298,0.16230945,-0.1162199,-0.09045245,-0.27346686,-0.015778493,0.21193853,0.24318387,0.1645614,-0.38617212,-0.015986599,0.21863668,-0.05347608,0.1439202,0.006820592,-0.019321933,-0.0057823774,0.054048825,0.07200156,0.22110409,-0.53880066,-0.028826086,-0.18786809,-0.19897601,0.31211638,0.08388396,-0.059779704,-0.09091238,-0.22629306,-0.005310085,0.4545255,-0.044083837,0.05896311,-0.032088093,-0.5845028,-0.13915102,0.048199255,-0.25924987,-0.06038281,-0.009725237,0.039927732,-0.71676016,-0.26498997,0.09314915,0.092906594,0.048258364,0.14578988,-0.15989496,-0.269498,0.06632178,-0.17152895,-0.07237502,0.20573865,0.14886029,-0.30949134,0.7631419,-0.49798512,-0.001349922,-0.50056905,0.42992422,-0.81815165,1.0107138,0.26338693,0.7505296,-0.5587926,-0.11936067,0.29975477,-0.011249701,0.35553193,0.028316298,-0.021422338,-0.23385087,-0.44702074,0.10347355
0.13562971,0.04053715,-0.091055356,-0.05712827,-0.25094038,-0.13815416,-0.26478532,-0.054515447,-0.08059659,-0.09598012,-0.22259063,-0.1333227,0.09414913,-0.3001026,0.28366,0.17696223,0.07599906,0.1513658,0.10175218,0.08370793,0.15292822,0.09036403,0.25435817,-0.046908226,-0.08892087,0.16791664,0.11079901,0.31192708,-0.05357085,0.16486804,0.06378648,0.21765828,0.15493813,-0.015665382,-0.106848426,-0.081934825,0.09574844,-0.046253886,0.041083727,-0.10236987,-0.25463718,0.043622,-0.19680284,-0.026956812,-0.6479176,0.14082138,0.043594647,0.20478706,0.37555465,-0.032134287,0.03663577,-0.25044945,-0.074250855,-0.13182081,-0.06565791,0.12029494,0.19221047,-0.13430548,0.019215373,0.17400457,0.006827677,0.21546589,0.00070492225,-0.036357667,0.09151434,-0.23425092,0.045019895,0.07247799,-0.1132969,0.14279364,0.05034056,0.08749362,0.32286948,-0.056761052,-0.22302414,-0.29204276,-0.07339829,0.24909869,-0.35980368,0.028947927,-0.04595335,0.09732716,0.013182248,-0.018744018,-0.05340404,0.02550738,-0.24049217,0.030626409,0.1360129,0.07909421,-0.051443562,-0.24545991,-0.1571418,0.026112605,-0.10192567,0.20374714,0.20900503,0.28914705,0.016638631,-0.086897664,-0.06068093,-0.031343248,-0.07772576,-0.11752306,-0.119087346,-0.35503227,-0.28674757,0.08877288,0.04190948,0.00075023196,-0.037166394,0.21307339,-0.18354751,-0.13394096,-0.08829885,-0.086850405,0.331467,0.05465273,0.1833626,0.08883074,0.08422791,-0.2645499,-0.07598029,-0.07105915,-0.026325539,0.2339017,-0.02354058,0.060339194,-0.12788033,0.010029384,-0.013482675,-0.090874165,0.0021816022,0.08289585,-0.08932559,-0.10627178,-0.00014294671,-0.021298602,0.0044737402,-0.05157405,0.38216585,-0.31111977,-0.020604692,0.46451843,-0.32174087,0.24314392,-0.0024828538,-0.31122354,-0.06892233,-0.34760326,-0.42394194,0.12969105,-0.122322306,0.26115313,0.45115814,0.23733997,-0.51071256,-0.4209772,-0.32440597,-0.17590912
-0.24626012,0.06793664,-0.13401425,0.052203037,-0.16569175,0.0029493764,0.082239315,-0.020350194,-0.1263173,0.334944,0.022955686,0.26590508,-0.09514884,0.098121844,-0.35310885,-0.17376052,-0.089519784,-0.07853723,-0.21785723,0.21173248,-0.049904436,-0.0859406,-0.030638287,-0.014564122,-0.024953008,-0.11870806,0.0696621,0.2532489,0.034029808,0.112321615,0.050200533,0.017236287,-0.07482778,-0.0312834,-0.032463364,-0.47870076,0.024611074,0.026175633,0.074462354,-0.26487008,0.055802334,0.0008122655,0.06290099,-0.29526138,0.028547931,0.051138904,0.06980888,-0.022663796,0.41639292,0.065023616,0.013785077,0.0689303,-0.06700414,0.3338507,0.021061257,-0.01555772,-0.088429265,0.3948205,0.062423952,-0.013921673,-0.10221432,-0.014884888,-0.044046793,0.12853506,0.051723078,-0.28321204,-0.015283438,-0.1761783,-0.007352902,-0.033145253,0.04329445,-0.035945136,-0.22021018,-0.12157882,-0.5033393,0.08762133,0.10979276,-0.028260734,0.03835863,0.095545396,-0.55473804,-0.0067605614,-0.13245016,-0.036113683,0.04876946,0.03499101,0.008122848,0.104087345,-0.12339616,-0.22652051,-0.097831815,-0.100001365,0.09925587,0.12377308,-0.07277186,-0.23053393,-0.061282467,0.20479453,0.12651798,0.09414006,-0.01187954,0.08626798,0.07568113,-0.034631774,0.031007923,0.12744847,0.051623687,-0.014486105,0.0145032955,-0.07247958,0.1645476,-0.009792287,-0.29720345,0.030596534,-0.068668894,0.254433,0.28720567,-0.0844683,-0.17932862,0.028474558,-0.121750146,-0.7089521,0.015753882,-0.1928179,-0.11545887,0.11207557,-0.004416977,-0.12258464,-0.041256927,-0.1820814,-0.021871137,0.22553308,-0.094270855,0.069350995,0.20855175,-0.04257797,0.06525875,0.033740003,-0.21796632,0.06400918,-0.37625992,0.36261362,-0.5789199,0.033416327,-0.57761717,-0.3749121,-0.50788987,0.6260141,-0.3129403,0.24665831,-0.66058844,0.23089051,0.871721,-0.31231827,0.55606866,-0.11204015,0.43710923,0.10976855,-0.27232823,0.880953
0.12576751,-0.28807262,0.043263674,0.010848565,-0.11566474,0.06292898,0.18643187,0.10606429,-0.020925011,-0.034305815,0.11359098,0.05550927,-0.12994312,0.24341528,-0.36067924,0.14887819,0.04024288,0.008029501,-0.6607966,0.058898404,-0.02015837,-0.16776696,-0.13350922,0.18909085,0.17040542,0.05956908,-0.22771612,0.017684188,0.07622447,0.0051179705,0.07732456,-0.13674495,0.047128838,-0.14942777,-0.4451153,-0.049122468,-0.01879605,-0.09164549,-0.07025158,-0.363701,0.065023534,-0.13035356,0.10149599,0.082256556,0.15585741,-0.265421,-0.161292,0.0055591124,0.18400574,-0.01588757,-0.13321437,-0.39063117,0.07756182,-0.1432683,-0.00048956316,0.28619987,0.14496633,0.29005656,-0.088528186,-0.11519609,-0.061551627,0.3713832,0.067376435,-0.5621845,-0.013412706,0.1665792,-0.1301881,-0.03055507,-0.005566879,-0.24129942,-0.06017957,-0.6088274,0.2442634,0.29537085,0.0839488,0.09862545,-0.22188722,-0.10010111,-0.35350618,-0.035225585,-0.14259699,-0.03555902,-0.05343453,0.025758933,0.010516026,-0.026455613,0.080570035,0.021170491,0.104465745,0.25358176,-0.03446323,0.2953548,-0.02448763,-0.069418035,-0.30480465,0.25042185,-0.12268526,-0.20977846,0.091862775,0.24648102,-0.01435284,-0.3875494,0.070335306,-0.06036844,0.2067075,-0.00928179,0.047933865,-0.008952242,0.02946134,-0.06333059,-0.2450607,-0.23474671,-0.067995876,0.01740041,-0.031810693,-0.5309504,0.23566803,0.016460365,0.1873643,-0.15658753,0.34480327,-0.17883237,-0.43385404,-0.29179454,-0.0049595213,0.089762524,-0.049464133,-0.017301222,-0.12662634,-0.07595405,-0.2191734,0.4079845,-0.044731166,0.22063914,0.11509682,-0.07378188,-0.20093162,-0.5019706,-0.2984201,0.066805005,-0.53678167,-0.28582284,0.13686284,-0.24008319,-0.2950757,-0.092603445,-0.42780682,0.4688565,-0.11180607,0.4040436,-0.24217436,0.16250156,0.014384645,0.1215219,0.11318624,-0.18147184,-0.33316514,0.2207232,-0.29844385,0.28731456
0.15109533,0.13386877,-0.004448335,0.08942631,-0.21357237,-0.05582697,-0.04141238,0.34287837,-0.21780771,-0.39565662,0.00604846,0.09869375,0.08069005,0.09674401,0.08884841,-0.21178126,0.11527417,0.08999733,0.04548023,0.35826388,-0.195671,0.002082681,-0.20190078,0.36073148,-0.24625137,0.016718982,0.059471395,0.12891597,-0.38632587,-0.03043685,0.015930457,0.42570296,0.08808584,0.19241005,0.38077033,0.11677022,-0.29346693,0.005054467,-0.09318807,-0.226427,-0.21865173,0.0005619674,-0.018542528,-0.8112261,-0.11345581,-0.246548,-0.06873241,0.17546204,-0.36706322,0.023310756,-0.046402715,-0.48216838,0.07738856,-0.2921261,-0.17819548,0.08502145,0.32227683,0.22805601,-0.04848051,-0.26839346,0.027203768,-0.38050926,-0.28475547,-0.23937541,0.10969087,-0.14061737,0.04611732,0.0004914516,-0.052357856,-0.57247794,-0.33994764,0.16431747,-0.03657192,-0.27558237,-0.2005968,-0.11665606,-0.015359868,-0.30000544,0.0014704941,0.091885135,-0.12607074,0.097995654,-0.050759595,0.13758695,0.13010213,-0.49458632,0.18561324,0.066762194,-0.09753242,-0.06197503,-0.35771513,-0.30885088,0.05113431,0.12440018,-0.12248751,-0.34034905,0.16248743,-0.26196325,0.060000047,-0.14361952,-0.22145545,-0.1845838,-0.20416048,0.017936718,0.045870833,-0.024964454,0.16597897,-0.012379926,-0.05492367,-0.049123578,-0.36687514,-0.22247548,0.04993006,0.0627883,-0.2532362,0.10173121,-0.42384934,-0.09334115,-0.055629537,0.03185266,-0.10166178,-0.23996998,0.23296425,0.16890989,-0.06817257,0.09006186,0.0038962564,-0.192974,0.37872714,-0.027599955,-0.34258774,0.106228754,0.07145334,-0.19990563,-0.15155153,0.04925327,-0.0022564717,0.00080948754,0.07237117,0.14139563,0.32876572,-0.3778041,-0.25892395,-0.577355,-0.25227606,0.26130155,-1.1136093,0.18252407,0.45325005,-0.34708533,0.40351468,-0.38428047,-0.02337635,-0.18695256,-0.04370435,0.010878443,-0.23478566,0.33941796,-0.3504703,-0.044829234
-0.1956682,-0.20551711,0.024811538,0.074719645,-0.1608914,-0.0017812126,0.011974804,0.13955402,-0.073400214,0.13792662,-0.03514014,0.11051903,0.022512823,-0.21980974,-0.17693122,-0.048255734,-0.011964636,-0.027406916,-0.16751732,-0.16116713,0.032013077,-0.058982626,-0.2096056,-0.05774999,0.09717298,0.053800363,0.10356436,0.027239712,0.008695759,0.04023014,0.028448101,0.073937476,0.032533105,0.022591727,0.057121173,-0.044162847,-0.106354006,0.015756436,-0.006941776,0.18911846,0.05817448,-0.13371295,0.115236506,0.028754273,-0.1826538,-0.042409085,0.039535068,-0.029905666,-0.048142172,-0.21570961,0.015474957,-0.047324337,0.06844125,-0.09959619,-0.0017567553,0.035751846,-0.068192534,-0.09440346,0.113641225,0.0344791,0.07130877,0.040022746,0.024204003,0.270055,-0.0021017203,0.057894718,-0.07363181,-0.04165039,-0.039273754,0.1103255,-0.03253279,0.16492994,0.04174493,0.13943294,0.043613926,-0.16108221,-0.11281722,0.019812226,0.03774183,-0.09016069,0.0027680385,0.008924837,-0.019762987,0.057106998,0.12648584,0.0312601,-0.07682749,0.09161392,-0.13302413,-0.16490506,-0.022691973,-0.109603286,-0.02266924,0.12876105,0.08359889,0.026352255,0.07207624,0.08321918,0.042076316,0.045845665,0.0021659082,0.015254235,0.11658285,-0.017387817,-0.08103724,0.09400137,0.039350025,-0.13869944,0.10668206,0.062466066,-0.0009238894,0.262871,-0.3043944,-0.03776406,0.054991726,-0.015636273,0.24155682,-0.059924908,-0.054986335,-0.038552012,-0.3352723,0.18450898,0.14688186,-0.10804925,-0.05617945,-0.21196535,0.23464337,0.053272896,-0.12012404,0.019150797,0.0031246596,0.036750678,-0.05204444,-0.19528207,0.27138865,0.0998882,-0.024979765,0.08855266,-0.026077447,0.058896918,-0.1789525,0.023285791,-0.44457635,0.051677182,-0.6208839,0.00559592,-0.28756073,0.07788563,0.78018415,0.36010677,-0.08322889,-0.2632471,-0.770469,-0.31918186,-1.071338,0.23821646,-0.23788242,0.13113952,-0.0503714,-0.833442
-0.25636587,0.09408885,-0.05308022,0.1406283,0.4149955,0.06820883,0.020057626,-0.14775829,0.03753048,-0.36936426,0.11862812,0.08513841,0.24814083,0.3467216,0.059407685,-0.58254254,0.059914894,0.05243665,-0.21201007,0.1958928,-0.025482325,0.025262795,0.17768475,0.13910784,-0.14304934,-0.0003151566,-0.13382235,0.2197478,-0.013117877,-0.21812543,0.17737563,0.011723914,0.09682103,-0.07157753,0.4381633,0.0913113,0.013897662,0.022812948,0.08690389,-0.2588945,-0.06873486,0.02951428,-0.04179645,0.0026652308,-0.1243559,0.14005145,-0.43905905,-0.0682016,0.12344251,-0.055827845,-0.26982665,-0.4752474,-0.057851102,0.04435898,0.09052054,-0.09328352,-0.29881814,-0.118768476,-0.019210288,-0.288224,-0.09209948,0.20698665,-0.07181285,0.5193287,0.078330375,0.11782315,-0.14242773,-0.0708567,-0.021315292,0.136425,-0.12865831,-0.060656678,-0.1338084,-0.2803324,0.2358065,-0.042688746,-0.105169095,0.03504857,-0.20785013,-0.23043379,0.009724838,0.57155025,-0.04384138,-0.018060932,-0.09795339,-0.039936587,-0.021032717,-0.10720469,-0.17932245,-0.13535471,-0.2524595,-0.004259892,0.07907103,0.1263398,-0.061535735,-0.11295023,-0.026006134,-0.41090885,-0.19836849,0.061851043,-0.047404867,-0.051273614,-0.12851237,-0.12096993,-0.11734564,-0.43512508,-0.2914698,0.18183447,0.0439522,0.01890088,0.21383464,0.34709612,0.03748206,-0.5360357,0.031542413,-0.010726029,-0.1589963,0.016759483,-0.39206645,0.0019440203,-0.3120755,-0.13902959,-0.20004265,-0.067997456,0.018185038,0.22255239,0.098069236,-0.19721295,0.1824999,-0.2048239,-0.035233047,-0.07105769,-0.047711812,-0.26409712,0.08904998,0.14706813,-0.116239786,0.11577975,0.036547054,0.04387393,0.5256863,0.11355059,-0.49421227,-0.21963407,-0.05211993,-0.0008001427,0.073511586,-1.1558793,-0.6969522,-0.4827527,-0.03319093,0.23120956,-0.2807926,-0.4839331,0.1929743,-0.90972286,-0.719875,0.26149923,0.30230403,-0.2338635
0.3295074,-0.4635683,0.03431205,-0.22934717,0.3332235,-0.0045648925,-0.11703554,-0.04336564,-0.059315674,-0.086990416,0.10605809,-0.16267173,-0.19526365,0.35655975,-0.23057391,0.32534263,0.08428495,-0.20944495,0.46306163,0.15941839,0.012670191,-0.05545194,-0.2700828,-0.19257659,-0.05344668,-0.21969841,-0.0478014,-0.22649187,0.035183437,-0.11813889,0.059888158,-0.30073762,-0.11444487,0.056770097,-0.17018063,-0.19782715,-0.15583341,-0.08081338,0.03125214,0.1332164,-0.010096074,-0.044329673,-0.1336091,0.015806343,0.0848407,0.018446838,-0.20707396,-0.3616388,0.33299163,-0.13805191,0.0013648344,0.19314107,0.13606727,0.30960318,0.033919744,-0.002219353,0.12646447,0.06959699,-0.2894364,-0.06903068,-0.019524401,0.053348925,0.048153326,-0.013603908,0.013787418,0.1080568,0.07169695,-0.0830442,0.03130611,-0.1869847,0.21440238,0.022997484,0.38146394,0.52913046,-0.4385141,0.08193825,-0.0059296284,-0.2982931,0.13416731,0.04891056,-0.18015231,0.027933657,-0.0463805,-0.03551017,0.058390997,-0.6544255,-0.16059895,0.005031332,-0.07444663,-0.09374667,0.015186043,-0.0793438,-0.07724819,0.14040965,-0.25949156,0.19094591,0.13178588,-0.44421762,-0.020271394,0.17209044,-0.0414209,0.10809333,-0.03142488,0.070772685,-0.060073413,-0.016574806,0.04049982,-0.15656714,-0.31792876,0.10363061,-0.20152894,-0.31898534,-0.091047116,0.00929692,-0.103810005,-0.031420365,-0.31000158,0.009281538,0.25751883,0.1486736,-0.27660728,-0.07607203,-0.20675895,-0.14306043,-0.20031087,-0.19362146,0.22887975,-0.12163397,-0.14964376,-0.1433038,0.11980758,0.4269827,-0.019647289,0.103745215,0.08485309,-0.08645103,-0.103117436,0.16324256,-0.017182136,0.011758181,-1.1123375,0.02142579,-0.51834357,-0.17523617,0.4330355,-0.021525512,-0.40150824,0.5297332,0.16513266,0.6702609,0.08369358,0.43000916,0.043808635,0.2398711,0.1162869,-0.4338232,-1.0191242,-0.7428696,-0.7954688,0.7453425
-0.113079816,0.15624422,0.12826598,-0.13783577,0.39316398,-0.016567962,0.108966865,-0.19673575,-0.23130666,0.11002399,-0.54962945,0.104620025,-0.5454829,-0.06427344,-0.116901495,0.55637926,-0.25239742,0.00975221,-0.3922756,-0.15757032,-0.013976901,0.07699524,-0.2890226,0.058891427,0.09602418,0.18404604,0.36985385,-0.322123,0.053952135,0.2119788,0.11147292,0.22822231,-0.09595532,-0.21705885,0.2640953,0.14647736,-0.28426298,-0.026892986,-0.036061127,0.29212508,-0.15110669,-0.032799337,0.10763715,0.14928682,-0.36151007,-0.04304092,-0.14458413,0.0082755005,-0.39321178,0.2700421,-0.09659184,-0.0013504545,-0.066503294,-0.12833747,-0.040411383,-0.1428197,-0.6714785,-0.052748673,0.021263557,0.13720523,-0.17871518,-0.08727526,-0.2270251,0.08547077,-0.1604734,0.14306422,-0.18720655,-0.36612245,-0.089987166,0.07013027,-0.47350824,-0.041498654,-0.48542365,0.43762407,0.11997472,-0.22661974,0.0015826193,-0.0900269,-0.0850501,-0.10704701,0.054948498,-0.5059162,0.10344306,-0.07789584,-0.0473173,0.11769371,-0.3781284,0.16124552,-0.2658914,0.027933264,0.36681682,-0.29818168,-0.17839277,-0.18199141,-0.1611514,-0.35956344,-0.057968635,0.05809298,0.09942928,-0.24919203,-0.077558994,0.41815412,0.16032398,0.013285564,-0.41382375,-0.27792898,0.35600162,-0.08052831,0.093433775,-0.24326418,0.18093452,0.17416765,-0.015050813,-0.09329297,0.103342846,-0.3646031,0.16608691,-0.01766625,0.06932464,0.04666037,-0.5886553,-0.43084356,0.12800956,-0.015886094,-0.07335735,0.012590445,-0.20275679,0.08512219,-0.011079066,0.07593898,-0.1479208,0.3004175,0.19046363,0.04619693,-0.1752979,0.21913302,-0.06309611,-0.5420238,-0.49645293,-0.052689463,-0.32389662,-0.20984049,-0.114873,0.27983215,-0.23055652,0.466875,-0.20857109,0.094781205,0.07224944,-0.45083043,-0.1685559,0.24392562,0.09070867,0.17723213,0.06988572,0.1441441,-0.35241538,0.16614136,0.04242855,0.15279724
-0.001189772,0.08205882,-0.2602416,0.10344431,-0.057933193,0.25276297,-0.61098737,0.07716908,0.1536056,-0.021062225,-0.36815363,0.2507462,0.66049206,-0.71594536,-0.085713945,-1.3500962,-0.1023122,0.16564451,-0.062459692,0.08822771,-0.20935988,-0.46859556,-0.050926756,-0.43479115,0.006913557,-0.3837289,-0.18550633,0.2453752,-0.13322864,0.5329651,-0.08956664,0.036380548,-0.19615826,0.05295888,0.44428822,-0.2595492,-0.65823734,-0.034915686,-0.017407244,-0.046813257,0.42168245,-0.37744072,-0.002680912,-0.6651634,0.23670113,-0.0111012645,-0.601975,-0.15385662,-0.092393264,-0.16470747,-0.10994389,-0.37787524,-0.38865888,0.014423331,-0.33048394,-0.8083941,0.053335104,0.054288406,0.1643577,0.24578856,-0.10326142,-0.26214036,-0.0042984644,0.13273135,0.43985412,-0.10772697,-0.15820508,0.19048794,-0.1376676,0.19713427,-0.15952411,0.16454068,0.031387873,0.2095792,-0.32599828,-0.042200353,-0.2931509,-0.11504904,0.13657272,-0.16827425,-0.0057449164,-0.33801425,0.06356311,0.19985208,-0.20365153,-0.4835398,-0.46637836,0.019726345,-0.010413956,0.524303,-0.4348758,-0.051749438,0.24812143,-0.059160516,0.14126968,-0.094363585,0.12923484,0.15518786,0.21077333,0.12779477,0.050667744,-0.25531805,-0.032066584,0.06294265,-0.3468509,0.6683551,-0.27932397,0.38095453,0.00012334854,-0.31073436,0.085074365,0.046597116,-0.039469033,0.17006727,0.039629426,0.34079346,-0.34144372,0.04918057,-0.02887327,-0.35913968,-0.7207899,-0.2569511,-0.39031675,-0.0035475907,-0.03988228,-0.16993366,0.1348419,0.0032826923,0.67354083,-0.18943262,-0.032253094,-0.021632003,-0.17589839,-0.4139173,-0.020026602,-0.11561095,0.009728165,0.07187345,-0.4521004,0.015742637,0.62766457,-0.25872064,-0.15232208,-0.8965953,0.5111084,0.15693033,0.28670004,-0.045808975,0.20062537,-1.1062839,-0.4339918,-0.22458716,-0.8327241,0.2242768,0.040342167,-0.4491655,0.052589037,0.263215,-0.8393017,-0.30987644
0.28057325,0.27176037,-0.18308797,0.07877096,-0.11820361,-0.45781103,-0.038494386,-0.06496334,0.27065983,0.018007126,-0.20796008,0.22442517,0.038286433,-0.045823194,0.06432074,-0.053881347,-0.11836042,-0.26035237,0.014448409,-0.1377095,0.025264466,-0.10285659,-0.07658004,0.01847466,-0.1266613,-0.19506247,-0.04239337,-0.39963567,-0.55654854,0.10118405,-0.12685464,-0.49512553,-0.058719732,-0.2932898,0.14238127,0.16028649,-0.041871514,-0.04349383,-0.25336078,0.33310503,-0.26177576,-0.10739214,-0.06110178,-0.35965174,0.32703975,0.07648589,0.039705995,-0.29123062,-0.20706555,-0.1546386,-0.27342743,-0.012862703,-0.04268444,0.44951257,0.05182355,-0.0483756,-0.5407019,-0.19367813,-0.1277962,0.21536055,-0.22550629,-0.26798308,-0.18974409,0.02096294,0.40927067,-0.1047408,0.0016053404,0.0596439,-0.025644777,-0.038903363,0.29943696,0.15812221,0.0729129,-0.49696666,-0.11733598,0.020104162,0.19233242,-0.27782205,-0.03600968,-0.20203544,0.034892403,-0.5049163,-0.036197636,-0.036677953,0.13275185,0.13332616,-0.12330638,-0.13747859,-0.36726192,0.03460542,-0.35121173,0.05487836,0.31038725,0.106678456,-0.15141219,-0.06860406,-0.29483452,-0.31043488,0.13046724,0.30284232,-0.18193634,0.05151719,-0.05594411,-0.1811786,0.0172751,-0.029127253,-0.04447383,0.3218862,-0.06211764,0.20535372,-0.06471455,0.2876208,-0.29037452,-0.13929482,-0.20225175,0.25491658,0.24507998,-0.010606036,-0.35483816,-0.26887447,0.2637475,-0.031232677,-0.3231528,0.12631285,-0.35610482,-0.024640841,0.1221198,0.35152486,-0.18483593,0.009137102,-0.12370335,-0.06092391,0.26943338,0.061225552,0.06864168,-0.13174552,-0.1469595,0.21754694,-0.46805698,-0.37417337,-0.14173229,0.20727791,-0.32513863,-0.03710406,-0.03277775,0.02453297,-0.013534495,-0.19249481,-0.20401223,0.018369399,-0.09171665,-0.18344626,0.035029978,0.14265995,-0.17323439,0.05785602,-0.28980753,-0.4299446,-0.2899545,-0.022622919
-0.088504076,-0.14418873,-0.028538337,0.09060015,-0.071960375,0.046633832,0.043433543,0.034879692,-0.51477283,-0.041861366,-0.01323895,0.084842496,0.15011166,-0.105136015,0.43683845,0.082322836,-0.3101895,-0.081609614,0.09043053,0.012503011,0.29685616,-0.048253983,-0.08058694,0.29604962,0.042879835,0.10487566,0.13723813,-0.25127715,-0.24596526,0.2740374,-0.200383,0.25989556,0.013472989,0.0028171747,0.18786153,-0.16305426,-0.0020558953,-0.17170803,0.06180606,-0.4273059,-0.55027527,0.07983201,0.17563023,-0.23536175,0.028083678,-0.76465935,-0.18453647,-0.1330074,0.29972017,0.27802458,-0.013589818,0.33564794,-0.009670633,0.06431147,0.010031536,-0.546399,0.15894493,-0.1227082,0.119672984,0.3031414,-0.60197127,-0.35439762,-0.06879289,0.061650816,0.14425223,-0.0425135,0.10998516,0.00013665877,0.04969363,0.29329488,-0.0051809317,-0.120858654,-0.00010713833,-0.03494371,-0.036345545,-0.2856813,0.24026711,0.15206887,0.05914439,0.00241659,0.017404342,-0.34166405,-0.013572918,-0.24969597,0.09712674,-0.15584278,-0.7273033,-0.008126406,-0.5306413,-0.23620264,0.18870217,-0.29677275,-0.009292082,-0.015349627,-0.19351411,-0.4261573,-0.038696967,-0.15364872,-0.066427924,0.09779807,0.10615341,0.2005789,-0.21355459,-0.053827763,-0.06250892,0.20833778,-0.025706787,-0.21426667,0.07969229,0.116400346,-0.23668252,-0.4552381,0.08447592,-0.19148915,0.017039668,-0.11570648,0.31663707,-0.19173385,-0.17057788,-0.50577486,-0.11311503,-0.16380435,-0.0808945,0.009737101,0.06316709,0.21210967,-0.26065722,-0.0090443725,-0.17298985,0.12855542,-0.10349325,0.2598409,0.044488005,-0.29502526,-0.17596832,-0.036693767,-0.14243953,-0.011618902,-0.020573547,-0.07310029,-0.3429378,-0.5357452,0.12335233,0.040945377,-0.36712837,-0.27270362,-1.1228046,0.6438524,-0.72385174,0.022380339,0.029996943,0.059394408,0.14663313,-0.1411465,-0.55618393,-0.27330977,-0.3771573,-0.16196209,-0.7973017,0.25848317
0.0038177092,-0.05108502,0.042101398,-0.017263481,-0.09231535,0.051008254,0.18399192,-0.20023595,0.058827378,0.2134205,-0.09827068,0.33118948,0.18885097,0.031936683,-0.08724346,-0.04916841,-0.05976573,-0.043453075,0.12938091,0.09291928,0.15178293,-0.14650065,0.19247913,0.08614684,-0.0020655459,0.09032051,0.03745879,-0.0009452882,0.18989478,0.040089857,0.076870814,0.047742676,0.062368646,-0.10071961,-0.27164432,0.12414766,-0.115710355,-0.12662813,0.09969341,-0.21567471,0.29078794,0.007129569,-0.11578129,0.034418095,-0.042987045,0.062352438,-0.5934311,0.12075004,0.0841487,-0.0678033,0.03738417,-0.15362412,-0.0689887,-0.0063686604,0.054376565,0.23526204,-0.08999319,-0.57921666,-0.29906434,-0.40441677,-0.059016578,-0.18856607,0.035729058,0.23015015,0.021996345,0.23293619,0.08269757,-0.10535939,-0.5618546,-0.2720644,0.20867608,0.01938028,0.0178448,-0.08652113,-0.06256158,-0.060769957,-0.20100744,-0.24150279,-0.10062075,-0.04485288,0.055544734,0.19722074,-0.054130066,0.057450533,0.036395796,0.07037307,-0.028961034,-0.140556,0.23218474,-0.09929922,-0.035069067,0.021215683,-0.10042882,-0.17040995,0.038520765,0.21652499,-0.03818594,0.1705997,0.1329681,-0.03239765,0.050929625,-0.10753754,0.091339715,-0.026805524,0.13504902,-0.4119659,-0.23076703,-0.03822377,-0.07010312,-0.1740196,0.17994487,-0.13857667,-0.3978226,-0.019191165,-0.0945816,-0.14589071,0.17522635,-0.0028413185,-0.51729363,0.18772204,0.117538184,-0.14453435,-0.07077995,0.00042644204,-0.21273649,0.1036571,0.035404626,0.3976932,-0.121349216,0.08904772,0.017067118,-0.38771904,0.071847364,0.22089855,-0.08391024,-0.07692925,-0.17426075,-0.09490066,-0.0099789305,0.055601083,-0.21233834,-0.18621923,-0.36967635,0.21450949,-0.3552092,0.14878118,-0.04589008,-0.72281367,0.007530636,-0.60183007,-0.16848479,0.3780379,0.014360462,-0.10407827,0.16762911,-0.110806175,-0.399582,0.33279446,1.1839534,-0.44282034
0.0130211385,0.022198021,-0.09836157,0.14610742,0.0515559,-0.2208495,-0.19572264,0.03417942,-0.42289737,-0.29185092,0.054830555,0.5390223,0.26876488,0.073840655,-0.16356134,-0.027782425,-0.18725356,-0.31396434,-0.6730618,-0.015303717,0.18811962,0.002686865,-0.17377873,0.15283653,-0.067571804,0.036330342,-0.2527741,0.026828462,-0.44185808,-0.22503063,-0.17697422,-0.03719444,0.07327605,-0.0043917666,0.09501251,-0.16753185,-0.13407703,0.055137914,-0.0019209604,0.016973395,0.45819882,0.289459,0.2053343,-0.02514206,-0.084876604,0.056900654,-0.029720038,0.05535495,-0.6881598,0.121577196,0.082690634,-0.23378955,0.16084576,-0.03486125,0.06889299,0.18351859,0.10789152,0.0720668,0.014904951,0.010275257,0.09254085,-0.20765088,-0.008141614,-0.9245284,-0.023062503,-0.013841059,-0.21812773,-0.039164044,-0.11799413,0.22320981,-0.36623532,0.18224832,0.13297297,-0.0018760369,-0.3476006,-0.36811793,-0.099867545,-0.3151709,-0.08274558,0.16971871,0.072783634,-0.18868408,0.05855444,-0.0021367962,-0.21823147,-0.19529766,-0.045129176,-0.08852965,-0.20422348,0.06518142,0.3860128,0.12643585,-0.26980063,-0.006012401,-0.024498153,0.21830605,-0.16724406,-0.47731167,-0.0053245453,0.08629047,-0.05305229,0.123541005,-0.3156993,-0.24321617,-0.2818675,-0.5694304,0.1348083,0.38075987,-0.03562805,0.19809312,0.15570068,-0.08521579,-0.28669438,-0.29165557,-0.069472685,-0.011618654,-0.27577776,-0.022973271,-0.30185094,0.048389617,0.75542885,0.22973636,-0.31131473,0.07315084,-0.16968311,0.100209706,-0.37117317,0.039490867,-0.38031095,-0.04744785,-0.16044544,0.04036603,-0.26500365,-0.079596475,-0.22335832,-0.27140242,-0.07425456,-0.2832958,-0.08925371,-0.017542614,-0.16515699,0.0037183955,0.0073662777,0.071630396,0.9128653,-0.1539616,-0.25258097,0.3005517,-0.10583226,-0.17776506,-0.3654687,0.13192406,-0.25764343,-0.008853876,0.3394092,-0.18599226,-0.53167945,-0.15437678,-0.5491816,-0.12853377
-0.102470614,-0.10795809,-0.1269226,0.15331504,0.60810894,-0.2846432,-0.4753585,-0.32544,-0.26726675,-0.2177697,0.027509738,0.32720777,-0.04884635,-0.013149829,0.11990197,-0.16102892,0.6176503,0.023737613,0.13210659,0.058639757,-0.53602284,-0.48894274,-0.64288443,-0.281486,0.06789302,-0.11194083,0.086632095,-0.5607924,-0.44016606,-0.21233118,-0.19657242,-0.5614303,-0.13109922,-0.21408078,-1.5080076,-0.12448445,-0.060781125,-0.16147235,-0.32716742,-0.15683742,-0.4394983,0.0047671613,-0.55104315,0.1799181,-0.038318347,-0.13373747,-0.104486,-0.09243793,0.23619035,0.1764318,0.098757125,0.10621795,-0.22925471,-0.39553845,0.0018465274,-0.3839429,-0.17192684,-0.07343036,-0.23207948,-0.6319909,-0.0425487,-0.35944992,0.11811834,-0.21166426,-0.25868833,-0.5308469,-0.058371145,0.27179423,-0.89171576,-0.9916258,0.07866796,-0.1981196,-0.26367086,0.36943093,-0.20812793,-0.032833364,0.24310233,-0.5632334,0.09144751,-0.10256463,0.06339646,0.001291355,-0.18040216,-0.3647996,-0.3439747,-0.908836,0.12525535,-0.70591736,0.05208145,-0.7691414,0.3310039,0.034025174,-0.12434259,0.09816256,-0.10016411,-0.05395185,0.31016108,-0.6055303,-0.2659996,-0.08776803,0.07101325,0.11226746,-0.3954055,-0.024572065,-0.21703085,0.019562015,0.48422703,-0.3344021,0.094912305,0.09787178,-0.58924663,0.6940454,-0.13408823,-0.2745319,0.00020105312,0.55478644,0.15952687,0.08750374,0.0543784,-0.12643835,0.15671751,0.5870545,-0.3669066,-0.03984028,0.16050501,-0.27277765,0.12678888,0.19252153,-0.3906705,0.05112687,-0.3930202,0.29047093,0.04303691,0.64339286,-0.12679438,-0.042697605,0.106202036,0.2283054,-0.11326855,0.04561748,0.6298934,-0.62735486,0.16224468,0.09946778,1.0344307,-0.19114332,0.3777641,0.001639809,-0.94994545,-0.23381735,-0.3588546,0.03173351,-0.862818,0.08112249,-0.83004737,-0.1388274,0.4264911,0.50077224,-0.3345349,0.39484325
0.27698642,0.08764075,-0.0030056436,-0.13019098,-0.23068045,-0.0812713,0.08395152,-0.16246504,0.19499177,0.08560655,0.043288037,0.09351152,0.21742277,-0.589796,-0.068159826,0.54286087,0.3340758,-0.045084484,0.2421719,0.050964776,0.081629835,-0.040008098,-0.07220054,-0.14349797,-0.06410552,0.10681712,0.13382076,0.025198964,0.12274849,-0.106086805,-0.0497168,0.010145827,-0.06420831,0.006913029,0.14368632,-0.026715474,0.09360305,0.03408204,0.05120561,-0.044824634,0.017372865,-0.031623915,0.034083836,0.050178334,0.07542149,0.04791617,-0.22114931,0.00738003,0.027318269,-0.05068535,0.06538888,-0.058297515,0.0039758836,-0.11645071,0.045853138,0.0010205748,0.13034786,0.046578504,0.034841843,-0.118577205,0.008478264,-0.061131436,-0.05314876,-0.17731313,0.1593741,0.08716412,0.015977832,-0.15319416,-0.34529757,-0.27570057,0.084710844,0.02301293,-0.062512085,-0.10502746,-0.02685653,-0.072837636,-0.00562194,-0.22984128,-0.09912318,-0.16385382,0.12202585,0.017037444,-0.057152484,0.12584522,0.022234008,0.09677502,0.09647196,0.069522314,-0.09530642,0.07044371,-0.28652564,-0.1077781,-0.19133341,0.007990334,0.16616333,0.117170885,-0.006928665,0.14691035,-0.027015124,0.021300828,0.025086306,-0.047144324,0.041987997,-0.05016833,0.13446364,-0.25832236,-0.1100606,0.0038506754,-0.053726695,-0.09876863,0.2096003,0.31848964,0.0033887015,0.09703436,0.082229994,-0.15488996,0.18101653,-0.016503068,-0.07073248,0.000937325,0.11439312,-0.07283157,0.02476126,0.048583634,0.0947151,0.24824795,0.1083802,0.2597864,-0.035869695,0.14271441,0.009830744,-0.12306084,0.007860832,0.23291543,-0.057477273,-0.1830136,-0.06640922,-0.16018759,-0.051391542,0.063515045,0.63786215,-0.19088507,-0.41087392,-0.10490872,-0.7159513,0.07350545,-0.020329632,-0.7352876,-0.32511482,-0.7125847,-0.68878275,-0.43495792,-0.21410295,0.08085818,0.008132137,-0.28969413,-0.33329275,-0.20081383,0.9769493,-0.6168216
0.34337455,0.17605907,-0.3519734,-0.2845524,-0.26984337,-0.16745447,-0.03677483,-0.2821837,-0.14084637,0.280846,-0.21240476,0.46203098,0.35376573,-0.462173,-0.27558276,-0.2336454,0.09136462,-0.52019334,0.2900949,0.2439574,-0.605629,0.13234042,0.27494672,-0.24956787,-0.030450962,-0.2681652,-0.16141137,0.093229316,-0.06556296,0.10268547,-0.7038236,-0.33292097,-0.021820484,0.24292764,0.6042083,0.6472607,-0.47633332,-0.2571595,-0.8158261,0.085891075,-0.13963518,-0.6769547,-0.49605164,0.29022756,-0.01743189,0.11773322,-0.44075143,0.2506653,0.41624215,0.015983574,0.11739835,-0.10204493,-0.5459212,0.1458404,-0.297384,0.45769235,0.11405045,0.3670305,0.117558956,0.46588334,-0.10555282,-0.42501894,0.21519949,-0.39115402,0.49835736,-0.7937976,0.07207105,0.16590422,-0.2222323,0.68193007,-0.034850106,0.061812393,-0.11341616,0.0791137,-0.054935224,-0.18061286,0.089113265,0.3143699,0.22208643,-0.10902977,-0.34051186,0.07391587,-0.07933954,0.41110903,0.18496074,-0.40935266,-0.15051216,-0.31231168,-0.4307369,-0.7547742,0.19021033,-0.23676792,0.24408603,0.12058912,0.05302615,0.07029942,-0.40265444,0.19154648,-0.12179263,-0.1323372,0.014283697,-0.29008576,0.027208377,-0.38158226,0.0026506437,0.2615309,-0.3054263,0.24794355,-0.04503799,0.1297431,-0.8056195,0.4481845,-0.12973654,-0.03103358,0.0660579,0.2159918,-0.4309025,0.0895805,-0.9403932,-0.089207344,0.1295646,0.5117701,-0.7354349,-0.0055518835,-0.41095513,0.055874187,-0.15329787,-0.73185456,-0.48041865,-0.28810003,-0.19516632,-0.03020706,0.14086974,0.032099582,-0.26291415,-0.34833005,-0.10568373,0.5327058,-0.5310835,-0.08589174,0.34811765,-0.6329533,0.1758862,0.26921734,-0.4016756,0.22057216,0.166134,0.14954282,0.23627542,0.120943904,0.038654603,0.41602042,0.050316535,-0.038030174,-0.17081222,-0.21856959,-0.35363907,0.09060401,-1.7023344,0.33375767
0.20076628,0.05373761,0.04230623,0.1351513,-0.18376568,-0.07512326,-0.16908218,0.15513246,0.21833695,0.030489147,0.050369225,0.11387079,0.038514134,-0.62363076,-0.21678245,0.6546679,-0.34397498,0.07971285,0.03623729,-0.1601291,0.1570199,0.10036532,-0.028366858,0.14265762,-0.15809155,-0.10645746,0.02868795,0.20302959,-0.027265176,0.116962954,0.07688648,-0.08269035,0.025231987,-0.05319292,0.114276625,-0.08686325,0.07884849,-0.22501384,0.06348154,0.26515147,-0.06947277,-0.03913352,0.04491848,0.19116417,-0.050406557,-0.048143387,0.1415357,-0.06609772,-0.24158257,0.22325619,-0.004431763,0.061494205,0.20967674,0.066858694,-0.00078128156,0.18445185,-0.042528633,0.14346024,-0.1206697,-0.17143029,0.016057985,-0.06822275,0.13719979,0.06271987,-0.18639638,0.05208333,0.09496294,0.09204369,0.17131211,-0.31512263,0.22705854,0.042720255,0.45320794,0.07535239,-0.18478455,-0.06806101,-0.28453308,0.13422026,0.17418875,0.09025564,-0.037694085,0.08587262,-0.07260734,0.024235573,0.07591761,-0.18662158,-0.17493089,-0.0196467,0.03947498,-0.17263651,-0.0041661975,-0.052625045,-0.23835514,0.08328248,0.017970255,0.1454748,-0.034933016,0.21611491,0.07787166,-0.08926254,-0.079792,0.047351588,-0.0077575133,0.109334216,0.050273824,0.22593473,0.057538144,0.21854217,-0.0042730626,-0.10233922,0.11934991,0.24267296,-0.13546777,0.09141424,-0.09964828,0.13952361,0.048224296,0.059792202,0.08732127,0.052284986,0.10185422,-0.10288754,-0.024783412,-0.055465072,0.13485648,0.064847015,-0.14566956,0.063066386,0.038904093,-0.0401725,0.08809614,0.09188123,0.12523527,0.103043675,0.120690405,0.03685728,0.12274477,-0.09678637,-0.0106364,0.03499601,-0.95711267,0.074441865,-0.18012337,0.37954393,-1.3259571,-0.027175605,-0.7216466,-0.08800184,0.37307832,0.13561335,0.45633164,0.06762511,1.0717788,-0.6019545,-0.060135737,0.2729006,-0.45757455,-0.18765199,1.2218918,-0.220976
0.06422277,-0.0012745651,0.07881898,0.116601,-0.17735857,0.03999185,-0.104930304,-0.30241024,-0.31261885,0.12647372,0.038543772,0.031297702,0.19420892,0.2331202,-0.35897157,-0.5532818,0.16796127,0.27172303,0.1483675,0.1894935,-0.1837055,0.112586215,0.21372321,-0.3058835,-0.007892965,0.45424992,-0.083176605,0.08870554,0.06436325,-0.30258477,-0.029384345,-0.20845386,0.241471,0.12593696,-0.038265616,0.15507591,-0.09594011,-0.0002541237,-0.013974622,-0.20209883,-0.40363777,-0.32063243,0.18740551,0.06699664,-0.006522007,-0.3831141,0.16156685,-0.34788114,-0.3673761,0.03446104,-0.22140847,-0.17813227,-0.20946217,-0.04325058,-0.4176494,-0.3065623,-0.08069146,-0.61831677,-0.25604987,0.0793516,0.20492077,-0.12300434,-0.24589878,0.5268411,-0.12189479,0.051579762,-0.05615517,-0.1298793,0.05193858,0.22789422,0.59915125,-0.08288421,-0.006858358,-0.15773611,0.20013106,-0.20350692,-0.036399502,0.18268755,0.025715636,0.029878553,-0.5620399,-0.042134438,-0.11283544,-0.23804377,0.17360228,-0.24096927,0.47978908,0.1064315,-0.1384174,0.08091416,-0.63161045,0.11787765,0.013573936,0.08927673,0.12974888,-0.4783321,0.10965012,0.08931958,-0.24464135,-0.390665,-0.07014266,-0.23649639,0.20267554,-0.4541395,-0.17048785,-0.14263572,0.020179164,-0.13998379,-0.064292714,-0.30863044,0.18789883,-0.160339,-0.4071407,-0.23053703,-0.0558179,0.05583821,-0.04189666,-0.0132289,-0.14270012,0.035700697,-0.26654688,0.21364582,0.034847792,-0.45593816,-0.19570558,0.041497353,-0.17420347,0.22079481,0.4662849,0.03293466,-0.06789348,0.25321168,0.01178916,-0.42495587,0.13903603,0.15597896,0.12556481,-0.12728432,-0.32914528,-0.005686246,-0.260257,0.11893271,0.22497927,0.75104505,-0.21906662,0.20497523,-1.0175457,0.49245074,-0.3293139,0.08655991,-0.24129023,-0.16385937,0.46244025,0.07848471,0.46402898,-0.044005115,0.120408684,0.18452033,0.3098114,-0.26794815
